solver_type L2R_L2LOSS_SVC_DUAL
nr_class 12
label 32 33 34 35 36 37 38 39 40 41 42 -1
nr_feature 4837
bias 0.5
w
-0.02130255950976919 -0.001571843462162402 -0.02562296084174665 -0.01061207497011617 -0.02002113611375771 -0.003075733159005411 0.01603370397131413 -0.008807632930605878 -0.01670657941653121 0.01462584210954943 4.67730689223168e-05 0.00220318793338339 
0.01218916984460111 0.01151668268390056 0.01212326968713529 0.04291705087574047 -0.0293472738108579 -0.005993160102554501 -0.02316158446834797 0.001245757145460026 0.03426752961089986 -0.006337128046973866 -0.01630063106858715 0.007414045906151762 
-0.003033145463559244 0.0429574294967968 0.01346826429286395 0.03987146670380703 -0.01378411955917255 -0.01066803772287858 -0.02254009032219974 0.003384518670678411 -0.004679782450817362 -0.02660400554581787 0.002880363720961998 0.02553285047936824 
-0.0006550892987925869 -0.02920109551803734 -0.02856042247118803 0.007258909881038003 -0.01292700310753717 -0.01237185662855637 -0.05318259915805872 0.0153479082072626 0.004579331889667348 -0.02874768443177387 -0.01034168404858104 0.03954839051990861 
-0.01059575404902269 -0.02670130571618109 -0.0281658577618575 -0.0247045628018102 -0.0115462428373027 -0.0142060809326997 -0.007128310072019693 -0.004723352066984252 -0.05721963128494847 -0.03768580294983562 -0.01394081446031846 0.01409357983988004 
-0.0005903185316265913 -0.02944974076610538 -0.03693025909262304 -0.002573936243885654 -0.009054869878342425 -0.009777653629491552 -0.05431405290196396 -0.02361588289632165 -0.0113537714100549 -0.01389847946187155 -0.02249057117712526 0.0545756857833108 
0.01515374737700094 -0.003187476835858381 -0.04290192892765524 -0.00167711201508288 -0.009623063688707478 -0.005034420292605851 -0.04843658404689425 -0.02375507415823675 0.001445363920735356 0.001287161236691551 -0.01095348763018821 0.01907379750423707 
0.001459271313296418 -0.004344366409508796 0.005280663956763071 0.02115540068996236 0.004846034319445765 -0.002765356688183555 -0.04602848127903886 -0.01729686258163193 0.02858479095825538 0.0001012970288097387 -0.01589526372285119 0.009251678797804912 
-0.02256607283651563 0.006753234682231925 0.002251024300305687 -0.03164244585570618 -0.007946053298429906 0.003343079692592504 -0.002098244094040489 -0.01214846072187652 -0.0221291051322838 0.002392891155269022 0.001480580784653945 0.01311172637619288 
-0.01029776460439947 -0.002181811102317166 -0.0457043721224951 0.00767148128590816 -0.01262019126721345 0.0129725058655007 0.00418779237740834 0.0006840839431936224 -0.05908959488132125 0.01689698937448528 -0.01303170680601339 -0.02069047894146407 
0.008799361573716252 0.0107815069102348 0.02386472164922186 0.02054006612009962 -0.006181350081964201 -0.009341820193764613 0.01300595982627773 -0.03025004209497418 0.02803187770194153 0.02057236115505478 -0.02105058723011303 -0.01062301495121077 
0.01509551177948516 0.01050770306189329 0.05851954837857563 0.01451814599200671 -0.007960193831702676 -0.009183443703856726 0.007270939820354877 -0.01541396284028736 -0.04617916747325282 -0.02300155081792951 -0.005144670697694806 -0.06834514794639916 
0.006472790895946449 -0.08441317552310437 -0.01053767698768239 -0.03234958995742841 -0.001456824241556919 -0.005773852072767267 0.01049386733330173 0.04688487403904206 -0.04200756463996125 -0.04849321413288706 0.005107921640091101 -0.04807778141897102 
-0.01139558826631779 -0.0349925717314986 -0.0569720804517038 -0.03975274143659215 -0.01472704992998402 -0.01668421021712488 0.01231089094111241 0.0173947202475975 -0.04163545004476053 -0.0649983592050957 0.01832457709545016 0.002775687985091143 
0.002641034344883675 -0.02547307854172563 -0.04151870978936498 -0.008092537945442018 -0.006417378236717775 -0.02071292251172712 -0.03776057181867273 -0.01864295860190826 0.01599758751484365 -0.02657660717480357 -0.0299308957090934 0.03638065215958233 
0.01099497923441402 -0.01200041853942956 -0.01245019103665687 0.005322233721137907 -0.01295766352026627 -0.01020004743284103 -0.04336463683638973 -0.02959892380747043 0.01855418514821057 -0.01768719507303926 -0.00780123176491112 0.01121550190651673 
-0.005396831911355385 -0.009423464404441979 -0.01962316999806113 0.01639749558428371 0.01448830512292117 -0.004621305413570969 -0.04397747720667752 -0.01462991148006407 0.05122509781263759 0.005810986080245395 -0.02362925480832418 0.003559278595470834 
-0.02076047170393044 -0.01571238311105752 -0.01570848993922997 -0.03690920171201809 0.001745784709040399 0.01535698123993576 -0.01662240199697071 -0.007855310626122634 -0.02303639926478103 0.004631795035858519 -0.001296759853930398 0.01102334690908211 
-0.0164223446778332 -0.004726770358627086 -0.01291541995114506 -0.03462360182275608 -0.006803316667756162 0.01550221462193114 -0.01672193186972779 -0.007092084599307617 0.0003908925106857163 0.01745169467011588 -0.002361987241609929 -0.01515561454420331 
0.01485674433465954 0.01023201044146592 0.007373643271520429 -0.03370799893391115 -0.01779039953446461 -0.01946930554573633 -0.01107326648430445 -0.008273971430219969 0.05891371741889794 0.008253366106335052 -0.03881601055630988 -0.006181867985153668 
0.01372853328901952 0.003080261724363831 0.02497707416680069 0.005731059530864644 0.005463275072734333 -0.01922921440036562 0.01361028799572239 -0.0005768690607797078 0.008074188186081797 -0.01190469486529301 -0.02025729397612273 -0.0199806059635035 
0.0005064489259470562 -0.04965798696586327 0.01330702153958413 8.16639214235558e-05 0.003746107217147558 -0.02242049430391492 -0.03127498114398481 0.01859750766843516 -0.02234123181405614 -0.02203780374348015 -0.0124771283495608 0.01369543175397435 
-0.01463867760719246 0.01877572624996789 -0.04040323753719736 -0.03457040860190039 -0.02256787838321184 -0.0283901753429318 0.01529300047227357 -0.003796255314914938 -0.03025822737679384 -0.00526184251398 -0.0141627044564734 -0.01502100744236249 
-0.008104018924177728 -0.03323005536285085 -0.01559866836331054 0.01347430112047066 -0.002506028772169141 -0.008547306154907871 -0.06770472805456579 -0.03042603896726838 0.0006617720911562207 0.03551484427342524 -0.01380961679193035 0.05446550183873707 
0.01132237772968041 -0.008766144566502541 -0.01777789775419428 -0.01668385759234303 -0.003822827877911781 -0.008681750947630063 -0.04455495104417637 -0.01417121773514833 -0.02671629866711387 0.02520370110823554 0.007763615646465241 0.007860738464930928 
-0.0004370864554260711 -0.02632685588241428 0.06016342208164153 -0.006680787113684253 0.01406918554688808 -0.003374449070089111 -0.04209415884206132 -0.009525337483416352 0.02071022555183479 0.02625195114631962 -0.0116388193958299 -0.0411597418362933 
-0.01685756798577044 0.001919407929395709 0.04604926732389102 -0.01720867576562638 0.008952091083855578 0.02201919107525998 -0.03469980783245762 -0.006510609449862992 -0.007504976245020294 -0.002273205444657438 0.01071374929558332 0.002934570807189364 
-0.02525998647189975 -0.007505169664412743 -0.01411404378163347 -0.01734913301967147 -0.002146311101023912 0.01814277008893207 -0.004599937196222069 0.001346159556227163 -0.001365744793800522 0.04752363838674074 -0.01548430065548924 -0.02677807673025362 
0.03330385571304259 0.007402127662841531 0.01098939233348217 -0.02722560617847524 0.006403469453316798 -0.01514958533135975 0.05401878988662333 -0.03028787287110211 0.01628257572639602 0.007513153733171878 -0.008714345442596982 -0.06572634470817146 
0.01015536807383784 0.0005815492644012889 0.04242143480144996 -0.02040461691500177 0.01076782250706624 -0.0285240742247321 0.03146099799532934 -0.001945395196850719 -0.006344180918675175 -0.02302698464768049 -0.00358213273055475 -0.08969584473792082 
-0.01307098897880894 -0.05364400565690041 0.006587275502040588 -0.02193220491212779 0.03937966760316578 -0.03120768593708486 0.01894753950482392 0.04709823814074704 -0.07122734817384375 -0.02520193828840844 -0.02843327487112446 -0.04511111096090401 
-0.02185181832644773 -0.0008943036918794972 -0.0417907875558624 -0.04836385635228871 -0.01549461699509873 -0.04070812955602894 0.02430688930080938 0.01792355123427723 -0.02997671468322476 -0.02971291693105122 0.02163531391096234 -0.03862619598608696 
-0.008214771595970621 -0.02763140269823557 -0.01279731338791455 0.001661713166090866 -0.01336337596930458 -0.02080591871317806 -0.02451650270207708 -0.03588425018733999 -0.001299925355890925 -0.0112081117863692 -0.008814779325032805 0.06261097065938205 
-0.001719830951804542 -0.014340345681441 -0.006839364861448625 0.008574049757583621 -0.01979338065443673 -0.0194807558221765 -0.06996046003423251 -0.03429422787496485 -0.02590202919387643 -0.01032148889063459 0.03281232492722278 0.03356950886444523 
-0.01739828697459692 -0.02417630150183657 0.01440677543427919 0.00287500338449148 0.003310540485161629 -0.005709242354173565 -0.0478202027247469 -0.02027627895808181 0.01307110674310013 0.005545482105036899 -0.00842925812772187 0.0002961115247559571 
-0.02938176852005291 -0.02171663354827156 0.007271957521629428 -0.004893606485090075 0.007652369686089414 0.02022017148082585 -0.02768676503626519 -0.01312220013453731 0.003666869678921224 0.0207572633968334 0.000300880396024809 -0.003147659021937223 
0.005653920491755463 0.01651874476856611 -0.002585139485051714 -0.01404717323802477 -0.01323857856617729 0.01131438305803707 -0.004809198277058531 0.004601561398423001 -0.02167644102982582 0.01111820692213619 -0.01702316134462181 0.01056692529602673 
0.008370826183586387 -0.001001458383273664 0.05332209753570373 0.002142800421364839 0.006065454543812515 -0.0118091598484334 0.005095442715935946 -0.02728774914278271 0.0280668859056418 -0.006368326774773533 -0.02037829531248504 -0.05220589449244583 
-0.001177939873972757 -0.008409060090964326 0.03697644545113617 0.01419577555989133 -0.001613427818336127 -0.01383950032709444 0.0006634670258872821 0.002076875554642775 0.01781644009962818 0.01714132637222038 -0.01559663457930425 -0.05082266450325354 
-0.007454755366135176 -0.04130868932550022 -0.008358446079562062 -0.02101941930951716 0.00107565934877728 0.00167263925230538 0.03966957970818349 0.04007139754244154 -0.010707691139468 -0.005587805948598082 0.002848731568334861 -0.01424834383904374 
-0.01844552456190425 -0.0009126522444347862 -0.01165634278483614 -0.009659811727632106 -0.02050338620518221 -0.02090593510148549 0.04352802239329114 0.007822989647848068 -0.0139552801667648 -0.03442188264561113 -0.009238214282789134 -0.01978082497789671 
-0.004046717686248162 -0.006123045718119916 -0.02985183471526812 0.02374443256120977 -0.01092939746921734 -0.01632341028537661 -0.01500744526775052 -0.01526423926389347 0.004370738117770116 -0.01335991636274122 -0.01555489060632824 0.02981886397320056 
0.001657975284579113 -0.007373386105966469 -0.008763734294194865 0.0261724202832384 -0.01354073409008646 -0.01832476620478776 -0.04367797178610024 -0.02025552693609812 0.03399133394573909 -0.005356083663295215 -0.005202484663254907 0.02911052846775897 
-0.002270259308539999 0.002612512363060498 -0.01850939324010005 0.03159623867175177 -0.007015068638239438 -0.002840775533360663 -0.02622309323286289 -0.01203642908199621 0.03902123454125219 0.0220837306764425 -0.02344953837073486 0.003902742555853696 
-0.01210728014962116 -0.01111932867128654 -0.01928763674230845 -0.0290304835994096 -0.01351866845392177 0.0180879236521982 -0.02794267040167624 -0.01653180034954682 0.008085388327522838 0.01145053145432554 -0.01227663868452344 0.02795393812902894 
0.01227309616225103 0.0448012422882087 0.02053867235149611 -0.03383009466110064 -0.02122211371861218 0.01521067482522619 -0.004575685169736969 -0.02430125815884105 -0.00227819720742206 -0.03709143055949588 0.002185404898706453 -0.03563306699339902 
0.01650331800796308 -0.01126174301340122 0.04533531492308777 -0.01067393368441262 0.00746135799790966 0.009544188993558755 -0.04191874030944548 0.008180402766495981 0.01897003999250615 0.01186927243019957 -0.0153777876642936 -0.1276906110080286 
-0.001255083676298309 -0.03371496631671181 0.005515230077587677 -0.002335866085366579 -0.004487657513011619 0.001147771757718863 -0.000295044456844298 0.03849617781117889 0.05119149548806087 0.04088887234443191 -0.01881404322582774 -0.01526513897341685 
-0.009290169302645694 -0.03402098431597666 -0.01858613864467176 -0.0171747056701555 -0.009562984719113782 -0.009554087937339214 0.04940600509875891 0.03330580579785938 -0.007707139985455683 0.007166690164704111 -0.006180418043303042 0.002780798779158864 
-0.02614122252119414 -0.003552325050984778 -0.01122440802887175 -0.01370641052814911 -0.01332642883811522 -0.02870855063832771 0.04933061892390899 -0.01905954268616854 -0.02987968381240387 -0.05090195020044462 -0.01363255640649863 -0.02306297653450094 
-0.002162391938470596 -0.02100808908240014 -0.0563973766835783 0.01867498017137415 -0.01516599657903528 -0.0233938695691616 0.02373460535307783 -0.02462820086924734 -0.02846666085617008 -0.01743268173035479 -0.004006853724440198 0.009532387672646678 
-0.001479738597268993 -0.01482264789257968 -0.02190840637825342 0.01423955952869169 -0.00757154172062603 -0.01665698386079482 -0.04651135044154696 -0.02649576115162501 -0.004865806800542374 -0.01548725536139297 0.001622920993183034 0.05370932282169941 
-0.002964102763085057 -0.009598015338921155 -0.02239971470242533 0.01086485779378443 -0.007154489271320051 -0.006466513851565724 -0.03825314779634414 -0.01624974891166157 0.002760720169345683 0.01331506535188817 -0.01800472483962491 0.04168379727208717 
-0.01346478117449879 0.008562100199762638 -0.009141900395187221 -0.04247248254229071 -0.02913766889847173 0.006596417358673569 -0.03775164324959929 -0.04079691639575905 0.005855887744129835 0.01181589947551615 -0.01077405936662916 0.0410649247542732 
-0.01135810407214223 -0.0001906391212248322 0.02631185465983335 -0.009492568578146716 -8.797400571011498e-05 0.01195589065749647 0.0009861658130841601 0.01120544794079915 -2.22131475495429e-05 0.03519409833979455 -0.03055666242965412 0.01241569697877264 
0.00405456795537525 0.01273641799251898 0.06211064493892925 -0.03172639908750827 -0.003603959770114721 -0.004541228383902545 0.0124067637028206 -0.01731973454807999 0.02045089598552257 -0.001467074582230308 0.01044600064860568 -0.09392549563150007 
0.02261988725134714 0.01990960916327283 0.02763289196072265 -0.0485241327571262 0.01995560910954494 -0.008051098083785343 0.008642745560124822 0.005510877750555026 -0.01422762547141342 -0.02980235584821394 0.007861563346045857 -0.07159870954849283 
-0.01355076460517821 -0.004015724450601567 0.004993867998223163 -0.01420871525113787 0.0342882998995631 -0.01683156806634337 0.04513291669321762 0.02526917250968664 -0.04572058081454587 -0.007994423155929889 -0.01512455883141256 -0.01539548439886794 
-0.02836738488507169 0.00608698588551795 -0.02202288299192508 -0.01735557952500061 -0.01064763072447831 -0.03616720110585508 0.01671621115696461 0.003289750764580227 -0.04431456427214813 -0.02345225826117253 -0.01108172061133124 -0.007519243946539942 
-0.00651531556870473 -0.008401060274740484 -0.01716749885592022 0.0163623375112574 -0.01790383923480785 -0.02178239107144442 -0.029241281199165 -0.024811880762745 -0.003055789881807686 -0.01157181117359154 -0.01023042801831654 0.06783489204279654 
-0.002017646309698653 -0.01119865893009896 -0.007582586240555819 0.02021340775163321 -0.02239383504491033 -0.0191802347122855 -0.05276720461539355 -0.02531781881696797 -0.002909640095670761 -0.004924083161135755 0.0008701006605156697 0.05747994418348384 
-0.0115439475072079 -0.0163474588308379 -0.02457804865863052 0.0232115365306936 -0.01544054803690063 0.001715617198801577 -0.02455938654723382 -0.01975115351696841 -0.004605138103485163 0.01593286131256534 -0.01966980617077209 0.01366491429271805 
-0.01995794070682236 -0.03833527887637075 0.02375048775710645 0.005274151769564334 -0.0003360984223606564 0.01524093718164667 0.002784840815984185 -0.01905978118571893 -0.01096370170124892 0.01921132385458534 -0.01567258388182415 0.002689822714989326 
0.01051411445771418 0.02095047941954846 0.02080882608661029 -0.05593176111719457 0.01427048058108644 -0.01497367224500102 -0.003544047603292392 -0.02943802801546746 -0.04419707146853089 -0.02395637134108553 0.01207704294387942 -0.01812748227551292 
-0.000367947066098739 -0.01082116855877058 0.03263888376679989 -0.008464619692755202 -0.0007710999133165901 0.007220573754522105 -0.02154433351612652 -0.006200259133125346 0.01227053226011964 -0.001743076148881363 0.03209751237088326 -0.1304679519781355 
-0.01083947322339593 -0.0055545627556961 0.04669988206401166 -0.04153437060274492 -0.0004633481854583653 -0.005758798284821558 -0.04938457014060564 0.02857074281001844 -0.03103350991876151 -0.02021231653005648 0.02800835109853574 -0.03732393664839393 
-0.01624496865871014 -0.01285731504169357 -0.04045973516414407 0.001783940031261189 0.005754731436788947 -0.01715430262775423 0.06437410537986722 -0.009935497200267748 -0.03598689848892317 -0.01407095547263918 -0.004851756079103032 0.02168099907179788 
-0.02541880721777837 -0.02108329323034718 -0.02957950012413733 0.0001104027741444866 -0.01606969195533354 -0.03207333169695211 0.04190979622915349 -0.03627501598747798 -0.09614162377046601 -0.05841779367116291 -0.0163446101106816 0.01319325397001234 
-0.01146903642465866 -0.02529445143665885 -0.05646970347221703 0.02279082509324017 -0.0152327049372834 -0.02903040960160638 -0.02374088887210466 -0.03334037286293375 -0.05266308785575 -0.006249455408887695 -0.008637177519648945 0.04286734333540741 
-0.007280940473411172 -0.008717227286088126 -0.01591920917408639 0.0001341557651946983 0.0006293213674627403 -0.01785807137847976 -0.05159361971971866 -0.02976447207800686 -0.03406546172009604 -0.0056715435891402 -0.007990137854807162 0.07591343494648131 
-0.002924269457475121 -0.004419165402822924 -0.04776635935613905 0.02460015330086675 -0.02256877678002586 0.0001817341337852478 -0.04090974577947458 -0.02691597413703073 -0.02332319383568222 0.0004926095134019331 -0.02230836958973555 0.0562090122616478 
-0.004972020794772844 0.005390236710398254 0.02544495800781812 0.0006118510821446065 -0.01281601573375622 -0.005073283532838237 0.002707812683596076 -0.03084881034222596 -0.02255119644269251 0.004014809653693532 -0.02386674012166704 0.03555105507990661 
0.007793807403012939 0.02336922855103046 0.01253235016686435 -0.04169465663181556 -0.01424787745599745 0.009797025797451833 -0.01431388520937202 -0.01598573748073409 0.03755232323535121 -0.01832554452145418 -0.0151165847555961 -0.06179036050300186 
0.02968461698592368 0.01578938224062839 0.0104975162681156 -0.02076760864035455 0.01614922686335164 0.02412242177899972 -0.03550175513507291 0.01748410380719377 0.03997217200116496 0.01007146641969926 -0.02655400609656738 -0.1042906367063194 
0.003969408960974715 0.003512091081818472 -0.04683525220849636 0.02311052089555877 -0.01396682996970552 0.02166783200563429 0.0006854544892554779 0.04713895351103546 0.02517581736932967 0.04974457769741331 -0.01531404947741886 0.01362627090723994 
-0.01088829040910656 -0.007048722199129296 -0.02593812101366325 -0.003219420062572701 -0.00974145285271958 -0.007990798219486291 -0.002828111149939919 0.01570714851180374 0.0001058685256569626 -0.007164067743091628 -0.01008096384888162 0.05285496440615264 
-0.01791602218657005 -0.004222733471303456 -0.01667236186368608 -0.005092619530588199 -0.000666131588786376 -0.01263393428218569 0.06579749621737314 -0.007684810687941019 -0.03539700688314686 -0.02919286799103665 -0.01989408258068339 -0.04168105344888397 
0.001071374489208588 -0.02381338614969202 -0.03832775963047812 0.003809755266433431 -0.0159013100318274 -0.02152121116058073 0.03713105390615079 -0.0138715847331491 -0.03204706400210861 -0.01654975342154841 -0.004261837031096859 0.00258741777699444 
0.001959310857739055 -0.02157202446214675 0.001090541739473416 0.0001582241489396473 -0.00389488009703343 -0.009903272658474176 -0.0216984499317846 -0.01284621528311663 -0.01517021962761888 -0.01431651510682623 -0.01008956139048353 0.02991002881899832 
-0.005049940846091271 -0.0179171887589737 -0.01336830831265083 0.01087650045453542 0.002691757420653664 -0.007130350292297055 -0.0264603974014396 -0.003672717234453807 -0.01607088282829205 0.007435911418288657 -0.01338937435228067 0.02619918592171086 
-0.003084958259272391 0.01872382898480047 -0.004317311362118242 0.0008553384819205759 -0.03181954117966869 0.004069398195580626 -0.008865259903099989 -0.0141810876380962 -0.02297227958552552 0.00887963501322224 -0.02052598448548867 0.02008225697410979 
0.01188795147409276 -0.01089098667376048 -0.01792759064429365 -0.04708085388370873 0.0004294627449857701 0.009060736282225789 -0.06245953299801531 0.006318804200063081 0.04125615405574323 -0.003874056748725558 0.009642881409360106 -0.0603452754393099 
0.004678015292789172 0.01090929724063028 -0.05335747670532322 -0.01237380534535949 0.02364749680719463 0.01849667863553041 -0.03416614981149911 -0.004493693484559294 0.07818091902843477 0.03379945883876107 -0.01285350748872437 -0.06536322444426519 
-0.03943572667614272 0.006411318539834438 -0.02444099381882735 0.002350060751309797 -0.009742492246813263 0.009810976778138187 -0.004306774385502319 0.000389060587920236 -0.007906263460307421 0.04276712014051778 -0.01239688782313881 0.05539918469229509 
-0.02362137656216103 0.01129387473997976 -0.01886591940455869 -0.04126041618442149 -0.006421829169392693 -0.0120039316446305 -0.01489947399756198 -0.009810283711115813 -0.0268171109275854 -0.01153528161068501 -0.008271406898594189 0.06383036532739725 
-0.01564764967970874 0.01683236788630613 -0.006127886387654555 -0.01072285044556011 -0.01592339699687628 -0.009533087478775102 0.04952049074586134 -0.0114309475359764 -0.07082093981117953 -0.05192955992336317 -0.02210081947211509 -0.01285279114035228 
-0.007633627535016257 -0.01692160245049526 -0.01660059859773659 -0.005843582952583443 -0.02692391856720917 -0.01566907863107499 0.03738295140784045 -0.003873542604849261 -0.007210823697497696 -0.02521695901936724 -0.007854122661892508 0.005132228977573764 
0.0005441783190525911 -0.01822707870369835 0.008669515189392178 0.00531620034760602 -0.01216187651659826 -0.01141565157997692 0.005176121119240739 -0.008613743612167197 -0.02750023929089309 -0.02128388387373497 -0.01796135430408429 0.02652022837603037 
0.001762046565003001 -0.01501094201919844 0.00583980357838735 0.01955286881087614 0.004682419605565818 -0.007118099136265411 -0.0225146858689086 0.006223193703022093 -0.01356125550263224 0.003806332105166794 -0.02111126568942614 0.01742937551895977 
0.01991384971981004 0.0209433669606564 0.003233741790471474 -0.0226548418767824 -0.02478754766188804 0.01018095734078067 -0.02699589436199746 -0.001423622506083257 -0.02289754772766495 0.001821246214262842 -0.0236653111238568 -0.007926308512108947 
0.01118733598109375 -0.0142977994469271 0.04893479820443338 -0.02974588518335333 0.01124840027943379 -0.01804926221126985 -0.01723509405873593 -0.02834271273645118 -0.02569102093483187 -0.05636226788294997 0.02324824973959259 -0.01363596962071976 
0.01152130184147843 -0.02749759702901143 0.008744105616323442 0.01001577920371417 0.01222521455821465 0.009092006572437011 -0.01899531134250607 -0.00968254180858622 0.00648181998287791 0.02614198135381856 0.02891219061270416 -0.1081090193468139 
-0.005510472921838344 0.001827327583194176 0.02333375189126503 0.02232840088490155 -0.02145764489219273 -0.004853119304228912 -0.04406252005035145 0.02597699614909471 -0.02353900439443226 0.03471994054524988 -0.006115658249533904 0.01169597355023811 
-0.02719347396206203 -0.00844352579142448 -0.03339301233738186 -0.008406976610488476 -0.004497007615740333 -0.02200831009932212 0.03856493436034156 -0.006622117261451316 -0.005386181500314601 -0.001459705644120077 -0.009360773480363951 0.04571245183437972 
-0.02426419010844262 -0.03390336633993894 -0.009533198731264953 0.00342887057844305 0.0003634814706736381 -0.02135664122124291 0.04854650168653668 -0.01601197634159816 -0.06251315541902154 -0.03835967557799604 -0.02682301839569525 -0.01664551572777565 
-0.007328612710648756 -0.02388522112669158 -0.03650837518759477 0.01284414999576572 -0.01647007304395245 -0.02810510850860741 0.0005592676608771171 -0.01633373465601944 -0.06466178901607211 -0.0157528550638686 -0.01222515003549376 0.01296367063060356 
-0.006674838894177404 -0.01413107972148207 0.008430807970334894 -0.03576784963954628 -0.01029693064955003 -0.01786216787728461 -0.0008146814888325617 -0.02066417290560132 -0.0581833645358137 -0.01612300799569781 -0.01741760333653218 0.03644629681295972 
-0.005185780658498387 -0.0069066405899998 -0.0006377074507990192 -0.01710047150030248 -0.02156526336666153 -0.01048846679745808 0.001422782157467828 -0.01971239476095275 -0.0616902867293104 -0.008437357199431379 -0.01768631942960504 0.033434593859845 
0.0002486730202710146 -0.008602949827686654 0.04408101624680083 -0.01301919078750283 -0.01821352041363211 -0.01796625869682389 0.02049479765818313 -0.01208565132258695 -0.07060508511927426 -0.02841413849602378 -0.01964731267084573 0.03127383450320372 
-0.0009187849236219011 -0.0454370772849462 0.02004027616806395 0.0009749874358165378 -0.01987694988153253 -0.01422920122723721 -0.01222273653351857 0.0002279482295773833 0.02712123955238838 -0.02714557834062145 0.01767730807366915 -0.04227575421692735 
-0.01664037800444955 -0.02016691887291374 0.008102846385720602 0.0125856603975447 0.005325367316871899 0.008005897790520222 -0.001423858882242711 -0.01288900083953727 0.03257499356733277 0.04517546607341935 0.01895882402223984 -0.0528181250848356 
-0.04754784135041988 0.01921593127616599 0.01704562827312147 -0.005393901690677752 -0.01472191660509994 -0.01130741160201915 -0.0279592561755685 0.03382395352513742 -0.004811570738867232 0.06973787022961977 -0.04559919094167626 0.01979612116660794 
-0.05089384099658099 -0.0008952046622063858 -0.007639025315231085 -0.04798836703494543 -0.01139804296335096 -0.02202606154766215 0.01172987178445308 0.02007112818517131 -0.009616862546740115 0.02214634916191748 -0.02814858476902194 0.03414490144565353 
-0.04614309362224659 -0.008059415531986039 -0.002005800525114692 -0.02287440616348699 -0.008151012984155432 -0.02162538046685778 0.02357844532263827 -0.001196821764736667 -0.02084631317240865 -0.04354509479268068 -0.05017215098288028 0.008470369332339493 
-0.01287532326553413 -0.01779583498412549 -0.005284085531144713 0.002787223433377098 -0.03796348609285199 -0.02583484823449408 -0.004078832712282444 -0.0001893944636512789 -0.02015463649239105 -0.01000573118798338 -0.01664766028690515 -0.01569503375527971 
-0.009927336282100687 -0.02927443124647178 0.06249908360770027 -0.03525013492605275 -0.02960284706371699 -0.02591785781927138 -0.04811047169402358 -0.01852998605829051 -0.02813813469242602 -0.02484736965873497 -0.01811060194817879 0.03759167297713735 
-0.003616027292171337 -0.0121574241043354 0.0814323695151434 -0.004560543696765077 -0.02911528065688044 -0.02242426735474989 -0.04469354955837166 -0.02636104717908226 -0.02625313545579372 -0.005291414579985622 -0.0122059377570564 0.04186225214480442 
0.01428696312461402 -0.01601897692675757 0.06110397449352839 0.02963095812168971 -0.04598468879520946 -0.01482345189919771 -0.05021924638496927 -0.008991456128520467 -0.06155260915288944 -0.04589725737578294 0.02783259165010055 0.004720237961114264 
0.03787943954391688 -0.01599951817366205 -0.02982980763302615 -0.009845891919890068 -0.006970008242562444 -0.02951939428842886 -0.02910459638221642 -0.01146349895701063 0.03351047022957419 -0.03750966441833018 0.00591726562169013 -0.04716391991319635 
0.0006876887682444034 -0.05144067903408902 -0.09196927350664905 0.03980701113744493 0.005040372774096432 -0.01507509360877702 -0.001687706621590753 -0.01416552184693201 0.04071571697860449 0.03737829438069239 0.003705886745137586 -0.02534271669149764 
-0.03080218921884939 -0.001350434423805661 -0.0304273995960527 0.006986515066671982 -0.009580376118417026 -0.01057446597457373 -0.01125561211109208 -0.01290773169650186 -0.01439717688384615 0.03263848665103655 -0.009304881173861647 0.04848796204421379 
-0.02695375763026174 0.01516178114020541 -0.01015968215716456 -0.03763489078404365 -0.005712812556803212 -0.003992726814653451 -0.02591704170836712 -0.009966164033181912 -0.04435470992713329 -0.01813630754472461 -0.002676847194749868 0.04478670536438177 
-0.01223790422968872 0.003025834571504943 -0.00792298714911328 -0.0338067595870396 -0.01836834331650113 -0.005917876199350459 0.04714346423650358 -0.03356278522919296 -0.05040200706711258 -0.05810630072684581 -0.009229573180340392 -0.00971115051714923 
-0.004416152326589326 -0.006731980300803902 -0.006851381571626646 -0.02641986531144091 -0.01732674715415214 -0.007789470666508411 -0.01710662412126331 -0.0104108034611967 -0.003547046399827413 -0.02082883312820932 -0.005700022804628107 0.04699720311231521 
0.0001953075643587623 -0.001225236821735603 0.01083850768548837 -0.01646952069815402 -0.003081679469194951 -0.005206328115033591 -0.04345232220038247 -0.01905294590773075 -0.03769483814329811 -0.01885352651714393 -0.008377004952147464 0.02788613108793612 
0.005944259855301655 0.01594075498255825 -0.005383113534900256 0.0231133382032863 0.009975567323480433 -0.004903036697844232 -0.007845837656119514 -0.02001135946305034 -0.02232186012034511 0.0004907377344729571 -0.01669919276685559 0.003684079029938851 
0.03581536854935169 0.009461891603821913 0.00169667906771357 -0.02579704113025542 -0.0114871436615553 -0.0131429243910154 0.01449977164785226 -0.03534991688643987 -0.0778738529930513 -0.01195409469367578 -0.02006363031026904 -0.0214571856553311 
0.02660870298546788 0.001039585990246348 -0.0487468099838963 0.02033435234751134 -0.01568174562130297 -0.006006812391837797 0.003805379043391808 0.000124633726174947 0.005558925711559875 -0.03045514053737865 -0.0224338462391098 -0.03191703887422427 
0.007492218936137088 -0.02749495937902912 -0.07756655376020928 0.06536746149138777 -0.004135180155269861 -0.003480792155525564 -0.02995310452831565 0.03426395103506317 0.006397852648346589 0.01805542489241143 -0.00471466033609438 0.01922523527127123 
-0.02353825795810355 0.0002566989561831925 -0.01983817923259172 -0.00611696378617369 -0.008114055214313147 0.008150676337584635 -0.02063448633588448 0.005232042810603525 -0.02813724417640139 0.0008481583980205224 -0.01360438917669776 0.05749346763940764 
-0.01472705468755182 -0.005266609794751458 -0.02085085846296311 -0.05126291511543202 -0.01507249486673215 -0.005098129811908771 -0.02921967223867039 0.00409874642982712 -0.04143269076038774 -0.03578032129202592 -0.001689216220683622 0.04936392750664496 
0.0003236884120579037 -0.01582709819472653 -0.0002349494211532304 -0.04991528737418931 -0.02191174845479287 -0.0149448556989647 0.06924472428763405 -0.03234928185803701 -0.07129129057178088 -0.04989016384534301 -0.008075341769485364 -0.01650233514603745 
0.008316347826950187 -0.009962051858129857 -0.02253347640592956 -0.02521333631616894 -0.01827927938486101 -0.005593953910243041 -0.01979717682779908 -0.01236300968491533 -0.01910268812012758 -0.01989906264143347 -0.007824171995665931 0.07825787469078846 
0.01010854650335372 0.001341136173563251 0.04238739629509213 -0.00669837251748116 0.002856630771467592 -0.004969241139411187 -0.04550244645230176 -0.01769761987604987 0.002701119506993718 -0.006070715783857609 -0.007969610837607445 0.0001169902200343732 
0.007781922266365925 0.01588490073658518 0.01859815746021974 0.02667569981151212 0.008293247587316655 -0.002694135445600888 0.03184917161307384 -0.02184104007871855 -0.0221666798744862 0.02201544009569495 -0.01940926970766527 -0.08359861318016712 
0.02666432005115672 0.008808473508319366 0.003655179022429223 -0.05297695927255862 0.00201939537439011 -0.01688652800354443 0.0197538772729209 -0.004743099321889305 -0.07069641379454768 -0.006018374978059597 -0.01336135884446299 -0.07001299039329316 
-0.004540770723333289 -0.04048832814111514 -0.01049828627726967 0.0343534465401175 -0.01776396165646758 -0.03253628624719285 -0.0009243015870665395 0.0161049214523619 0.02449250221714279 -0.03008132567732873 0.01472972279180942 -0.05675261570935196 
-0.02469655407235486 -0.02040818946831851 -0.05710201041956836 0.02894899941323813 0.01080443671736753 0.01706025616762708 0.02080875884015338 -2.810581680520616e-05 0.03388569789883986 0.05688189268456943 -0.01689246929991094 -0.02358881999251811 
-0.04864478261797717 -0.005488941557020385 -0.02363690110450212 -0.01083572540010121 -0.01399715177972481 0.02611554702805299 -0.008793098043585228 -0.005520789306641354 -0.01364004429048411 0.07613103884771423 -0.04281870955667157 0.03223206258015329 
-0.03754832394506046 -0.0208333120407063 -0.001080143112598504 -0.03961388843718115 -0.01496117958027876 -0.007102644100867617 -0.0170551995717111 -0.008211392947040839 0.000573748858150846 0.00523209833011128 -0.02838977430536045 0.04198792724410753 
-0.04054095669137091 -0.007490269831672993 -0.01762304253797896 -0.03196394341995094 -0.01835048131803116 -0.02129850831116285 0.004573104978088298 -0.02398752351730025 0.01567860592734912 -0.01746695235221628 -0.03968106688576159 0.00584547650656093 
-0.01435822644085911 -0.02058662816928942 0.03259091726074097 -0.01637347731537945 -0.03415937906958523 -0.01567918506532192 -0.0351763339042234 -0.008149994576029433 0.003023758434801788 -0.007954143857933881 -0.009818276270258407 0.0266545657990139 
-0.00830340901133296 -0.03118581586706266 0.08349987268012446 -0.06021716125155092 -0.007978050732203095 -0.02453756441270145 -0.07420955619532869 -0.0244794603143336 0.003037314690521024 -0.01407043792698252 -0.004670782766049482 0.02898967537868803 
-0.002713456680611398 -0.01447779742624268 0.06305775162367872 -0.003776006568678502 -0.01127470064428236 -0.02383222698974989 -0.08537536251000553 -0.02378956944191426 0.01373772353279978 0.006008400012918092 0.008069796693027919 0.02243525166414687 
0.01389650683509809 -0.01508648629605741 0.00347682465778681 0.05110224591183708 -0.04922872447088968 -0.03017239861362675 -0.06819003432968457 -0.0166318665676123 0.004099016291995512 -0.04115631882434028 0.04582468009105972 0.001962911944519584 
-0.02291585653416239 0.006002224052633308 -0.007337491644529594 0.01618665968974696 -0.0150728666521357 -0.01369168942449672 0.004292019973385556 0.014851220509199 0.01632158584699838 0.001029862607514307 0.01222856876624188 -0.0425808142182867 
-0.03348816265321812 0.008978777931782643 -0.06016062400277801 0.03934813720393689 -0.01639727430071124 0.03752038530394564 0.02754540120932482 0.07091322928025311 0.02009998330463175 0.07511253966381673 -0.05059342767746831 -0.02931937952760794 
-0.009369008590685448 -0.02148426727222184 -0.04045267872953917 -0.04132252976888272 -0.02318716687747833 0.0611823444934733 -0.02084811209175402 0.002872389335204935 -0.01126786979093189 0.01020626352802477 -0.03370497641209828 0.04268689683411016 
-0.02040765224547385 -0.02493716871236902 -0.007515655004238965 -0.06771775339966751 -0.01614726697243644 0.02670393577980508 -0.05364518786822166 -0.01403212707176944 -0.009554171602265984 -0.005931307896498695 -0.0263358586025435 0.05479274554852776 
-0.03236191167378838 -0.03058326693143678 0.00135829880953558 -0.0281863332816715 -0.005786205964714707 -0.02990031652666955 0.01184809391599044 -0.02276355297976037 -0.01819288953158917 -0.01191964366398259 -0.03903787943446489 -0.01706244024586709 
-0.01513120905823119 -0.03565392675005643 0.02957814291323662 -0.01757192579497038 -0.02100005829676484 -0.01198974898488846 -0.04448761483766416 -0.01568006713669478 0.005652854953643527 -0.006392556632732136 -0.02371464730688872 0.08443832889136813 
-0.01152858616753439 -0.01918033966690143 0.06773029636489093 -0.02934484575155814 0.007828485683554027 -0.01330014647841117 -0.0723353355643274 -0.009564251602274861 0.03694153461509681 0.0288811211630861 -0.01258677432348099 0.02057754606573567 
-0.02623534752733611 -0.008935465369286535 0.04011294496563561 0.01877814171516142 -0.01138617599627908 -0.008855333928924142 -0.04150568409945591 0.008276161794911856 0.014461484842272 0.0358491401177698 0.0007756134421324732 -0.03530087900605982 
-0.02697674331245341 0.001588843569837212 0.001221365313464225 -0.002959335478079725 -0.01607719129933207 -0.01532529837142893 -0.01380032255463436 0.03085914880405901 -0.02114921442225818 -0.005230877405425586 0.0123020378315771 -0.08509709212411498 
0.0229755959824713 -0.004881863153317072 -0.07714039626448532 0.00089590883795399 -0.002697756420524821 0.008030243507839034 0.01135115688339727 0.01179375378635867 0.009592437732689812 0.01401427336744744 -0.02059358289110222 0.02121505073731724 
0.007542848284997486 -0.007922832623800386 -0.03571809162677812 0.02553262202057107 -0.009439579834198823 -0.001603785866195948 -0.01271377129944944 0.01608184152238469 -0.02486841188604079 -0.01529157077115083 -0.001673459662226117 0.05716298424976626 
-0.01856426414354375 -0.009145945223916489 0.01183422505243882 0.008636989307590829 -0.008401177152784437 0.008262219412889998 -0.007935627508828437 -0.009840199115943212 -0.0463751904243046 -0.02413270176865325 -0.01220398575961429 0.04775885597451186 
-0.005245701803077162 -0.01625328801618169 0.001224414022726041 -0.0290075652306632 -0.01711183940886633 0.001086403447667805 -0.0149572669915892 -0.001639001647998849 -0.03585537477912786 -0.04659951411900397 -0.005861957392007423 0.04147626170976316 
0.005750139025461146 -0.03347487862747424 0.02782177353367452 -0.02984711184877149 -0.03136860130532437 -0.01837676386448181 0.0140448098541181 -0.0375364364289493 -0.03497879649792635 -0.05719981639218426 -0.01292335004513138 0.03350288103345815 
0.02377930917988972 -0.0198814530973761 -0.03002984983481969 0.0003839277813751758 -0.01148785082216943 -0.002217803754984185 -0.01801800033411513 -0.02567516127695793 -0.003625100154082896 -0.03343611711183985 -0.0122462583895305 0.0535863676728166 
0.01226800731372775 -0.006327753078685042 0.02179924382016264 0.004709195891154982 0.002515846247325803 -0.003443085163450053 -0.0227293345751007 -0.02482852296482329 0.006097439601512153 0.01562770534633103 -0.008131431890854603 -0.02386852654539856 
0.009319965564592572 0.01097858339714833 0.01267504118163174 0.03311160382390182 -0.009955281002470964 -0.02455604953787929 0.03768299113186317 -0.01395274207861838 0.002798784791720679 0.01275012681888772 -0.01383863744089093 -0.1065975109206156 
0.01217295961443498 -0.01648044176013117 -0.003636224366946637 -0.03197667749313225 -0.002297085275136613 -0.0394135565254979 -0.0168554004824548 0.01687605800239996 -0.02656244658727091 0.005266024844087708 -0.01044240476547001 -0.05355493488028328 
0.02395485741023718 -0.01003160467163762 -0.06164924061019773 -0.03315266491052662 -0.00144831699920735 -0.01138884006558173 0.04313967602027591 0.01640948256090113 0.02143940689737832 0.005741003406485518 0.001255428671502171 -0.001061540987861322 
-0.01128831111589267 -0.009436247866103958 -0.01621929673216559 0.007575275011668921 -0.0135300085371576 3.235823695977965e-05 0.0393691164868845 -0.00818719557821878 -0.03030256957629857 -0.008092293874781012 0.002385085468514292 0.01443125074029946 
-0.03226080242518797 -0.005666632048522244 -0.007422157565600664 -0.00513295622924358 -0.006606325539101063 0.01114692385442163 0.01578496694038003 -0.02635759402868835 -0.04720347721649098 -0.01283258217278076 -0.01524658702105185 0.02531971976209273 
-0.01842209530132836 -0.008547559514037201 -0.008035353637647085 -0.004899802365538697 -0.0219021783259149 0.005977273265036076 -0.01571057796358675 -0.007932307501448578 -0.03934435032932501 -0.03917410389097904 -0.01406604094531461 0.03086496997218539 
-0.006993724577693822 -0.02194417536529192 0.03647842234201035 0.03068658884166268 -0.02541241373168228 -0.006416795299128119 -0.009750741213733236 -0.03646387899892695 -0.05890818758851649 -0.06435569729785399 -0.02698962776341217 0.02635912916576791 
0.02097539116775869 -0.02463467310367226 -0.03019116315836212 0.02185963543588593 0.007532407896381613 0.009752906754396294 -0.01016541372970039 -0.03375542460720098 -0.02856501680177269 -0.04439136542362321 -0.01661447922096003 0.003169479870027673 
0.02417800159617253 0.01291307738142878 0.01761386240260168 0.03606022777138757 -0.01426330442069242 -0.01765491839487873 -0.008832797360506654 -0.03460150853598277 -0.007747631457275693 0.01094512450082672 -0.01199343763098702 -0.05208693887043701 
0.01178854205699765 -0.0004674692101635475 -0.006901998113806629 0.01821414485275978 -0.01841307583030558 -0.03394525196571143 0.009985044274326352 0.01908357485706188 -0.001769351802138808 0.009230428646510195 -0.0137286820080302 -0.1094223599191068 
-0.003810888495346898 -0.04353140829354969 -0.04251094807456469 -0.0298969111602202 -0.003553678000744909 -0.0432981825477974 0.02626599283034669 0.01695236222117281 0.03004882095789722 0.006731347814456901 -0.008764062364611816 -0.05268580945440472 
-0.03878673017422628 0.03665457622957106 -0.03732856039741148 -0.02931904188731936 0.0126087889681997 -0.001000872201636745 0.002240474202987287 0.02336553063034306 0.02236467044926906 0.01753389587301792 0.0088673158502388 -0.01507501269709388 
-0.02792046244411651 0.009121523442137456 -0.03300069777363972 -0.000302787728932815 -0.02207125507571203 0.02859826073423005 0.03578716932151349 0.03587314636882199 -0.00847052632137632 0.02186796902164234 -0.01792037110835905 -0.002885363599850115 
-0.008664552761080611 -0.02886458583426127 -0.0002466602054711702 -0.04052448113429616 -0.01152634486233572 0.05263619510505427 -0.02366095353660305 -0.01336518034504143 0.0007760966339496817 -0.0125836605582176 -0.02454460704414024 0.0130891802931244 
0.007166310288234262 -0.02232684998008859 0.007428341127637186 -0.03959675387749201 -0.01899649484157265 0.0216358504862982 -0.05937320270122042 -0.01508075108626146 0.01589406335481012 -0.04972452004310925 -0.01563870235641214 0.057185201684274 
-0.01204032846727879 -0.04829426629040823 0.01727371845204152 -0.01079101899239083 -0.01969894222153936 -0.02587038468519534 -0.01421664979474572 -0.04154294950274332 0.002324586156988345 -0.02437658106176735 -0.03028970426055131 0.01691173278090004 
-0.005715994952280923 -0.03316460997666971 -0.0144734728370998 0.01252110471462247 -0.0169936702298344 0.001546218931863543 -0.06286787221431099 -0.03885299052177776 0.02047783090532315 -0.01768508547780076 -0.02158885379994824 0.0690074830810042 
-0.01250082243416257 -0.01232746510213959 5.544580120931747e-05 -0.007089695213159578 0.002044418056179651 0.01353300679952317 -0.05852095302957563 -0.02938306666457442 0.05742471068621322 0.04380079058428246 -0.003793848452076994 0.0148919988186804 
-0.02004989497998249 -0.01912901044110313 0.05054043036729981 0.02867664062485419 -0.02211008977237115 -0.004366085193905771 -0.04931058216768338 0.008962331166069287 -0.0004572714341176595 0.02705087195767311 0.02166767512196714 -0.04400283805193698 
-0.04663249460914386 0.01646944457926033 0.01304457394730948 -0.04500695000266439 -0.003633898483048515 -0.01289715368598445 -0.01826860199038052 0.03659942986002874 0.0238556098306944 0.02717536598523672 0.009708765149660036 -0.09793976680454845 
-0.02821108295617887 0.0206353735560946 -0.04114733964836607 -0.02997765758542175 0.005729751249660214 -0.01239000702533352 0.04544511282915298 0.02575573942874091 0.02461515732670497 -0.007885045617122577 0.02786887802017375 -0.01663215976222959 
-0.04166010751685894 -0.001737058828681968 -0.03508987073466179 -0.02290703389802742 -0.01991661579140163 0.007269014256789589 0.03129569044489094 0.02630777923352785 -0.03254907312901963 -0.006528583802545386 0.006064974321178632 -0.003673114848212488 
0.003808376777409357 -0.02924594829008921 0.001969349824070957 -0.03338444661666462 -0.0150028956788551 0.0265291284462955 -0.01026163715445657 -0.02992344664372362 -0.002327550529708675 -0.01139033140766629 -0.02903612250230479 0.007602237415144797 
0.007956382959508776 -0.02959198638320869 0.02193712788669399 0.00651981200303844 -0.02354418231168815 0.01696854391367819 -0.04814043899208766 -0.01095959067229559 -0.008933371894405026 -0.03167756664877097 -0.02241391282460241 0.03883692563071198 
-0.01223249671681787 -0.03871571070197562 0.03869830060509653 0.01813772152743946 -0.03436354750063256 -0.0261997559434865 -0.03964538018477932 -0.02986810383278728 -0.01610736956111282 -0.01574528264986487 -0.04074674609125714 0.03063690298633086 
0.002986812076158987 -0.02182118501392573 0.004429787873524969 0.03101284020975167 0.0018420424505796 0.02960759105343449 -0.05341627735707265 -0.03109273682526429 0.007104991458520182 -0.02857694104770896 -0.005191263891314969 0.02397972975483506 
-0.003899424261370105 0.02017681795205013 0.0006559700249808895 0.03050137286936173 -0.006784886214115452 0.02663024762494745 -0.03474907809975467 -0.01952667240750549 -0.007931370670294242 0.04574207857332806 0.01825611071285698 -0.06542445619217176 
-0.01671035219879927 -0.01529018380618264 0.05062395312700707 -0.002313634991105194 0.002153853693868215 -0.02779986818266764 -0.01193429232665158 0.0139767371727045 -0.03864551675599587 0.01808948387733288 0.004810234280558701 -0.1011335677964732 
-0.03315803448395702 -0.01486791583780338 -0.009513632389858443 -0.03395773137182728 -0.01439984316124781 -0.01609961296023898 0.0242708504200958 0.04292093117850285 -0.02158336492939202 0.005993275277820252 0.01452506270753053 -0.07344383182135457 
0.01225372184359511 -0.03235633751370065 -0.04043000874520974 -0.03971736367757377 -0.0003517009057854784 -0.008136295129610682 0.04907072744106702 0.003486737530824644 -0.01276266010447308 0.008550060956679454 0.003651713177765646 0.008438585477920972 
-0.0009055124121082528 -0.02352321317619404 0.001434752679014678 0.01205148471492577 -0.01606120778611424 -0.001892419232346729 0.01038991411063448 -0.01253127386947456 -0.02425077179695296 -0.008274397835614389 0.004117948664550198 0.01597356230631391 
-0.02361083831580541 -0.01258683507482443 0.001209037772890897 -0.006234953983516305 0.001981027966180873 0.0006966308123129849 -0.001017056949304751 -0.02218397675439975 -0.02865378572699641 -0.004506893176333495 -0.01305294245446023 0.03726571591148981 
-0.02078156523473164 -0.005881597945218063 -0.01833067863512389 -0.02409478540779981 -0.01470991284102406 -0.002381314591113892 -0.01625097863842836 -0.01332748824011338 -0.02952241169995493 -0.02198582619925869 -0.01507831876817889 0.05348801094110653 
-0.02780710409466786 -0.008059572523021422 0.02919462732567992 -0.0009793083293374518 -0.009808262415186888 -0.0007959456055095882 -0.03860056167916449 -0.0346129670604192 -0.07047242898798443 -0.03876979044938083 -0.02304025908446595 0.02965270021993434 
-0.006180453217367371 -0.009903629482592862 -0.02285758846728228 -0.001134943099379383 0.02247652717772082 0.01098959810317033 -0.0419976681947189 -0.01440670376385806 -0.04333093120086968 -0.02897898489414531 -0.01549846950064425 -0.0075025232039198 
0.002475385564278478 0.007314365047216696 0.01629549295999974 0.02528762482920504 0.005586203600756806 -0.007479622857356807 -0.02682363355424468 -0.02143511869673268 0.002932577035183759 0.005596143248118897 -0.005429649799099806 -0.04341363088165709 
-0.007173895248041873 -0.002741611192813304 -0.01343789370889792 0.03135957262996027 -0.009912164461192757 -0.01042476689583713 0.01838368665710762 0.01395605191180343 0.03496836114978665 0.01879486469728354 -0.01167234857260218 -0.1261329820843575 
-0.002052097003274624 -0.04044039389371684 -0.05932717700122959 -0.03252169160925261 0.003342517573611715 -0.01119113589842369 0.05734750060008063 0.03157384769686104 0.0672725244103554 0.01263091815813103 -0.005540832609501133 -0.06967229945249299 
0.01811986532013844 -0.03616220881888069 -0.01971831047646061 -0.01529552162909968 -0.0257939392380283 -0.02015913100369919 0.01093128783774032 -0.003659568565651133 -0.02046710034344371 -0.005577411380894365 -0.001811422321838479 0.04005982395851716 
0.00445528598420212 -0.02257507279112261 -0.01025456529973571 0.02277066267653528 -0.01923247570612619 -0.006677476959143368 0.003770264029145712 -0.01516266546300994 -0.004487140707573553 -0.01270536363144423 -0.004071956185430603 0.02261751528237306 
-0.01604333181395879 -0.003705117408742009 -0.003334167186600525 -0.004162716383825713 0.002000940933878883 -0.005487615830956872 -0.01528517610916048 -0.02227195399187417 0.01081390028519624 -0.007804337879136016 -0.01450239688460361 0.04926691611514777 
-0.0227373830010073 0.0008902717149419058 -0.05637259481263318 -0.04124287951546173 -0.01622870219627574 -0.00639564319943195 -0.000602559494599732 -0.01194101690577813 0.03497177102720359 -0.01900256748625483 -0.02205060651344728 0.04284997457504861 
-0.02352095124833331 0.01610699869408251 0.04391400937746177 -0.02875555289546264 -0.04114288883945064 0.00417648271486522 -0.03939998270224599 -0.0325400566273331 -0.09769259544764973 -0.02875552350507777 -0.02306411970391804 0.02460447500003862 
-0.02497865514355529 -0.004786057752875105 -0.05168217585556825 -0.02332459817947108 0.004496394098141414 0.0167776368720508 -0.03164471068160174 0.002982109978775129 0.001545696260469879 -0.03409662739512988 -0.01772918675973913 -0.003832904604367662 
-0.02549374313940065 -0.01357420990081484 0.01275540503802911 -0.0019344708983667 0.02499059564100463 -0.00141966342257736 -0.0107648827323914 0.007062053775812119 0.0331155943192331 0.001035196623615691 -0.005411873776037313 -0.08165141622308665 
-0.01835561899855398 0.002417815547024999 0.002508036040226533 0.03386551728955407 0.01952394033750383 -0.009930622147452092 0.007836912362151898 0.04066793602766926 0.07583743902634543 0.002616805393974461 -0.02118264970366218 -0.1212255135554726 
0.01884051293237064 -0.007692335798516059 -0.0294347634088981 0.02095789837537125 -0.005318906235930937 -0.02238662298547542 0.01378289298333488 0.03631007638858269 0.07186426487419711 0.00605326435550782 0.004800269446494121 -0.05914089953544106 
0.01053052760981889 -0.01123360036593014 -0.009645495552266984 0.003646508100261825 -0.01141402586633421 -0.01549288219062738 0.02011801861452561 0.002586027148237836 -0.05885960250080976 -0.02380478143959416 0.02558613397766852 0.02709712844016057 
-0.007711918645571492 -0.02030439148296749 -0.02149742338281245 0.00646302602142985 -0.02298592976221421 5.444874370484174e-07 0.02225240543762795 -0.00578775388482423 -0.04741788708708198 -0.02745053103431793 0.01782979216397264 0.02087768482231379 
-0.00182386004073315 -0.02891714092684182 0.0479379474528411 -0.03166359353084342 -0.02711827604978731 0.001257222775005473 -0.02857794912776433 -0.04071980729529903 -0.03769201711007725 -0.01486272681700786 -0.007605623919967438 0.04207067416794538 
-0.01417774141141388 -0.01787133938491441 0.01697724955400327 -0.01219816141518521 -0.02148204217829172 0.009863827278369068 -0.06092431709598516 -0.02058851088739854 -0.03921064469885348 -0.0001728125684448377 -0.02054562918857189 0.04619430840534558 
-0.002111200937407788 -0.0244918462711759 0.03548757905491101 -0.0122186885893692 -0.03290188040455348 -0.01879692047193882 -0.07639689209996964 -0.0247389512366397 -0.03068897370514423 -0.01057983319752951 -0.01695304954049412 0.04277199781491502 
-0.003421649809540661 -0.03561447309513258 -0.009575087609624304 -0.01904674106963011 0.003573679703255974 0.04097805917084849 -0.06938787989245976 -0.01252836922621989 -0.04431117690033496 -0.01851532012248845 0.022082148144966 0.00916487226415153 
-0.01075264143898393 0.01628230568647115 0.002401976267540571 -0.01428402811172727 0.01434279967202372 0.04135463544458066 -0.02192943867056298 -0.003107582303420112 -0.05067212450086172 0.009973039848995021 0.02363257178005583 -0.08715391442568594 
-0.003133455352397413 0.0008113116773459916 -0.01745180877556074 -0.009341407821479165 0.01887505082885296 -0.00822301782836563 0.0207091026889119 0.02231989934824059 0.0007166035769616418 0.01967255467851546 -0.003538363493539681 -0.1264934199096268 
0.004429226352525874 0.003970902164717765 -0.02090462557049376 -0.03501582975685987 0.008273921493740533 -0.0135323009939982 0.0480996043184812 0.02243655995357488 -0.02935830431424097 -0.001768211279120952 0.01140228702783596 -0.03491299319706307 
0.03255113253179311 0.01208412266948155 0.04309851835778068 -0.01055127258438535 -0.0287458814570709 -0.0210375520453432 0.0129135773022241 -0.02361472875243093 -0.06830565013393747 -0.02806381376654591 -0.01096301857245084 0.02678343625114336 
0.01189386505211813 -0.03528768830864943 -0.00309346683174863 0.01062243464204715 -0.02158521926736302 -0.01087515205130541 -0.01124258643324938 -0.01262455915403546 -0.04790981319533894 -0.04066409995001037 0.01288967315570021 0.05358271660730728 
-0.01212531307587887 -0.02294276335576097 0.03427388954664062 -0.01306509646167529 -0.02404747829875467 -0.01192292027975654 -0.02575743332237143 -0.03263990006689606 -0.02996219930186343 -0.02794651001881932 -0.008112180444665041 0.03529302011466384 
-0.009763316178799039 -0.009188519525904239 -0.02085803236793139 -0.05128803526370103 -0.02211418687683282 -0.01002798991016419 -0.04387080114283888 -0.01716835302391173 -0.04051224549545794 -0.01262209322624599 -0.01480979435318013 0.03698366371221357 
-0.0128601459493454 -0.002058583075805388 0.0319299803337335 -0.03332633821456434 -0.0338328442298737 -0.007018640748084138 -0.08262456900493105 -0.005692220594788319 -0.09418483537845845 0.005105012886953869 -0.004800059754344109 0.01372495651104475 
-0.03553295232169972 -0.03894976162623267 -0.05702294665978151 -0.02862610520775862 -0.007342940560702607 0.0298640006301793 -0.01010805178163491 0.0119214708456914 -0.03634741297933393 -0.009439364601650492 0.006341615069117832 -0.01698278488888465 
-0.01239887169732214 -0.02027488602355741 -0.02664028049672803 -0.01347594955336683 0.02245960788284312 0.01436026963978091 0.006407335898232235 0.02957219695973872 -0.01537336336132271 0.003800393811080256 0.02282609461111093 -0.1319310321588463 
0.02878267593783685 0.02168393692111257 -0.03971696479801483 0.04932940900077671 0.01493502109533255 -0.0054594833204513 0.02974944732735237 0.03709127658515338 0.04836821309687548 0.003163510526149399 -0.00069241393037101 -0.108149626303435 
0.02797223328902489 0.03851975013490325 -0.01571146372832362 0.0208329603842353 0.008166045508925994 -0.01338368493172766 0.02149501315427817 0.005322307718893526 0.03566525167361441 -0.008545139224854684 -0.01374382591051373 -0.05515669664280941 
0.009319793931677945 -0.04108743083989744 -0.01020922453537463 -0.03307885809492971 -0.01479902125423137 -0.02210683853115028 -0.002245467069104643 -0.009571001304967054 -0.04611692478520937 -0.01510370474432116 -0.007632665665289408 0.04650907449924731 
0.01366303571619303 -0.02462116869994069 0.009713355556991401 -0.007370036335159307 -0.01277242168336732 -0.01130868454995294 -0.01248524871615925 -0.007258957600775677 -0.01627875707851881 -0.006384037838376692 -0.01471877456745416 0.02441339321819216 
7.993431212361804e-07 -0.0007981390817627666 -0.007759288060237005 -0.003777477443100722 0.002701507754849236 -0.005073509724652665 -0.02277035903535058 -0.003592422174655537 -0.0005921000625641366 -0.0120442328276522 -0.02326581693180792 0.03159788278230925 
-0.01237567383938829 0.000496161086863034 -0.0481971317108669 -0.001739221772834362 -0.009971358485332354 -0.001979992555451203 0.008059048465643346 0.00865708544902394 0.02647301901011469 -0.0161259854047465 -0.01994984976254344 0.002439972220137257 
-0.01127501277088484 0.01818678064731128 -0.01564800991017208 -0.04609293491866105 -0.01663700604019544 0.0077493629508089 -0.007002842815390878 -0.009011403624406257 -0.07277706142153352 -0.01256769252089067 -0.004040317156367535 -0.04426342333992861 
-0.03326617021190328 -0.03176748515888276 -0.04330828646828594 -0.002074523789733587 0.003402280826600849 0.01084902677409958 -0.02816809252842448 0.02351676975076295 0.01190478006767763 -0.00755565677595385 -0.003025586798271915 -0.0313810738831022 
-0.03750543478208807 -0.03588478224567831 0.01431771942457184 -0.01720096817983966 0.03120575044807731 -0.007715618076853606 -0.02140573658043443 -0.007917821932782031 0.008744743257128098 -0.02358160287540411 0.007985743675661698 -0.05670898804079169 
-0.02173222056620153 -0.007738780451614262 0.01109362529825104 0.01376396727461097 0.01759543863659978 -0.006824060870769833 -0.03628758280143524 0.02330631517544597 0.03559720279424116 0.01601434843282761 0.004480519295217312 -0.07832032692194629 
0.004688081963745336 -0.02560038182340387 -0.03322383619468893 0.001212594857276671 -0.01381962347617996 -0.02101298415534296 0.001011725122103818 0.02501045935699425 0.006660526680620655 0.001298990179481033 0.003758975588626128 -0.02354133012811524 
-0.002124662211727881 -0.028050331540449 -0.02335639265069575 -0.0452936655819997 0.008620055083581804 -0.03746984364598459 -0.006871534797365435 -0.02928533703340658 -0.01067742945832139 -0.02291048270973967 -0.0129360425832592 0.050218062227484 
0.0165066319379296 -0.03339824695898688 -0.008824794542943959 -0.01887104689402602 -0.007598320729657501 -0.01382632741139765 -0.01064835215186645 -0.01299595090768402 0.01434710000447443 -0.01160051748993259 -0.01104988602590694 0.03572734162479217 
-0.005384886280327231 -0.004775677432815121 -0.004052378646176934 0.02484500385628436 -0.003981052660525281 -0.009006225620532623 -0.01812559279090629 0.006105764368994506 -0.008826776410949951 -0.02799770700278901 -0.01795590164378373 0.02291461195616681 
-0.006583323030545196 0.02641419871904908 -0.04287406361911963 0.005146749631487571 -0.00628283238364536 0.01349220382621139 -0.001596323984710601 0.004427583061857711 0.0180030247293864 -0.02499660368542188 -0.02620435838812338 0.01190203141418563 
-0.008786564907718824 0.02997144216180728 -0.006738683763633563 -0.04946736971889607 -0.01465440965677688 0.01264115845342801 -0.02960715659030129 -0.009877860856159604 -0.05331590210586477 -0.005678638127605359 0.000890625211595617 -0.02420319891705662 
-0.02384163285827072 -0.0233322721728125 -0.06239293482313864 0.01589905006364827 -0.00686317182372672 0.008579867382756172 -0.06924165487949535 0.02446376921428109 0.04471964268349488 0.00603455801626226 -0.004600600103743966 0.00692728091067327 
-0.02044870997066803 -0.0221860469875675 0.01412926586765701 0.005414151762499027 0.004344114309130723 0.001691195120780949 -0.02642681942989065 -0.01061736431991815 -0.007475672778505108 -0.009593932154213549 -0.002650720863109624 -0.009634923674216356 
-0.008358374335863649 0.009586781265895078 0.009355250420952302 0.04320418804585497 -0.01604378864370425 -0.00131110258032219 0.0157607168788474 -0.004937935436302036 0.03996799122353166 0.01820161652761652 -0.001428338422400382 -0.03597434656105586 
-0.005987587926318668 -0.01916394552622194 -0.02147520469129842 -0.03241101493892243 -0.01698481057191313 -0.03043205901307026 0.004541254161308922 -0.01771464092953687 0.02042816920716481 -0.01050561672533605 -0.009470569297672888 0.01675338492657564 
0.03743647887235034 -0.007912280947417234 0.02091912211774624 -0.03363728833619471 -0.02462730875251272 -0.01669723391000217 -0.02335157340365707 -0.01365267866887427 -0.06860327430626231 -0.02111648388053502 -0.03206535437825777 0.04032774004484435 
0.009471341829284453 -0.02490099953510304 0.01633407046861967 -0.02296766907839593 -0.004951335306118781 -0.01019142613576692 -0.0262087010663861 -0.007374416248440346 -0.04912287588391577 -0.01855941560606991 -0.01451658973948051 0.05048274428360894 
-0.01697264866311822 -0.02235972794334365 0.0102986336898357 -0.00276671689797794 -0.006171279931686734 -0.004572967835120961 -0.03267644585107157 -0.01838853749989451 -0.03736375826440783 -0.02490748671997611 -0.009043426181045989 0.02962517264903129 
-0.0144382320694959 -0.01687518921064579 -0.04390077383207152 -0.03460541519668073 -0.01721498861448142 0.001969652416523997 -0.02367906101958674 0.003968334177314847 -0.04246860377242676 0.002544467223818167 -0.004783872318664384 0.01129280564907068 
-0.01643022572806018 -0.0103584967299219 0.01335047639698763 -0.02160508957873571 -0.01360373187701045 -0.006699282804381378 -0.04925490455685556 0.006627125818996706 -0.07198896344662455 0.01775544062418867 0.01073680741113261 -0.03772724107049653 
-0.03746079300395145 -0.05710168283083034 -0.05822844338390035 0.02377698633643678 -0.004340469234378377 0.01010483296383281 0.02619122207621999 0.02120047896035454 -0.01910301996433543 0.01066087160327222 0.008007802742201102 -0.03371579982098184 
-0.01422019197665678 -0.0359543096299076 -0.01287781770962224 -0.004198338073054607 0.01547526856470285 0.01030695594973157 0.01231399888338544 0.01355202021366394 -0.01517980727614127 -0.01724939494567301 0.008085685202680302 -0.07842548873735587 
0.02174057555002891 0.01831087831179636 0.01177566547289895 -0.01140543874433147 0.007719171076092369 -0.0008997396682189609 -0.00307174604073659 -0.01342871581823438 0.01985740417295549 0.001213354741863424 -0.004794665495805799 -0.07823891781050316 
0.02597708759674801 0.02276280255467885 -0.01797143026360395 0.005874567673265684 -0.007699365053113714 -0.006202261520786177 -0.02885523131064656 -0.0160324503471357 -0.00191373870873087 -0.01736304628708203 -0.02226264854285087 -0.01729028150210617 
0.0128949692029639 -0.008307104412225649 -0.01894145114194194 -0.02660133713005714 -0.01163995526272982 -0.03169027839819489 -0.02141813058597572 -0.03665859464042441 -0.01136842162215878 -0.01753528201269077 -0.0205098149095858 0.04080059048960411 
0.004343145850549091 -0.02006792357051832 -0.01199021628529635 -0.03029069105813178 -0.003456690639213442 -0.01198142803158988 -0.007277887959216788 -0.01716526663031282 0.002639844140983514 -0.003585886007796417 -0.01471144038557421 0.0689722259729233 
-0.009088802784444702 -0.02288898487330821 0.007664491228567406 0.0156291461542058 -0.02140798990483057 -0.007135659913699052 -0.01199209293967509 -0.005762815877334453 -0.02792705412830889 -0.01645610363190463 -0.003884442609923932 0.03069167731579908 
-0.003828574071661464 -0.01600858486780074 -0.05703896698218049 -0.02597825309326538 -0.0143865833283548 0.003494547658281452 0.04067672131665804 -0.004948915661324653 -0.007597992378844397 -0.0002876027103874036 -0.02189233708242789 0.02411532377609882 
-0.02447180103152246 0.006442696678271512 0.03241514026159781 -0.02714558967571668 -0.01803083855998769 -0.001152380431874768 -0.04563385686014002 0.0004330827022017783 -0.02915523858313827 -0.01176983019302688 0.02075667547459046 -0.02291152996677874 
-0.02072732372547564 -0.05013714665656821 -0.03559754567954534 0.03885989898869094 -0.01252144838718095 -0.007516723193196035 -0.05406924113029455 0.03021899811544811 0.007290407513066878 -0.01115884145933732 -0.00940894222057144 -0.007473742958267548 
0.004678122617575865 -0.04580408899610833 0.03683355296810625 -0.01239708812269745 0.02413820833961168 1.441141711974498e-06 -0.01071788655893928 -0.02014681071614492 -0.007577808086181839 -0.02069203869794472 0.008888718066967834 -0.04292483188092876 
0.0166540234539189 -0.02193588857432555 0.007770559225278413 -0.01970063899876918 0.006053908123068225 -0.001448391290701221 0.01491712904278471 -0.03493395424366955 0.03516458042361059 -0.01568384167916003 -0.02167574522664948 -0.0711487373239879 
0.008506089594741407 -0.01010354159409859 -0.02124852155822705 -0.01434861837193035 0.007822564679983188 -0.01935508914701178 0.01313754443237712 -0.03740060889584121 0.02249491524833228 0.005278827232597953 -0.02249929065121136 -0.02486728686853966 
-0.008496592884045889 -0.01030713590435067 -0.002970979424172008 -0.02454095689475495 -0.02160065896888408 0.003142114732576475 -0.003550869002468118 -0.003310037752877218 0.03360297101231251 -0.00181898722970376 -0.01180922828670364 0.02500642812956521 
0.01164017325420161 0.01759150136610711 0.0155947100631612 -0.02415194708044547 -0.0185973875609246 -0.01251795061566894 0.01387474571458279 0.003600925312765664 0.0644899625577736 0.009204562725822391 -0.02177382652704956 0.01286350525295844 
0.004713861855682532 0.01934145540086736 0.02228541962975163 -0.01491249521885036 0.00433817230782544 -0.01723862630988685 0.01648975817763079 0.003986683709886161 0.06016828123010901 -0.01958874045489227 -0.03263652939307296 -0.02971609855489782 
0.01405661070601977 0.001539520634317106 0.009243032162008273 -0.003204080142899881 0.02280791476872234 -0.01787274858405578 -0.009521878554605635 0.01867578284321922 0.02475251136132654 -0.03084444479906457 -0.005478590552994952 -0.01846160077783102 
-0.02122523388584783 -0.0006097827210237113 -0.02287519430554133 0.01284826385478909 -0.01039032629407032 -0.02562228461250146 0.01633272939872483 -0.001385694154603601 -0.009847413397899046 -0.0101584830358421 -0.01517394487184561 0.004223425336086701 
-0.000737365647612492 -0.02079983803627197 -0.009121490127336747 0.0285266399523986 -0.007255396548046917 -0.01068066313786557 -0.03013485374634872 -0.01594295847687847 -0.01694293295111854 0.04573375944670972 -0.01452641515166047 0.04295461954890012 
0.005987664400171094 -0.01242415527480914 -0.03701479052896795 0.01400989514117104 0.0009007224868105619 -0.003002707335439296 -0.01928563898915015 -0.00658426926237243 -0.01235951020015402 0.03485216869029215 -0.004733801305524707 -0.00764301946861608 
0.0004689900140072631 -0.01913975422554913 0.02783023466166101 -0.003884877116774431 8.245985979110016e-05 0.001381486334222297 -0.02124680012017752 -0.002409335916419992 0.007588110829461831 -0.002365984769506583 -0.005124766374358939 -0.01439018326818118 
-0.008866698057221276 -0.007430811515514654 0.01400124606020174 -0.01312007941613486 -0.01456026904775073 0.01692336135802593 -0.02183683841110669 -0.006396004651187723 0.005108584594607089 -0.006926681027240413 -0.003391919759362279 0.03400891751789248 
-0.01042905561362458 -0.02191495814905035 0.01360817205840617 -0.005352414085006534 -0.01811510327617651 0.004261472533705861 2.126393145268074e-05 -0.007450122397996095 0.003412871945582766 0.01086556971801651 -0.005508589314449718 0.04329217815308749 
0.005687410690531122 0.03495391010064831 0.01546037280154971 -0.02948629360130274 0.002718993196392075 -0.003878242488296697 0.04354824904222811 -0.006762285043839451 0.01151039490330177 0.01517658591145028 -0.009516194851038575 -0.05099077977974144 
0.0005710290052142317 0.0066470636048799 0.03382776561156946 -0.003498275139888788 0.002293715648397747 -0.02201027351900521 -0.006271999408680004 -0.01093376756002373 -0.02413335867406809 -0.0470096973066698 0.01511349978654402 -0.08041726673657702 
-0.009717761452408609 -0.005028828970802235 -0.005362055653956544 -0.003792646173819305 0.03675329323519455 -0.01658543800413037 -0.01466904942037136 0.03549830237493733 -0.02842651269002808 -0.04393449748102583 -0.009706023075402619 -0.04020579279052634 
-0.02990298114489945 -0.03137604640861185 -0.02834041694476815 0.004222897937097719 -0.006203146374233501 -0.02898493093149559 -0.00302674514085462 0.01350435920531668 -0.01269871714160912 -0.01863638708089531 -0.01562524817207235 -0.0148613370666306 
-0.001602052174502198 -0.02321619504878894 -0.00895080644257204 0.03348358387899446 -0.02435616180746359 -0.02186320268293787 -0.02848328804630162 -0.02441855266740125 -0.02628078496696754 0.00862105782910471 -0.01021202109968985 0.05433141782810024 
0.00586170973817904 -0.01009290863500479 -0.03502006922323676 0.01386406733721566 -0.0136440412448107 -0.009005805243691085 -0.04313501874441367 -0.02867425818907884 -0.04060212038508917 0.02430861811216364 0.007326313957909955 0.04471865783713435 
-0.008402656640391687 -0.02234392162414494 -0.01760003227773541 -0.01255438189030358 -0.009862027526073789 0.003971919022250535 -0.007792094025046718 -0.01551833422458684 -0.02021797859134649 0.002433488555624469 -0.002670474152770521 0.02984447807753518 
-0.01429883488891144 -0.02758975385884113 -0.02583422643274825 -0.00546112773218592 -0.008372170135281359 0.0123550308589643 0.004237552435996265 -0.0200641242544223 -0.01724330603139778 0.0002913028679722055 -0.004119861814326855 0.04738688835388576 
-0.02180075131888548 -0.02092160719438619 -0.02731020849375481 -0.02573122112178125 -0.02121277244893157 0.004133826837195508 0.02507141733601126 -0.01491982561885581 -0.03757080371046879 -0.001494004272163073 -0.01436895846973652 0.00849768856343765 
-0.006766037870627919 -0.004152834653529378 0.01730724654923165 0.001284150597824687 -0.01665931694226686 -0.01773080800054107 0.03076636246554474 0.001275522491729502 0.04898340377972216 0.008831182811167118 -0.01440239496040957 -0.002999721743980054 
-0.001379176299003462 0.02312993241769906 0.03995719444780649 -0.02472916555277451 -0.01104579047753296 -0.0273527246275223 0.01376669905052089 -0.02335070773117626 0.05972907025219593 -0.02595117271712963 -0.03132784367118031 -0.04516513111655426 
0.008729238215497532 0.02011461537907951 0.01191528379642338 -0.0586336638656581 0.0006641526427579463 -0.01861665340114768 -0.02786379618078613 3.329910548195326e-05 0.03188466244052869 -0.04213757734426788 -0.008510713933339987 -0.04642693292880491 
-0.01839387554054406 -0.00219365283814189 0.01529600719929469 0.01204566967020392 0.01453522628138831 -0.02058024736705902 -0.01841949570686719 0.01015510630779174 -0.03072889732095637 -0.001017739466041614 -0.01643800422494265 0.03331154052595284 
-0.01301775358790821 -0.04166690254803054 0.002627927025310491 0.009289215008149165 -0.001463120939867032 -0.008622340005249271 -0.03075045728471141 -0.002294889316020998 -0.04259370339342978 0.04638575065012748 -0.02526618156298445 0.04159438718625771 
-0.009008805313862058 -0.004720073753945609 -0.0489497772200158 -0.0004614596419749516 0.002154889756601434 0.004272425322599751 -0.001718520914532979 -0.008292798738677738 -0.02571535823512182 0.0489170335367835 -0.01808326956430601 0.0103082999139707 
-0.007476471991144315 -0.02736261808161809 -0.02932769536487848 0.01037321730927509 -0.001695898447799148 0.01081698096860214 -0.002896960230736904 -0.009641962942049498 -0.03879860220595626 -0.004381826531188245 -0.002840162252536567 -0.01856144625443371 
-0.01750099004006851 -0.02083619675219009 -0.01668945420738346 -0.03009458019901557 -0.02392741530100703 0.01547399991592308 -0.008845367559235384 -0.01467198667982522 -0.04669605183259599 -0.0002700596129321197 -0.009939742064197558 0.006587613698696921 
-0.02178383972013578 -0.04333989747090604 -0.00870427699389119 -0.011067937019463 0.01276372053746337 -0.01090704878611352 0.02599367446426232 -0.01640721498846353 -0.0332018312125042 -0.005116841904947613 -0.008953154615511022 0.02070885734350775 
-0.01355979825162299 0.002357152180799023 0.02427910927649064 -0.04098148828428727 0.03313345732572843 -0.005395320290427123 0.02663500345626363 -0.02734588356102747 0.001339490605231235 0.01415664125747621 0.01599091485609363 -0.02468165058117858 
-0.002837087118933762 0.008171985106443241 0.01627966025905569 -0.004951185295169749 0.008508977084364268 -0.007762428096447326 -0.00601861617603237 -0.03067850018711285 -0.006154863908687329 -0.05263975450263068 0.02040302469132631 -0.07164982613038194 
-0.005306380266751538 -0.004397370990864818 -0.0006489070375365021 -0.01188289999894505 0.01432765802488401 -0.01002897107957713 -0.02731146442841477 0.007619549366622832 -0.0402714502729552 -0.04653069346871382 0.02718546429102116 -0.08806553429954304 
-0.0311979349253519 0.003384565126505507 -0.01219291684879774 -0.003413841345672488 0.0002341853216667062 -0.02279018641491968 0.02327041729927651 -0.009818107039270945 -0.00898289860427815 -0.007671508731206002 -0.01670298252416078 0.0128386458511836 
-0.01124457573011819 -0.03429967424640151 0.02251145412000745 0.008912823336316964 -0.02812693693387013 -0.01400873382011039 -0.04765167522447601 -0.009909060554124915 -0.03830679963255686 0.01248080596391478 -0.01598928610633547 0.06663121716639799 
-0.006982317210457461 -0.01775126338627607 -0.05763180425275338 -0.0005084558313997526 -0.01955677381988689 -0.005824564365711835 -0.0253538083451374 -0.02658421620214069 -0.00122481147122789 0.02357174357076151 -0.01562241751710653 0.06931997610238626 
-0.01047309579220332 -0.02679691743852802 -0.04752153077481268 -0.01716093253428965 -0.00987003018584299 0.007562711680530743 0.02207550614684048 -0.01463248353087454 -0.04165500426710746 0.001068391095730234 -0.008746790862241548 0.02822124284761168 
-0.01612210522168316 -0.03144802516485976 -0.04935706551205102 -0.02864208915311936 -0.009071183142513491 -0.006316107642085903 0.01323910253488505 -0.0225694691907901 -0.03797850570884381 -0.005419572917714191 -0.01151657039541083 0.03273847579080352 
-0.001910281704550135 0.007265861684573984 0.001330542479305916 -0.003946024431743752 -0.01343303874652194 0.008388220829113956 0.009884596249717588 0.005121402670328772 0.03063996118343177 0.0220761563955665 -0.02496843266446603 0.05652037697089817 
0.02703467331713059 0.03977589906420286 0.0199150474694259 -0.03239158824880529 -0.0004377429823261485 0.03571488413139719 -0.001530595245830371 0.0002907662517575369 -0.01019802852298377 0.01475058624568808 -0.008078687600092982 -0.08384940971327234 
0.02600572108805478 0.02866752438024072 0.012960078714659 -0.05493441611392076 0.0004155787638743187 0.02225699474533311 -0.02383219939317133 -0.004272147439419154 -0.01630299580642331 0.009562987142187718 -0.003666908493304605 -0.09729299305027979 
-0.008641681163388469 0.04281702122362727 -0.008181431771535607 0.01613608128638084 -0.00248717501948104 0.02225070325154211 0.03516786971985243 0.03983822887299306 -0.04753095815540982 0.02201657634239418 -0.0215840585963142 -0.04528511775704222 
-0.03144185648249696 -0.0139691295927765 -0.006638440763516848 -0.02284651635613004 -0.014901128045174 -0.01914675092320235 0.01575404414388159 0.0221381466572781 -0.03171277845646501 -0.009028006256975581 -0.03019149931877659 -0.0230750808728344 
-0.004236259079571627 -0.001586269753208211 -0.01610873306257839 0.007359123590403821 -0.02062339817644081 -0.01605005293048116 -0.03041550278343962 -0.009428324962355992 -0.02249725041921311 -0.01197116245632032 -0.005436431678494147 0.0552633408716191 
-0.001581530711643714 -0.0007880977380569079 -0.03504385556296562 0.0009459894618608811 -0.01550985925716604 -0.008377183659487426 -0.05469419600885316 -0.01548252297057886 -0.02259711831433203 0.0006951049385344166 -0.006390434811038745 0.07491275953474015 
-0.01171973506398852 -0.01100834746955115 -0.02576529462254758 -0.006131180552696155 -0.01659437086521649 0.001712761704016333 -0.009499140474542152 -0.01354693298001711 -0.01456613676875134 0.01023634615794464 -0.004886938209900052 0.05311484392161885 
-0.01337831059727232 -0.02205854125311524 -9.763287930028508e-05 -0.01666173339501538 -0.01321428936293142 0.01253771300699176 -0.004028273415149459 -0.01023096454459636 -0.005212687617937789 0.01260509112403026 -0.01321912453498877 0.05140752626108097 
0.00447435621665501 0.01713306170657487 -0.001859183035621547 -0.02055559138382686 0.0189203669741898 -0.02608575794976102 0.02576534851556607 -0.02528042459667741 0.01888153096654085 -0.01178440513581528 -0.03155996644751485 0.01314157507080502 
0.03050146765048257 -0.01375348233488677 0.06404341628373716 -0.0309899684411392 -0.002994568577427088 0.009955103266555793 -0.04790902038857216 -0.023383951508738 -0.003224452865794041 -0.004329193481234301 0.01779904316359662 -0.1150702824776629 
0.01759979615358464 0.01283681623034304 0.02394895926853257 -0.0009212687102244335 -0.02247976835712723 -0.001660811909068492 0.0003076593392707545 -0.009699512012769735 -0.02061199691306156 -0.007156325219278291 -0.004802249193559063 -0.04300124668005305 
-0.02819517891300965 0.02358482589023886 -0.05990011224736249 0.06362270128841574 -0.02157474394903296 -0.00575321562534708 0.09209383382876529 -0.004186224909707543 -0.02008363705546123 -0.02215602048518548 0.02453721665199856 0.01683437009330313 
-0.02982490265141834 -0.02298918681372927 -0.0659054952029143 -0.01585272911764429 -0.02600290123289284 -0.0148257966886227 0.03783549782098247 -0.01036716310435161 -0.05747116478897048 -0.04517232776909172 0.0201648032618461 0.009734829371341456 
-0.008029650840064408 -0.0121910970154451 -0.07952579338988576 0.008274781492874902 -0.02476344352217418 -0.02147371980721643 -0.01886091686255211 -0.01917922027715458 -0.05915587308083829 -0.003985856106237769 0.001030701607244593 0.06705620377553803 
-0.01019747500657379 -0.00541108801709034 -0.0594519089659872 -0.006681995054220986 -0.01303861921279717 -0.01814886364715192 -0.01994326804110426 -0.007578828198007685 -0.04384805293691634 0.001943569087498252 -0.01399987401936924 0.06966445086141897 
-0.01748326939299548 -0.004817069288680759 -0.03795192985046753 0.0004257925123561628 -0.02342489072836708 -0.008889466435382815 0.001467932800290602 -0.01258490008734212 -0.0392320770433011 -0.003387150357925162 -0.01725138467604421 0.05605887957960948 
-0.01590151662009371 -0.01185099051460984 0.02917307313181239 -0.01997396125216113 -0.02127945507057865 -0.009379318050272114 0.01353913747082525 -0.009800829127826096 -0.01711540637178507 -0.0006900530896340702 -0.03328955480072928 0.05276919086975504 
-0.01497610290483563 -0.03085509615582044 0.01941482711263621 0.004077657901786587 0.02193416777817488 -0.01570284216537105 -0.00658299227426045 -0.00861327227103631 0.01012857399232758 -0.007609968728339145 -0.02024677769985848 0.01773028214152925 
0.008353448707285873 -0.01631002583547397 0.07946508655042715 -0.009482712156672939 0.05634834031431273 0.004364571742251761 -0.03942701687830211 -0.01220351240137199 -0.01552001458977574 0.01728660052037218 -0.006225360057832817 -0.07067651760244195 
0.01318631257271933 -0.007685652355177184 0.05882281572340917 0.014923983059281 0.004940413661651258 0.01160407619970873 -0.0701472105213182 -0.03335081141714819 0.01022887485577071 0.01356710213570789 -0.01261362370771645 -0.1102821535241796 
0.00417407019146487 0.01788662376082871 0.004647661194764821 0.03791947405352288 -0.03154098737759695 0.007629054436867515 0.05663694758273454 -8.272262123551027e-05 -0.01046619157168646 -0.002413954577435162 0.003153779302194793 -0.06429986925902736 
-0.01790994612354611 -0.02333232753635128 0.01317548341831215 -0.02752556082290147 -0.04008242080191916 -0.01881588357697871 0.05383758054142103 0.003545251242251454 -0.001153585255523394 -0.006003408975553783 -0.02310596065051955 -0.002582935566297205 
-0.006298820080685543 -0.01651481289059421 -0.005202913644092267 -0.008720237963195081 -0.03030126551483824 -0.01283000279545465 0.006035052614558467 -0.01199430085479631 -0.01365135408571051 -0.005954430629399315 -0.01073890772461579 0.05835153419140822 
-0.01419607632796686 -0.004327437866157102 -0.06100217189439656 -0.01874363716982154 -0.03254512038334652 -0.01085893491979198 -0.01058994709635287 -0.001705469171313528 -0.005249900358531015 0.005634078305329859 -0.02038868867238588 0.06544784633150175 
-0.01768630766463334 -0.007653596342780621 -0.03292526928660275 -0.01892846200063798 -0.01983235097141342 -0.006164479919603625 -0.003967648191205909 -0.006456044728253962 -0.02667882604235437 0.009625132847002274 -0.009504843678163228 0.05445845528058397 
-0.01365234450252996 -0.01420405846881556 -0.01072148283912436 -0.02851822539737532 -0.002112622910353604 -0.01960380322766705 -0.003930475064024848 -0.00548267847799384 -0.005708191857035386 -0.00184506339410947 -0.01910527710038976 0.02921911008203599 
-0.01983369700583097 -0.02634992602921873 0.07288001273748265 0.02591458376831551 0.05814098850807303 -0.03273813268379955 -0.04093020681618503 -0.0228796469567611 -0.006615414855746195 -0.02520080108490391 -0.0315539973767844 0.008952441842947204 
-0.01664637231761084 -0.02774765964034845 0.09193491558064734 0.05311664008077978 0.03153793609765379 -0.02257596683811211 -0.02468686157235821 -0.03526883907558591 0.05735992709674104 -0.02399278502292228 0.008522932144687056 -0.07646039658347949 
-0.01786286642254064 -0.01679618885537041 0.1105942146376812 0.01398629001584418 -0.0008695488304601874 -0.02595610765735198 -0.0124419465028739 -0.001240615849718967 0.02424715315721322 -0.02024202873704576 -0.0003958772317381829 -0.07427266343282039 
-0.03035580514324524 0.005197363806767969 0.01055016027869103 0.04261886739973621 -0.04294801299041553 -0.01318378358622029 0.1170605676954205 0.02006771291476301 0.00971457938654253 -0.02833814809936504 0.0577430880241019 -0.03119309595190385 
-0.04469568341804992 -0.03028397989917687 -0.06724982007239529 -0.02807040356302121 -0.03883255071180548 -0.01764876587337678 0.08006657512932104 0.03843011687446916 -0.01084362097293457 -0.05554092428411819 0.0271664263916626 0.01910364655380485 
-0.0137032968600498 -0.02764915432257345 -0.06780730500944056 -0.02208503942927581 -0.03486081003458209 -0.01868783859869705 0.05898682016324746 -0.01409422641538103 -0.009798534762696964 -0.006821789241683084 -0.00140026234785234 0.02024301807294529 
-0.01431743594236091 -0.02635392908414397 -0.09533847769304635 -0.02658480774792788 -0.01409866713360636 -0.02157468220989312 0.03036127000924131 0.01348058244624477 -0.03722464120415454 -0.0118921952202656 -0.03046624400633151 0.02600144478884552 
-0.01599280579412812 -0.01149875112003161 -0.02721717745248109 -0.02062163998719148 0.00967528733007862 -0.02138284763550884 0.01202127460702874 -0.005324804886747038 -0.02942255006981395 -0.01733715053777277 -0.0203651804415401 0.02597990394687121 
-0.02244800633247354 -0.02147910106452928 0.02188388459203765 -0.0348968870016386 0.01466641157600365 -0.03105090011646702 0.001954251498198583 -0.004646480306589689 0.005229271122801619 -0.01552646889623322 -0.0373049343201837 0.05732742715336918 
0.06436799821739554 -0.01118960970326034 -0.006964174081160317 -0.03677385645435708 0.03422991660967124 -0.02260815310858875 -0.03626809597988751 -0.05609240331289321 0.02003093559489139 -0.07492542690661157 0.01751533661782414 0.03286737558098338 
0.07582709359117684 -0.002792379205177459 0.04692095959555923 -0.003889290206045786 0.009227092290149218 0.003388114440237805 -0.05568550364451987 -0.02481543245447502 0.03775102550532403 0.008174601497417578 0.02819262358682461 -0.08458084514747156 
0.05338200308165246 0.007750600230133776 0.05579270561957878 0.01226270203596305 -0.005098020808026372 9.241038911933561e-05 -0.04276986825396267 -0.006323743304648995 0.0194890610932457 0.00935342380205316 0.01187142379755562 -0.0001028763532203745 
-0.03341558974620743 0.01156685115075128 -0.03958577441584954 0.03330361512857617 -0.01655477089240062 -0.001929044264693071 0.04496138905394137 -0.01712213284214527 -0.01068844045294623 0.003736410248777249 0.02656874746277374 0.03424709182583687 
0.003693419831021845 -0.01964222716920109 -0.0535939901055855 -0.000627457176250816 -0.01108517675977443 -0.006945748316579231 0.001627856382272361 -0.02426162534997508 -0.01369640358983866 -0.004280274612091623 -0.0009086622517764231 0.0356927330432141 
0.01011764609230334 -0.01311269023396392 -0.0514971790159523 -0.001872450267202003 -0.01519751236574174 -0.01513989391595928 0.01106627816330857 -0.02022423133373734 -0.04403603483456186 -0.007826329254826327 -0.01333263195921256 0.03542958155122505 
0.01704123760316418 -0.00776746466935447 -0.01288412654407085 -0.04389992760150228 -0.01141954408426613 -0.02002578041051306 0.04429832002888277 -0.0180161939535197 -0.06299860901647979 -0.01087504188887023 -0.02015568062895537 0.04063767284123478 
0.005625486196967545 -0.007572544763323386 -0.002310146527514504 -0.03548639184540953 -0.01099977318169755 -0.01100982310955883 0.04764667942293391 -0.02532403860936348 -0.07322215950104703 -0.01591081319651421 -0.02002058087075088 0.002347576163505351 
0.01692908220091501 -0.01433581205251258 0.0100476105308878 -0.02897702219254846 0.008633819024208398 -0.01800911894894673 0.0235782013394073 -0.01542216985612236 -0.03221597067394383 -0.04356930107919219 -0.02570635301955139 0.0536888668986201 
0.03752351889938244 -0.04024732402947515 0.007364358165841729 -0.002588162589504854 -0.03325215836324391 -0.01647903401378769 -0.04815227884839951 -0.01022100657657237 0.0286303305897492 -0.07937967854884952 0.02473746488114592 -0.02055263364374159 
0.01773442376587471 0.02245872749923091 -0.004651330280044472 -0.02683598696391815 -0.0152067065852254 0.02495516203215022 -0.01544116175496778 0.02789471651509694 0.04189138935260144 0.03917168973766943 -0.003001080839839628 -0.0801273765477802 
-0.003266896582086243 0.04267829096933722 0.01685380568995085 -0.01165070883547796 -0.008252681836557224 0.04614230950603847 -0.07573942684652343 0.01784761877870602 0.03742635667958825 0.06289787403761879 -0.0266427768126549 -0.02130166951050158 
-0.06624831822316339 -0.01343915084876006 -0.04963140327825467 -0.05163748501012098 -0.02377704191551321 0.0400450709420891 0.01456778586474078 0.01662792834119937 0.0315139517603507 0.06153377911475061 -0.01951560977012509 -0.0006497482476779717 
-0.01528391924306233 -0.01324963441159927 -0.0751254818503001 -0.04915025887458683 -0.01276092490275593 0.02388378057187952 -0.02337769165388573 0.001435745606638115 0.02596149840568111 0.04739023785164716 -0.05385465801420611 0.01949674001686462 
-0.007992783500281809 -0.02174409431256814 -0.02927443318263907 -0.01066583512525452 -0.02453416781810982 -0.01410756949714938 -0.004349321173495306 -0.00543819148553131 -0.02513687244269028 -0.001731252565891496 -0.02882304207480227 0.06444148469632766 
0.01517229284459199 -0.02405016970520442 0.06933852264585877 -0.06961070555220765 -0.02509339420689024 -0.02378557094378474 0.02519152359036026 -0.01678316079275011 -0.07138192659867036 -0.01910308118089318 -0.0264686808571894 0.05143022172297559 
0.0157454441738441 -0.007725929046774985 0.1000782169290075 -0.04334612099570075 -0.01794553248408181 -0.02393267599453727 0.01177419594829699 -0.02514774715103315 -0.03198731162052621 -0.01245715183427708 -0.01862934741400039 0.02188392718256871 
0.03249917863049596 -0.02439210990606017 0.02684563056464915 0.03873804319695585 -0.04120591989017847 -0.0283182524727008 -0.03198927827958705 -0.02382548179664976 -0.08155177364257955 -0.0763589139387892 0.03662521368391868 0.06374796093233254 
0.01753870804453578 -0.01870630067889616 0.008018676107040858 0.04325812701569461 0.02419333390166524 -0.04236755639526729 -0.05134729132524634 -0.01396901944633939 0.03248240326896838 -0.06327041743193479 -0.009678232218638354 0.03903147404022662 
0.007084514883542006 0.01120915673723004 0.05874199909399103 0.09088952168616177 0.007250827369930014 -0.02182731671170237 -0.0470072323538617 0.02193326756162828 0.07699599593130965 -0.04637522875310367 0.01021294916662047 -0.08001686740148674 
-0.0004431024012334861 0.001990373800421064 0.07074658126559279 0.0460863838021669 -0.02239052340944387 -0.02234268693090282 -0.06728434059301878 0.03484078354404165 0.0558142054400134 -0.05485681934405225 0.008896053476392628 -0.0478866169679809 
-0.04730809061664433 -0.01206818019391527 0.00939391353222847 0.03376879109919268 -0.0156925390005728 -0.001058675020678593 0.03420904271972297 0.02138704680204366 -0.03661835316433885 0.002900517746698511 0.04926979889445313 0.002208741194024701 
-0.01335179451621086 -0.03138109377670332 -0.07481820285097746 -0.03949981341135266 0.007949525159507396 0.005258901071945979 -0.02757346015959381 -0.01094529498136214 -0.02903997817145142 0.003006213021538093 0.01702018159552849 0.07587945740439778 
-0.004409327013409754 -0.0346062799437415 -0.06721319222120267 -0.0200635376276001 0.01608171013568473 -0.01393443508866864 0.05114801308232592 -0.01948573886856541 -0.00967944552858045 0.002197809961848406 -0.03652631312971762 0.03506612556125372 
0.02420359718406576 -0.02947101843525462 -0.05070804053812412 -0.04550501743790551 0.04201951558242718 -0.02584141153883815 0.1045368128442597 -0.02533314252120417 -0.0779319661407618 -0.02815547161378956 -0.03774779233643103 -0.01118463161554778 
0.0204258411836428 -0.01372086421769421 -0.01563244089987883 -0.0476589115732988 0.0486186914823495 -0.0288330226105188 0.08797266037600407 -0.02833467339437353 -0.08119010713148087 -0.02774026427907884 -0.03382068262152375 -0.01430623231268412 
0.01258051855598291 -0.03807187849425592 -0.001271493694409921 -0.0314772053299328 0.06597984337840354 -0.03398839329135645 0.014004778355499 -0.01270818106868795 -0.03279450287677042 -0.03194546789412455 -0.03427456256898126 0.05497468905755763 
0.0006529622490248865 -0.02358038602354422 0.009385188481444616 0.03874541039975778 -0.03267850102954324 -0.05069191633900114 -0.03280732235013423 0.01403128853181417 -0.01201997247950644 -0.09323053281583081 0.009635439507783363 -0.0166343502827504 
-0.01882646290296022 0.049379748303163 -0.01004781592122171 0.07530372236604264 -0.06997459574052543 -0.01765472699275682 -0.03117193209003457 0.05511113699929877 0.05025151239354973 -0.05035771539750288 -0.006003449690274477 -0.07503863913093077 
-0.01262720816171277 0.006940708964379097 0.01352992000264662 0.07034763100582114 -0.05321375896357715 0.04134906674371337 -0.08523923511175276 0.04855382393803555 0.03221078151092906 -0.02168945351032597 -0.006525188275902488 -0.1048429270760965 
-0.08495992835553387 -0.01659168527373638 -0.03805945103022014 -0.01468743874665292 -0.03471949229772156 0.05250154237817446 -0.02164139974101251 0.02997670390741422 -0.02811106746667759 0.05925053298482915 0.001279817278998981 -0.02098488649803271 
-0.03464633232736891 -0.005700708084136431 -0.08710764009113953 -0.06414136064628992 -0.00162285841682661 0.05337156598631832 -0.05768296857741687 -0.02958536900619868 -0.02262100408157703 0.04909007755378331 -0.001922636154716865 0.03762590777513395 
-0.05724728625486731 -0.0466253790926195 -0.04631451766507446 -0.02508742745006136 0.00315038325298577 -0.005368411243849579 0.01732309903941383 -0.004209881756183175 -0.03600998733716563 0.03658856918040319 -0.06329082323366875 0.04858885918613371 
0.0059291943908549 -0.04330893592115949 0.07381185904330374 -0.09751940438380367 0.01316646325238739 -0.03193559669764696 0.07192220193764297 -0.02514726632982473 -0.1065580707768162 -0.01652078335054297 -0.04505685679310013 0.01467081816801852 
0.0169447247776225 -0.02440040530684124 0.09914584869583754 -0.0462673341590303 0.007083655264461784 -0.04842563599004469 0.09209648672208355 -0.02485676147377662 -0.07198289836145351 -0.01861676595122545 -0.04094716644900102 -0.02835820998838101 
0.004612991761640789 -0.03644565751309965 0.04342652731104889 -0.009183222417633771 0.006511497196356126 -0.05113053226435096 -0.00331945685058151 0.004653816260871761 -0.110101573005379 -0.08478510951980082 0.02546869228595819 0.04134135942957833 
0.005733200279603988 -0.0217678302854419 -0.04815053645544085 0.05283581340246464 -0.003963226907634484 -0.03481763052044303 0.01871372897754793 -0.01655441027613284 0.03741355641995626 -0.0675300240614885 0.06081863188412408 -0.02592283345260971 
-0.006452819082004674 0.01381993803585889 -0.04084963503052443 -0.01294274664980831 0.0279028153423342 0.009923123223302596 0.06720419606934853 0.01287226994539023 0.03662093612973362 0.02238611429123135 -0.0215801864291097 -0.02572757438810958 
0.001141675997120712 0.02111124119284771 -0.0513154140034716 -0.0203139341441051 0.001085190679004731 0.03870036227012603 0.0005874245050489534 -0.004769129476397174 -0.006742132106240877 0.0318063067940494 -0.03336217976768695 0.02427301663205832 
-0.03258215403762904 -0.02524639625558728 -0.0394699354064106 -0.0246227941594255 -0.02102022559865561 0.01181207220639793 0.01066412631546442 -0.01535526191724577 0.06117016083995822 0.05048560054786982 -0.03955989720844395 0.02224505967197331 
-0.03652775393856805 -0.01976126865405037 -0.06362835130947811 -0.008511859144842086 0.001572790472626154 -0.02116699613733181 0.02142635119431683 -0.02776620818621467 0.03018193896778383 0.04884653525878966 -0.06369706982907554 0.01070230050153538 
-0.008651910962492175 -0.02614376963826789 -0.01049573313570819 0.01463911611479138 -0.02790837857300813 -0.02140766272320495 -0.005712299439495775 -0.01218432689702221 -0.01519287015352707 0.009153296628926416 -0.02295631949707459 0.07162495375623189 
0.003722398668827807 -0.03802468003969801 0.1031627912999453 -0.06787322938097265 -0.01466839862419853 -0.03663289899875055 -0.0263476772843456 -0.03462751789885278 -0.06546417741995952 -0.009370087895633898 -0.0184232936534033 0.04082210144783741 
0.00505268873352028 -0.01770018489226131 0.09684862449981729 -0.0063113432224436 -0.007986541110246293 -0.03433269423034947 -0.0345859874782377 -0.02031144161767333 -0.0007512883537884303 -0.005324276575524685 -0.005650598022330732 0.02949554713410697 
0.01864513430235835 -0.03028673508442555 -0.0375136361826266 0.1073169594767339 -0.04701449715088843 -0.04775319849057148 -0.0574842274515274 -0.03739563971362102 0.02513442131613628 -0.08866552975782552 0.09811662914557318 0.04864208394612186 
-0.01976988136483129 0.03101149425097761 -0.02601948400015884 0.01465943420993149 0.009560687834161634 -0.02680715708078403 0.004762632735154298 0.008021878171669109 0.04020541169633327 -0.01098442870396231 0.04680292163826149 -0.006111865567035966 
0.0009392736220919242 0.03670755416425072 -0.02967826672223452 -0.005174452348914458 0.01037181436997813 0.02669537853903292 0.05809115140977112 0.05361291621065403 -0.01105746092189145 0.05504765519478563 -0.04810116581087578 -0.02303301372642156 
0.05751595929615493 0.002933665045964784 -0.06356742148433317 -0.0553557844001825 -0.00749612836071258 0.07491137642284018 0.007236262796538283 -0.01676069878946633 -0.01189079505151702 -0.04972654998704291 -0.0394820560549975 0.01354101777587286 
0.01163587291770476 -0.02782790211741961 -0.02571420336285613 -0.05099248994355474 -0.01986610533343115 0.05200612927885914 4.824680419585539e-05 -0.03413487181062384 0.03137586368688377 0.04343016332329736 -0.05113248378674457 0.01293009454395714 
-0.00695028517163176 -0.0334872570719325 -0.05854813234252115 -0.0009276960518689022 0.0132550752869833 -0.03475636980803142 -0.0005586186380566467 -0.04564838909617352 -0.003668874606041592 0.07079727028469428 -0.06905409430802213 0.01649787830124178 
-0.01236756027151141 -0.03823342078778153 -0.003784428317894898 0.008511731109769428 -0.01740008333842841 -0.02741478202965411 -0.01730846259443801 -0.02374102643744726 0.01903957816189615 0.03025157856227551 -0.03039107140233683 0.09177625092714656 
0.01453100033260604 -0.02812672871942047 0.06246750201549786 -0.04336657161630438 -0.008400398797164286 -0.02765912229815539 -0.007895859628452542 -0.02687024036998444 0.01360590299454588 0.03508769017098451 -0.0188177365598718 0.06039628904549618 
0.009007005546723908 -0.01622432881211775 0.0585818137902507 0.05038495747420436 -0.01095669717748521 -0.02004078453536048 -0.05722041782225854 -0.01037804177113425 0.06859832108806832 0.01262830464712139 -0.0006159041925961786 0.03319774969440362 
-0.001832479509412717 0.005511791490638827 -0.0358575211752384 0.01581213569608263 -0.003693696724791125 -0.02932952096943152 -0.07287755374103932 0.01261404744103053 0.04397970639566071 -0.03984038580771251 0.06788438677000538 0.006465928155275015 
-0.03570483778833727 -0.0363124881476168 -0.02956862992706804 0.02980873843747182 -0.002091880584748084 -0.04874949959350217 0.006459525560761779 0.01149839096220104 -0.01207814776882732 -0.09019808298551682 0.04612435559176342 -0.007645940662178004 
-0.00193508412779986 0.01119028648653748 -0.01787516461159294 0.05234079186950938 -0.03577247733729584 -0.01191603517298067 0.01138869830272745 0.07670171253436642 0.01631703961585087 -0.03478329218270986 -0.02481853346078677 -0.02390689326677861 
0.04379773839842108 -0.007509318809093107 -0.03141563249276703 0.04351734865149519 -0.03209098759538984 0.04046260954651007 -0.01968992888582051 0.01433915200720217 -0.01096619930570881 -0.04866142010125313 -0.01714391707126538 -0.06106722712368736 
-0.04463249780702114 -0.05444402749648888 -0.0573601842888107 0.021202836604693 -0.04600629997560161 0.05020416239491188 -0.00452596908124695 -0.01684855180814159 0.002980186089525412 0.1014193023184294 -0.03757940490021938 -0.009419600522416039 
-0.05701869082614375 -0.03295793207422247 -0.09188422767515073 0.03435134004259514 0.000157050389962986 0.004125889049563339 -0.02212270503448006 -0.05009389581058647 -0.03397856345353209 0.1067556014428735 -0.04880640392310216 0.02962461275259502 
-0.03267281726648861 -0.04043144177367507 -0.02188563243003423 0.01012797614363909 -0.03211027418478695 -0.03825708712035141 -0.003282487465271072 -0.02487584900305497 -0.06593060320429532 0.01894661267657385 -0.04754334856381601 0.0457803698814862 
-0.0102442128695884 -0.05307931834128757 0.09227320289534589 -0.05374746061202233 -0.0120319750398364 -0.05448001989296201 0.05513020632334591 -0.05494453702198952 -0.1293064344572628 -0.02503337028141989 -0.03514841262822309 -0.00596756921456444 
-0.01154780819922992 -0.05228985901631431 0.08979708205673623 -0.04198300595765842 0.0003803116130527953 -0.05976936449448931 0.08260167163317868 -0.02265430539825198 -0.07709724685343818 -0.02607669519353081 -0.02200709524103758 -0.0465497224174118 
-0.0259371530042251 -0.04324846124230402 -0.01690743159237918 0.0897134941287592 0.01555686755875372 -0.05710240858182448 -0.02910403530898641 0.0109954985810137 -0.01323392832515378 -0.1242289732692353 0.07286120157894002 0.006218283704803498 
-0.04448515032674873 0.05148250189404323 -0.01477789238735542 -0.03234170085150262 0.0185493805088829 -0.018870910801503 -0.02497079348106055 0.02688994806195574 -0.001358941881103391 -0.02555194427079027 0.03998763831394243 0.02764236410327857 
0.04064684685372917 0.05152205834816002 0.011372235960605 -0.03146393121652296 -0.03428957317525727 6.878541065548873e-05 0.02223265485906175 0.02839091095429138 -0.008835569363322545 -0.01636643200432541 -0.02321821291282332 0.007114393745010778 
0.113538869510607 0.01438168403774558 -0.02298377247053765 -0.0318728029606519 -0.02095548188407386 0.05418383459161438 -0.01338390843837844 -0.003670247002241302 -0.0325071006488318 -0.04484649128115484 -0.0398107087043159 -0.02718320962706461 
0.02325255506656064 -0.05793058017788075 0.005220950678285147 -0.009417970989609817 -0.04533483332745437 0.06049066353276707 -0.004746495808444588 -0.03744614799354161 -0.01789755039292968 0.08425504024453655 -0.06369438878944363 0.002262450795051127 
-0.03880364489422249 -0.06105163238307407 -0.04103899320906097 0.0667842369452807 -0.007912923699564331 0.004299562473443323 -0.01409282859368139 -0.03841199051512773 -0.07410568491818481 0.1197717438320056 -0.08810801307933612 0.003126126521316547 
-0.02878526703348973 -0.05952480809774296 0.009260053503620917 0.004167271614912971 -0.04700387485791017 -0.0446053347834162 -0.04525479793534934 -0.02125283707613248 -0.03485186570644218 0.04028981523391386 -0.05301208379938154 0.05375921236538209 
-0.005713720845188001 -0.0477110707564084 0.04849879958235289 -0.06412836193998242 -0.02726993523642468 -0.04049810947672485 0.045431102752569 -0.05783566879019995 -0.07358500168214699 0.02002236653355574 -0.03462378729682713 -0.01023586600281879 
-0.02026347443963089 -0.02479248058969144 0.0696589918486064 0.01131728211774989 -0.0005595883846894186 -0.02731098249067029 -0.008227742832299538 0.006189424104449991 0.06113189657981642 0.009517845593342494 -0.02066795384561396 -0.003793668178529178 
-0.06030556279371815 0.009010422449158744 -0.007261447045102243 0.03099652641242414 0.004805028813614635 -0.03233589589936714 -0.05040105103842123 0.01412671886641926 0.02822469180577202 -0.05051911092480402 0.07418622357721862 0.01808382712170239 
-0.06846692500354869 0.02064605974267856 -0.02967581836372076 0.01208192530213913 0.01406234906000263 -0.02399267451585289 0.02501382189037839 0.01100792152404631 -9.158946110283751e-05 0.01577062410956322 0.03238544670218714 -0.02433654929052481 
