solver_type L2R_L2LOSS_SVC_DUAL
nr_class 18
label 11 12 13 18 19 20 21 22 23 24 25 26 27 28 29 30 31 -1
nr_feature 4837
bias 0.5
w
-0.01700667559095484 0.0001116829955159084 0.009549280766567806 -0.1265649251774707 -0.03031283164858706 0.003785066644440292 -0.02896230428653872 -0.02746086057788557 -0.09497055708235921 -0.0211446177271649 -0.01110794036357946 0.03242193762348373 0.003923761826379067 -0.07244981838785007 0.006552403288940434 0.04080060746288508 -0.0282360556569141 0.0111325421913941 
-0.008105813817049331 0.01697614677618094 0.01722327375365583 -0.003331671190065614 -0.02711822190816637 0.004025075965234054 0.02549601845593721 0.02612205085637117 -0.02386575812536212 -0.01719366974915679 -0.04798218937025771 0.01524216142297353 0.001775686561986404 -0.05918152328802518 -0.04105024403369 0.01734545562162142 -0.0296771585537234 -0.007549881693446211 
-0.01580973443800047 -0.0002927049819302783 0.02653765180249253 0.05739340568011457 -0.01658305226771135 0.008378494070807322 0.026452298486596 0.03055336927147559 -0.03274100417818248 -0.006816014866556373 -0.09941002931851954 -0.05313785196859992 -0.01730559498132498 -0.007705526111342612 -0.03038179989116846 0.03181061493718944 0.009110774965285433 -0.0182338585224728 
0.05037837287060981 -0.01630816317900343 0.02666613977611528 -0.008730996826577157 -0.01681211667948932 -0.05776488418248266 -0.03949643229177905 -0.002070653724449938 -0.02723429468615211 0.04011053107907438 0.008888590863575775 0.04664595201461855 -0.009865173556290931 0.007281494996152747 -0.0260632103734785 0.05792732903652559 -0.004479404947763674 0.005173573104445531 
-0.03896094205714572 -0.04478449392117415 0.002517212074690387 0.02947189922281479 -0.01636902090005604 0.00649058652071786 -0.07774140309011969 -0.01033381473686652 0.02776457144448287 -0.002566072675281743 -0.1017242361553296 -0.03367777226562634 -0.04579345514528925 -0.04414653038893708 0.04598843970199688 0.04351660650674074 -0.04543867246560451 0.007649702498715662 
0.03207220032411946 -0.008984331173510057 -0.01171172539163331 0.05166207785284679 -0.02816209292902314 -0.0466786491654373 0.03156496539979612 -0.01719144552630969 -0.01696556754585489 0.02130490670382782 0.03697471750451096 -0.02120535200024673 -0.003015959192590413 -0.0136204027155117 0.009442182217362169 0.05851463420556916 -0.02453611688549275 0.07139578252581481 
-0.07667093165155335 -0.006199860815889713 -0.0199138163163924 0.05101508139751068 -0.02116583697542292 -0.01352019124401923 0.00425915112247888 -0.02315692047257975 0.08388634343064716 0.008773049396872049 -0.02490868622532468 -0.06387953402593788 0.01574034213450409 -0.03338150995754247 -0.002451641331376139 -0.02788559362314489 0.009348783329657884 0.04599867183618542 
-0.03403582943710345 0.009464359210176673 -0.007902817839452521 0.02002338604992644 -0.04607516234986868 4.509804753904113e-05 0.05529378834552502 0.001720365496215314 0.01626656380728336 0.001378973567686218 -0.06292169825204895 -0.0333009153784705 0.008049845303115762 0.07389458319218167 -0.04228355891067268 -0.0475441650628023 -0.05050752943480173 0.008542202515577369 
-0.0569969467264651 -0.01438253126180336 -0.00648337313801868 -0.07085638473724103 -0.02373680891292819 -0.03306933280954779 -0.04039052974691451 -0.03056076430624569 -0.05424708979411935 -0.040426912346546 0.004798978049785742 -0.02474892423167941 0.01238499796834489 -0.01958046185455055 -0.009288725484358619 0.008389488752184966 -0.01333623001881218 -0.01815655494420667 
-0.04455706795090817 -0.01571714953979926 0.02245774406744015 -0.01450774147679281 0.006546305900588741 0.01239539397643741 -0.05005770292091501 -0.01869156268412796 -0.02045104738111826 -0.05610608710313975 -0.05825152190780317 -0.0354143091840509 0.005887754904634533 -0.05024719606480624 0.01156901738970442 0.05484762516975176 -0.02379765591752151 -0.01282190254729664 
0.0100737435838257 0.007052856836481304 0.03153269620967368 0.03701272920524352 -0.02970409309944314 0.01465250871662606 0.03879124282336308 -0.003976423431467121 -0.0344132570592001 0.0114192440669745 0.002517902393833055 -0.01500987778958589 0.008791133582569173 -0.03741373022420099 -0.06602857803794158 0.1036212990177343 -0.02308472780331621 -0.03727138959835767 
-0.09845473404806808 -0.02672933506458406 0.01377272775303119 0.009574799921155491 -0.02429811687647276 -0.0211826577495074 -0.01297562261723605 0.02303527535344604 -0.01389008802351166 0.0007400555245999222 -0.1139170806636584 -0.0463057636131192 0.01797121741838479 -0.003112392838618611 -0.04080533210500677 0.06904539463641436 0.01094517800125766 0.03096760772903047 
0.03388259212735047 -0.01444702878702891 0.01366008368156139 -0.04224616350282592 -0.02048288995294157 -0.02360052567235865 -0.0184020972791741 0.003697522910852815 -0.04542786529064251 0.05016441419400174 0.02091457745690141 -0.003609628433184674 0.01558020320888187 -0.01087410546892321 -0.06690350535360233 0.01156746476263689 -0.0372455116430251 0.06723422626280405 
-0.1484951013821743 -0.02283624771475054 -0.0269480837543159 -0.0773975446703301 0.01154688752876259 -0.004537769063258759 -0.0220303318924496 -0.01115407272683442 -0.01244065569250945 -0.009103703650056834 -0.01111626187025588 0.01373829441056241 -0.04331916084174227 -0.01883978836491172 0.03960634870691047 -0.05366519012665918 -0.001729844382826308 0.04607087446543026 
-0.02183485968727442 0.02193142591801796 -0.03313843845203168 0.02986901965590824 -0.01774314826767086 -0.05422817242712925 0.02454516696998253 -0.01307214158558815 -0.03441757558802864 0.02158350394125696 0.0350487477260731 -0.006433685243382225 0.03559041567582653 0.01655586673951868 0.04792249937939962 0.01351670387946514 0.02646632519521083 0.05238415718287123 
-0.06326122027694117 0.002931908137587299 -0.01085205013257224 -0.01019330647970985 0.009793915244166496 0.004125846257194691 0.02878722996706455 -0.01647443621836307 0.01413508749858674 -0.004056913274531204 -0.05341093045441857 -0.06180700956842173 0.04904657675120483 0.0150102608275766 -0.0003190217804248025 -0.008902731360154289 0.007466899249430365 0.01807620618776095 
-0.0445887518657252 0.01844576107412722 0.0140629194369202 -0.0240555432136882 -0.04365731112396205 0.001801145194006503 0.06538444205283053 0.007701237714166406 -0.02977969675665115 0.001855263097776531 -0.1121640382032427 -0.06723557539395802 0.04277935417064776 0.02002093614454602 0.0239974649155264 -0.03620490095122161 -0.06240774564109175 -0.07874596733509677 
-0.08828182746987512 -0.004955759722947871 0.008673163360016728 -0.02295443371832317 -0.02190924468500196 -0.01736652296043307 -0.04475462653873969 -0.01022697872176313 -0.01797473968391664 -0.08136753137842252 -0.07144750756135766 -0.06839061980010963 -0.02159390880556205 -0.04598288981866362 0.0281158537101254 0.05897142629234532 -0.001663111681951697 -0.07777753456655458 
-0.0261735952950161 -0.0001997671519965589 -0.01845181853343273 -0.04162447485186422 0.009291716845190395 0.02189047213931475 -0.02796779537375836 -0.01454150094698241 -0.0406591109049988 -0.03830272769316328 -0.01561042120690721 0.08714006613942242 -0.01546154971220414 -0.02354202973887028 -0.03483989891838241 0.002535000895398701 -0.0104223675399004 -0.08142468902855915 
0.05223376811577284 0.004051840531594992 0.001316388473701046 0.05364845080879662 -0.01149717445188509 0.01631988554931648 0.02630708581371534 0.0007757677073875151 -0.05683853078062321 0.002065947828047634 -0.08310437712180437 0.06834629670507475 0.004653382736135206 -0.03653543240743053 -0.004128789010239284 0.02179525657917954 0.02205998373984745 -0.01593889164973382 
0.05210586853121107 -0.01516364912908868 -0.0043163778696619 0.02472050457976112 0.001549536923974266 -0.03705891066969935 0.03282522107839955 0.01307728991762257 -0.005917071796273224 -0.04955252791723952 -0.03422756520056127 0.00537383317485133 0.01501690633492507 -0.02041940834223783 -0.0381473496770114 0.01973826957350483 0.01330616756140272 0.0336581171317018 
-0.001595744777195723 -0.02691831947629949 0.03002020491173544 -0.02698309886897168 -0.03113072603673155 -0.07934208702739451 0.03034635825114904 -0.001752965145838945 -0.04381302324492451 -0.0003904461577225587 0.0005670162111857034 -0.04070268931045205 0.01860105135192094 -0.02133591856724934 -0.05548140551720467 -0.0262334434588953 -0.002440850425575879 -0.002929834536482362 
0.015708024694844 -0.04915424327221866 0.009053314256695833 0.02666699284006614 0.01864978848937785 -0.0007175365030332461 -0.025868774428167 -0.03306281155808766 -0.01728804614394161 -0.02494943096534882 -0.09913218737510546 -0.07346510005572299 -0.01947629535782824 -0.04320654987588195 -0.01657042122217316 -0.02531592189264498 -0.0304311390492486 -0.0397456689746979 
0.05143458388256491 -0.02780860320780659 0.001992575028171143 -0.03396337053524162 -0.03325196945629188 -0.05883298737363988 0.03848160015709054 0.009827436417487453 0.03822825567143651 0.002276234456202833 -0.06511169000657058 -0.03829093559662203 -0.01651635026294089 -0.007621066707829189 -0.04756932696880974 0.1188387858730432 -0.05826824386683123 0.07103436995273237 
-0.02073655402588212 -0.00137043953228169 -0.005785045135107712 0.01305061911292275 -0.05971330086872539 0.04021507314692426 -0.02069958948375751 -0.01148854718372776 0.05144892955564285 -0.01625086150303889 -0.07694620813844659 -0.03795539246193384 -0.02359871159563776 -0.0304556745474466 -0.02818937228121537 0.009403038512747312 0.02109655903181019 -0.05065864065404128 
0.02542530728926553 -0.01147210974351316 -0.0273629587615613 -0.011396624679614 -0.05471365177873249 0.05948032841231388 0.00178208283872507 -0.01310348935320611 -0.02731481344181291 -0.004023143069810493 -0.01064317136677748 -0.04661890852376944 0.01782837981077705 0.01848705488258125 -0.02435948045525954 0.04730425829095418 -0.0366067177619959 -0.0160035844032005 
-0.005273149521957671 -0.002174436102917717 -0.01757130943044397 -0.0297481738077844 -0.009996492643116549 0.03343168654435772 -0.02427629389655265 -0.02211872675178176 -0.01603135826155849 -0.03087986738041379 0.03042373655697289 -0.1011796581549798 0.008752852673331878 0.0008201417337004519 -0.07447824341168399 -0.03010201279465155 -0.02899692547255798 -0.06730086818095864 
-0.06070145770786636 -0.01843697633897977 0.009764935223371364 -0.03297717511247605 0.03989611643585873 0.002587255170377635 -0.04344490010339746 -0.01601003403092833 0.008808461438891227 -0.04369951851190289 -0.0640319160977833 0.01212630898332703 0.01137719228926095 -0.02227260096227228 0.005280140458716156 -0.07576211135118026 -0.008761236244897184 -0.1074710012465103 
0.04515393184456064 -0.001512220667173343 0.008311332314859083 -0.007236716465588365 0.01417892542491001 -0.01919287834344119 0.009993271552642591 -0.0008941002540703843 -0.03367817325271287 -0.006711185890942818 -0.04063447707159398 0.0723433690583994 0.01615928340658972 -0.009000767816044721 0.01623312821586476 0.01632481817763153 -0.02414165250632097 -0.04399556112422868 
-0.04288587331715672 -0.03236006476415897 0.003305537496832004 0.008530907726728683 0.01159427679995769 -0.009701616666183186 -0.0107190031174235 -0.005672512615630875 -0.03273878552102049 -0.02471869086291369 -0.08649024052836368 -0.01327411407339821 0.01307049780551982 -0.06203054050935635 -0.04021895806056543 0.0396318268647547 0.009204094604762751 -0.002545885309187408 
-0.0298775583193047 -0.02880944051313816 0.03675930738991823 -0.03306010670135819 -0.01581347641797592 -0.03209497814951662 0.002584826726493183 -0.01229257517439369 -0.001866028522313229 0.02905682238027697 0.03959739750193797 -0.01366078080094451 0.001863225425862466 -0.05713278148065857 -0.03319886065916922 -0.02313651515652034 -0.02427705229290811 -0.03629975875573372 
0.007527586810576949 -0.01301914106844384 -0.02755072304916058 -0.01034197026363017 0.03813154013457151 0.04663453662525208 -0.05048287317713392 0.002842675162762937 0.05362022734895104 -0.02160112808963463 -0.0660472395326316 -0.02993051015451638 -0.01393364588228161 -0.08258635036777788 -0.02202499614753069 -0.09473184053063956 0.001507498764642043 -0.05367704095155317 
-0.02530619019064021 -0.001742743724888891 -0.0220004614693757 -0.01008075984055251 -0.04371311700488 -0.05691856938102725 -0.008427821413283292 -0.006790355892345037 -0.03933567698780785 0.02634562208980357 -0.01094841577334077 -0.06380789992546596 0.05037106742497974 0.02928318261376676 0.01873287115092271 -0.02929172687917682 -0.005872068294259342 0.06886594123551532 
0.02873531101757723 0.01062771230649684 0.003453346634647701 -0.03734798814668092 -0.05454568882871381 -0.01360061957333764 0.03520423994656625 -0.01431878627786341 0.008173840898814032 -0.005310425381750327 -0.07547198905972541 0.04693116762455581 0.0144814623179203 0.02926708946538706 -0.01221446377065966 0.01837612302932197 0.04939283811203482 -0.03411379782603589 
0.01282246704472211 -0.01330885025400673 -0.003901569537763904 0.00861524583054394 -0.06638535119293459 0.018116270471635 0.07354556086253394 -0.01643434627749855 -0.09956262438591654 -0.01738589571824601 -0.02195566078017161 -0.0326186642391457 0.01618791362614948 0.02532817766783076 -0.02894489579417219 0.04690252775059605 -0.01741403031291865 -0.04327846637581654 
0.0686089537842431 -0.01165658296713386 -0.001876237162226284 0.04758045711114769 0.0188666391323771 0.002131229298541954 -0.04042520188224778 -0.01304227117854924 0.02756528690403309 -0.05788674256872648 -0.02544225638464463 -0.04717564963630958 0.01843351366379753 -0.05930394765330598 -0.009375811007940616 -0.06178682233695433 -0.0156092297340983 -0.1140522414739921 
-0.01011512233843954 -0.007945945142140807 0.01866861370046564 -0.02374925464153684 -0.00596313914523443 -0.02132862365781395 0.02704406290020314 -0.002820410983377967 0.0003714551786073505 -0.03080911935575824 0.002103994507017445 -0.03123552679797558 -0.01665961253744783 -0.0522772906925463 -0.04599959827503729 -0.007790743725831492 -0.02403368164986653 0.006135630698692606 
0.04830753830304383 -0.007345602905079672 0.009547541517761181 0.02956049151313568 0.01615850707492658 0.002314773764133919 0.01134318766388572 -0.005462043002791789 0.0006564263085618971 0.04340713690016618 0.05983347307994825 -0.03100556052676433 -0.01728987585769216 -0.03057158851360196 -0.02363218764001674 0.01385079523706411 -0.02151439185997024 0.03786335195357855 
-0.01237826147466525 -0.03744341286698116 0.0009819101312443699 0.0385646602751022 0.003959545264791212 -0.0288054551175223 0.005030805301005107 0.0008614318640114459 0.002450105083925206 0.006128978918256332 -0.08594565368889916 -0.03676560336683109 -0.01519109817498778 -0.001796296640583602 -0.008481812626751618 0.1001639934624795 0.01803484831546992 0.06515383904755677 
-0.0504670863367329 -0.02299282443976904 -0.01287890760778401 -0.0008189629450023228 -0.01598582225177761 -0.02009941185055371 -0.02732842063220824 -0.002781830807205808 -0.04559699639703827 0.03958450060550474 -0.02809105941099743 0.01644311644700934 -0.005603903715728027 -0.02987329093170914 -0.03361429576286223 0.02837185709642959 -0.0344665434730728 0.1125962908489216 
-0.1403961744537607 -0.0007884134673454145 -0.05842631011107047 -0.084254545387362 -0.008666146226913434 -0.01062541701847243 -0.0463845328565867 0.02612740958016823 -0.009434338099619563 -0.0284108358140544 -0.05683748749392979 0.07528931987855934 -0.03311345757216204 0.02298532498976141 0.03051328856143343 0.008187587840042292 0.05092693615239641 0.09795500151539659 
-0.001881706504063739 0.007774670884230358 -0.0357485753927972 0.04337744136161693 -0.01459315483537453 -0.0642603763992227 0.005520139772038379 6.642815771874694e-05 -0.03970574958913217 0.01095411490573653 -0.02006493033589586 0.02919598215969049 0.005503831998138234 0.01299345439429068 0.01259956406383105 -0.01484281187319679 0.01214984192445965 0.07180686310277054 
-0.07728233789156984 0.00186041899240376 -0.001622766203137937 -0.003987519141723798 0.02020365779387782 0.04075202775170405 0.005952359767613916 -0.0177498454858974 -0.02348102141682519 -0.007642147678350033 -0.005395453984341215 -0.0662363686072695 0.03518816336931398 0.06644481979595998 -0.02802822827862439 -0.005363061751437919 -0.01177111861170621 -0.02240287390412924 
0.003479383803452295 0.003103414897699855 0.04556856413844454 0.02807411870925364 -0.007305227126645973 -0.01014895202670953 -0.004897007313729127 -0.01070709943274044 -0.04408267868164879 -0.0004771612492952616 -0.067519205595078 0.001496880796706017 0.009764422863842713 -0.01439775914631362 0.002155053751925552 0.06086265281926242 -0.01671157842043439 -0.1373310082141615 
-0.08607442341372863 0.01027995750273031 0.01479742285523563 0.04269227316951359 -0.0191538242210413 -0.006257219792978782 -0.02865493168202147 -0.008662448685204419 -0.02527451084224527 0.005039116440380711 -0.008111767359594705 -0.07257199284287782 -0.05266259558409892 -0.003146274254910344 -0.03159845076780261 0.02397034590499341 -0.01454107948807174 -0.04970444856546739 
0.04109710283867566 -0.01819053163050394 0.01174155016012958 -0.007373870026490596 -0.0179486113046919 -0.03251031380809747 0.04311366820774252 -0.01457076422651631 -0.002954156657598827 0.02796192782859504 0.002292356920433467 -0.03141285248584572 -0.02256122691521147 -0.06062064584859069 -0.05648192550921569 0.01035392097483184 -0.0001433231058068145 0.05455437456919196 
0.100367238639639 0.007729358860931112 -0.009773796256467633 -0.0562349460832365 -0.01899201991043167 0.01092760371322108 0.01680242434647474 -0.02313012286842047 -0.01844231252995104 0.05018572048695318 0.05428020061098463 -0.01202046934365564 -0.03441330859717235 -0.02261675037991026 7.189555917459987e-05 0.02929822648910795 -0.0288470939284248 0.05818427903357223 
0.09431338059345327 -0.03363214039066595 -0.01151206184430587 0.09561853016442018 0.01104900421967099 -0.03247169663278947 0.05338212764030212 -0.02548827773198354 0.025850766906018 -0.03067430157542976 -0.02161653221066786 -0.04420174894445188 -0.03311924688905667 -0.02886958968831558 0.005130163077654423 0.04913707011576078 0.02552077113544355 0.0511179492553067 
-0.1074085411274038 -0.0260778411167505 -0.01569908475327337 0.07061131005941886 -0.02366679597651557 -0.0280894646302866 0.0515453358629691 -0.008976207418483824 -0.0575543303116436 -0.01085549034368337 -0.07056061551665198 -0.05906183799618543 0.01181420951369121 -0.001542710615287013 0.05911781502615081 0.05826456091464629 -0.02926170326674329 0.05839470619207058 
-0.006892224039287798 0.0049880216746982 -0.0362719408324921 -0.04902913492658038 -0.0111090048324742 0.01491617757815123 -0.04884067667563446 0.01049756176620621 -0.039574261025929 -0.03507358892030531 -0.1082731930337197 -0.07784670086655328 -0.01137310301955385 -0.0317652191232737 -0.01660189966677823 0.04433093874680979 0.05971806268887753 0.0220857311707185 
0.04017033201391445 0.02117930137283043 -0.01197910075570711 0.01778825458455721 -0.02499610703381096 -0.002689209962173382 0.02761619411049554 0.01105761945690518 -0.04248367224911855 -0.0008906987513463967 0.0408174560708442 -0.06791896607204122 -0.0178774490995928 -0.00699615760242168 -0.05220175689229792 0.06403710341483092 -0.02876893043015226 0.02629669565906674 
-0.06185259163573856 -0.005362946770250909 0.01361649720416602 0.01638373270233509 -0.01478337806284538 0.04944610603820006 0.04314426067669366 -0.01364496256391677 0.0006065641265853476 -0.02866767262830322 0.07725505849059125 -0.05915375251503114 -0.001680539921320121 0.03503620078930501 -0.02251424049335292 0.04432347964809058 0.003305587003649717 -0.02301022927813787 
-0.01637895819981889 -0.01086101435056271 0.05151206089468091 0.03636906754855741 -0.01537087588983555 0.004540685062741552 -0.01395535165993975 -0.01392994275016755 -0.04024492230492965 -0.005024125537145047 -0.02777157373105194 -0.01274530620480864 -0.001745245107015175 -0.02407023533434912 -0.04638997227733774 0.04559226929908151 0.003211687542458309 -0.06192039676793826 
0.0141201874120075 0.001436958824897768 0.0319103063212897 0.02739256485970969 -0.0309360268378271 -0.05124461211326969 -0.02328214611413156 -0.003839939803102561 -0.009237735106061233 0.007521367469242402 0.01567224309100812 -0.01535110412150519 -0.02025826847279896 0.009553235781094746 -0.104418217053107 -0.02255210215110673 0.003203227840741403 -0.04235704712100672 
-0.03020313654424528 -0.01767892107829091 0.02061082196512347 0.01091550019089027 -0.01480904888693382 0.01476046692581659 0.02207576990566969 -0.003433389435834693 0.0184606792026763 -0.01880171555155021 -0.03195702437507872 0.03702208775679659 -0.02160244738144147 -0.06041984684808781 -0.01447659710721278 -0.07138564280363677 -0.01376528700741849 -0.1086382304094676 
0.06521132867951812 0.01208540745946115 0.01309315027448303 0.03428731457909138 0.02214654723717749 -0.008959984777242183 -0.02023893678543336 -0.01348727146674675 -0.02468885583883533 -0.0008459269774314037 0.06143041595304404 -0.002515188324523652 -0.02523396194086999 0.003128832667401717 -0.01675112873217638 -0.07972259414263809 -0.003368115324742429 -0.05238168243771974 
0.06090132849242011 -0.01725432638863683 0.005499531538389821 -0.02647974289680073 0.02283920859330751 0.006047816910012709 -0.02889837259493747 -0.01598095934019039 -0.02041810447686521 -0.03078716931365648 -0.04026392903281008 -0.02245456083315707 -0.03322085416378821 -0.01659521590893434 -0.09136875564174719 0.06112715304995815 0.05495175805426055 0.03589182315634756 
0.0264250589420768 -0.02931959839137808 0.00626793698456851 -0.05213966126454761 -0.006729682626161215 -0.001601359850187462 -0.04584120885760812 -0.01284738153033405 0.02995040382736436 0.004699365910510296 -0.02524205656373543 0.03253395879481363 -0.02085006605872594 -0.07176047910763142 -0.02650087079952212 0.01513029885614776 -0.01355358822223581 0.01972418209344856 
-0.08704961687188567 -0.009207869267602663 -0.03340192958933992 -0.06608051446061712 0.00587108844963295 0.05408710317196562 -0.05564709842690481 0.01688026683967412 0.05552410354214866 -0.02707504447288044 0.04066780095906891 0.04411972294691673 -0.01970651506829211 -0.07620731918076298 -0.01703947300870907 -0.04281830639604177 0.006921983723964392 -0.04816262835510525 
-0.0387860911872352 0.00364435473309234 -0.03598122191201605 0.03820488497777126 -0.02784596410619819 -0.08083927575406355 -0.03124790553186715 0.005052435861495327 -0.05324506117267166 0.0282462329186864 -0.01374738796601561 -0.06127463656928972 0.03790450737981294 0.0228704470982753 0.0006474568701963655 -0.07487096276329289 -0.0350654892611641 0.09573344501586317 
-0.04102748889223142 0.003080384182948728 -0.01648946643562376 -0.06238637076459139 -0.01324154478724307 -0.03069791144663754 -0.02284466692583584 -0.02126501371393281 -0.0268214469445168 0.01133323119597399 -0.04451907045660476 0.02459374695579683 0.02041849901683612 0.0692151880446057 -0.0128719746136325 0.004717670516492136 0.01890742647391673 0.006184055088169047 
0.001002122768140747 -0.02232604671424324 0.0204972580095802 0.0331554694953311 -0.04322119806946807 -0.0316366341722239 0.01305871389152104 -0.01248621220001887 -0.0197971265188258 -0.007152594867075149 -0.06160140428565657 0.005581670173586394 0.006987388173340961 0.009371473518626956 -0.04195079457060327 0.05245892993680534 -0.02693919100040691 -0.06167677802601283 
0.03556865359887398 -0.00686895249267583 0.01610348448490168 0.03338354697376204 -0.009750824508460687 -0.009566291196489034 -0.01582298064203747 0.005852103852845879 -0.02903512179948339 -0.0004810755663333875 -0.02392274164741916 -0.03438098643096495 -0.003128751016776265 -0.04415296278823142 -0.07043682594141608 -0.03926806517710609 -0.01407076390590215 -0.09118453802208187 
-0.06343154800334189 -0.02058377730124915 0.03315334902208748 0.08537958731480164 -0.01865903393369537 0.01068513978927213 0.02444236400965872 -0.01225694214445058 -0.03901633183568905 0.01341051701393192 -0.08531269729521526 -0.02400945308547315 0.00285189427814881 -0.09078894338060792 -0.04011540716799079 -0.006639728210703836 0.01446268915103536 -0.08283535080348545 
-0.02903294520155235 0.009212926120187766 0.002244293933187891 0.06748371542957848 -0.01509792168119111 -0.02287559247105476 -0.0341439259472526 -0.03833501286545862 0.01088413942691774 -0.02213353906280597 -0.06427825915399481 -0.08047748267282329 0.001699743080930455 0.004160733351177749 0.02795673124661946 0.002746428901777207 -0.01364034019690206 -0.06981439742001129 
-0.0295743526149123 -0.01710325750504905 -0.02343683527792354 0.0395922666841937 -0.01439485632012468 -0.02997929291876226 0.02049762620035032 -0.009243382691073441 0.001438316399140574 -0.0467047285158581 -0.03329534540572985 -0.01761961802784528 -0.02366197961141087 -0.002622352713744013 -0.06967713609252367 0.0642976982579407 0.05897844432833971 0.01043024326476628 
-0.01997795184492703 -0.006599571712318797 -0.005595265159883351 -0.02037727180260581 -0.03804997573986265 -0.009304284905595936 0.02670711441622149 -0.005701452897624983 -0.01685659342165301 -0.02191463917523333 -0.0378640203177331 -0.01193370840301778 -0.01643221751552697 -0.02434731457936613 0.0394066782163416 0.02908492943582616 -0.02390323480331379 -0.02024036434602247 
-0.07978117034212694 -0.004750844222152465 -0.032861552102229 -0.1022173358318685 0.008296135159454668 0.029659425357328 -0.03118234788494079 -0.009484252606700843 0.005765939565989202 -0.0704867179791485 -0.09715822132015892 -0.02401832826454959 0.01606190812803614 -0.0391621417060299 -0.009065881281555461 0.02052987210881277 0.004994182711171345 0.05732725830917443 
0.09030142125180371 -0.001962192797571721 -0.0196129044560568 -0.004927598321231485 -0.03759544821963005 -0.04766184487448395 0.02511719374140244 0.01767533228538081 -0.02729621246723659 0.00935756606699548 -0.01448592546428178 -0.04338411984525323 -0.0169178895757586 -0.007218737039753972 -0.006009903668879422 0.05806222225079714 -0.0489677509211304 0.1241618152856494 
-0.02201575522468681 -0.02935256342631774 0.03181746559007058 0.01287325810100132 -0.001150543569902397 -0.014826552844293 0.009091034016848994 -0.004334651619956027 -0.02282243816575254 -0.008934192987229873 -0.02228821108595939 0.002425078398611408 -0.0007932517022192833 -0.02167886913391459 -0.03930502425525609 0.0101280153219626 -0.01247552115787759 -0.04416353173081362 
0.006211573444397601 -0.02092776664135512 0.06386172103754156 -0.0068436739584604 -0.0119377559228551 -0.05088543504471409 -0.008168218276233194 -0.002465860958582632 0.0145546235691843 -0.0387779665283945 -0.02956455847583911 0.01638651668895613 -0.00403901762471363 -0.01946447543680387 -0.05190229676092144 -0.0079507248575959 -0.02406241816059992 -0.06880172065136553 
-0.02088539517493309 -0.01958300274318554 0.05884012743469066 -0.001602066825445326 0.01931367880082864 -0.01457758431374157 -0.01232178874556682 0.004939664387409967 -0.06924062975403547 0.0213518187608836 -0.02583942954103926 -0.03304819600352447 -0.009494390905209567 -0.005284742394696949 -0.08162747854905059 -0.04694737957978064 0.003727005497774167 -0.1418733409480327 
-0.07852838733784981 0.001872974535068211 -0.02697417310057961 0.010621998238911 -0.01612037011833858 -0.01291383563517053 0.02989712780160018 -0.01297401541853317 -0.03240125449061255 0.02158208731061886 0.0007534508980494158 -0.02771122819562456 -0.04153865400236266 -0.03479875724866183 0.044833902703295 0.09241058992687028 0.01864824423809782 0.05106149563712029 
0.04812130204054148 0.03005713132439845 -0.02447204925647185 -0.01150287778255337 -0.03002853330404054 0.002861068754515896 -0.02073203240468884 -0.01603604610088619 -0.03287728206404482 0.03978640707073967 0.002759272191870589 0.02845087614990678 -0.0008463303060494788 -0.003603987756447786 0.005886660129993997 0.004880954528517379 0.0113606792639378 0.02861234459471736 
0.02789936754723118 -0.003076673907123724 -0.03430047731817957 0.05435128737953916 0.02062297561696434 -0.0209683895404284 0.00738100063584532 -0.02320446011229111 -0.004950124405398566 -0.01343164427921062 -0.03393717981382914 0.01737076439759332 0.01681471310693875 -0.06274339444329154 0.00135718494472425 -0.0367829583281248 -0.0009668822359083523 0.05995156641124032 
-0.05403189927962967 0.006658243157353558 -0.03477215942386225 0.005029555963166261 -0.02170157344596237 -0.02826603342329839 0.03302503960487688 0.003638623695758601 -0.0294204255469659 -0.01987068857707986 -0.004053013102313247 -0.0338983320547178 0.0261608325728086 0.03519644057632623 0.03027479201368983 -0.08390920864210698 -0.03755938480861284 0.0715859211030649 
-0.06126098494856666 0.02740259986363784 -0.02889219709778281 -0.05495719458777724 0.03540305344840537 -0.01110809612923361 -0.03707308627944591 0.01470902031920165 -0.07935544750353284 -0.01165690137978975 0.00862845541827973 0.001872365975443259 0.00296154369100681 -0.00441267444555047 -0.03995188227189189 -0.03500368381837055 0.02742455064587088 -0.02185643442246121 
0.03454188400800925 0.02998503309609461 -0.008778862147639939 0.008106818353786878 -0.02088857098260739 -0.02519991319018587 0.02478613979605859 0.005099675982464462 0.01713251971383053 0.0008781015285654253 -0.009383195127786324 -0.0579592082124176 -0.02776940909592819 0.03736773733350805 -0.07743660950792142 -0.005100702043701035 -0.02193472932123081 0.03266256498693527 
-0.08534219897585364 -0.01512140120904336 0.0241605133555395 0.02421560115387596 -0.005769880255964505 0.003724753756431869 0.04693005748109288 -0.008664148825289193 0.051906026143989 -0.0105828493389947 0.04359832622341856 0.02365527939824272 -0.02660681552668445 0.01301449710057452 -0.01414506362985645 -0.04719841746308177 0.009460008822948325 0.01492115050881761 
0.01491927297767238 -0.01771222899823485 0.07658696836570017 0.01703861527510131 -0.01211828722615807 0.01265474364735044 0.009003081116820865 -0.002651755798255707 -0.002352063422725172 0.01334163558855321 0.02841027983550393 -0.006313265271450997 -0.01187007206749066 -0.00802123431153289 -0.05573916622027009 -0.05341871024819541 0.0104325135616591 -0.1282907856232229 
-0.04496930311370097 0.005465125687268174 -0.001624447069979172 0.04412729809764482 0.007533729727478938 -0.03883692814808588 -0.0440899784410479 -0.001243462252714828 -0.01065584874423208 0.02851000736375231 -0.02395928496848912 -0.01865179137596638 -0.04860435398936945 0.03220663502441317 -0.03265337118437672 0.006386576820838211 -0.0003779656099864098 -0.001241909099615511 
-0.01417571495029341 0.01166395365171959 -0.03969550115417064 -0.0373158881371226 -0.02335061841142972 0.07122909070005207 0.05816595558497441 -0.008715883089733445 -0.0428691896449035 0.006545780145047766 -0.03578096516493805 -0.03187722304616724 -0.0213105800419931 -0.008919278842770018 0.0442325390879463 0.04550866273605809 0.001528168094438809 0.01090973617016195 
-0.05068006434731814 0.04994816205586428 -0.04241603384301461 0.03295972706598006 -0.03835511812606954 0.02369174628884936 -0.01876738860810999 -0.02588152056509871 -0.04052950548194322 0.0394811212038054 -0.06037994176021728 0.0006560856472706325 -0.0187511999506621 -0.01632584284201461 -0.003454026296419314 0.009797542364417777 0.05266722202447893 -5.079286276488668e-05 
-0.07672773792505158 0.02303537021458026 -0.04117690736873842 -0.03293025773842871 0.01135735767196001 -0.01909450024275543 -0.02185237006937366 -0.03015965512910547 -0.01090094387999165 -0.00619210390651834 -0.03932481228142761 0.03496849360212183 0.01582937012861171 -0.07886172445431035 -0.03712358407478675 -0.0376104534736714 -0.01983877123066398 0.07860964009998032 
-0.06879074855676379 -0.01161858712337529 -0.02174507185867816 -0.07931298140134974 -0.04906424101948455 -0.02241999709705482 -0.0001947464375316828 -0.002628936972312863 -0.01293462399159061 -0.007956751499372696 0.02050480743071621 -0.007542752878146128 -0.01066739791042345 0.03560176523093448 -0.003101807927554145 0.03554683836535307 -0.0388801871899342 0.1123665985658548 
-0.01173624937784042 -0.003080369636602481 0.006700909566519283 0.01022951992901977 0.04001030293516636 -0.04045559131898591 -0.02899135432030902 0.01520024528887438 -0.07738294885814123 -0.003482167786017692 0.03792770324960525 0.002609637510113578 -0.03890761307577308 -0.05676897214646435 -0.05688378444335744 0.04366796274839917 0.02699304208092791 -0.03683517849881841 
0.004743335637746144 -0.02221003304075114 0.01387568925510624 0.02596639580869146 -0.04111648633822201 -0.04105517194522634 0.026776552733405 0.00579943514268252 -0.0001614262648378006 0.02920173827553414 -0.02823911646229173 -0.007046540814676506 -0.01972558688956227 -0.01523239219671312 -0.04602618463901258 0.1194908624114719 -0.01703838073391117 0.04950436853196147 
-0.06539869083522683 -0.05264033470391226 0.04859978027193935 -0.005915180520146713 -0.01182071058481936 -0.009022083425334827 0.01944161921337549 0.0008130269098439989 0.03594707712720329 -0.03404051370416238 0.0384141165938815 -0.03468273291039654 -0.0005185773002880204 -0.007196364041560252 0.008041787643645468 0.006136016297285353 0.002228663245988704 0.03535660448301915 
-0.02691968642160577 -0.02853093952664729 0.07005020388083918 0.02512088290164389 -0.01486678602197504 0.05921681107576414 0.05444832782864131 0.009253861324248266 -0.00932264094436306 -0.002446139423701925 0.02394844528966436 -0.05999569956057113 0.01461702004045835 -0.01323973892861656 -0.03654285642571854 0.03202147202588097 -0.03038925408470753 -0.05604027016570792 
-0.01484479238717626 0.008541187966282658 -0.01283802427142499 -0.02437200516467088 0.02295185566260899 0.0549698165125654 -0.0112354387440643 -0.00377931825577589 0.002395932186657839 0.02337531606277577 -0.04255892621782773 -0.07901875648205209 -0.02374023736860264 -0.02969368410838788 -0.03579698123669886 0.0240321669640014 0.007693799808567583 -0.02662247080136722 
0.04675182123332458 -0.02594206104472091 0.004136557350280044 0.05203864264169569 -0.03834044739903199 -0.02908135380823394 -0.01841369402367619 -0.01968595552268831 0.003871837474427008 0.01423116146378887 -0.05337772996437096 -0.05731634628489098 0.0153719863054457 -0.03893321814285623 0.04874770618385137 0.0001202074909593621 0.03209972584421149 -0.0256710699669289 
-0.02727016143162882 0.02064816340329155 -0.03135143327030686 -0.000126363752482734 -0.03464331588070502 -0.02779977679180986 -0.005081752901219527 -0.03244133826556923 0.03356589171391365 -0.003442387823491213 -0.1092188301920841 -0.1010792096558909 0.01242765252297751 0.01876731723086766 -0.02269219617657724 0.02259811483482899 -0.03823675578432482 -0.02118247281481914 
-0.003923320039334102 0.01253914041300268 -0.04397963066250495 -0.04561562117464981 -0.01542447749741551 -0.0398619329323549 -0.006651337355933894 -0.01606118027699481 -0.009649999162372932 -0.05997531508395525 -0.07539708949160409 -0.01758933807600844 0.0458076102015385 -0.02060072280806238 -0.04050689325541388 -0.05776652276816752 -0.01278090227064841 0.05433410931302415 
-0.02689608152343928 0.01743343778758536 -0.02929091895926485 -0.03985119743809814 -0.01021858507987084 -0.02218682008087592 0.04401733759504805 0.00746581071783466 -0.0635547179899003 -0.01789135789860024 0.03951929380693107 0.02164351214285659 0.01682886562418463 0.03108140586887099 -0.01000670134997707 -0.03634809424795558 -0.03867208468564749 0.02073678963788145 
-0.02624424921746843 0.02566605049624707 -0.03128521935347302 -0.06390242533970171 0.05948182077995368 -0.03636497223635313 -0.04987718157824018 0.003352942414258417 -0.01924284928537789 -0.04054661031646877 -0.01897868432958088 0.01696868807357782 0.01900050238054376 -0.02555338299042276 -0.01060241411257134 0.006067742701393899 0.007333210633304188 0.001348907528610314 
0.08184962567114144 0.02007025116187685 -0.009436550548987718 0.01199879803223052 -0.02781974801860843 -0.002769987241803405 0.03973140666788073 0.006586574335287349 0.03218873121114688 -0.01355523568379569 -0.04013909376928444 0.00954687058254243 -0.03566840206047919 0.004169766783263544 -0.02484748973296402 -0.04466290851763689 -0.03392705069880227 0.05497543687256921 
-0.08905941765626511 -0.03900865265204312 0.02916802872450034 0.02458363751007476 0.002979576730979148 -0.01666103045247594 0.01366719559279852 -0.005479747093494532 0.02568740861444539 -0.0062339588927708 -0.04606396050383933 -0.004844775860730785 -0.03166071192151072 -0.02502024408691766 -0.03504831853329606 -0.02103638453806717 -0.001102988153821751 -0.00100010071926452 
-0.02789115624165172 -0.04788333995015386 0.08614416485258662 0.05717305531788461 -0.01714618861270155 -0.001939488224779782 -0.02399095017868913 -0.001824855358464054 -0.007180172544258868 -0.02999311988955181 -0.0340586019806699 -0.01190644050160885 -0.04009684429503892 0.007368090371755517 -0.03496133670680863 -0.04276710567202623 -0.01629266648573738 -0.1166506766854876 
0.04812159274141332 -0.01142944090928803 0.04347533510606543 0.02546614503494606 0.02358885348589373 -0.02753098928013003 -0.05703580761003202 -0.009863990759171147 -0.05019571949536718 -0.0289592025368767 0.004541528909444069 -0.01361222341263653 -0.0457656054291331 0.03644865650047372 -0.04615931645908783 0.01466627919822311 0.01315981296892067 -0.08927922451513723 
0.01755320207865235 -0.01324949962297499 -0.0003756360453941242 -0.04546858650096888 -0.01310366821128436 0.002722224488494561 0.008712906182923806 0.003818486219125696 0.008452792108123925 -0.007121442930202781 -0.04345726066380311 -0.0358536994666662 -0.008661338004783706 -0.03614688753388277 -0.0458028759444709 0.01134464102265154 -0.008124510293731284 -0.07722699887190211 
-0.04768383435496304 0.02277499940457745 -0.02018085751392285 -0.04935108541914002 -0.02383530258320492 -0.01855952021991817 -0.0002703626213233801 0.003022495859338926 0.03205510228981901 -0.05328372658977237 -0.05902161016835029 0.02003888394653715 -0.02017856791656036 -0.01915930581677149 -0.08662028960207382 0.009899007995675332 -0.05008360214679671 -0.08325853503972713 
-0.008434453272919626 0.03660389734575646 -0.03626203104043849 -0.03051034851343306 0.004334134005152195 -0.01360658957555572 0.03022182330004328 -0.01296209969131683 -0.003829587486038356 -0.03052921242302362 -0.09602489730815233 0.07054643104371791 -0.007394342511170984 -0.09428791060489217 -0.04020476092291263 -0.01458387189527056 -0.01463091469259232 -0.02015441028957877 
-0.02167426811956098 0.007853393665823716 -0.02871629988429204 -0.02839448342416676 -0.01361719196603334 0.05411566347309522 -0.01433572572875528 0.01332192249740829 -0.05087687630308359 -0.01616153626371771 0.002020770682551971 0.03437366487824066 0.02103209545766628 -0.02585077385122396 -0.01995187033211273 0.1414554605876867 -0.02993876234889721 0.02724704559718883 
0.05873375882070329 -0.01730178561212553 -0.02221945873138968 -0.03579127253813277 0.03736226629835646 -0.03980767521003185 -0.05921067451036276 -0.009075296296614513 -0.03163236456834584 -0.002027179162737228 -0.02543466692910146 -0.002196222865372939 -0.009847073415224717 -0.04091102803135725 0.008311032367630509 0.006930689837977366 0.02487942328504224 -0.03001036515220374 
-0.01970750590673926 -0.02024358340405489 -0.007225486240201 0.02468865715713498 -0.05271331124333338 0.01201993100480968 0.02348728977473263 0.009037244799721279 0.06336039670140062 -0.002821417024462162 -0.0283127100599995 0.1094173690767032 -0.01702490150284806 -0.06131561372693737 -0.004762565697770247 0.06442545311521937 0.006072322935424869 0.04657637838789556 
-0.1064494919917729 -0.07617812458170443 0.05926070622463937 0.008892959303106268 -0.01419748673848914 0.01345238125422099 0.0156906631210849 -0.008989340583519445 0.04508435401321349 -0.009582119680706144 -0.05659979885518839 0.007086988392162597 -0.006267510962333071 -0.01037760634566589 -0.02301362240468444 0.02320470864743511 0.01206848785902833 -0.000839124332319186 
-0.01091687191721978 -0.05588893892514489 0.09341240725376591 0.03442905628895716 -0.01764683182153523 0.07553823902669189 0.02358614501819732 -0.005027407572276572 -0.06057004820945486 0.02385222691814301 -0.01799450359121035 -0.04258229425338338 -0.02219025449900949 0.009019892571994816 -0.03424620432235742 0.0380631830135016 -0.003098868442428895 -0.03472654943760216 
-0.04172674140264953 -0.01657964317850283 0.05364306207172051 -0.05855328570270252 0.02242849521398526 0.02436942071038251 -0.04254417661021697 0.03766094892389887 -0.02752660590550106 0.006949264305903498 0.001148375961414752 -0.02401062099868808 0.02158137270167804 -0.01901394962252687 -0.0137354421128023 -0.06849001927196748 -0.006566364968196117 -0.09295142554600211 
0.002485283934156657 0.02007098326902496 -0.04131623358084065 -0.04741790946641828 -0.02274769175113051 0.02881678750705492 0.01686160020331923 -0.02303115989625997 -0.009255985331489079 0.02417316348312906 0.03458467522875192 -0.03780092588496168 -0.02840836931559571 0.01340707896486529 0.04532787678464528 -0.09060469814053249 -0.021544674688456 0.07805812183866469 
-0.04885911229118389 0.06513008090162814 -0.008453792836072524 0.02663573496962443 -0.02168115341594469 0.04575026347767612 -0.004915181002615856 -0.02910304914804042 -0.002405866074597186 0.05049547725200033 -0.002818054633089607 -0.05513149031424099 -0.04923947901666193 -0.0366869456966618 0.03247119338017963 -0.01894779667801043 0.04498917492089632 -0.04058933757508053 
-0.06151093053734321 0.03540095223003031 -0.003923457181349963 0.07926046649008334 0.001336685472233405 -0.02168876376781987 -0.01684321068800085 -0.007913819810339093 -0.01546222527387081 0.01610729394060674 -0.01474205877928579 0.01816346759661419 -0.009643030188666796 -0.03167742250053074 -0.04251027257545788 -0.05683213935180596 0.03034701106001737 0.02220791597354501 
0.001657932004173194 -0.01091375610789708 -0.004269362559674238 -0.033633934605748 -0.04191038424452893 -0.00171661374142722 0.01767995267161364 0.005754796134739619 -0.02662810721601757 -0.001059409522563333 -0.003782894869623805 -0.000198493421817851 -0.01775799057012241 0.01027899669979879 -0.009175030246008865 0.003338557162231429 0.02382650810710234 0.05255438556526976 
-0.05242583912661815 -0.008940073021065561 0.02032801114844053 0.01546860484866364 0.02144495904512775 -0.04017485428645534 -0.03473707860659011 0.005156523685926771 -0.0643558125686739 0.01584288169068077 -0.08481010282031264 -0.06976635410072322 -0.0391537247426293 -0.03449113306054188 -0.05127507375505166 -0.01773479821336616 0.03339442229791573 -0.08024787088299906 
-0.0544802999867323 -0.0152069970392054 0.01054668562144427 -0.007613333762590669 -0.0276577063497345 -0.02855272424680336 0.01533489482160083 -0.005860895356113026 0.009249191055886509 0.02236580626988871 0.006727241501027304 -0.02357651642007942 -0.005154555127001254 -0.01264539035775571 -0.007360919925390289 0.09119486563564565 -0.02585185813609005 0.04830821146557303 
-0.02474127318065177 -0.02137363250755065 0.004415181327910306 -0.04303306270817096 0.02270299396736336 -0.01577485820490498 0.009163483939193438 -0.002208448380170877 -0.006204461718322779 -0.03831031469864568 -0.001994082148857248 -0.04742326664742823 -0.006629469696481259 0.01529005359751178 0.006989283416206034 -0.0433110661570302 -0.015724229787683 0.03051499005777463 
-0.05880765562699657 -0.008087666355695119 0.02411095896435195 -7.263851866197195e-05 0.01999926507768052 -0.0155160242725461 0.03735098801524158 -0.009192053119928975 -0.01019783860225562 -0.01093620845391364 0.01997393376104577 -0.02050665728939323 0.003859872042481072 -0.006918164791755958 0.01941773018722178 0.01230962675527252 -0.01627023582787647 -0.04007298757712185 
-0.02636607477369511 0.02151327166251268 -0.03036571634261767 -0.06087296372209521 0.02382199760734632 0.01844826309453551 0.01299840939579829 -0.02354431478830337 0.01242765005222774 0.03086081269248685 0.03865297014226244 -0.05531083765830942 -0.02880074911777442 -0.0444634927610438 0.02148707557767338 -0.02973750732844816 -0.01456291042151328 0.09300235521283653 
-0.02324054460996028 0.002059247741234027 -0.02363036685316515 -0.02126749151136755 -0.02393136167246437 -0.009658452588568192 0.02961133055399808 -0.04695673869040566 0.03298773195518852 0.01321069477160534 -0.01615027943085807 -0.08390630518593827 0.006838629901023425 -0.01671236572228453 0.08153173058164523 -0.01544432506263065 -0.01526868723652917 0.01352439722360431 
-0.06664746339697514 0.009128615352600129 0.02374310090553262 -0.04322916290490526 -0.03589177655509046 0.03351403569817912 -0.02110414433357116 -0.04952059549905685 -0.0390412330297034 0.04255511292310418 0.01920995470797611 -0.1097386588600257 -0.002305741610672647 -0.08039156564940358 0.04294027891240555 0.03197286870096656 -0.001273782622565284 0.01626617449270635 
-0.01430376043159398 0.008434310887855423 0.0312285574352996 0.01497278853884212 0.009505081574897429 0.03181142926951974 -0.03508187446127663 -0.01228929215861164 -0.04006549757169151 0.007742634108078494 -0.04290795140988723 -0.09361220308317948 0.04147915628719868 -0.004924299217217891 -0.02287428941862171 0.02056435216431322 0.03913108172411075 0.03948642510796684 
0.0060086954643183 -0.01515094702525995 -0.002564673544848519 -0.02174133096344473 -0.0432243689351101 0.02444535985887785 0.04182337237420439 0.01154646264946901 -0.01943457493579772 0.04444280499089561 -0.0288820963911799 -0.05931051019128564 0.001765378537063071 -0.01044847443198782 -0.06745917147368651 0.03933736857655298 0.06506511905508187 -0.005350591198968547 
-0.03084527030705603 -0.008826024902489526 0.01061412916025607 -0.01991474190254883 0.02495494792373218 -0.05890216322053384 -0.02801057645317051 -0.003337941474398435 -0.1051612644679782 -0.01257877568384267 -0.09887647324489267 -0.0448329144980984 -0.04631067304907652 -0.004773582011826352 -0.08499557781232751 0.03740679541652865 -0.003765435989199383 -0.07187958086890381 
-0.02979458334978425 0.01079777914208192 -0.0217798469338623 -0.02661500242996967 -0.03444806509539075 -0.04649197437183531 0.003109895548294106 -0.01535111948210337 -0.004235197394352985 0.005490785566856528 0.05756123646079436 -0.07795931139244905 -0.01284496292670493 -0.01309212427075788 -0.01550454385887396 0.09396871619228334 0.004481010292182242 0.05204541130788756 
0.02707973588637846 0.0319910526069692 -0.02091512241697246 -0.03096328587161545 0.04974164023182467 0.011491085808925 -0.02396733933104609 0.002161000289328723 0.01472561149758408 -0.02411924616900379 0.005426658467980888 -0.027694731765813 -0.008803012183417161 0.01358000487104778 -0.02741274637519307 0.001729278775291944 0.0160194585735803 0.01370241189644477 
-0.06412104858166759 0.03617664787364714 -0.0107405610932959 -0.02466656942474777 0.03669736649789826 0.01075085493942457 0.01215093857429581 -0.004443204104743234 -0.0200830605252656 0.0195151228554855 -0.004637025936679791 -0.08001801133610695 -0.009163536113789951 -0.01999064816197096 0.01390650134861224 0.02040297653147956 0.000832311914485312 -0.05633625027918142 
-0.05988611533258916 0.02175427109214152 -0.0281471953944199 -0.01799074175768541 0.02487475968851771 -0.01662000932064057 -0.006952517679990727 -0.02551527499525474 0.0229483765336789 0.04908341555939269 0.04998163503932461 -0.06046338025783678 -0.006239718254319626 0.02716863491014225 0.02926021877691757 0.0002178672919671091 -0.03635923407674575 0.06441450055916587 
0.02174807433174068 0.01190114830711388 -0.01179840001522959 -0.100240523735829 -0.02521485028631956 -0.02452762203505685 -0.02255608357207405 0.01710787493136088 0.006954583976117491 0.0132632472529593 0.005781740604087669 -0.01210245990541024 0.006726367264674456 0.04192197638168194 -0.0096171295885174 -0.1234308956832795 -0.03835168557830682 -0.07694622841191956 
-0.1288022211269534 0.04533433979180285 -0.01104975052045427 -0.07026054554081665 -0.0464325762842134 -0.02251482689763009 0.002773585390379717 -0.008717800155546018 -0.05841473368924021 -0.05139378163970763 -0.00938273799317231 0.1096729207234162 -0.04012184752291187 -0.01703066939912684 -0.04950922254118807 -0.0445989436064629 0.01227671855988026 -0.07917076332676247 
-0.05957104872259004 0.04560437923529596 -0.02133281338720695 0.01615571348278232 -0.01061942178567338 0.009340730352788916 0.03373863283965216 -0.01778374497942771 -0.006206184534342505 -0.04170625457502696 -0.01751997068346306 -0.01064865627642408 0.01448394766229111 -0.03725503745967579 -0.005434110343263176 -0.05080574778381556 -0.0005618712503291059 -0.00765122972880923 
0.02176806470099139 0.001129417253395314 -0.01930000807821905 -0.06072726190353633 -0.03298409966512753 0.01555469126840602 0.006115903350363882 0.02577425721012976 -0.001919790577378724 -0.0219193698635958 0.01104246805202856 -0.03057431001270376 0.04006188808636511 0.006205922172667671 -0.0453839589603531 0.04925555756311294 0.01568365272971092 0.03961794941438266 
-0.01332371578368156 -0.02682905540949148 -0.007052168804498875 -0.004106685992360417 0.004319792997762114 0.00294305290144495 -0.03974611685056466 -0.000428507402581158 -0.06436601594753824 -0.0254294721780643 -0.1068404705026408 0.003617730791734417 -0.01837183502208201 -0.02300838898600595 -0.02479547461088831 -0.02130170145809897 0.03849374823232107 -0.02167820124108606 
0.007726271906654534 -0.02797315576458519 -0.0003979586088466108 -0.007372212642912234 -0.02484870228959438 -0.0028323240878589 -0.0357445693962963 -0.002438527812571403 0.03451910059810184 0.008011726251606156 -0.02361619570845663 0.06639994150975793 -0.01933384691971221 -0.02192465974545338 0.0002899295383179092 0.03442040686863084 -0.02817173795122883 0.0208005111962988 
0.01134476735834965 -0.05459560189751943 0.03446558433961465 -0.02490016821644681 0.01707128867106934 0.01080836037202529 -0.04272463395486445 -0.004827482893784108 0.01357324075768411 -0.02178474212022153 -0.02569611299568357 0.008484752287521893 -0.01901336618891597 -0.01987910464783409 -0.001863008109935333 -0.0347354584879273 -0.02917245791932225 -0.04490341560428713 
0.0500665184778259 -0.0437367583136655 0.05921242046653243 -0.02608665777245626 0.02262520558825968 0.006307220913207214 -0.001752255713951828 -0.002593488620797568 -0.008351780729953918 0.04403542305910474 0.004263138132198469 -0.01008040462778732 -0.01442923367927649 -0.03295753809849199 0.006858224405513888 -0.0702814724830248 -0.01993005775985086 -0.02105143611346089 
-0.02338307366019713 -0.01286892022895686 0.02519702132631661 -0.09364901003427711 0.02664523241392455 -0.03310610161989068 -0.0101702441037462 0.001607051194108652 -0.02277026688261544 0.03680394851486448 0.04047966551070026 0.03377894982778672 0.01965307932844253 -0.02298430477834994 0.01528239115072387 -0.09143752409420977 -0.07356937621698988 -0.01767295298682331 
-0.08406164524918178 -0.01361768107936598 -0.009691014760798018 -0.07284279458765638 -0.01272865045589781 -0.01718344214630849 0.03902466287002231 -0.01289971894430665 0.08333912002072803 -0.006359630043914422 -0.008210721360223848 0.1062225532257329 -0.002928049989836594 -0.0510327010574725 -0.01991052825666347 -0.06623623600482886 -0.0137985700491425 -0.09023123825990621 
-0.02343864110540047 -0.003753272871790442 0.001211978204695281 -0.07231757511750808 0.002964230575323392 -0.05902371188753883 -0.03621842621549679 -0.009910048726355274 -0.01016831399750158 -0.0120971676759266 0.02181782687650488 0.03355032153040575 -0.01768634230282261 -0.003017603047480756 -0.03931019874002455 -0.1067913977227367 0.04399790509241352 -0.1065072877805849 
-0.02752460175201719 -0.003118839798388636 0.008516707528209169 0.01747594215229032 -0.03292534787742571 -0.06556567667968653 -0.03528906033842293 -0.01119665438262563 0.02207552099288621 -0.02095737455447748 0.01919550259569343 0.09831796215084057 0.04372727106962372 -0.01858528421385016 -0.02558859116902831 -0.1234834359293926 0.01570339264110089 -0.05755336522484088 
0.06451651230362822 -0.02019651233155549 -0.01382416056856365 -0.0312885820311838 -0.03078997135232359 0.01194894681082615 -0.006535660306911275 0.02965518733243412 0.00681558904856076 0.05483404443394709 0.030554065088007 -0.1397158679549446 0.01314712394635753 0.01297872507018133 -0.0484320110021396 0.08383971346543803 0.03174046455169519 0.02600353274305614 
0.08252635729363546 -0.04140211035642143 -0.0001886991157373633 -0.01537493284660246 0.01678538514208203 -0.01019645301796712 -0.02841702158976116 0.0004035851425627169 -0.09298848720740653 -0.03240933424871611 -0.1090577911276575 -0.01542966273918634 -0.009268693563797791 0.0001402097756583905 -0.04041962006846565 -0.009897816385613104 0.02773636892323035 -0.05422684565219623 
0.08897582900605382 -0.001696605370907551 -0.006788254526128184 0.04295318961507229 -0.02526808376392892 -0.02046619431310995 -0.03557770182283324 -0.01094841775921717 -0.05803131450807252 -0.01608277342752099 -0.02500372027977135 -0.02858068091557667 -0.03197539940880032 -0.02557729210790237 -0.01653123694269628 0.03093362210344391 -0.03427969048709999 -0.01094436167046557 
0.04798311671400424 -0.003507825638810766 0.0223777186797118 -0.006969534219873331 0.0285922673851299 0.02573380518960049 -0.03049432647202986 9.745675111028489e-05 -0.009975327456679567 -0.03580917033355482 -0.03151577940364874 0.05930383614808635 -0.03190268676599897 -0.03740008657940119 -0.04860468370558717 -0.0003924896295191839 -0.02146067956970585 -0.0672164980475034 
0.0193294694881095 0.005800254504930005 0.02700249286222692 -0.03919938623898992 0.01766943500230821 0.04431956648500578 0.002003586549709217 -0.01070873755503905 0.003199748506972656 -0.01786702952132661 -0.02520359216650656 0.03302267095445042 -0.01988731262916688 -0.04739769504284166 -0.01893863150648211 -0.06648291005883232 -0.02999148087228766 -0.09294306440373851 
-0.08234666438028257 -0.01767083210371118 0.008355502354595245 -0.04500074993509381 0.02004589314762811 0.005921497660476093 -0.02252211552272273 0.01354403711606613 -0.003196068257697464 0.0127764369967777 -0.0229051695322011 -0.05694577869417787 -0.0120036989775756 -0.019319733517407 -0.02875356268825966 0.01567838347207081 -0.0553023799110106 -0.02679101393888454 
0.02754122605805246 -0.002745643778458547 -0.009315548163653431 0.02357973807611544 -0.02042299381271949 -0.03380649679363574 0.005450132440970675 -0.03354721371316793 0.0198382366517315 0.01307077876582606 0.03086241374050883 -0.08028294418898285 0.01041244555110891 -0.02883802695746951 0.1320655521638744 -0.06368259710920184 -0.009910844595899845 0.01837145342669824 
-0.03421130010450849 -0.02177033431729802 0.03304168809677751 -0.0187542446565389 -0.01018568882991687 0.01012471981688489 -0.005915177772658785 -0.02753328466920084 -0.0315204255345169 0.0219633754631332 0.02689533707991526 -0.04777525140611918 -0.01269691583985113 -0.04365777689591539 0.05059646865742153 -0.09044363605321083 -0.02664962679629489 0.0430908905544918 
-0.01172130090718586 -0.02582259540143243 0.04764195985690264 -0.05156593563374531 0.01789300947637883 0.04464435384408606 -0.002203374314992428 -0.006418565718403628 -0.03409444440204738 0.03496372488516972 -0.03220040783005153 -0.1258403439072315 0.04436037073365687 -0.04249803825099066 0.01227830600136396 0.02076113805720255 0.008318095166022735 0.1116599112684495 
-0.0003862172188162655 -0.01661174917207407 -0.002797136164734639 -0.02969450849455173 -0.02786091596159613 0.02042652035055284 0.03530699654718094 0.01762558509093186 0.0163232398582123 0.02180654609485752 -0.02064239235600921 -0.01145018949230613 0.01608175882413972 -0.03013029639654532 -0.06646135511079644 -0.04021411596336592 0.03147974914912743 0.06853002177453675 
-0.07524597985949665 -0.007154245036451396 0.006214296067494049 -0.01977960301170105 0.003370218416768122 -0.02119558761114482 0.01437213573404157 0.008996931735072846 -0.06314906863671384 -0.01986341253554048 -0.02978005161953464 0.05736907647004236 -0.02747010996426845 0.009506545374231607 -0.0727993852989519 0.02833956221636885 -0.02706344653803057 0.003220116740942284 
-0.08108831193375553 0.009258486795817334 -0.02868224268339308 -0.02134058133237099 -0.02416559440260505 -0.04904411479895825 0.01951878107537002 -0.007117176624405028 -0.02824048552361361 -0.006722286938048014 0.05318814631926455 0.0002656753056028137 -0.01762191754921332 -0.006884844477267281 0.002972783869580079 0.06862455553227391 -0.0124083746153319 0.009465752967006087 
-0.01451115991627384 0.04470002329976577 -0.03560349788706912 -0.05517356174228467 0.02374947691048401 -0.008610747465206681 0.007599792088082688 -0.001515832611078403 -0.05333211589224197 -0.01703374613729687 -0.0301967868789709 -0.01596722640680631 -0.01573036545570271 0.02346377718173627 -0.02046587067069754 -0.01074320202798872 -0.01496908380527619 0.001478103893563042 
0.01850148054414985 0.04532213381586642 -0.02260490255887366 -0.03708573572245857 0.01613566738320513 0.02836535512619606 0.007547885759139909 0.008238465194890986 -0.02323362197716957 -0.001858832098394141 0.003447831441682383 -0.07074731959292686 -0.009216431868081134 -0.008294466360307565 -0.01484207115769263 -0.006611847871399879 -0.01502263721446129 -0.02723165224676832 
0.0484248757254985 0.02036589977430328 -0.02060905058731477 -0.007417420818490228 -0.01250858430526877 0.01264281943710149 -0.0009906552682492379 -0.006753253938171181 -0.03321032809124676 0.01925263866608054 0.0008231142795824377 -0.0786477750641814 0.003903645740226351 0.01906955157710591 -0.009417030166283745 -0.06697354754955091 -0.01900500280356639 0.05461898089472682 
0.1054391417906048 -0.003209295824510564 0.004229427693334089 0.04605667674511571 0.02990858133368448 -0.01694105382338307 -0.03038899673600663 -0.02019899455859963 0.002014808488743083 -0.04749668633401799 -0.01249283486059838 -0.01579813999815776 0.02156115353075182 -0.03546346797903072 0.04737762325652724 -0.03989872593799886 -0.01401794281925466 -0.07238029881545022 
-0.07817331342557093 -0.01772353944993131 0.02301140773782777 0.01096594018452969 -0.02380712594260289 0.02981709316398893 -0.005576718734930471 -0.03554687107486691 -0.06630439723043222 -0.008167629631513277 -0.1112183502222929 -0.0328598662639784 -0.03133082149506386 0.01449664420692534 0.02088167402194173 -0.07891294101596003 0.02643140397165127 -0.01639266599829933 
-0.1185990430574993 -0.02929381909094747 0.03486478736984095 -0.06816356408997791 0.02382295844206433 0.05196430412570761 -0.03340913829872095 -0.02575574707536902 -0.0007787726171649101 0.06319579301254176 -0.04961462298545699 -0.1201578714149165 0.007032566017035009 -0.08621303229197805 0.05737362573419279 -0.03633564145461919 -0.01019718190479446 0.05585345731419473 
-0.0206472805567246 -0.0006025318629032149 -0.002284020818432276 -0.04978380193489493 -0.0200959978245742 -0.02383004939733086 -0.01997584774674215 0.02774014388751 0.003753272540144166 0.01531741340605144 0.01641915088347412 -0.02839278708029266 0.04375137562289058 -0.03049178050640048 -0.06416951883852534 -0.03754600383530922 -0.006436687785795574 0.09916831787139271 
-0.1234795469186034 -0.006505548041789088 0.01643126659771456 -0.04013260406575721 0.004145825299735258 -0.01786797664793393 -0.01647678081302411 0.02536255604541905 0.0372356579042666 -0.03729270464718131 -0.1150012109686535 0.1276716112384009 -0.02924428944185509 -0.01455079197365713 -0.07725008519441313 -0.1067759331305604 -0.04278439236943114 0.006397516305858155 
0.06312918188103876 0.007987658050186383 -0.01081132551625965 -0.06390555873359874 -0.02071655481262295 -0.04984285080414151 0.00150273114090869 0.007962014712866271 0.0121836330744006 -0.005143885294238561 0.03639192281423323 0.03526498194043277 -0.008193117174512468 0.003707708544135654 -0.02556022068774249 -0.01767030467577051 -0.03759651933696542 0.0319596620029398 
0.04643069560512397 0.03158412906268326 -0.004466356662538729 -0.03949227719218132 -0.0008050657190869128 -0.001488823693349015 -0.001684406735440357 0.007746506717378764 -0.01822391852678695 -0.04529489157947861 -0.03990287769921716 0.01142616309577725 -0.0235993495177749 0.02687361685691445 -0.04220963334370751 -0.03766987065589258 -0.02565026575484992 0.04036836568099993 
0.04458299098170612 0.01234540603782577 -0.0009571124196804252 -0.05154181510705792 -0.02133387204545161 0.02750215340369873 -0.0244830389666286 0.00832191314498313 -0.05243528342485106 -0.02447170495346179 0.03045760262988673 0.02260685577377044 -0.0274420029336153 0.01905866666102789 -0.05085947508525707 0.007860160665648354 -0.005113495071638059 0.04000153173203305 
-0.008432567062429079 0.00405878227449941 -0.007715424352698141 -0.05474809905352829 -0.01883146679604606 0.002825460892785319 -0.03802032195941668 -0.0002112346114550791 -0.02966318156021343 -0.01351636493715431 -0.01078916559289075 0.01855170823483258 -0.007066210817479926 0.00109093624124532 -0.02356196715733749 -0.03375348788007754 -0.0181341885200369 0.08941575313904596 
-0.01848446216663812 -0.02785500139005826 -0.001892203474061331 -0.03268925517249818 -0.02148009391736794 0.02661453156625768 -0.0136823433220783 0.01613528580145771 0.03409850532129858 -0.007805596408121444 0.083851696528102 0.06478762827359723 0.004363161417566697 -0.02104488061670655 0.006708745028886668 0.05832320738990203 0.03552357048638721 -0.08499959346111774 
-0.04178861081647499 -0.04937415342949904 0.01447558441210697 0.04022640774423442 -0.0007006271990248164 0.01122381966482862 -0.04689259914671458 -0.01708377335308668 -0.06338379107342633 0.06190862010444149 -0.07465476685549771 -0.0247051204692123 -0.02590574120273779 -0.0103792235110006 -0.01099440267819536 -0.01803935385065054 0.05445207505763412 -0.07430049226651751 
0.0223894198180992 -0.03991648706255734 0.02770323485620866 -0.03087991892064348 0.04706024126800051 -0.03831314656121242 -0.02284302343076407 -0.002673602263674712 0.05015284248376822 0.04638964667854066 -0.0354411343790445 -0.03677736473022139 0.05168471359677065 -0.06196027229934014 0.02954531290591299 -0.06548876889602991 0.002082740412060885 0.01232949053807551 
0.08718044176853584 -0.03238654809604056 -0.02200327621817604 -0.02959119337738342 0.01593422793206151 -0.007294504936916197 -0.002376591486067174 0.01787109764146901 -0.027034960115619 0.03207581563610507 0.02641125132093591 -0.05021477293639003 0.0436042861547524 -0.03081688481418648 -0.02393310660830074 0.02546777461673696 0.01214161066499319 0.07125752792538922 
0.02259223757884769 -0.04151415932842828 0.007327903128408675 -0.009721655201724397 0.004063149888926173 0.009211774028196501 0.00797353323915969 0.0007189827553221194 -0.06589554920999439 -0.02975824600171931 -0.06048976965323721 0.08454899636521707 -0.0215126112067395 -0.03173945694181125 -0.056717780216409 -0.0156181643281849 -0.02665591382483451 0.03883548019103061 
0.02065138584803772 0.02195444632778885 -0.02297824458001428 -0.01676509698230558 -0.02427919510870332 -0.02547243805477452 -0.00656325091517324 -0.01172520531354892 -0.0719604229849717 -0.043277380583493 -0.0354019429270125 0.03085089829898719 -0.0174242086824936 -0.01378518550793811 -0.008623051982183386 0.008683383015371169 -0.04529874445868023 0.006819755634786808 
0.02192696663309275 0.05553594058296463 -0.002844399179734558 -0.02407095151645026 0.01279546136384204 0.00770726344585276 0.002814042094071397 -0.007269020602272686 -0.07298654442405635 -0.04983376464495896 -0.07128275892257599 0.02411555417217593 -0.02574520931509497 -0.02513015279433221 -0.03381148959062991 -0.09001483173794991 -0.03033650054721073 -0.09529352208619066 
-0.04023893514381294 0.02032340358127266 0.002787574638321513 -0.02627946008766105 0.004202486405528756 0.0418454297300232 0.02865841133377855 -0.00153115323625762 -0.0502132537967297 -0.05570626358353895 -0.07028120487680738 0.01917298697970861 -0.01913494318066013 -0.02316204348203554 -0.03457186300159391 -0.07181816401669706 -0.02880109314966476 -0.07226218307183355 
-0.002638135597023382 -0.01756963710546101 -0.002642663518095555 -0.008712664683146902 -0.01525148859257524 0.05780420496886698 0.00955680252769134 -0.001523202926348875 -0.0130360006124647 -0.04531550616171232 0.0008661916640230994 -0.07280408781562611 0.01917112880787452 0.02866506653751634 -0.03588765889094357 -0.08112030472380076 -0.01078100862786972 0.01498610038547931 
-0.008364815877563004 -0.02893042702091478 0.01265201021600951 0.07716202696074269 0.0122210558631024 0.04644160080333059 -0.01041099625348667 0.002076078944760015 0.01604980126941096 0.0253867304410052 0.006525030887102835 0.03603028366661745 -0.04628385175436917 0.0330836302377061 -0.04068299056467093 -0.01151239119283044 -0.005439403792331673 -0.1213074540535349 
0.05057881195839186 -0.05331868413136739 0.02826648850987392 0.1044123087161371 0.00380044963024675 0.05863237931048287 -0.004044037684282072 -0.01779092599432002 0.003779432787382412 0.01825814675500361 0.05233399133253707 0.0330462969739654 -0.04617928956495632 0.02410151057069908 -0.01111006136806952 -0.07166581435707435 0.06450830219656024 -0.1430530174501443 
0.02002656811614617 -0.05467748378001501 0.03275567901691036 -0.002676781320972353 0.04163448538006816 -0.02866673896309791 -0.04390223842032728 -0.04062179381475452 0.07981609359570351 0.02156120584275642 -0.03120878888155851 0.005968216756730183 -0.008044161147913044 -0.05351522935897412 0.01074191557271258 -0.1148982755182974 0.001562995847404963 -0.02299552014479922 
0.1278949414393371 -0.01254863276870639 -0.002717254748006783 -0.007463338716374423 0.04521988987661994 -0.0426419603354719 -0.02137936572937468 0.01460704957673121 -0.01861562445919733 -0.008458406883267428 -0.01845375138136097 0.02509852468667862 0.05389247353015534 -0.06100308536200848 -0.04271394675659149 -0.0185760180054981 0.002925822600836769 0.0521449817934261 
0.007364640078258961 -0.01476979827371279 0.009793391203930689 -0.05600625973989325 -0.005771117549990027 -0.003841045856522458 -0.03069979573233836 -0.005786488070969468 -0.0454858215387523 -0.05399371666457205 -0.09406870022097885 0.1521587895305545 -0.016852574665484 -0.04287870470230182 -0.09646179578230905 -0.04766342770384575 -0.01848138426076189 0.0064859836942639 
0.01130020377946253 0.03839174166159661 -0.01671645634930595 -0.0519150153134862 -0.04653426844982182 -0.06119373571438606 -0.01033349241037126 -0.008510766214550117 -0.04288115614862843 -0.03521066970572475 -0.04326491630577843 0.04289980552672923 -0.006132553240425199 -0.01112355434800379 -0.03188832298414274 -0.01936761159692009 -0.03956990047394904 0.01503072178623624 
0.01102769590448701 0.07425960497714114 -0.02331278969103995 -0.01311529637705494 -0.02509750877019978 -0.01787761506212163 0.004477596727592248 -0.008666341546773908 -0.06442951467978823 -0.02484462339679105 -0.09807899702788005 -0.0167362857379207 -0.01022576218474809 -0.02638869544904808 -0.03036702440619268 -0.09498328777263597 -0.04183984083929241 -0.01861713019643622 
0.009304563345351522 0.01973347677291813 -0.01019069580442636 0.04442755326951783 -0.02085787548282521 0.007868774996149536 0.02194683004953507 0.008112015597108772 -0.06817030945139937 -0.03428650374852769 -0.0768767977697674 -0.01674520434522226 -0.00640021768188196 -0.0198007282037904 -0.02467591641328044 -0.03275502915042913 -0.01464398083392341 -0.06147017631814184 
-0.02435546601722852 -0.02407880215323948 0.01131884415089535 0.05530064254569776 0.008555483330213512 0.04151346812799517 -0.02058440044901449 0.01665116909057484 -0.01951477099450161 -0.006237857282293432 -0.02165240268114411 0.01659572863529028 0.03417449970363756 0.03199288360285983 -0.004650844445116254 -0.04931802088349613 -0.01288492059996731 0.06455490758470998 
0.0005013563557233095 -0.01407439672473555 -0.0352616729945143 0.02229640287222474 0.03559554733235279 -0.01223780956588739 0.01607074681965619 0.009601201907986426 0.005797165803536876 -0.039239608298055 0.1341827299956218 -0.01641957754074792 0.01223564776177472 -0.01607132973112854 -0.02731108300159445 0.007356638468840744 -0.03990902233839153 -0.04608952891032516 
-0.07152112955199202 -0.03778624016755814 -0.0147069518151509 0.06018572770310839 -0.007911519148827564 0.006989355111696919 -0.009931786953472207 -0.02200310051678788 -0.03160596398993676 -0.01406224252337629 -0.04138889140403783 -0.05625342679733449 -0.01833390607972013 -0.05489656253498173 0.01054149593134003 -0.04332911193889342 0.007281407870150727 -0.03043999799645203 
-0.06082088173671309 -0.0295313464538766 -0.005873841705551674 -0.01657130468523567 0.008837042280452219 0.01598768563034344 0.008542857050313966 -0.01595328475889523 0.03550337963615767 0.0476655224788053 -0.01311044254101094 -0.07749801676604329 0.00398572005608382 0.01658080824892635 0.05191653914474299 -0.04169189428235286 -0.01204207929340427 0.04955674063720793 
-0.01972394173552349 0.005308033943287324 -0.007707738464228005 -0.04377368315417788 -0.01678592825445679 0.0009767135744338895 -0.01788531152765475 0.02278029042151529 0.02295108584473194 0.009402348655550882 0.03845978481727912 -0.06237289617116844 0.02343014344249182 -0.03680141149405457 -0.04214816882143143 0.01215397681757402 -0.03027984470862397 0.07280663831125683 
-0.03704787189154409 0.007294971030663728 0.02040235396379049 -0.08913329466480133 -0.02303815912109691 -0.003232941182196463 -0.03460147644055474 0.003518245694813829 0.03196036277125435 -0.02043871381476338 0.007691166028849911 0.04366803958257721 -0.01214287658484197 -0.04816245206721748 -0.07000802054157459 -0.07500984618308343 -0.04532149971807889 -0.01207042499393449 
0.08891937984072487 0.007592176106194777 -0.01445174954478906 -0.04151061431941885 -0.02501138750935421 -0.03226674759541315 -0.01766096780126132 0.001209003482180931 0.05213747640384393 0.02026389638592404 0.03580256942035635 0.0386170424970661 -0.0165785205686062 -0.01059613445069735 -0.03710430375881413 -0.0383112347082275 -0.03683665375548262 0.00471631973343523 
0.01525287629732173 0.002244225819918662 -0.006514692748751902 -0.01588969573627804 -0.01009481470513362 -0.006848579611899097 -0.0001785018123418024 0.004198251359651106 -0.0001065022718926662 -0.01573304056482238 -0.003998612473837006 -0.01964074864476995 -0.01612571662377645 -0.01923747123151558 -0.03659596016933601 -0.04803721139567741 -0.0335219680099178 0.02086543806886037 
-0.004112592908134705 0.006587495712704405 0.005489342381747551 -0.050653434892662 -0.01774845347338356 0.01839997536663393 -0.008582645360309425 -0.00102995862163794 -0.05025858866696932 0.007630140904722697 1.040044960421883e-05 0.006415344191068179 -0.01165447343782713 0.02631805426882015 -0.03336966946801971 -0.03079167181444492 -0.00337151212609177 0.01261671930097318 
-0.05415956402285053 0.008737672192226686 -0.004135675851929433 -0.03031156935499039 -0.01446831638748153 -0.01176027213620013 0.003795982040018209 0.004044568349985702 -0.05698046465296645 -0.01616652461267013 0.0183734278256771 -0.03639207155496768 -0.01191708785565628 -0.01749964886715404 -0.001430570051717507 -0.006137261477618589 -0.02057843559841292 0.07558426208847402 
0.02680556963760575 -0.01788581982402525 -0.03578503949932005 0.06266632394143577 0.0474718792218537 -0.02105451186883303 0.02841442805046225 0.01890107766671324 0.05820397521433433 -0.04831461108304808 0.1300769867493642 -0.1396340333482153 0.02428578046226686 -0.04476200977623956 0.0002971802132358109 -0.04013186797352544 -0.06042270462921372 -0.0533801875657139 
0.03756222917033715 -0.04467592207805979 -0.01912040127883372 0.02948837820386012 0.0257311640059373 -0.02156725238658845 0.003015591644354229 -0.003783940334043874 0.04481539695398368 -0.05535583445613916 -0.02582499806121976 -0.122048047803742 0.01434695595630221 0.004048523628915755 -0.003880102892628293 -0.01602665296064331 -0.04106661601450956 -0.08355641667478871 
0.04199763854696273 -0.03660381310981266 -0.01728979983262455 -0.002370239517213958 -0.01495243400657039 0.008239181763594066 0.06143187234025359 -0.01401655590358239 0.04696242067559955 -0.02792921011707471 -0.05098970725538677 -0.09074260117134637 0.002994823084011128 0.05727914714130832 0.05946248662251941 -0.1031349315600391 -0.01549545388171839 0.05738182812824633 
0.06112456829579298 0.0143487540629646 0.01700756864519274 0.01631856602869822 -0.01891884537918595 0.01671336109772755 -0.01016967711823848 0.01069023517364916 -0.02031684737721514 -0.03553755409617765 -0.03524879117879893 -0.02946077105266402 0.02659239354740082 -0.002578309948036472 -0.05186536826447982 -0.07787918831837831 -0.04320226137728733 0.01286423332668747 
-0.0228107813659495 0.003178606920748441 0.01691655478486299 -0.08578232833758583 -0.03957284822932029 0.02489519703791747 -0.04601364894066434 -0.01816869885142239 -0.05127271672232504 -0.001992292504919271 -0.06895394120761751 0.07994837065285551 -0.008632257504618844 -0.09177610379966643 -0.05256821370742836 -0.1081999255890374 -0.02863625550219581 0.003445759007996605 
-0.01957934381621037 -0.001003327290231597 0.006794369260475269 -0.002614854715195972 -0.03832357862127565 -0.04584912991869949 -0.02952855783896646 -0.005386620919967531 0.005793034489971 0.06710257018140725 -0.04540464139814285 0.01400091108868306 -0.01596516868324151 -0.04029016053974208 -0.03651655986077212 -0.08527113025116984 0.006830888477972072 0.07163308624991728 
-0.0007027654661719635 -0.01003217948831381 -0.01504054665524532 4.537826984128683e-05 -0.02082146922860537 -0.02868858760539762 -0.002926011604860961 -0.005067451932702761 -0.03294961940959599 0.02035378391425192 0.0004021682094624994 -0.009481115318350903 -0.0098355917875212 -0.04137810973405676 -0.01212274304640961 -0.01853962802196387 -0.00611471168870229 0.1025915055782266 
-0.00155016775211188 0.02139562026930002 0.002652294174599082 0.00563108291638687 -0.01567482594494911 0.03208121073181258 0.00831295075497465 -0.01011163447719464 -0.07087366866118995 -0.01409123281617166 -0.00306148195103308 0.0237784178649718 -0.01218688556782646 -0.002150881971768486 -0.02653781567354084 -0.01546281295657742 0.02131640592581179 0.04606259513435977 
0.07778198755664857 0.008067031307873725 -0.00821437462860004 0.02381734666598653 0.003010443565523539 0.02289551627065754 -0.03207443202418857 -0.008610025768847495 -0.04985874093720025 -0.04562645010248509 0.0005992778381636717 -0.0585327726443326 -0.01040296584479764 -0.005992749761500777 0.001804624981744153 0.04074569892585214 0.004457887666660058 0.04939068910196867 
-0.07722614964794938 -0.02686194600268159 -0.02325892831074826 -0.02479096204929615 0.01901988148479961 0.0558400873464889 0.01664918880038556 0.026668276498767 -0.01327341013459979 0.03671353155234416 0.05435166297984773 -0.02041722244325725 -0.02504593546413651 0.06288027244262946 -0.01035265652846867 0.03527291384978528 -0.00393107865870898 -0.1426314483951602 
0.05721324477166106 -0.04813612520642079 0.008707125898332184 0.01994774869834229 0.00386086953602078 0.01317269145722992 0.004339111270693446 -0.01391901131561891 -0.008280732667359977 0.000986372634643186 0.08325100934497347 0.02637139350786515 -0.01625250852358559 0.06412387921457942 0.008851889421279945 0.06576786995010779 0.038884412733007 -0.2119501483936775 
0.007089306689364831 -0.03669328012056337 0.000563727620737918 -0.02515334084121074 0.03028410254164098 -0.02382041216832071 0.05059517247053672 -0.04048495716584707 0.04397745479505805 0.04519588154916231 -0.01926545727231754 -0.00934753666784895 0.01953264315825412 0.02480769606136803 0.1186939038191198 -0.02875441619600623 -0.006807124011597111 -0.008614563020737412 
0.02338681622710786 0.01546114891099916 -0.005386680746931203 -0.003095003583398368 0.002729720896325684 -0.02909726043076329 -0.00382766357428963 0.01674049366412134 0.003222922984104593 -0.01576542347506089 -0.05612939978081555 0.04247644084658021 -0.009073698357820672 -0.05997999862182895 -0.02456875308939869 0.04267308457189262 -0.01780299153113371 0.05183098822663863 
-0.02394761775879096 0.01412644966667777 0.01357725437805786 -0.1010622252065054 -0.01700937023439032 0.01801611039494775 -0.04028576144261899 -0.01956367256162863 -0.0592273149609647 0.01267674548602492 -0.04793495901459657 0.07851655256807359 -0.02268209937402487 -0.07193553068858047 -0.0574073850619322 -0.02964911708557821 -0.0290539953537207 0.0233422440967247 
-0.003915529109538597 0.03096528224412251 -0.02900812360210532 -0.02254959130005536 -0.02702115833262025 -0.01365292435714555 -0.0229350304055808 -0.01528843946531419 -0.07743496013967086 0.08370774280235894 -0.03473180139685789 -0.02903897239447785 -0.0111092776009696 -0.03613963077120324 -0.04880903610019729 0.01089183708775105 -0.03109836811493796 -0.0365749459238999 
-0.05379767393301847 0.0332453012147866 -0.02012561990330747 -0.01304965013616066 -0.017581654832483 -0.009214814930465271 0.0155775190092641 -0.0125174270863605 -0.07637032389715334 0.05888498024690986 -0.06826061126892942 -0.06599582876938882 -0.0008306425227405066 -0.0305286597588622 -0.05308146222779212 -0.0625820084842576 -0.05335223839907963 -0.047319444579371 
-0.03209826073324758 1.562507090485451e-05 -0.009517927345167643 0.03533242124150314 -0.02557454852813525 0.01478189660432544 0.01221246925766081 -0.01026791307517758 -0.09144927521480967 0.03547714776033367 -0.07443633441523169 -0.03422101789482363 -0.001671659858670954 -0.003352620269990979 -0.0428771485687614 0.03426969881590183 -0.008984283547566467 -0.05566315003769368 
-0.09269117476361016 -0.006887955893699339 -0.001129090872852033 0.02346975080111248 -0.005857345761077079 0.0454712734967516 0.02275539224881102 0.02193001167046535 -0.05768014987512597 0.02806210295468842 0.008934168036889076 -0.01873215480619364 0.009286267740774394 0.01053283356013773 0.008484823209466278 0.03144275299834871 -0.02912966721530433 -0.00448926616693855 
-0.03255831137763413 -0.01546804797661153 -0.007298315753737455 -0.06430849379148826 -0.004007417753942614 -0.03668464195345193 -0.0523979954328465 -0.003482237955963739 0.04071828180746532 -0.05132056461281161 0.03379619876279509 0.006514529071185214 -0.03400777093484283 -0.01743703751403081 -0.02937302466205531 0.005841619803492689 0.0003908628185139517 -0.1463104056624356 
0.04589341291600058 -0.01170748325214776 0.003091435993030043 0.01668693013139065 0.0143976016845112 -0.05623781239093759 -0.03133412270962564 -0.004682106046300465 0.03531966975043732 -0.07654786196592629 -0.04720576348514119 -0.05878079593808789 -0.01331984891908069 -0.0004689849995740745 -0.01840369494616374 0.03392282596945249 0.03564042669617669 -0.138060854841762 
0.03536499278890412 -0.02455235393455581 -0.01454171276112917 0.0439485455968762 0.004879694464860067 -0.03722153061091765 0.03788916694821745 -0.02567916568721069 0.05431104027369252 -0.01420208300372884 -0.06444815174012547 0.06133645262622596 0.03159487957206174 0.01254705722402717 0.1118693771460966 0.0233897793587679 0.01354756229128528 0.005408410731423383 
0.03486009608634939 0.03557925719773104 0.01345133223810696 0.09280829601542309 -0.03056992862171686 -0.02105730605162792 0.03219147609499772 0.01145078413444744 -0.04593075944593733 -0.03816098152648156 -0.08946460520376055 0.03610975428118216 -0.03023352448314658 -0.05506516537174005 -0.02785972769698993 0.03302203637833229 -0.02713219966929387 -0.02927228980218139 
-0.01147315616627622 0.007639168347886098 0.01486865463669682 0.04861759210906065 -0.02800947521228287 0.05674474020758094 -0.06491288761535031 -0.03103315908158717 -0.1468555989283813 0.02044239104016705 -0.1241950102773632 0.09006678518113215 -0.0491641712367037 -0.1091184891745237 -0.001265201899972422 -0.03410007991626258 -0.01690956519730106 -0.04144474386793476 
-0.06624760048038945 0.01306103036541823 -0.02466224413669518 0.03676845250197699 -0.03545158538912197 0.04443280249065954 -0.03428578324862622 -0.02571147180489981 -0.149524801302327 0.03271355651647067 0.0138805432905597 -0.04160130885448748 -0.01702914142738873 -0.03891664615455512 -0.0002754522216601436 -0.0204920156110602 0.003223741525786943 -0.0277980030856113 
-0.03122472974114605 -0.01425775361006528 -0.01827552830416732 -0.02750640425334653 -0.02477950180323642 0.01679559003755689 -0.03077902390984444 -0.0233085244593341 -0.06701244659897307 0.04457181495625059 -0.06974664817013063 -0.006977586652306535 -0.009618478573198476 0.007745106136678575 -0.04487567936826605 -0.09265623466974286 -0.03215473774243944 0.02376673552274499 
-0.04415339972345984 -0.002179162424374028 0.001301689658983305 -0.0100423642019225 -0.01333229872348133 0.01500380354470819 -0.005330318079576186 -0.01825421892320554 -0.1139831851975027 -0.0640551434566035 -0.01083619704481035 0.07189888086340983 -0.04610116742022465 0.0009742564113064331 -0.02947744549195819 0.001601560961150278 0.008287838200255608 0.01092250880412167 
-0.1063540831831585 0.008553658432898844 0.003429633477178361 -0.0734664859976925 -0.008369979351128225 0.01698669850355232 -0.03543795357380041 -0.004467145883481408 -0.1125603501944041 -0.04345501874443249 -0.01241924609534637 0.05354543986335557 -0.001420375471209437 0.06347735709941454 0.03917928135778215 0.01393599153725779 0.05973555175143373 -0.05376923099253825 
-0.01823345563702601 -0.007756740486291282 -0.02127245679676046 0.0334395473357577 0.04357017218796254 -0.03388622639933449 -0.02783694366386622 0.03234186700201545 0.03132608525580641 -0.04556267855205372 0.04264554072130457 -0.08718502617869328 0.03767856259172607 -0.002306919683126281 -0.01141001212967839 -0.07206456623641029 -0.04975864199572521 -0.03606816718344661 
-0.005523283745954798 -0.01560067147291754 -0.007878685539707438 0.05867272254740974 0.05125684643108337 -0.0572959704037006 0.01296695397282812 0.004926531187686341 0.04401351224521541 -0.01819584653186708 -0.01661601516598087 -0.1541337142501328 0.01362422850426347 0.03104808311860478 0.03015057741769486 -0.01150156607796069 -0.05944538087099963 -0.1009942954061886 
-0.03329855333752733 -0.01958229035691215 -0.03084793483279705 -0.003504247276770225 -0.005229022893660911 -0.04730907949768719 0.01652535500444754 -0.02317610553886573 0.1037892351239378 -0.03402428129392736 -0.0268286216304289 -0.07954560449313007 -0.0185725201348428 -0.01486177063389563 0.03861470602583745 -0.001889277901529631 -0.03862691969191397 -0.004758822694273673 
0.04574523666607679 -0.01034863024465082 0.0154849361114592 0.01783770762834656 -0.02103272370429349 -0.0305209365010606 -0.02647345807300176 -0.002108420192020496 -0.05983750058847346 -0.04831398035959576 -0.01774594055133603 -0.03141500455598925 0.0104880963284957 0.0005687524683232285 -0.03792584752102526 -0.06005185762138154 -0.02264926923894463 -0.02568281123401874 
-0.08452779279681183 -0.01474887588387004 -0.001884841183351926 -0.01479160622353199 -0.07526550426317656 0.008039111003857404 -0.05313021912485678 -0.02301016208430803 -0.08260221576094912 0.005370118534301587 0.02220603189156626 0.03760391390220573 -0.006338970516912096 -0.06942496690276659 -0.05041217103663477 -0.00318819082599935 -0.02146901143465462 0.02750648146119074 
-0.04525290009224277 -0.007918150515740404 -0.01552144158487381 -0.00963842615181216 -0.03633171786046434 -0.05327636768968137 0.004162799534113984 -0.01400951979632887 -0.06012359031414982 0.04837733588913339 0.02266669484835236 -0.04485189716035887 0.02297771346076916 -0.02711327674213177 -0.0266658909098953 -0.03310411192246266 0.02078431514070419 0.1324891324529516 
0.02370295570523206 0.002108953006633344 -0.01658546453169148 -0.04520433885606073 -0.004183401277336945 -0.0255458317694586 -0.007942935807270035 -0.01707382305433491 -0.03176192588076168 0.0390408810449435 0.05095184757098179 -0.03612650035982099 0.005347773497082857 -0.03933443536006989 0.004229766969249895 -0.03820710892664227 -0.002494646371400293 0.04801017046727105 
0.03282981209380893 0.01434012034317284 -0.008045465944066171 0.06356233312675556 -0.01892359226947449 0.01629731155652736 0.02857380243509488 -0.02259404155087938 -0.0332832434280657 -0.01825968244182622 -0.03318572248439411 -0.003675428855348197 -0.008840090404541182 -0.0318681265986672 0.01561918724225926 0.00826297374767135 -0.003204479500192909 -0.01454236352982082 
-0.02835518585238186 -0.0103226189287711 -0.01527733277958023 0.02915373206414183 0.01975400339069005 0.03915605934917024 -0.03383994715631149 -0.01834277996482438 -0.01851262977087546 -0.05052342295428962 -0.06571525406242364 -0.02515549453450337 -0.007265126558429292 -0.002146134628195277 0.03301990961169477 0.001869855277894863 -0.0349911453073192 0.06343798612905523 
-0.07262604445560281 -0.008907163654082614 -0.004447039329339942 -0.04747442780921243 0.01141253513949442 -0.001280370244700436 -0.06144538585879603 0.02625040699586929 0.03933470967466165 -0.002605498519268843 -0.06734117353357393 -0.06769109323207513 0.01287516897337765 -0.0159811017239238 -0.01979698133284304 -0.02664774972711328 -0.05557314724347102 -0.001649613135073757 
0.02756565460102517 -0.004250415995948557 -0.01822727185298925 0.00515720251001824 0.01352842739976061 -0.09246298349205777 0.01303444532679772 0.006223299271063901 -0.01606243458036585 0.008072204203330512 -0.08340488624401957 -0.005900571386270421 -0.02123014999569286 0.01129289836435842 -0.0798269344339331 0.02777267113339223 -0.04830168180477518 -0.03957195290060293 
-0.03285635372532674 -0.006699676404149959 -0.02532893770303492 -0.0633437932662949 0.02409585194697384 -0.05391105537373089 0.03848827085966136 -0.03888000999875088 0.005306899641623262 -0.03339901271982298 -0.06553836135940713 0.06122603857008821 -0.0551781280832873 -0.006329219888538876 -0.006150410296805252 0.02712474407348588 0.01750847078870019 0.01663136066669774 
0.09490893074977914 -0.004059014485652697 -0.01289078225679203 -0.05254776678016859 -0.0329214119092924 -0.06377682531848822 -0.03407618501197091 -0.01427164368922312 -0.04033310001601008 -0.03184857183424993 -0.06191294585996016 -0.01054721100293817 -0.01818082429544452 -0.03666530445899612 -0.03851178941670096 -0.07185392061900668 0.05199394775107559 0.009140356365479472 
-0.05189120797957343 -0.0312292282458257 -0.00967469087879445 -0.04884025357212524 -0.08474116963088749 0.01400516437917483 -0.01870905473559132 -0.03180922098737517 -0.04877744688882772 -0.001226111554597677 -0.01695877088286174 0.01060482053881941 0.02023034452307455 -0.06421874231459811 -0.05669578600879495 0.0148188891838886 -0.0005774390286280279 -0.03061216410411755 
0.01121494491298683 -0.005541987642564294 -0.04442378400975604 -0.1154861843417132 -0.05011192722416569 -0.04920632855018107 0.07027837505390214 -0.02540071244141197 -0.01694923890685253 0.02630877053049022 -0.02459003521305503 -0.1018041376456115 0.03639028778099741 -0.01069646481646529 0.01708138329480937 -0.06023268673643811 -0.007270258216639325 0.1015960671078605 
-0.01818162221918647 0.007189434502683965 -0.01430603782563902 -0.02414005500115603 -0.01669362585471078 -0.04469685912531306 0.002245921238411367 -0.02077518249629229 0.05046555352029879 0.07307349111119647 0.01162491727808826 0.01919870112474987 -0.008296086765635374 -0.02296335315483786 0.01360142592950937 -0.04489305617249748 -0.03214724423462047 -0.03131292343837223 
-0.01205495157691914 0.005292218503366213 0.007624471573859729 0.02174377735824034 -0.02885094830619244 0.01136008262200767 -0.01547735243924843 -0.02712327052091918 0.05971943491293039 0.03700454999490922 -0.04635242731690478 -0.04592780572468683 -0.02973099570624305 -0.06271021978814503 0.02447497933519789 -0.01929245932016934 -0.0481651835042872 -0.06535998470645482 
-0.1343428424139562 -0.01989804776607297 0.006425623194067071 0.06878669418381057 -0.01761750109095308 0.04352355443634232 -0.07864557803147565 -0.01932794684745039 0.03272762431167724 -0.01340320795859149 -0.183858797999063 -0.1150688918216292 -0.009713463015309865 -0.07535617553791037 0.02744288972673805 0.02851053854135064 -0.03438195870247519 0.0521416874619554 
-0.07222533543899011 0.003318337613273522 -0.001146146639678397 -0.1108707809348002 0.007557676994792415 -0.02668358484889487 -0.0586305532730816 0.007509334415017173 -0.01111398079609594 -0.03517826874805947 -0.01980634625793935 -0.007653564782554433 -0.03355150377018859 -0.01938295203104536 -0.01742276789269822 -0.05664659975371605 -0.02708322373607478 -0.09738993395215238 
0.04809541826415898 -0.006459606689532924 -0.001719689573825602 -0.04959426451644617 0.03334829229821468 -0.03812945077383438 -0.01691278253521068 0.0243253812867412 0.01238403396402322 -0.02126904162424116 -0.1166324044458129 -0.04640782303733899 0.01031615402589318 -0.01100981991725441 -0.03826085999140827 -0.0501742027969458 0.005463616223079554 -0.09488790067820763 
0.0458365720722565 -0.01241768482696428 -0.02550026155368003 0.09634395191784155 0.01078430034326636 -0.06122681267587296 0.02970661816058947 -0.007170704894785684 0.01915088212878129 -0.009368388063102244 -0.08681449644754613 0.03911840052747529 0.004374728364820521 -0.01862146521601648 0.01129856051992628 0.04204670856484709 -0.02272345400184885 -0.01196749832703585 
-0.01694890723048176 0.02088141355451501 0.003079967814477982 0.04886569337368797 -0.02578929771718033 -0.07949067472674246 -0.0004376151092196742 0.02589834534409837 -0.09941518681486719 -0.01846737186802057 -0.04341110743749467 0.02564197757443908 -0.01440271942090222 -0.03642434319235545 -0.02277245082218551 0.03610497964739177 -0.01114399108549874 -0.02310886012777888 
-0.05695391432937685 -0.01991706366796384 0.006189673760794212 0.04330528637109275 -0.01448960107826423 0.003058288386892912 -0.05521001772057598 -0.02418894818185497 -0.1402022028178268 0.04110573311675314 0.1045647580349203 0.03633453025526569 -0.0116481717994056 -0.03599542713871753 0.009956543997965327 -0.08487460672555691 -0.0534780674370867 -0.1336306566068097 
-0.04477303726797943 -0.008884054845168597 -0.02936889166123408 -0.01241803073377453 -0.01625186301116514 -0.01586447487879855 0.01615612746995897 -0.03019179568995631 -0.1069682619046985 -0.005942626482241417 0.08029978073981832 -0.0002431335689378162 -0.01888122245078883 -0.001587508416905952 0.03206045941395644 -0.09015940201429619 -0.008533501071748696 0.003061115931815227 
0.01627481125876372 -0.01472750527838182 -0.02320108347116457 -0.1324269274456808 -0.003851047737029034 -0.03682233128148846 -0.02592156997927449 -0.03581797043525663 -0.03267612511000655 -0.01421732515348244 -0.005600906194552199 0.03394359658333241 0.005197481028569632 0.01688025424830272 -0.03802810196842107 -0.07847669262065868 -0.02999222521100877 -0.01775957727426826 
-0.04792477089033323 -0.02123647769019056 0.003464970774467944 -0.06757488607458509 0.01666699187191762 -0.01975427645646226 -0.002042456420953927 -0.02171896274999247 -0.08006920678042366 -0.05184361345144777 -0.02683074144595647 0.09457547880121926 -0.02515617087452911 0.01477982913981347 -0.01309584143643967 -0.1057864259677649 0.03000473606593649 -0.05074092343479894 
-0.1975333500325225 -0.007835624402330909 -0.00203411377224315 -0.1046375364996584 -0.004482068791926933 -0.008569843150768182 -0.06933140198839705 -0.007023874003526861 -0.1409569755078771 -0.04265382479441885 -0.1142890923081351 0.0278982378538609 0.002970113788925194 0.01903511764893526 0.03088570991986714 -0.06095602682856853 0.04573888561046973 -0.03226033292343745 
-0.1483278472540517 0.009746601580112427 -0.006532029120656467 0.0474184701699989 -0.02509238871127852 -0.01486739963419664 -0.06927971494355613 0.0009128159566962249 -0.06695180477507667 -0.03144921772149657 -0.0652583371736212 -0.02002882632658924 -0.02595568035685482 -0.06762612940507867 0.004696796739458867 -0.06514228884205044 0.02569002050237848 -0.08470463769489502 
0.06136908495959593 -0.008357463780755043 -0.03027859589609665 -0.003870819858810973 -0.02347009821522284 -0.03047483889988981 -0.02137198976597814 0.00317292050285431 -0.02154627182711507 0.002421385291021664 -0.05039162954068607 0.00224488217079489 -0.03923794270925692 -0.04111103137334103 -0.009929943335312826 -0.07559321992007847 0.004507889977757841 -0.01160338744283044 
0.0926405429865413 -0.02287848421673594 -0.01215846533387238 -0.03630337564277802 0.01330261671335 -0.04162538124454012 -0.02595247158551209 -0.01006423053494698 -0.04802962820079835 -0.0167044988278089 -0.05322382015408349 0.08617146919010649 -0.06084194744675286 -0.06837269957857593 1.836065774582816e-06 -0.04941730664613768 0.01662410641301938 0.04734865160584922 
-0.002047553632911196 0.001651879680922179 -0.03023731731809878 0.06639132043084847 -0.03623544599109324 -0.09432370006925674 -0.03179837295243771 0.001941747155471313 -0.05027865202469603 -0.02012858634081845 -0.07684328196131029 0.01162269813875969 -0.02442944693342828 -0.01710312542034213 0.004514735290383928 -0.09737920494105363 0.0206146932992818 0.02876420098589149 
-0.06552068459827662 -0.04839583100001755 0.004633604489837078 -0.01183168238407916 0.02297378942217261 -0.0337602990052261 -0.02838625008152278 -0.04426484714199727 -0.1107453416661832 0.01650960329412776 0.05331963776839213 0.02941686291386376 0.03327329570310113 -0.01954765818134158 -0.01208079246298724 -0.08532522858837163 -0.05349799956944751 -0.08884142264632375 
-0.05494780695556706 -0.02490611047516293 -0.05803584465194292 -0.1477936725484068 -0.0031785574186875 -0.04733031702144866 0.04000418918358712 -0.01570326210277309 -0.09381527984270473 -0.04814012362461745 -0.04837321959132072 -0.09851710752647234 0.0368828346198417 0.01810856425828227 0.01834889296212672 -0.04239979588215542 0.007810766369876605 0.09809442832260959 
0.02809379611566769 0.0147735709895903 -0.02702092031997674 -0.07184963024853656 0.003300324703638539 -0.01410437884999128 -0.03395739929952082 -0.01862201395257427 0.001565251563557719 -0.01918772567012346 -0.07150488330883564 -0.02342646281518164 0.009916111862982767 0.003481801062725174 -0.04071109921795094 -0.08357136916173033 0.01908828453531211 -0.06101531950894811 
-0.01646427852385955 -0.01244216266601838 0.006931984196119487 -0.02414893363329735 -0.01602410478844716 0.0007205539190419779 -0.03653443707245167 0.002794431808134136 -0.00573221521106632 0.02030589583236593 -0.1067698620835954 -0.01168373330577991 -0.007859264138923681 -0.004097364454676599 -0.04209341022897711 -0.08128225424868428 0.05354217181675616 -0.07703220990642938 
-0.1654295425986702 -0.01506651382561734 -0.003974887950284218 0.04269825581938313 -0.04859404921117757 0.02697551388176294 -0.08461646897985194 0.004991260921118621 -0.05599174287993153 -0.02584367412480914 -0.1484650107761266 -0.01972735880599581 -0.03135501687598458 -0.06332559500006527 0.009075422652797096 -0.02830075227728226 -0.00931566732131415 -0.05588228736156989 
-0.06591556557368632 0.007606996096690792 -0.03281531792129415 -0.02845412277993323 0.009760296751736751 -0.005883411975191949 -0.02473563772787641 -0.009383348970281627 -0.02096007408383833 -0.04347861037859103 0.05330165980104259 0.0600892881030699 -0.02679536363990056 -0.03090495065708167 0.007026134722943833 -0.0006799766792838907 -0.01820308055159089 0.007663207862318971 
0.00205916403615654 0.005036176039565764 -0.0157154259452262 0.0102435481843404 0.009002783595443096 0.001252553261628623 -0.004427461081958557 0.004146006200287894 0.001383602023393847 -0.02282340044028539 -0.03158474364879128 0.1279215650637141 -0.03581955173926444 -0.02226379427347268 0.01077076789568904 0.01635959305634807 0.02587204944059605 0.03660916175815492 
0.01349693213207327 0.002049932422245022 -0.02959069195849446 -0.005878995354616555 -0.004202674245028826 -0.03237559357561153 0.0545409800858012 0.01106185612408929 0.03753847838896041 -0.04251466178722312 0.01522404397831987 0.08900564049755177 -0.002333529920773386 -0.01864787517699328 0.01101250933610597 0.009317174786715237 0.002037393396039392 0.06919690707462488 
-0.002514053902772353 -0.003105009717632192 0.02783771881698989 0.04027047747522739 -0.01883002659055484 -0.07723935220992349 0.05699706406654749 0.003695791817347849 0.01149087916955545 0.01899749138296703 -0.03773427275516454 -0.008897773520722069 0.0145254315915263 -0.02371053574485829 -0.03627286130126697 -0.02147023668372309 -0.004878473316509094 0.02249822592627537 
-0.01976799316153347 -0.0303403545113795 0.0283625530814895 0.03239209824725325 -0.0199444784314291 -0.01868259035798418 0.01345915445267031 -0.0176957030287414 0.01592073780145004 -0.0007953496111087748 -0.02530201369820233 -0.02805807205094655 -0.0368087396766773 -0.009023444422222946 -0.03431558182008968 -0.01189415901667591 -0.003329141707016053 -0.06479508824036799 
0.01750555973681721 -0.02233632744952591 -0.008848950278437731 -0.01404452484657692 -0.03096767217284547 -0.03285088950804068 -0.001065111067044269 0.01190434466256409 0.04011570660792064 -0.02028044703223381 -0.04466199230077555 -0.06282772917141588 -0.003491828447375931 -0.001741557136910984 -0.0183778152376603 0.07389591445830627 -0.05051978415765286 0.04278137147327994 
-0.07276348996518733 -0.003968269600263876 -0.001205939885952588 0.05854492487245958 -0.03204004587396903 0.03890012676118539 -0.008855436926173417 -0.01765984555579975 -0.01420502660353555 -0.01113399906271314 -0.04208621692379362 -0.06531164937050524 -0.04176536836855815 0.03760385109199706 0.007918571743026698 0.03073843856196623 0.002950211677360997 0.0445988270417269 
-0.03574574307986493 -0.003611751889090334 -0.01888363471749292 0.04718578633391288 -0.02937037458091313 0.04858068822947637 0.01478907575767476 -0.01643084567292304 -0.03865454485530223 0.0006698060888811018 0.06760826697273864 -0.06250865119198315 -0.01601303352108672 0.04736093827629711 0.01691175551814452 0.02697051006671902 -0.02456190816392427 0.05616267340938001 
0.01133145531594458 0.01875254221894747 -0.03578032355280788 -0.005198386158339684 0.002505528374598846 -0.01086110571922625 -0.02867491358814655 -0.01828594559467716 -0.03991893302199494 -0.01736811052286186 0.05460076957547176 -0.02123273809745154 -0.02324502358534886 -0.004276198505993034 -0.008557901340119295 -0.01349961471862046 -0.01858469088055041 0.0417135985323538 
-0.08080037655125877 -0.008975259363241127 -0.009858011673298023 -0.05526357907692849 0.0008583745213389951 -0.01157698431299581 -0.02035756247902969 -0.02111532014320818 -0.03797216060175865 -0.006383726837367194 0.01876139084657529 -0.03866343776678095 0.007685969943809691 -0.03234630755035966 0.03690000937289394 -0.05842247272122229 0.01288276291564484 -0.01918532938535625 
-0.05692519814067889 0.02030320164652711 0.003629949848381071 -0.02210194049931368 -0.01044851411603897 -0.03295669650803137 -0.02161406292495659 0.01362872153533527 -0.01624334645039861 -0.007250426130874239 -0.04690581264944006 0.01073775963416408 -0.01324766614266246 0.009268737250196772 -0.007347583472231941 0.05565167181624166 0.01805364988183925 0.001152451144627246 
-0.01819591125455704 0.01233164484874584 -0.01316991449346288 -0.02211862618626144 -0.002014373098758271 -0.01486052346236237 -0.02160132649236276 0.02097452734266243 -0.04586933694635957 -0.03444835355009702 -0.005758988430277973 0.00329545829597324 -0.01178997946740507 0.0208446595621337 -0.04186955416378386 0.113307910999534 0.01995681727454765 0.02934642242624611 
-0.04637615568481156 -0.02126797953229452 0.03960665890242866 -0.06162437402454381 -0.02958338630076928 -0.05749004523651745 -0.004810894697940238 0.002175962741434963 0.01504771274271072 0.01374730894786659 0.01427254086089736 0.008845914707187905 -0.01046706279118064 -0.01053163087170313 -0.02721541027597733 0.02686722046352164 -0.02770519595582209 -0.02925569268675473 
-0.07656763049382716 -0.00943834708486114 0.02074773336073331 0.0337339999104853 0.006204823377274721 0.03019466930491197 -0.006235742159749904 -0.006575193719107082 0.01619265850787695 -0.03510779457229653 -0.006656204430314746 0.003135190080515971 -0.02306000190030646 -0.08345811880548035 -0.04201174108567046 0.02610689893613749 -0.008320721447920301 -0.09808320333700637 
