solver_type L2R_L2LOSS_SVC_DUAL
nr_class 16
label 0 1 2 3 4 5 6 7 8 9 10 14 15 16 17 -1
nr_feature 4837
bias 0.5
w
-0.02883569870340488 0.04494466159653925 -0.2015795429734624 -0.0174503478157644 0.009982649866419942 0.09293378634640888 -0.03091822747937876 -0.0664177557664275 0.1149509661153522 -0.005255070851700093 -0.04328139176156508 -0.007366933333324949 -0.01743147881529837 -0.01356688351498072 0.01550099477274573 0.05986070289260999 
-0.04020345774707122 0.08110086355570226 0.3163216345775263 -0.04945273340898176 0.05359514044662 0.2267673466765913 -0.00477092700523532 -0.02721957035545125 -0.0004604405718018777 0.03707426763344503 -0.01688034729338399 0.008964817073698473 -0.05057328658179231 -0.00540640061143662 0.0006481676764529223 0.01905673236823517 
-0.05435076955910004 0.03985160197992101 0.2838827685344152 -0.002871492342320168 0.02234495213715071 -0.07195600497270616 -0.02025674075613729 -0.1258453509334218 -0.05972687806704455 0.03377960997212533 0.02238717104084742 -0.02153869372425754 -0.04978023143855434 -0.01157352492476557 -0.02826623844699118 0.02602032594197146 
0.03352300751454358 -0.07139791501696319 -0.09214004221511667 -0.07130527173740703 0.08087839080300356 -0.1345302295038586 -0.01376963304030071 -0.07794456290685937 0.2500632939238831 -0.01371401311263591 -0.04581281538428014 -0.04683061083741778 -0.02457907725600882 -0.02584716743622246 -0.02553948985887239 0.02803844628830979 
0.07708267946406258 0.0806057641687743 -0.2624024547050235 -0.01221629032997893 -0.1313749960277961 -0.40634878693517 -0.001312027326418854 -0.04745519359271457 -0.06634742182292226 -0.05955258140618765 -0.1316155729163302 -0.05150358163603172 0.01035780219875326 -0.01818092275418976 0.001190734688997339 0.008855728815726098 
0.02644564235660766 0.1314824024147088 0.2089413438655249 -0.004677122908118799 0.002529462877434119 -0.1367297133373629 0.01274101215367314 -0.1614589916331008 0.1872001415838204 0.008455139620763091 -0.0002100297320040609 -0.01566061147112853 0.03423533925421937 -0.01841761929281378 -0.001332817000533021 -0.01862425875730676 
-0.01941534899885834 0.01617894434148271 -0.01084042524835536 -0.07198078684226669 0.09136862816250629 -0.02290343902212433 0.01578832568369157 -0.02922915883281172 0.131616989371291 -0.007038931968000588 0.05385027887453322 0.004440444362760277 0.006692456115949359 0.009965965741705926 -0.0126924855406006 0.007961719366650053 
-0.02815471720787389 -0.05448703022312593 -0.0443131878286644 -0.0224837769877984 0.08454309544580468 0.06383741165335452 0.002600446995133319 -0.03913753230257454 0.03236008517444591 -0.01051076833245371 0.04778899622738779 0.02921832762352788 -0.02257535408498937 0.004865070380252769 0.01269379178037542 0.02239089647254969 
-0.03071895613696774 0.06790951454013937 -0.105848776888053 0.02466700400132979 0.06694932268203065 -0.04183825992602497 -0.02714264798819641 -0.05058589291837569 -0.03378556679023995 -0.02981045011853148 0.02901055893484298 0.01424424257783433 0.01181065624660939 -0.009867963486465138 0.01226746569469032 0.03693126956148794 
-0.03336002298121567 -0.1401445738525957 -0.04846048206742901 -0.07476117200605487 0.04741981457298115 -0.07058620553653355 -0.03326750308263962 -0.0666618381704614 -0.1367062680842413 0.002014319082103267 0.09472486436038377 -0.02463600313723481 -0.02268037997793703 -0.02941758886610865 -0.02772469834972041 0.07669567125776533 
-0.005992507499531903 -0.1454400563087028 0.1297278659273224 -0.0907626027731325 -0.07226601774623274 0.1204461485119726 0.007456707994211862 -0.009046934819336839 -0.1204724717269048 0.02673901519899862 0.01713172814234254 -0.03599654018482985 -0.028148573331476 -0.03241279348965709 -0.02455060798452997 -0.05464167378865326 
-0.03075823531453063 -0.2902706298888271 0.08194986079844897 0.08911919097035401 0.01004679165404794 -0.04109978581211639 0.01703394979798738 -0.07264899841488474 -0.1327769527577893 0.05153958532041987 0.08154891377169372 -0.006413849213697071 -0.04310904017970327 -0.01307938222127148 -0.002487727170841635 -0.06417005316299813 
0.02137656453809216 -0.1304992980988383 0.01900143620548331 0.0769926818940898 0.06213745246805147 0.195682395051547 -0.001518439972953756 -0.06036055072708021 -0.2261370705719531 -0.01728685595125693 0.0361355920933564 -0.04908434011387287 -0.009318585861621336 -0.001804435916630949 -0.002254532253220038 0.05568742203275617 
0.01560026751294218 -0.02117380795526411 -0.06721069182881606 0.02306330984483645 -0.09893134883943303 -0.1357437103852128 -0.005191590002456413 -0.004141283941314407 -0.09083303652274345 -0.01671572746019515 -0.05982849334951581 -0.04603695332756609 0.002883698706448004 0.0009580484994750253 -0.0302753038086884 0.03976767767799639 
0.01830404993443112 0.03627979795828937 0.1412195496524914 0.06175532218368985 0.0231398099920961 -0.063197124757831 -0.01935062265644132 0.0019092901169021 0.02673569205996697 -0.01350794733684334 0.01261375817604631 0.001422581665664088 0.02654803333052578 -0.009897170227319362 -0.02241454722034292 -0.03980235257075772 
-0.01557880122666766 -0.1225920647866955 -0.0006089437824494326 -0.04842448023819076 0.0534481480246741 0.1463584873797429 0.02341790654175193 0.0650585951210985 -0.00447503962477643 -0.01112699204764015 0.03721191051427016 0.02233302395172428 0.02043677108309933 0.006425518605880105 -0.0115574022326445 -0.02649885926062238 
-0.04016931042028819 -0.1201327075094604 -0.02850377926042718 0.04098564102266516 0.01658682161557038 -0.08122336645371142 -0.001661967499100062 -0.09092451518794233 0.08967125330788135 0.04640307202880437 -0.04976062433207907 0.02726639850421014 -0.006305953257978493 -0.004942842712572698 0.0007833229339462253 -0.005344559261945899 
-0.0295203107884402 -0.05644273664961619 -0.1813676713479775 0.01348324223389906 -0.0006372367292367271 0.005550189939710911 -0.02263109956976734 0.03326473825945363 -0.1611298220290686 -0.008327440368802126 0.02273925489213772 -0.009910508411943322 0.01621914990235343 -0.01983157101250897 -0.04115328606130532 0.05771411676539 
-0.01584756596701892 -0.01308108641812544 -0.09309333670440924 -0.1090697671807776 0.03786722906698824 0.08833199124193428 -0.006592197264684068 -0.01670755675569071 -0.04431672496941812 0.01735584860738144 0.004655529786879996 0.001470557903145358 -0.01945711941406315 -0.02029022609864955 0.02132869776128539 -0.005430694579706303 
-0.02701479158868255 -0.1219280343165311 0.08860304591880662 -0.1271204822613676 0.02561511930359037 0.2277979409882182 -0.02841617239288918 -0.08991635651286913 -0.04892788670755253 0.05167961574599972 0.011366170742137 0.02184460233371598 -0.0009914117240568535 -0.02144342880325266 -0.001980485288223066 -0.004915592122470515 
-0.08221693827983412 -0.1384518296519612 0.06226131022445378 -0.06583169359239732 -0.08871225109427951 0.4754993436188913 0.002289655900292125 -0.1686661118281231 -0.1701702486250636 0.008327114314541752 0.02378149871597626 -0.01121629476269583 -0.02585929566819337 -0.03464023280635121 -0.00441664726195574 0.01644845579454662 
-0.01047833974046796 -0.2238791453861972 -0.1722212667976104 0.05096591507406905 0.06123365987913269 0.0925797075727456 0.03001336166221601 -0.05220860445322681 -0.01163991786044616 -0.03421228709233766 0.04847607865602316 -0.07307082041471759 -0.00333993404293029 -0.009254638849662367 0.003524852113280614 -0.08647315728974103 
0.04663304867668622 -0.06204897025165002 0.02637010906015087 -0.05918063744109137 -0.07897821907821358 0.2921604557434934 -0.01473590024685631 -0.009926439395581519 -0.1898408638063555 0.005639522849630173 -0.1162843639044788 -0.02710592757015376 0.01662826055240707 0.009826858246349171 -0.002359292981613267 -0.0281466877807333 
0.03904786671978969 -0.04893691212595109 0.04041465135828542 -0.01081613479976981 -0.03356449233125924 -0.05672289087849053 0.01687440896807279 -0.006526862404492919 0.1440301099689212 0.04029753638661007 -0.05048129136242099 0.0005382538450765847 0.001122188761955797 0.001471949563148369 -0.005128982627224089 -0.03323749893993385 
0.001536122868833889 -0.09477753809132028 -0.113673886473309 -0.1156899747931655 0.0240724821864408 0.0412528718111962 0.004406018434662644 0.05468355137510556 -0.1004853533473093 0.02386819975622195 0.008690879787197089 0.00764879724384802 -0.01918238343666018 0.007994786720494461 0.000595627840920376 -0.0221717011589544 
0.002207284818533949 -0.1757850899889279 0.1623432116047465 -0.04486922697873493 0.08995336003691397 -0.02608975180479501 -0.01443486319736478 0.0141475193728999 -0.1958420137483401 0.02188633922790698 -0.05115502128656148 0.01171800870162359 -0.03104997370877078 0.009298614310786719 0.004944082627454075 0.01872993460698745 
-0.009788312303035184 0.1277011840266306 -0.1203626940936167 -0.1432132710717139 -0.006266467575295516 0.1787469829112824 -0.02086780083209337 0.03774695862364615 -0.08852418938514169 -0.04697722278484765 0.004575794913625053 0.0165628242598626 0.01718485195182419 -0.01294277190889462 0.02463654576062816 0.0340886533762312 
-0.02004466913864548 -0.1310249235216568 0.1906516179896528 0.04786667652022771 0.01549929546450873 0.007466469625677023 0.0104794500340243 0.08958048810462582 -0.02435858400872009 0.01889793173830157 0.1119048168487128 -0.03897926462640462 -0.03207509188463366 -0.03543578798954717 0.0112551918658089 0.01801284568293129 
-0.02285519415854608 0.03388502788340759 -0.2656389684212319 -0.03332907656080632 0.01840183878321261 0.06602652057412592 0.00258587110939595 0.1174908970485185 -0.03406622377091127 -0.01831839415085068 0.02700801298885973 0.002344752473102436 -0.04314875358017135 -0.01656960965354413 0.01289405234342807 -0.1013614645419034 
-0.03622654608869882 -0.0823753794516276 0.0149467822285986 -0.1058051184430304 -0.125808069636525 0.1271718006881387 0.018268902894085 -0.003725935772150083 -0.02276215736796762 -0.0617366075042018 0.0644901841438936 -0.01950825993213024 -0.04772153542657401 0.02635179279218213 0.03223999612743399 -0.07941336867371554 
-0.03866921499594176 -0.04515249891775669 -0.02644287076721879 0.02709356059781888 0.07670316187279501 0.06351076982005194 0.009125987134363425 0.03954246419562763 -0.02243435500669942 -0.1227045191950531 0.04553866385972306 -0.07532453356000957 0.01696421216589257 0.04072255538019796 0.03454874380470277 -0.06309721226042066 
-0.01950953182600686 -0.07243645288503806 0.06147890146620292 0.08763708140213917 -0.1029894402486976 0.1298799912043775 -0.0189614789767385 -0.09498821324906269 0.0201930924393442 -0.01088037531759002 -0.04763251298332415 -0.02510340340148346 0.02544382986851377 -0.004849938089805562 -0.0113373657367618 -0.006103086707374675 
0.006134519373296743 -0.1061558162502133 0.2024117974412001 0.1008845135657437 0.03467349209460104 -0.03069452050815134 -0.01697885522642881 0.1177386318687901 -0.1545887687894548 0.01837155241698847 -0.09869775871396604 -0.004768035895005439 0.02921997281382432 0.002492269247311844 -0.02574726426125918 -0.0004526229192329306 
-0.006611530129739568 -0.04381265141918683 0.09177989454069507 -0.04740902937894471 -0.01951139516315634 0.08880111894056354 0.0003086422602804471 0.02492679347774155 -0.09276702159148628 -0.01661143202203233 -0.006791664087033357 0.0167123850813682 0.004573627880814233 0.008764211254481607 -0.0004715360761252328 -0.04442850442078831 
-0.013009571096402 -0.1510679304127096 0.1612736716100317 0.04230088961719361 -0.00920682415127793 -0.0440402765824511 0.001426385590488151 -0.1059079966597399 -0.1334564275274574 -0.003184070803186976 -0.06279553780310608 -0.003945957321445395 -9.245528416345895e-05 0.009102082342336166 0.01983711431348949 -0.01375645209585686 
-0.01051130006925277 0.1719218715223884 0.008581501878479111 0.008578591782619721 -0.1150176065457157 -0.06133851993452681 0.008459216568949914 -0.05638638774406056 0.1013300276513734 -0.03474335988433423 0.001317414123410768 -0.0101222875523792 0.00963499366166198 -0.02393645065954129 -0.009776165628535231 0.01836665825525827 
0.0005441831684176534 0.003897884234840518 -0.00816188901635229 0.009599776540997805 0.05942771931587214 -0.09780227286566533 -0.01158367101070706 -0.05513518481632502 -0.1332269946208955 0.01439013342592133 0.06369075901980915 -0.04875979312220888 0.008725159235266304 -0.02333198999344351 -0.005975075216943439 0.0679664136817055 
0.02111109279624787 0.03153065773536732 0.06210473721565093 -0.02165447918889215 -0.06159584788074495 0.04153193211233869 -0.004123565617197306 -0.08083737178371939 0.01390122726347094 -0.04614440151335309 0.03451349842529618 -0.02132356292423924 0.0241132931406816 -0.02859306841184395 -0.01757024761575007 -0.07659323983049689 
-0.008966107968225225 -0.1242083936132465 -0.0154473288299537 0.1773173766861752 0.02138379532206733 -0.1886684383866073 -0.008864471159471655 0.1481655151250531 -0.1558703589137147 0.0538271436763718 0.02852258153365123 0.01893479966066155 0.02339934037636507 -0.001982655036035121 -0.00264134814207426 -0.0783459371166859 
0.02883799342781553 0.01095395889172812 -0.09027323924747487 0.05721675909767548 0.006520649735488332 -0.005796711084290792 -0.02166812901370143 -0.005394088167420264 -0.08550940041033601 0.009554185297354854 0.02168964844764482 -0.03221495270623279 0.01963677534315338 0.003131777380719139 -0.02307094183790114 0.03374650757082728 
-0.004592696301520603 -0.121857539178429 -0.1064883852220959 0.004905543824657754 -0.0364209028031551 0.04415387275067956 -0.03666554832642274 -0.1511866801430925 0.07641057108874302 0.02864546395547371 0.01370101982961641 -0.03646710968845772 0.003204621612014769 -0.01326057265779728 -0.05265499992345376 0.07855460328885767 
-0.005710780187601977 -0.04666922583808841 -0.05385092951165445 -0.0720313334961393 -0.05694749724685939 -0.06970407820818608 -0.005323595700560659 0.04632838364082405 -0.06565099326853137 0.02628862121560145 0.03666686151986633 -0.001172118759108247 0.02512155684670224 -0.01183879799483586 -0.03110602996795814 -0.02864852953471026 
-0.01195606806832738 -0.03880764160923188 -0.0004054101791639354 -0.09688069585515961 -0.01321402628523642 0.2062150621269623 0.0203411405398879 -0.01146145404745951 0.1225357647524144 0.0002822113108818847 0.03176541940167246 0.01916553011595726 0.01591282124738091 -0.01259658735555018 -0.002244334751365808 -0.01646446102238566 
-0.01920089037014041 -0.01310924481357236 0.02313167824393484 0.01735791667393596 -0.03175512311494611 -0.03818686566757989 0.01410214924306552 0.0006910712580959795 0.1823579773299696 0.06490178905381662 0.01326175957046053 -0.008346204411802357 0.01019279429834799 -0.01011818414776144 -0.004956086596609935 -0.0130641177459685 
-0.03154992235270005 0.03183843382320438 -0.104023002660788 -0.004047284788014745 -0.05949901535556589 0.2319899540539231 0.001339007679268127 0.01849620845204522 -0.05648321073492973 0.03395321087356536 0.01253620948028131 -0.0413898204095467 -0.005715435347644265 -0.01786294297176814 -0.01955392865983068 0.03923863262626878 
-0.02344063364118905 0.1136626188000696 0.1474447030863848 -0.02468719410643544 0.04571937476018133 -0.2558897684332582 -0.009483410572540072 -0.02764623801233859 -0.08233302470030358 0.08200853573469606 -0.03070527801587216 -0.05381550144442144 -0.01538417277907633 -0.003801756047193662 0.04024785968392992 0.0007403133430657868 
0.007903743193725155 0.009194129970362822 0.1149324620927996 -0.09931635261616691 0.04847327816990203 -0.055555469596355 0.02666226987266329 0.006741781988957776 -0.1895554062111743 -0.1221150018182965 0.09283172069526953 -0.02410583477574129 0.03254520867045906 0.007928606434097632 0.03155619368848547 -0.1434046559890583 
-0.01111994258453325 -0.1339074596915496 0.2070599398454941 0.02326868626578008 0.02215625378146072 -0.1064892915676495 0.00580672931508028 0.1900540446439951 -0.1487665280153013 -0.005916916207684191 -0.0259393677404494 0.09226851214210124 0.04231082043826836 0.002226712718460607 0.007932224654456808 -0.09462350420329847 
-0.007271215315094814 0.09610297682719894 0.02286835294776873 0.06952204129863838 -0.06093290498696383 -0.2991387503478702 -0.03565037138082222 0.05533505726857239 -0.01672700426198973 -0.01927215996032175 -0.05827343708662595 -0.02821703907529437 0.05693515933699596 -0.002100969448381867 -0.03151186207025402 -0.01751943617097009 
0.01086711490299503 -0.07435672112007374 -0.1085534190803579 0.05628827329944381 -0.07753028150410116 0.01467952261746669 -0.04094817071957018 -0.1721017913397241 -0.2049570045785541 -0.03454792509248233 -0.06242994906822015 -0.03761622695034823 0.02097493509913362 -0.0241355119566885 -0.06639662393339898 0.05031177801131377 
-0.01018175015778722 0.02276381310683229 -0.1113459094450086 -0.04588443476906409 -0.04260100549625984 -0.0254802866357378 -0.00883213874975773 0.0006828041652885291 -0.3040606229307675 -0.005220709421878445 -0.03525417674059163 -0.02182789059100621 0.004921123764304468 -0.02173457211008849 -0.03685893269456551 -0.02155252740225833 
0.008205063330853194 -0.07733192615990762 0.02525221722811335 -0.09516104567279524 -0.05048414466167583 0.1044444685537602 0.01889258462225835 -0.07283510341012722 0.02859371532328859 -0.00914279690228734 -0.01551625270081603 -0.01077908040770725 0.004536907101529469 -0.01722362501179281 -0.004224614931801796 0.03132036769354562 
-0.01354573299341909 -0.005001117342859563 0.08413185548555427 -0.01945824257176929 -0.06203822327442798 -0.06893664057019414 -0.004781075958428555 0.09911877244454213 -0.07613910392943317 0.01239432056550834 -0.005470731509578186 -0.00892264201940854 -0.001144813214516483 -0.01546500410979482 -0.01726537870947759 0.04604786826145801 
-0.0200832974150472 0.1442947814625268 0.0201331408270766 -0.07112430048708158 -0.003258401203412311 -0.04654756355353845 -0.01731325918531987 -0.08059103881307833 0.07849243183239688 0.06953400760890496 0.002710730666915497 -0.03191605824459644 -0.01454893848318442 -0.01349241691721685 0.01176493419406165 0.08880646391632645 
-0.0161114218650506 -0.04345904748902561 0.02688448695251589 0.002253818892615147 0.08972261369983567 -0.02143890738498495 -0.002613966499899465 -0.009149822157713603 -0.004781395102726659 0.0130572100446721 0.08701679573236824 -0.02417858407272032 0.001350659839014385 -0.03196570833054343 0.04131767180054356 0.01321100629668305 
0.01978664503162003 0.1019822075115745 -0.07464082758237055 0.02535666556685973 0.02719096240676812 -0.03862670916279483 0.00513032937855751 0.04587930671344434 -0.1159823753659572 -0.05237633222227363 0.02891135074018705 0.003359196743334179 -0.01989723911467773 0.01560234503233783 0.05059535515528181 -0.1268743776664751 
-0.01130721353521078 -0.1985134374854653 -0.0379280081489061 -0.06950229923190367 0.02785477022598991 0.1236766210131367 0.007737410966815601 -0.02264753697640162 0.05724902730466613 -0.07354158246779463 0.04701625880900279 0.01674776018039718 -0.008942643884662392 0.02326016352636434 0.05297156291411997 -0.0702858592378504 
-0.04052733729369085 -0.09154971514017234 -0.0384467814753641 -0.05731733941002468 0.02699554662926218 0.0315206066241003 -0.005753438444556155 0.04574734585705129 -0.1731463896922817 -0.03222907122638274 0.03602120739285715 -0.03766896422234493 0.04555470212227727 0.01362635622604805 0.01878216534976661 -0.01099414800947787 
-0.03759006941738929 0.04221818964017199 -0.03587297797350849 0.03515510538814151 -0.06107534343896211 0.02910338322776827 -0.05986869096919472 -0.07224368342812261 0.232921392430928 -0.007541632570694169 0.07762476128467242 -0.04261297887020466 -0.002344938374909433 -0.01995723721200364 -0.02309415716993952 0.05013911109369996 
-0.02186254829108869 -0.08190116288679677 0.09189136198081096 -0.01355294587440874 -0.0428816328298634 0.1143593644765988 -0.01193601562878015 0.1055608771785162 -0.2700396570202065 -0.0005063873685140962 -0.01583184660922435 -0.012606915841991 -0.00848612889215025 -0.008644611488779737 -0.05396150031970975 0.06288857263628839 
-0.0218966084950269 -0.06765677567010057 0.04621517982266142 0.01444835520274724 -0.06551205375703011 0.3486676663880694 -0.0001464036935763625 -0.09427152791512516 0.1381791590811146 -0.006627937553035923 -0.008687576736105483 0.01697755306294861 0.006228700291512934 -0.01529375572852123 -0.007205756819642738 -0.02544186011502111 
-0.01220930091550121 0.01253932128632737 0.1141245911048707 0.02703388977959248 -0.02834304408302823 0.1095116301760224 0.03427397809078363 -0.05392351199541121 0.03614661243566621 -0.01075122913123583 0.0432907515074346 0.005216354090994709 0.003152420732794136 -0.009728870569735747 -0.00993370593067291 -0.0191596487429938 
-0.02159552856253662 0.1110971564276034 -0.04017818766955138 -0.04542891323838959 -0.02487485514658871 0.1848205533706163 0.01116271338093552 -0.02306184624095967 -0.0701250687503478 -0.01699742142914639 -0.01405855116782532 -0.01727043467175567 -0.01571347864944789 -0.02363626215477911 -0.001736620904001584 0.01054999753196913 
0.002429709034897114 -0.001811652266682513 0.003537985839617736 0.007518291432790176 -0.0005846792998819154 0.04434757511340607 -0.01060413772268152 -0.164186995042794 0.1551443539287299 -0.006091895977615181 -0.01039729329308314 -0.04991199006389421 -0.03155225709713641 -0.001216379050615068 0.07487661266315766 -0.01459634116204774 
-0.004841887595894374 -0.02267918049693425 -0.1454250971937706 -0.03483824056361386 0.02317073886947442 -0.1598088184370945 0.02914002964690129 -0.03544956421078526 0.1228424062621416 -0.1042719187519015 0.07719381063324326 0.02091954121270717 -0.02346936088200327 0.0006429238394846481 0.08617505193589145 -0.1127635054922847 
0.001930801209175056 0.0517494785069123 -0.06733612609232283 -0.01825375360052089 -0.07900110391142036 0.1515473363167134 0.01600512885540128 0.1336606743555748 0.03243433684915956 -0.03841090831370693 0.02914874781563921 0.05152628297318066 -0.01952230192383182 0.001162711874717532 0.07527189141943033 -0.06362102734267126 
-0.0536035455962048 -0.01795367240662431 0.08753245126952597 0.03824651680807063 -0.02650357519882167 -0.1831369722633564 0.01515105413191444 0.08110090185262174 -0.05078055926028413 -0.03019250505009468 0.01094197347940406 -0.01538831710559955 0.04009636999697743 -0.02452665914967622 0.0198485074198606 -0.02724971853259889 
-0.03379344666920588 0.1138708112351669 -0.2130589342628487 -0.002400438875328745 -0.05226810391892554 0.1105632017547912 -0.06225605725944236 -0.0567530259007642 0.04880106651493858 0.02504646851181333 0.02685661371855631 -0.04406198073113563 -0.00963845357617452 -0.02273167177146457 -0.0434499826249798 0.02678474398021481 
-0.02476071864778568 0.05312867352710127 0.04959300130283312 -0.04436992363362092 -0.1018878292728613 -0.006600636948957389 -0.02619488073752075 0.1039457871516286 -0.04348173832527789 -0.05567358605649862 -0.06517290651044295 -0.0121340348601909 -0.02301452105268066 -0.01255772863405795 -0.05921598691177322 0.01574478098041105 
-0.01039546690180701 0.01969206975501197 -0.06336318248415251 -0.01642533551763795 -0.02165514102324516 0.0319893044197547 -0.01295592692487123 -0.06160473327489711 0.1260504548743383 -0.01732115723862189 0.002679647048889745 -0.00615901589306262 -0.005838951059172849 -0.02029286500963734 -0.01853146004804855 0.0259251548040459 
-0.008645808721104346 0.1054380257088609 0.01028310544373687 -0.06740917607472624 -0.03830564910230309 0.1430964076418782 0.01232606363643253 -0.04954853750630897 0.05156881252949391 -0.0182595596549251 0.09108823064589101 -0.005202458826159633 -0.002214395150990613 -0.01795991583674342 -0.0274153529147022 0.006969219578027794 
-0.01955010905688792 0.113814572288533 0.04362014220722865 -0.1528575524777523 -0.02960832613644172 0.1507060809896811 0.009069074550934617 -0.1175950809122835 0.06915013860881532 0.04554218396062138 0.002302847841697064 -0.002912844539307196 -0.01449615744652899 -0.03952812805145139 0.03420267947388343 0.05797712076893639 
-0.02389160647378958 0.1071219463709329 0.0700275913440828 -0.1076316438340695 0.07379561270766549 -0.2806713445259952 0.006249787679075457 0.002026924473191283 0.04772037617209571 0.04945335712322523 0.03091223431666185 -0.0353731586540423 0.002756125317375725 0.003890246039790889 0.02109650133411067 -0.04989522260631166 
0.02371295805300298 -0.04020501858113597 0.1909049927883221 -0.09097091882953921 0.03913640415927686 -0.0990944966981375 0.03653126891279516 0.05745862624377472 -0.2808745204157663 -0.002058387505909799 0.03906366220354835 -0.0280598697098658 0.04371607888040227 -0.01511620063594348 0.001610298946906932 -0.1390394408537665 
-0.003535321069988887 0.01388810809941344 -0.04257471475590259 -0.01678146158874457 0.02446144725359153 0.09328699010219971 0.007077228834172537 0.002985132517964279 -0.04010763088138804 0.04515842793210698 0.0385155172063769 0.08075436890871739 0.04100338859462842 -0.01298311196181524 -0.01000041992455343 -0.06145650189109851 
-0.01089297129257689 0.07973350850137596 -0.03100907074959892 0.0389471390752544 -0.09336408336732055 -0.1168156617644157 -0.02055318387468712 -0.03166500344321076 -0.1013820046609214 -0.009195967870538974 0.01798852084279248 -0.0121007052369415 0.05403541556049579 -0.01539740066359984 -0.007191645679834011 0.01001381959873514 
-0.01690370942172157 -0.02384731164769369 -0.09441562322890872 0.05190185295859425 -0.08186268455165231 0.0007711589748883208 -0.03657734069246685 -0.04676107400976499 -0.1321709385871712 -0.009448699724960838 0.01443727929699004 -0.03184836374777793 0.03255077501316184 -0.01391285788058678 -0.04716185067219459 -0.004780102650490747 
-0.01435442499577308 0.05001541414708597 -0.1448417273743251 0.02865949129127025 -0.03463628314618592 0.1228867986916989 -0.01249015073288855 -0.1166892541159142 -0.1783349922526141 -0.03182712951858802 0.002864833741930798 -0.02185586692878167 0.005756483697035901 -0.01351499035295905 -0.01831605527029858 -0.04448310025689022 
-0.008873773402835463 -0.01062072575678566 -0.02238966799710306 -0.05603978313531689 -0.03482028785775011 0.2022904448048973 0.003903563148139066 -0.1352761979259981 -0.03403037015968648 -0.03590067154661505 -0.004082830154799251 -0.02802473226273599 -0.01003960571301225 -0.01059454128114366 0.006620385893473869 0.01420536545244517 
-0.006691930660990048 0.1434113857912425 0.0128083795167658 -0.02091602681325642 -0.03502793839443712 -0.06423730019498618 -0.01593154066513321 0.003727780405527729 -0.008099338953151892 0.003376832027166929 -0.02002826048996151 -0.0149638759229516 -0.009019845069608009 -0.01032286084184209 0.005244713352131885 0.0423456267524084 
-0.002907467899686344 0.1000336071673887 0.09272681170217731 -0.03536573861683225 0.02750211976442979 -0.1521120883171741 -0.02293065727624938 -0.05625658511265531 0.0568039367071622 0.06360107377984589 -0.04245600663643147 0.03167799533726559 0.001310647633671624 -0.003828831394875604 0.008819383229821197 0.08162093677390241 
0.007797658873170593 -0.1469174713967039 -0.1830407838163589 0.0160407958505995 -0.08453272271119135 -0.3519365041685288 0.02295589548777023 -0.03909173283369918 -0.0230467237804424 -0.05458776739983391 0.07178983356279262 -0.04491220225466405 0.01786478052302183 -0.005382033725284835 -0.00923234827241811 -0.07875866593306732 
0.01032392198969309 -0.1118420821535771 0.09415385518814373 -0.01322642213200109 -0.08158022473223721 0.1242476588433808 0.00811080437546385 0.004081695530852241 0.02297222044364931 -0.03239250286550943 0.00877510257362136 -0.05146845631212135 -0.02486410570458084 -0.03101466818134819 0.01326811339917376 -0.06104474154561197 
-0.01690717477799369 -0.03297444262758576 -0.0222302446154272 0.115853311988263 -0.09102084861172718 0.03598042787355194 -0.03138234378016524 0.1727046651055544 -0.05401972561725033 -9.595599007881528e-05 0.001710694940108989 0.06605456216448254 -0.006112685826479986 -0.01253579241632235 0.007002798017076643 -0.02715836536609563 
-0.002653301387062909 -0.074377572641135 -0.03530555001151466 0.02402921291702836 -0.08593209472318059 -0.01834512907954558 -0.03999318559561101 0.03592533784319577 -0.1285215509399078 -0.0793842832016895 -0.06202469949211376 -0.00318390080184697 0.02922707521988844 -0.02992377701832867 0.01655754802174709 0.07894014241472867 
-0.01575144857785977 -0.08941064470056249 0.05589358378550998 0.001083078412310969 0.002975949402674666 -0.08350425232353134 -0.04917723475795636 0.05517780242563283 -0.09825701889755904 -0.03666788656765484 -0.03612429180011747 -0.0421178826495642 0.02948750740984222 -0.0189509951607364 -0.06202983786605158 0.001903756898234716 
-0.007676671444481214 0.0146159481181048 -0.009490099046076306 -0.006390955794073431 -0.03035113784358318 -0.03766341381388291 -0.01621360665725328 -0.1649032324797129 0.03090463951880165 -0.04460188793245896 -0.008678681724380266 -0.02633807763885499 0.02797712669697023 -0.0173193925696154 -0.00088395285918255 -0.04551693512068525 
-0.02268048109635758 0.04965319020830144 0.0546626459420225 -0.007627472504490434 0.03174919698376783 -0.00133390222954003 0.0007617045173524213 -0.1470707858279828 0.03888531017458659 -0.06083309522429974 -0.02132636002037927 -0.02959197113249617 0.004755085765378188 -0.01385081046902953 0.01192305993820181 0.0003238547784541816 
-0.009293594755286941 0.298951076727291 -0.01190183608048475 0.01690589269229571 0.04333769586734577 -0.3258437685722265 -0.004922160317358554 -0.04092218261184483 0.1197614204877408 0.005830108400103566 -0.04205860807757521 -0.004412953016808371 0.02383424116419549 -0.02528001598297471 0.01496829260205514 -0.0030688324590782 
-0.004384111236050382 0.1250667041142746 -0.07526964004592528 -0.02337685935798037 -0.02608220186232805 0.02115467075358799 0.008975167083190905 -0.1421158279139495 -0.01544686562099596 0.04079146322076175 -0.01230604818934289 0.07208783423422925 0.01955140950214439 -0.02406927691915881 0.01610974062934406 -0.02883854835866861 
0.01352077585436907 0.00590691332718433 -0.1649004544518513 0.01917751343731117 0.01592404338728197 0.1967075261464017 -0.006770200526358199 -0.0349432952727026 -0.1281954726299915 0.01192027910771838 -0.02331767025365495 -0.0385296958522181 0.01618521383662856 -0.007327030868393954 0.06388428881607437 -0.04762317312046632 
-0.01310410433143727 -0.08930241713663033 0.009474790401790218 0.008102640088887652 -0.08173670186984998 -0.217694108069652 0.03756671711035201 -0.004059991281930938 0.07928761141048395 -0.04682931663624207 0.01650501363001525 -0.02885061816731255 0.00888542232865897 0.01123466822473784 0.04480288180949639 -0.1061374375768536 
0.004729151143906707 -0.06703082703248854 0.27636787899614 -0.04305003624341799 0.09001711460576886 -0.1282012372332233 0.03138647513339687 0.04633609010260259 0.0335477380718945 0.02852292167346689 0.04880529338655842 0.07846595797029245 -0.006409514917339373 -0.03400105294827988 0.05305855533454036 -0.07466628965835725 
-0.03889262534689406 0.1230141662215579 0.07379004009139326 -0.01718981462602979 -0.04464179918054619 -0.1350554566249055 -0.01379962172770341 0.0375809917930443 0.1964442420417143 0.005445192766190461 -0.01213118782501043 0.02224646110900996 -0.003399241201239845 -0.03569831976755233 0.02027111732503183 0.02259163616762252 
-0.03642984773915634 -0.02354610678181532 -0.2180857445226425 0.009431596571195617 -0.06144136836516998 -0.181635448240094 -0.06321081286417797 -0.00569971569481626 0.02600572750377326 -0.01209296176687959 0.03523191185257454 -0.005011044170108759 -0.008123208032370949 -0.02054335083613735 -0.03092933725439813 -0.0229318068134684 
-0.01513856952372851 -0.07472256090499077 -0.01986473808599801 0.006872651337554766 -0.05342200918086524 -0.2153152752492974 -0.02774818040895944 0.03263355565367753 -0.0004477477468389048 -0.04893808507424534 -0.04293316271220239 -0.01669356886778494 -0.007887938252873065 -0.0115875763689952 -0.01506994517570352 -0.04137613442461684 
-0.02191764648765088 0.03889839223938704 -0.1610759095016182 -0.005740562511205042 0.01547571132027246 -0.01653704198257249 -0.002303684891181715 -0.06132218184724606 -0.0005683670228640862 -0.01249905896837317 0.002601713675981106 -0.01659710285870621 -0.01413313445964775 -0.01400088983425913 0.002639979909806889 0.008187090495233654 
-0.02071650007874251 0.2397586072761802 -0.1106743194496999 -0.07006088702696656 0.005389660031921731 0.03432113844786299 -0.01237946042980576 -0.06215280425792234 0.06209801570619261 -0.009029832393823087 0.03361396056113235 -0.01778651976666346 -0.01680138107853032 -0.01566618933279426 -0.003858178513166661 0.03114806653073926 
-0.01265824369073202 0.1279227086128522 0.1355387296507682 -0.04588780206231539 0.0145118295605275 0.1858279561924058 -0.007143826045066552 -0.1270252094020768 -0.03725227534621113 0.08248770040115967 -0.005921124129594528 0.02709171001500462 -0.01936988670896927 -0.01537077051521196 0.0343882512351804 0.04871134932561715 
-0.01124311063545548 -0.06468420838085394 -0.0673518885729865 0.008124740986031748 -0.02059125614739635 0.02290714865106766 0.02008515239231851 -0.119161521874178 -0.1482701212211527 0.01629842219924363 0.06076813352851781 -0.06080729998897851 0.003525697597959713 0.02976694165097447 0.03827142381947473 -0.05644711151276125 
-0.01104959585942106 0.02609423139901872 -0.1378527761587884 -0.03408194316308486 -0.1501941252981203 -0.1609230153735952 0.01350616989409727 -0.1259983992143232 0.03738662585325797 -0.05917118316234405 0.110792588196137 -0.03720772902082223 0.02941154692195444 -0.0006808142716661235 0.00814821173406868 -0.03411316359027064 
-0.01767331645846637 -0.07836174550265122 0.169242952111327 -0.1321214694354109 -0.03492964237863384 0.006487927813877732 -0.02663375087810447 0.1900911491471432 0.1404575408471039 0.0004339623975910904 0.05015360577318256 0.0486005216536048 -0.04015081411400706 -0.01014769124234019 0.03983961621803256 -0.07425193809773638 
-0.05472915232602886 0.1877991969660955 -0.0316022766970266 -0.04401907957347439 -0.04446441418091535 -0.2762446970598418 -0.05194241136951619 0.1965343234170437 0.1641688172273754 -0.13045340019599 -0.05848314947505462 0.02094728281899302 -0.02269746935772426 -0.05446479054389441 0.06172624371993447 0.018446646945915 
-0.04936930714815251 -0.1648084491361907 -0.1929119475656043 -0.04416890628195203 -0.03468689679298333 -0.2917997616745391 -0.07254350214108275 0.1729243534171213 0.1463890911254843 -0.1832578152417562 0.04037980759595063 -0.02986732593255563 0.001959854600520059 -0.04136656382313857 -0.02157934179762078 0.03407082807979672 
-0.0184593844061729 -0.2132976770567717 0.1053514075970477 -0.04765751176537793 -0.03860895072982896 -0.3525572989055853 -0.03258912113893363 0.08053821916369545 0.002976823569144342 -0.09754861451584865 -0.0009255009000300653 -0.03079727748144679 0.01709400679284966 -0.01778421359080654 0.02928190947930231 0.01505078486398678 
-0.03204261001653951 -0.0862102560197595 -0.126493913625039 -0.02617466616978836 0.03546939551008886 -0.04282102168534727 0.000287158307110395 0.03038393088508086 0.01703453595723863 -0.03718726684511012 0.01580876871181365 0.009447810929011993 -0.003132635883632755 -0.008022850816973853 0.01618931114226313 0.03595717187567439 
-0.02784362546624656 0.07736830274129114 -0.07270146362419627 -0.03578693800244465 0.05501870036783259 0.02695722561613118 0.01664203049911689 -0.0679181490708959 0.1329165903078954 0.03952724507583927 0.01385988901429591 0.001192306993735229 -0.005057944667962768 -0.009820002004793811 0.05706881009803097 -0.01839932217690092 
0.02311651139109245 -0.1094982176708297 -0.122137556891646 -0.05123615537871757 0.04360408965198902 0.08144024618901749 0.02487763380342398 -0.1209472817643597 0.04110162132651603 0.001439373579730526 0.05378459153931376 0.04912494761151331 -0.03436328049607213 0.007795883051794598 0.05458330467944704 -0.04075519453344559 
0.01881592523828651 0.01039732698227393 0.05370921053870558 -0.02506493174907986 -0.02172231880735698 0.2792946585257168 0.03228164990979029 0.04823529522224018 -0.1939677063677386 -0.01616234835053089 0.02803296435145082 -0.03700984011023779 0.02004579115133695 -0.001019017687488939 -0.05246991890004033 -0.04089537701964818 
-0.008683175860940051 0.07609138090801901 0.23384104799811 -0.01829262343672388 0.09175613225703656 0.1390389310679439 0.004713823860139484 0.003906255583489725 -0.02503243205796148 0.02104666318229724 0.1000528746799082 -0.03856497525638507 -0.01078563050345733 0.02038432466531665 0.01941556760958951 -0.01530094781307012 
-0.0235434587412532 -0.05250036780215686 0.1212630042478891 0.02840898984651319 -0.02258553420596999 -0.08326381823891996 -0.03439220313724468 -0.08964848053972344 0.167389400229245 0.001499608010900527 0.05586875129338647 0.01988959289739852 -0.007630529027933838 -0.01334412937483478 0.02700011626820909 0.0110455536974093 
-0.008636084031212951 -0.02443442021520905 -0.03180497439325278 0.04884154656238737 -0.03716517126815903 -0.06082468685918171 -0.03126844297960336 -0.07289202650735838 -0.0351885218422201 -0.0724624074004423 -0.04479100764484278 -0.01357166245899048 0.006962091344203494 -0.02233682032178642 0.001103331260014537 0.06731646726801528 
-0.01205298844355899 -0.1549787627338264 -0.04589625575990385 0.009252440313174013 0.02187474507324589 -0.2462394065528754 -0.0418941881391573 -0.06031812185784678 -0.1583762410939968 -0.04810903047356154 -0.0888160110285536 -0.03836310596024387 0.02353733878225902 -0.01932824452079318 -0.04633738859704116 0.05938693888994093 
-0.0005779528223791719 -0.0775340538878979 -0.02791172265461548 -0.01047509979216708 -0.05874351405937497 -0.2088159308244668 -0.008439165234389062 -0.02439479664066232 -0.1015815084202537 -0.04719708077571243 -0.09072598789147385 -0.0190831951157531 0.01979893547398733 -0.006965658034000176 -0.002832755245926101 0.05380039013077825 
-0.01474440697653091 -0.01751963662226538 -0.03364939933097713 0.02908577625926295 0.002898717782670777 -0.1823698509375875 0.008933677147982584 -0.04450500840585728 -0.04708912971402562 -0.01237385694748006 -0.02336852071172653 0.001948752107735795 0.006059620564018131 -0.003979832037917339 0.01065393794989916 -0.009730992667471664 
-0.001471411797172024 0.1271463732760439 0.0356469002794851 -0.04073911222003866 -0.007613382919727112 -0.005818903431395766 0.005611557847447526 -0.02460051793210987 0.00374499496872139 0.03497276492739406 -0.02120767078091017 0.03137860918079094 0.02979464202646954 -0.007474101105193915 0.03039625128488122 -0.009246420848055395 
-0.009052554374760918 0.2799575910652431 -0.0311900609905493 -0.1201085635756956 -0.0645704807935653 0.02005624934768481 0.009937187218824806 -0.1042042588813416 -0.02314119329958251 0.1189886534101347 -0.05546655094745494 0.08058762259220531 -0.00626929554731789 -0.01893941857180291 -0.01658413197624908 -0.05010597754118099 
-0.004797356460572166 -0.1121033584343207 0.06792604313700853 -0.01446111205280928 0.01744218548999906 0.02338134697995697 0.007745904232657137 0.0083345456911931 -0.038225899872297 0.000123897449180213 0.01936187692144456 -0.04324031647931493 -0.01769030587348384 -0.02526843808988814 -0.04021004903888842 -0.04044508585478845 
-0.006425980349495497 0.04671148960256274 -0.0737969322886253 0.03318956500623584 0.05095972851910953 -0.132808975521767 0.01013795372824761 0.06252324153741597 -0.1724075991364298 -0.0443158559198758 0.128528790274119 -0.02169316189892347 0.009541925119006081 -0.01216993428489723 0.03322795916577749 0.02937711366197545 
-0.01990665051973032 -0.1190534442728113 0.07644791101789662 0.05088683271646606 0.02330652795231207 0.1612004187761672 -0.0511427420758606 -0.07483151854009884 0.05029984666844865 0.02375509806140885 0.06344969676900852 0.005826072504097218 -0.005566644572112546 -0.0210185435157961 0.02915310996452542 0.04267432538059794 
-0.02735350249063491 0.1085363710891477 -0.2473575777827906 0.01300778298594229 -0.07690858677886904 0.1663907230878135 -0.03393348494123715 -0.0870693568935368 -0.0289866183110248 -0.06960082882318723 -0.05576295714586384 -0.01101629154407562 -0.005064744791510411 -0.01693045747193684 -0.007245830728878136 0.04532544911695838 
-0.02667018359274435 -0.08219413708783836 -0.2078513357522565 -0.04298385475430221 -0.04699270781057924 0.0002584921358045885 -0.05199095558647405 -0.03551275839669715 0.005383154742868387 -0.07384254648004257 -0.06359026370892398 -0.03679398592605543 0.01799488602367401 -0.01210321153672774 -0.03712386320882922 0.0518776813358234 
-0.006806216399108666 -0.09620317378414277 -0.09014811344097434 -0.03197791370346849 -0.09546347061797408 -0.2480812415634883 -0.01581834694177597 -0.01890407319211164 0.03164765125415688 -0.02097402189716758 -0.1395926744814811 -0.0159492621017034 0.01139783887015961 -0.004701117462097892 -0.01077879837598831 0.06385341995474686 
-0.01083178911211333 -0.01349786487699695 0.1350833907899635 0.04927779062875517 -0.04570742569247768 -0.2697327680383705 0.004103636115426717 -0.03756729902072964 0.03342100865938961 0.07650611157823303 -0.008852067477157 0.03068207685042488 0.01069108570067657 0.001325675878835088 0.03920000143794427 -0.06020017307749139 
0.009452194684482053 0.06636499059804106 0.2297656054785381 -0.03661924085270314 -0.02825943856145535 0.08349082202793552 0.03145767679735419 0.00364303313490387 -0.03249224132540859 0.07126205097636353 -0.01142631940789884 0.03364077150854655 0.01931667980888296 -0.01055040723201657 0.04456059746922767 -0.1225498206932902 
-0.01989517533674105 0.1209308207635421 -0.005044796579223282 -0.08946266616744945 -0.06650201081330485 -0.04775039648796394 0.009751244337088148 -0.1954376034422556 -0.07944691885645226 0.02699333866675035 -0.04788793514514967 0.001125766839087486 -0.006925579370656395 -0.01322218729172513 -0.01513880060347215 -0.1194708939493381 
-0.004970087011890817 0.1624779133843547 0.03351465843437371 0.03531698654518616 0.02414803952126821 -0.195246004687494 0.04793382025201844 0.01610583236925037 -0.1761302692839174 -0.01977135011018874 0.1138092429729493 -0.05538059445745566 -0.01423072706762284 0.01719252701336275 -0.01013088927958146 -0.07475653698935701 
-0.002261749619358652 -0.03341089006096842 0.2934811473544613 -0.03852628399975475 -0.1587584162431632 -0.421320110032895 -0.02494256616599153 -0.1289474695459621 0.1163628783435075 0.0387893539738712 0.1154676370662017 -0.03692492528731996 -0.01287462097339041 0.004132851897432995 0.01162870955611918 -0.05105087229755177 
-0.03972372166526309 0.2109981005582729 0.03660596607754483 -0.1117942583229401 -0.06918105742502265 -0.1501751746387893 -0.02607734019163459 0.08907108143579334 0.3001177573252015 0.04714603200201077 0.03585042221469733 0.02660380712835392 -0.03143297154927217 -0.03821889696801418 0.05202793018078086 -0.05135680804707202 
-0.04548307209106903 0.05653403025052706 -0.107657121092008 -0.04839996095655004 -0.03737235871595482 -0.03558015751351663 -0.03233313570245267 0.02931612588052185 0.04062843199183085 -0.1232196782879825 -0.0343290102551301 0.009478809243977595 -0.01666514109013085 -0.03965765195027667 0.03874151431143585 0.02065910227354884 
-0.03662455959209965 -0.2687062124872706 -0.1108313531821683 -0.08082404181130202 0.02487565935697423 0.02045085971226797 -0.0491152486386269 -0.01488184138431794 -0.007479802320596388 -0.1144969225624181 -0.02613359582029614 -0.03826192333654597 0.008380906768104752 -0.03190808993085332 0.03315130492366335 0.01902742791465741 
-0.009845977131982219 -0.2473382820164592 -0.03865563845322283 -0.0178242094027427 -0.06313347707260754 0.06367049187150924 -0.01948997472007898 -0.03841186947297456 0.006258015330089265 -0.09638169308822231 -0.05838354578061037 -0.0217289646774249 0.01642292858535681 -0.003812474046377299 0.04645893562048413 0.06713348482776654 
-0.02208154156560451 -0.2275075955154686 -0.165129315540543 0.01183285303262583 -0.01992580930771614 0.09122610513199629 0.005080898795121334 -0.06126529723944686 0.03840225007174615 -0.01135649699380238 -0.004537294210933377 0.05357866842365934 0.0001931946028952887 0.001769832801233038 0.01558863271003329 0.04098331185851565 
-0.01760968050972062 -0.1719798369792232 -0.188996946606147 -0.007664985818077524 -0.009300043170936688 0.3591157590651362 0.03192950137105095 -0.01882332265519109 -0.04965674343191878 0.1003761306152599 0.01003384602050455 0.06042124646926104 0.01992345804461094 0.006682344445147712 0.04877549800429082 -0.0238221743188522 
0.01437750177656033 -0.02615900452670557 -0.3823250103103867 -0.04160557238717647 0.02343711646989169 0.1577793216076923 0.01322755712895177 -0.1829094703279204 0.0177778642604203 0.06522878848281347 -0.09432542104737317 0.02756776397823064 -0.03721320251506689 -0.02303382859527075 -0.01048555912175391 -0.08211711571810279 
-0.01563397015717237 0.03734293953865128 -0.006349762628876454 0.02956846418816138 -0.03874179423013096 -0.2772254684760305 0.03259075301603759 0.07739398674798967 -0.09893425246588246 -0.05352432874538867 0.04417101025244968 -0.05688117420819125 -0.01406882119600793 -0.01118588717154724 0.001466424288157627 -0.08346563998895468 
-0.02779418755786634 0.0471168148511141 -0.05503618988103143 -0.01045288843357802 -0.05178377077259893 0.10174768220056 0.0264804417006734 -0.08689228099943731 0.06940491736554373 -0.01413509193310939 0.09639537866742416 0.02393504229511264 -0.04365813411467453 0.01706422028903849 0.03877464910309547 -0.04836471095010209 
-0.0327873261198319 -0.002317497646380156 0.03244000611888301 -0.006943271570180644 0.01188203788570431 0.5992699197619852 -0.03314139593011468 -0.006185671045268855 0.0434486414634581 0.07427150113715486 0.04070161867090186 0.02706672904553857 -0.0221836584016662 -0.02308866254462083 0.05016722771241182 -0.06513346764450477 
-0.04564693612536862 -0.064729799385969 -0.2617984487646925 -0.009843035978349806 -0.05914166776349017 0.2070545278138324 -0.03571515048834224 0.01058681087602245 -0.08872341608346154 -0.05510846644223774 -0.04314534040785677 -0.002007948014353573 -0.02444794522547503 -0.02162785672052227 0.03295181104164051 -0.01130290160658666 
-0.04120991622814676 -0.3559783949519967 -0.155841933870917 -0.07812474653044668 -0.02151257891362206 0.3178397813824254 -0.05185662333131685 -0.1585637923130979 0.03561995616155013 -0.09698788043641428 -0.03656811687329199 -0.02325132457587026 -0.002899481560624609 -0.02666486101626795 0.04648045893016075 -0.03080293535590378 
-0.01422226691367935 -0.2447130338129431 -0.07287802680915759 -0.02277738548705304 -0.08430179857763505 0.1355673114612418 -0.02558557541936669 -0.1363232464349467 0.007913623210585467 -0.0395803583877529 -0.1291379045321957 0.007909289190563057 -0.001527707918574919 -0.01876794644402718 0.05976001009227924 0.01671778972688507 
-0.03172952703324609 -0.2155844891460449 -0.1300759735649585 0.1507440834292884 -0.05965300591582304 0.1192264114816285 -0.001942308840282888 -0.09334575694148507 -0.07799433976357868 0.004673602571485047 -0.04150614450990027 0.08489693058897721 -0.03181471950126834 0.0054276683594919 0.01360691886094828 -0.001887298767997716 
0.003214524511223127 -0.2509368568922069 -0.1274388370484842 0.02675561092395439 0.03753176067815781 0.3509967304729001 -0.00390143097007991 0.2372992930242008 -0.2547605513388978 0.04558570518422678 -0.07946467796709625 0.05440013116155908 -0.008269127551355386 0.01910310566189186 0.0295967019440252 -0.04291254110989887 
0.007101489000092919 0.1981635192086987 0.04400052489735318 -0.06006583424864408 -0.002155473887051805 -0.01996227857550381 -0.01826932487908532 -0.01161395285489119 -0.1068256113303495 0.02493119186583572 0.02352545446695766 -0.02708468033580865 -0.04260991213900871 0.01106836586680687 -0.0112090601146453 -0.1136714981852899 
-0.01627075480860308 -0.103361267829976 -0.007739575732372556 -0.05904167378956972 -0.02815234924086013 0.05390326001091249 0.00754491352382611 -0.06319990523805546 -0.0442600688689937 0.004863260012138285 0.06353546212936691 0.001536591493147896 -0.004910830304184799 0.007851384051720419 -0.009417716671364186 0.04325531960052308 
-0.01310640611922725 -0.05250363910468055 -0.002181910707900349 -0.0197292357506842 -0.01927799248802072 -0.1709136884495743 -0.007207988187421088 0.01756175628665697 -0.1137657715335273 0.01510176670037698 0.1088796966909222 0.01933719464439957 0.004050101528584883 -0.008445271692649296 -0.007483358415472112 0.08783940769798834 
-0.01135842909526399 0.01791606171132648 -0.01814734307252854 0.008083125715406574 0.01064437846382861 -0.01179704796352448 -0.04800085330872708 -0.02362937409027035 -0.07322534233874689 -0.001119024420026349 0.05331564243911015 0.006193953309550436 -0.0007445904915220078 -0.008538312262354845 -0.02213235460665232 0.1051491317214963 
-0.01004115795542429 0.1520906662365869 -0.2118866295331249 -0.00975519077146891 -0.0782012923373161 -0.05884146883928559 -0.0336663120464881 -0.02374247915098655 -0.05115467376098216 -0.04606598687620082 -0.01952168239481014 0.001576742482898942 0.003974971341760559 -0.01283785120676171 -0.0422007795177356 0.04491105358214929 
-0.004113304643362174 0.04934463926700574 -0.2576515826178458 -0.02532139916994727 -0.04427463538341923 -0.1856379966625224 -0.05005312268275066 1.39857251194916e-06 0.04542931950970673 -0.0649459145543784 -0.08340149404622119 -0.03065022064869992 0.02542800780128176 -0.01630394706762843 -0.05880302089267058 0.04940142101359845 
-0.01372855758198108 0.0980544110499952 -0.1633471346629495 -0.07151476439269687 -0.06551380745907222 -0.1105137733449182 -0.0141032906538198 -0.005099938959334777 0.05905324645556907 -0.00993658286865874 -0.09949874285551434 -0.0226877196653135 0.0007193900634547185 -0.005287623547686218 -0.03769702042995618 0.0544045646623695 
-0.008819996935686573 0.1045509648387455 0.1443634973654484 0.03776895507322155 -0.02258802262948012 0.007492857897104791 -0.01751426193035285 -0.03572524648775225 -0.01155088079063867 0.02932623951684833 -0.03038281056708143 -0.005971487050126313 0.01988225202467915 -0.01397948343029497 0.01858114674934583 -0.02246344021147748 
-0.001353198776063836 0.06318036779612168 0.2094470630992203 0.04013053892576282 0.08913483811364023 -0.00933520390032167 0.02290215757323302 0.08713352067998827 -0.09348533039365234 0.08478142845874673 -0.05014240354737948 -0.01173561752194254 0.0196295749006851 -0.02108525729191977 0.02237521973529461 -0.1323416683270492 
0.003153218729628949 -0.05142459679365102 0.1299516163494158 -0.1110954352317439 -0.03932151010574042 0.008306975521489037 0.03135778492832011 -0.1901017381502842 -0.08758629839259728 0.02128114642508374 -0.07890029356481225 -0.005228379119267478 0.02587524307154188 -0.005263554218333047 -0.01804636758110913 -0.06785839535424364 
-0.003253676441044662 0.08489884376649699 0.01816429988622174 0.006034657326998242 -0.02830891118720773 0.03305201305088323 0.01669663155207823 -0.006407834693583375 -0.138568529157495 -0.004242075205290068 0.05634893972730889 0.050649903369585 0.004518032266149771 0.02436421161874339 0.009015201866031166 0.02592202047391552 
-0.009639372838312224 -0.0238059736091156 0.1551238557871431 -0.08921970185646719 0.003072908000116515 0.08547117133863139 -0.02989240239401665 -0.02620085977670525 -0.0664768426709593 0.01282491760099937 0.1488584035387523 0.009392759440992014 -0.01309378207441955 -0.005382923078674562 0.01807363741364772 0.001158294641583786 
-0.00279207997601121 0.1183884748513616 0.004857030042425047 0.01690266317047089 0.003459942391648855 -0.1762540381074006 -0.0384556441324139 -0.01646868805831117 -0.09935030195915281 -0.03716441447704534 0.09214457572381266 -0.007425882984625975 -0.004572631775819088 -0.006434666211578528 -0.01795780671535564 0.005464042869829057 
-0.007149109367975802 0.06162837557104121 0.0235726565906706 -0.02892568386668878 -0.1119664772513193 -0.1648021488541957 -0.03630632891259498 -0.02160745520858697 -0.07756127224656452 -0.0185597889941759 -0.08453841999358795 -0.007999660184307478 0.009703215379148703 -0.01311139858033935 -0.04404143515475575 0.02091621316826404 
0.008192869249541684 -0.05209468949524462 -0.04335275769762691 -0.02906560658796641 -0.05091016917675645 -0.02389375043497277 -0.05524922922330518 -0.06648632505799906 0.09153045038779095 -0.0130039820311758 -0.1063870958082597 -0.0336790138406218 0.007476330434232413 -0.01585594042620386 -0.06107784074676746 0.04878691539306559 
-0.0122611392730974 -0.04840029054777869 0.02504325212100655 -0.01860468251054807 -0.02751719595588565 -0.04549198641542918 -0.01064151429228251 -0.02196329554541461 -0.06279282020365944 -0.01695934338402987 -0.06568886344365026 -0.02637156640198235 -0.004258012103944474 0.002578062848059197 0.01624605881840808 -0.01908139469941736 
-0.01279229115242707 0.03923081702482877 0.02549892082119948 -0.03724696920396289 0.04364707242607509 -0.08849380511850422 -0.01265097760546922 -0.1009825199186642 0.06236602791114176 0.06302127929225379 -0.02039004225790039 0.006893012899674657 0.0121477093905705 -0.04295408889441459 0.04583331165071833 -0.016112031606385 
-0.0106937908284208 -0.3025483371796246 -0.1003930434483242 0.04586439235762117 0.1460866603472799 0.06287201471036241 0.03122430600240354 -0.03855569826267544 -0.2541759102381632 0.1182386434831765 -0.03880924930634076 -0.04259374360206831 -0.005480622204918152 -0.006701766540087038 0.04003454295923697 -0.0721615565432823 
-0.009786735259677774 -0.1155586712471559 -0.08200490034981128 -0.06061267101840303 -0.02957531975793435 0.02503931503100363 0.03431560379968245 0.05595295233843326 0.02194407435253871 -0.01925912863784744 -0.05114760408074706 0.008202782533154597 -0.008797731005505982 -0.02255655300466795 0.01908337595999011 -0.02527353772106839 
0.007403086441218295 -0.1543286114881508 0.3634757877032035 -0.09746650758385399 -0.1138913058386383 0.2023376928227215 0.0581544573706808 -0.0696171223520466 -0.1191207385719101 0.05902555379520918 0.02226368964772712 0.02064485501365932 -0.03189099564458685 -0.007280458708849815 0.004550458194049795 -0.01328562769993501 
-0.009631714772188851 -0.1962887818359937 -0.0372655429936414 0.03588419606455145 -0.06311374415311276 0.1274616379573165 0.04289058769026325 -0.04695049996871693 -0.0969417233267771 -0.01794495334518717 0.06789699089227288 0.03266261957606676 -0.01916534989769745 0.002079013951516664 0.01667487777898419 0.01128696131081494 
-0.009580863921139533 -0.07745497836964908 0.0556255836389962 0.01407083381837301 0.05917851469228941 0.3078159390564337 -0.0386747949075212 -0.04180812410360335 -0.1621866054024581 0.004965800315435267 0.03355194600234684 0.0180782840245422 -0.02018022512056875 -0.009921629007203104 -0.01485584769798447 0.03561286622466659 
-0.03216430982781036 -0.03570344459910984 -0.1447230614974456 -0.001935939790085018 -0.04089161526000019 0.03494207480628041 -0.03559095468785311 0.004818869874228166 -0.1540026581451455 -0.0405532871762446 -0.02437150350251248 -0.008829990660111248 -0.009384371217903387 -0.01080087494972898 0.01071204607729498 0.03562623932897117 
-0.03026800558566898 -0.1292902619544987 -0.2958038034644662 -0.009226004887649365 -0.0306231331921462 -0.2060991210368285 -0.06284844059739039 -0.144745748941507 0.04747504125337106 -0.1254816019801556 -0.09812275222986676 -0.01951610191953174 -0.0005198107592214081 -0.02678178554995164 0.04709760416139273 -0.03481778432354302 
-0.02121793189848185 0.07917646814380765 -0.1120096577911465 -0.07341039636972702 -0.04244813850280489 -0.005923652074645409 -0.02969401907494552 -0.1240186779558465 -0.01871496701539235 -0.0473542495497606 -0.1025545801998705 0.01641564116592237 -0.01188550757337281 -0.01979976773563862 0.009149183778764983 -7.642452041849748e-05 
-0.02314337352377603 0.1705535941381065 -0.1830406306179771 0.06668773634432229 0.04208899225940049 0.420113676349706 -0.03785121195582439 -0.1103387046587674 -0.03683256315091926 -0.04754341756275703 -0.001573210625664959 0.0618342005623799 -0.04749786939208275 0.006745278426396228 0.02148874273656732 0.03315062509839375 
0.01853699523602102 -0.08600920477208847 -0.1136253790338698 -0.09297774363541375 -0.06152073010903104 0.2771650430356937 -0.02491784580843793 -0.1921807400509664 -0.07958948236409452 0.001393199130044886 -0.03430203236240647 -0.01461574040118245 -0.0006657242689448526 -0.01021458737897538 0.0004457801349143415 -0.04073260863751187 
0.009970690885480523 0.1751014628340505 -0.01406805085071299 -0.04400058352656263 -0.05151218451735777 -0.01971008780157435 -0.01349602358931332 0.002698767419489124 -0.04970080999377271 0.01852592932328678 -0.007148583906610335 -0.03136440393473819 0.003512461103103424 0.01417280926817759 -0.006752427374363924 -0.06333194800187093 
-0.01959564604391573 0.1778024116756755 0.1595912835137512 -0.1623078464542801 0.01192897373263824 0.1453853089589305 0.07847253060495138 0.04833593347869911 0.1176044347493001 0.05341469395850598 0.004130189511969173 0.05638294197198378 -0.03519541264541251 0.02737022579273243 0.0295087562385454 0.003712234539009525 
-0.008778677948876512 -0.1378148924709632 0.2889388487617551 -0.04281907887291616 0.02775747094846059 0.1880639081052143 0.03715408120447782 -0.0851557026047383 -0.1875888048739638 -0.01632740595992051 0.186196124416424 0.01123943794961682 -0.04040198212091473 -0.002983576056463456 0.05956455102521208 -0.05983868037936053 
-0.005871461185862964 0.05338752416149017 0.07140749698207495 0.01619296761138322 0.009430358710635229 0.02169758412052729 -0.01465009828822946 -0.01144981063073515 -0.179256032770307 -0.02088707822383369 0.1146131876692735 0.004160513887843144 -0.02440698228003655 -0.01316751703936646 0.01308047406174468 -0.03814690391464848 
-0.03069184912565977 0.03530844148452248 -0.02011380403866913 -0.03690455922669705 -0.05004975277898648 -0.1021620314605129 -0.01275928907437013 0.0110429295550357 0.03033162061641338 -0.01810593135266261 -0.06998083374222008 0.002966603061968302 -0.008208995248052728 -0.01238309046126072 0.004403441176959124 -0.03005093090231255 
-0.02119172545750516 -0.02919025661194017 -0.1583690811891214 0.05711983916535587 -0.003420380473713015 -0.07833716218583668 -0.05756954099756051 -0.04329930637343779 0.013540716752491 -0.01837468778135938 -0.09915229134315838 0.0002780917735270666 -0.02822961144123053 -0.01812303720108479 -0.0213991816131253 0.009719797775544105 
0.004178243774265395 0.1009452756554248 -0.1398517908808868 0.02013000954172546 0.004212238385179604 -0.0267934168161987 -0.02228828994767587 -0.00539782123043332 -0.08282932205947113 -0.03699404538400277 -0.06216834330179939 0.03573385314320825 -0.00588670037503818 -0.01165162162475751 0.008162400025904131 -0.001936220820354872 
0.002125093556644049 -0.02131808017975607 -0.09590553713652337 -0.05445034726917047 0.1929214078984399 -0.1920031987905389 -0.043198394532072 -0.04712306471685329 0.0175964706944271 0.05362620859090818 -0.005201765833054279 0.06464427072915221 -0.02545916083733945 -0.003156764959469911 0.03906283023988225 0.02017321364874504 
0.002624407893679658 -0.1783658930434392 0.03665044143809996 -0.1319636879435933 -0.05632281099713657 0.008518229107901284 -0.007709755215559506 -0.08876345076394275 -0.04689750887908535 -0.04056112959792222 0.03085005778287773 -0.03800617044376299 -0.02009734781989098 0.01009014653607149 0.0422317107481645 -0.03152177377220269 
4.009689044035977e-05 0.0349559490873313 -0.08897753643925042 0.03582978210099336 -0.106190841973768 -0.4258785749361768 0.009279846753486323 -0.07966379367445683 -0.2073580445044767 -0.08722928869781414 0.0827525837772848 -0.00985112122149031 -0.01850151520471765 0.007605033176561025 0.02619080200791165 -0.07405009779286867 
0.003747331728022476 -0.1317915652944268 0.2277156511208211 -0.1196341971879365 0.03808097025447456 -0.1473302028852486 -0.02283593377026455 -0.01932684274457759 -0.1852209963060339 -0.02503131210093572 -0.05368162470046798 0.03641714808693147 0.004227641212850924 -0.0221491916472428 -0.001637584275424638 0.03615506433385632 
0.001944996960500575 0.02167637163999843 0.04452898403283253 -0.02599274331403572 0.02296198685061442 -0.01644525258231902 -0.02627673000494825 -0.04897947148592788 -0.002064629894514055 0.02142911317423638 -0.0490087764727571 -0.007238562280886631 -0.004177806141972449 -0.01179582696883811 0.006840113442794001 -0.008633644252785842 
-0.002424537758039808 0.05271795055413928 -0.08952958291621266 -0.01186299919333271 0.01224461875217091 -0.0342629340095122 -0.02414302032667489 -0.0109551898127798 -0.1273466156772099 -0.02316530203216381 0.02254819850218884 -0.01889867820945739 0.006044902177978709 -0.007134555036555901 -0.007475574680874783 -0.02568462417645778 
-0.0192547206370519 0.008250623174565408 0.005881698117380851 0.03142438855347173 -0.0708379952343476 -0.2261394958508191 -0.02749335273315038 -0.07405389258805524 -0.001496751469940532 0.004274614816223194 -0.07819843256635547 -0.02277050002360545 0.005207048505872046 -0.00794580124014573 -0.05233513815082716 -0.02782084924037277 
0.00855757848274981 -0.1554188090499807 0.0008753707264838871 0.002918278137297076 -0.07300789431918275 -0.2403103168592286 -0.03545088276651881 -0.09634551218146409 -0.040529009104555 -0.02715865649081641 -0.07938739474812991 -0.03324138684927115 -0.00911536959785629 -0.01851113284030694 -0.09635343086135045 0.05049567471347067 
-0.0233609448624038 -0.01758432118880026 -0.07278391959056357 -0.04333239292845963 -0.02086236826464939 0.1698331941241029 0.01914233536762116 -0.004951135663352799 -0.1044534275884829 0.004161534285534048 -0.06719698299343904 -0.02833293698757662 0.02296820537603711 0.00159389652499567 -0.01291755892464535 0.03349537800546196 
-0.03343043549281864 -0.02305823847927859 0.1268717954186408 -0.1014314143409139 0.05633669335735204 -0.1787787370202691 0.01822537678904063 -0.1033753003626812 -0.09347247402729481 0.09433573238910618 -0.06417852835462705 0.02913009811746761 0.0133628273254221 -0.0291566937691788 -0.009396327459925061 -0.006184529592672848 
-0.009739791017317444 -0.1374589926272481 -0.1078382890154545 0.05150955776006168 0.05535184526032085 -0.1856999691769421 0.04521324884433341 -0.1001250267933596 -0.0565355723443969 0.01349410118585898 -0.004951571099534968 -0.02652392521446941 0.004813263544091608 0.007343224012416298 0.02584761588367557 -0.06880911718800517 
0.003950151384749108 -0.1729779343336268 0.1059937743899328 0.008155088776576842 0.05927898483794734 -0.07761458005105783 0.002558291092357357 0.1089244927721254 0.1197407992874835 -0.08918557291372628 -0.07513176817082487 0.002112350750836324 0.004711537476525566 -0.02098619177694312 0.01375217558854301 -0.02062462814071259 
0.02503129430731749 -0.07189458284853555 0.03663423493971292 -0.05890785922111751 0.029463552043279 -0.1581461273285309 -0.06740427796541937 -0.1491071391664063 0.05396084804222402 0.001141298387655769 -0.01473838146962378 0.02432781359171828 -0.01388126654243724 -0.02102720808336206 -0.01351320246157343 0.04611061469134201 
0.02167723239829509 -0.07889213586627733 0.1066642427561159 -0.06763047660691367 0.02929990119078678 0.05335837785339342 -0.02537747023284497 -0.1148839484850575 0.0494288001220339 0.05094069017300269 -0.1089452022837853 0.02452016749480336 0.01674995382066297 -0.004769765847178279 0.01667834012385927 -0.02231440601868331 
0.01243996681167455 -0.05280065596735197 0.01933708736891896 -0.08177316556598097 0.07731003795797801 0.08327648714038033 -0.04060740809385436 -0.03384184644730497 -0.09469542849251562 0.01585586648034337 -0.01283051893673991 -0.0144819326892168 0.003377492627306628 -0.009730673404631445 0.01351343120300871 0.01653090984187056 
0.02069456660366652 -0.03978438775455335 -0.008942930518706978 -0.07125356267179477 -0.05620472708473436 -0.3116400866759494 -0.01215899163470088 0.02949644830892813 -0.09581433672088821 -0.01207248965004382 -0.04609162370956113 -0.01334306932801014 -0.001742254952671579 -0.01653378005800389 -0.01329850980183937 0.01535852304634876 
0.03247144361932489 -0.1429791487699916 -0.1104390569247637 0.02669829553593549 -0.06237496431810999 0.03165020017862075 -0.01411701823266825 -0.0759642495018344 0.02588336407216494 -0.006233418147979872 -0.01444472826714669 -0.04019783396433475 -0.01602431480557499 -0.01669643604411313 -0.05181670380667661 0.05150788214363049 
-0.003540229125866805 0.07609356423906045 -0.06430623445002402 -0.005633681274360709 -0.1210680464614674 0.0745118161137336 0.01951898077919754 -0.08218384000971998 -0.04093816275751519 0.05408158971445712 -0.06600127803537914 -0.0295801915621839 0.02513279745662858 -0.001246958462530698 -0.03402374002085245 0.05848751415560539 
-0.03725906820815843 -0.1155886020552803 0.1900984200799524 -0.03813679783744932 -0.089744806994717 -0.1245907244687523 0.006505464139514219 -0.1552292064971164 0.06159742871137869 0.08474714047470007 0.05659155571303563 0.01417524655579558 0.03842170475731013 0.03146029431463164 -0.02270494904256522 -0.08090480197977798 
-0.02645133768675411 -0.05769760369868281 0.01682501111936396 0.007251489955258306 -0.03974423921675126 -0.05563392470064012 -0.002913144508090274 -0.05469236485772738 -0.04004728354062925 0.05160144081949213 -0.03262561040005885 -0.02349838377498673 0.003884555340477189 0.03831700364511982 -0.01131060203542481 -0.1177414823085692 
0.01331451377784211 0.05055107823496962 0.03058912403749934 0.03522518054005295 0.006371136569076463 0.02492488637614382 -0.03034454410167537 -0.1059513656900346 0.01147225573329092 -0.03031675148317998 -0.007986010405070947 -0.003950322594305493 0.01826408754903532 0.005702946461399897 0.004157365532508389 -0.05930631286721169 
-0.02547474093521732 0.1480575527333301 0.06539991719544584 -0.1630589147642393 -0.01053529822682079 -0.1981238581138071 0.03183182236728786 -0.1389583999063344 0.08787746384862492 0.02320613784170449 0.01279931356062897 0.01394783181154239 -0.01140323086238994 -0.01881596877974556 0.02741066930986505 0.04051972709486462 
-0.01511042474485257 -0.01059740527946955 0.07241016042345465 0.003337449651885169 0.01676971516129672 0.05309736164053776 0.02686000739238145 -0.07795284524836796 0.04097105019391643 0.01131823774826292 0.08358445815849461 -0.00702728618181172 -0.01891675079413005 -0.0006527588291207381 0.02990115575955714 -0.05810143908703189 
-0.01819883326050252 -0.01906286317698944 -0.05243161455143656 0.03738704936494359 -0.01574927361497236 0.04694994396562113 -0.001660569193544841 -0.03149603780660321 -0.03925126465327079 -0.002891729381400111 0.0525675056710045 -0.00978337288456033 -0.006032691474426764 -0.001835971943989957 0.02481667085702434 -0.08420798148335165 
-0.03782517958792877 -0.02454068942033129 -0.03097197226823859 -0.02675580857348637 -0.003363046603392195 -0.0954149281967781 -0.01152316494716039 -0.03059143131180417 0.1221859778040412 0.02192886532375833 -0.1299901538646451 -0.002294101067315443 -0.005846024593753555 -0.004397674016363099 -0.01613440484829338 -0.037410871200133 
-0.02137509018341651 -0.1730517746912577 -0.1575301160173249 0.08798616218782969 0.08439318842813495 -0.09047497755399773 -0.003256525920012678 -0.05971404015591959 -0.093478233864165 -0.002845774850434248 -0.1121422296642826 0.00146740213806953 -0.03178174145160155 0.001225679225884591 -0.08465852313867156 0.1057094921663571 
-0.01834149510887346 0.02085114109364557 -0.09999047247815231 0.02236652247783575 0.02956337114194456 -0.1250483650670906 0.02448870619797689 0.128167119744359 -0.04271934313088122 -0.04037875061665084 -0.114242791072955 0.02000227410576201 0.008056491218578604 -0.0138453597499681 -0.01631008135625307 0.02055517034772126 
-0.01456530995543774 -0.1328778259302049 -0.09411444608437949 -0.08169620329102732 0.105174578474144 -0.1134108046529048 -0.003026267502754712 -0.1306216868485312 -0.06293151835967029 0.001870307952889895 -0.01747636163487078 0.0646871768121221 0.01727851987550575 -0.01965699691767544 0.02160359737811559 -0.03498281107058659 
-0.0131838947954461 0.1479635503083382 -0.08783447188322886 -0.1618675901724473 -0.05016673633680363 0.03634708102278304 0.02037422943150908 0.01391136069635162 -0.05225105386414132 -0.08847642472366973 0.04009959186534234 -0.04242397289894009 -0.006885631718226729 0.01445119409560678 0.05445370366974016 -0.06531657340225615 
0.0002903252783149331 -0.1387398453436662 0.01285178716690062 -0.09617583709121885 -0.08613396080016153 -0.03099590209359147 0.009452823497218651 0.07907122072783514 0.01044595290254349 -0.1127609837365552 0.08578950912344245 -0.03560347446012001 0.002518207447881802 -0.01534729731006945 0.04830534921134232 -0.01620253073356053 
-0.01684045229342039 0.009980200595591323 0.06324424153030393 -0.1040607507934272 0.04113743111365036 -0.08426343813600509 -0.04303837446900956 -0.1059731913142729 0.04754310778096976 0.01877144495360971 -0.02481149619866582 -0.004647058313743734 -0.01290097491153798 -0.01154638172773041 0.01745153020618235 0.05384793026619167 
0.0139918250473027 -0.04712585532217442 -0.03038904024178717 -0.09193770058938977 -0.04974169293282599 0.1510552916302635 -0.01856133197217023 -0.1371025862292878 0.2179163202524136 0.005884671908373591 -0.007842943681405153 -0.0009307322227557621 0.007860325401987693 0.01296728999485361 0.02830836029118487 -0.02652214809088393 
0.002077978871758143 -0.08273527364277808 -0.09493200649293251 0.1001776450235702 0.01310896026121824 -0.1053524081879424 -0.0330476483901059 0.02162505848029 -0.1071026929342467 -0.02992375597712353 0.01520346227864463 -0.01156810294821039 -0.001888253231564777 0.00913878119121733 0.02319333165903337 -0.03901874147480229 
0.01103860070433397 0.07338213421614607 -0.03500123902611346 -0.04207751895408559 -0.01125491432428293 0.03986083185262852 -0.003659369164073777 -0.06412418460015466 -0.09939106160795116 -0.02013168798087657 -0.04469768698387098 -0.01338458626822678 -0.006317484879584646 -0.01032698360272269 0.003399425179217004 0.02447612508472993 
0.01656076858412074 -0.1554962519837312 -0.2069086597134653 -0.01118286982385174 0.04695911449499586 -0.01282650547600466 0.02936069697673437 -0.04926482910411754 -0.1662040478571828 -0.01291793764761861 0.04151648619797037 -0.01488567304690489 -0.05577075849334402 -0.008335486729602817 -0.04854781394132367 0.13219059156665 
-0.0003915994309599902 -0.07883225063837739 -0.07885604443836357 -0.1013192069944803 0.02732471094769248 -0.03856277806883854 0.06343579373749647 0.001029254628057491 -0.0328424051094122 -0.01830851769068391 -0.02658482337408331 0.01222055757608555 -0.002417227160922234 -0.01096219166519988 -0.02522799218617321 0.01798938419715517 
-0.001197783470297991 0.03449187750649588 -0.05840761048066707 -0.1336524620869737 -0.03838459184723898 0.003247008690773013 0.01593439246659321 -0.1474081802987063 0.04075566152847186 -0.05278833265659828 0.006919089420261009 0.05226755468087049 -0.03639169105470055 -0.01381110453704793 0.02848847111876672 -0.0973922056182368 
-0.03040449722125474 0.06273918551693716 0.05131529152671895 -0.0422781748541247 -0.009917085755118384 -0.07324261316225938 0.005020510730361709 -0.003363482731785685 -0.03514532476323188 -0.04640816849822963 0.04716697005022853 -0.02885207733477655 -0.013783964644243 0.003252615794098927 0.05474788963737168 -0.07491507215421166 
-0.004848421524770576 0.06455543473450165 0.1060236581681567 0.01774379368483016 -0.04678393216318741 0.2689108679341292 -0.03608884249980107 -0.01685583897577493 -0.1007818383139648 -0.02373927836405789 0.05797538838419739 -0.05968410091520707 -0.007920406402344702 0.01089978931152066 0.048198239719015 -0.01557414085216918 
-0.002365648409725029 -0.01919074959009473 -0.1195548250099708 -0.05348552053379575 -0.01008300264152228 -0.124455287804828 -0.0487402938464062 -0.1481781079339347 0.07826040764818563 -0.01616670194058592 -0.05407615847201776 0.007916844700563723 -0.01132546827701446 -0.003676635329142818 -0.00732516744681158 0.03552578112650555 
0.01171711370018089 -0.2407976413118605 0.09840060644797118 -0.05274033592143287 0.02836483749963253 -0.06466723427961436 -0.02187613742229623 -0.0417390969810042 -0.01934116382278922 0.04058441791158283 -0.05271414576270874 0.02231261012275007 0.01080721418763143 -0.00581394545508869 0.01467495651539727 -0.01719847973838116 
-0.008991530652688626 -0.1127545068497572 0.1610059771310822 0.001598482348868403 0.06406017807056638 -0.01915183627988057 -0.04160142357693784 -0.004685350283288718 -0.1216734800781175 0.0375274269788695 -0.07281857567222227 0.009043552173172979 0.005285158112118165 -0.0122303941479254 -0.00592969050022109 0.006839732701581267 
0.01024703393952214 -0.001567195847022881 0.07183436755139469 -0.01603732384833106 -0.05120303729164261 0.01574793087514489 0.0002276414898651818 0.1062994655514149 -0.1219977202706345 -0.007004948791604436 -0.1017248808540809 -0.01328812015408497 0.001118249283030256 -0.02470411975196702 -0.01128809156606983 0.04121069711140367 
0.004674292800493971 -0.1150887899733389 -0.1367219021366589 0.008747322696083729 -0.000427082414694551 -0.3281485797071016 0.01883741500037022 -0.1141337191822557 0.0784226515952668 -0.04657831699418166 -0.0809715985017307 -0.04278776274699254 0.004378127277777542 -0.0304863555165507 -0.03618948719382005 0.03923949383429229 
-0.04388303823874902 0.05243999009095826 0.1413416896651303 0.09950569305411473 -0.1185264624479472 -0.138023660872619 0.01382955234626561 -0.1315859346144498 0.2238863083950887 0.007474932687745088 -0.118336953908872 -0.008355964281199885 0.00744029686645922 -0.02558565810601238 -0.03560888407384917 0.009482196415019357 
-0.04758319545600974 -0.2288676211486598 -0.040742809639516 -0.02163382965859079 -0.08496108929707391 -0.4256343094281718 0.01293184859789832 -0.1242894640180587 0.05233791120728887 0.01627258263884632 0.01309680223863652 -0.002149156628002728 0.03061169342991001 0.01420255604944311 -0.02945440631025015 -0.06813985767372313 
-0.06064083632117252 -0.1530802996144525 0.07968797009837778 -0.08588424554375396 0.04761676596667425 -0.2150315004722049 -0.0001374817526458119 -0.06478742613772109 0.05599432768134688 -0.06086842726577447 -0.09920175801399518 -0.04865371797292552 -0.002673313009041108 0.04933845521736162 0.001361373553898893 -0.1034287708844733 
-0.01025101513478768 -0.1337897663054486 -0.06569979384553046 -0.01712530763958873 -0.0712028980977958 -0.02472360352941904 -0.0410303519641279 -0.1268867187740146 -0.03200574505423165 -0.01369668722224074 0.03290734816058303 -0.01999604523548252 -0.003071174111986914 -0.00635458632029011 -0.001944830124834817 -0.00961834195117159 
-0.0104923009871008 -0.005785296874880254 0.09213328927549184 -0.07904701951041924 0.002713497453798018 0.0322507732632044 -0.05450667139018654 -0.03656418298549757 -0.02452275848547294 0.004531824408488459 -0.03465126984818495 0.008319754421857922 -0.03358580033591751 0.005444349509507594 -0.01689512211305244 0.002498190056378433 
-0.006391685477201716 -0.137160207273277 0.1776082211655064 -0.07974386906243591 -0.0664668278782838 0.05891699231938156 -0.04015729012779472 -0.08219360446340777 0.005982354338106272 0.0864174647762706 -0.01326257996713055 0.01947030207706431 0.005145134958135077 -0.01023244611807203 -0.03079320823161099 -9.438635673018977e-05 
-0.03109317662216302 -0.07945279855231178 0.07469542531186403 -0.08646121002730532 -0.03855287174407569 -0.03035166642351039 -0.04480083137963471 -0.08992940138226278 -0.1300270499976756 0.09704878766965337 -0.06822587087315234 0.008456887237226715 0.0192206563406515 -0.002884722813776252 -0.01609481833090659 -0.02054762034935497 
0.02101184976696866 -0.02386493971832577 0.08806416944265086 -0.05308684038138017 -0.09973019137864846 -0.03406471663894569 0.01566196185115574 0.05457211658913509 -0.0979592053601311 0.08081247763075483 -0.04739865358711986 -0.04118173036682407 0.03742657147516833 -0.008142378380726727 -0.02411459458131334 -0.005562967640425725 
-0.002604808674435416 -0.1703734779147122 -0.1353679694897622 -0.07904045481734102 -0.002776002255640844 -0.1516018904989803 0.02573459822337279 0.01187108352651694 -0.1962993022214038 -0.07276313452355714 -0.01548626255050044 -0.07305091682707283 -0.0005540439325114275 -0.03624806835543294 -0.03496552245358529 0.005746734692156009 
-0.009479828565693455 0.07953863392519031 0.2033227024584801 -0.01106188769753955 -0.09757937465767276 -0.474603503532109 0.01190031938726853 -0.03862419425808168 0.06220902486885196 -0.0588537966444888 -0.06280175993536583 -0.02124931965584791 0.02836653281328907 -0.01255833971593885 -0.02117076031383083 0.008556885010880843 
-0.02624999088727073 -0.2376078629455447 -0.09811289615722146 0.05601685638395085 0.05413192400703994 0.3204084190135739 0.00184743929686357 -0.2511833118186227 0.02307040753625238 -0.04390720254553185 0.008963019980087267 -0.01356840226112374 0.04367260303830631 -0.0003921856048460103 -0.03653120223385169 0.03386046601682132 
-0.02697954428687958 -0.2954942634472888 0.05952082210558082 -0.0908256014919664 0.04325786468308448 0.2285388532924123 0.005956129916981547 -0.1849401890683038 0.2089491087654161 -0.03275689939627716 0.07439598976222807 -0.03131733103625819 0.01149567656982882 0.01331365035951984 0.0004126312432783168 -0.01270182307191225 
0.009393372610900983 -0.02281032229546736 0.08880368682366223 -0.1086829389859856 -0.03971418137305346 0.08378376593202549 -0.05275883446500929 0.01465752329630165 0.07905152357881208 -0.003748719367594657 0.01603606452693438 0.004183092553607542 -0.04864234756314609 -0.003319907441181623 -0.01276171392845307 0.02056330205621084 
0.0004683920627216552 -0.05642345666624143 -0.1892871786822488 -0.002900513455780705 0.04063960807553042 -0.3344085927873225 -0.02668384202827064 -0.02017651899047416 0.08126695220246154 -0.03537613983883289 -0.03341265179014727 -0.0210297215705138 0.001768461055127013 -0.007899361583208952 0.01146536766590614 0.02824881384216113 
0.02387661633640812 -0.1428971346012129 0.04677878438354736 -0.04696265029239884 -0.03591186823408149 0.1085951869231158 -0.02287942923094014 -0.05664445460939145 0.1905782495659669 0.03226674284327159 -0.04453060534964616 0.009869206507482816 0.006354128382686286 -0.002712221644139967 0.03042071595173983 0.01116124670239093 
-0.01232898732189557 -0.1851913150978514 0.05624999953078049 0.1525292961812559 0.02668516366063191 -0.2274393294982076 -0.04655364253632595 -0.03679560149646351 0.03412588660454385 -0.01607398682139418 -0.05541116485243641 -0.0007396135241867607 -0.003270527368997856 -0.004128609272868357 0.006454899751786869 -0.02807997000756784 
0.01983028074247082 0.005474036596721531 0.03689000665060759 0.02739062250585081 -0.02102579039114221 -0.09057497244957015 0.004708636142204446 0.01934564322953279 -0.1398064437933781 -0.02287199764109799 -0.08326508450447062 -0.01393645185462071 -0.01381974219964425 -0.02078289042388524 -0.006916993221936673 0.01800575487454534 
0.002726671785272451 -0.200158972041577 -0.06178365517969638 -0.07762924430203183 0.07925168757859918 0.02889371621502827 0.05552310804780965 -0.01097817530308717 -0.1814109484287975 -0.08475343057369869 0.05247125225806888 -0.02342137297928448 -0.02835125288811547 -0.04524532683133971 -0.02735580799320164 0.033137143797638 
-0.0305839446208784 -0.2348229947664481 -0.09734889189063821 0.08791835719506022 0.03550003151632908 -0.06613718506151724 0.04944086879729467 -0.01583078300872036 -0.2272032994041575 -0.006806114029115491 -0.1062920440524052 -0.0133580142882078 -0.01304565406205068 -0.04287279500396052 -0.002933821369898328 -0.0292295596833668 
-0.04022977457651183 -0.2395390482852064 -0.07857703324074587 0.01140901200409935 -0.0179182985272455 0.02708294413500751 0.03960406005589533 -0.04361537592188681 -0.06226648050788691 -0.1042318726407552 0.002592529639827318 0.04810392970300473 -0.03655145787653617 0.006473619642565882 0.01427149092792186 -0.05918730632951737 
-0.06698134839322367 -0.1534360942454795 -0.06544836990815753 -0.08793007873948211 0.009452946241776705 -0.09103695555178669 0.02732301390448874 0.1003380914954561 -0.1402202736219554 -0.1061104393214047 -0.04116162100655703 -0.01884088473150387 -0.03549972562938494 0.01898347368572257 0.05588261300133646 -0.1409482995048462 
-0.03958967709729733 -0.08238196955235939 0.06409781120071086 0.11120223638245 -0.0438513627472387 -0.3160904203844129 -0.0182344604945345 -0.1137209973926173 0.1124601163548865 -0.005004561369025095 -0.02911907598970131 -0.03738370962785426 -0.01592525163887506 -0.009454469075995803 0.04691791875029501 -0.01554494057400571 
0.01879142967293497 -0.06919044656970662 -0.01008920759107302 -0.03877812280629213 -0.06942443798483433 -0.04626807571296702 -0.03887808410921509 -0.01221321845449914 -0.1729979029687981 -0.02326210228937145 0.02233157803168056 0.02893841558133114 0.03148894369576775 0.003326514627690515 -0.02005827770397908 0.01534368416096697 
0.01400581928087982 -0.002976061040786101 0.04557721933958348 -0.03171130729427453 -0.07609346863969098 -0.2102103371261229 -0.0406957822681774 -0.07063328043141849 0.1485024846685058 0.01254531524376596 -0.02494769317385069 0.06273302736343365 -0.004056136356814378 -0.006078775954213705 -0.01776805326393082 0.09692746492050676 
-0.03537358775686965 -0.1051994029514088 -0.03315444601963387 -0.04046886707728718 -0.1314200577500719 -0.1036664341737904 -0.05007900421655827 -0.1471822757092428 0.1357587238652178 0.04349113138590895 -0.1004244667984324 0.01206355602501187 0.04346165290302381 0.008523607692112106 -0.004338640951777063 -0.03776326934462435 
0.03491000117050113 -0.1157473777421272 0.0428241834908265 -0.02125188824805094 -0.1401592441562117 0.1749292072245488 0.009657212306894442 0.01661934220642686 -0.1475777659929559 -0.02854604060793946 -0.09000442224196786 -0.02942876698696612 0.04267323945815341 0.03167760427685115 -0.01651325708754774 0.004216822728228995 
0.005735445020230512 -0.3498268184107922 -0.122462186770328 -0.09899487772122643 0.006306537088650701 0.2833788458003396 0.06590859942910902 -0.008003537302040561 0.1634874890461843 -0.08442733530889529 0.04932649529234538 -0.05896286048907459 -0.06319292986881372 -0.01726869078199163 -0.03056559695786633 0.005626922095887526 
-0.02099107318174818 -0.009152489610814407 -0.1055201527973416 -0.03197884667007402 -0.03246077937028317 0.02151859747887104 0.008536251992868803 -0.003231571963634413 -0.09188158354986413 -0.03444787648173176 -0.06602654265610114 -0.03012069829315311 -0.001843577476968841 -0.02852820182205766 -0.01421922027846353 0.05241306757269639 
-0.03563716978352956 -0.209501198540489 -0.1971826355207704 0.1166316045024099 0.01260017199237078 0.06441973199228379 0.01217428402803874 -0.09164984556197173 -0.002320567098344088 -0.04671579239048414 0.0761205460230369 -0.00144361951815267 -0.0255495661960979 0.01679714516757317 -0.004601160358253359 -0.01798350735480077 
-0.06517566188409829 -0.1159731908551518 -0.02650598131890825 -0.06181399534908417 -0.001080572812999043 -0.04220570457794211 0.0005954322846800207 -0.0371859569366197 -0.006887745876873417 0.01925230000964756 -0.03981686065107181 -0.03846523377443406 0.00473073168404196 0.00618375158160415 0.02583624863962632 -0.07830308529306998 
-0.00558755608860419 -0.05324889872032543 0.1037777531547851 -0.0393075078192014 -0.07449196489353299 -0.2799843557952539 -0.04051981771945343 -0.02035086474277398 -0.1489488431386779 0.0149888336956114 0.03802433549555971 -0.001033716457190211 0.02390101645880609 -0.006394149014236732 0.008311003101486079 -0.00945860428274394 
-0.01967972827526719 0.1052585937350396 -0.2255296140665743 -0.0727626057803453 -0.02919913014799062 0.1405985305441297 -0.001093946036742732 -0.01133205131014179 -0.1919366418646322 -0.03339426694613295 0.03682959831540663 -0.01964374138678435 0.00995096918475157 -0.007936355913845507 -0.02444519689580297 0.03560017577223108 
0.008660952232650137 -0.1231920305833757 -0.008827108680205642 -0.1777906800549454 -0.08243343874614115 0.1105096465839756 -0.02486908434438879 -0.02636051858183158 -0.1038797035137278 0.006100056276583497 0.03826416651798126 0.02553143923101307 0.05607251020390889 0.008973301379985374 -0.0145594840582933 0.01106075345459638 
-0.01810662778727924 0.03937797266321971 0.04338415420049004 -0.1122997114688662 -0.03532979301800895 -0.07473373960624202 -0.01887272642225825 -0.2025607233026455 -0.08219542724436979 0.04234523932724626 -0.0703030231254546 -0.01576044989950195 0.006733723424681163 -0.04250126391943819 0.0003863224095200427 -0.04582032331392694 
-0.034564067010074 -0.207868167757727 0.2379767530116299 0.1068305963135737 -0.02200372379592801 0.03500250683406327 -0.009347200807299408 0.04526545040011969 -0.08321711693179888 0.02802126603586626 -0.01622799357138455 -0.06524331479263036 0.02016684385466912 -0.03256520554313965 0.03080805003280005 -0.0381935057986477 
0.02771438786250794 -0.09229442873943929 0.1266672712911125 0.08347763944371508 -0.07324000736751105 -0.1430924283165237 -0.03396141666483918 0.09865619822164419 -0.01375625530515597 -0.02736296302558362 -0.03545723395694422 -0.02370401773774308 0.003757314951912588 -0.01346963503673766 0.01141498170884981 -0.006588272586277774 
0.03136689953598821 -0.02239179557465763 0.004496485755605852 -0.01089022733859867 0.00996153518632187 0.1678384362862131 0.009131354191202425 -0.01947337262435715 0.07122802803143058 0.02338646222192488 -0.0333015018569555 0.006781879283344886 0.003477072132545853 -0.01635153314379616 0.005584549533429373 -0.09334305747736667 
0.005210579841991383 -0.1743239490138071 -0.09709722512920328 0.008670555457589267 0.06151504451361885 0.0352359017883144 -0.004064774313544448 -0.04537623050469282 -0.04136743278111658 0.04957802060151382 0.01229665833324677 0.0155862500520528 -0.01351071771613226 -0.01223208331780004 -0.002529356496621586 0.002227636312613818 
0.001873747477680834 -0.179499761562094 0.1572123499502192 -0.03140306325366922 0.06433995192879942 -0.01603038684386411 -0.01741526067804557 -0.04556108101797824 -0.06064594975442439 0.01117830991227397 -0.01419435938454918 -0.001117153122681633 0.005984944593103955 -0.002466464579175715 -0.007147676789438802 0.01018550596904214 
-0.002002222363255439 0.03865642263843497 -0.2039038264264236 -0.0960427973814946 -0.01186144539370438 0.1828095038442602 -0.01185118190375356 0.01522416479191856 -0.1446866296408084 -0.02851968648646865 -0.001771686436675275 -0.01269406696982816 0.009935828513071008 -0.009380325403552827 -0.02446579325401741 0.03572474994463234 
-0.02996745553466133 -0.09861430208091151 0.05605018247706087 0.07344759064125021 0.06513706430972897 -0.1913602071623863 0.006304148441557332 0.03098185469719288 -0.05463967892597342 -0.00146964245699106 0.07158012052947278 -0.01334777250436623 0.001069538505887227 -0.0249449428882119 0.001333664534234932 0.03388347356120448 
-0.004057787461532481 -0.09321131070961924 0.139454971250269 -0.04172731382960026 0.060549650652408 -0.1763552983638988 -0.0393730178548931 -0.0282064640781851 -0.006066353570021888 -0.001916906057963557 0.007601346773113118 0.06200199011558119 0.02411360833990118 -0.01214933783734685 0.009842127250596418 -0.0339370052587048 
-0.01700975131438249 0.1676137143482669 -0.1099194268336396 -0.1164061552131927 -0.03072994986270649 -0.02895466128285294 0.01643043007243198 -0.1945214974555602 -0.06676404802103603 -0.06027095025940566 0.02879186942908929 -0.00276785240182572 -0.007843359944719828 0.03500272909600778 0.0414786222083918 -0.09413788863770629 
-0.04072648755854862 -0.1689968405547725 0.2738380437382457 -0.06735137568772402 -0.1105735484638919 -0.2112218420080289 0.032145056845106 0.08918821531165129 -0.0631761056440745 -0.1160924793420791 -0.03655806244906079 -0.05823265569220775 0.03273820576331184 0.04721223378700679 0.01265042498193533 -0.03197996746552239 
-0.02894078455088463 -0.01685148507836104 0.0122753624010628 0.165124014103322 -0.0236918761948999 -0.1687016685923347 -0.03900977439169441 -0.07212295196979233 0.1604396804658512 -0.005493670694376696 -0.03648945295190233 -0.03520217073211754 -0.01139739344173123 -0.009510568891855788 -0.02319981645358943 0.02462995159126141 
0.01723321713604274 -0.0962010469288677 0.0473054370789982 0.05803222865752287 -0.01596126898732297 -0.0008264614180864419 0.03525688512120254 0.06731853947884113 -0.1931461568064926 0.001102603595638663 -0.01646882851623649 -0.0073438672015566 -0.01786799295206372 -0.01389553580489921 -0.01890808406918738 -0.03166008339013208 
0.001968507900102907 -0.09303220574101451 0.1321800553328055 0.03796620692875705 0.04714275861176612 -0.08930305951051339 -0.008343786307469153 -0.05055147699860787 -0.04781318587314957 0.007482115441894355 0.05640232568536808 0.008688222426151034 -0.02171817936664873 -0.007091928808813668 -0.02355808135928051 -0.02891370260053705 
0.008297593006383639 -0.1384974925769846 0.1756975691440884 0.06969732812128954 0.02052202785631299 -0.2397685056940349 -0.01065103858753597 -0.01491522714892005 -0.05418761028131733 -0.02935549050107483 -0.01172018265761639 -0.01601559997535794 -0.0004945424888277581 -0.001473783698573358 -0.0177791250429749 0.01722299658179954 
-0.002327224020929053 0.01309735100643084 -0.137196672552245 -0.002489833773039172 -0.07318327313728863 -0.001212321193032509 -0.007011248027480778 -0.05797204309039529 -0.03801586753667861 -0.02980138240427731 0.03615530088412437 -0.02491779166056859 -0.007649255959686115 -0.01354286623987998 -0.02338853418846397 0.03000682254782741 
-0.01387497362445094 0.1445002654493093 -0.1415836063295977 -0.04887285354814147 -0.09857549312502728 0.09249877213288499 -0.007637947767720428 0.01299733361298342 -0.1317393061154651 -0.0205429554761562 -0.008663738334700116 0.004532373368954436 0.04303587017040294 -0.02674776655065997 -0.01964306049523635 0.04730997619987778 
0.02684281899833359 -0.08238563011787331 -0.03785652823885594 0.01227195556931084 -0.07268511685385187 0.06254566761405847 -0.0261510570111879 0.006466115811165159 0.0581787476652976 0.009417242063379589 -0.03575617563737691 0.07850138751708959 0.03775028750575092 -0.01958137729604232 0.01089516257887243 0.04114531749976248 
0.01728385364579377 -0.2406441701804503 0.0110280196635501 -0.1197931260078539 0.01570843660195217 0.04431334597946397 -0.02086676516174291 0.04432515575154306 -0.09102976818813668 -0.023626901876859 -0.0149085289316246 0.01006638555089735 -0.006880133165287573 -0.009404521259340368 0.03504845092861689 -0.06069496826463545 
-0.06140470431693202 -0.04952830042429498 -0.1357570796724385 -0.03925182526254693 0.01194251703877222 0.2145779196845488 -0.005081649636387788 0.07117348477779016 -0.04550007762254533 -0.01241074758723247 -0.0729601899886884 -0.04538552873452305 0.02258935062012069 -0.01387009595583659 0.02545148778742547 -0.05383025528175493 
-0.003809829759337442 -0.1361390283378014 0.0245517067509997 0.04597828273618179 -0.03342791519151991 0.1076394123306677 -0.0007176214125933964 -0.04678187744052995 0.004383801135805391 -0.05275349985072707 -0.006547962463801882 -0.01452440723976997 0.006205614970135362 0.0009645986400753358 0.008710676121498361 0.02572437407676123 
0.03432444479935327 0.03407065568611976 0.1338978536973774 -0.05601777845697691 0.0287398233512256 0.2000467122854457 0.03771320349322832 -0.08382084174521123 0.02072829059454551 -0.07772801839533834 0.03504765992938014 0.006866670102308591 0.008762763011276532 -0.02311841515493062 -0.00861631125151696 -0.01922007760606041 
0.0005710777998297032 -0.1131545026074799 -0.1752084036152629 -0.02386212100055945 0.0420020483712331 0.07271706226740079 0.006893385618680913 -0.1501766128022376 -0.002603747951190196 0.004357332159736753 0.1540445884474836 0.01183155712711555 0.005204357686792227 -0.02538143683073302 0.008982119172700054 -0.02184251957757995 
-0.009778341504258306 0.004180953791118772 -0.04672550479966257 -0.07516968062787906 0.05939403196271239 -0.1441640340435451 -0.01490299185739483 -0.1322639966122439 -0.08957424104963077 -0.02517378038071039 0.07940714504916377 -0.01078966757193471 0.01197930863511616 -0.007112417173010479 0.01895049805891015 -0.01764050504621322 
0.001445786648465094 0.1640395901121851 -0.09618655201955148 -0.1589073475745554 -0.05119515058734258 0.02979007093073379 -0.02719339782374058 -0.05843283736231663 -0.03162523572374871 -0.006253131334481465 0.02799405817938702 -0.01035395545434966 0.007434755382295186 -0.01722017117884443 -0.02389669722514219 0.04810071257972158 
-0.004772723483004161 -0.1465747295509982 0.07464095549143959 -0.0126770691875568 0.03977228100782544 0.05945516217744277 -0.01367178917042552 0.05273273437925221 -0.1621986289891332 0.007967731042092811 0.06409934875671318 -0.006891880325320903 0.0184475470893069 -0.03107610107875539 -0.0124125547947858 0.054307883729189 
0.01240215747855645 -0.2326701839222202 0.0303744467433957 0.1118892714372631 0.04386385814999894 -0.0203171362732755 -0.04762274553971148 -0.07658034469748301 -0.01389542866450142 -0.01480981356132324 0.0274575976244283 0.1076722230079734 -0.004849135449738472 -0.03730176291843716 0.02464476484634983 0.05003214823550497 
-0.01472922086970257 0.1938165066787584 -0.06369670524229358 -0.08719338838049552 -0.06646730667830845 -0.04530074241703681 -0.005178332314301468 -0.03970145031139816 0.1101549760142141 -0.04969851553756725 0.06928679899953979 -0.007078619724494309 -0.04633670032698905 0.01800931760101023 0.05081101159542998 -0.03640708391252733 
-0.06762513783757616 0.05191238567386271 -0.110144046546908 -0.06138354135432651 -0.03894866172057235 -0.06704952392408149 0.01695836013306349 0.08833645450476629 -0.0754368617766953 -0.1054947142810712 -0.05916504461155709 -0.07270466597740248 -0.05120708320969403 0.008173412972177682 0.02989670372042346 -0.03874153410605718 
-0.0385864112543146 -0.2307605682149971 -0.05268001508239051 0.07448265363076366 -0.06925340487145851 0.05808593922366707 0.006127670223391712 -0.02332110352493824 0.02845468135296984 -0.008085690035675025 -0.064075989726609 -0.04528479456636202 -0.04136312729827107 0.005346594997893787 -0.004766886116186497 0.0804579088876452 
0.006320370480402578 -0.01719360158738275 -0.06859700583618965 0.0922076307951388 -0.04144333596171464 -0.1318554142292837 0.0460859814344101 0.01520676437895086 0.09188933794507589 -0.07120363013714873 0.03285991658899435 -0.01791150580762067 -0.04427254303397431 -0.03197273236012842 -0.02588783309076108 -0.005866026775465651 
-0.0009362565656113904 -0.03782553303158592 -0.1372729781219302 0.06761118277100875 -0.01807787536783938 -0.3133604887311847 -0.004133809482750704 -0.0504174881694708 0.1846586338826525 -0.04384889735910022 0.06538979949237606 -0.0206811459097475 -0.0236983172607206 -0.01713693082486483 -0.03096715262155205 -0.005338675967124842 
-0.008494075608382119 0.01045749934290277 -0.02121367616510721 0.06602277123524726 -0.004713901774478015 -0.08058996427000105 -0.02053297759664175 -0.0675217123821914 0.06510041760872354 -0.03432680254672708 0.06531622243704802 -0.0231220377099973 -0.02622076184770673 -0.007552339693053642 -0.01335747099407064 -0.008475303381297133 
-0.002574275671488364 -0.05959609403935196 -0.05889726572496651 -0.07061997266703471 -0.06887072781220548 -0.008717894432875552 -0.02704511772686746 -0.09973877583681168 0.009365542186027464 0.003266688788186632 0.05000974080876935 -0.03248750464557414 -0.007263014603384167 -0.01267915433902195 -0.0366896224895089 0.04400893874343537 
-0.01704521269227974 0.08089827433158692 0.07312186597700963 -0.06141106415103798 0.06606300355256518 -0.09337641731999091 -0.01670437254003594 -0.06905272114917281 0.05063732660561561 -0.008682665566935638 0.06864140945007467 0.002467034396565256 0.01649918088898868 -0.0201747523562669 0.03823582612382322 0.03143097891966948 
-0.009709955359643228 0.3197183688725598 0.2421417604310999 -0.07675735459494849 0.04424357238245097 -0.3182715985166886 0.01190756267968771 -0.1731537357709994 0.1743514408749406 0.003511013807573634 0.02819702307416943 0.05225701343156831 -0.0120134127665387 0.00617255400578465 0.09702921608085568 -0.07022493636467729 
-0.001739729373102973 0.1213337151165624 0.07043051105900446 -0.070454318508959 -0.005990895426610463 -0.1868825548733725 0.02623490318685786 -0.2111747291978435 -0.09189085584286832 -0.01750987239730547 0.03240956037184942 0.0230751673651355 0.03756774714329351 0.01680938680793372 0.06640772740269428 -0.1058882876980699 
-0.04754501566003258 0.05782978165014319 0.1883228614801825 -0.1082868527028995 0.01431699907852821 0.01885219839661685 0.02577638002940185 0.0941412673623741 -0.2156592274858225 -0.05999692018739887 0.06279566970864374 -0.02917852978246561 0.04188605477612047 0.01326716928909262 0.02559099596838402 -0.02725578874536145 
-0.02996876754321351 0.003040253227114636 -0.1165719153632991 -0.02443719996202581 -0.0238047418390775 -0.2006569732592723 -0.04767029988470788 0.06196381416191929 -0.06631111601375934 -0.006897263134148104 -0.02628544186243443 -0.03477890423213065 -0.01381307793794324 -0.007337558019452691 -0.04549235689781597 0.06478960253424861 
-0.0059523863427178 -0.0637742194055788 -0.04518119686982321 -0.006291031873842141 -0.0623315658756942 0.08774542376766169 -0.006808727123803535 0.0361753782174767 -0.1437639642911211 -0.03168303546053005 -0.0558304345761097 0.00153184400386595 -4.600240302589317e-05 -0.01007177150199452 -0.04120786301705112 0.03775384992683316 
-0.01630152149811002 -0.006657598555048249 0.06537727557222159 0.02959617477868466 -0.02659204375939116 -0.02666672331759719 -0.0136206321605973 -0.04466273529249038 0.01038989315222477 -0.02180633219874151 0.02337191162040279 -0.004682173330298564 0.005930092662664458 -0.006172673571696537 -0.02637216768629945 -0.01876080257140852 
-0.009408478065854084 0.003010507130357779 0.01153334423720618 0.01764525861107407 0.0001359860591010777 -0.05296895572641701 0.002149695963237665 -0.01161480958857496 -0.07629713597881146 -0.03183071340943493 0.03357434408605683 -0.0104305566101872 0.006159950722613562 -0.004537818435530823 -0.01651027059760641 0.006863376732268575 
-0.005807216112139848 0.1044321656667742 -0.1479813264056643 -0.06228415088802876 0.02437894318339417 -0.008165523699303888 -0.01467871658997167 -0.02790693536551695 -0.1687493224072719 -0.05249812989543862 0.03478998004205624 -0.01524368278216983 0.007584632332867458 -0.009282630134144534 0.006186239731296578 -0.001483723732283907 
-0.01391174818371053 0.1375025128012569 0.2807250948306897 -0.1233611934135169 0.05534358648225209 -0.2601072864434158 -0.02724349768812812 -0.01305643290129015 -0.09597403856837863 0.00165076549425672 -0.02237462516210325 -0.01849765580762015 0.0001631724991585418 -0.007611703828469069 0.04108068688657989 0.006662433601328428 
0.01184245976938896 0.1351294939151374 0.004933773995733825 -0.06834204039443093 -0.04840610080378122 -0.25436745223746 0.01338551802782865 -0.07882402296160065 0.05055247751381906 -0.009585400842225601 -0.05357747461560523 0.006001206950438885 0.006394510632261341 -0.0142155254849848 0.07053663465446382 -0.1003582562259666 
0.01243449248239306 0.04005649239697469 0.08030714054708744 0.1368357046346473 -0.04564181532331426 -0.1836822437461736 0.05349316233684584 0.003285077661918174 -0.1955572687577057 0.07712571906685434 0.02738837625631645 0.04586843491495856 0.009890612166110559 -0.007540313676913671 0.05527825377339403 -0.05984690301945428 
-0.06014213642389789 0.02179279580680465 0.2719222573488045 0.05171370550385578 0.1277505876172148 -0.03502000982601934 0.02164282437269953 0.04694186056173612 -0.140274022182721 -0.005345749811892921 0.0593430278770784 -0.001989305952086509 0.008133201047541923 -0.0147567431051206 -0.0009112036182992233 0.03531064686061621 
-0.03155779308002579 -0.1461719325929992 -0.2413567940547906 -0.07014295459499209 -0.02499504167214391 -0.1306613962852217 -0.04420116110486295 -0.03221558899203942 -0.06351450272436283 -0.08087549361162114 -0.003180450737846707 0.001210069980403535 -0.008474233229557171 -0.02041507971256359 -0.07145484537527332 0.05617203951955041 
