solver_type L2R_L2LOSS_SVC_DUAL
nr_class 3
label 0 1 -1
nr_feature 4837
bias 0.5
w
-0.08108655001846884 0.1251128267682996 0.04563270737426795 
-0.09891597971319967 0.06598512085051493 0.03698671807973053 
0.1679492274002595 -0.05483562806884565 0.08277859627853015 
-0.1359836142666805 -0.03562458875731028 0.04381456679585453 
0.1121143353951281 -0.1472758923463118 -0.0239897453666429 
0.004516212186713999 -0.0773216533390492 0.01381667881500959 
0.02483694995010543 -0.1015012929907042 0.0222924966372182 
-0.002681712158289223 -0.03746808396747526 0.03107482969610448 
-0.0106185440430223 0.1206250688128613 0.03916120537679241 
-0.1312561290942175 0.06766979181303479 0.03051124646641796 
0.1563519602778351 -0.2194226775579667 -0.04990570375760565 
0.2284607515588984 -0.09951816311551528 -0.08266432230350647 
-0.02239865067812237 0.03836360335210422 0.01580937258566851 
-0.05654496197510783 -0.1173343362954932 0.01552382486803013 
0.03212840125026222 -0.06970653649603704 -0.01858154204450432 
0.008120249038498766 -0.008565961830754261 -0.01719675309416691 
-0.1118570992358837 -0.007200478769669482 -0.0008098016128875059 
-0.1459453974037266 0.09906991443684007 0.0531820929579853 
0.05827087565542993 -0.001993609963171711 -0.02092755439074746 
-0.016052348183965 -0.07841996122085605 -0.01074544411555242 
-0.1373240825752698 -0.03032719588036476 0.02749916854870863 
0.02211177548358454 0.008215657280676443 -0.06370983719354172 
-0.05522157207660094 -0.06100985116078834 -0.04474203757326563 
0.03416901933367709 -0.08223370957508065 0.0137649388881975 
0.0475823763525521 -0.06576787994030078 -0.005975058485409775 
-0.03899858490869352 0.09445314049514467 -0.02924401113244312 
-0.02963086362592853 0.1668673382139952 0.02725532213354686 
0.0838288715036439 -0.01851350480972275 0.01067173301534423 
0.03433721680628243 0.0382374783254438 -0.1027096245433176 
0.02584207413235847 0.1286893825575511 -0.1160397531952203 
0.0207145404693348 -0.01996074480085773 -0.09542139790835009 
-0.01314801472140667 0.1170006957446084 -0.0395209547094081 
-0.05839601838578021 -0.1143516246245627 0.04025309486174531 
0.07199176913560923 -0.1634119915208905 -0.01344163401172416 
-0.04287915969442015 -0.07963273539736899 -0.005457723995904216 
-0.08308458193405892 0.05684759242319119 -0.001059238543849037 
-0.04590454847335186 -0.08966342697560419 0.06480100376304546 
0.1791458397560936 -0.03918662296214154 -0.07272889592499644 
0.1850260242439925 -0.02498577306689097 -0.09081753422294257 
0.06319296781576297 0.2307755959692875 0.01214156580355586 
-0.2017703652121957 0.192773172259036 0.05686691915647372 
-0.002827357764530775 0.04706201886283169 -0.0187720151030323 
0.07784441221346719 -0.02071181010987638 -0.0007604978695914905 
-0.01129948383635562 0.05164067556295994 -0.01887851371120163 
-0.009044247910739768 -0.1366583599114875 0.03837163239417869 
-0.03767680683046903 0.02645519743147208 0.00121609708352661 
0.2252243114045312 -0.01724884126176467 -0.1854987622761242 
0.151175925226106 -0.1041549446278739 -0.0772991810623528 
0.0678833647226163 0.1144209013889809 -0.02439431662571923 
-0.0843365379195711 0.1362208492330401 0.003468299742872779 
-0.2108513068433877 0.107117591094829 -0.0377796319839003 
-0.07208926014934677 -0.138171702899142 0.05338552189838383 
-0.0604312507439135 -0.007218833598620715 0.06151054257824264 
0.02759063646485751 -0.1887131944621764 0.09288167181562772 
0.006466680517363077 -0.02700651809038898 0.04017234417505482 
-0.1249771842306453 0.2144535919787693 -0.1514177244885549 
-0.02724945810471514 0.09784711983754792 -0.1162711715895643 
0.2333246371847254 0.0549696171084014 -0.03907465307499533 
-0.007574794502944991 0.1422392136892983 0.03835594068651828 
-0.1457883635420492 -0.04981606416581365 0.09363201457427987 
0.1744710685628273 -0.1347927726961855 0.007205931807837126 
-0.03560577297527972 -0.008818461827667877 -0.01682055660348202 
-0.06180339468700032 -0.02578087849343106 0.003577782099767612 
-0.04425110906081526 0.06598503375872909 -0.02681092626948848 
0.1891505722841016 0.131431314827109 -0.1719524388703012 
0.04345073285637425 -0.09526893196425497 -0.07424313850036666 
0.2346393277358189 -0.1336898329603741 -0.04842552084009818 
0.1007943304312312 -0.03708159613592817 0.003726192564536897 
-0.1006555202297934 -0.03947753331479751 0.02065370302048747 
0.06173233144957849 -0.2066330162015316 0.06486866438621457 
-0.01897749125972429 -0.04589554856258627 0.02589961486652079 
0.01836461256470549 -0.0279277849554796 0.05746819762753605 
-0.08289840785135105 0.2287570504232828 -0.06577584044018746 
0.129617160533329 0.1470997602212297 -0.1761974393825174 
0.003401628623766616 0.1691133137249571 -0.04549887926786519 
-0.122110160049851 0.01256817805918447 0.05395719655224581 
-0.1521219955403095 0.2333368046282343 -0.07138646555762237 
-0.09382476772647391 0.01306526070501401 -0.06470754717294316 
-0.09910892597164191 -0.09090256882728757 0.02496680452521916 
-0.05268556202279946 -0.01937344690533551 0.05679678932104813 
0.03446768342304925 -0.02704621988844108 0.0952282472056174 
0.00715955063874478 -0.006220435377306578 -0.08764313699511481 
0.01602046843768887 0.08483002562979305 -0.08130200241610189 
0.1292615212750022 0.01459102734282039 -0.01686690902778499 
-0.1253357148241388 -0.07287994570844086 0.123101322959216 
-0.1717618020353738 0.201087054957986 -0.04193380479803607 
0.08467343759457807 0.08594494828760599 -0.05302446925481411 
-0.01807238991001066 0.01242746583285554 -0.0005360391641473996 
0.0615898222907416 0.03180579820277488 0.007731373984538674 
0.1789551348065612 -0.04732714825803407 -0.02921898990722179 
0.004374506756834338 0.1415727923615088 -0.05976305359682545 
0.1107686876188665 0.1824532578777006 -0.1509726675679846 
0.110362221711981 -0.04346689956578672 -0.0525602571127718 
-0.07143357213526824 -0.02785258207499273 0.0391376511119374 
0.07136180544800308 0.007459265201573569 -0.05660782200320538 
0.1044131462399707 -0.1448404185258822 -0.06306319463344331 
0.02465338495276067 -0.1003949746674112 -0.008281144217817189 
-0.06551253062602048 0.01450890028053737 0.03444186478939694 
-0.08443922079313365 0.08853664651893252 0.05787533582889706 
0.1295834360302814 0.04061864695470187 -0.0614601971400882 
0.03958527642040876 -0.02595260071787187 -0.03676006166544465 
0.1196407169722984 0.004190798551157292 -0.0721114625331418 
0.1527927115490058 -0.1451263820789509 0.05615629567291944 
-0.02488028772000738 -0.01433598982183473 0.04194749893226833 
0.0144610797876024 0.03834064152330731 -0.02059352121146265 
-0.02245994606779032 -0.1419191527327749 -0.001142159040178988 
0.1769435804206708 -0.03973269397350812 0.01294047385554803 
0.2391256984363707 0.01973437639227525 -0.04171117439562658 
-0.02647107731903978 -0.01282242548589393 -0.07886305321363839 
-0.1083210918635074 0.08817174145895459 -0.02820967686530714 
0.1813696445845004 0.01202993238143391 0.01489092152950513 
0.03490239472012126 -0.1925543478234858 0.08527119064957468 
-0.1755484191248295 0.002991802032024208 0.01116668955184186 
-0.05282656268993116 0.003292834611551411 0.06881226843622525 
0.02488035132971312 -0.0003176766585881258 -0.005346919203680831 
-0.004964287504828993 0.05083086971951813 0.01550529289144408 
-0.07226823982998097 0.04538914308686715 -0.04933267874279789 
0.05950990614520096 0.06043824983879589 -0.05510927204204066 
-0.0348832724189061 0.2255247938585769 0.04423643487309326 
0.09840103451732063 0.044617032249744 0.05256580033654591 
-0.112738680085524 -0.1371259158767201 0.037111064763623 
-0.1938855675704342 -0.03410547055076051 0.006584902277267248 
-0.02693925538760181 -0.1644646898390707 0.09409423095083415 
0.08105356344719693 0.1307219593408647 -0.08685570124556805 
0.1442813707909199 0.2541938055331955 -0.1417630394114207 
0.1073522805271258 0.1727161166452353 -0.1167502512064248 
0.006370372146919089 -0.01995848542350021 -0.0932339890964835 
0.06326235843275997 -0.1665715975685231 -0.05308719356902775 
0.1715753970341934 -0.01181010670756051 -0.05091904185199069 
0.04670610276989404 -0.09537611506926864 0.04266542251817645 
-0.127840995541566 0.0313431559401434 0.009715694727536394 
-0.1240353710901153 0.1063053088277259 0.07906422230979772 
-0.07436739693554273 -0.01203935356529908 0.03222933713071526 
0.1850597845964874 -0.1525405173501016 0.006477942788331024 
0.3914508686818278 -0.1041090394530063 -0.06104552818945384 
0.1122342061461612 0.03536536349208535 -0.08313289890349095 
0.05694498942337092 0.08775549978321906 -0.05028380372518709 
0.2380908846979476 0.08328744536833182 -0.06746661175886322 
-0.08439395021686311 -0.03056619928128751 -0.01192030149119836 
-0.09902361976658482 0.009780152899937514 -0.09122807897290436 
0.01955796818070879 -0.01147320627940425 0.06595069215246319 
0.06295749936232746 -0.0003336459433062222 -0.006576626833068849 
0.1673152993318782 -0.07582803526579039 -0.02867072661684956 
0.009376802558932655 0.1486786396210322 -0.1342836354499921 
-0.03328532879126108 0.02264941206196651 0.06930735593248336 
-0.1836428207216614 -0.00237105971791787 0.1126655473787804 
-0.1595848313367989 -0.01938518943337127 0.09383312264030529 
-0.1140704811556764 -0.1479286434410682 0.0370590635151342 
-0.02349037011312907 -0.1031056816293371 0.05247056772110105 
-0.1463822588615088 -0.06727790543756942 0.07588295184740475 
0.03393260776077758 0.1656885685964654 -0.05433269854397589 
0.09178434318610566 0.1408261699203826 -0.1911272194515665 
-0.105541784282636 0.08662789908682825 -0.07351768514445507 
0.1165344904059628 0.01792634725744474 0.03587381000767102 
0.02688882896068337 0.01010735147299668 -0.02365392755659824 
-0.0169542807898715 -0.01945040267740024 -0.006134538933596852 
-0.1218919425067095 -0.007893229092707925 0.008894771586937146 
-0.1301695190830956 0.08672966753036272 0.0004356292702694956 
-0.1073196026099261 0.109668802139007 -0.03302955996070414 
0.05904765196995563 0.2009832056984009 -0.05181220410799781 
0.008763234441616835 0.1185696831387021 -0.1343317712426368 
-0.007673746863201891 0.04503763103314277 -0.03814149251535878 
0.1746020992316925 -0.1897407360295554 -0.01320141576948557 
0.1231665754084832 -0.09552885791358959 0.04032961310985513 
-0.1052724242617526 0.05256577849585005 0.03468113599788752 
-0.03963279957983329 -0.142181648641966 0.05067885950161035 
0.173621381195584 -0.1993311213115921 -0.05691023024894376 
0.01959352730891466 -0.06666290599937752 0.04084924687558034 
-0.03213434947106506 0.09988068717423074 0.03054501537565946 
0.1029226031389631 -0.06474936883529578 -0.04919711319587007 
-0.05376275715892762 0.1071397691664483 -0.1164565136154516 
0.1994822719110025 -0.1041550389305667 -0.008136588653063239 
0.3148136762576334 -0.1003767927875819 -0.06854321340753521 
0.1529570974924821 -0.02485189579514205 -0.03835182421955392 
0.06570940582313484 0.01693179548315896 -0.01417468052259734 
0.08266178019136342 -0.1384732092794111 -0.01727651606618232 
0.02963431495078829 0.09646685656107801 -0.007304432150196972 
-0.1085155871137354 0.2686451555218023 -0.04304453171771177 
0.0270673852143325 0.07090638305862726 -0.09937096332093208 
-0.1796691335787902 0.1232179697414416 -0.1137042550054171 
0.1966008408751623 -0.03439751525176819 0.0436837396769026 
0.02229045394129523 -0.03456500662206132 -0.02510677988010079 
-0.005331385554210147 -0.01529827370902355 -0.01325950263761765 
-0.09578275388925307 0.004585347015986646 -0.006967866825574653 
-0.2372597480926932 0.03619295699231828 0.009043857491981395 
-0.1254347034971401 0.0820566321116073 0.03071777135555703 
0.07548751101200969 0.01550255343801317 -0.02392667232532351 
-0.1198472947685044 0.2946822108815456 -0.1403067388702097 
-0.1355438085334675 0.1485155164415762 -0.04574995038738408 
0.06822296132474184 -0.05712250610599328 0.05564786427710502 
-0.03479305046507893 -0.004402292690734918 -0.04844699284883822 
-0.2023799046263312 -0.02836077584607667 0.03004544017289364 
-0.007614172139240394 -0.07357210772930962 0.04577095748163734 
-0.1356106848399754 0.006510998898030036 0.04331826551788462 
-0.1259015276466114 -0.04076645895573766 0.0491744313452322 
0.1521734418042484 0.1353762948564988 -0.1283499682606343 
0.1834524631917206 0.08183873128295457 -0.1789720455815823 
0.1118885222626695 0.09502552570068809 -0.09696203159172374 
0.2610449598366567 -0.08830138045305921 0.07759013260762214 
0.2246687075946431 -0.08354164542768155 -0.05695555336668579 
0.1419151113171291 -0.0447337645083942 -0.06404866146487562 
-0.08394518996178026 -0.09341689073428024 0.001812086090574888 
-0.2482759642635342 0.02953373698537153 0.1065228862153444 
-0.04878246727804533 0.1017740533046921 0.01295475184005691 
-0.006348542742206093 0.109704859136546 -0.1065773816994668 
-0.09832278845335053 0.2155963827118345 -0.1491718517831525 
0.02069783678564686 -0.0702660618667023 -0.00372034504351263 
-0.02338698836154396 0.08576167595446406 0.0587726035617178 
0.01309156650332484 -0.09862590238977008 -0.02553575346149467 
0.05100565322061962 -0.02438212229783395 -0.06585906116604454 
-0.007846543987728376 -0.08909236722990979 0.0385924412566785 
-0.22274463416644 0.005667688538152508 0.1276166659349756 
0.04155715203170104 -0.0155168425892311 0.008184500224175585 
-0.1144756469955131 0.2938235351485526 -0.1668463798816426 
0.088174263418848 0.2152268459573755 -0.1027792624460093 
0.05432975745181611 0.03221625523642899 -0.04583766737389033 
-0.02624678017714471 -0.1102210308346253 0.0486160658313838 
-0.07679938125918084 -0.08908596860535942 -0.03095327398640383 
-0.2975276551225944 -0.01976572082739267 0.001050099896051517 
-0.05987022068755785 0.1095021765965278 0.04229630572943936 
-0.157827864812985 0.06566323514965697 0.0008565854550279947 
0.04434558144628774 -0.03118708498259286 -0.02344311208676991 
0.02576934468310256 -0.02975154629916191 -0.09705561461776019 
0.04418381415288639 0.01115841215471691 -0.1281062703745995 
-0.00116995441122154 -0.001330893107151819 -0.03635371652567957 
-0.007356641107464766 -0.04860172354491644 0.02716900216268865 
0.1857836516357579 -0.1259177465496797 0.003027681812348906 
0.03417398529672994 -0.05229552205492061 -0.004969911069263705 
0.05166791797716622 0.1246047195497466 0.03866680506463238 
-0.1435463649091716 0.09146446006372601 0.004161217657180625 
-0.04336175854236213 0.09759402522436472 0.02437018071839515 
0.1221368777219817 0.03261403200910103 0.0173496604478919 
0.2019213319791889 0.03168255552220872 -0.04504743845154915 
-0.07202351428301164 0.08857966208173945 0.003114585739840467 
-0.07236931962888683 -0.07053977424767202 0.0562591363651947 
0.04528446072679928 -0.1033317384353007 0.01449313825337493 
-0.02476022629473419 0.01191480989458751 -0.05075258257545619 
-0.01286852690881674 0.1066889992819446 -0.01026713194313906 
0.01038397034909856 -0.02939204413290975 -0.00803669228962612 
0.0201008919371202 -0.1296740322204227 -0.04481437242854255 
-0.09488068682150554 -0.001088411987861909 -0.08955308270081344 
-0.01065361079467821 -0.05356036328343453 -0.1360744832639595 
-0.01015377034405065 -0.07849425552552827 -0.01924871626565258 
0.03058302684015671 -0.01765832329239974 0.04592574774810951 
0.02855807512087845 -0.07443060489245781 0.1239871814980187 
-0.02414945920654757 -0.004200251410808332 -0.01906431030393856 
0.0251249129279028 0.05945738596147829 0.002928995242827506 
-0.06122400417866392 0.007522349574920921 -0.021609987499976 
-0.0312255935090636 -0.01672589801615266 0.04710318408400299 
-0.1434373837142645 -0.07257871153375373 -0.04658760403755198 
0.1141787613682985 -0.1477042103250665 -0.0909869195066961 
0.04849495838570437 0.05763629437647545 -0.03460332782258174 
-0.002763396054746807 0.02219166164720442 0.05803013687659808 
0.02966265711761073 -0.0848894187264664 0.01553948525488486 
0.042150124395216 0.1072687546954706 -0.03730376269116244 
0.06450837358547952 0.1367568647483426 -0.00809749464541216 
0.03666364399769727 0.127253409747007 -0.00401458244508215 
0.2505051780067111 -0.0434743292224114 -0.08036478886751705 
-0.0040942579722373 0.05725274378651195 -0.01859675775039664 
0.08805396248840457 0.03486390724027419 -0.01254788116250145 
-0.04395920482874754 0.03644449106774626 0.07170076442142351 
0.1924346461183412 -0.09670720961781139 0.06727602194383542 
0.02835175098625654 0.04156617821584353 -0.05517360549780828 
0.001664843138957455 0.05872438639431493 -0.1118080009310817 
0.0529162483496288 -0.1464586502581835 -0.04265221588536623 
0.03461819696956085 0.1072685495340205 0.01304679483702186 
0.057804349473286 -0.0394288088976781 -0.03056291244355823 
-0.00704428536298847 -0.01699120544136652 -0.004108312264555918 
0.05460139648203993 -0.08462765910526683 0.03453717322430665 
0.03549441942074196 -0.07624006096138529 0.05121145768637996 
-0.1691086198665825 0.01589611229316354 0.04543500559017212 
-0.04211533886528196 0.06291674857631728 0.03360562760709458 
0.09225793124726142 0.1144103246600178 -0.07444819569539468 
0.01663379107871622 -0.04033023032569755 -0.06246109518978655 
0.08268882428493178 -0.1049155576112762 0.04996287194663356 
0.03366422168761365 -0.06358846998825905 -0.01698727692346143 
0.06263977485092163 0.00783075634625504 -0.03525000688347612 
0.05279565752778687 0.08192815752700687 -0.03587666224275596 
-0.1493575323569668 0.1469953894627899 0.04070751441936369 
0.001987187404219639 -0.07729236847250841 0.02521082178553224 
-0.004199658823942985 0.0614509655317651 0.02001234268738262 
0.04167799446766095 -0.1260354267563435 -0.05827244964467439 
-0.3152228696083584 -0.006725918274793362 -0.08032330330172295 
-0.02465314993728938 0.0597946826643516 0.08269241929621239 
-0.0198711094833794 -0.07360959675248847 0.02353121506995177 
0.01258614621480798 -0.1163888153480116 0.0511879775728875 
0.05081232274612518 -0.05086125046289906 -0.01138505823505944 
-0.06357485170100072 -0.09419790902215963 0.04354846095074113 
0.139627941577545 0.02822439334004067 0.07467569466689974 
-0.003436297068655065 0.2250522464029071 -0.102192462570747 
0.05584479072908612 0.2715112274399447 -0.1450908842194799 
0.129671889254549 0.09932313185057852 -0.04848903355550313 
-0.1439433419778759 0.05541001072468386 0.03112631729950015 
0.0108776494033811 -0.1196826656209414 0.04549426061713458 
0.09092114373532824 -0.1561300896698236 0.01928495160694653 
0.0269685254629726 -0.1348280359271137 0.02822002846086639 
0.1092737071032 -0.07782413534715767 0.00975909801474819 
0.06910664735701058 0.07367736932674014 0.02012750413914843 
0.1186549303714731 0.0132740951239481 -0.1599296416464649 
0.1553522566523899 0.0932105908406559 -0.06287544009902356 
0.002602116304837715 0.2232284205610249 0.04718514500984009 
-0.2269747128279766 0.06636044287619129 0.03465782795917061 
0.1133818097680847 -0.2224571485832044 0.05990036632791498 
0.1211928280854401 -0.1009499630872361 0.08169377429106768 
0.09478749626997079 -0.09384647256719233 0.008804646162971923 
-0.01294359193684015 0.05389775882954061 0.03691694218230586 
-0.04270405615849344 0.001232174336694361 0.06831633756728134 
-0.05363906087875648 0.1849120360242622 -0.06662510546607434 
0.09523538656969591 0.1953655544962964 -0.1816634791788351 
-0.0778243795292088 0.1768872126939571 -0.08277846377627292 
-0.08759591165833241 0.1236862956249326 0.08553555279644506 
-0.05909677061856287 -0.05447554470808088 0.1029659459170056 
-0.07651476699016815 -0.09532935656621569 0.0733517857330741 
-0.01158745954850992 -0.137187451313475 0.02715075936824176 
-0.06148389453996764 -0.03856354066366809 0.02303801964027842 
0.1696017344843663 0.03541953393325029 -0.02489019064013111 
0.002221705908817169 0.03532998899043611 -0.08091639154491015 
0.1531381789715389 0.15994721573643 -0.1379019494241339 
0.1280459516865007 0.1113422492066352 -0.03625781460031424 
-0.2993227217264249 0.1989475496285136 0.1146628249288956 
-0.1616191188335433 0.0123939431212535 0.09310926835210034 
-0.0431062470842614 0.07209233999307846 0.07208159828846035 
0.00755011306775445 -0.01118483667383656 0.02397487944047498 
-0.1080617378338314 0.01593407922040557 0.05873671750671863 
-0.1666144221831763 -0.03436423134414005 0.04064473610618131 
-0.0168689117651302 0.1267106385623377 -0.08926629032788376 
0.008458550988942328 0.04216672261590761 -0.01383564673944774 
-0.2475157275074402 0.1826076483206056 0.07691196145800822 
-0.09828539449146841 -0.06140131072978693 0.08226954929619169 
0.2810181810187785 -0.2889799889166125 0.03328880526535564 
0.06512240929097461 -0.102996911712153 0.01544109676993193 
-0.1717731932508561 0.09172203162625413 -0.004812955359588589 
-0.2374367982054874 0.116369658767658 0.06225044349626636 
0.05972575856964041 -0.1388643652082586 -0.05632241646251112 
-0.01823469540160404 0.01145068453839426 -0.06333273928648711 
-0.06505723210421577 0.2376157871193607 -0.01431740719848951 
0.05351555359760746 0.1615256579660646 0.004419019780580735 
0.2281490696845585 -0.2538400885442177 0.04393946150547709 
0.2976342229403295 -0.3111694235825541 0.03270277425361011 
-0.1829117254554479 0.05267629416806531 0.05996016699138319 
-0.02809170866636916 0.05881912590197626 0.01753199074535821 
-0.1050335585421118 0.07779957225021422 0.04248976397986777 
0.04082177781840846 -0.08304396591027229 -0.0151769938819714 
0.2786065050468805 -0.1509758429126714 -0.120721829916754 
0.00509274105440339 -0.03496093849243816 -0.04772406576873402 
-0.1342055291316388 0.13635912822062 0.0340932045524748 
-0.2138904722322769 0.002565287029319562 0.1179252965562649 
0.07736700905831381 -0.2102378830720933 0.08314110666346586 
-0.1222081060792846 0.1328337047754849 0.02410457541308885 
-0.2636563741492274 0.263664597104223 -0.008890306284048287 
-0.3106777303435597 0.027716867398885 0.06562164005977869 
0.1365017330438084 -0.2110932973271535 -0.1002411362626248 
0.3730162328528132 -0.2135239083349251 -0.131832315331131 
-0.1078339054721152 0.1788342493370135 -0.1144983509981578 
0.1144252740768623 -0.09982921967201797 0.0109191213062148 
-0.06503360099519448 -0.1710208933862309 0.01743876422377871 
0.1076124493713403 -0.2350859891589861 0.04022005097487062 
-0.334343597244692 0.2101327991300931 0.08275208327688667 
-0.2581754877526354 0.2199750494914338 -0.01812184009066129 
-0.07521942514420489 -0.0301696485089943 0.02251277084199133 
0.03544954902418358 -0.1138451086218298 -0.007157780227498333 
0.008110958138243942 -0.1775096565332807 0.02053605934200501 
-0.01120377545724058 0.03123037886409195 0.07751011681087952 
-0.0008372255590932599 0.1113595598880513 0.05472959658847116 
0.2454926056502073 -0.2164755825031771 -0.006760202893825822 
0.08955033049283456 -0.197779167137022 0.07555174030770777 
-0.3124073265741486 0.09855536588495502 0.05657545865585765 
0.1206395585128511 -0.1090084842014237 0.05284027685997474 
0.0776557950964706 -0.06818641465149776 0.04023076765753487 
-0.01483246522889935 -0.1670536444184807 0.005534114017116752 
0.01403912739368608 -0.02288086009001587 0.0189351509905712 
-0.1732981607668156 0.1556554005320969 0.08953515494505683 
-0.1598774532336187 0.2257978717261143 0.04034502057119295 
0.1754173809199006 -0.1214680593596689 -0.02658610010359307 
0.04283664493880886 -0.1760829434102761 0.07992667531005304 
-0.09271882107745942 -0.05266167995199695 0.08375111648590997 
0.2091073103428467 -0.2884431276434396 0.06644902710041684 
0.04897201966818748 -0.1894401056063033 -0.01050918510694357 
0.01085037710210305 -0.07235350936004586 -0.06214818114900993 
0.1427636267889608 0.01586910100688728 -0.0583266641371597 
0.06605740942648655 -0.005617230156487763 0.003536082573850768 
-0.07600926750613707 -0.05270733503475854 0.01623170251476974 
0.1566154526389142 -0.3680853485581976 -0.00955910684963396 
-0.1016922502422387 -0.2087568805314614 0.0506158064858731 
-0.4442364581987669 0.2762058574078367 0.07171146232093301 
-0.2122890179688015 0.1658010070599687 0.002019392972925387 
-0.1139281873471566 0.09581082306652984 -0.03108872425121567 
0.09530606643800071 -0.2722288873274551 -0.04654978824862027 
0.04269422315403921 -0.10413871357013 -0.02148807440890658 
-0.06409262386534088 -0.05157903215569352 0.04133043969746195 
-0.01796079035058568 -0.05399965073254931 0.0162510647134077 
-0.0201932206007719 -0.165651044528643 0.01473792527122266 
-0.2438338541130031 -0.2294410344511592 0.04503198268503841 
-0.2485338773834293 0.06670566490847146 0.0251870503708905 
0.1591797825257356 -0.09500840686566392 0.05606133102188979 
0.1925266742199973 -0.1940511710586075 -0.04524154111617664 
-0.02299228345336152 -0.02259290166691721 0.0589334637769264 
0.1220081999380707 -0.05201539673535554 -0.0291774523412349 
-0.2877153605896021 0.1623810524934139 -0.006047764527420302 
-0.2060403494421188 0.08739293218068402 0.05920946235143802 
0.1400510938915722 -0.05468365506438076 -0.03267048614894295 
0.08051831387104243 0.02344161795609342 0.02555718092018709 
-0.2372881490071589 0.2272871417943612 0.0654022587714289 
-0.03823421033344556 -0.0462872517282733 0.03539996744154083 
-0.2452114107943695 0.01548909252038849 -0.0278451559077964 
-0.1744207777479576 -0.001265864092800583 0.08562388968117432 
0.2163661091142663 -0.1389640620619997 -0.05775434735537739 
-0.0834790668825708 0.1168129985047333 -0.04441897951450121 
-0.07570093238088038 0.03242377695171807 0.1149248154595627 
-0.06377275505114471 -0.02436129854903506 0.07556616313842088 
-0.1132449803636983 0.1468843809744976 0.05421445593968681 
-0.3489689761871864 0.2531277300462463 -0.004600829183270465 
-0.01574471186346893 -0.009043255100186144 -0.02345725342313837 
-0.2245636855671233 0.01735874388574457 -0.00787194037568569 
-0.01965232414876744 -0.2115077337596389 0.03134552635187854 
-0.1056386605272471 -0.08797947502433975 0.008575339306020297 
-0.2724073827275519 0.07798367308655554 0.01771486399953349 
0.06688813996530436 -0.08934123973075932 0.08024479770401811 
-0.0337132455130833 -0.01498138490654709 -0.02981162631324153 
-0.1166291811033736 0.0008527602339504292 0.02737930502889976 
-0.0841307329724495 0.1523857655173047 0.00174877206633887 
0.154391120700755 -0.07286553101323598 -0.002103022457034432 
-0.05928965018633126 -0.07524820989433358 -0.04789945135908302 
-0.2782723793572861 0.198342773301557 0.03719845176181698 
0.01614401524038292 -0.1773091321543445 -0.02387275522997293 
-0.03651642255028877 0.07487438903765145 -0.03438411238513817 
-0.1107661077309753 0.006082640197369425 0.1484682661843773 
0.04885093904052794 -0.04923997969753448 0.01798615907355686 
-0.09427696490023998 -0.003128436985904572 0.09493568472274207 
-0.07277830989686106 -0.09412983355343173 0.02721366607852423 
0.2847750476889503 -0.3739643797028484 -0.02479446181073832 
-0.159025498778955 0.05635453763519518 -0.03572500820545604 
0.06167391013693438 -0.1067135562608821 0.05638504281457569 
0.1881079681902374 -0.1314121317311802 -0.0403609730476386 
0.0655200659708242 -0.005941036351632044 -0.02139823707416082 
-0.1249767744884817 -0.04105046303573948 0.07723536546864829 
-0.2149529704135558 -0.04496535607690351 0.1446550065217282 
-0.07691962651091815 0.07075472238253475 0.03714921796044274 
0.0851081781829971 0.06785038045603091 -0.08978441756393338 
0.2599628379296388 -0.2209546584539711 -0.09728142170789657 
0.1200361008476052 0.06290663398714452 -0.0184873721118088 
-0.01569400036510534 0.03838747470882054 0.07056270518332536 
0.1046757624101708 -0.1340838777776077 -0.004691528167577834 
0.0008918478102728809 -0.05432020701781533 -0.01769997984458528 
-0.1585191010490933 0.003686890142209772 0.06285580220629086 
-0.1435398919674003 0.003746500858742327 0.1210525253069934 
-0.1123446823083413 0.1388660584729879 0.03284104549846271 
-0.01337171585219799 0.2170184759544984 -0.1145727114216733 
0.05595212930084145 -0.03236258668586856 -0.1042891287393818 
0.1045098600241902 0.02020900193213941 -0.0002272267665318897 
-0.07723444330441033 0.135420387742292 0.072234414480897 
0.03621275070992155 -0.07912067312979273 -0.02011205782298989 
0.01166274838105594 -0.03096381885311613 0.02980150259257124 
-0.2241551685837122 -0.05716354954426511 0.1036504517820642 
-0.1944072391648784 0.0630814209839573 0.07912170652405415 
-0.1164346574037237 0.1218034838190025 -0.0130130970848826 
-0.0419476650330619 -0.006537875260056523 -0.05568473249785415 
0.166902817152656 -0.178125547990303 -0.1143454896917301 
0.08672052222748752 0.1600154296703774 -0.01717223354001827 
-0.05962725830224306 0.07241396971626561 0.04177162400777546 
0.08021686869100288 -0.1417306936685089 0.002818951353854938 
-0.01918739275113896 -0.06946558272081674 0.07771284259844816 
-0.2486696171183556 -0.1350689601155968 0.1263137339869459 
-0.3528540849960817 0.206897188491616 0.1169334128906208 
-0.1323615724785432 0.07732124211802374 -0.05054487797204057 
0.102276042202947 -0.05108482668861135 -0.0882577708902394 
-0.01868404154310528 -0.006360624959553285 -0.08938197628588583 
-0.05182950200533928 0.1779905290837858 -0.01438215135480199 
-0.1610175537851075 0.00598283028048194 0.1083080286743021 
0.07505226990667899 -0.01690674784506789 0.02846852199504493 
0.03624692395781607 -0.06335824230217396 -0.007550670861180326 
-0.01993337795589385 -0.01791028510799285 -0.03366909774859172 
0.04170779929860162 -0.05194487181602572 0.03254870773333895 
0.06754463347771594 0.004096475955190234 -0.02946701998431047 
-0.1528923718991119 0.131475669403067 -0.07452678113018599 
-0.0427174511462854 -0.08430163463564891 -0.06278635003711669 
0.1003753636701924 0.0163060407836285 0.03098719325786905 
-0.0760382080600218 0.03814170675870833 0.101070094145631 
-0.02541999927798667 0.00408459057623685 0.1304968397419559 
0.07651696388043905 -0.08279425846012772 0.01544838339590988 
0.06936403142222841 -0.07427385709237892 -0.02009326083255 
-0.0246559679356822 -0.05021069973660638 0.07310398133227913 
-0.1187910886213606 0.1284050754281231 0.009646519111706739 
-0.04523302194205187 0.1527991681784716 -0.102761687017513 
0.004297991673244939 0.1538935706107987 -0.08545642372534155 
-0.09741948545870449 0.1415539554611796 0.04076002472589776 
0.07751673854065912 -0.02528510798776643 0.01993123209000153 
0.1413956872436928 -0.1055696728035199 -0.007777736698837754 
0.16017829343662 -0.2179617115254518 0.005642312960951373 
-0.1066158373698082 -0.08336145505091408 0.03988478093317734 
-0.1500537014878929 -0.0557736402948423 0.01353477070363555 
-0.1844992615819938 -0.1049781814998167 -0.003762204204044088 
-0.06160268490186242 -0.003177348981399309 -0.08131744918661747 
0.03346940349942817 -0.1961969383083242 0.01694067367689545 
0.0470661505624102 -0.03881628263190816 0.0675061136080209 
-0.1882546914973333 -0.06379128072421038 0.07575584970500328 
-0.0392839316018222 -0.06648841897782883 0.0515463007616488 
0.07052465843799821 0.009641147208910057 0.00117790129276903 
-0.1220133438983409 0.03637948733356743 0.04145776491773887 
-0.1468668718989853 -0.02648078760890486 0.07008098591718188 
-0.2058211895586724 0.07331438431658001 -0.03317465015884847 
-0.002149244475367892 0.1988211056019284 -0.1033811036003376 
-0.02211713482535135 0.1208359881909156 -0.01227515826587002 
-0.2596502436136492 0.07623212797298629 0.04580300726566711 
-0.09899523680382752 -0.0247487527661384 0.06501374327119105 
0.06748558032092788 0.1477958260262079 0.04524123540993067 
-0.1355097533028455 0.2532839391015415 -0.105881192580054 
-0.004476337580779495 0.200419376626384 -0.09136400491062983 
0.08875098906778515 -0.00965396809242468 -0.03625953367246933 
0.02032337118769802 -0.006238902338014301 0.004573298406671883 
0.1320507356343499 -0.06076492311985461 -0.006691037764715566 
-0.03004803852810003 0.04093150835304957 0.002557286253868812 
-0.0704066664672427 0.15200961129496 0.02045045161928344 
-0.1450686151402808 -0.01434842438692333 0.04638372690643131 
0.1442617939971849 0.1626083865486352 -0.013796918251994 
-0.1391733885659962 0.1564719230908005 -0.08940013603904583 
-0.1426363763468738 0.1508556423387618 -0.09536325957561122 
-0.06368526961545652 0.08801162516509338 0.0372720561802186 
-0.01781739712570091 -0.02576999139825481 0.05821071377450143 
0.00730604828503459 -0.1103170483471032 0.04490681861278804 
0.01225565623176196 -0.07392395444176827 0.003325818682095512 
-0.1775866353869127 -0.09570889820429593 0.05076876828731199 
-0.0686862594736016 -0.09265145665151801 0.07547748775507288 
-0.08411999039002604 -0.04608480921401812 0.07046324491533033 
-0.08792440120716316 0.3100699381180014 -0.09522499702099192 
-0.03519666362577323 0.1734848667251825 -0.04525506940614722 
0.1196615058568617 -0.003143102568996118 -0.07231790035811751 
0.052404314192141 -0.008319640351550216 0.02854667959968321 
0.05725953722175558 -0.01982413097289372 -0.0109855288371947 
-0.1308112362941239 0.03057422677036084 0.04353870610934815 
-0.06344487601819898 0.0735141325208833 0.01753972994215479 
-0.2632459396715578 -0.1620516880994327 0.1345800565695849 
-0.01272659969213905 0.04827452631070096 0.01325846081279798 
0.1012805983930532 0.3006150958685415 -0.08134827260582614 
-0.1877236812473681 0.1777553961935199 -0.04265412476673761 
-0.1841704263259007 0.0975101598866711 -0.01853321622307874 
-0.2055842166109711 0.1348463417833231 0.09104232863653768 
-0.1138909134625882 0.05326058541363168 0.07740815573511989 
-0.07804165101135659 -0.09263062192320133 0.03446503978085562 
-0.1593569008733093 -0.1795318507890208 0.08867791392046694 
-0.09234156579581362 -0.09358995653347844 0.1074945233940335 
-0.008123405780746749 0.1807747011338333 -0.03255989851689214 
-0.08082179947424241 0.3197403663373676 -0.1009296417962216 
0.1013458738584445 -0.0697853755066617 -0.119274687110085 
0.01265715949256468 -0.1027638805211583 0.0428398381275619 
-0.0288683497894883 -0.07060499641962636 0.1078190861274203 
-0.06598572811861256 0.03501880336134812 0.09530230613116415 
-0.05721521478124007 0.02692323528993668 0.06368487371134779 
-0.0458304371510134 -0.08114134822229348 0.05813038109567292 
0.04255746200450812 0.04129666841844246 0.04968852575628743 
-0.2323475925924521 0.1744976404868652 -0.03594004165639966 
0.1361862596479116 -0.01483828971662162 -0.08127936797164047 
0.2464586073803201 -0.1178891436136704 -0.08027050213394152 
-0.03172293593699759 0.01448379181737199 0.05716636138738281 
0.07029876831808582 -0.1568823923183771 0.07101350384530565 
-0.01865916661861719 0.03255346621589719 0.04964362736213138 
-0.0497595656007536 0.05615043631914073 0.07113454849674163 
-0.1101342460374639 -0.04518225373461731 0.1075181075750877 
-0.2396375217449193 -0.1202217833429747 0.1642457241636632 
-0.1081226923999524 0.2803859403863859 -0.0463434711662592 
-0.03464605501622992 0.1612244754877802 -0.1093603168791784 
0.1004565288996926 -0.06035082961113339 -0.09131918815345844 
0.1827627794958954 -0.1697797846387081 -0.0175706230141189 
-0.1062902724110776 -0.06047396410504329 0.1274041630286521 
-0.1392640159190011 0.09703703760621332 0.107510766778433 
-0.09351004442228056 0.000797905346248914 0.072392951104631 
-0.02081339475985303 -0.2077754410661929 0.1077088780492981 
-0.09673277982657436 0.09798261683970685 0.07054535773953564 
-0.251261029856659 0.386085424153928 -0.05862609908081258 
0.04428784125166164 0.08516829730891261 -0.09552382754734859 
-0.0007588876668368912 0.02109599005789528 -0.03633012512252284 
0.2936244915534972 -0.2208728254716085 -0.0038238515046132 
0.1051331409228821 -0.1025454757437945 0.05043783424099891 
0.02919951529138785 -0.06853544993604302 0.06533587987621775 
-0.02640142285442691 0.04557797719255563 0.05140461197545879 
0.01745544675862143 -0.05157999752633063 0.07453624091141044 
-0.07531665242288188 -0.1126853760760779 0.07300158238363935 
-0.0564270288363993 -0.02363763190828664 -0.04514248781413467 
0.1209866040620149 -0.1992134131030219 -0.0001343902114571552 
0.2094039480069159 -0.1650858793202461 0.02628205401358789 
-0.141106400453688 -0.1613938665469579 0.1199438261987437 
0.1470958444287668 -0.3053800099254679 0.09243688746658638 
0.01878682590063045 -0.03084836004232345 0.01169964842068004 
-0.02827309121651306 0.06528456905641151 0.06060659182320378 
-0.1013917943210865 -0.1875969604287816 0.1401126389318095 
0.09232064242441533 -0.2023565044220657 -0.01052410808084311 
0.05211520910496783 -0.05480559444571868 -0.06177870796570184 
-0.05490104139092376 -0.06287545983023969 -0.0114062459624694 
-0.2164122816574564 0.08094227094574864 0.02863003821427298 
0.03522379598661526 -0.1260518370117436 -0.005059608663592865 
0.1666003753445964 -0.2198965209223086 0.06484229238293737 
-0.1018781951375919 0.05176755842342266 0.06845876165351925 
-0.02689202741291777 -0.06765309462241594 -0.007962226985303232 
0.03894463862520174 -0.1674129358604044 0.0292920260810477 
-0.07327244320812401 -0.1061183551917698 0.07187361333947284 
-0.2215254768373208 0.1759625400306976 -0.03957603020786229 
0.02704129007757226 -0.03448919919378171 -0.05053690276837508 
0.1304520770846814 -0.1092491385263041 -0.03632107730198828 
0.1513722363358463 -0.2288764148585631 0.08899150412293387 
0.1467934146961109 -0.2169368305347117 0.071816390577436 
-0.02613869187087977 -0.07016953195527095 0.08174572909158875 
-0.02390982256187934 -0.1086761821991489 0.0398560635393644 
0.004996471213991696 -0.1747453461561999 0.08233422842627651 
0.2574233545104386 -0.4016105727653156 0.03028572796360995 
0.2968945274911987 -0.2048620988985271 -0.0634989003700282 
-0.0007324655563205171 -0.07377986298847729 -0.03058352301247963 
0.09420602782198524 -0.1505702009162923 -0.0454001850670213 
0.1218387979698918 -0.1711085687874133 -0.001282471475163309 
0.2859747860626157 -0.2372421128692083 0.006816563217985462 
0.1226960594851706 -0.1887011244064536 0.1416929607166889 
0.0624636289220105 -0.2593508752068968 0.004402015632771998 
0.03897372221804513 -0.283116407335313 0.01648475677250757 
0.08836397829295872 -0.011239896769859 -0.03045139637597605 
0.1410327851452131 -0.06214445401874432 -0.0102932675836733 
0.04560906352337693 -0.0953532033489523 0.04947970670309093 
-0.1907350490296102 0.01112572572725195 0.02681371615064245 
0.2924080204609925 -0.2467376627436191 -0.02800106805415794 
0.08936711927000608 -0.1893037896789348 0.05462246953820011 
-0.2884791172830023 0.1225131745480927 0.07844796409682396 
0.04536752664110231 -0.03146627833448346 -0.006259902105450894 
0.1121068758318584 -0.09815081732580828 0.02239298857469989 
0.02291897491795794 -0.1126390325769123 0.0103066648081782 
0.01080774229051318 -0.05189563447637601 -0.03760243583465908 
-0.06393615445226875 -0.0369331461985136 0.06182205706560038 
0.1193320263738872 -0.2313603300462744 0.02630976779284411 
0.3018621618138542 -0.4288328400004492 0.0880578143839722 
-0.06661349738586994 -0.248852811227867 0.07712213711920554 
-0.1637992508095754 0.03170305286594021 0.07335782350585772 
0.2266641778324747 -0.207054356388075 0.009995949069986135 
0.1200426374806813 -0.2410513986841557 0.02114890548837735 
0.2168445605663354 -0.2101113400887102 0.00512757531975079 
0.3187886485056017 -0.2599058338616464 0.01908963577327035 
-0.2119442691496896 0.0650418330962452 0.06177645987837424 
-0.1934703816327445 0.1380265914440229 0.02368520456187987 
0.2031669958826194 -0.1971125198047106 0.02010419389718078 
0.07336108409017739 -0.04929454148971003 0.01621258827747562 
-0.2070259251654481 0.03861374843809166 0.05913085388846408 
0.06246321988559574 -0.1154963207269315 -0.009596440979533088 
0.09240881201959271 -0.1569081952489254 -0.006396987960695945 
0.02912212818128771 -0.1212336562138815 0.01555111186088872 
0.1289700633860352 -0.1995935713669059 0.01592622825015225 
-0.2215831607367754 0.04662296406016774 0.09647119732853217 
0.222943979593787 -0.2034125981242254 0.00432761501553195 
0.3677685302275983 -0.2956175267008395 0.08303680056496728 
-0.1344425884704872 -0.006476446495749155 0.06134743616099394 
-0.1435097706317659 -0.02165757580884045 0.05056615140001165 
0.1904382854465524 -0.1693850751302581 0.00438110486539342 
0.1386453115576535 -0.3157195951504586 0.05368585461982297 
-0.06657982962773173 -0.1873729716131101 0.0258390983703836 
-0.1387617969586734 0.03276262463786034 0.01810902159172469 
-0.08828830401055565 -0.04823030186895378 0.05871224631182886 
0.2305032856325365 -0.3188358591781826 0.06649850346197611 
0.2412773480989979 -0.3296513409441242 0.02758884782523412 
-0.1038448671040734 -0.1202809387581893 0.03923988706952154 
-0.1804178897233655 0.1076028758022426 0.03592392854346545 
0.1307602247856335 -0.1830714885083294 -0.004064995191253799 
0.07982407409055946 -0.190521932923656 -0.04574543086439694 
-0.1963235640635182 0.06650889792207153 0.03493419945833677 
0.1498004614000341 -0.1628036161163176 -0.01377297900265516 
0.09228356205331968 -0.04422808342523797 0.04776576782769489 
0.1264865930715853 -0.1941885321113201 0.08793800701396746 
0.1845322565739854 -0.304440980138562 0.09103928158658238 
-0.07119734439149358 -0.04843511802278514 0.1152580457201742 
-0.03430904012036259 -0.157672355908543 0.1338998458394239 
0.2728548370197853 -0.3962247720046861 0.01768968842536576 
-0.06869095817933236 -0.1042451842263251 0.04378812516099715 
-0.1898399970300839 -0.08686866579977603 -0.02140875418912309 
0.03994444927870241 -0.1079488713349725 0.02974473420514271 
-0.07584840235943734 0.04596570995724385 0.07627799466090969 
0.2443662929174024 -0.1775435738921153 0.006232217573024315 
0.2594042448488786 -0.2201065655072336 -0.01250788145457444 
-0.2153598809761547 0.05551381298483247 0.0262040662153363 
-0.2286777927884451 0.1600304463376492 0.03015836886674588 
0.2151936002405402 -0.1057984687258066 -0.01647040945303872 
0.09262522996868038 -0.173361916856201 -0.008200242928709061 
-0.2641514062279464 0.09171930363738078 0.006135979969274048 
-0.1098763690520631 -0.03648442161909888 0.0192295039099136 
-0.1313269922205801 0.04253216428708254 0.05108982500227192 
0.04991947584916302 -0.06043209368868616 -0.01747146084509088 
0.149196735200474 -0.1637107694788699 0.0003496117956338667 
-0.2754640203250234 0.1301795664344313 0.1124232965525114 
-0.128409239902443 0.1114704263859072 0.0469915880086842 
0.09268924993556321 0.1074261034284193 -0.02607370463935057 
-0.2373039130720766 0.1526876327885028 0.03422886959206711 
0.04306083049318824 0.004245901527567437 0.000160124297926648 
0.1205949390900033 -0.1270082852643457 -0.08189791631117363 
0.09579167181860281 -0.0696940566261762 0.02604372296052343 
0.187468703875233 -0.23248398654179 0.01391647784763996 
-0.03717746104742893 -0.132489715257197 0.1131984447913407 
0.03310848314385929 0.01679017192179162 0.003389754115461862 
0.2693424238766521 -0.2549701309756727 0.01265043047750657 
0.2815281120647016 -0.1464222937742624 -0.05809896418943911 
0.004294465515400539 0.05753382920205432 -0.01408810788448526 
-0.07622623138590116 0.007295568205993323 0.0802163402945156 
-0.1218628217232265 0.1146593676985064 -0.004638309828848192 
-0.0461601613464079 0.03398994150109219 0.06228378953261168 
0.06720766785611396 -0.264678045861222 0.06106252485380632 
-0.0806496397639611 0.03136205669132592 0.1481731951299614 
0.1475021568162643 -0.064775589110158 -0.02164343912689877 
0.1653130024141433 -0.1764579156553382 -0.008243168284613937 
0.06561139965361237 -0.09826211469091443 -0.01652358705041361 
-0.06461903934337253 0.08836296112493668 0.06563053372468602 
-0.1471173827373055 0.1688297478655425 -0.07213919272329804 
-0.001094414815745567 -0.04788646050503027 -0.02702130987303764 
0.03461149337091104 -0.1329419546393808 -0.003622366578129781 
0.09701153534002066 -0.1166293974983627 -0.06744535822321969 
0.05176962676868922 -0.2088433804596883 0.06392510525325146 
-0.06767027378466833 -0.02225074457805053 0.07187069919987195 
0.09786419559571281 0.0699192360328794 -0.01625682316134811 
0.05566931724889269 0.2083489098337411 -0.04456098299266771 
-0.1371460022612159 0.2088964958947029 -0.02847413085844433 
-0.340059832608764 0.190269457487753 0.09508354587991266 
-0.1083767485951548 -0.03919734179184631 0.03437803564042047 
-0.002755615709616844 0.06957139668733786 0.01866492187815552 
0.043660382283206 -0.1419716977101124 0.001703526306732893 
-0.1279404484940973 -0.07318220231905744 0.04744342302761792 
0.05716899939691544 0.0101364002991054 -0.04435062354651475 
0.01897372822889987 -0.06749267920365452 -0.03790728975305531 
-0.2668672589527616 0.2742511771075396 0.01129723480638306 
-0.3343541351796787 0.202977683815529 0.0706638077597178 
-0.04515357262848145 -0.03034915104397488 0.02351647520202619 
-0.003862136472400124 0.1151628190367269 -0.05928405037869728 
0.03558108424450953 0.01107880112702241 -0.0401762583457099 
-0.02005402919340097 -0.003258912130318662 0.004818726167365357 
-0.2498019839742826 0.2353495495323542 -0.03612157415492127 
-0.1636351410745591 0.05486499970401379 -0.04106495139772751 
0.08007702626118672 -0.1886425983174095 -0.01863803528546986 
0.06352466695851698 -0.06286160646379958 -0.02079839934246246 
-0.06611131596586907 0.04421377928691966 0.02377877043889154 
-0.04139489312800564 -0.08588021723229425 0.002389040594520854 
-0.03987199376222629 0.03984309809839316 -0.02021223466240779 
-0.02547170737533482 0.1389445732681942 0.02634069388051721 
-0.1944341154269506 0.05572367150125601 0.07805485568080181 
0.01906145188676518 0.1621846085278173 0.02136125322798484 
0.02832530390111553 -0.04357652386045122 0.0008023743285824801 
0.00830807162038206 0.1268152089281333 -0.07191425796078053 
0.1754218407371591 -0.07919806528693052 -0.01509390236432468 
-0.05414767403073419 -0.01960584379987576 0.001326375151121322 
-0.257132990086374 -0.02326473033949438 0.1385118793347895 
-0.05106738817751907 0.02768164446807824 0.01372974041789978 
0.03109316848779337 -0.003191171200719838 -0.02057453474564534 
-0.03103346001513039 -0.02997996360531764 -0.001560232553263074 
-0.05658620647103341 0.08939629802454695 -0.01445526582812389 
0.08839460104249396 0.02888680040197508 -0.06229713320704752 
0.2137320446711096 -0.1915221385102933 -0.02853713952911636 
-0.05961573345453433 -0.162204206255259 -0.01816328516748135 
-0.1843665878383154 -0.0225274477690642 0.07260993369484228 
0.006496994015350815 0.1211998652672854 0.01696268965838018 
-0.003298736921352179 -0.06131934262531096 0.05873212675682594 
0.03321119288058417 0.0344527958199693 0.07316207908890364 
0.002955090561523236 -0.237107590712346 0.01838818810385275 
-0.1880817854924937 0.03795394761703198 0.05808624906497852 
0.01804152817723127 0.02280537401413026 -0.06374926394542325 
0.01414827278955135 -0.09673948898999589 -0.09944656993881748 
0.02845738735977603 -0.07544087244002191 -0.01486787177932248 
-0.01785495241121155 -0.0425205655939726 0.01301109407572226 
-0.1317149526052339 0.004431754114902867 0.05512184772787666 
-0.1352030220710924 0.01446796302271379 0.02552151958858027 
-0.07372032534255026 0.1391495790141829 -0.005222551799358999 
0.1402161473042465 -0.1903959600327245 -0.01625216429281873 
-0.01465372788676938 0.06798069674865867 -0.06966143369915345 
0.0704442858791464 -0.004461662416501913 -0.02081585450002242 
-0.09646594985149604 0.1210887402120998 0.038213263411169 
-0.1274036215057759 0.1193189595066372 0.01585350528008658 
-0.1079240194347642 0.1352431455732503 -0.02024107930258677 
-0.2911293670773551 -0.105109408608656 0.1345546900055884 
-0.1274887296333044 0.0987821950612069 0.05346091540133145 
0.0323654422241807 0.1669370815207571 -0.04258268944746268 
-0.03929659588432455 0.09948045369519774 -0.06916738569302124 
-0.1887376931448851 0.1040407927436199 -0.08092749557837203 
-0.1620460918152478 0.132815070254295 -0.04869756261507701 
-0.06049899073784454 0.1702061930330067 -0.009623704518621969 
-0.1405520535161321 0.05572106765247646 0.02958997938023446 
-0.2374549122612563 -0.004256386069730061 0.07226447651864715 
-0.08871837415464594 0.01836864431498948 0.022199786392909 
-0.1298174900887656 -0.02855781210958517 -0.00457547086260865 
-0.07659913439961706 0.1116506746476273 -0.05672473569983656 
0.1091363124091071 -0.1951367140419999 0.02669011755976727 
0.02997148788367396 0.0001218721473908727 -0.01896581984047 
0.001488247957162574 0.0994980248242238 -0.03110456128847464 
0.03358129855028337 0.07544275751326837 0.01117143574906267 
-0.05749544158711901 0.0646266493310525 0.02070513083886699 
0.01179568490751188 0.09940288027286474 -0.03765784491887754 
-0.2102889942181764 -0.03933207077411443 0.09843902317848821 
-0.2158870366418211 0.1579280796206669 0.06665340623900165 
-0.1208737335698168 0.2485321737364615 -0.01688252381414533 
-0.005083641809778402 0.08243811729692052 -0.0007052723809824484 
-0.1862341755401726 -0.01007703642205407 0.03882920678020935 
-0.1788698725078459 0.1683569607855766 -0.1095855795611137 
0.01341267851777745 0.1100678189455964 -0.0499405054848176 
-0.1083213334157335 0.1615683402478704 0.03718583905172611 
-0.1315698073815803 0.09642299587547132 0.06859263583609436 
-0.3019491322351445 -0.05762487337509752 0.1630912767315947 
-0.1401699400953336 0.1066301258362996 0.04816303207322817 
0.02286797114760013 0.1904004857153463 -0.04370471322112134 
0.1657290795253536 -0.06622569403190021 -0.02868520498861602 
-0.01947249059281333 -0.07498792113682896 -0.02981022260518581 
-0.05777775370309861 -0.0142806621380259 0.02862857047169605 
-0.09474664988612222 0.1683636614204128 0.04850181549387647 
-0.1039925756496152 -0.006184065600381721 0.01601629060232193 
-0.1025212567440979 -0.07398994767569361 0.07505102224874284 
-0.08757576401625997 -0.08017622185758078 0.1059883345749842 
-0.1575371307704047 0.1436531085749737 -0.02529999405229333 
-0.05081176357574848 0.1834425608755133 -0.05420826052003446 
0.1667363976248226 -0.2300601998916717 -0.004788639012075457 
0.1624262737705556 -0.2055722258466292 -0.001128994145054778 
0.03906080672239606 -0.1352088376500647 0.001026322950407327 
0.05367945659393039 0.02969050664167631 0.006069491519212913 
-0.1684436603401593 0.1739515577328151 -0.02208105382568993 
0.0150196530408612 -0.1926716585281465 0.08881927773215839 
-0.2627563235417282 0.06289169888496436 0.07576521587683556 
-0.2516445977141734 0.1056202737395615 0.0430140996287059 
-0.06491899260191647 0.2212213092296961 -0.03987045429759809 
0.1262705779016023 -0.01938566990817249 0.02206891241293498 
0.003840236230857932 -0.3128796320136429 0.04604630101023975 
0.08683479756282862 -0.08337114785412539 -0.04313431432380903 
0.080217730488544 0.01701572645434913 0.01500558014148701 
-0.2304299304029064 0.2046964580009833 0.04536407195111094 
-0.2439775625403 0.106248327335092 0.08319974520969459 
-0.1900665408057734 0.05552000085695122 0.05203031820870799 
-0.3202383068198611 0.2517116964725892 -0.09091091512736348 
0.02763505149131065 0.2397321191415411 -0.08282987068662308 
0.01838480546535795 0.06966660526280904 0.01647566694834041 
0.1839774991402403 -0.07195952103303985 0.002444942948515325 
0.1043412240881659 -0.1931555500259944 -0.01732774949873826 
0.09473422585762167 -0.04813433208953712 0.0214097868898981 
-0.4598192786083311 0.2829644125385973 -0.009472445263767689 
-0.2737626796784428 0.08545434352320354 0.1110670871013573 
-0.03021337269004302 -0.09461996866999446 0.09746300329056168 
-0.02772807112496173 0.1463430703604296 -0.00390724135438623 
0.05149680990174888 0.04322168032344766 -0.004499820323088461 
0.2016496999604 -0.2469782340256232 -0.009466087287000907 
0.08129758461263921 -0.2723873290396487 0.1076083518687278 
0.04246406943274089 -0.09460283777120253 0.06629508739005198 
-0.1085093380763271 0.09157627950197157 0.0127851898770025 
0.01459416405390489 0.04333393797828782 -0.06609949385185744 
0.1543290994421576 -0.1851134407728789 -0.00423122691097008 
0.1867947069701456 -0.2710257687543698 0.05236355447217424 
0.2142277149024077 -0.2150213483269229 0.04265482667455754 
0.0950395115553896 -0.01331123963799796 -0.01566370499142039 
0.1731741494243315 -0.1697497879696868 -0.01088326658692839 
0.01500006801257741 -0.2590961126596584 0.0188100015996624 
0.0882640036576306 -0.08512765547849718 0.0139219397167203 
-0.01817338510585304 -0.003748770514507778 0.09695143787888574 
0.03747517147774516 -0.07960188960165834 -0.03679715285582289 
0.1522892368307747 -0.3438799670678154 -0.01089974903938482 
-0.05931856918745714 -0.04974958766923428 0.0380109945263533 
-0.1600644302089223 0.1202422316381634 -0.03470870822606673 
-0.174537375116127 0.1168858063793618 -0.02457186165011172 
-0.01958095033948028 -0.06217275440035274 0.0335942821229924 
0.1315798607966319 -0.124304308860335 0.0752142877652944 
0.1812646364230323 -0.1357135298087523 0.0376685050852625 
-0.006032397568762309 0.1461866536409392 0.00819170195103002 
-0.326396741208945 0.1730588802063135 0.01703272780065285 
-0.1296143439009547 0.03374165906406276 0.05878826510593872 
0.1496165947781682 -0.2700863164341365 0.05500499863409677 
-0.07626631719359518 0.09191608159794104 0.02771010919941947 
-0.1151016615597541 -0.004578358923521381 0.0109120020547443 
0.08680739653457779 -0.02487145955637098 -0.0236223504170643 
0.1297932096876844 -0.1695217978583039 -0.02860555753231288 
0.1494253292570578 -0.1585823572849971 -0.01842247263604023 
-0.04632828539905164 0.2030865426047448 0.006634358160199416 
-0.1054025984356694 0.05580587823027417 -0.009748302682670577 
0.1391078749718923 -0.2124592180718523 0.04839515117847393 
0.1890985752849703 -0.2249524053874515 0.01774767750983521 
0.2311208190869178 -0.2466993333096239 0.02999174533059379 
-0.05810762359517452 0.1035557931206199 0.006159811353325007 
0.006641096741363013 0.004065526954742242 0.01788639234128723 
0.07763017740484747 -0.1955019737453602 0.0003034749896448911 
0.1384626008183167 -0.005102939075978374 -0.02474127445067005 
-0.1404013140760217 0.1390056620130398 -0.02380842759025881 
0.05966003296420977 0.0149897161134745 -0.02996952196915238 
0.274413411544272 -0.2360640064913928 -0.06145569380157388 
0.05126502221592537 -0.08078470148117392 0.02416603444593532 
-0.02806830491568391 -0.04398164530570069 0.07315952256798065 
-0.2707517220949193 0.1660602968619387 0.08614142335906316 
0.02366046672305974 -0.06266343148109373 0.0223248558277701 
0.168031365638705 -0.2101300662086407 0.03931022093731656 
0.03822300411078755 -0.1289651081569843 0.02757127664781675 
-0.0750571326646283 0.03459303577850528 -0.09553036460393244 
0.1978912411322538 -0.04574982640267848 -0.05671190566664535 
0.1810172702724789 -0.2618745833424315 0.0002771272754022666 
0.232508097882542 -0.3458121500943381 0.05034263597927534 
0.1450344574142736 -0.3073910353573517 0.1126821410083442 
0.03438111010317524 -0.07044878291124478 0.09386484672436618 
-0.01925503676052385 0.0945334372583622 0.01146335100755686 
-0.07159254121198565 -0.05769768991692906 0.03293626692510942 
-0.05538209422333764 0.1412462066971771 0.0002292934180276373 
-0.1315604976112869 0.3183155311394888 -0.04102640655132239 
-0.04456874155894284 0.0467875295581645 -0.03538291985765996 
0.02792436003403252 -0.2009552380085727 0.04832665793045778 
0.08965976000446167 -0.2462953237348139 0.09135068433037317 
0.06001776259386003 -0.1628100613707522 0.08995380824819907 
-0.0610279279528711 0.03634274062357604 0.117754820301121 
-0.08829199672295737 0.1092504789360081 0.01819699207325874 
-0.05433302475239266 -0.075806969390929 0.05562455981470517 
0.06857741210665798 -0.1100978843982905 0.05259641324292783 
-0.133948162670315 0.09738410526819857 -0.1079589776334897 
0.1115531069872942 -0.06786137963491486 -0.08305204376942689 
-0.01816884958897954 -0.1091717516414738 0.02345775680567413 
0.1341297646611047 -0.1641533427303992 0.005856403807877166 
0.1606824042762083 -0.09594547001075196 0.001061308190303326 
-0.1575429294786806 0.1927971258033006 0.001794060641812455 
0.2213765258282723 -0.1454806430202227 -0.0277088864448553 
0.5119999455272496 -0.4390651543766793 -0.05521814466599276 
-0.107819197927736 -0.1305766735410957 0.05793224422409561 
-0.2019151767026132 0.1140561339616357 -0.05655915676171985 
0.1736486382390142 -0.1060795604242404 -0.01487659629613376 
0.1737384826679693 -0.1366367889253788 -0.0007962021065620507 
0.02602466073149801 -0.1425894497233817 0.03904000052089417 
0.1259015062684894 0.007861545235006311 0.03160627130140378 
0.007683548292113157 -0.0086999592336434 0.02444996580728262 
0.08788187624753768 -0.1285324049319288 -0.03958318158695018 
0.2266579918954188 -0.2691828155715366 -0.04162916959260315 
-0.2015639361390695 0.1869385285083213 0.05437481569259515 
-0.07651662747063853 0.2183434350790367 -0.06179616961904257 
0.008197213357270238 0.07434399981520327 0.006975106507860118 
-0.1596573117708967 0.0725962130681396 0.06090922101604564 
-0.001612763230977057 -0.1427234486787118 0.05268190364331665 
0.239393945614701 -0.2517077946842876 0.0270574593145925 
-0.1026456830272178 0.06815603011493243 0.04036275834953679 
-0.08883246699322714 -0.06740011051455004 0.05531679123298678 
0.07404703234872685 -0.2276440580103196 -0.01896742347310074 
0.03228520418317798 -0.09325998257671224 0.0606786608356956 
-0.2522518401727579 -0.06545603055687664 -0.03518237536543115 
0.207821672855461 -0.1947252961508202 -0.02556996912920309 
-0.02610803647442008 -0.08093888095461656 0.04581733242413878 
-0.01106205937853868 -0.08007054392940981 0.05570721686175525 
0.03270034579086849 -0.1091960541382835 0.09700602682592707 
-0.05724151843356369 0.04232988907541417 0.04968496882529527 
-0.07368696261690472 -0.1578642352186131 0.08335848119088092 
0.02511633208455211 -0.2481812756675975 0.01885210709760174 
-0.008153351103675035 -0.03669422886613997 0.05894641180852497 
-0.09209630635315469 -0.05925484786660785 -0.003911026707115932 
0.051845381016009 -0.2011852010034517 0.04043699301579413 
-0.07909221427249356 0.03983501789962849 0.08040632945890544 
0.03207945525399594 -0.01930311933870905 0.001803069807461493 
0.1087837278831646 0.01057911306924 -0.002440645044983617 
0.118510133944784 0.05333230922156674 -0.02009264213305942 
-0.009640696040870009 -0.04303949617064719 -0.02605743811232655 
0.1997402706093075 -0.1807636318505053 -0.009261319040011902 
-0.0504767693300877 0.002908045634261213 0.01115204155203306 
0.07979003075691989 0.0266824101852422 -0.05513226110558894 
0.01138593315457297 0.08714561391760801 0.002461982369920511 
-0.2889177502575485 0.2781098064931936 0.000417447408243933 
-0.2408498031452961 0.1124169824020278 0.1031064573141899 
0.08343222642765011 -0.113230437714411 0.05480321966724429 
0.1087823434874728 0.0895411091972166 -0.01960205075126863 
0.02984467061610464 -0.08600891976525116 -0.03582359795851739 
-0.01921778485616715 -0.2194090075623321 0.02337305035024764 
0.2335778283905758 -0.2159653087714122 -0.05488645388574009 
0.1651985390335851 -0.1777646375757839 0.04689343802145982 
-0.01186939644347808 -0.03458174094245033 0.0684524178432297 
-0.397334510614486 0.240035357424886 0.04827806575962713 
-0.06204545742661052 0.03231901361351929 0.06961428891750289 
-0.009093384214167829 -0.1011891887701764 0.08041742765898004 
-0.05492197669978075 0.05323835770166892 -0.001044790018086065 
-0.1618697491844357 -0.03841937441425769 0.04682959174031083 
0.1455788609599167 -0.1278175681390519 0.08890275501466871 
-0.005963611479898122 -0.01335388115466634 -0.0142214761694156 
0.1843022442012247 -0.03641313129880928 -0.03967978142820902 
-0.003016565610232897 -0.00731884326940819 0.03019252690369017 
-0.1886543602469042 0.2156563248458741 0.02806155417617813 
-0.1074614473360802 0.05506182710103858 0.1171369142206964 
0.2280361763801788 -0.2573713923779278 0.04845887944910607 
0.1572914426527612 -0.1149654720827767 -0.01360622005078741 
-0.08338396097831532 -0.1316455939090252 0.02220600741369471 
0.03613867802815221 -0.1453797693146424 0.0339295816500806 
-0.03208258416025049 -0.07332335885844483 0.08640611362980141 
0.1246282836727021 -0.05703697030330827 0.06921792925582848 
-0.1696027023314078 0.1653122433166585 0.08567924936431347 
-0.2246955203089003 0.1491969505816733 0.06369084205703895 
-0.30662432659265 0.1168718871047952 0.09803942443972266 
-0.001485169336105888 -0.02140035317263965 0.002372365884945248 
0.02716316819981521 0.03388339946975245 -0.002105168216152 
-0.06877602781465546 0.1477701169033933 -0.04427661648667469 
0.006351584066029967 -0.07183381795817086 -0.02101429376310104 
0.08399259959524225 -0.08496568390607252 -0.08657549285247132 
0.07463957763453279 -0.07132490994642664 -0.05150922590731574 
-0.0204670170624531 -0.03069355127467988 -0.0361361913307187 
-0.3941577538078144 0.07904433033271284 0.08234119137937848 
0.01040060200518034 0.07146078674926813 0.0486621658123375 
-0.05819601384386806 0.01173220264480848 0.0186792831877376 
0.02681408464103309 0.04717782989086464 0.01021418021674906 
0.03607007558995296 -0.2023740413605451 -0.03292565738698747 
-0.07488737509225322 -0.01804507809384208 0.04526191506863309 
-0.1257328771370635 0.09136757492451443 -0.06186027805658953 
0.09200797276278826 -0.02778248050746367 -0.05556520669750056 
-0.1239202623306256 0.07470144525949927 0.02571549520936067 
-0.1011727010542646 0.05033343859181794 0.05577925666508839 
-0.2273078012497329 0.1616656499828724 0.05728414536397052 
-0.05635311436747996 -0.01602737235988496 0.01193406756121351 
-0.1395100009868847 0.1940739567064753 -0.002505664927155574 
-0.0583765189602613 0.06013434740665555 -0.05250186171269966 
0.04702693002667165 -0.05967991200575786 -0.07349208711041652 
-0.07804990443109067 -0.05443698411072878 0.0407855144273019 
0.01449032689700257 0.04258735345545192 -0.002732195191558709 
-0.04052102793766005 0.04391546171503805 0.01496726279085591 
-0.272062477808639 0.1574890636685215 0.0573277233238278 
-0.02297775104265721 0.03676289684718114 0.01830587363762735 
-0.06977795948494128 -0.04840189398231987 0.07814583057543367 
-0.08894583138280164 0.1590009314966968 0.06524942260368723 
-0.1646409849773755 0.1063215653302047 -0.07587845678703713 
-0.1356107119079811 0.02253609986369288 -0.007792197235884428 
-0.0102897325955448 -0.06339789191068128 0.0279483241018629 
-0.1412677812098748 0.1087670113746459 0.01439441211268863 
-0.1932263007040242 0.1142397608814747 0.06540569844648572 
-0.04215113457358748 0.04357517698632277 0.08230815869174675 
-0.06438140534924183 -0.1538779684504864 0.02658551348286481 
-0.06488752987246577 -0.1016639161429126 0.0352146419488012 
-0.07257870284356976 0.07909720372973696 -0.01142337975437245 
-0.1151871150741276 0.05140560464296752 0.02973605920773865 
0.1287414642676832 0.03286610748574013 -0.008622452002993757 
-0.1072942887979842 0.1761096101248751 -0.05973469113523749 
0.002631889518060561 0.1009023076293547 -0.02570321045995574 
-0.02685001896351821 -0.01106561851162611 0.0105874268136656 
-0.0298379034782814 -0.03041798363548929 -0.005411219722095404 
-0.05717419118798907 -0.1051756000270909 0.08790437919559765 
-0.07056204581533641 -0.05834100678165072 0.04060996600943443 
-0.06407295800233589 0.1543511396287763 -0.008176913322538303 
-0.03464415912076691 0.08270994564340077 -0.02585778908207604 
-0.2375659040345897 0.02698705508114612 0.04920025333423089 
-0.2617955840722748 0.06485183298451662 -0.05142556905195304 
-0.05165623567091146 0.1502398491036321 -0.1278524912384269 
0.0205847129394068 -0.03324589317439097 -0.03269255942718027 
0.0331374181425241 -0.09865447026284947 -0.02921829447155668 
-0.1042370924779395 0.07805642654731983 0.007049871885011736 
-0.006076774920227316 -0.04680951896066209 -0.002098396700548403 
0.138064581916181 -0.02714273610500516 0.00818222488769528 
-0.1365019345153524 0.161406492464834 -0.0207068469187629 
0.1846603173336235 -0.1390279983521464 -0.007640552379441251 
-0.1187723275587106 0.3278437897488689 -0.02098326626193069 
-0.04358059953994799 0.2343623483032807 -0.06915292143728388 
0.06426383593298683 0.05253049457352441 -0.05424624877787227 
-0.0555126874791033 0.04169793678419675 0.03841716245821258 
-0.1314612606936 -0.03506646203984626 0.06179497444203959 
-0.04107068840433139 -0.04288732929668116 0.02672621018428493 
0.03353234177558713 0.1166914822619919 -0.04580222372867052 
-0.1552296468075359 0.04119802950992934 0.01240455117506868 
0.06281492485704529 0.1088274742061729 0.02501276108194522 
-0.1252855526014583 0.2138549160395199 -0.03928717846445417 
0.07223556956076804 -0.01436866114973941 -0.1227546094893638 
0.08675698473364207 0.1662609151321472 -0.0956900251646543 
-0.1204091239040223 0.0517014797807094 0.01122961671677129 
-0.2100095996305271 0.0006637091516535311 0.06441511421991314 
-0.07537370446942269 0.07414339961871565 -0.006508315756952691 
0.09338511648059744 0.0270465475681749 -0.02353425911611715 
0.08912882643841287 -0.1466846481994728 0.0713006460593444 
0.1279873995326066 -0.3378480165439057 0.05621162750337331 
0.09659025087619076 -0.2238688564131309 -0.004637872667790925 
-0.1193014062775976 0.1878712225768704 -0.031003576605469 
-0.11868356094416 0.1096234608631422 0.005275118747772124 
-0.1856217517175466 0.023190700449352 0.009053013345387185 
-0.3455763234073032 0.1148301977578531 0.08973365745296387 
-0.04131370168533964 0.0979879346813278 -0.05018446937189845 
0.02493273700101487 0.124272783769803 -0.05597642175208884 
0.1514552921839936 -0.254241753378965 0.02260653217371273 
0.08944763499084681 -0.3225022420020852 -0.01639341538739581 
-0.03051327693363085 -0.1645999614018661 -0.04636547249969493 
-0.1325361719148128 0.1331771427670672 0.002891215287883156 
-0.3201431134379782 0.4125300542813548 -0.06448745752657507 
-0.2993670282808166 0.191214381921359 0.07589690807216613 
-0.2391543125263498 -0.008933488323458173 0.1072288227223041 
-0.1624375002344396 0.108148571389837 0.02848332043273871 
0.05727781080478508 0.0819411838712327 -0.06436238257270617 
0.0944472078253465 -0.1260068787871712 0.07593615939832889 
0.03127245189662312 -0.1991793110140065 0.06185945709115692 
-0.03256364024313235 0.001054206661540008 -0.02489035012124299 
-0.008770208262212744 0.02348315485731555 -0.05272878048063135 
0.1213828335609007 0.09591538348153687 -0.01543072005915601 
-0.1665627307571835 -0.01543173466555817 0.03349606263930119 
-0.1655196692067466 0.125149884090248 0.1143086690240135 
-0.1559756015547319 0.1109332796396406 0.08575546861735704 
-0.1196833946582953 0.08960892258643366 -0.01494062416117014 
0.145970043459427 -0.2629794557309869 0.06437639301441801 
-0.1317934371272242 0.06575389834570886 0.01256587160719435 
0.158340189945647 -0.1434747493010237 -0.04251568294256126 
0.1903571813647284 -0.1582236359152196 0.009442186372753561 
0.02745246296907367 0.1971575580615315 -0.05859064886511678 
-0.06050204475985744 0.04509351420679818 0.07556684253750431 
-0.09828681101530896 -0.0617903849902395 0.09507371976017175 
-0.06668337661145227 -0.06956971665449853 0.0303767686182919 
-0.006260906691117191 -0.01022470963866057 -0.0523965727909823 
0.03066399127781076 -0.08426074769438394 -0.003260703624086225 
0.09078578233465566 -0.09828839982146603 -0.01037531596585066 
0.04013841092253788 -0.01063687893681598 -0.01848349259337561 
-0.03211892840861616 0.1145437591642434 -0.06581983652841399 
-0.09772047189026255 0.2606792207825592 -0.008996044338357252 
-0.05582273718565602 0.01239333032550313 0.0815028881894323 
0.03115749070142155 -0.1217151970865746 0.06190588618530431 
0.07486569828051677 -0.08306948547425796 0.02957690445954603 
-0.08737060812559187 -0.1055011905550001 0.01548753970963546 
0.1287171493683111 -0.003920890735367472 -0.0410891815099259 
0.191343338323979 -0.2818155088490482 -0.05813421057151388 
0.1347677216929301 -0.140599280644585 -0.00133877870316325 
-0.08185289475329578 0.1656279031453693 -0.04673703628367116 
0.001256755438095551 0.04535532604600314 -0.01525378796185086 
0.08638243172028352 -0.1119222784588973 0.02121786375187231 
-0.3408327533922865 0.1003899275756197 0.1332260533559846 
-0.2829046841643086 0.08513172210143218 0.08904818340148242 
-0.03092807445227941 -0.009032935213434642 -0.04454537719147272 
0.05218147618221845 -0.1980687669858385 0.02116034143162739 
-0.1439975877974294 -0.03204632717820414 0.009659304372850055 
-0.1860522317315958 0.1521393852182478 -0.03819341012543424 
0.09026303037625076 -0.002530295884754655 -0.05304437759846846 
0.02350169858923364 0.04818781655888301 -0.05662577700131515 
0.03028789257730284 -0.2673715094515237 0.1298286835017499 
-0.4689496860565981 0.237568943084139 0.082992429427149 
-0.2320514134618887 0.09191154271124068 0.003291443901952228 
-0.1231054010760471 0.1121291495833007 0.04462764174954893 
0.2124266003682747 -0.2042695795697302 -0.06416010435409943 
0.043831397349703 -0.1781285762019391 -0.02663974660055727 
0.01123728838068618 -0.1068878521278889 0.05397956417312094 
-0.1406607160059108 0.3230485570446687 -0.04501667155135883 
0.02137168846787504 0.1180135769881731 -0.02760124891085001 
-0.09913475757333846 -0.009095813227594583 0.0372989271586061 
0.2205674196614783 -0.2275858433586704 0.0258871014135304 
0.1789481741206068 -0.1182025314517517 0.05429045265003503 
-0.111436877277678 0.04778887698792546 0.04094106877095648 
0.06825455849556666 -0.05347535768357008 -0.02659779967629972 
0.1298215283582968 -0.2626817492590781 -0.00957432706886651 
-0.06296038814046753 0.05234632406926269 0.02888167189101693 
-0.2594931257566977 0.2733836966774781 -0.02085006441002884 
-0.03778335788833286 -0.0001472562472180223 -0.04586299180636678 
0.02370925590771814 -0.04848686630018998 0.03150057388486572 
0.3703865674301031 -0.4364982129708047 0.006684735327994124 
0.2977643407629977 -0.2347636566871263 0.03529381003997324 
-0.309789709029131 0.2439533910207502 0.06503875342423546 
-0.1131558242246425 0.08228475845850643 -0.0779384060788733 
0.08599876580628801 -0.1677099862570814 -0.03562650010930789 
-0.0239380659446041 -0.001043480701379684 0.05131940264691379 
-0.244174742767905 0.1526108419699279 -0.04631853276132237 
-0.01069480360276907 0.03569119443821516 -0.08130530349018512 
-0.07455035750731091 -0.07171905650124011 0.02092287905917345 
0.06850739680868503 -0.01363026619844634 0.002927568101126975 
-0.1563793379819663 0.1631866388325387 0.006627702892580603 
-0.2840718735303612 0.2423048706394119 0.04399712744926947 
0.0554741453274835 -0.0738176654740984 0.008407565692556362 
-0.02055677068758268 0.005667010335721223 0.02742815244952967 
-0.2475155395849191 -0.04073414344525855 0.1103943486005481 
-0.2902667665074306 0.2247011519247459 0.08553802760333803 
-0.1067425364161361 0.1789277045769462 -0.04419430810729581 
-0.02130677099372235 0.1158973309870814 -0.05966514611631137 
0.1971984452516038 -0.1916087793581426 0.01043378986885443 
0.08614140554068728 0.004827677525089061 0.02440616181449793 
-0.2133706610864694 0.1735603350656948 0.05479235303222884 
-0.001988535951916093 0.153873769206317 -0.04081404657657921 
0.0238651116587891 0.08902285632913168 0.001080361929277714 
-0.1647377010480461 0.06115160098123996 0.06371540171155381 
-0.2252512647660624 0.1146660018862127 -0.004862481166941297 
-0.1582737492092197 0.1386578949377338 -0.03509019208059786 
-0.04369397882398534 0.100048998061363 -0.00599243223024979 
0.1375932577204278 -0.2673615551452139 -0.007353396781922609 
0.2198621315798547 -0.2969235071049532 0.01431083567583072 
-0.2589646515267857 0.1479941525794873 0.06670674897509384 
-0.2194807920408841 0.04288151472057234 -0.05255617721727143 
0.1221675295961859 -0.2021989146224197 -0.07629624110774351 
0.1242558315332555 -0.1293688519817768 0.03383705239605581 
-0.03953603241103857 0.002955737533029002 -0.08492304849050805 
0.1438102873623593 -0.1155004649053936 -0.0118849275596877 
-0.1323076249537068 -0.01077670309141702 0.02537237601612375 
0.009040297642703777 -0.1094669032373989 0.002358702751720448 
0.1008715045180928 -0.2773652890870082 0.05757601629613708 
-0.2803214965731468 0.2048951957282349 0.07851272246483817 
-0.2165358018805789 0.1336295743959123 0.09146463994107962 
-0.06551199183655186 -0.03829020135769592 0.003098158466091364 
0.1787466634889914 -0.1737315508346021 -0.007365010409502721 
0.126053434030687 -0.2401284514950854 -0.02849131238005762 
0.2838353115837096 -0.3686786736001512 0.02354792357403564 
0.04938878779646889 -0.1078893175460697 0.05406219718446577 
0.2474371506263218 -0.3843607471223094 0.07831915543597616 
0.1480237110211252 -0.1618712655346032 0.03393445644015085 
-0.1891138060855222 -0.02292557206074814 0.08174371972166339 
-0.09188107250006439 0.01768195285150754 -0.02106590175760436 
-0.0575552274263696 0.01464236989628178 -0.02444875573289404 
0.1532005546294353 -0.3191664555832435 0.02504156058597777 
0.0770577974853332 -0.03899656428034254 -0.0856000859734902 
0.07519454810111603 -0.1496803670898676 0.004227236578911954 
-0.06256168787210635 -0.145892133275251 0.08935493511819813 
-0.031065933101584 -0.1147853233447509 0.0784567105475896 
0.1237638254152041 -0.1671519201926453 0.03522247425193605 
0.04885700714377614 -0.1584369513746694 0.1155897559229904 
-0.04284489897087451 0.0505666822444517 0.06385911303895671 
-0.003915154271044726 -0.1823097117964372 0.04118093501298657 
0.2800265308099629 -0.4185282072272451 -0.01847729600205998 
0.4363475959033304 -0.387259581142457 -0.04362286074714974 
0.2893475241245917 -0.3692305191677696 0.08926620564853788 
-0.07507542387933747 -0.1299033888954641 0.1606570623419882 
-0.2506551527272829 0.1090778349027264 0.04355596008301255 
-0.001280570266599024 -0.1640039903045022 0.001841106115003992 
-0.1386946045752721 0.04738113755888749 -0.0212231259514987 
-0.1962633970431316 0.1511119374398916 0.0125304573723908 
-0.09991644134158555 0.05756230405801824 0.07168952454862761 
0.1379375818628145 -0.1187343643775422 -0.03886913800812147 
0.1376544323912729 -0.09221248966264957 -0.04251268837983196 
-0.01225022100476855 0.06523955587305755 0.004017724292265776 
-0.2202180144393603 0.09994535634053786 0.02119662395327517 
-0.2267487026716219 0.09819078495843551 0.05209252350575543 
-0.08683398560095343 0.1145258060098842 -0.01231025152825026 
0.04453230926727177 -0.01853432534528704 -0.06817037720633227 
-0.2785649603115611 0.1740177871173665 0.03151838442950999 
-0.2281267678316539 -0.1290835669087751 0.08078960354951342 
-0.01703730091803902 -0.06671507420790942 0.03327916227998527 
0.1951598685481467 -0.1477698352429378 -0.001386257706051028 
-0.03926446681681278 0.06123391714245691 0.03561581400264154 
-0.2851928256232126 0.02798327606194687 0.04943947419767063 
-0.2583165920665769 0.1105476106231227 0.03612096120522828 
0.1056614478237548 -0.1233485677933675 0.02504467201362496 
0.2856107459452837 -0.3126644379423797 0.02753842381474899 
0.02674498143176415 0.01445830926258931 0.02959023342800092 
-0.002930334382222121 0.07187569587269042 0.05519000837200263 
0.4110301793798288 -0.3947745101208699 -0.02665427112368594 
0.1707710246060258 -0.1747219524690199 0.01130898944906678 
0.0156569816459215 -0.02387135010327062 0.03680114650889248 
-0.27663773968449 0.07782342961820624 0.07969656417352132 
-0.2482993366083163 0.2120171923164944 0.03487277862088393 
-0.04411713757074531 0.1329318052132522 0.0275019058060191 
0.204227011884742 -0.1319520720656885 -0.02161408658875701 
0.002972933039367619 0.06799452104018636 0.02978906108338606 
-0.02881690423856259 -0.1636640261029025 0.1345728729787996 
0.1866233376111824 -0.2867279605666336 0.1292467760855658 
0.1912288357138598 -0.1831433105473625 0.05860413245067699 
-0.02286789371951511 0.06671230911488439 0.03174687185995533 
-0.1722940964818108 0.05996911632718618 0.003393587894445404 
-0.1568019792174658 0.02094200989501037 0.02882981606299342 
-0.2656723700160851 0.1374034714007794 -0.006493717372355721 
-0.01391758442765775 0.08192397490463559 -0.05470086225055479 
-0.07101041557715346 0.1286892646182704 -0.04261344301627801 
-0.05465297116508798 0.0471055133087274 -0.1256265877674192 
-0.004762627311654931 0.02813729036251991 -0.04388102243761801 
0.1049609664579964 -0.07025804255945149 -0.006766919655781817 
-0.0244704295831604 -0.01344901041539562 0.03004925510812448 
-0.1878445619075237 -0.01161793651027182 0.06737369956604261 
-0.1775874572913824 -0.02394854924398233 0.02314237447022564 
-0.2287348702317407 0.07962791796785595 0.0002102092791861512 
-0.2832989817201428 0.2233672031170952 0.02899950331421599 
-0.05919792660561948 -0.07036901652051454 -0.09360487990174755 
0.1651489185700206 -0.04805693456342862 -0.1668531271768594 
-0.04178515328903932 0.04800311687893135 0.009597911647444134 
0.02879763175085683 0.003082353764772762 0.04944149414993319 
-0.145982955695249 0.03743964935054737 0.06882820189954267 
-0.1701958209464905 -0.07498043674957904 0.08943676809011256 
-0.306552990168042 0.2025610945727009 0.0066174507384452 
-0.2902720343884034 0.2739395767469046 -0.05420846583836478 
-0.07654023836945231 0.1283571089784669 -0.03082920117006134 
-0.1659812067088711 0.2034014743846756 -0.01715255977830544 
-0.1226395898951275 0.04949661907401704 -0.0139813205554574 
0.05768129850979364 -0.03244558063320906 0.045320209369323 
0.0289351717034339 -0.04476700493512247 0.08595539109304244 
-0.08823369483059684 0.07557642256090319 0.07586236416397561 
-0.1903376166657188 0.06470865263149798 0.0994328581121753 
-0.1389483629072805 0.02133601071988827 0.03711988826593771 
-0.1314314350924283 0.122972226532171 -0.01343820786430873 
0.1022587121973552 0.06072519784731624 -0.05716673334321596 
-0.04005831858634346 0.2716599347450944 -0.07484123570027956 
0.2972115799439998 -0.01627188428156643 -0.194162621866877 
0.02351609874618452 0.1153496548274263 0.003482158194660754 
-0.0307021159122511 -0.1061073168848806 0.1280508233111166 
-0.1772608194050657 0.03188243383022228 0.09376426024986552 
-0.1318604598689656 -0.06443570455874882 0.1181545481415739 
0.009240406864208944 -0.02528515420464858 -0.05116192932406893 
0.02045412892663385 -0.01906652548036042 0.01427239045984366 
0.164663641009917 -0.09093918734248052 -0.004014739619486304 
-0.09567168281088247 0.04895764766637296 0.01853401835838491 
0.01041601611707475 0.1414726775364993 -0.04460181246028487 
-0.1219600147896747 0.2305799240200363 -0.04149165092189381 
0.01516399549936055 0.05715004078672149 -0.04478012930005693 
0.001968343841116336 -0.0297789724057335 -0.01480296516691702 
0.03606592876816585 -0.05067628730741809 0.01736423529282821 
0.05072569041503208 -0.1016669132702599 -0.00135531182454034 
0.03906181258994173 -0.00020678187723078 -0.003539221009446797 
0.09776916349687324 -0.02368880797181986 -0.0128603000793247 
-0.166762418210708 0.04473967957474579 0.02721653312881737 
0.04958227597317082 0.0630346004658915 -0.03479945601174175 
0.009404288685219258 0.01001197934893745 -0.08377723667408363 
0.2121603753238754 -0.1223964889327939 -0.1418795350596487 
-0.07079566567311488 0.08030954906327142 -0.02400148856524493 
-0.04600089800786049 -0.04146549339210436 -0.01210284656976595 
0.08935391109543446 -0.04271151043991562 0.02567778697091764 
0.1231857962778969 0.03677915805249158 0.00987246539970562 
0.05448593408699139 -0.004930839551267893 0.03469180465689854 
-0.1502779939837389 0.001712473429055591 0.05310796201623137 
0.06025957244577926 -0.03479005449555944 -0.02270646504410571 
-0.2178274774227077 0.2483965351535279 -0.07272222582528347 
0.1296827897158564 0.1113749587024004 -0.08010573013997929 
0.08956574928264401 0.03274295956454475 -0.004933444129274155 
0.02232012139919677 0.001671265654413599 0.04737769778206615 
0.1413568700322682 -0.1303932421196332 0.02072853898307623 
0.07613787457101777 0.06187094520767357 0.002059600681111155 
0.03416616837389864 0.08496421199402716 0.03223368665432138 
-0.1934663147988057 0.09221197721066766 0.04657353404087849 
-0.04693134654371769 0.2286735321873338 -0.03130617206244566 
-0.08874401036445874 0.1062645387510205 -0.07554529464016842 
0.07022475461155464 0.1112464752377878 -0.08939430652342653 
0.009225716635527959 -0.1169634091983251 -0.04149669877303303 
-0.000896497153746526 -0.105385284747164 0.04379840221882366 
-0.01583718004667748 -0.05618639395443194 0.09206124551149428 
-0.07084945880248089 0.04371511850409854 0.04258520627478079 
0.04047242988160955 -0.01438255738983638 0.01220009892766219 
-0.07570104124159902 -0.1001735756438143 0.07630685052044033 
-0.07991931914169577 0.04903228407431715 -0.0001301510293865218 
0.190310748514689 -0.1029392107149157 -0.02264863377656062 
-0.04972523893158732 -0.05967624855873687 -0.05168752345570233 
-0.02962953451200298 0.3087402802411903 -0.0249609171691147 
0.02217731428968182 0.1005902047683815 0.003415163107699192 
-0.03853873105803795 0.1078452564399369 0.03849585160325444 
-0.1954170014126381 0.1191515695626139 0.05063282205413094 
-0.1192438014854882 0.09171835182214461 0.01119120452351443 
0.06160417843421562 -0.1616394306568195 0.03882896665869675 
-0.246969773295312 0.04815439411211805 -0.01375702958564037 
0.02358175070448745 0.07131099313858417 -0.04236254783777723 
0.0179148143088225 0.00589066320356118 -0.003749736525681239 
-0.1586246015884017 0.1101133005260236 -0.03800898591360517 
0.1633352957968905 0.1056621680997807 -0.02961405199547041 
0.0562474628772696 -0.1478159969762667 0.06432049819265134 
-0.03302310548602302 -0.004886715774067822 0.04259599741178031 
-0.0006127844282737206 0.04700987197099046 0.04700381139442285 
-0.1524083215016582 0.009985778951274145 0.0370400968269848 
-0.1321228287136587 0.2367551471514527 -0.0163820924243493 
0.08019986660884916 0.08081654619788825 -0.02448406784339838 
0.1263912876522963 0.1867329384241481 -0.08994688318643136 
0.09030082292848769 -0.01646537339623593 -0.0370988840835165 
0.1630121114585834 -0.09994700551096856 0.01839843471930403 
0.06076887620892757 -0.1206188390859005 0.0543266926201687 
-0.1185345619085543 0.07671557220336239 0.01372381628328204 
-0.04153331696064196 0.09302378575973698 0.02005908876201248 
-0.1345269953335637 -0.00263518430095443 0.05633140016227263 
-0.1478210516207737 0.05066940237843481 -0.02671766353502276 
-0.01311313446330205 0.09425556009798695 -0.0642951872299225 
0.2967126147041784 -0.02836956364553718 -0.105525990217997 
0.02056827912148216 0.05409294774594574 -0.08804422957831542 
0.1260075611008623 0.05847519453572778 0.005491324131605815 
-0.161480938684002 0.01792278619538237 0.01997478226810832 
-0.2846618521909481 0.1651960652917183 0.007171820696223543 
-0.1484270107339647 0.3021389436167266 -0.02102822590576023 
0.2122245567098709 -0.195371806633222 0.03629386124626889 
-0.1465980201627422 -0.01492684120505331 0.005706014382930526 
0.009296061681038548 0.1121462674605491 -0.08667072086823768 
0.1675991504046611 0.07437460844956333 -0.0931200255035194 
0.1420593160671499 -0.1017940703284827 -0.07224444319313679 
0.2402584817525917 -0.2634698418558493 -0.01018685060605708 
-0.2491935488751923 0.1350807332828611 0.02484988652784115 
-0.3432260627590327 0.2554642390499169 -0.02066311910484083 
-0.2503646932817544 0.2601198885990886 0.002444106545048327 
0.3500020234763607 -0.2523424000344048 -0.01538461730826553 
0.330075646303183 -0.3233134794442174 0.05055329085716487 
0.007234880102192664 0.1073926791357693 -0.009863151446444961 
-0.2243625455202089 0.3156208735429744 -0.06687990169934287 
-0.05119667898597927 0.004881788900813029 -0.02530531370648344 
0.1346050855380872 -0.1366604167200253 -0.07607126734085511 
0.08351340523203843 -0.2125761277108799 0.1042416929907759 
-0.1882019080442821 0.1500081822812615 0.008060457595537385 
-0.2786281686036208 0.2152018664768932 0.01283693322072303 
0.1086882656504233 -0.09389741116028326 0.08375508368297739 
0.09177189114328628 -0.03699471938022842 0.002814069330723013 
0.02436964329497556 0.1103204299634408 -0.07623692477073708 
0.1176684998112794 -0.02193358413825412 -0.09112587872138202 
0.1172897680211084 -0.1000831095078649 -0.03651831170397991 
0.1173344261218514 -0.1665106994200251 0.04424227688040299 
0.1585451917273926 -0.2700192296766993 0.05265847085896103 
-0.2188245920518708 0.19865870721686 0.002540686751042541 
-0.2349407303733167 0.3375987691877096 0.0005298843307297392 
0.2179554325585258 -0.2027042700657834 0.04032699267609457 
0.335224711572613 -0.2892960524988318 0.07603083349527952 
-0.1116572659484407 -0.02958510966580691 0.08428355518427268 
-0.2196820377533193 0.1747872305700873 0.05609798142319374 
0.1788098928424607 -0.009724815040805718 -0.01652990708189459 
0.1656314034786319 -0.1237148119253352 -0.03827661094936392 
-0.04341536062414594 0.1672975260382965 -0.05306378398167709 
-0.4772134457745268 0.4026342479621085 -0.02472991363029724 
-0.4979661741943796 0.2908551556987254 0.04817194559065066 
-0.0696005205759803 -0.08774437761729996 0.0272793501802077 
0.2916864015611264 -0.3719932560111482 0.03175235376083528 
-0.0677309365023696 -0.03012497350230157 0.08326597816973764 
-0.0947674073522654 0.108320866146364 0.07090616719003413 
-0.2110223824910937 0.2000533064322342 -0.02209775744369921 
0.1668518996724753 0.01617797922410937 -0.1459667640354465 
0.1762534921523261 -0.06754259832775956 -0.0474403252928054 
0.08117740717692558 0.02658977471499192 -0.0434845908319182 
-0.1556175858862092 0.1552815889735973 -0.008203188343804103 
0.009736890885415845 -0.02548348193262783 -0.006232880290230598 
0.08424246627601063 -0.1372489447966197 -0.01978879495821123 
0.004507635155705465 -0.08150944175106549 0.07487938658602358 
-0.04984854469661872 0.03760746126420211 0.009603191822915176 
-0.05017583134466345 0.06805691896928955 -0.07313561704837397 
0.1022499887450676 0.05297056093942624 -0.1102629553496861 
0.06183515207786504 -0.1258031876562638 0.03928720921926324 
-0.1744368615420614 0.1465335041393091 -0.007244588472041947 
-0.2314956874889424 0.1878118543794552 0.02728041759709338 
-0.06964849317626066 -0.05098426264050787 0.02281843787400526 
0.3005744838173669 -0.2625164453033613 0.03026625336966214 
-0.1596149204444199 -0.0159202917308628 0.1421590264038259 
-0.2694563858238473 0.03350075884375304 0.1403584835685024 
-0.08855990939940285 -0.03511839692949456 0.0009328627811181319 
0.1973446967115178 -0.2676727156490707 -0.02353023947599142 
0.2328857976812551 -0.3225003858670216 0.01327855665486907 
0.2856410709761659 -0.2734886940934065 0.01565719896869965 
0.09325507605346897 -0.04700238831195321 0.03217329792624569 
0.1218838744392476 -0.1702063409356044 -0.03727333674729538 
0.0843822292907651 -0.1851228198133815 -0.01755597761033838 
-0.2306643335164205 0.09931768654200272 0.1156988231248387 
-0.1773924862321339 0.2492055238702215 0.04269347710405717 
-0.004725624954481373 0.08250978424932236 -0.09061097431317464 
0.143662579932215 -0.2569292213590174 0.01441249328422219 
0.04407139804019363 -0.1608350730626396 -0.0138209849847547 
0.001351008603830796 -0.1804702405536466 -0.03553120108219394 
-0.1229839862598584 0.03705747737976056 -0.005768019122887668 
-0.0724121742364609 0.02866947634564018 0.0006064068643245916 
-0.02845386122217411 0.009161906972974639 -0.08976590798058756 
0.003898351063392713 -0.118845539934451 0.02873112220329841 
-0.01031205489758252 -0.05355057295883642 -0.05524732404793336 
0.0781189009933617 -0.09651454155431091 -0.03529583920211511 
-0.1491591673394067 0.004722562996185876 -0.01117505133594218 
0.01266524750544128 0.01303116085403784 0.003671352744173027 
0.2809989106746562 -0.2481951930874916 -0.0366387220399097 
-0.03316310775815957 -0.2387285425074654 0.07729002169390957 
0.06401609299253229 0.04170611024875589 -0.002540252514415043 
0.1085985480869485 -0.2369545467028088 -0.0305817205803566 
0.08628739203857147 -0.1710928411830445 0.01808023791410094 
0.1935332011076362 -0.1634430551154946 -0.04333290019840575 
0.1529613566105277 -0.1432156545949105 0.05177686030417433 
-0.2658481805769966 0.1940205682925044 0.068355042294481 
0.1501926737924932 -0.243258392183217 0.01764238979343112 
0.1294331193470962 -0.2088239426091163 0.01061986580574348 
-0.1272271631043172 0.05931692670054592 0.08294537654166549 
-0.1767216389604088 0.1053497810181266 0.02081162374719428 
-0.2535670829224623 0.1478042883249369 0.001830962448698173 
-0.04870310532226032 0.00677277768193806 0.09448738722813861 
-0.1207577782650175 0.1545538388528782 -0.02477990146799457 
0.08775001658355416 -0.01479006007738498 -0.04894568415035083 
0.1010563717881747 -0.1753746431304401 0.01356812471365713 
-0.0945387964027055 -0.06815712670824779 0.001929852642110432 
0.3117355673758495 -0.1327683995813242 -0.0601058452763792 
-0.02879909279200967 -0.1454794960362603 0.04524786831795305 
0.02033060223085218 -0.02711027802029832 0.05889945832412113 
-0.09612098963481447 -0.1317473921806322 0.03086424680556695 
-0.09205733984365223 -0.1143709725914545 0.1473376237127971 
-0.05871590798848973 0.04853990146946363 0.0644842177320467 
0.06214411041874263 -0.0788349916650565 0.0711331875424039 
-0.2030695703405326 0.1571758569616589 0.04038352134817724 
-0.2253644595534161 0.1658054143211867 -0.03208956042439207 
0.1230719431588114 -0.1377894689853434 -0.02428455616006109 
0.08316552142476032 -0.1531954561184291 0.01626682564022944 
0.01462021615082349 0.2415420370367175 -0.08373159124610845 
0.02341358024944085 -0.07947433999723516 -0.05424875826275213 
0.1271211461150737 -0.06954833852392731 -0.04217515960881461 
0.1847970335464048 -0.1797176355955716 -0.01114984512469375 
-0.08122607102570441 0.02753986588288184 0.01742957025520362 
-0.3798331029060902 0.1625730938629641 0.05401350872065215 
-0.2335683961393998 0.1919221459948215 0.005253889933778758 
0.04811285241478121 -0.06270185098898193 -0.01535230496566758 
0.09766808584588713 -0.1357165599932824 -0.03614546065525472 
-0.1125489404694764 0.09354478479968795 -0.03081641862869412 
-0.002686961705675138 0.01479037322710925 0.04400726549907672 
0.1000506850728741 -0.2268596636826107 0.06687058295279388 
0.08476461388466627 -0.09168456625078263 -0.02719331121922063 
-0.1080221867735384 0.05029810742568026 -0.02830131484516837 
-0.5392169151028853 0.2000978377541895 0.02500364149661612 
-0.1924505409102302 0.04578651982204598 -0.006449071857144823 
0.2173205323735077 -0.2450276580338353 -0.03816797134470008 
-0.0001828475626286663 -0.005008170101693585 -0.01158615219865483 
-0.01887303202449031 0.2231874480014191 -0.03942241137617199 
0.03118737507434378 -0.03736236229144499 0.008046630904438055 
0.01668528905677771 -0.1413084198042285 0.1041322829250081 
0.2189104127447614 -0.1384787376264838 0.0156332607772624 
0.004091709144193902 -0.04061679172464426 0.07476144707766211 
-0.2947034854437017 0.1241124118504873 0.1179624113769927 
-0.02467206086991744 0.01093014475795609 -0.01131477225187361 
-0.02749659472000954 -0.1693920138598512 0.06420850141024224 
0.3402200768680112 -0.2174895227547707 0.01200630868738825 
-0.06948591340819364 0.04261002909720982 0.04391416125134282 
-0.05097040047724978 0.007207215377692985 0.01324468914380842 
-0.1201737014795245 -0.1173043806253558 0.09380878369421454 
0.07205065475431892 -0.09341583172384534 -0.01502136075329867 
-0.01524677379216624 -0.09470900924988766 0.0174469803493784 
-0.2265786727453152 0.06340153953299303 0.05269471927194863 
-0.1658272007654182 0.1111013047594194 0.01908092419988379 
0.0003916122137107986 -0.01879145554869797 -0.02766599002621828 
-0.03310459014769098 -0.1830780932148372 -0.03343286706061839 
-0.02976757567173068 0.0185880115979794 0.0142470953485739 
0.04636661535573058 -0.09339158297937966 0.05965598168536428 
0.06012824681706782 -0.1636024371547234 0.06373274160705238 
-0.005387730764330923 -0.06766625297548307 -0.02592695691103255 
-0.1286694684209972 0.06215688805512597 0.01719940763100005 
-0.2362079572788101 0.0008560205795296361 0.06799210666740114 
-0.1505670236537503 -0.03668917003101591 0.03132454283251934 
-0.01369792069625591 0.02911522050739391 -0.02614769043720315 
-0.0265585252861201 0.2160519418086709 -0.07747296905535882 
-0.2037384387714821 0.1904529374235679 -0.05881969676837255 
0.09901585222474654 -0.004186047977051952 -0.0335386778148786 
-0.1132022494804884 0.01092711069379648 -0.003408250693347457 
-0.04365621794563082 -0.07766917490158186 0.04116126770604813 
-0.161488347501389 0.1068769214520014 0.03017045318669045 
-0.1990600583094881 -0.05484210840875035 0.08221523241626638 
0.001196424124844195 0.142980600860214 0.001156628558296931 
-0.009078426860877922 0.004877748209818736 0.002752041923574149 
0.06078742020764537 0.1181686740077736 -0.02572965344785868 
-0.1383882610715487 0.1351446858467878 0.02256739020596175 
0.05000945121832807 -0.01571066706212154 -0.01196788631172486 
-0.2915466230393166 -0.02692312466369469 0.05497584399806044 
-0.1088423292529649 0.04463377322116208 -0.01746915796888817 
-0.148594635110309 0.04383250078736752 0.04326421327715276 
-0.07213056717206499 -0.003407090688872004 -0.009164539775219058 
0.0811650605075178 0.1106126558271155 -0.02081466277773315 
0.08924460520084858 -0.01743694938978776 -0.08450087008183703 
0.03237353387692779 0.1530834689060789 -0.09328473415814188 
-0.130967645760168 0.2042746672704535 -0.006517457823584416 
0.03904021053684334 0.03279306438542457 0.06731759627017804 
-0.1652327610875108 -0.01523998702309776 0.03670228496282893 
0.03956436186389518 0.04225691928061958 -0.007913722841854926 
0.03725495292557673 0.06259199560555659 -0.02436418130225797 
-0.1409774575356925 0.08487344301773792 -0.03948188064977375 
0.05206873661476304 0.060851511851996 0.001139046610174028 
0.05641663760948602 0.08828409080974362 -0.01110906391174389 
0.08958327762290849 -0.02479750665071278 0.03728040271681598 
0.1223744202788674 -0.01440254585009759 0.05995392707708953 
0.007928642479430974 -0.08659868471520521 0.007376558450769462 
-0.03082513198583768 0.04900119115701468 -0.05376418497833955 
-0.01294673358602451 0.06825960039676443 -0.03569539167079097 
0.02719495587355041 0.01565994987491377 -0.02334997796297583 
-0.1241295066417725 0.1030190351845078 0.01627285711675111 
0.03385557240129367 -0.09618924974466976 -0.01023132061618807 
0.04071128658382171 0.05855762109418514 -0.03481310835599479 
0.02197076113177043 -0.03102760946927388 0.006426648016344305 
0.001535616909811097 0.009914291001609787 0.06128117603012673 
0.06662575511056774 -0.01990090975687986 -0.009457755815161171 
-0.1932848406524272 -0.02662295179589214 -0.02915670823070135 
0.0732684856862032 0.06872411730722883 -0.1070310308107923 
-0.1903293606438635 -0.0324340260916311 -0.0739841442796645 
-0.08371175425972729 -0.02946696576127898 -0.005269225150692662 
0.1489114409716919 0.03472158065067033 -0.03498898096225418 
-0.01378655862647263 0.05293012265913333 -0.006932377816503941 
0.05905450595259931 -0.008291937352178029 -0.003066173490918813 
-0.07681466593915921 -0.09406198973826636 0.1200114472699696 
0.004449937453670863 -0.01581859943404134 0.05790707178923691 
0.007940368116880644 0.1109818837105206 0.02504250735838049 
0.224170347535155 0.004405813281844981 0.02149253332214676 
0.05727720039134539 -0.008211846129497045 -0.002840233917872326 
0.06123844958847098 0.0791281714855939 -0.07987166011396982 
0.1001854354626705 -0.0836063140677054 0.02141390136730197 
-0.08786253593421212 0.09153209252864165 0.02468197686585693 
0.006441571303415607 0.1326563242058103 -0.05592549912693534 
-0.1847366547956575 0.0973519174621291 0.06599269445898676 
-0.0338506093317203 0.110203720070391 0.006198302877203579 
0.09547852468382427 -0.04289670637960079 -0.05106984379283671 
0.2129719274415449 -0.08610865362751284 -0.1374298270554081 
0.02515188346425897 -0.1419860957581029 -0.0506483582763659 
-0.04947084077020967 -0.02876580448795557 -0.005961780161081156 
0.02684233653778937 -0.07806756667041964 0.0378413715432238 
0.005311175585121632 -0.09295945855847317 -0.0005727691116265262 
0.1092244038604021 -0.1386190830135064 -0.001556394289799957 
0.0353819852874482 -0.1353171872559399 0.04894826284010707 
-0.189000228616613 0.01153150113147652 0.06076431294608919 
0.02215274287792883 -0.03271507506347905 -0.02449305261266032 
0.0347250634226622 0.1956974886321103 -0.2012705864455311 
-0.1478518217765226 0.2599533169268576 -0.09145141141984985 
-0.04165959355658581 0.04808869463858925 0.03386498755055566 
0.07504788859239067 -0.115587437935951 0.06403861465820462 
0.1391789808872507 -0.1313334472595234 0.00664495614147572 
0.1650665303606904 -0.08672787191146041 -0.01234396874288975 
0.02745815877766187 -0.1868896712439024 0.0874974968612748 
-0.1685190818912695 -0.02320216283591341 -0.07343084287198935 
-0.0583473906485877 0.0241759448418387 -0.038685224380027 
0.1746665779432899 -0.03246495867322687 -0.1322098936146265 
-0.04443349080542736 0.2293780596643165 -0.137470984781155 
0.02922241633950409 0.09704110671685236 -0.02163596803866269 
0.01480277546560756 0.02499182306909497 0.01162185387565787 
0.06119642325102818 -0.1400778656972466 0.02770168333419194 
0.04293223049159278 -0.1083959363451056 0.0106111733512763 
-0.1941513461864831 0.04135059361314587 0.08760625202199027 
0.0146654241600766 0.2226196102445225 0.001168113979353665 
0.2217900837830553 -0.04531823967842046 -0.01478699091933683 
0.2340855858123624 0.1369487962624606 -0.187491779188118 
-0.1007292694151797 0.3329290850215934 -0.08927740401578359 
0.007413357459071408 0.1820673816065395 -0.02541082836012238 
-0.02391970460064646 -0.06970706607443604 0.02354937709535062 
0.04141457201216595 -0.2061363746980246 0.08111415263715104 
0.04678075228320459 -0.02037770293112075 0.005752146692837706 
-0.1579180919354493 -0.006097601338352172 0.02145021881249293 
0.09066077673042874 0.102175075286957 0.00315522201812051 
-0.002144745921777308 0.1383494476959442 0.05159365147063256 
0.1224553874369083 0.05411526856312227 -0.02008791171330641 
-0.157949833451356 0.2682935525696898 -0.09287581810265058 
-0.02189634906266981 0.1562721624572223 -0.08908133061573754 
-0.07035755984246381 0.01398200904284832 0.0921947119977882 
0.004160204669476955 0.1153500841413774 -0.03056647744253802 
-0.08048550979101786 0.1161835182243589 -0.04384000577846151 
0.0657320328474895 -0.1595163725804932 0.03635264107711415 
-0.0640273282623712 -0.01743151494707989 -0.07716796996177033 
0.009512041198811784 0.1488170812215956 -0.03736833207068287 
0.1976751233326917 -0.1792580846822061 -0.06403379154746888 
-0.04060475268433268 0.1179781204809967 -0.1269104288896842 
0.01383359016202974 0.149491761858427 -0.05151769640287095 
0.2505872663434666 -0.09275598655700093 0.002823134022988774 
-0.09237003890083469 0.1234590440352863 0.008704589541728799 
-0.05706999827313808 0.1968305232880967 -0.03911723823514915 
0.008023976599810377 -0.07161302627838521 0.02852854329457954 
-0.1514116085092212 -0.0315094753166628 0.01424198332411771 
0.06099942270376513 -0.1336832331190559 0.07629268531304309 
0.09825566313477299 -0.08519181767638734 -0.001639594010618997 
-0.02620208465968868 0.09062428667291679 -0.0689012722193091 
-0.004663803604000082 0.1541056164636815 -0.04447935679983425 
-0.02844971232429293 -0.02054066204278346 0.09189142756460762 
0.08287684085728178 -0.07739262701642981 0.04209824878197755 
0.1195712250277667 -0.056800745381232 -0.02936131678853414 
-0.05051212096047528 -0.0733028555902888 0.01035200699901157 
0.03816628230131304 0.001247976916169101 -0.03988143666159163 
-0.06420340575921141 0.2395130942671263 0.0532890700421358 
0.07934975355813094 0.06419654047207972 -0.05686371559590783 
0.02280118120616158 0.2429255427232978 -0.09290237838188477 
-0.1402243784503492 0.3275242392615818 -0.05691293660026948 
0.1427865282547057 0.1590414701713137 0.01248290024690828 
0.1607385868658792 0.02566672721564167 0.06161915221597476 
0.2466068957350491 0.01698647629095695 -0.04035327492814277 
-0.05273536873342662 -0.2238331101180744 0.06108126250017371 
0.01730779023902993 -0.1287976194839218 3.92771824549005e-05 
0.1425505843269993 -0.08729916074902225 0.07253398759459172 
0.1665193120862986 0.04111513376972839 -0.09219153797855562 
-0.2035715770017075 0.175425092880319 -0.09000619970815996 
0.0530802238095451 0.0972640843131912 -0.04768105303051489 
0.107725392919862 0.01703684524300682 -0.07957131858118925 
-0.04908684230883648 0.1170639407745407 0.01245058418959753 
-0.02698481414263073 0.1853898458054562 -0.02661419266015916 
-0.1780233465645563 0.1469731955531156 -0.005548187686989369 
0.09115042049280381 0.009210270886063878 -0.09344812289112729 
-0.06776016820829978 0.06745511711439063 0.06325795221947744 
