solver_type L2R_L2LOSS_SVC_DUAL
nr_class 3
label 0 1 -1
nr_feature 4837
bias 0.5
w
-0.0436122962777822 0.02275707984844161 0.0748800747721497 
-0.08380740201312059 0.0136570854276387 0.05072367807882435 
-0.1209227210797156 0.09134512914166734 0.01859123642331802 
-0.08605164880970095 -0.01787086675385957 0.0518141317282818 
-0.169533259317505 0.003885336459058703 -0.1163917368493491 
-0.00376286067020711 -0.08713731924895006 0.144644207727342 
-0.08378369930094656 -0.03370939474407755 0.04433794462075696 
-0.03622023981049906 0.0078765674063097 0.07336792177324808 
-0.1017517733300834 -0.009866280588279224 0.007119632587161372 
-0.0752105229738594 0.08789855844034972 0.001424422856638963 
0.05893708213668956 0.005020472449780436 -0.04377115541608653 
0.1544123954966347 -0.002774633671725812 -0.1525226479261507 
0.03563002470962251 -0.09326631999864481 0.007730720228037996 
-0.1852094981144601 0.007932103136387508 0.02626839976910106 
0.005995347048720485 -0.07393341839520441 0.02711205699381041 
-0.01056010999839902 -0.04138382891567 -0.02457216891458603 
-0.06769943034287873 0.04183591788882246 -0.1097134191063314 
-0.1860476940265728 0.1122799763037484 -0.02677161650908909 
0.01550019421843819 0.05434500609815521 -0.03930552845407725 
-0.03131966474027578 -0.002540046008915595 0.05111993282266709 
-0.06302300436960645 -0.02321725583607702 -0.005044198992051079 
0.08573081456944624 -0.04486060331966456 -0.1188024013978182 
-0.05984382906215958 0.08057368408414099 -0.04499620925241805 
-0.006092432278699924 -0.05287408914960641 0.1712864035273938 
-0.03798443565710873 0.08510420919582457 -0.09340363948841163 
0.06775309482298439 0.00619249130323466 -0.002505365605965649 
-0.05048881509985555 0.05608428689638636 0.08036761439572468 
-0.05171990963020227 0.04880172485720969 -0.1136239071969361 
0.06636946861156232 0.03723229232323253 -0.160680376270228 
0.07287920524102717 0.03090336049205571 -0.1385445292858132 
0.1101992003535356 -0.00902242821678091 -0.1242948409366158 
-0.1031482997754836 0.1119719440921992 -0.08980590752155734 
-0.1119917754947966 -0.03152173031319072 0.09060048379384048 
-0.07537762597648803 0.009656209132651611 0.003932083000311125 
0.04431552946592839 -0.03369383429089915 0.03425193724905432 
-0.04164184431341505 0.1155616665637113 -0.08586473988471417 
-0.1613986098536469 0.01995150559838645 0.06671915954485284 
0.0952531750944262 -0.09011692191525462 -0.01109669663575303 
0.1563748435810844 -0.1342576348362936 -0.07822511929428258 
0.06665127778493439 -0.1396263654236822 0.1514881642132307 
-0.0835100210898394 -0.08171718069504806 0.2001399018475311 
0.02959937902787656 -0.06383547074892353 0.07571385436268356 
0.03767976402670669 0.006808643657347894 -0.02198993162548633 
-0.009710776976249554 0.09594134318728499 -0.2822436051726572 
-0.1283693483139418 0.09075885160130022 -0.08999533820862864 
0.03850208622457296 -0.1476342169339213 0.11745659240943 
0.1903170176258371 -0.1372393624769271 -0.1421922758026089 
0.07151253450561287 -0.02321375063223367 -0.06499181879483544 
0.0988089899778898 -0.1032227244125396 0.0330461701276596 
-0.08767960281975584 -0.04446585265382146 0.1159279491722788 
0.02155514658222734 -0.01287922815370629 0.01263729143445356 
-0.1330325466337758 0.06871419286577976 -0.01483994405719105 
-0.09767327573228218 0.05502509685605869 -0.05161166348619659 
-0.1110557509697585 0.01745368171138014 0.003351231527470196 
-0.09677342650957654 0.09683180237504484 -0.05424257128545448 
0.1878308938066688 -0.07874363607475182 -0.1478247874930862 
0.122478180568991 -0.09256939862280096 -0.08067517367363138 
0.08913713070157532 -0.104594728012744 0.0487526671265164 
-0.01480469480222348 0.0559608552831206 0.05277763995635524 
-0.1161355203642544 -0.09277849469037684 0.1579989658051333 
-0.008896239121564155 0.03191867831291977 0.05014382188269611 
0.02346894972728116 0.04154944244534575 -0.1598458437188231 
-0.08519115980494653 0.08587554586005479 -0.1158620293733483 
0.01538267499787231 0.00218837321525555 -0.08522289429167673 
0.03205853616898426 -0.0506377094919331 -0.2253837950228385 
0.01710365088014955 -0.07445956333468645 -0.02929734423129641 
0.03593869460835132 -0.02220381493716033 -0.08713183267065552 
0.01772931203506777 -0.02154241420020952 0.1246657491364382 
0.04003368121041553 -0.1528531343701966 0.1151767483708334 
-0.1208681282667546 0.09220443557308758 0.007308014390930206 
-0.06909704765541282 0.05070566976581078 -0.1223695340075116 
-0.1330491542999303 0.1685102542709946 -0.08771720483475556 
0.1814035529434207 -0.1193235500695536 -0.08984300173347803 
0.2455655438802756 -0.02570790510092442 -0.2298133875905507 
0.1006871954363839 -0.03440935781278698 -0.01884406085160913 
-0.04555618171619365 -0.06580747407824804 0.1010456801706898 
0.1177318782018621 -0.07730339525975764 -0.1218475716200897 
0.06010392093551865 -0.05922414284269693 0.007794204572519206 
0.009870470959115205 -0.06778001186775298 0.1287222678903564 
-0.06765778410440199 0.1929471997077274 -0.1713335129461515 
-0.1802804291611828 -0.00257538439241735 0.03954322725493491 
0.2426174022755414 -0.09746493224428071 -0.1061057737774005 
-0.03668946064020766 0.02354837062251132 -0.07735795621211659 
-0.1907722607199062 0.003149379343178073 0.1617741809407725 
-0.1319897554103669 -0.1686489151480964 0.1719099246080331 
0.07266020521313998 -0.06706405311322881 -0.07457432599615509 
0.0504191203003292 -0.1009675701875796 -0.01261532419765117 
0.07837542279180083 -0.1469629397175808 0.1153529838574785 
0.01771355105178727 0.1218290943358911 -0.03873887722605015 
-0.0115617197745093 0.02775097469585628 -0.05009227071274186 
0.1517507821014181 -0.1062932635582327 -0.1041911828597681 
0.111420473357501 -0.06446904857271385 -0.1784261703257753 
-0.03589520467520479 -0.001257736042493549 0.05681875998511347 
-0.004879700232941636 -0.0142100563973213 0.08883279635990667 
0.1479725353757675 -0.03070530679399215 -0.05951457977347872 
0.1378805806782886 -0.05987675068947926 -0.04125298466912261 
0.02362504811989671 0.03237144260502361 0.067926638325391 
-0.09623083804891629 0.154044852599138 -0.1504355764936609 
-0.1269901601489702 0.1136552194375533 -0.09224726156670182 
0.2503552725639258 -0.05553635498510446 -0.1767449579247873 
0.006788470029299777 -0.04667423497253004 -0.1041045859303981 
0.01740841968354818 -0.0120523281905331 -0.01682484415077156 
0.02681754093272216 -0.1040128512745398 0.0779827878133173 
0.01222764816365431 -0.03924427110898913 0.005108555171287823 
-0.003320139983646523 -0.0518739724731966 -0.07261037622450044 
0.03199058297137038 0.01443742106521249 0.04594169647925457 
-0.006512905341224618 0.04600341449192367 0.08273889531863672 
0.07156162721627275 0.04130760260611487 -0.1901500555571811 
0.1768072449031066 -0.1275827338479532 -0.0533033938390991 
-0.05463840539089115 0.1039550353356254 -0.07011734373564708 
-0.1845013591088848 0.09981227806239772 0.08655544225081251 
-0.06039785824943531 -0.08449142315406852 0.09361984623911833 
-0.04196881337053687 0.1100330279879543 -0.06701635057145039 
-0.1122203909195727 -0.02413071696613216 0.07368036890295011 
0.06657224833508821 -0.06429607037743638 0.05422171579067008 
-0.02488339396885634 0.1321564000915054 0.000438066719199199 
0.02605111003873834 -0.06731415722948901 -0.006401148469727001 
0.01512443508400369 -0.03196316495917283 -0.08871019043507228 
-0.1751553733657586 0.0283540476527406 0.07193681763469117 
-0.0306823959474887 -0.00978075079958202 0.1463141107444531 
0.03407536080412003 -0.01375801348226351 -0.04601012914278792 
0.005112860896615023 0.07398353169850828 -0.04226637760279234 
-0.1191503257636415 -0.01188480405946084 0.1068771098351382 
0.1370633503735034 -0.015677447342966 -0.03160379916487561 
0.1476228408266855 0.08302150718119936 -0.186156610016788 
0.07924712383697802 -0.159249026629658 -0.1259753008359164 
0.1808630291988531 -0.06699178610772445 -0.2679156310562593 
0.04074769964104773 0.00175180893144748 -0.1750908059844564 
-0.01737169855417272 0.05751441664249178 -0.06327996624871635 
-0.02416267992265898 -0.02848996010142205 0.07358928994721253 
-0.02965793064760266 0.0118145419276972 -0.06119350323561355 
-0.09578303523100069 -0.02167092465270657 -0.005977662809153334 
-0.05828065881605601 0.08777863309137307 -0.04700606494787576 
-0.05799108863790686 0.1272937422647718 0.03527445418177338 
0.03269284084157751 0.02031687618537661 -0.09667800127694411 
0.09813281303413984 0.01301192551797254 -0.2058176991385919 
0.06270634733872887 0.09932472196220468 -0.1788271364495542 
0.1309527806165996 0.0597803676467743 -0.1272620092204833 
0.04876341102933179 0.0170638681269481 -0.02538750692026476 
0.1272799990941375 -0.01334961446149564 -0.2172349520134777 
-0.04063606093824793 -0.05734517815250684 -0.02282868889237084 
0.0100296483177063 0.03254879114767465 -0.06029997055606533 
0.0161567000746651 0.09019500693530819 -0.08979390631807874 
0.1226594268846611 -0.1145806198836859 -0.2118293290675982 
0.003219044616418729 -0.02936153999380268 0.05978181558683068 
-0.1109737213894513 -0.04031781997921366 0.2022353880019446 
-0.0711675495497683 -0.06230761762639038 0.3366096238774133 
-0.05014727367519831 -0.08043640435897792 0.09149724222862105 
-0.09752901387008399 -0.002320672558237772 -0.0299413467459266 
-0.13348642531405 -0.00519232876080786 0.03318590742065135 
-0.04814290762768317 0.03710400972572483 0.03322189416070215 
0.169797397980187 -0.03840011868411653 -0.1839508256832169 
0.1789666213969464 -0.1660197017179059 -0.06455707975801003 
0.07307851156904126 0.08834450780110945 -0.07323048400996243 
0.07034264303628632 0.0146980525803582 0.01085108831751972 
-0.008250677082936288 -0.01915946071270527 0.1317518803712887 
0.02964709290464507 -0.07698805340509544 0.06669212625265646 
0.04243423316305193 -0.05289639980617628 -0.03988159379225999 
0.07184774954794428 -0.05359194232649806 -0.08023431317505765 
-0.04267754543061023 0.01303267107479462 -0.05128174712821409 
0.151223535469187 -0.1117528610663834 -0.1067821591848255 
0.1873174415474747 -0.1945979393377292 -0.03331722766582082 
0.02113804675095822 0.07574710626302031 -0.097362882574156 
-0.0265429275248667 0.1238814896774254 -0.0656240421373175 
-0.06077319322173004 0.06940940400878963 0.05965545312940543 
-0.06452741323108604 -0.07827982837824451 0.09874433955403594 
0.06299884074987395 -0.04831291586024772 -0.1363425740174034 
-0.05173142385721304 -0.01477182744962187 -0.001248911163805474 
-0.1455298067221297 0.1095463074040453 0.01491241582658621 
0.07791728923134762 -0.06491371307943887 -0.005007608076456787 
0.2548191244858022 -0.1847537475038796 -0.09814322615824556 
-0.03395351346713186 0.1762587738345031 -0.1482939551243538 
0.00958172932403048 0.2086165832059256 -0.2478553928456133 
-0.01385210976643211 0.08464737920906285 -0.08035069069501628 
0.1032358553848271 -0.09634559051059971 -0.06137536444043561 
0.09659001769300887 -0.06323157120268344 -0.07325495559182044 
0.1177250857390942 -0.03529863747557759 0.05795718998603686 
0.03351237516654226 -0.03232508473593816 -0.09216467348446356 
0.1076153202071594 -0.03323459550908133 -0.02051314241418033 
0.2671424111950158 -0.1611548060010892 -0.05682438600955714 
0.01569267167730409 0.0410362721203028 0.01312678930118875 
0.02008131024990773 0.01419350387555822 -0.04887185768562014 
0.06295120495266329 -0.05736857591170048 0.1484112606264172 
0.07277676280332507 -0.08462931155310628 0.06226234632545521 
0.01826057985964263 -0.02312369599158696 0.02288883599502743 
0.003270840369932874 -0.03397900019463704 0.0006346911011970662 
-0.06972265722143017 0.01708690216990616 -0.05018627277423396 
0.1747554820704347 -0.04809220441614528 -0.2100430846070771 
0.1804279260432568 -0.1843393122031058 -0.01518035811138603 
-0.09747382383267691 0.160579438985977 -0.003823368195064253 
0.009636384391738818 0.115434978097416 -0.1708728475297787 
-0.04084812418096528 -0.01185077768713537 0.1723759327301498 
-0.05510530185725056 0.03902883795307072 -0.01018714028306767 
-0.006917302241977169 -0.02303730496096944 0.1358176069148718 
-0.01816709715486825 -0.04778178324249102 0.1418833574253217 
0.2130850265855052 -0.173230038053483 -0.04657447732196993 
0.2203136768288557 -0.1477999139428326 -0.1377053639329408 
0.2074274248161766 -0.1047451583199416 -0.04346342839540645 
-0.11456224615153 0.1770285567511874 -0.02415373958135462 
-0.1011572955876862 0.2729528354670983 -0.2802958994233583 
0.05170566241110797 -0.02414815890057346 -0.03745940001322234 
0.05740407406221121 -0.08390397217478049 -0.03758415758331758 
-0.0742386751401324 -0.06709910291226827 0.1051022574738902 
0.03629427556562538 -0.009662467394585312 0.0289855545234131 
0.04667776519326253 -0.006352309500296621 -0.1534779520203671 
0.1540208185529202 0.03385783699136916 -0.1454400662844846 
0.06291653510076807 -0.003817415219924166 0.05933474770475367 
-0.1338928217555923 0.1906397236711778 -0.1195913732333557 
-0.1237387522599385 0.1589991085062815 -0.1876945403275 
-0.03999878642373248 -0.04197019051016482 -0.02364662409175819 
-0.06434137446922926 0.009799207602417473 -0.1143124904889779 
-0.1271632542460993 0.01470095089970801 0.1764644166492501 
0.05887337262059134 0.02717616413769525 -0.04000038500698403 
0.1706224454007908 -0.03387501631663111 -0.1267472805880414 
0.1065601456874578 -0.03580506706555426 -0.145352745685644 
0.115401777886244 0.05956796315683167 -0.0743563131097122 
-0.157211205215285 0.09779021748308836 0.009901296809656675 
0.03239604493438109 0.0790782557100454 -0.1590660344994637 
-0.02345861017225754 0.02088840557429284 -0.0154926559984809 
-0.05934719135094094 0.1269329326045046 0.003374081002201099 
-0.01097220850946463 -0.04190976502828488 0.06381522472737218 
0.07499054984901191 -0.1626151474478548 0.1320354507233997 
0.1204856746411127 -0.1292802029094167 -0.03436012296394671 
0.1953587913770498 -0.1096347244849403 -0.1869570381935179 
0.02249030960390589 -0.07656233360056133 0.06293294540318618 
-0.1833883818444212 0.05432486880689828 0.0007780707300392596 
0.007018597063261962 0.06347204349043882 -0.04120189990618437 
0.05327172447987033 -0.05516558143721325 -0.01138464485345659 
-0.06093809903332414 0.04517016303769084 -0.0348586612015082 
-0.08644139295060745 0.03795524102645997 -0.09795278485622522 
-0.05155639988304857 -0.04994971467682254 0.05666332491047846 
-0.01352070731946083 -0.01101754117751507 -0.01114538448108368 
0.05353227687961251 0.01772576419851995 -0.08953829078664526 
-0.09774256059666503 -0.0240843925616771 0.01471411483285313 
-0.1454433381688285 0.1091728789985552 -0.1296260045293149 
-0.007665687269523801 0.08603135537989774 -0.1035051228274406 
-0.01870144956164639 -0.004039639652736718 -0.08053218825321116 
-0.01087218332455317 0.03032075685514098 -0.03069571939069736 
-0.01281806298145466 0.1255849368535572 -0.1543267104252216 
0.06358579112841213 -0.03623392531679005 -0.09059627764335847 
0.06114474746661719 0.01100617171076843 -0.1302124371866337 
0.1881934858223488 0.01498862063860679 -0.2239453560671097 
0.03184510823100774 0.0489431624587595 0.03346562816884903 
-0.1646773983927279 0.09720556678189833 -0.05459686451436969 
-0.05748354036037514 -0.01879440570320923 0.07427986681068276 
0.0334365539060174 -0.1030737352936961 0.08474130710091396 
-0.04756433213987424 -0.03431259404521708 0.03181542839039238 
-0.06141726240412541 0.1261245465690561 -0.08229693663800619 
-0.02504624856101884 -0.1592406537460412 0.1219336295206574 
0.001314917054139098 0.0191209669427351 -0.09196830956769531 
0.1232344276562706 0.07108998594428353 -0.1055676838863645 
-0.01795864087885504 0.101533376965002 -0.04730474807004672 
-0.05025063016200538 -0.03995943954688113 0.07512157696710293 
0.0448999473543925 -0.09799824382950878 0.06242131320773629 
0.05015525593882192 -0.04963970779474561 -0.03439670243296887 
0.09007905565251541 -0.01711330304077055 -0.04611463820071976 
-0.01767728835113209 0.0998126850440923 -0.04356128894755849 
0.1677848505859445 -0.0397665733592419 0.03490915226580202 
0.0208719320161511 -0.04545435935929452 -0.03147071231543128 
0.006780214563554094 -0.1051879686682875 6.898256962344005e-05 
-0.09998651847800641 -0.04909226629172168 0.07546321852801616 
-0.08507351845678619 -0.0618625942843943 -0.002462702980300241 
0.06516202002177442 -0.06129988404885506 -0.02606445530723646 
0.05828062574864478 -0.02027214081393013 -0.06310151581485876 
0.07238017656328571 -0.01416143915819063 -0.08125069801577699 
-0.07840057367703193 0.1698969609307557 0.02562077080044827 
0.03819366542767849 -0.03110747862814514 0.04121034618588268 
0.04706823232295707 0.01677987909113656 0.06670862166385144 
0.0273772124609983 -0.06575395524809141 0.07139154480917419 
-0.06059741760334105 0.008919581064019525 0.08045257592467651 
-0.1461696960419329 0.03088356277343086 0.1104202748978627 
-0.07814054147064194 0.05016732593218978 0.1476989066264201 
0.08317980809486408 0.004390377341858009 -0.03470647479867775 
0.1427975576046517 0.04599151584173739 -0.1539669191585636 
-0.07920102108362291 -0.005270952970493588 -0.01094694324158521 
0.04190954265749954 -0.05903819828205489 0.043558831095194 
0.01646161984665732 -0.09935026483679442 0.04587197347887508 
0.02507926666369912 -0.140810573334259 0.02594968995083236 
-0.1434407746790415 0.02040375988194594 0.01407014675257454 
-0.03573962969468215 -0.008024664039589447 0.0007324158574833755 
-0.08413052222461151 0.00506052142092313 0.04884370529369531 
-0.0432096113833565 0.01650540202413606 0.01022518674244851 
0.1318758469779791 -0.02752285058745839 -0.107640943575406 
-0.1262698233506813 0.08721915798106125 0.009257985552167563 
-0.000192824769476097 -0.007279262263718876 0.05892002580134854 
-0.06592264778925076 -0.03037746543489023 0.1306198266317201 
0.05943190396420168 -0.03474407536774255 0.03568280586541007 
-0.1378230724685567 0.0301098439291929 -0.001865446304887894 
-0.05141806017045195 -0.0175345312559505 0.03941350426669857 
0.1431386782154563 -0.07020632808230814 -0.196972199395813 
0.2268380956604523 -0.08226057905207344 -0.2554918455688039 
0.03729839884225685 -0.05284075517489797 -0.1143034032423969 
-0.08508672670384398 0.08252720705404534 0.08807762464646002 
-0.04224997513194564 -0.04536077352630036 0.1094498096029762 
-0.02673755129875337 0.08830332602343403 -0.03201929584689921 
-0.02588430551632888 0.022536942556571 -0.07026928062576519 
-0.03045684060654941 0.01832408776122162 0.0002104787349148751 
0.02688215939867629 0.04219671536897272 -0.04310710215806526 
0.136201884414199 -0.04962646617642407 -0.3107186731070562 
0.04034600065340313 -0.1279878255412041 -0.06725949709033613 
-0.07969408753414092 -0.02491834352247421 0.06245192561303266 
-0.01641988077470013 -0.04660722330469826 0.2026659087008651 
-0.006845965308569337 -0.1376373082761257 0.2452077929619129 
-0.07838304149330688 0.01231817492522805 0.02588053558306374 
-0.04176778199174732 0.07995510989076204 -0.01358545150586427 
-0.08344715940923193 0.110069697465425 -0.02739045212935444 
0.02591891678343734 0.006957645559923848 0.03416907419606715 
0.01960233695529425 0.0715199662599542 -0.1500780156617683 
0.1271514663825121 -0.04246842588754885 -0.309884513709511 
0.1576166265393911 -0.07879604387615341 -0.09844718327270345 
-0.05996736479367147 0.08258287592528561 0.1147582990917459 
-0.09242874259284067 -0.0151840977588908 0.1488441286103987 
-0.06356921583564085 0.02828548245855927 0.1067519009791464 
-0.03495988984306658 -0.01608982155369313 0.09574897646622653 
-0.01908171372456011 0.0511839305882404 0.05744600212871949 
0.2070281715538744 0.03761765302931384 -0.08182781821386888 
0.0269204742479037 0.07094985618851095 -0.2344724437970475 
0.1335690943196925 -0.04467907417319242 -0.1629293631728726 
0.1021161962804748 -0.008663512097913793 -0.01537177489824825 
-0.1003978131806923 0.02579166095297412 0.1367871964673019 
0.01117297106912156 -0.1993799269098718 0.2533279362551855 
-0.04856598464337099 -0.0710795544884926 0.07858525056946446 
-0.02217750911369955 -0.02638767277054987 0.1095371566509858 
-0.05473148742927373 0.1052899586163204 0.05532908337452241 
0.03342389209571479 -0.06362862111090037 0.1620759115004989 
0.08564915756073382 0.03173006289801882 -0.1359799856066044 
-0.04444677776657504 0.03683618390266661 0.08551449164321309 
-0.08170930486476494 -0.003560276360481156 0.1334772122696206 
-0.0547450746555669 -0.08925305794801458 0.1446175136721712 
0.04572138531439137 -0.08765337507477935 0.1079919483086788 
0.002238546632172054 -0.0008089750465241083 0.03023823032779763 
-0.02368878049127814 0.1339454442546644 -0.2037627013826427 
-0.1647651868092037 0.1529765815008522 0.03472785455009271 
0.2320912756899844 -0.2705796127478515 0.1431570707147551 
0.07654203835981309 -0.01384502129788228 -0.09025340607219925 
-0.03276126313550937 0.03897188183648748 0.04535829363958645 
0.06600879100034952 0.001104163265419484 -0.03586910827075927 
-0.0009216027612850809 -0.1305609563781734 0.08715291832550991 
-0.0415394591287659 -0.07951139749089842 0.042723143389537 
-0.07912454244335031 0.02258484401088204 -0.03932851940985536 
-0.07007565138327108 0.05445482845022406 -0.02532400675106479 
-0.1200952400926265 0.03650878202692657 0.08444835515132314 
0.2026924678795834 -0.03311327397404343 -0.0523643335063072 
0.1705460751489274 0.07932392645769473 -0.2013614783731358 
0.02476573644325829 -0.04518541303235522 -0.04117100283306845 
-0.05526178065343085 0.04363791780554351 0.06852705655676312 
-0.1073985855819099 -0.08964930227966716 0.109980059315222 
-0.04733871189712371 -0.1316475454325073 0.2080148769432722 
0.03073542741633037 -0.03445445992255054 0.05777808902291048 
0.01096165158888521 0.07054822142734625 -0.07975982059299885 
-0.1486094361188885 0.05923228954997602 0.1525677638596046 
0.2283353863676819 -0.1388163971877176 -0.05333511438651158 
0.1751499660747358 0.05073187564293167 -0.1854641515609817 
0.08310116549509558 0.006585928777113959 -0.1318471503414078 
0.009164174702902326 0.02741260647371451 0.07857599867571306 
0.06550374705344865 -0.152394903353399 0.04983028295963116 
-0.007013446608353942 -0.1385277532980628 0.06865015298065451 
-0.03354010120918569 -0.07176541747969126 0.09488895114116516 
-0.01435150963063511 0.06782953457134346 -0.02708794902665763 
-0.05317743747389869 -0.01039190892315237 0.1195358216390648 
0.08537275089311526 -0.1450867804785979 0.07322455957843881 
-0.08426393439460711 0.04249034976080391 -0.05024820872023122 
-0.204689091556534 0.1201624431968365 0.1015252023942968 
-0.0688655038425335 0.01857904631653696 0.04572275309781035 
0.06253088128256064 -0.1084926400585247 0.009561469766102133 
-0.05743567038474959 -0.09312894666119639 0.07563456778909804 
-0.08265752172882047 -0.002471771441660682 -0.02043258398468709 
-0.08804065373390565 0.1164850671704163 0.0002575050855682943 
-0.05017430884187664 -0.07708336930651684 0.1276959979372203 
-0.03200184699718625 0.01238927353723509 -0.02004431391445246 
-0.0654352980727835 0.17729854422497 -0.01690928220399977 
-0.0812653927231881 0.05778591879134935 0.1159941800607364 
-0.003990775659443202 -0.01356790799094588 0.07122882277931099 
0.072250115569161 -0.1730902024875621 0.0727911627998357 
-0.0381433642046308 -0.07948577096952002 0.1298836037366456 
-0.1750237395042095 0.06553973918682166 0.04503069651077335 
-0.1290762980841109 0.07078915584967996 0.05368875065494898 
-0.008411323505092213 -0.09183455801669851 0.06489784307741399 
0.1079869048912953 -0.1507997766780556 -0.05054256231748669 
0.01744326362335613 0.1073384008926271 -0.1694268397184086 
-0.06705812875985592 0.1204900101206934 -0.1064308286292942 
0.002753437522001541 0.005247455848432324 0.1088617096553165 
0.1526425464482518 -0.2090970679264568 0.1098935561435425 
-0.0291477588023012 -0.1441796555152822 0.1036238000954346 
0.01809367022173492 -0.01289889513455095 0.04561660508239068 
-0.001840593646414011 0.08206693552881053 0.04419575693138889 
0.1017183937904042 -0.1582464984533063 0.07276810940884094 
-0.01160879360726921 0.03091152313825729 -0.0880869894841419 
-0.03049195535650409 0.171238402445404 -0.08810811945380136 
-0.1046732319488703 0.1005735065575103 0.01334359134725984 
0.06812174938386069 0.005407028266097885 0.05181128163552804 
0.06778005048360822 -0.1647328259270227 0.1695117538669802 
0.02929933250694454 -0.07008799678060249 0.1935270463278704 
-0.02118976700592924 0.08612529774429535 -0.0166777659952529 
-0.04934432158078288 0.1053223702972061 0.08619624296911253 
0.1026719296693019 -0.08786028455860687 0.005150487861569227 
-0.03164504710570272 -0.04262911416838441 0.07659275987264012 
0.05574304516767641 0.1232880718984268 -0.1214558212620563 
0.03074877709817443 -0.1010554905188008 0.01894468321912203 
-0.03324360671508188 -0.09995633983303312 0.1140115496908458 
0.06640996598181069 -0.1251341890809096 -0.03549862231571174 
-0.00234114592061959 -0.06761916722487134 0.05479043138893977 
-0.2174611041760397 0.1488672583971502 0.08548066027089112 
0.01005890321100102 -0.03781746996672787 0.05907100354279918 
0.1266653938049082 -0.3200217335607903 0.1404496457193357 
-0.1241170132717224 0.005631628309425182 0.1082861053914683 
-0.0405845539527527 0.1586036007027392 -0.1899215912927295 
0.03203072323914184 -0.05059232186552494 -0.03762271547872352 
-0.03611127702883438 -0.1466124366707645 0.2214599880536194 
0.01705267905786763 -0.2378779554953269 0.2788314087170199 
0.05594323843925756 -0.07675271985408176 0.108709096267336 
0.02193809247054261 0.02461102845224944 0.03862883071220929 
0.07144206570337644 -0.0070361060110798 0.08979658912354448 
0.1769770560982454 -0.2965532686804155 0.2309112643698027 
-0.01231036557212023 0.02809189975936353 0.02899904610040317 
-0.06588668794612314 0.2620758708059827 -0.2076070847717089 
-0.005582663194870652 0.03858803525280261 0.01898517544522812 
0.005481275702519463 -0.05312186796196707 0.147814030535335 
0.1125784040468633 -0.1424165903454254 0.03748773040110201 
-0.03369189472286009 -0.01543551742932938 0.1287476331537214 
-0.01241780161189777 0.04581719089742794 -0.005771557860115235 
0.08786276106905476 -0.04608539168459391 0.04161429457622007 
0.1854914186985616 -0.2641242250016393 0.113175455343048 
-0.03958727045196525 0.03428012963958424 0.02104238430226875 
-0.07407774995585653 0.1919256332266301 -0.1241007952991855 
0.02770653434232365 0.04375046021236551 -0.006261583387769191 
-0.08738289273749032 -0.1743124393958155 0.3644184529468942 
0.07851083744079243 -0.1537911752530166 0.1819928194203289 
-0.09306913895547145 0.006068416508394891 0.006130404837084743 
-0.05025574484090404 0.08051544612124985 -0.05258694334088816 
0.0375186045627232 -0.01957664555966001 -0.02480934044386234 
0.1834624101105745 -0.2438480507059267 0.1092866914773766 
-0.03045283904541295 -0.0005124777836251097 0.02456748473067275 
-0.105444418631245 0.1908628494957668 -0.236245140568173 
-0.02992046449217083 -0.0163848561075698 -0.01447215984243289 
-0.03403376661242333 -0.1534786597678029 0.1513685013621428 
-0.1351027034523941 -0.1678268238389012 0.1979736524817498 
0.06777833995781529 -0.07240727268307452 0.07620495015620121 
-0.02211647621857662 0.109369734042633 -0.1127309495940819 
0.1525294502715192 -0.03166010438258482 -0.0282036629407717 
0.1539884837135557 -0.1589351877608661 0.1610809608424416 
-0.102077701665432 0.06218525630120029 -0.06930424702439313 
-0.06216505306013308 0.1316400337094766 -0.07400330307264566 
-0.006297593946785855 0.01869673883074934 -0.003304931976407731 
0.0002215177048320354 -0.133936219789555 0.03264029400792752 
-0.1164026083766308 -0.1361814570768823 0.2029607436385976 
0.05158444121845882 -0.08994973401135856 0.02527944714026783 
0.1164770720575308 -0.06151099414847146 -0.1049076975652302 
0.1876481621690488 -0.179905504512207 -0.03407155380447779 
0.08833785592169058 -0.156941038400688 0.1469489345806587 
-0.1078263994750296 0.07877151272154373 0.07687657118370907 
-0.08340105020869554 0.2062467822446622 -0.2070826184751639 
0.001315190963461251 0.01202744146725456 0.0715432148819245 
-0.06236187471921863 -0.1761260660613171 0.2757639039695496 
-0.07166792418705566 -0.02289129676387427 0.1227116879653392 
0.08108383078837587 0.06309901681047929 -0.1049436503369406 
-0.06979251929264034 0.07472795650551285 -0.0688247472961511 
0.1337879409714346 0.00297991307583479 -0.1237388722631423 
0.1540379471045308 -0.1533555796939294 0.02519910832202031 
-0.06841529066113242 0.05529240150681158 -0.001679468953617429 
0.03746151472996245 -0.0392299277226862 0.003042457831966408 
-0.06311712317846351 0.0268967744363218 0.06784591256131937 
-0.1078908910690774 -0.07124985712505809 0.1917702210588342 
-0.1164548254191451 -0.02266570177503827 0.04568312385686559 
0.1221192443174045 0.09408523158620166 -0.02274357675060912 
0.03451841491298417 -0.008244669611214499 -0.1157604384451756 
0.09937265806687121 -0.1568885564798671 -0.02958788723386318 
0.146049530025168 -0.1117192746842917 0.04010959472029723 
-0.152339121195267 0.02832505169988594 0.0689345612753115 
-0.006685876019082719 0.06826261623319189 -0.01189812410369447 
-0.1092402882045203 0.02462807205122847 0.03678708412538287 
0.07348858376593173 -0.05885154643997717 -0.05361588247296695 
-0.1386928651219151 0.07741445800873278 -0.01457525917430296 
0.0371567357996597 -0.04631116928813897 -0.03684550119608328 
-0.06186396212510073 -0.03045559110426723 -0.1055729774833661 
0.04756348716711987 -0.1065533991844852 -0.02082926122129908 
0.003290166628464146 -0.03013455710302222 0.1556708537847473 
-0.1150026606128708 -0.01611944321292929 0.09828342391559046 
-0.1146421402020323 -0.09117813423254811 0.1934559492224745 
-0.05507417370054461 -0.1139946138474781 0.1100922360645942 
-0.03093752334654971 -0.07848236921347437 0.01540805086663785 
-0.1823166994653186 0.09020059849874033 0.007576506019537721 
0.05135006609967949 -0.1488403255989469 0.05880795158875231 
0.1520399998932787 -0.1060621754006612 -0.1818939055285162 
0.1966066003996181 -0.07294080606478559 -0.1205896922036546 
0.009052131708313118 0.02222761696328026 0.0650605176302851 
0.01042942791179043 0.01324641139684022 0.01739216338794753 
0.109082321393185 -0.003719875810556358 0.04940910987878283 
0.009648927016255948 0.02580281986578347 0.06318959059806707 
-0.01428689693865659 0.06884256166336891 -0.03298926753226162 
-0.06663300032199494 0.1611716915967478 -0.1081047866899877 
-0.05864878747103973 -0.01065951605780539 0.04520632187059034 
0.001321079650005744 -0.05702611038254257 -0.06860918478574675 
-0.116103647974209 -0.02627896278002558 0.07175879391332889 
-0.0356900416448855 0.0324361201958752 0.1763793315257385 
-0.1058915683649193 0.06096702396024605 0.004216961954275678 
0.03624996312380575 -0.08502708478185468 0.1194130073006923 
0.06831353537782574 -0.1135409317018757 0.1046253671701386 
-0.06527284919168543 -0.005660295617343426 0.0343438389713193 
-0.1585279277671059 0.1422570805358221 0.0412412029938387 
-0.02214781010465092 -0.02580054255639432 -0.1358403641799641 
0.01691410464217546 -0.06727334259988454 -0.1694141818355536 
0.02939164442313148 -0.005737160300301791 -0.01167573394656643 
-0.05797419536046319 0.07840062276769998 0.08066950587495474 
-0.1102413635675807 0.0220903323639381 0.06335185776078379 
-0.1291974478818987 0.1373391943944867 0.06645264924806697 
0.1567812645003502 0.03872782280080695 -0.1835070069624715 
0.1368738683288571 0.02070822752352759 -0.1834278297541625 
-0.002477359848669976 0.03991521476422498 -0.16136025709527 
-0.01015828677216995 -0.03773985951842549 0.05027644155669671 
-0.01220183252155328 -0.04161658424970236 0.03083425995037292 
-0.01144099292774129 -0.07367266177105694 0.08947456042719777 
-0.06325410223216897 0.05584381577763581 -0.06952018553785574 
-0.07688423385815267 0.02442047145040379 0.03721877240670866 
-0.0850108505035959 0.1127482766235152 -0.02387432401089457 
0.1739416531940996 -0.04979809082325034 -0.05344824535827399 
0.2175032137064752 -0.1318456515739742 -0.1844687401878564 
-0.1023979171383597 0.07984014293482239 0.03713020991358619 
-0.02177231532236321 0.07991021623436056 0.08780457640744922 
-0.03999643712582471 -0.0990304703062142 0.1326329084549771 
-0.001174213762163442 -0.07399467610558572 0.1732651042603184 
-0.1039594156494695 -0.01394212095158239 0.1122004661132144 
-0.09283921935373179 0.07262237930213293 0.08347760921064599 
-0.2424558459004809 0.1826947272225292 -0.03214387799986523 
0.03901089869575403 0.03571283039044972 -0.206832905471504 
-0.02268527769826597 -0.02877649363709035 -0.0315510881494253 
0.1123044834317531 -0.07265727334525886 0.02033440605494659 
-0.07830752267923123 -0.08154240125952895 0.1695069713300087 
0.0155037180722044 -0.1186995111865888 0.1038188065590949 
-0.0001413235932633436 -0.0857625093500699 0.1760610136804647 
0.005544743295739472 0.01615899242531742 -0.04729091479192565 
-0.1959413409959372 0.08877112905084071 0.1250484442287227 
-0.1465768845230766 0.1339455091336296 -0.06135978530966536 
0.09790573680253159 -0.05405137967278982 0.02403406336006143 
0.01784987170776085 -0.03592391405322379 -0.07874742631134407 
0.01288028097804286 -0.04055701203561773 0.02684395942992907 
-0.09799184500428222 0.02961250620270797 0.1613450749451667 
-0.05421961114791183 -0.08582690516190025 0.08770450363014581 
-0.04986371845302337 -0.0516477788404831 0.1241800648232159 
-0.09287371868757138 -0.02319122065984797 0.1366983122505941 
-0.07138551449505351 0.04521187202824975 0.05001156434440138 
-0.1061807418090302 0.1873187103207041 -0.139009957156432 
0.1109906897078005 -0.05603375759996353 -0.07301762360587159 
0.2120016085679376 0.02148269588360778 -0.1946404862839253 
-0.1023233041754802 0.1911611598390685 -0.05029125296401602 
-0.1028669468060979 0.0491914182036768 0.07120409298664199 
-0.08891879042525427 -0.02685017519426975 0.1551079340517206 
-0.08392242808419993 -0.01211850116906931 0.1624306169027973 
-0.04960098188756233 -0.06548763168188804 0.07109870347960533 
-0.005279450898006854 0.09405500663753354 -0.03897472183834394 
-0.03107338392085377 0.1173835943869736 -0.1496777295154351 
0.1273565118111255 -0.01231705399445321 -0.03623098614751262 
0.2080470081789127 0.04720407037584037 -0.06314217287929237 
-0.1505740873968008 0.1192450923254919 0.04949792227461006 
-0.01928723847196575 -0.1231413174539823 0.1175625890587916 
0.003718860309735181 -0.01565321798530063 0.0541994822128074 
-0.06920792611019654 0.04647355258455962 0.1064987989339721 
-0.08222183529344416 -0.1068685131373195 0.1876368735113232 
-0.2193080405582137 0.03850554819082781 0.1495618291733289 
-0.08674751708769174 0.08812199472805871 -0.06564889879761733 
0.08469909792795119 -0.06753493441501136 0.0339540168171729 
0.1525879852074833 -0.02431994991036585 -0.1386075664586873 
-0.03744365740027908 0.06483748599874577 -0.05239797164950742 
-0.1388274616311257 0.01895972026968063 0.05827074108427505 
-0.1368840440932891 -0.06009091265323389 0.1339933502339531 
-0.0739533685065184 -0.071786200737888 0.1236144566434666 
-0.06416955466525216 -0.1720236000057498 0.1928449984056986 
-0.1427136568369771 0.1055539513719472 0.03199401035944141 
-0.07531445080395417 0.09502864950343919 -0.1311847414821515 
0.1607543710043452 -0.06200797731620812 -0.01957373114450191 
0.1229821007501194 0.01444736635445369 0.02589153566652194 
0.03769049685695922 -0.02894495564316212 0.05896626756874348 
-0.002175660421854559 -0.09207015218553273 0.06674780051666615 
0.009476308164223811 -0.004814527254099731 0.02916911888757982 
0.04123637033058346 -0.07190442524401053 0.1245045762836942 
0.01399327981573675 -0.2050319476644795 0.2258982339933982 
-0.02656643017278694 0.06801040945983565 0.04178616375152765 
-0.01969891860449913 0.1381246764432356 -0.1929535118041466 
0.0232666954605965 -0.03672313394385684 -0.04486632308850234 
-0.06371668804325485 0.06972847118292998 0.01600626410365888 
-0.2369117779287998 0.01968705298583859 0.1500240302533672 
-0.03951869096584684 -0.1813307057692539 0.1682801115715838 
0.0936780187174312 -0.05526543358780196 0.05283426913001602 
-0.05940434451610391 0.1309843248008547 -0.07814222166186753 
-0.1860267653139273 -0.06364371532595699 0.2423597978739697 
0.03975466976549981 0.1152999013450296 -0.01320943219880978 
-0.06763904944113718 0.2436292711047593 -0.2941653781162444 
-0.09745429134691096 0.04553963885682159 -0.07120971304100127 
-0.02165066920318793 -0.01981073179358827 0.1430967813970978 
0.0007894561056361537 -0.08126501346059466 -0.01778332870853527 
-0.04204539446301223 -0.1505023693197681 0.09723492140735626 
0.03840448938787956 -0.03823842749198511 0.01901876744832093 
0.03040508558656876 0.1254179208616368 -0.1115037885137446 
-0.04649216084964789 0.03369736640517055 0.06406703125996682 
-0.120029438075103 0.05646019111112791 0.05057966813170877 
-0.07084891780470866 0.1486991983096385 -0.1992602828139894 
0.07844176803820707 -0.01973373049431451 0.006818626672739066 
0.07908545333421087 -0.08104838481979275 -0.01882927259536225 
-0.08331423334084895 -0.1094717288870934 0.2122333717659514 
0.05728701789413466 -0.1513592783196439 0.1595401014645197 
0.08488094467945441 -0.08424005988147525 0.1469448990284711 
0.07078068017921196 -0.04355410693923608 0.1557618237961495 
0.006573507795171728 -0.192050051532592 0.2407781377724961 
-0.07413391208698052 0.07361641117920145 0.1127699582084633 
-0.01743986188243279 0.08922430943696044 -0.1373989948168148 
0.01004783880175786 -0.03858489058917223 -0.02849413097474636 
0.05144613884589831 -0.133882384625726 0.06635058349828413 
0.02624247065727962 -0.01366776885016317 0.0009463279636017128 
0.09601359053537568 -0.2198768909201587 0.08884354441491384 
0.004643143699765213 -0.1093746430980659 0.2187079946598698 
0.03571872446807833 0.04412208385033776 0.05923471858906795 
0.01563228885880853 -0.0760306644659605 0.1440018245342049 
0.05984917043204279 -0.06244726220426782 -0.001689202182237702 
-0.1232971587849034 0.1710207083869842 -0.2127819924961556 
-0.1450229213509463 0.03527460817964363 0.04844695935491958 
-0.02017009848201761 -0.0335896691220391 0.1242600589957569 
0.03851975626280554 -0.1224415510260086 0.01221262960993106 
-0.06945698664017337 -0.08872883345087546 0.08588501755312369 
0.009583969894601058 -0.009176606193109471 0.06423201301062863 
-0.02471378589661173 0.1640721831885914 -0.1187350905219663 
-0.002836195544918848 -0.09917130348519405 0.1177972923172162 
-0.0001054907441446131 -0.06744303354741173 0.09231507950346127 
-0.06081410473144495 0.1651282182895822 -0.1429843598063801 
-0.1261158811830852 0.07615579981325531 0.0359038153321748 
-0.03168075192874812 0.02392936964687343 0.111563272705004 
-0.1305709944603591 -0.1427143110898591 0.1995288352107416 
-0.1234354472199986 -0.06320190753212084 0.2225217585739808 
-0.02654961639031879 0.02438744350106244 -0.01261771182855316 
-0.02482192192776003 0.1173733687533907 -0.0001404736543211493 
0.08346626884786497 -0.1089290355643716 0.06877855840629078 
0.04425126221379635 -0.07616252575026471 0.1100849606015274 
-0.1149953837071002 0.1117892604453011 -0.04876852732827786 
-0.1020985214308209 0.01468750719652191 0.04534063248716247 
0.04285489563817179 -0.06420937549923934 0.08649245280161821 
0.01479430681158153 -0.0002080843976338705 0.05482393149756295 
0.02407620967852195 -0.163770319042536 0.0295701096116386 
-0.007381229804829109 -0.1033530610457071 0.1342577389505058 
-0.03525254732893166 0.0419069842515454 0.05532760823644832 
0.05695919653210775 -0.1189212461016486 0.1684629843781981 
-0.02029925075589785 0.01823463054658039 0.08348951141512506 
-0.08016180758205516 0.05489282093231713 0.001762923350590814 
-0.06791054209846717 0.1351717668041986 -0.009518925950998448 
-0.002094295747709305 -0.06157844482457793 0.0445249382894857 
-0.06324518335377639 -0.1138159252371344 0.2104042855135616 
-0.05105543992417105 -0.1869105318326097 0.2507803177565214 
-0.07330767815914209 -0.0823020405718973 0.06292134186108836 
0.003028192809341209 0.05285040585988726 -0.01468646536449429 
-0.05453857319408222 -0.02284769731553766 0.05488949686430889 
-0.004360954784008786 -0.05598130124342285 0.1842269852269184 
-0.05979332469386354 0.1937491557084036 -0.1465101677358845 
-0.009605115973615561 0.03963900475719051 -0.002327897169795558 
-0.05342270389610507 0.03004032052286719 0.1121056586020618 
-0.06724890155817398 -0.1021893113259939 -0.0003353012036090419 
-0.1088073804742801 -0.06965526526351205 0.1327056461903793 
-0.1424730301279232 0.09908196263112533 -0.071197393998256 
-0.131537832305527 0.1865638837618811 -0.1094484303793394 
0.1463775206196786 -0.1297705479199308 0.06709993976362599 
0.01204559385008067 -0.07567749779435777 0.1540739259611131 
0.06617849561216108 0.01216518288632557 -0.01012686933783491 
0.04882145417733025 -0.03872663667089461 0.1429544770393897 
-0.1150372995614252 -0.1050877151014506 0.2657034724165672 
-0.1214011043713386 -0.0612956783313276 0.187997774315372 
-0.1690355158919161 -0.04114375650337879 0.1309218007337011 
-0.2677694200655184 0.09874817522078286 0.02698628134282344 
-0.1713760809104942 0.08698691391900262 -0.08713350963111564 
0.01141061522134599 -0.1505236915956381 0.1678950127685987 
-0.01863269122428248 -0.003746318192024089 0.057000430800291 
-0.04485197385722803 -0.02155820902420362 0.02749782437634736 
0.03700090211735227 -0.02938310014121846 0.04033323809607854 
0.04020294516580226 -0.1061363076324809 0.08803831496101647 
0.08341292288226936 -0.2276697365162388 0.0931686059039725 
-0.004979782476214644 -0.2960707848477785 0.2421219895118402 
-0.1079002163034108 -0.02868069649103103 0.08359438214298417 
-0.01444926022892358 0.1523372861465559 -0.06326699470185553 
0.01017118197661971 -0.02042978171106938 0.05699013541639471 
0.08774172910840251 0.005278971209771502 0.07931385034517698 
0.06035720358950832 -0.07583507395296354 0.08678705831029043 
0.04634581475471825 -0.1400074345069493 0.2159849676570414 
0.1129049037382432 -0.1653893865759728 0.11409320000191 
0.08962923064736106 -0.1199051487076461 0.08850252438092619 
-0.065301067327107 -0.09793447695697209 0.1736125637317929 
-0.210934442096474 0.1328184157710088 -0.01523418923679038 
-0.1191584059334935 0.1853711988155298 -0.1080847569413367 
-0.04348418745071941 -0.009656370074554417 0.1177099467628877 
-0.02602859023507552 -0.05287780668785642 0.1071672741706118 
0.06076142425353002 0.05428280456821857 -0.1196272130401564 
0.005543263553594089 -0.03173298399346116 0.08903409174873364 
-0.04316345013522398 -0.04380730282344342 0.04638524228667813 
-0.228218969461145 0.03634859315968783 0.08603155362566316 
0.06144536028292632 -0.01080267300480679 -0.06836996045021028 
-0.11348693197431 0.04698726978837744 -0.02364119914934954 
0.05313236345238504 -0.06941301531938605 -0.1130589489075214 
0.08087657901365307 -0.1724953584989402 0.006895630095222852 
-0.06911034685850995 -0.06536453169828556 0.1546248378951365 
0.05612292956905723 -0.07230099926341151 0.02683307943039127 
-0.04347394496456493 -0.09104857225248619 0.09338717869116021 
-0.1167589309467483 -0.008793325588348808 0.04815015453597376 
-0.2686874184559959 0.05308521151191626 0.1569934344242379 
0.1106602550517638 0.04333902775378067 0.06178142143490236 
-0.06396348378789198 0.01406871385945922 -0.07169214001523042 
-0.02914964883489509 -0.05457562084205374 -0.01815195342340102 
0.0280428532760852 -0.08378552376297022 0.06284921504043682 
0.1712926992990443 -0.05369112945679363 -0.009741700931491761 
0.07443585954833684 -0.07232901288491206 -0.002705811502408307 
-0.04332550327440174 -0.08892916338602982 0.01426237555464816 
0.04213871047579984 -0.01618892215486618 -0.08800699333833327 
0.003485148349346095 -0.07211021946829486 0.09699171460473059 
0.0190255757884718 -0.06703730014740129 0.1166883391337063 
-0.02951279497171526 0.05425893117840698 -0.03116158715820076 
0.009642659419257927 0.08632576972034137 -0.08232102295039244 
0.106471814707998 -0.07931629446518502 -0.002149559372705806 
0.01590751182355019 -0.1956034357303686 0.2934056805165711 
0.002810628475030884 -0.1161295402211125 0.1455126836020115 
-0.02336987395322668 -0.1162049531461698 0.07022922060524656 
-0.06489876515380427 -0.02004284095609782 0.1008118440639187 
0.01417850872047803 -0.1149136973723696 0.1520036728568798 
0.1266360956907913 -0.06483781229100379 0.05441271478761874 
0.03941988257605709 0.03130053915127838 -0.05994904076695234 
-0.06829708678706756 0.06429464145488588 -0.002468387695353581 
0.0257648616760966 -0.03835438373447528 0.1164316428154981 
-0.02355078015398259 -0.1234695114810864 0.05462107307009034 
0.09773825968264138 -0.01174400174172925 -0.07938684397943398 
0.1270294836168972 -0.1256333829160526 -0.0175045468393834 
-0.02823229364618338 0.04342216234758461 -0.08716116503084359 
-0.0659307705695833 0.1424372440247671 -0.1322355489729479 
0.1412839223666429 -0.0520782106643615 0.0533740187347063 
-0.09324688649846469 0.07282141878919822 -0.09109984283388536 
-0.02016874575366298 0.04099295629299488 -0.08642277290565473 
0.08043813603611176 -0.1382236357903315 0.07566312044170664 
0.008592257516762689 -0.06286842541475779 0.04253325232890347 
0.03708857136025182 -0.03297392562607601 -0.03829571430171025 
0.02846916897704095 -0.08798404995110842 0.05188030004239588 
-0.08587483320235997 0.06493230947177284 0.04899765653551719 
-0.03748606668099073 0.1979195434784382 -0.0938470076522082 
0.05194646173367352 -0.04930887757693084 -0.04509032533559682 
0.09459031008912791 -0.05749873843472261 -0.07115570784189471 
0.009419235370251499 0.01206213991889716 -0.02032246194572327 
-0.00426517023391086 -0.09012097671791182 0.08629635140120526 
-0.1058706990277657 -0.1657064359680858 0.2748036604187536 
-0.004861350890679568 -0.0968703909116595 0.06857915331369759 
0.0876006193509524 -0.1876515660780818 0.04673158309910289 
0.04461905785289268 -0.09946292532487354 0.08280481607647892 
0.01957752453262823 0.009981392108468915 0.03379165268708825 
0.1523695133401172 -0.1178074827499894 0.1377890803594252 
-0.001791182890747944 0.06043944245771661 -0.09137318958712755 
-0.05476502577628804 0.1322151410274079 -0.05487883015240459 
0.03056409106194561 -0.03072989274583102 0.05866176664135443 
0.004043505982110221 0.01449188300514711 0.08058907046357082 
-0.1393402728276265 0.06318803771574308 0.1173352408800957 
-0.01318993660188577 -0.03855522589859107 0.1822978660916472 
0.004912707557366568 0.07232526283552383 0.01141791982211044 
0.009598724259792373 -0.01603900749528055 0.1071267114167886 
0.1684338833636041 -0.1555457429687191 0.02530019171131107 
0.08768127931736767 0.0144530747268235 -0.09726563313983433 
-0.0537402046418571 0.005701631593286603 -0.07002179931640092 
-0.01107086263203088 0.0442516231673884 -0.0001631727479355148 
-0.05204098141951644 0.1013168286827877 -0.01377687495554107 
-0.1520596845609942 0.1596228683255452 -0.05934699396715402 
-0.143341383153772 0.07019799582321094 -0.01724344554751688 
-0.1054058909528678 0.009722198707790914 -0.07598968863482516 
0.0330008708998106 0.01235609456012339 -0.1701417086243427 
0.01339251849797762 -0.0815213438158722 0.08234724420668557 
-0.08926883247816464 -0.007549279569437066 0.09984016735352727 
0.007850115674148696 0.0188649570754715 0.02946903929500095 
0.03249316970881552 0.07577381244954612 -0.201935129710738 
-0.2299570969282869 0.04541415141416306 0.1821820492186503 
-0.2035516197939437 0.1244521599994181 -0.02399738253908866 
-0.006287701478579826 0.04115087688546862 -0.05692100411958657 
0.004115005027326595 -0.05652151285279326 -0.05395046248512866 
0.04169436472960492 -0.006817701658829589 -0.1089708291227467 
0.09511616370015276 -0.08719458113875295 0.03045856193898623 
0.0247641484110858 -0.04888033435825778 0.006189193939340167 
-0.03240859066190991 0.00381401067336574 0.03670142255921536 
-0.08970334987718083 -0.0433277556313322 0.1101441486455104 
0.05266655480650845 0.005308487611053428 -0.01657820716328133 
-0.02113646417673557 0.08569843984460525 -0.0755081706241513 
0.05152517152741963 -0.03963896804055068 -0.02577548316137213 
-0.1282950216220922 0.05129081177109009 -0.08597108441163412 
0.03362036723909281 -0.02109961343246761 -0.1167598466673007 
0.06571054888094593 0.02708968491583456 -0.06636535937362199 
-0.09740182135779413 0.03659409860120121 0.03659412208730879 
-0.06783274516941792 0.1425475180986944 -0.0588646026599585 
0.09866060583852061 -0.03363156712950344 -0.1964145150369962 
-0.1200537006835184 0.0587049986151002 0.1490013615443685 
-0.1295575541847594 0.1499970782396303 -0.04082036563780232 
0.03168379755810338 0.03607271065912025 -0.05679436580394867 
-0.05135894065220627 -0.0005811087039411705 0.00615478819954625 
-0.05052066464446915 -0.02504272011262776 -0.06104870043237351 
0.1901343043277031 -0.00817203724859814 -0.06774645471910094 
0.03115232984391874 -0.08024690344147223 -0.003834333228621385 
-0.08140417265118925 0.06306984272052188 0.06832652396522162 
-0.06139091021003917 -0.05912956568070957 0.09307723225889299 
-0.2082535232504581 0.01139767737649225 0.2773030132058026 
-0.2068312405475354 0.1652404323304543 -0.005648747969817904 
0.002073299261104968 0.002836058144856396 0.02040188216728609 
0.03764062840456995 0.04930068167156986 -0.09092076627704745 
-0.040255087052468 0.1222447634880005 -0.1763097525870649 
-0.01754104043992961 -0.03230513553642674 0.06901470095614189 
-0.05515170144249687 -0.03660020661355989 0.08127482156087215 
-0.06419366041669837 0.0352992214086714 -0.0486302119966647 
-0.04744330700672085 -0.1148439707693111 0.1970897884064444 
-0.1215910843676413 -0.008083867442348434 0.1451246852091425 
-0.1571360344024381 0.2496108890106869 -0.1363598447959123 
0.05073443131088461 0.03479296115374093 -0.04064015410741179 
0.04490614224246557 -0.02325818841817141 0.105215407486308 
-0.01605310206254245 0.007702245589231806 -0.01428671802125436 
0.005906610490438956 -0.1062053224854545 0.1445086322303099 
0.02557370989819035 -0.01407122149548129 0.00054279091263109 
0.01805036127753463 0.008248428340491379 0.004315588405684466 
-0.05986678705174966 -0.1379855201742792 0.2271260729468559 
-0.08581366689250988 -0.006170348245990665 0.1553933357374156 
-0.06842564545417874 0.1203988405829438 0.01014512945209613 
0.0864933612661643 -0.09457840335067462 -0.06202436250278584 
-0.08041790189992579 0.07622433697352035 -0.03560314375459184 
-0.1738555611270386 0.186448329216205 -0.1411268140309465 
0.05231946587524691 -0.008439317536197562 -0.006241166063229883 
-0.06456783231248588 0.002055100768184102 -0.01239629144900625 
-0.1609736831074766 0.1219583629551049 -0.02780536321911301 
-0.09834039992323616 0.02943787444373758 0.07589746142961824 
0.002881850756646101 -0.02765043509175636 0.1017741574082601 
0.1164223208675213 0.04929130489876919 -0.1763811667917756 
0.1038178992018918 -0.05054834353287899 -0.1126773875143198 
-0.03542538849930666 -0.05062831646899648 0.04174354747418743 
-0.1085673197812482 0.01668866123336725 -0.07145705475317189 
-0.0003723449394472281 -0.05418058662059764 0.09472574379812819 
-0.09776924339957817 0.08625666671202616 -0.05594581166962625 
-0.08996228518023819 0.1632465046617483 -0.06153760556427317 
-0.1196619680390095 0.04721982277054765 0.06304009369354527 
-0.08419630693318665 -0.1132037906196288 0.1617964611511232 
-0.1324081813660597 0.1420571307037846 -0.106211877664876 
-0.0213706950435709 -0.04047148803269311 0.03891907412467332 
0.03224699244338007 -0.09220045391506813 0.0767573429915821 
-0.1720594457395815 0.02839637226896485 0.07811827283827669 
-0.03805684134741771 -0.03421044095288164 0.1468774048871328 
0.02838157498780825 -0.01052455917850133 -0.01436160097931443 
0.09701340695874686 0.03958334879557934 -0.08408164747125461 
0.07610604727682679 -0.1918662376479507 0.05924193638611327 
-0.03281447186620524 -0.0276852634845052 0.07505321690089675 
-0.08043844746436966 0.05236121914570607 0.0494169009217035 
-0.0414627241966701 -0.04466301670763109 0.05411965554152663 
-0.05563265154820737 0.01199847293978946 0.01989939894731392 
-0.1132700058130063 0.07581511323501043 -0.08588545098424552 
0.0438432346759149 -0.1138849310425591 0.06604628878706459 
-0.03934741923363586 -0.05920345258883129 0.1276602609051529 
0.1104715245617476 0.03864417953112573 0.01490649725470112 
0.01663150093579719 -0.06789228492701638 0.04717830798315375 
0.02747226429733343 -0.1186882321711594 0.109281461655216 
0.108700375242474 -0.005594883027259584 -0.07204988935131125 
0.06785071185191097 -0.1011394554492007 -0.05556813502841573 
-0.02745673763121905 -0.1281888695609975 0.09709377161622906 
-0.1061759473364806 0.0750900735883895 -0.001082731351130283 
-0.02945058733616356 0.08783991705718672 0.03819944928183459 
-0.1357571358529262 0.1271039876679533 -0.0235503110084473 
-0.1924871476873017 0.1709824951168709 -0.02232585884920843 
-0.08551388183047859 -0.01333622061725673 0.06210408176703176 
-0.04850202460898661 0.0122383057178037 0.009623303869819114 
0.02462244262206739 -0.004317446055371362 0.02809805171927668 
0.065837235450615 -0.1263203490392248 0.09568283464948688 
0.007301264406294571 -0.0423691088748081 -0.04357288542730966 
-0.002006293674526003 0.09461709814748075 -0.120006898779809 
0.0648709404435964 -0.08197764052397423 -0.02157030228803377 
-0.05233008829319354 0.144063827312919 -0.07305552188623933 
0.06352700563552072 0.04403988382592072 -0.03194118614194373 
-0.0835573218145268 0.03101477203218402 0.01665769191952375 
-0.06235369939111847 -0.008569401051537359 0.002681657274765051 
-0.1046363068630678 0.001482249954533034 -0.02297805176075381 
-0.05157068534201297 -0.06940348673111722 0.03277548675474062 
-0.0545173467181601 0.1031759703711928 0.03193081067108991 
-0.06567922897251451 0.05133639360211627 -0.1032621385696216 
0.09201366475485968 -0.09191463256231477 -0.01755193720538152 
0.1221923316738732 -0.07651905600361658 0.06090663734930902 
0.01265427049962157 0.1204064989738659 -0.001276136383252294 
0.07804919924317769 -0.09530590936971021 0.02139382637641308 
-0.07148420804884939 -0.02977334554505828 0.02714472599432103 
-0.08993934363456473 0.0140545377535968 -0.009055226499797234 
-0.01452876563599279 0.08095210371662703 -0.008359539984031652 
-0.08155980720077338 0.01734578598236407 0.08616928695975785 
-0.09545253873637025 -0.04989186430716205 0.02763074327932291 
-0.05931049633987224 -0.06281313562036134 0.1419518809216133 
-0.01724359126860966 -0.01348402434706682 -0.1692918923550386 
0.01962710926048883 0.1201630139488998 -0.0897964990524884 
-0.0604612399882578 -0.01663829825985719 -0.1265420490030663 
-0.1284452514193028 0.06375417981993871 -0.04696775748470559 
-0.1661878318234822 0.01446266625807521 0.1989127548275408 
-0.1274315034007958 -0.08729124246307646 0.1797906607150304 
-0.04628349508040368 0.06111351304605626 -0.05850870157703306 
-0.1835794431884652 0.01602539413521967 -0.000324685690724616 
0.02669086875523484 -0.09584106737734209 0.03133831612553629 
0.06636531151630917 -0.014577422767518 -0.04050925591682093 
0.07658448306740193 -0.05030375390422027 0.01054828836774466 
-0.0990002277546769 -0.01069896057655675 -0.009297403373934372 
-0.1707486419427362 0.03054993687033477 0.04263094948926157 
-0.1051506986700172 0.009595529727923918 -0.0129086887223101 
-0.1328214555686476 0.09311702891046493 0.03939193884883062 
-0.06909612930239742 -0.03142398989177447 -0.01364228149726491 
-0.1716117488768775 0.1185337937861577 -0.1078871929813715 
-0.09740290268342533 0.04462867320240665 0.02897230248838576 
-0.006784248576557059 0.05670827583576102 -0.06083132676397229 
0.07317769154843741 -0.03415680271699764 0.01682230227771675 
-0.09586901876846587 -0.07509566535204694 0.0102574714455271 
-0.04304639609766844 0.03797667370094732 0.003784775513104881 
0.0374669902677635 -0.002041969651213976 -0.04986846801029775 
0.1203892280737534 -0.01885822196683849 0.006851848804443602 
0.04417425456468402 0.01799556373185551 -0.01632504612239915 
0.09837473736710992 -0.1096745061245205 -0.03547176099285793 
-0.09270754846996472 -0.114124622325447 0.2153938138759202 
-0.03616224743166981 -0.0976304922817381 0.01571531137949319 
-0.1018601472040855 0.1465525074587811 -0.05629579271527473 
-0.01473195412456559 0.01365327432182018 -0.05844894814626912 
-0.08487131282763041 0.1812203761068378 -0.02397736199006873 
-0.01457084134343496 0.02101712998743316 -0.02571745655920294 
0.0007718963562095068 -0.09848920804266871 0.1212348788108733 
0.1105246284353342 -0.06534055156933936 0.0478131793583347 
0.0951164328593072 -0.09900488695262168 0.07010395368456503 
-0.05425891702379376 0.0355047583051637 0.06185373340031152 
0.03197909563919126 0.1047365780352419 -0.1676515332010216 
-0.1649485188652065 0.2232424831515492 -0.133964490528183 
-0.1197325076962469 0.08431783650626076 -0.01305423157112256 
-0.06215157269959856 -0.05610479509494103 0.09299562720757192 
0.03821911019552567 -0.1154112415006485 -0.004218745431766926 
0.01551483977127648 -0.01188336063199043 0.05704208581593428 
-0.03185837685236212 -0.04550311211140886 0.05447605147867315 
0.02050754021475048 -0.02053747553242172 -0.02846264145197856 
-0.07193908061058653 -0.05263642884660045 0.1541762290511999 
-0.02303387462624733 -0.1070286629664011 0.1236091506672984 
-0.02653868426651492 -0.09088148353808292 0.04563370194636621 
-0.04320327692117268 -0.1392915898789944 0.1755961764661334 
-0.06346090856455176 0.06302222980070636 -0.04895543064188424 
-0.173648544212269 0.06988441543308686 -0.01549911716087639 
-0.031271249180558 -0.01925876260414345 0.03647554372948332 
-0.1038311641522225 -0.01970552399546703 0.08443737331590176 
-0.04336154939009244 -0.07960851539884109 0.1128025149630733 
-0.1549764651779674 0.03097540644398318 0.083314688460838 
0.0006954689258061112 0.03758348137113083 -0.04000326120680359 
-0.1345568903001903 0.07341436809282489 -0.06321253762239547 
-0.07314875684239408 -0.09875877404829032 0.1530246259628421 
0.04349853869316993 -0.09656250216098614 0.05435449371383361 
0.06007280692131606 -0.04920432702329668 -0.04854628605757257 
-0.006741275961871494 -0.1151521886612992 0.04735933773971594 
-0.01458493912711448 0.02113997622071752 -0.04239347347094873 
0.04476431984584155 -0.03199815816649656 -0.04056496609340766 
0.0378753394421838 -0.04197195049926249 -0.03357713358563022 
0.1003569738169233 0.03471152041519449 -0.16547645616576 
-0.1046977692494146 0.2359084906336727 -0.1919985874003041 
0.04219275040040037 -0.07488200063333493 0.006333077384906505 
0.008166920385155653 -0.1821644662861058 0.3419429177175504 
-0.005936056068887166 -0.08059999076278908 0.1378421264637283 
0.0220305667463309 -0.1300126414013847 0.04033161063558539 
-0.05413807793542158 0.1055125644434591 -0.02663771170809718 
-0.0503769094021937 -0.05309228964458296 0.1180591208509638 
0.04664179274943683 -0.03547949698425253 -0.09448104149576741 
-0.08063998429606206 0.1477912357118439 -0.1179897753306089 
-0.2018927154277221 0.2553374588734993 -0.1348163098921035 
-0.01160519319180922 -0.03331974085976759 0.07906414474578954 
-0.06844577875899638 0.003451900190551506 0.02756688549189245 
-0.1776331877643479 0.1989453966606372 -0.08423109696353515 
-0.0892719656746684 0.04337528756209183 -0.07410482429198181 
-0.06372091283356736 0.03572613479706119 0.03230468674490648 
-0.1369348742673073 -0.02509871122360738 0.0434577619133972 
-0.02269957233030585 -0.007000293819161161 -0.089494299884549 
0.05310670148970661 0.07071688433567905 -0.1379548754308402 
-0.0463742047699694 0.06122274212150875 -0.02785082770687184 
-0.009132718709650264 -0.1546744879965802 0.1275720746540555 
-0.03758867521453417 -0.05358615893179079 0.2001835820637695 
-0.09837235339920844 0.1495400635457718 -0.009004633196547653 
0.03151141994806651 -0.08181162635315256 0.0153488123246276 
-0.1090280530215135 0.06826066455127736 0.01551010033133071 
-0.05650335448225479 0.07204487586084669 -0.06087177836431577 
-0.214455516488413 0.031985545082496 0.0884980650081388 
-0.09194972651023059 0.1767363408670549 -0.0707905171555414 
-0.1737811188294014 0.1379310294970838 -0.01767304942076367 
-0.1252777495557727 -0.01520950959288492 0.1404357613964541 
-0.07974265226088099 -0.07850528551092401 0.1464441279301816 
-0.002062818133646039 -0.05701737384485847 -0.01400429170325188 
-0.001471443688416549 -0.138132337489707 0.04172276365197605 
0.06636801258724657 0.06150952604014547 -0.05632291693179158 
0.007531707186921028 0.08619613180774635 -0.1167260308321192 
0.1210826776139776 -0.04035540007609286 -0.08708227488786846 
0.01086884790855535 0.07780541985506044 -0.1254231116184416 
-0.01468238651667627 0.1204892388490139 -0.1316958503167049 
-0.07651795680258856 0.05757048965339909 0.003493417268640301 
-0.07794214911176377 0.1356088498877901 -0.09217471513390395 
-0.0987040238197008 0.002869809609463998 0.0188207358881913 
0.05482376161975337 -0.05920422978822996 0.05021927322720839 
0.06361065972251582 0.04268392861474724 -0.004956085282338174 
-0.04537421557904161 0.02160618898040478 0.005874617601065878 
0.06826794899136224 -0.02327488891480162 -0.1717051302805642 
0.04437217673942483 0.07315447468307643 -0.1375173005985056 
-0.1257280372414147 0.07690525472637554 -0.1242183778268194 
-0.04944045370385189 0.1430334992475605 -0.1116989328686808 
0.003495110433641464 -0.02539157274357346 0.06760369686161724 
-0.03315657273211394 0.1669549532548292 -0.03366131563768919 
0.06446383443746098 -0.181241708838178 0.08707952677396641 
0.052939387023943 0.004904323269677235 -0.1052057913023996 
0.07179985073233061 0.06346058719476827 -0.2281606489442325 
-0.1493179326292396 0.05740873271455776 -0.03226738185007955 
-0.02215577751418463 0.1076933097914397 0.04293855560483992 
-0.05995914526115419 -0.02361320021073383 0.01308460292564605 
-0.06523896712806423 0.02285989413184796 0.100886643314921 
-0.03214557753822204 0.0001333137678472857 -0.1007301915787077 
-0.1173357091226842 0.1253547742935822 -0.0003291030525599577 
-0.05394885233653007 0.006719814434548806 0.1255542886887702 
0.06323025342527204 -0.01529889932904608 -0.1062403090761721 
-0.1165341889525305 0.0866522320094054 -0.06340996554269954 
-0.1135177930039308 0.07224303115895285 -0.01824988606438757 
-0.05944750484788978 0.06309706685561249 0.107819134618023 
-0.1232904421915933 -0.00671597098560391 0.1152381946984903 
-0.07463972233573068 -0.02420561682872177 0.04627521208088435 
0.004911085061144685 -0.09317127580019727 0.09247782721971488 
0.01052674776461185 0.01134353477352886 0.06377973908330893 
0.04879552621465526 -0.09161099639213997 0.144923716846598 
-0.06215857014201794 0.04242678147547921 0.04736825008354267 
0.09044116110053153 0.004535114804810571 -0.1553097337465484 
0.07907447960678853 0.02358577018407976 -0.0997591421753343 
-0.1621144103637114 0.05989920562669692 0.01808700382171094 
-0.1016666538361474 0.06464344434329136 -0.01459453852398907 
0.01700269157118107 -0.08089746693361952 -0.0848440254869243 
-0.1035444579879639 -0.06625061216016584 0.1508997635979094 
-0.0566658041598302 0.05158460939580958 0.01426942751532769 
0.02969218721833726 -0.02484759541419954 0.06156608611686176 
0.06633234783445636 -0.09829620786080795 0.08282852042109973 
-0.06515097700048281 0.08623503310187391 -0.1027417171101958 
0.06929402759774594 -0.03594345785682423 -0.03278415178532452 
0.06077503096654027 0.04996397685815139 -0.2534475444220031 
-0.04407996581221249 0.04919767780045253 -0.05888718718820901 
0.006215641009948281 -0.04712785636146497 -0.01510050764106954 
0.0443737256675988 -0.02270327157334339 0.00106472837847178 
0.09384005349773604 0.01731311205808806 0.003543217483926259 
0.05102292587233456 -0.125635241282289 0.208308093292252 
0.04539642968118807 -0.008309429820753705 0.06433474573006233 
0.1129223203181837 -0.0476117922525311 -0.03876347971074246 
0.09536705216695224 -0.1148619948629819 -0.0512994915657598 
0.06210643499401375 0.03700898687934426 -0.05158658527356565 
-0.01581774831135548 0.05136661564294315 0.01478112033795681 
-0.08893813089315668 0.02687943481465812 0.03788891056019729 
-0.03454640371832772 -0.05857631526999629 0.0530418406112063 
-0.02459828719008626 -0.0008440125383036522 0.02697430405488098 
0.08147116793378407 -0.0804278453984997 0.1222210074947148 
-0.02146543503592024 0.02369957415418563 0.06897598759242524 
0.02003950457418312 -0.01374563409936614 -0.0386238460434609 
0.1158996882295112 0.05831536553192326 -0.1169437461431942 
0.1441322583083453 0.03521095050803007 -0.2034107088590734 
0.05371369928625195 0.06304905751832543 -0.08218792500146713 
-0.05612863287699338 0.03975742111683524 0.04384995347520542 
-0.09569120741924193 -0.09492276397708788 0.09823829763928535 
0.04067310694244932 -0.0305789769728895 0.02522940172328953 
0.09876782639106074 -0.1184277118860399 0.01344484783734298 
-0.07395834274274837 -0.05226303352470876 0.1539028306212042 
-0.109410917410471 0.09162953232114657 -0.08465760003175471 
0.0637352078435704 -0.04138047042954844 -0.01117383802183451 
-0.01598082768610119 0.06527738351067587 -0.07607840356047846 
-0.1209166011281366 0.09073387510169489 -0.04590809394091248 
-0.03024871824664152 -0.03275996788465292 0.05948290715400457 
-0.1283438676971593 -0.1217576976712751 0.1964059489304489 
0.1670630311296678 -0.06048704271245452 0.05962899071658988 
0.1388060574312534 -0.2186499966064844 0.04603591989315995 
-0.01370052798959033 -0.1110484582264381 0.1546677227535097 
-0.0383006940782477 -0.02646719401940828 -0.03684992975799151 
0.05547249329699228 0.01721936497637475 -0.01056690008051996 
-0.1002787897828671 0.07630410357100219 -0.06937991396393249 
-0.02612367672630626 0.1521929814702948 -0.1330335774243932 
-0.1298520783328445 0.02567300202780754 0.0742712074736962 
-0.122834124309228 -0.06545655841170456 0.1388780946975234 
-0.04752790255502395 -0.008271541434072572 0.06524805377982587 
0.07943526169982912 -0.08465871367266728 0.01188858985599453 
-0.05799368026796416 0.003361827511268761 0.08648983596589079 
-0.05829621197722134 0.1426935878677206 -0.0878092702206562 
0.07874967400799456 0.02760397653694567 -0.1000361412312226 
0.06699562162344934 -0.005218914798153228 -0.03620289287323354 
-0.06907425301236829 0.163827617046512 -0.01734074197331936 
-0.04937336958072957 0.01698494772327815 0.115267536449815 
-0.1700930900568262 0.01827086724203286 -0.006164930108958549 
-0.1233422511745957 -0.03871241177455898 0.1557816636332241 
0.01481720370537049 -0.1107007539286325 0.08143243282390328 
-0.03459402898155396 -0.01736650475582178 0.1218597254076118 
0.01570286208296816 0.1519652177972516 -0.07882742978001916 
0.05389757712600199 0.06029468204565348 -0.07840252724929361 
-0.03158654769400788 0.1071488654632005 -0.1313701765984062 
0.0159264795860772 0.1877192900344747 -0.1372878424909711 
-0.158589297393761 0.1369464022267063 0.01432287161420749 
-0.1095213023095447 -0.1217880319269034 0.2755414161697573 
0.03668436327328214 -0.07791424633021329 0.1717014915213778 
0.1252783552493996 -0.1886645504968707 0.04467396508986714 
0.03720717554836993 -0.1756800318972205 0.1498823313627888 
0.02247416458478707 -0.04195163920344738 0.03196155512859487 
0.09205900565334035 -0.07907752470360699 0.02036582933748426 
0.006910775114375356 0.03936133810614841 -0.1171791007991349 
-0.08440971866231146 0.21821670598521 -0.171027085367088 
-0.1009712884768077 0.02463143962916892 0.07984066921942824 
-0.02698811886886495 -0.06111804134536666 0.1096931269529431 
0.03860731867081846 -0.03742097807984276 0.1410310872343358 
0.04242729914348116 -0.2415805588504591 0.1410471271874525 
0.06978647787944561 -0.137866261531324 0.02872935944569343 
0.04537319638032405 -0.03511050269457432 -0.08595924107379285 
0.08218709257215258 -0.06563125982249525 0.03038812630038703 
0.01331240277868967 0.1056518596124555 -0.0484493613583131 
0.02099669661261423 0.03020246403965186 -0.01649413557837777 
-0.01379164073887464 0.05291746137781851 0.01700909820585756 
-0.1782879078277913 0.1052056439830815 0.0780562327156881 
-0.09706336763918688 -0.03025264927740479 0.1462981325240202 
0.1639126893782309 -0.1485569966362962 0.08045176076528615 
0.01823751750112246 -0.03265546306445043 0.1454981587577217 
-0.0469806179315435 0.01896480981626113 0.03531857523066979 
-0.005344798722492525 -0.01357090404239577 0.02888933510632722 
0.05811367092323984 0.05109368861291994 -0.1302386516455919 
-0.06999299845500699 0.2532717644972062 -0.2537715755350674 
-0.1609432889890161 0.1167524781206791 0.07623015876003245 
-0.06207593400167371 0.03622023125252156 0.01833278687214883 
-0.007610629180159032 0.04376907706537354 -0.04278327730371557 
0.03383032655374354 -0.05622346452100562 -0.006325334727833617 
0.1750553836469982 -0.1117994972786222 0.06164083352053772 
-0.003723342945551645 -0.04886083399810112 0.05463318143577371 
-0.0216209784061129 -0.009454181507898249 0.1413599933509646 
-0.005755531451154102 0.05736607119436304 0.01483848482881806 
-0.04368423198300862 0.07188812287243908 -0.075182930699557 
-0.04350944053471193 0.04406435915801934 0.002880252785404512 
-0.007829464724462235 -0.05243577775377731 0.0889359571787193 
-0.08535475440141328 0.0726734584004807 0.2195146163195508 
-0.009150470553497126 -0.1245175400197917 0.2070970157862547 
0.1087367294639138 -0.09758710041323168 0.05522620329054009 
-0.05758776879879469 -0.07286479736289854 -0.02380729900932443 
0.04392723149204658 -0.07968131326242515 0.06621200538189383 
-0.03872945368076293 0.02310778059605939 -0.05393724656590559 
-0.08895586075321815 0.11128484925954 -0.1348816270301118 
-0.04855857278185856 0.00886046501722368 0.0274437542186631 
-0.03528685213014952 0.06994568929999533 -0.04173887860080859 
-0.07700704060685919 0.05234296783901426 0.08146462001227632 
-0.03183729071039895 -0.04408210423199484 0.2081161509797216 
0.1610916874617478 -0.1060289058116745 0.05596833541419276 
-0.02968410838212039 -0.003810422281016591 -0.0555160271586372 
-0.05547941996218352 0.03672023564202476 0.1349989765490717 
-0.04399506555738265 0.08542868122000309 -0.0337857659229817 
-0.05860103958041284 0.03063965983982456 -0.06861363952447253 
-0.008824165161494526 -0.01948662005981483 0.07334048869037924 
0.02446051588776514 0.004512129746595402 -0.03243421175504706 
-0.08771387544294022 0.2768175545772131 -0.1673758764123343 
-0.0045041128669861 -0.04132826726428813 0.1126955111557581 
0.1151561609578582 -0.1125993581683658 0.1154476998453958 
-0.04730874766447053 -0.1162576389305276 0.1902136233962138 
-0.06395868474970426 -0.1139860294690477 0.1813707767752679 
-0.1607430256544718 0.134880624880899 0.03032080731139566 
-0.02159388859622416 0.06375162373289153 -0.09399711950848681 
0.1342991806178757 -0.116245825695534 0.0353963533714243 
-0.006165394393968284 0.05070335420565521 -0.154158101092144 
-0.1505937735218693 0.2354657182586658 -0.05327601324309281 
-0.1323944633259802 0.07207780383640976 0.1209981834561437 
0.1808943298979959 -0.1016675709539151 0.103169963640337 
0.02559648976319201 -0.1865204077555149 0.1481797454733942 
-0.003073353495007139 -0.1680847915745234 0.2083330433532956 
-0.0233306426924972 0.08452282095405517 -0.1361501728866321 
-0.02495337684214657 0.07873422705562501 -0.04748035801590586 
0.07310786232574652 -0.03713711861985222 0.01120953996648964 
0.05267751150954209 -0.05331774162065191 0.02960184470050535 
-0.005904931277500186 -0.07375268337459666 0.05259771241600712 
-0.03135101482786296 -0.06303876416682049 0.2632258502869604 
0.1215584781879205 -0.04355554910330622 -0.05411987217264715 
0.08552890246136673 0.004376858287372862 -0.07718189467459362 
-0.04884532134386876 -0.03351875762766338 0.1168646577347814 
0.1393492559100654 -0.08647733832879244 0.02028533412635181 
-0.03281582567726105 0.01246234574153902 -0.003755092942017879 
0.003801580209831055 -0.07125262559545854 0.1003110092735174 
0.05780784471474175 -0.06590435599805144 0.002713370536023988 
-0.2062889732838444 0.1465749527362382 -0.1171268152278031 
-0.08873046800899145 0.03198957587663136 0.08881983460571401 
-0.07833927846012873 -0.04921965970195098 0.05680556143071449 
-0.02309562389937285 -0.08845400564411583 0.06216348042023121 
-0.007497310449440708 -0.1145583708902807 0.09560731108386773 
0.09071292425314605 -0.1785412775457386 0.123113829033718 
-0.01388782976715419 -0.02264595318550219 0.09708931780988619 
-0.01250615930528388 -0.1300971177925892 0.2118953694775303 
-0.03931525801770224 -0.002296741882966399 0.04071882313862282 
-0.2320593893036091 0.1433092944203489 -0.1251704634644422 
-0.1764495424350598 -0.004985784827166381 0.1061984124373526 
0.08141642536701499 -0.03472962843370155 0.0111050027009425 
0.1522687885642441 -0.1405344521089928 0.08192788548409728 
0.02709652759715526 -0.149026113309804 0.104948694325143 
0.1390762533223807 -0.04354936376683734 -0.2080239321156561 
-0.098329929050111 0.121726376478176 -0.05383495064125665 
-0.07595256053867779 -0.04486772307445901 0.1721440087455823 
-0.05598837804690932 -0.03506299613568948 0.07879993780526029 
-0.1648093991684668 0.05824923766940278 -0.09310146877514222 
-0.1105997733307922 0.01715338568801951 0.04539441879694614 
-0.03230707096923319 0.06809458365136041 0.01793540376763601 
0.01917281050337207 -0.056591283419134 0.09347178771491446 
0.07869114985841329 -0.2440038551762952 0.0901018233774712 
0.1074732696116638 -0.2054666291121145 0.0583630813019 
-0.1047535677412186 0.004244092666705435 0.1187298349030782 
-0.1738127588541759 -0.0375806549301311 0.2461887832366778 
0.04022909852228557 -0.04116831499670887 -0.02222133361298143 
-0.06453958674618616 0.1817624021627614 -0.09761118542906573 
-0.04834078349982669 0.09430105357303788 -0.1170239169721339 
0.01363553190517545 -0.02019770560053925 -0.04092155345704402 
-0.1476716093158084 -0.01901108909004593 0.020203393772403 
-0.01116125792574253 -0.04588962395088186 -0.06485900932980032 
0.104183449336232 -0.05260584383596618 -0.06238664234953849 
0.06096407495585112 -0.01194913243381361 0.01432323361748621 
0.01274022767820453 -0.1412137873170514 0.1074494075971148 
0.05417850470090323 -0.07058614172677369 0.07480511826145668 
-0.03054244048926194 0.066923832793332 -0.06996264669929629 
0.004778595732182491 -0.007682175262990384 -0.06899375864678017 
-0.03836870844329151 0.08066700517479834 -0.006427692801872823 
-0.111175512355298 0.1631248856262895 0.007613760726098166 
-0.06682395119532919 0.0319519124370801 0.1133221784899064 
0.05712639759728672 -0.04341144681453731 0.1026488270611155 
-0.06450419495215444 0.07169450761426267 0.08805824070302173 
-0.06037584632845388 -0.03817248409996539 0.1011638683722095 
-0.0002163336656232975 -0.09912270549875869 0.05726645928098521 
-0.1803925708586097 0.1351495371599908 -0.05643006671869955 
-0.08023031246065493 0.1127326257889947 -0.07170418214500413 
0.0007840286309425248 0.01768883649426604 -0.02332339008161492 
-0.08554410726179305 -0.0258872362280361 0.03796527995018641 
0.05883877041273029 -0.1339692639074 -0.01636738833079589 
0.01369447761978757 -0.1063845672818565 0.02931046363592081 
-0.04202315930225588 0.02573294837407975 -0.01449459156351251 
-0.06860253031198138 -0.1134331859803204 0.1367486960481493 
0.03392388400156007 -0.09979322265981182 0.08790379506192908 
-0.1402898425652792 0.110415327486672 0.04784587722308545 
-0.01353296398149874 -0.07718852046899735 0.02918554227064241 
-0.047982455061259 0.01090086046741552 0.009366915567728661 
-0.11430257750852 0.04801904732445533 0.2404077471645614 
-0.06929743142187229 -0.05594831909541753 0.2634807444848898 
-0.02427595655750468 -0.100348671968827 0.1192722990086763 
0.008179019292340781 -0.01873226892421059 0.06845158583779767 
0.08954526176232792 -0.1271215208003979 0.08963340208507976 
-0.01829393365943557 0.02694734736360182 0.009240783948605537 
-0.04037729889821771 0.03786055194192006 -0.02319084546134141 
0.03305673754685085 -0.111427956558947 -0.04345592757411051 
0.06013615657058294 0.0272058265397532 -0.1592886209184345 
0.1019419240588833 0.07009270205607204 -0.2941174585408434 
0.04062210278153335 -0.05001928946573041 0.006332321796672928 
0.095567970069327 0.008039963440733173 0.06810002952685439 
-0.01798410230357055 -0.008228244419032088 0.01676417380161705 
-0.07523189181815786 0.02005935504193021 0.04365113146076108 
-0.03252824899631983 0.054071597537613 -0.07637286116700148 
-0.04435735069944526 0.1896373990297633 -0.1140454040644621 
-0.03791475870022642 0.05524109181362028 0.05443288466131609 
0.05540539362324389 -0.0510824600921351 -0.1285222784423663 
0.1688525993849669 0.01822541577192546 -0.2447947550608525 
-0.03640897815864758 -0.1259094546015078 0.1490917644781195 
0.03522665563275506 -0.02347995883907372 0.1664180622932988 
-0.0369886809034389 -0.05663913141201337 0.09526788847791084 
-0.09158649466903455 -0.007311252203587041 0.09754172661640423 
0.004170315029438456 -0.04901549231633998 -0.02063607856267684 
0.01163257244260637 0.01635466258592232 -0.1203913960102412 
-0.02003522507118343 0.02477474236872309 -0.1154287413850473 
0.009637557807532946 0.08392302406797576 -0.1907722933388671 
-0.004315508815555229 0.1283719746459045 -0.04938466143194058 
0.02581563619845833 -0.1148243899091372 0.1335126274426615 
-0.06127725551478141 -0.1002742951368438 0.1977382570098683 
-0.07043509475945907 -0.03304849603579678 0.09409495395840455 
-0.08734269564145886 -0.04466079831947837 0.1631732553361408 
-0.08895794187518384 0.1144523143530557 -0.1192452306672142 
-0.04883276059442999 0.07527252372356802 0.01764729196954156 
0.06001012607232242 -0.03213141311775181 0.0709002432171308 
0.1225108723249512 -0.06977201536152319 -0.1625847006452533 
0.1489479080115408 0.008084753688412376 -0.217882633746013 
-0.04483544467557582 -0.06737113303946943 0.07153920660906365 
-0.0950437366883108 -0.02514516615757335 0.1158463100518733 
-0.07011011727899165 0.004662267401260563 0.07703549341587528 
-0.150575419645766 0.01539156326712445 0.04810432737696621 
0.08450871181041021 0.0204673587870469 -0.07335970371349092 
0.08150312455050618 -0.03985496925017044 0.05891506420946271 
0.07278493399458211 -0.1055772011502317 0.1271531137987952 
-0.003417945334221647 -0.06228319732210101 0.07242415920551257 
0.008179183702582398 -0.007277039614856574 -0.04060633862236234 
0.1188638480233129 -0.1712210515295845 -0.07233203381842071 
0.03586634934507531 -0.1188713392505503 0.0325511637214456 
-0.06319180341038493 0.1110500127112063 0.02795660171098541 
-0.02731320740839439 0.02146602331318073 0.05550031759761147 
0.01414698954940228 -0.01066783895513934 -0.1048447929562322 
0.07104095993500584 -0.03582299701504514 0.02662031899109293 
0.05727344287437799 -0.1130181159239267 0.07182175761122796 
0.0004342632693444813 0.06809152450963139 -0.02197224671075942 
-0.001979897800872943 0.05148618796089411 -0.1622680226542384 
0.1002593007443792 -0.02712110674329041 -0.1180007911390711 
0.1260742056819665 -0.07891046415922826 -0.1006640982632449 
-0.08899853195392388 0.07912234292328062 0.01198191284340271 
-0.005253281426761194 0.0961064492862866 -0.04263518593433364 
-0.04347614285363546 -0.0908109593405546 0.1159353315762176 
0.07127059819038344 -0.1062063692815839 0.0972148889319249 
0.002118997700205387 -0.1247026987623067 0.1738742903273625 
-0.03986201101022147 0.04082629273902739 -0.05226593646419654 
-0.02601468106444837 0.04865176733609322 -0.102397677386619 
0.1267652238814285 -0.1195542555054087 -0.1464879484700046 
0.1927276391235479 -0.2010272117620715 0.01999806324209539 
-0.01271340067300516 0.05388329633695239 0.005680389849598453 
-0.1059180765978431 -0.05173601326385374 0.04711157212852655 
-0.04259063038121159 -0.02820202242532956 0.0118716176681147 
0.09500369004089608 -0.06998616889059513 0.05340029886659319 
0.05944319695024662 -0.07989870580826891 0.1312911148481287 
-0.03268376054174333 0.1515469318645587 -0.003392090861349487 
0.003820101232618291 0.1013778189076724 -0.197491512109598 
0.04202835533978941 -0.008038456055586223 -0.1610478330966729 
0.008386239677612583 -0.1061368196884441 -0.05047479911925358 
-0.1031388230362376 -0.03004149990957058 -0.02494678718394765 
-0.03573906970205271 0.09250191434901746 -0.03101049703263763 
-0.07659259505982623 -0.0846988783080193 0.1625121317364793 
-0.0243598057231794 -0.03514710235865486 0.09368956208121167 
0.02090055702445318 -0.08081134478807629 0.09060896201746035 
-0.07836327557738144 0.009538857625974983 0.0887822332551654 
-0.006982702571612425 0.1164178560965312 -0.119162016174731 
0.1475422888172405 -0.1092670149219556 -0.02652031400320765 
-0.006112867962149392 -0.09198213707344551 -0.02331534357837188 
-0.009566341061125916 0.1899097205993678 -0.009583305865063615 
-0.02249756697188699 0.04035017639552518 0.09333856175554818 
-0.03199318859487446 0.02246916339341499 -0.1240949185721278 
-0.09896893385626512 0.05379801394489825 -0.04238764323982931 
0.002662480526217384 -0.06434614914728934 0.04523530287951872 
-0.01554349054804436 -0.04334286115723151 0.06240666782380724 
0.03258816900436116 0.04097649859951198 -0.1103645958077401 
0.121540305807579 -0.04663535675163533 -0.04854183123039276 
-0.1150306145790621 0.07222462524015483 -0.1341841103114359 
0.01023519089896069 0.1375574002266968 -0.1031720144120192 
0.09721764870549414 -0.007724343362674761 -0.008254678471742776 
-0.04309730566432041 -0.07108854107619575 0.02428689212143376 
0.004682989045249428 0.008567709814872084 -0.05354353195770444 
0.05583665791314107 -0.08254980162471502 0.1450999579966172 
-0.03751153770454622 0.05048164888868203 0.1131657955749351 
0.02821739205404466 0.02757350340253617 -0.04833310048437495 
0.1221802582874381 -0.1026947228426924 -0.02427286996988074 
0.09652592565986466 -0.07265136381273102 -0.1686311009029517 
0.03876801625453536 0.0357291592801886 -0.1071605341589397 
0.03989680872336947 -0.02782175216855026 0.1124029015443556 
-0.06336399090092755 0.1232974969509923 -0.1857097439540489 
0.03282366995167128 0.1427786466667323 -0.1547396074009725 
0.03546588883836035 -0.07061074247764017 0.08564944312910602 
-0.05542521950461216 -0.04283277863813866 0.1286523952907786 
0.09481643737709335 -0.07369066064992591 0.04174451057914548 
0.0571796318499386 -0.02178378333415559 0.06299077809323185 
0.02567798504890874 -0.02844375671390626 -0.07853729421152739 
0.03310856238746743 0.06378383287700809 -0.1712469169221052 
0.06843911098794556 0.02658827728932765 -0.008506417839490748 
-0.03689952851179998 0.05242200213490089 0.01089087089979349 
-0.0466684497249189 0.05690228274462497 -0.007176833138272824 
0.08341607474591189 -0.1235234374993366 0.09069255689622803 
-0.018816427383025 -0.07806691064320495 0.07393486201325715 
0.03890023903360043 -0.1639305055617681 0.1319211309448965 
0.1671642176770875 -0.05151425540101618 -0.02434738053978882 
0.002600516220757601 0.01449251971928948 -0.1653600691394033 
-0.02542758465962774 0.1203439316463947 -0.1656395644497261 
-0.007403305551682542 0.03054442119466003 0.02232099341293629 
0.009650727588970955 0.02330761146418871 0.0754487293446383 
0.01667842333367063 0.04852675264382784 -0.01401102145693712 
0.09516096449372909 -0.07437062620519351 0.04541064404374347 
0.03530721115044966 -0.04281884619198936 -0.06789927567554468 
-0.05102048006599465 -0.1373124710932817 0.1518310058445241 
0.1122806046467692 -0.03495065184766809 -0.03537128668926195 
0.003927295655438526 0.09348372410250393 -0.1953722197264817 
-0.05329386429031035 -0.0002527586976436147 -0.07384776887307859 
0.1156645663666726 -0.08223055580032516 0.01602085496270453 
-0.1747276372798467 0.1695030850749386 -0.006756818087628726 
-0.01763592728792866 0.2175034517107588 -0.2090109728587044 
0.04212099722994363 -0.09903881535230286 0.07336870723425153 
-0.06580056310586505 -0.08023077493021503 0.09248630812281611 
0.1192931838916763 -0.1936349255096169 0.1934803082639397 
0.07146605569454308 0.06173387067513048 0.01266662543499671 
0.1276007634576092 -0.09438579467378805 0.06482059915581462 
-0.04577579572900835 -0.007301957449090107 0.03733890005142673 
-0.03663462195467358 -0.005879529223994096 0.07701773510078885 
-0.04675447573610331 0.05594947607111526 0.01122425972880823 
-0.08575716793539517 0.1861639844187881 -0.02972829720522036 
0.07208166458219654 0.02172680764921815 0.006285482310577948 
-0.05749448014715906 0.01433946106395676 -0.08694281558773036 
-0.06453184224038964 -0.09255771111776442 0.08935647762123444 
-0.1601986413167088 0.03851861131095618 0.0486147444138201 
-0.1352795031938495 0.06811494091138025 -0.01774088038709408 
0.02703522353987238 -0.03022617233152627 -0.01026889204299596 
0.1439419037987861 -0.07322931363236582 0.04986772316694357 
0.1273337405329943 -0.05219725330916647 0.01820140615569595 
-0.01392049169896754 0.1262116133934704 -0.08760777801819547 
0.02695806208844351 -0.05829553336335352 0.1143522142471926 
0.002648879805466726 -0.06223853678781022 0.05793350392847104 
-0.0497359456736871 -0.07997375652237626 0.1186974129468942 
-0.05479227951204255 -0.06135486127448408 0.1477050402134502 
-0.1671374773863588 0.1173840357268255 -0.03878347834007009 
-0.1416078955222752 0.1630879402092933 -0.1622662541538257 
0.3130368781182439 -0.1793924814066155 -0.001076007270020137 
0.06037387123999181 -0.01902715215739653 -0.009874549144324653 
-0.02908645246033593 0.1783644155266522 -0.02860315506495904 
0.01414431933751543 0.03507696161612842 0.1385058770325356 
0.1008919066291865 -0.1383333602383428 0.1870615374841674 
0.08767569351547411 -0.2177610434421605 0.07472287228905486 
-0.03261446186709361 -0.01519181327436968 0.1590079951532254 
-0.02689298041146516 0.03980289446787837 -0.06483341275571605 
-0.02624916639530792 0.1327938702593172 -0.19379801969021 
0.1836451191816673 -0.06750525460670556 -0.1121023719161351 
-0.06816600286671769 0.0218855332581738 0.05754682048974697 
-0.1035040943119951 0.1592225970914753 -0.07231276723985539 
-0.04436393144210889 0.1419861348039555 -0.03606995089674549 
-0.02241417436557538 -0.001416105081098358 -0.03520056754644377 
-0.04495194951767406 -0.01706805099615518 0.1048701362954765 
-0.1656841172793787 0.01534512607946155 0.1350782888126557 
-0.1955939823342712 0.1160708864667556 0.1593384040645346 
-0.02417858201977117 0.05989166380514112 -0.0395360839456988 
0.1154762167203329 -0.1274619459350769 0.1449355128379215 
-0.0430422410964788 0.02219447808680538 0.01250528782645399 
-0.06417326623164171 0.0188421088915796 0.06341431507677193 
0.01102394230172007 0.1483875364130159 0.1062809034390853 
0.08699742400037841 -0.01622577760757802 0.0172389922680675 
0.08203099006617472 -0.08634855675586321 0.04781361843223551 
-0.1235422689107796 0.08756549766930349 0.06004180483713904 
-0.01831908476549838 0.1165042691968263 -0.08468014308140696 
-0.03052260390970073 0.1544503166202063 -0.2067736364579927 
-0.03279190047593191 -0.02706493341965711 0.03831698847530234 
0.1366669555353132 -0.07000631201985695 0.03765302521346334 
0.02695495494927457 0.1028374421098885 -0.05496215678420537 
-0.0293935836078041 0.0129007063690253 -0.005338077779784747 
0.004757959578640866 -0.066501355315034 0.07052999443380766 
0.1053763952662483 -0.1422992062344335 -0.0840125434219595 
0.02840546229376018 -0.1240043785494499 0.08994029712170618 
0.120867287828085 -0.003937591778883783 -0.1198619967393798 
-0.08992165843033016 0.2084195717758994 -0.1756990446931593 
0.1099045266359833 -0.06196065762117816 -0.04081537225654985 
0.1189592722678658 -0.1190185347189006 0.02579317196986598 
-0.06917919847896159 0.07793090252996838 -0.1331122287143496 
-0.108412105355342 -0.03167617202595334 0.1127085619310234 
0.07493401712148656 0.0154644256676706 0.01434325911646273 
0.04430995293613121 -0.1271114256293479 0.07017104210053995 
0.05057198551500854 -0.2352386491523393 0.1176198954569627 
0.04452593145242465 -0.00998026207725535 -0.0712363920468999 
-0.1325466681022219 0.1502284163518023 -0.02360026819477616 
-0.04135490404301444 -0.04883267307077397 0.04228249184757542 
0.1188846846106252 -0.1912872764395402 0.1380841783625015 
-0.06842517602465302 0.02647419426276247 -0.0460103221910332 
-0.1369800760528096 0.05053470507158433 0.1115668062553758 
-0.03671081673813198 0.08071839115052315 -0.006060119106493587 
-0.007809546857281495 -0.06154970919557345 0.1146952686501428 
-0.05805389096931926 -0.01690003105096863 0.1363812878011787 
0.09032771521412461 0.1220457855476162 -0.1854874342325874 
-0.004565284150500545 0.1433726050621621 -0.1546946061559043 
0.1318130801933686 -0.135493703210614 0.1424896490529703 
0.1127760365142153 -0.1897320666057495 0.1169016214783709 
-0.01448860919264754 0.07325276689200795 -0.09303856206924181 
-0.1080240299230072 -0.07182725553430133 0.1806417024062061 
-0.08439141913784322 0.03321605749331089 0.1448545925480033 
-0.03034314664848577 -0.1001078574234695 0.1025752339076284 
-0.09505667630693712 -0.1613202824713703 0.2240204598985317 
-0.01337072732666502 0.0846896099857119 0.01197190494560229 
-0.07125200493664385 0.1477776298249473 0.1053879242358496 
0.0271768840353895 0.009379490871882043 0.04967561594800059 
0.1524970475966549 -0.1332553021331057 -0.01433846611336763 
0.01178085223097631 0.01362986383564086 -0.09335064832031956 
0.04470500096652087 -0.08114444408088316 0.08827683997705604 
0.2227392994600102 -0.02982113602373358 -0.1756924868770858 
0.02784936722883233 -0.04358641786501216 -0.08732564304048324 
0.1056137302536371 -0.1377437046096313 -0.09763560097393228 
0.004243501262164166 -0.007160452306611405 -0.07560374733977973 
-0.09261301036886672 0.2186375726340114 -0.2005580884262831 
-0.04677187574071797 -0.0007812205219188012 0.02557727096585094 
0.07140336350120788 -0.1226509374717404 0.06399823667185875 
-0.01856024944370185 0.1308018885005432 -0.02865459676555714 
0.05735282823573289 0.01758155730889151 -0.03941892848861329 
0.1047626596290502 -0.06683248942487371 -0.0007572858234585271 
-0.02988190517372707 -0.03682508310518078 0.08597362241209532 
-0.0001389391769795947 -0.1271996124073113 0.1688799571690462 
0.07576083918616479 -0.1378769092578888 0.001380733656404743 
0.07125348636411828 0.06248196035826977 -0.119073877482487 
0.01450816693368619 -0.09007369420403273 0.04617938721400688 
0.04673599364043482 -0.07912086182609088 0.07525759478109562 
-0.009792118227798761 0.05235965298990527 -0.0630980073271193 
0.01565144373967389 -0.007404885712542898 0.02323521793968184 
0.09767019138992908 0.005931413030545736 -0.0670887069489525 
-0.005683154667828108 -0.1060133783934917 0.06348691009001999 
-0.03507662313336162 -0.2161260782300588 0.1856590478649842 
0.07332439014697532 -0.02714026212992016 0.03508123993668912 
-0.06920857960102238 0.133966554519861 -0.01944802769108247 
-0.2097801090539191 0.08572294684504844 0.05088757123530322 
-0.001198071862353062 -0.1024123454312855 0.0559650611049391 
-0.1711883865457229 0.09046385128012731 0.09818664779856669 
-0.04067865214814456 0.07328895155338426 0.0495341336016023 
-0.02166294720202141 -0.0048865278343733 0.1788527545183593 
-0.02750640483043409 -0.06203289316178705 0.1103212178271529 
-0.03039476696730799 -0.2197230647485926 0.2966526971776028 
0.08708711500655503 -0.1476812004381225 0.06136943434406705 
-0.007504814299603308 0.03935762458596714 -0.03260565902245291 
-0.1273524715945404 0.001407228570757752 0.03929327380707581 
0.01134418071824027 -0.02522291890603538 -0.02376797839489069 
-0.03177123313271323 0.1182024631854213 -0.07990073117351057 
0.0003395941680793342 0.04124706699548624 -0.147494155165543 
0.006276848072923881 0.02145799573784651 -0.08700618908841501 
-0.1047247387105104 0.150823139513114 -0.07424976218602271 
-0.03728980774935763 -0.1203563084620615 0.08082590405991545 
0.1068096767302945 -0.1551540595379445 0.07755726785209135 
0.03441317198918543 0.04107720460358669 -0.01670425331563208 
-0.05336235506720554 -0.03857491875172631 0.07141959773465566 
-0.07271330156628149 0.03382423066090733 0.03739657552751831 
0.01639692644687274 0.008716212416129132 0.1319860211535549 
0.1168017476728612 -0.1498798398394664 -0.02594173222027338 
0.17754209266738 -0.1297614292947316 -0.01474418891188081 
0.04573755907061051 0.01357688881794752 -0.03286305896604243 
-0.001064012332289926 -0.01223844833346255 -0.01186623979591707 
0.01113145563942344 -0.03655581155929886 0.07637868792628467 
0.01188833788227955 0.03363134807519165 0.03389565407109473 
-0.1285757942804371 0.001314632819371227 0.05239873725302151 
-0.05147942226958097 -0.0893102894366415 0.08563563072911688 
-0.05546188609087561 0.03503118469855312 0.03992697041147868 
-0.005844836121596569 0.02424769050897158 -0.1482661360965586 
-0.02095679100364486 0.07215667302573084 -0.04195477540121315 
-0.03468135352655447 0.09116631114074054 -0.07210123536152951 
-0.03201774986258236 -0.08360584124256641 0.06556939605385557 
0.05780620911614467 -0.1069952902826642 0.001973309444480154 
-0.0008992204864359516 0.01353319296974011 0.01918721209532318 
0.04223903293496614 -0.03212543754997327 0.004270182687605687 
0.01115040067115474 -0.02688065714541811 -0.01215199948729699 
0.04293770455447678 0.01422538244915486 -0.04479222186325851 
0.09849572044976757 -0.08849640267493215 -0.1626977088308274 
0.06608076820279218 0.02237087652525718 -0.1026530495401397 
-0.06627014816482993 -0.01681326982749369 0.09907935893414226 
-0.05549280677066728 -0.04100325695791873 0.128143660704496 
0.05526647162775788 -0.05918227972660304 0.006571409281955547 
0.08017117483697532 -0.05517962911995285 0.02584216914339446 
0.006938490888022159 -0.01092552407051015 -0.06496025368332786 
-0.04579587232517106 -0.03239736731580096 0.03548156527214516 
0.03798796962995156 -0.01678326497017389 0.05545748828246165 
-0.02095877878390472 0.03465079049127709 0.02026203224381084 
-0.01233172136091738 0.1604401739751489 -0.02494102204259839 
-0.133960746485811 0.1668823411932994 -0.1688150598488423 
0.07964529940111809 0.007662657324857966 -0.1641438110895868 
0.1467143317931442 -0.09600295937053353 -0.0005421616433152739 
-0.008869872047237487 0.008298892545088895 -0.05849377085455237 
-0.09699498292431789 -0.02074044375051442 -0.04572057672174969 
-0.009100336274557736 -0.02389111737185137 -0.05898775876600772 
0.0637118552356591 -0.05302242223766503 -0.05302290383657369 
0.02748432334185561 -0.02120906270028325 -0.03725077850688149 
-0.04347413776911845 0.1348556236886969 0.003425680451762901 
-0.1134378076931704 0.1774515441171249 -0.1276402609905473 
-0.007116111426734575 -0.01178350870957343 -0.1325044319934825 
0.09878418420039699 -0.05415362486043805 -0.1334676551622818 
-0.02840627811310038 -0.08598783388778022 -0.04664856530590394 
-0.03402752991457223 0.1012303363177991 -0.07677957784694996 
-0.01416954052065589 -0.07846574793999556 0.0329335308152881 
-0.02269797322096861 -0.07718578024433699 -0.02904121243757224 
0.01531041790906993 0.009813356509338551 -0.0483473268654769 
-0.1719764055746421 0.008775860234348776 0.05307878564991587 
-0.0737239177760189 0.0008572248790001706 0.03249394681241051 
0.007970392766412806 0.01061443873742042 -0.07261105710681008 
0.06368866413985934 -0.008650608577510698 -0.000721327586845763 
0.05051490414133904 0.04703236857270709 -0.04528987666109845 
0.06922219982747929 -0.04922904223752215 -0.02404977885447073 
-0.05896407593526309 0.1146893625087983 -0.1201569921428451 
0.02826563781682096 -0.011499016752958 -0.0983137969588171 
0.05996649962212262 0.003634655693382724 -0.1283956235592732 
-0.06783455301492829 -0.02450755351807196 0.06534659256625876 
-0.09883977899692629 0.06428460473545143 -0.05279764962898932 
0.04253478212479223 0.004405963477562965 -0.1066774067709425 
0.1141579175201198 0.02455622243700704 -0.1646474139101422 
0.00422073084551812 0.05302710516096941 -0.0330986163882999 
-0.05281705192477553 0.105859242178657 -0.05059152999188333 
-0.04685933557478116 -4.944627582875521e-05 -0.04258776933974188 
-0.0002165291533439719 -0.001232770663841066 -0.08297303293783834 
0.03216346585105262 -0.05066069828353194 0.06725005517548641 
-0.08039804804687156 0.05523659376714626 0.08755041786060179 
-0.1757752613365298 0.07953891906495135 0.1374922066294129 
0.02463082795975408 -0.003085544494229141 -0.04555488317425802 
0.1647624238720233 -0.05458696522067842 -0.2506160621562162 
0.07344292094759972 0.01859349410192227 -0.1044191090591331 
-0.01854724553639698 0.03978527065521277 0.06923784370305994 
-0.09405877162719592 0.1596847004702996 -0.08679704949096663 
-0.01836668596320073 0.1303240326496554 -0.08858825433580997 
0.03118687508315226 -0.01824068342881842 0.06775635679652817 
-0.1648712087258905 0.08500658381701878 0.07029566864477513 
0.005651373512110178 -0.03165877255421484 -0.1346483758609022 
-0.02358670932969346 0.02118129184402708 -0.08237464620222834 
0.1030207544129713 0.05256074256672257 -0.1177883315155942 
0.09359840160707208 0.04607553504901199 -0.1428850492139473 
0.07579350012643889 -0.001341595161799272 0.006617082395112288 
0.05789250304881852 0.04275449545851977 -0.1061207557854871 
0.00606390865824599 0.07816711235656357 -0.08005948289646257 
-0.01711288191862057 -0.02731262548534229 0.02935249658679853 
-0.1227801592546958 -0.02266343942868528 0.09302282837858782 
-0.1203678211074737 0.01066309069135968 0.09437815424011273 
0.03323506760216473 -0.05173512681441406 -0.0339606840308336 
0.2449595632559083 -0.1254711439397154 -0.1765269183857822 
0.1219764956744994 -0.02446412597072064 -0.03554415169433774 
0.0214401928210524 -0.008664869662501892 -0.01775786500767603 
-0.08683474828329946 0.05498273613579226 -0.01269849016109972 
-0.1129159687363493 0.1337299776076378 0.04315160733597365 
0.02361061406965187 0.06261714369945906 -0.03091655174437764 
-0.02900760541282636 0.09226351117785482 0.01141720426262837 
-0.07008464865556842 0.05392739436114341 0.02417002091357923 
-0.03293390019635472 -0.0495608875951865 0.08727828813328803 
-0.02652737014841568 -0.009823408089299549 0.01262269108733347 
0.05048925843221941 -0.01360265984044918 -0.05498678910381605 
0.1198750063409718 -0.1008982362804306 -0.07293808011931999 
-0.2145831990616386 0.09446799716667395 0.03178183323483036 
0.005893496241283588 0.2009879616356671 -0.2432517065564228 
0.1012319512789109 -0.0978617804105648 0.05748491108465763 
-0.04360732413582787 -0.01198330643901962 0.07082878608327337 
0.08701149187834424 -0.1331343701451182 -0.004979830086880697 
0.125657637210395 -0.04549936852638046 0.04390372749533943 
0.03559825823186204 0.019858699748896 0.006894230143525882 
0.119665769496185 -0.08485752039427896 -0.175192426059301 
0.103603998361947 -0.1276666424225434 -0.06023895279904018 
-0.02032318737807293 0.03691761813354547 0.007631794206547799 
-0.05071349147310501 0.106427265696754 -0.04426052915277469 
0.1255729840525238 -0.08171934013995777 0.03317664358801484 
-0.03138089945381817 0.05311964461859087 -0.1013013614059428 
-0.06859235372097468 -0.01768980589831826 -0.06519361270601774 
-0.05142012421829197 -0.01512208604658246 0.02627512829837412 
-0.08646233618691646 0.07011506197982528 -0.128037120529033 
0.1036032036400649 -0.03897586406526842 -0.1777422293229635 
0.1177680456697242 -0.08811079190240148 0.02164871421750044 
-0.213354999761876 0.06057858009705519 0.1566146487791768 
-0.07434815826239624 0.1486373529920202 -0.1304089815200272 
0.1033087244150159 -0.01266073892250684 -0.04519502049693157 
-0.01076423086716284 -0.04579204762080237 0.04446910937286338 
0.02581366613540069 -0.02489002306585383 -0.1048253847615437 
0.0499559095070063 -0.13058255837701 0.2204337792806272 
0.08800040377562272 -0.002220102511364242 -0.02266295424326761 
0.1692591169854805 -0.02167485598533375 -0.1695836258761992 
0.1056269142678431 -0.08051702175341634 -0.005588706361581277 
0.02378222489160743 0.01769692821798994 -0.003703353394815531 
-0.08432953900278073 0.1141764527559865 -0.07109320387362397 
0.1436040891180961 -0.0672614405638885 -0.06310744011580921 
-0.09539175076923705 -0.0280001383223548 0.05262607189446526 
-0.02061512755940157 0.07940050451141167 -0.1549004260267942 
-0.009633312092715821 -0.1257241349523612 0.1819532202161654 
0.1313801009323117 -0.006400169327403339 -0.09562353468819859 
0.1635268859176743 -0.02103138331512217 -0.1458307388336419 
