solver_type L2R_L2LOSS_SVC_DUAL
nr_class 12
label 32 33 34 35 36 37 38 39 40 41 42 -1
nr_feature 4837
bias 0.5
w
-0.02308065922449564 0.001865955969567018 -0.02793238629430404 -0.011739310001008 -0.02096285976228012 -0.0002996213897200013 0.02359514005838494 -0.01780460823015459 -0.02577776825605429 0.0158811204159651 0.00708709532028285 -0.021829938894262 
0.005408867228170599 0.009633944351084844 0.01472160344113706 0.02004666830776614 -0.02408734364527945 -0.008044430174284406 -0.007802787685332061 0.005444820402398351 0.02762457929447754 4.570429589036382e-005 -0.01151403107033082 0.004372353738788443 
-0.007407244787423874 0.03721884521616912 -0.0009898266107760808 -0.00624093528588934 -0.01301511462433321 -0.0121911552949725 -0.01440054747888468 0.003689138381669993 -0.02172048421325474 -0.02052644913052879 0.006892941511273368 0.08059874545962288 
-0.006576343902855462 -0.02827409125861835 -0.01910700046500343 -0.006475873519364323 -0.007625869789760971 -0.01276957482624151 -0.03712610151991612 0.01704051387144153 0.01086495730127427 -0.03046017253584911 -0.007145566343839383 0.02615340366582703 
-0.007058857555682326 -0.02297740833876892 -0.03187233990349191 -0.0118606313919548 -0.008691910210140225 -0.01604984283417843 0.0009499272668266153 -0.008151643556020587 -0.04311991923495086 -0.04190523140929568 -0.01966544708669372 -0.0004799807040981582 
0.004113089908955787 -0.02688925343211748 -0.01363087712751166 0.004064805119714433 -0.003762836418805622 -0.01413861485911949 -0.04397611479697164 -0.02519533182536065 -0.02555109667794487 -0.01521025258922067 -0.01648610278233915 0.01996621576908413 
0.01732906516481925 -0.0005847630316646407 -0.02077280162806102 0.003049089272110426 -0.01295770143958116 -0.009865807210790103 -0.03971383170205713 -0.02134391779312444 -0.005152230920939018 0.006590913426500888 -0.009383104052949764 0.002955424239059894 
0.004566461082721064 -0.009982504847146721 0.02019555271608528 0.008638237925521607 0.0006451854789045792 -0.003261894342761457 -0.02913443156273185 -0.01263971861535167 0.02212766356572552 0.009135211409400979 -0.01478211523185818 -0.01256440349896729 
-0.01694747286988088 0.01033444974501834 0.001972872661617727 -0.02616520275770706 -0.01036074686659218 0.01160408036556109 0.0009804099743912517 -0.0182053919954989 -0.02123370200181756 0.001864515610996445 0.007926862053514351 0.01413598654080942 
-0.007071390907743213 -0.00268435497377665 -0.04900527837851885 0.01021680764900148 -0.01774402339027203 0.009460884601004735 0.00523010800132915 -0.001228624309728402 -0.04688044848760003 0.02140953740696911 -0.01003035180321966 -0.01374269896148685 
-0.005711306702446193 0.009378653319969087 0.007494320716681941 0.01391534191171332 -0.01771130334847251 -0.01033460303145548 0.010246868769676 -0.02516306227903751 0.03879191236968967 0.01941200931978059 -0.02619214507187988 0.005082305056145008 
0.00560202789196209 0.01216203287414513 0.03111939711319295 -0.004616941244860644 -0.0131412566327322 -0.006800100970211777 0.0001485638125613083 -0.0118251433732326 -0.04888938725646561 -0.0234251701077782 -0.006701232238095727 -0.03596247258560955 
-0.001575288390914041 -0.08535714404802632 -0.001437242247455875 -0.02885011383862171 0.006430449145685039 -0.008516535615128116 -0.002024094173129486 0.04791340884100189 -0.04229836944962827 -0.05036069293582084 0.007249058183504522 -0.04738581202165642 
-0.01188311833934175 -0.04179027470327495 -0.05553970137213749 -0.0256555113603543 -0.009601920805054173 -0.0189262089998802 -0.009018806947105228 0.01578705912006192 -0.04275805293791896 -0.05929777560149027 0.01605388140145873 -0.0190970310011098 
0.000574818745767364 -0.02790422818392111 -0.02187431178046491 -0.001800836296800244 0.0001071706076748302 -0.01766283539146879 -0.01668911401151922 -0.01578224350069122 0.002279134471078541 -0.02680693418319391 -0.02788641159488292 -0.01285681145330711 
0.01023337756004725 -0.01198697771565229 -0.003791114333355245 0.006951577986917051 -0.01167864547012903 -0.0121894367569586 -0.03197108782279765 -0.02342676794660235 0.003510332702589503 -0.01154357349952419 -0.004641180238024031 -0.01858063096253775 
-0.0008959334332933979 -0.01461352309535426 -0.007523022354859995 0.0006400848373531015 0.01159995617097907 -0.008426575644934885 -0.02286069387917986 -0.01381712702333363 0.03142356121879841 0.006230164237500981 -0.02209491278273367 -0.0009075261362403878 
-0.01212608142700622 -0.01322700854265284 -0.02178213773811877 -0.02719051809269794 -0.002189623262662614 0.01567023028962756 -0.004162880295325145 -0.006933671156673511 -0.02200576595936055 0.003608667864129629 0.00254531868572767 0.01196908489239496 
-0.01767898402537781 0.004530329841955301 -0.005261981671338342 -0.02752616754533374 -0.01046788106496918 0.01423350711116547 -0.00285029344313249 -0.01197043827017494 -0.01272732728970877 0.01906898539214336 0.007921882519776826 -0.04625390305259507 
0.007833997531359075 0.01064830282356933 0.01658702779659119 -0.03529127020962061 -0.01212936599100006 -0.01851255779883785 0.01242329284783839 -0.0007136250017469665 0.0515897303393874 0.003355183704445045 -0.02906719531896305 -0.03887247285216963 
0.003433704354554939 0.0009277621313431672 0.01025695224092957 -0.02780878375541595 0.002693984263627356 -0.02339755087102181 0.01463823432989739 -0.0007616490827348308 -0.01136164556667978 -0.01589790170769402 -0.02294226192393329 -0.009706272146793307 
-0.006101083683885949 -0.04149815012362295 0.01073152888526451 -0.008624053884962925 -0.0003050724801988409 -0.01808829790648572 -0.02493385493108556 0.0193141001778308 -0.02982404030469625 -0.02800441079175632 -0.007607857581027914 0.01689003506497304 
-0.01041258954698157 0.03676169961078807 -0.05034035376390892 -0.03729655866681661 -0.02016456821891367 -0.01405836018193966 0.0228813630942322 -0.0047691788074127 -0.02406547204987186 -0.006767131163899431 -0.01846463392768374 -0.01028190588407691 
-0.007729978131893629 -0.03039833583929454 0.002669549683966209 0.005357227045043374 0.002487582862490324 -0.007293480491465948 -0.05435859494606725 -0.02929000613204405 -0.007022619205443475 0.02551155533216457 -0.00974302864339432 0.03130274708478738 
0.006217343168382555 -0.01173728994440158 -0.0121510048332386 -0.01677478944466948 -0.001307910699962256 -0.009999116745571019 -0.02891166411421362 -0.01158413405751275 -0.01715737611388614 0.02713835312355276 0.01004546083750683 0.01459229526058767 
-0.002298068280869601 -0.02972621373237388 0.06057776558172694 -0.02098434478234288 0.01244537847797571 -0.001897356455346876 -0.03033242073435124 -0.01324518063247723 0.02792456282806909 0.03836560304427986 -0.006319582078269744 -0.0392201845691642 
-0.009683008851962743 0.0008164123530511277 0.03737637892021588 -0.02080657365809316 0.002466641498168783 0.02237294413952474 -0.03004759708430384 -0.01268829538007421 -0.001200084210144205 0.01123536475663796 0.0224592575043953 -0.0174820122501615 
-0.01712530125455424 -0.005361536155527597 -0.007848829135465953 -0.004567962760261836 -0.004604699625237714 0.01448316438381692 0.007844365543233244 0.001623341348173729 -0.01125435960516379 0.04504788814614837 -0.008397794543826222 -0.02948817199764393 
0.01886248317948796 0.01089658276134203 0.01589816991436338 -0.01579398617751507 -0.001302609194467202 -0.01119555616286733 0.06025883296718762 -0.02672195568393833 0.02747578446502764 -0.007910391062924791 -0.004585987861351026 -0.09117988972099915 
0.003467601420088911 0.01429209242220538 0.03361299506445339 -0.01597797216950373 0.004905079559129117 -0.02348711516054489 0.03088377034728763 -0.0006876249984118594 -0.006132214215402285 -0.02106095742031212 -0.009206515629403018 -0.1039640093453978 
-0.02054917735739779 -0.04994503072890669 0.001928756642526266 -0.009897105903523544 0.03173854067634003 -0.02456614088618511 0.02130527125192812 0.04808627155187718 -0.07112203385228377 -0.02698053275854781 -0.02191792093982367 -0.02565324627554426 
-0.01968526077745365 0.0002295707989632998 -0.05448871622032825 -0.0380231811872685 -0.008908110001942714 -0.0303196706530375 0.008076936109594795 0.01443638143089563 -0.02601646398232581 -0.02603911706450646 0.0123571802968127 -0.05652862951951863 
-0.01113055570396476 -0.02322182369251363 0.0002639134041420362 0.001689792156148576 -0.005521860134910294 -0.01849942336718154 -0.01220159562294389 -0.03286566010682598 -0.02055245485815362 -0.01246806543510751 -0.01100671231299135 0.05331998984490649 
-0.0002986139413919206 -0.009822503469956017 -0.007371249931421892 0.01135012591115282 -0.01644290273443501 -0.0164848711902028 -0.06004760555243516 -0.02988018316357264 -0.02750108200444268 -0.006278470261121512 0.03048044110175712 0.0316857479239048 
-0.01629028927093467 -0.02203444950144724 0.01748734710830492 -0.005470437405429718 0.001051807308564505 -0.004849100979077555 -0.03782281000006615 -0.02360798858091073 0.01177826737293774 0.009345900642441085 -0.003513647907990452 0.01782158626923435 
-0.01410591959379563 -0.01768341059144537 0.001610638653141458 0.0046242217460057 0.00142719245476019 0.0164214205864426 -0.01536501911911949 -0.01346307240937477 -0.003677109894631354 0.02171760049691686 0.008973246555097991 0.01741095740693228 
0.01025531441650062 0.01204360414281411 0.004097580845245597 -0.02427120302724778 -0.01375751030201066 0.007567172020186212 -0.02082729628229472 0.002558514344313128 -0.01619932271535974 0.00667018596525303 -0.01706079878236663 0.02979536297703216 
0.00395584751575895 -0.003342851023088151 0.03969795572883884 -0.002837723631526709 -0.006303099877388166 -0.01529917030917784 -0.006791783970307976 -0.02759950760203964 0.03344175771479013 -0.01555221343292911 -0.02310326237773859 -0.04031041797529144 
0.0008040995491308307 -0.01109658504814279 0.01716124795125466 0.00911170192713796 -0.004831206753146074 -0.01024783581726089 -0.01048362117362482 -0.001280259030108684 -0.003752092341416466 0.003053689801594587 -0.01656902550762732 -0.0464649964412439 
-0.006824793455642916 -0.04746001302297726 -0.007439903064144074 -0.01848275359945083 0.005961891115279376 -0.003077169763433599 0.03490574494582708 0.04157097958575263 -0.02619888426058907 -0.01389154670519249 0.00501962951653452 -0.0269837541659008 
-0.01334554936681444 -0.01408906804114984 -0.01508790629340012 -0.01155626261173127 -0.01664292852468631 -0.02034807914711295 0.03281891387313122 0.00310191083063766 -0.02055968220750834 -0.03765169066246057 -0.01114143405656124 0.01158941382547104 
-0.005206090865294658 -0.01086602378129046 -0.02457309754810828 0.01662034212391587 -0.009022451798150782 -0.01466096200294375 0.00251040399837465 -0.01382493817425056 0.007482704808300269 -0.01489676856440341 -0.01117944538317427 0.0198001493495688 
0.002268677620984274 -0.007032870500617141 -0.00492857511572769 0.01425619719737233 -0.009811730532266499 -0.01765135024663277 -0.03571285861364362 -0.01693996621131773 0.02653501968002944 -0.007687598328710625 -0.001074279630853528 0.01319423431718793 
-0.0004372675818133108 0.001916577425443547 -0.009131536166488664 0.01516005491195631 -0.005813849805322808 -0.009912123425335493 -0.02072425041217911 -0.01510151790653828 0.01735559114527573 0.01970730840731488 -0.01990030960639016 0.026560733777306 
-0.007313835785233034 -0.01297385784115997 -0.01375472486850243 -0.03135419597235049 -0.01522141137418122 0.01212086525631121 -0.02902119478260579 -0.01917846700398449 -0.00916510894492429 0.008619171625760289 -0.01021659993567449 0.0339896885385126 
0.02103926563856946 0.04646515960280249 0.04620599289868264 -0.04220146258290838 -0.01667119826196675 0.01039679025984559 0.003728425217394897 -0.02480128657319451 -0.008007235250309776 -0.03323050995140905 -0.002407841100657439 -0.04169424781795249 
0.01309527596659809 -0.01293982034505503 0.04342319914759233 -0.01232751767370762 0.006570264879277985 6.98632985336405e-005 -0.04459371552392121 0.005898681484927577 0.01193651097626296 0.006484984420970598 -0.01680723038773245 -0.1110566895732552 
-0.005370146152493062 -0.03147741892269783 -0.003298631586651612 0.006348022979881586 -0.006794066846731778 0.00369906478708662 -0.004305191213476818 0.03637520908837345 0.02430014867726146 0.03433745232462224 -0.01762647430809796 -0.04697362123698871 
-0.01459165136891761 -0.03927185588588116 -0.01462849385482088 -0.005873781266714008 -0.004241441477725917 -0.006379726076762937 0.05742275879192953 0.03565625765994163 -0.005755455870799687 0.001771932246660667 -0.008604819259190108 -0.02915648080432235 
-0.02686419335591471 -0.006276303523432065 -0.02663438258262437 -0.002324265313564509 -0.01335141561118168 -0.02386369604459887 0.05003559280080239 -0.01600048495420437 -0.013827298070329 -0.0441764143850799 -0.01780979694000472 0.008371804496047216 
-0.005084022391653942 -0.01964660057270259 -0.0518245802179154 0.02177993953124468 -0.01580838249829226 -0.01870704564693422 0.02605945095914429 -0.0177658635768219 -0.01234754964448953 -0.01193899617629749 -0.004209955542497159 0.01468852144034688 
-0.00337951244337532 -0.009108202496488657 -0.01877287241694787 0.009590211583675566 -0.008679095183080429 -0.01594862969205778 -0.03927248463983841 -0.01926404126846476 0.006014049017290726 -0.01098115724267193 0.0004739491063529757 0.05590724359357371 
-0.006745767869202897 -0.002912451525978022 -0.01908577006338255 0.01814739657368129 -0.005587646297567216 -0.008822854593633375 -0.02668462598299256 -0.01815988246830012 0.0003235512178309212 0.01619752221287174 -0.01730277171401229 0.0405759135710212 
-0.01005522015804746 0.01127712672580244 0.004724417534716852 -0.04229771647427858 -0.02317869836240289 0.008824938074100432 -0.02523270432833602 -0.04037422281674741 -0.02217337605877401 0.0113663593940638 -0.01268055611837115 0.04394918631988268 
-0.01566009713588783 0.002709549301591065 0.03345938976903629 -0.01403268936714913 0.002136610264086017 0.01656960719101138 -0.0008156649264304181 0.006841560824142245 0.00100693767814584 0.02731478285168357 -0.02945985002700769 0.02850406785764925 
-0.003489294387513341 0.01371906176812987 0.05024271872167607 -0.03734736212976714 -0.006873423796176897 -0.005351490608332233 0.01544714773914782 -0.0201109683513733 0.02111993615258209 -0.007747269001159121 0.01299553134998999 -0.110432784659836 
0.02023335581186037 0.02337372937087009 0.02193526114952587 -0.04219853761288232 0.009173965128059252 -0.008472224915962086 0.009373637022977123 0.008799428447893123 -0.01035048667696097 -0.03001608997391785 0.01405800934524597 -0.09837151021206446 
-0.01499190073795616 -0.004214242383509285 0.001973890417637419 -0.01971170996154184 0.02537545786199793 -0.01455920790604042 0.04509369841278431 0.03158718634057803 -0.05197008558596378 -0.01420546857936309 -0.006487542844446772 -0.006344517536347449 
-0.02034265632857434 -0.0004391509449186221 -0.02760011237307174 -0.009620124765938126 -0.007623896516411184 -0.03017682364841414 0.00614213386365355 0.001456371487773312 -0.04174816859563058 -0.02104953915941637 -0.01167831351294193 0.01482993741840864 
-0.00707143298397987 -0.008107033172547426 -0.01030532514509346 0.01400189149800442 -0.01479409238875975 -0.01943370187958037 -0.01860802454779162 -0.02070008839384785 -0.01092710378274477 -0.01370255819940138 -0.008989293473952919 0.06420934101730427 
-0.0004093158171148985 -0.007385574370950914 -0.007425378896315526 0.0115889305986477 -0.01902979311479777 -0.01623282309611174 -0.04881860654026724 -0.02427873853500212 -0.008442485082677687 -0.00360533725605471 0.001165508679289397 0.06178914770496007 
-0.01433043598812758 -0.01179258163741753 -0.01608572682543762 0.01782078448557008 -0.01577738766225545 0.001812093482609361 -0.02305259538186181 -0.02121705487750418 -0.00746182000569938 0.01673546100282856 -0.01624919106782021 0.03908589933507609 
-0.01892644041948909 -0.03108743732151315 0.02415376447828983 0.004821064112656729 -0.002968049510012368 0.01223917563378263 0.00522965709451456 -0.02524483148948644 -0.01710163859416192 0.01524600706880471 -0.01104944423687912 0.0266152947844204 
0.01147241319471131 0.02743581370441431 0.02929034390798486 -0.04927937569539823 0.01802896484156122 -0.005658276203834147 0.01230461353477593 -0.03454887809825469 -0.04345420971844222 -0.01611916147872752 0.006224834817608563 -0.008347452344294746 
-0.005267395667727061 -0.002503535724895107 0.02525204715946569 -0.02109130152208099 -0.003645133944769924 0.003327282721676965 -0.01963807213559993 -0.01243011866800714 0.01134008934512215 0.001056687756442199 0.02720559700621879 -0.1048050536328347 
-0.01659770156086896 0.004399225835272391 0.03552542912957786 -0.03581153313844953 -0.007273203258737763 -0.00259685421202987 -0.03472708659572842 0.02547701526320152 -0.02316524285360739 -0.01962650422646365 0.02457644669183405 -0.03876065817081564 
-0.02063518364251831 -0.003565689841375064 -0.03315246829497785 0.00978912622335117 0.0001811574507730973 -0.01165651590931412 0.07029764018879603 0.002447163964167071 -0.02548289744189881 -0.01555009052683653 -0.008055516374926495 0.005373749401982908 
-0.02021330762472551 -0.01896208103307501 -0.02843221920092553 0.0130414325122894 -0.0176181707494536 -0.02480030971881612 0.03618616935534241 -0.02854166208002216 -0.06627244271899578 -0.0458612699422456 -0.01510909852156661 0.03145661982242441 
-0.01079177627283632 -0.02279463100104503 -0.04826714562650851 0.03190611167120826 -0.01311798377208389 -0.02213282857512829 -0.01349075643267561 -0.02329018955648276 -0.03940004259284707 -0.001026416574649936 -0.01214836185274055 0.03916819712484283 
-0.009532240081974449 -0.003439475033700624 -0.01493045329753668 -0.001551356313880781 -0.0004947776473317858 -0.0160351476434871 -0.04576507291189895 -0.0264214848350636 -0.02026888676333771 0.00434227276448141 -0.01150298440382949 0.07245990603891557 
-0.008877540783445423 -0.003063200101731394 -0.04723092407096799 0.03088703304982272 -0.02396116863610163 -0.002349059765204502 -0.03566686429509049 -0.02655214876267385 -0.01838703025729997 0.007005779073714458 -0.0218308338974931 0.05737600324100922 
-0.004388391302235587 0.006993653023963558 0.02624676351327957 0.01310797845666236 -0.01029923670672277 -0.002716392996468814 0.004630410822330249 -0.03577119956111545 -0.03158984013550437 0.0002069118412680025 -0.0196195992566403 0.02920150756810428 
0.008207706648752099 0.02214516192421978 0.02923321950514617 -0.0369879223848331 -0.01274111025823222 0.007207520488719728 -0.009242074426561067 -0.009985243248865681 0.02447663298730744 -0.019907765122362 -0.01780095774955643 -0.08743504930748337 
0.03216027403886253 0.005200549736551245 0.01189185495141606 -0.02884016985910417 0.01962878791706921 0.01407596825078866 -0.03920123689511892 0.01257288025711792 0.02539683293935104 0.01238195886036798 -0.02935016951199132 -0.08411864823014853 
-0.001091105687797867 -0.004975485274502154 -0.04391204522034048 0.01228924077588106 -0.01105947791452365 0.01523522205165819 0.003293298134806536 0.03769533276245495 0.003494740666909146 0.04780052386194255 -0.01747116435898861 0.006112872553346711 
-0.01568232385599068 -0.01330015722537303 -0.02193181673582623 -0.005538755990976193 -0.005107124626460197 -0.007003479902777062 0.004539149041615451 0.01944634219284622 -0.002415496166947671 -0.01519431351332501 -0.01026633950142005 0.0302501295859488 
-0.01516339629037039 -0.004403213847068104 -0.02351242886301104 0.005956709871843996 -0.001013698292565292 -0.01436172774095762 0.06095668575586589 -0.004543859795672668 -0.03670688018181603 -0.03196163807055286 -0.01992656849117079 -0.03192144856282871 
-0.004564990969198436 -0.01724263416145515 -0.03440166365407964 0.008831875166611198 -0.01527759258193389 -0.01803868780329616 0.02794811046012167 -0.01097317515759753 -0.01674404594318818 -0.01127400826188944 -0.002611690357506911 0.01227950652850073 
-0.00201285061313242 -0.01401813482657664 0.006905455941783023 0.0005040579886617199 -0.004493575253517598 -0.008450340975473335 -0.01954760134165273 -0.008646235263945014 0.0002731404589197046 -0.01078719128200204 -0.008802745125534264 0.04234155149149015 
-0.008810183800466491 -0.01677658600738916 -0.01303204417515273 0.02672665007111493 0.003322917679682104 -0.007244670366280234 -0.01498864102297366 -0.002620903114987978 -0.001203466196145513 0.007133975101183228 -0.01323827388182905 0.01106332580015278 
-0.003025760241188307 0.01426267228764617 -0.0002168975840384676 -0.005180817358632127 -0.02808142404418512 0.01069274626697131 0.0009443103141874788 -0.01072111787678198 -0.03469038335362746 -0.002365640676724337 -0.02006922219147637 -0.008365125857742246 
0.007988891039125385 -0.008363036544555632 -0.00640522048794164 -0.05315897317666746 0.001729670874304208 0.004254461109354191 -0.04990021901319511 0.0120660045780505 0.03218823029383636 -0.0101040851415612 0.0115619617069187 -0.09123970124549029 
0.008150923281442605 0.01270303498199897 -0.04756355584753031 -0.02555747952287852 0.01629841146949838 0.004850484311147238 -0.03495238878842346 -0.004598703595892617 0.06217866414296077 0.0317573734413948 -0.01330073715263029 -0.0606580834254611 
-0.03221799517493809 0.004861850752478378 -0.03733552182365543 -0.005925829324231613 -0.01386831191846402 0.005155819262191897 -0.002393670705039569 -0.003012201502823054 -0.01812492505769855 0.0382599109080187 -0.01391759081278013 0.07669500004405802 
-0.02256185793552624 0.01288826058059922 -0.01515619065736322 -0.02574112563382056 -0.00837698342371233 -0.009712441213586179 -0.01093681460592748 -0.001556678808230829 -0.02440290095543787 -0.01490585301184386 -0.007204201987236687 0.05577698828920026 
-0.01810409761032662 0.01383873759000288 -0.003560833946266098 0.002249318579504285 -0.01383948697177171 -0.01301759768238611 0.0454212239359052 -0.006200741492379536 -0.06219329607277241 -0.04292509837895394 -0.01908022656288571 -0.02191450667407287 
-0.01167313862239827 -0.009059823928378778 -0.009365542838497297 0.001519775546802916 -0.02135111667025816 -0.01703608512921439 0.03762111692072302 0.0008362446174221216 0.0007901104172191228 -0.01928897383249531 -0.006199162052173001 -0.01287559892986504 
-0.004742987726647343 -0.01380297413972045 0.01371217658604824 0.007975157798997162 -0.01126337218819574 -0.00773510758393408 0.01521500217776326 -0.006667348368901695 -0.01577230790460082 -0.01365004829044861 -0.01446810039996485 0.0263008991247717 
-0.004133427859500013 -0.01764133340045161 0.005536280636091117 0.01425612941756509 0.006933038691921564 -0.002572931347286309 -0.02513738801682075 0.005937434623574167 -0.002592535969235068 0.006949696700045058 -0.01998775089013049 0.01302485455519417 
0.01561424716145056 0.02197741552966624 -0.003676708729872037 -0.04322185322676128 -0.0208828224228584 0.0153185516147219 -0.01856353612928675 0.003960269946862664 -0.01286834817194547 -0.002754192370186205 -0.0192571883970133 -0.02106917227917438 
0.0175582139652935 -0.01166535694896686 0.04333486570844942 -0.03261481240822577 0.01517265519935076 -0.009006060568994998 -0.01581120616128364 -0.03269721444031069 -0.03847838185570843 -0.04624028008706196 0.02726723810520183 -0.03296547755973913 
0.009722192847629797 -0.02731488696385564 0.005871216240979583 -0.005564716473432887 0.01000823931976476 0.004236766420902089 -0.01141158989277104 -0.01462437251143522 0.002982424216559009 0.02335126337627923 0.02230611723338584 -0.07600742599091095 
-0.01154891401027739 0.005442042899758862 0.01258761969943649 0.01406655428039687 -0.02141650864488877 -0.00429150607832523 -0.03083052166437978 0.02040075769974577 -0.02374403233661073 0.02334722802424503 -0.007265949869946759 0.02206983680950006 
-0.03035939549351169 -0.00758081391524449 -0.03205081216967527 0.006731404360983171 -0.006643126299148028 -0.0153381618841227 0.04527024732006586 0.002363511264190106 -0.0134319326020468 -0.01258631841046934 -0.01040173612297747 0.03617876828184412 
-0.02184992815724881 -0.02801861135167189 -0.005008228034691168 0.01281483016960458 -0.003127823314843323 -0.0174502739415968 0.05437858571909936 -0.00763357684532438 -0.05482734081073504 -0.03631623445399286 -0.02263573234861286 -0.01043966098303523 
-0.009720755619073034 -0.01862170891789513 -0.03261794751158252 0.01638165454702797 -0.01477588293857154 -0.02258648165383 0.002340409914878663 -0.01137828168971603 -0.04456527832156636 -0.0115301109200811 -0.01296704107792371 0.01991470000486761 
-0.008143647249177313 -0.008134418168778293 0.006596610481404575 -0.02420277986382026 -0.01108681684747228 -0.0128127936852081 -0.007619677022690373 -0.01874045982308728 -0.03341985902831998 -0.007510334970264905 -0.01746127626613058 0.04643839450005203 
-0.009728455136379897 -0.009367860976462621 -0.007570811087803038 0.002797583237971336 -0.02176936177971001 -0.008668226717878947 -0.0004005009730734391 -0.01499347574964421 -0.03919047966865473 -0.003861530765411737 -0.01766941044703915 0.02480862587277081 
-0.001127066594621572 -0.006599950804701344 0.03745348398851324 -0.01102138082664752 -0.0175987825375578 -0.01148806528727369 0.01297800996551755 -0.01703996055810777 -0.05908628759587815 -0.02978128981125984 -0.01128338496272729 0.01550043913900699 
-7.429262369602943e-005 -0.04169226160149023 0.01157496478979819 0.007574523633099058 -0.01667255649157634 -0.009556770513432981 -0.01565143166384428 -0.001610870961629456 0.02017163001731223 -0.02621640958044981 0.01745644247479505 -0.04592532899229767 
-0.01182945655278731 -0.01612759364421442 0.0002938222313070505 0.006575488712981963 0.0001694979704305317 0.0006678963218620018 0.00227828549175777 -0.02213284769311076 0.03023722294406829 0.04558241977858913 0.01367073013922731 -0.02429098617336626 
-0.04303709911465851 0.02463135855253748 0.003085189879373666 -0.002129110209983342 -0.01942784338632996 -0.006078862804845966 -0.01378833462454884 0.01852976307121644 -0.002833702146020911 0.0637577416218694 -0.0506747640024987 0.06226501528303755 
-0.0459548554711692 0.007711324436343803 -0.01272713615165362 -0.0260601836020135 -0.01535451062367592 -0.01491001081226946 0.02110323775045679 0.02497892139062654 -0.003699472803449801 0.01071377097552434 -0.02710335044646166 0.02241565135620417 
-0.0449606831815689 -0.004291155620092517 -0.00543973448847565 -0.01578634069619822 -0.0092051714825323 -0.0190123547066604 0.02921868411005062 0.00618349195524264 0.001274880011492636 -0.03582015433272284 -0.0445004550381955 -0.01744539789272099 
-0.01390648925387592 -0.01469483773177751 0.001771796185052958 0.007518642792253989 -0.03669529327403501 -0.0232694803052003 0.006201131964288462 0.005284307852983913 -0.006427513047912864 -0.004218701265351881 -0.01732805074961205 -0.04684594475417417 
-0.009135878119261212 -0.02098435047340093 0.06083863697190824 -0.02806914227803015 -0.02956193544174188 -0.01785295602937557 -0.04348974013855321 -0.01701759750809025 -0.01352093535486055 -0.0202539608385715 -0.01558003038075644 0.04678587796140385 
-0.006879085645330302 -0.01397049755700896 0.07302531820422584 0.00141282333184144 -0.02734010022515762 -0.01641434483821955 -0.04487058645989764 -0.02095204315924956 -0.002312194337058984 -0.005598608016341522 -0.01333669434017841 0.04352933761621755 
0.004017898780788932 -0.01735166303041012 0.04609490054539946 0.02910021008816088 -0.04377115055549972 -0.007457472276632057 -0.0530019990823039 -0.007620447430545726 -0.05510057034355259 -0.03930218489959983 0.02505955214207151 -0.001846799058156153 
0.03081756245798736 -0.01948303184231059 -0.01302439128182732 -0.007579829637844759 -0.005684451348125405 -0.01936215347047382 -0.01639574464997612 -0.001518038597739129 0.02591956267364104 -0.0295350617687511 0.006030081108982369 -0.08137248295196853 
0.004876646525119944 -0.05143532802213311 -0.06433790819297312 0.03506652339168809 0.0009487792971900853 -0.0149045405486924 -0.002626049265965067 -0.01476830863980247 0.02149784081261298 0.03425863761875149 -0.002451536934322005 -0.04753560274118144 
-0.03204615659931243 -0.002967188205136842 -0.03393052105794732 0.007151600079095371 -0.01283992106279916 -0.008277362298911427 -0.008699284935767149 -0.0122645271735964 -0.02002698919711678 0.0231851451913422 -0.01286021449604831 0.04406085530100833 
-0.02708053302855475 0.01720760104027468 -0.006660287633684716 -0.02591514389215051 -0.009926452032625873 -0.002748770944025291 -0.03189571225319841 -0.006175368639116821 -0.03742610638311265 -0.01950776621406266 -0.002998655265043871 0.04973301641440795 
-0.01405907453196049 -0.0004178732973345647 -0.001979491629143018 -0.03241388535795963 -0.01512108778516399 -0.009170805659967958 0.0322057726835528 -0.02990400596122017 -0.04996313675818073 -0.04956172747562764 -0.005221570193928269 0.003209271531176678 
-0.005677167715229273 -0.003501385782784442 -0.0004537756909760229 -0.01537980783008665 -0.01352658686553256 -0.009190748293697613 -0.009682963693651053 -0.005383276911154202 -0.008783015130853914 -0.01971271091118415 -0.002766576230726354 0.01953227605509577 
-0.001339136537522209 0.001686987298830255 0.02095169034942225 -0.01044873760443999 -0.001181403647449902 -0.00403566776645081 -0.03536258909357636 -0.01486035296147628 -0.02799565979578432 -0.01796692067028479 -0.005439057653349736 0.0252660901806726 
0.0004547873723895062 0.01687435347812625 -0.007879825823447238 0.01427759960871031 0.0151480960051904 -0.0006215343256677185 -0.01545157049188644 -0.01855029392891342 -0.02448975529016636 -0.002107112942788172 -0.01415707608294858 0.01236405913639655 
0.03098029317367324 0.01891364788379017 -0.01106616768774042 -0.0473524515396371 -0.01466938428524651 -0.008247478293598506 0.01358395177103125 -0.03069175464419697 -0.0706397695890907 -0.01163387582729865 -0.01567209172164418 -0.002309293859326716 
0.02424206561941343 -0.0002369810865031364 -0.04326455009748781 0.01280904799337225 -0.02105259791266525 -0.003052426539122255 0.01488583664565221 0.005986741528423215 0.003461016819080941 -0.01886794972131342 -0.0215095129529611 -0.03770158458801026 
0.002244007137416679 -0.03074255793570338 -0.06858521196567528 0.05174737451337685 -0.00687781284780944 -0.0006748720724352888 -0.004825358182709899 0.03146851052529139 -0.005283843601711574 0.01193125060119514 -0.01390812393330406 0.005804224691400193 
-0.02763757549943404 -0.001498214936018861 -0.02071477127631537 -0.003219879704148335 -0.01214710068883982 0.00896921934609878 -0.01476419318180679 0.007090491665797101 -0.02147475218951212 -0.009041520100874001 -0.01644331613094814 0.04607852800529793 
-0.01881483445951949 -0.005416407865357073 -0.01568964009222205 -0.03822360254427457 -0.01755053079946085 0.00200395771341724 -0.03008396739509902 0.001333543580170946 -0.02395232946843536 -0.03885030751224031 -0.004613458284582814 0.03908945588958701 
-0.007037614414190524 -0.02237451868716427 0.0005524330787840662 -0.05043799548193163 -0.02119502451575359 -0.01361467559263993 0.04623295140793088 -0.03030537402261677 -0.05604921472041829 -0.03825644064060851 -0.005983880464296523 -0.01141732527331413 
0.006715393145154054 -0.005609268442004851 -0.02233816381610632 -0.01737612645290106 -0.01508928120753821 -0.006900505282794187 -0.01511206057038429 -0.0107028688302216 -0.01517365211086001 -0.01495849506026486 -0.003173072995301591 0.07293881716941786 
0.01100815495196681 0.001920726013783577 0.04792096272084456 -0.009167672171020059 0.002754447665933294 -0.002657898014235886 -0.05025298076253532 -0.01583518634932672 0.01406333740929488 -0.008780846043217147 -0.004182243053463019 0.001318000577791595 
0.009918025459144275 0.01864782386234835 0.01578045077248088 0.02412431787128264 0.01275849392060547 -0.0009870965180821278 0.01815824078144984 -0.02340647551204305 -0.02156397393136533 0.03011232008711149 -0.01493083485941133 -0.05213924432555751 
0.02411675374184015 0.014407498961345 0.001233148683267578 -0.04565189002633727 0.005233808958690742 -0.009113955902758571 0.02605318557941894 -0.003564976423169085 -0.06736737416161275 -0.001746078544116446 -0.007206938497915363 -0.05487448221815736 
4.819885369464701e-006 -0.03683093586739972 -0.004776441473219603 0.03101501325568639 -0.01079276237647864 -0.02437591695186978 0.0002955809117328573 0.0137816839641108 0.01729895704954139 -0.02100000287741045 0.0110543287516363 -0.0326803223797793 
-0.0184802974663963 -0.02657814075485511 -0.04669665765172035 0.01696309616894937 0.006473199975339126 0.001935538286236189 0.02362042815480037 -0.012177362193462 0.03374557105137813 0.05245359340870139 -0.01553025829198258 -0.0003687433007189646 
-0.04637348932739834 -0.001925800967011417 -0.03547758118320529 -0.007286707768601489 -0.01747513906085619 0.01813637834442522 0.003425872698600998 -0.008852900350138226 -0.006133082949647335 0.06474440729920122 -0.04667664135831572 0.05357007386267505 
-0.03469868958972014 -0.01441397964362469 -0.003283281667006344 -0.02625449798294599 -0.0161960067118889 -0.0003668439788100558 -0.01014983976324095 -0.008182927495371032 0.0106019331450344 -0.001043381027016105 -0.02968085016948891 0.01663497108413754 
-0.04048982141171349 -0.007457303435201106 -0.02285786571644681 -0.03051079492334257 -0.01393528363089728 -0.01566305630173677 0.01229791960826094 -0.02293255289068199 0.01963119644370906 -0.01115702258733731 -0.03689083673512748 -0.01179545786477786 
-0.01164168085196127 -0.01709420558313535 0.03389174045275207 -0.01395994371335029 -0.02683979687806622 -0.01521138638089201 -0.02603911256220758 -0.00169824127114252 0.00141842568110254 -0.005121751919456962 -0.008934598151700364 -0.01682722181924456 
-0.006535206917388401 -0.02286534605716582 0.08161250054606932 -0.04196664623414046 -0.006824491855901496 -0.01873273805943266 -0.06932673410085855 -0.02183574413868811 0.002986143852382765 -0.01383128131479427 -0.002132563500876286 0.0254844054109646 
-0.00507703528680594 -0.009832121206348498 0.05059385558364929 0.001182559603676896 -0.0100488318273147 -0.01775704480258562 -0.08464554945163511 -0.02504904175716697 0.02330833184744551 4.372682800849846e-005 0.008741946650430694 0.04158550375487847 
0.01052860488570412 -0.006656020317883323 -0.005834001051475483 0.04581742544068828 -0.04773897264962616 -0.02282004111095407 -0.05974111651043766 -0.01627175626783686 -0.01735920849901024 -0.03198778746343529 0.0440178962334176 0.009209693157643039 
-0.0199513963280092 0.00157516297545622 -0.009877787047461147 0.009579516866624015 -0.02285419709315118 -0.01316824017024849 0.01129923270221507 0.01578485414562943 0.02195220851775336 0.006945567083447694 0.006456069947079432 -0.01801577020088636 
-0.02705354378181841 -8.271335376661064e-005 -0.05814484420901735 0.0316711381659231 -0.01890090986643221 0.02191202191031009 0.03609063636327732 0.06562494962154898 0.0367407931617608 0.0671711738219594 -0.05067162936016895 -0.009509217043359025 
-0.009909783968700577 -0.02168121648387243 -0.0482615850279093 -0.03462890501922541 -0.02177892903748902 0.05263029935456719 -0.01069485914789257 0.003472884038674208 0.007850179363332923 0.008212755524066572 -0.03507989814113247 0.02292132031527589 
-0.02126670457423474 -0.02479588519122188 -0.01291752051929319 -0.0514256857695197 -0.01762700492658194 0.02790399766384561 -0.05007787613515629 -0.0140268360210612 0.01919665850209404 -0.003795648114408559 -0.02943531613764795 0.03240993260964795 
-0.03149519262013221 -0.03109020573918919 -0.006436986975115597 -0.02320908470279607 -0.009296763898241267 -0.02033646719154809 0.002006792406751774 -0.02368021460978612 -0.006885044557081546 0.004704455658561304 -0.03571330763079655 -0.02619313867123364 
-0.008883388406612172 -0.02695173025010552 0.02567168257479151 -0.01515225996467436 -0.01424810841434927 -0.009416891737744714 -0.03743107500411328 -0.01208361932079345 0.003081343875926995 0.004731024491577034 -0.01942560543478742 0.05307225346979096 
-0.006356304588816569 -0.01318317025860002 0.05085239333048889 -0.02057741724555524 0.00614671716323052 -0.009746960769906526 -0.07747396275233363 -0.007742263989417963 0.03735865758371058 0.02371257808856333 -0.008832547608779334 -0.0119409403226594 
-0.02817469530745803 -0.001755741062960066 0.03633949699516346 0.03014241069545746 -0.009628745333332077 -0.006581396744171437 -0.04118032549819558 0.005063008681988326 0.02555778614990832 0.04541308844184402 0.006067981383064154 -0.03096236154118972 
-0.023324176850545 0.007446225075981828 -0.00564588167863037 0.007115086248545106 -0.01674700654152784 -0.02002328729193609 -1.391819256910715e-005 0.03421792966248567 -0.01373183285856303 0.005298567491572367 0.0155773686304952 -0.05349330620471254 
0.01639374319979412 0.001273621008796085 -0.07416173021122949 0.003710299485299062 -0.01014944754130187 0.007319793328595985 0.005600048719285418 0.0170436336433128 -3.886195818706338e-005 0.003352329983035341 -0.01829943546737812 -0.004565575286698684 
0.006792554506624055 -0.006588143836963012 -0.0387799216297366 0.007744273711954659 -0.01201645526466972 0.0009534455630405439 0.001790829653224358 0.01130413546666808 -0.0318570171243533 -0.01838365733999465 -0.01144081636708113 0.06942793275987072 
-0.01642535100005811 -0.008549102816464314 0.007195786675999007 -0.007835793490797383 -0.007687334902225676 0.01225531236216541 0.00018585749600682 -0.01463305540281336 -0.03371724816131375 -0.03066937340623357 -0.01359024009366356 0.06270010603423533 
-0.005353583107732797 -0.01650421929233404 0.005683701615212792 -0.02379556159220153 -0.01525966826918752 0.003129452343663042 -0.01132643211260426 -0.00176210250124391 -0.02094121691340354 -0.04750284134878246 -0.009834155580954393 0.03041317891399249 
0.0007815826016049541 -0.0380138284607037 0.02363538134209538 -0.03922065762426095 -0.0266438740577076 -0.02008986894207106 -0.0004342039833949093 -0.03491650204394837 -0.02424847163253286 -0.0455246337723768 -0.01414587287537879 0.03273092385330945 
0.02053686162175897 -0.01709724477667394 -0.02034693066252429 0.005983814239252776 -0.009047970438185083 -0.002459238380747081 -0.01548827421421055 -0.02127576662713399 0.005999054313912912 -0.01874471099303425 -0.008503055228505873 0.03881170184694185 
0.01218646266671974 -0.004428921928245902 0.03532005140070628 0.001481061760106683 0.001041517716612162 -0.0002174453094140569 -0.0287856407662089 -0.02528906124250903 0.01630165203746782 0.0189153904404551 -0.008765885260763323 -0.02303695100878163 
0.004432908385591292 0.01335172287588352 0.01688490392363255 0.03718361775726584 -0.008516827007084241 -0.01957901490910572 0.03748931828042951 -0.016800923751955 -0.009458041399340603 0.02389378044979612 -0.01324501533824549 -0.08255746426845266 
0.007464606772716099 -0.008927096838917939 -0.007262313949823828 -0.02080202502831721 0.002572130929839836 -0.02538717128672094 -0.008699139391711347 0.02029122869262395 -0.02371247988280523 0.006423689428701684 -0.004356146435918131 -0.061197761643418 
0.01948657790314949 -0.004730014535483506 -0.06137156051438862 -0.01631603866927625 -0.005082336103544816 -0.004066583206369145 0.03617928451634028 0.0138765499838636 -0.001780823301556629 0.005663187689714473 0.001218067460183537 -0.01309819451418203 
-0.01080135560297438 -0.001116274858003424 -0.01670938519863655 0.005584998489205253 -0.0144942653358166 0.003116983704113268 0.02822787654873362 -0.00866839711676712 -0.04303410064078601 -0.01604662710271967 -0.007610432744739401 0.02660136187746127 
-0.02814738722049139 0.0006936945507512524 -0.005195435868095379 -0.02162111083728693 -0.003815908016408311 0.01380821742784096 0.01476443241654145 -0.03000522660607267 -0.04775707536549402 -0.01828860890279035 -0.01900496984240439 0.06466419663417231 
-0.016428980888322 -0.004086441261877318 -0.0004465082005636356 -0.01922679119269435 -0.01572398471822186 0.002231055233814411 -0.007071677586861845 -0.007387023934883876 -0.03236478479093147 -0.03787500437514757 -0.01820744058347261 0.0198199388694018 
-0.01557349630260339 -0.02095365397495981 0.03673920311431139 0.0153126189234475 -0.0171907353674899 -0.01389869785352965 -0.00296675507965305 -0.03886529986267086 -0.06062421441816589 -0.05249348365354289 -0.02949218465381659 0.03712846295404885 
0.01800133394126717 -0.02057459227330118 -0.01407712579347546 0.01909760835461274 0.008379153378378039 0.008181773031414541 -0.01051388509103529 -0.02910661123993055 -0.02401682449836859 -0.02759975515019903 -0.009613192408043387 0.02533581029632531 
0.02321379875823368 0.008558146755007696 0.02370610105811852 0.02681193839189121 -0.01279403256356172 -0.01407012657930852 -0.01272870374728667 -0.03641699340249584 -0.02588382544528465 0.01577124249582019 -0.01126486965412275 -0.02198223203788688 
0.005114264530502877 0.009179758385691489 -0.001016118740511464 0.02311846138041192 -0.01688902041285688 -0.03072550723670939 0.0101137849609447 0.01636471388410857 0.002693219177118694 0.008149143395560788 -0.01490287828325593 -0.09715837097190544 
-0.0009149137579991903 -0.03468147147186561 -0.05214280358007059 -0.009588175850345514 0.001790170621405773 -0.03468821465907506 0.02577665152409977 0.0210215937044598 0.02305268709634921 0.008092225510339602 -0.003590121125695944 -0.07688126803879511 
-0.03324315546625054 0.02936923670238041 -0.04352300744392518 -0.02738418671511604 0.004316588386498826 -0.005399244310869736 0.01006637436383012 0.02002766546083988 0.006528360289676715 0.01762036736513881 0.006258867919040387 0.01074828633671667 
-0.02148211235256698 -0.001705416050892929 -0.03631819136464275 -0.001909387779218331 -0.02193138772977699 0.01865576585282582 0.03775420541997663 0.03105979214347377 -0.005636191619564821 0.01243787272657096 -0.02360563439030191 0.01897892282813193 
-0.002731319942302233 -0.02576420452078269 -0.007518751841187785 -0.04389904301248345 -0.008883155091529343 0.04760740499771472 -0.01632230631861501 -0.01373771334771168 0.006614577216518575 -0.0104205625903982 -0.02516629987082852 0.01523913663816908 
0.002404974171679049 -0.01972530800455844 0.007385482008219714 -0.0283104382607552 -0.01875711463756841 0.02266704876272383 -0.05340319377000776 -0.00831330712625721 0.03417550419080207 -0.0436519360849222 -0.01622126218042186 0.02412738791278328 
-0.01218877213907038 -0.04921902126442405 0.01182027354010766 -0.02052486287613039 -0.01678576185574164 -0.01981430071222103 -0.03161897559421169 -0.03575632657035473 0.01657456176059444 -0.01221964636596738 -0.02982537065244515 0.001339384551996096 
-0.00650038486598965 -0.03301220823470143 -0.008220284942199535 0.02004770974704436 -0.01203819011394494 0.005117249713916335 -0.06132095560256839 -0.03252521217383932 0.0348897823141061 -0.002643124500603492 -0.01772229278410512 0.03526557725272722 
-0.01125020875354056 -0.009896867281847573 0.004660718588350422 -0.01401067646951752 -0.0008572009308035383 0.009177361855237473 -0.05584582683119926 -0.03029525806170182 0.06253062282160245 0.04232249379631831 -0.00517716583128896 3.579560848449312e-005 
-0.02660323425322308 -0.01507937458796326 0.05242134400050379 0.03055543494862433 -0.02687784352066748 -0.005156124737423478 -0.04348052074750637 0.0124740758664674 0.006947452005062419 0.02821970437396621 0.02464493907994015 -0.007862234672908527 
-0.04247514793364528 0.01304531214224976 0.01182742035370822 -0.02678709149038389 -0.005169020158976531 -0.01558178284465182 0.003448108529995911 0.04476834776127375 0.02412031681573605 0.02965373550792808 0.01842600440497866 -0.07245015360317073 
-0.02797081310672387 0.01610620583581774 -0.05202439537604138 -0.03129450516234101 0.001168467820163899 -0.01372978657212816 0.0586349599422132 0.01799623388041731 -0.005151753843929612 0.0009298174923551797 0.02105472927114972 -0.01046534198921375 
-0.03646343412742638 -0.01079224898541138 -0.03946368704272577 -0.02121294844370464 -0.01864674149262488 0.004673381241528328 0.02147671372169275 0.01367980276022805 -0.04043507099020318 -0.009863995865054147 -0.001580616402234634 0.02593250093460546 
0.005825557976079082 -0.02282783938757856 0.001452019788743173 -0.04391282622667164 -0.01242206744029926 0.03012508056482193 -0.01530528640145782 -0.02585779194361265 -0.009030078730679261 -0.01079087027572777 -0.02425558580197959 0.04379426512125851 
0.004174959758475102 -0.0201424473207677 0.02117316715628066 0.005059492573531761 -0.02022465527295205 0.0171641587142022 -0.03995489793728694 -0.001238598745798926 0.001554234958436269 -0.03035025252403907 -0.02194474555357778 0.02605802107804804 
-0.01739539474090436 -0.02786197444955569 0.0348447777609691 0.007580659144917914 -0.02979188164639095 -0.0170991337584212 -0.02640569131682741 -0.02676980171661237 -0.007808769224229263 -0.00516700357779866 -0.03817906416257533 0.01552326424348777 
-0.0008173540074952698 -0.02486148597170365 -0.00320387211179537 0.02459973181888282 0.003462416340739578 0.02926070781976368 -0.04872441579077962 -0.02476485488130448 0.01772366408023836 -0.01920114749773712 0.000660780036592469 0.01298300588165357 
-0.004760030931083792 0.02313069310232034 -0.004820297561182079 0.01079919186799746 -0.01449330547929209 0.0256913948962491 -0.03197895283753507 -0.02636855519216769 -0.009053287779238497 0.04196014484108179 0.01160077328654352 -0.0527717583204215 
-0.01211302357905621 -0.007062065497484442 0.04692025559727331 -0.0121290985476468 0.00365050771428603 -0.02648622881068781 -0.01150156142314308 0.01249206988428729 -0.02687368746846171 0.001190780660712043 0.01025705284181343 -0.06603404031275914 
-0.02588409298522828 -0.01061456819456612 -0.01385880146784805 -0.02114064063419485 -0.01446156817764734 -0.02088866229136828 0.03071436022795456 0.0412705612890224 -0.009684794306924694 0.001104304307522804 0.01948196378050268 -0.08317116300980376 
0.01077864616779301 -0.02651312899562345 -0.04325258363200229 -0.02972550495805452 -0.001980306222161172 -0.003558986379122935 0.04573342917503044 0.004861038100638255 -0.0200798568075649 -0.00118281178618147 0.002038159805738987 0.005500901690509365 
-0.003699206231816782 -0.0162584931332395 0.001729661603298248 0.01005569789561081 -0.01640712220485425 0.000944004469829206 0.007261489936480455 -0.01253258411976761 -0.0322615590049081 -0.01720405045367779 -0.0001454446852078269 0.03142626087573949 
-0.02648043109449712 -0.005997441732735166 0.001324380069380241 -0.005712820147862738 -0.0008557602952517505 0.003127773465988052 0.0006463044116292512 -0.02895984651473711 -0.02771751458142768 -0.009786062375854616 -0.0159325195698259 0.05484924403463359 
-0.01974237642880072 -0.00275662447718898 -0.01483364116969099 -0.02670957401627131 -0.009887004201272321 -0.00135983069984159 -0.007754748891265995 -0.01408998675847929 -0.02141473251581561 -0.0254778988769615 -0.01327686663773626 0.01691042743900123 
-0.02773995887547149 -0.0084816588904658 0.0356383850026906 -0.008484295468877271 -0.00683764346754335 -0.002142541680773592 -0.03517112834271052 -0.03954180530119447 -0.05357006387516441 -0.02749792300590557 -0.02567694436581046 0.04376482122727614 
-0.006721566620018367 -0.00704565937618137 -0.01703000504919968 0.001356156036412442 0.01898164788189566 0.01067820167552995 -0.04020650523468012 -0.01374416603089307 -0.03405448233895914 -0.009094712618537787 -0.007772423598520583 0.01094416911281993 
0.001077135473223039 0.007262865824524708 0.01538721732295421 0.02597846005121378 0.0112426666903614 -0.009685555337425437 -0.0282058781222407 -0.0211058938065933 -0.02101105507731861 0.01453132286416329 0.00199793353831957 -0.05352880444146904 
-0.00566148627120524 -0.004938825527885053 -0.02179431286757091 0.03344945648150439 -0.007404384275443775 -0.01809615416990429 0.02727882169045785 0.01681976148935826 0.04105099791475784 0.01667270705421377 -0.01789231978326209 -0.137164174133812 
0.0008085265033662792 -0.03575308122764304 -0.06818383984650248 -0.01837410351275984 0.006079391221371188 -0.01413555132400529 0.05854362252745449 0.03642955345019935 0.07386167758629063 0.009994247507845198 -0.007929746421738528 -0.09842105228274213 
0.01822560229377627 -0.02288628790337392 -0.02196048130540582 -0.01934606535140333 -0.01990591957176534 -0.01980165114611966 0.009893362199276921 -0.0002146931907658258 -0.0232252603125761 -0.008659368842340195 -0.006561186433270782 0.02602772774982741 
0.005652699033503426 -0.01726672356474061 -0.004307189705832778 0.01714474667393699 -0.01723707787356413 -0.005424926862344521 0.009540888203293775 -0.01539360659010126 -0.002966291214349978 -0.02160248086526663 -0.006776650108669307 0.04735653444961332 
-0.01817810922977037 -0.003784210846872122 0.0007426389684263328 0.0009507632625123987 -0.005674989690445591 -0.002112306684521511 0.000167556903325134 -0.02101355930797171 0.009647067247572127 -0.01276157011254347 -0.0187198617967132 0.03105373837664972 
-0.02256321809347766 0.002480418569501478 -0.04151324276015764 -0.0367395739031809 -0.01679551152780765 -0.000937856331291521 -0.0005285139553859186 -0.005925803638260513 0.022693839501156 -0.01981726575665324 -0.01987971310611096 0.03338840579381711 
-0.02064573620262647 0.01943407503315364 0.04736996052610742 -0.03872184788819204 -0.03937523145957254 0.008428087099538377 -0.03910875374014989 -0.03707288630551074 -0.08460716098080265 -0.02608662411248309 -0.02221627649832368 0.04692216728822589 
-0.02090320167032454 0.001483550434539477 -0.04356861670640942 -0.01598490224735424 -0.004002733437843361 0.01406599973055788 -0.03450726115691861 0.0001652365231472842 -0.006896973149538943 -0.02004159183748594 -0.01530996405327349 0.0112477290482993 
-0.02708641803453911 -0.008872143364764462 0.009035925524477954 0.002785491856950312 0.02934657622128471 -0.006032477639704251 -0.007549094935229895 0.0004033493955517151 0.007008477587496677 0.0005943145999477262 -0.003045267287998586 -0.06959253046690307 
-0.01286557645531641 0.002623708430382447 -0.01180468429080413 0.02476255057840748 0.01828551606191588 -0.0160518730927331 0.01886949552569212 0.03794186911791828 0.07947173211439931 0.007750762583136481 -0.02939084709077238 -0.1240048691790242 
0.0228150772158107 -0.01844518056262369 -0.03412460370236706 0.00941689258026389 -0.002841066700551457 -0.02462150592452302 0.01184192551105908 0.03779484559057313 0.05260339821680424 -0.006178108428061002 -0.001097367373844001 -0.05771883637845025 
0.003855772094104856 -0.009748479466245573 -0.01089626251049617 -0.005076759116947619 -0.01136712451329402 -0.01432458406667733 0.02667934913336448 0.0004627805941197453 -0.04461252581306941 -0.01496422821655596 0.0212676956863207 0.03484819741823473 
-0.006918139113163 -0.01763592350738383 -0.01734926163044198 0.005934381933031991 -0.02087776683270479 -0.002592916971050205 0.02272104228511662 -0.01361884657810099 -0.04425946311154331 -0.02213251149700002 0.01262978568633551 0.03633783708095289 
0.006152014359825151 -0.02329957375723216 0.04759992838488402 -0.03201380416732046 -0.02476433990039519 0.002891185508662469 -0.02420132094186897 -0.0403300324208004 -0.02672058264937471 -0.02416529849454047 -0.003611415714530232 0.04917156985000311 
-0.01292407525407812 -0.01220482292538757 0.02051770851417768 -0.007202800092741609 -0.01879736826576887 0.006769704167771507 -0.0474003511069929 -0.01761701606328417 -0.0225104039191493 0.004276666997854166 -0.01610963974051988 0.04263240105227718 
-0.009010143299430206 -0.01650947846119185 0.03977870698586691 -0.009155004230107219 -0.0285493545159471 -0.01379122377036437 -0.0617543205255582 -0.02401249512377035 0.001912385480803205 0.004425920923762892 -0.01305537696349991 0.04501299733755289 
-0.008991985068543311 -0.03213939427357108 -0.01195915631190173 -0.01533949866572049 0.004708731063250843 0.03449923573385276 -0.06337443153712584 -0.007561497374563451 -0.01123678929671498 -0.01477733622050885 0.02491638334923521 0.0117364100014754 
-0.0137645175184376 0.01823098256581459 -0.008352397828691597 -0.01327876712491816 0.007846861454231776 0.03668503239861725 -0.0243594330893182 -0.008251906703776832 -0.05183690149163611 0.01069142432604819 0.02285305119347344 -0.08615715183359494 
-0.007267578332152747 0.006848695352120167 -0.008138212494983883 -0.003693722151753749 0.014363931836521 -0.01341292998210599 0.01143888543126729 0.02684503645425237 -0.003541988521537591 0.00833162246779485 0.005400508453712693 -0.1204421911332922 
0.002807375177094684 0.007410139347452457 -0.02627422029648065 -0.02812897022021561 0.002879031222856789 -0.01823200851868566 0.05413989537230337 0.02293919058971808 -0.01364381991154974 -0.005699987169300118 0.01770001038368223 -0.06209807978865894 
0.02089074196697606 0.01293180854703801 0.04424647514879018 -0.02342603710703825 -0.02456918434311535 -0.0179617979964575 0.01985469827022435 -0.01950834537501284 -0.05760867222545569 -0.01658419975325463 -0.01855709333227299 0.04588418057437328 
0.006857259072897407 -0.02319167053586813 0.007254081877512526 0.01029950078608156 -0.02147052985171806 -0.009153736661967169 0.001524370310613246 -0.01246579682201503 -0.03190098085908643 -0.03592210083389837 0.005519372814517618 0.04495488704989205 
-0.01374556881607156 -0.02119542370466358 0.04299534115279245 -0.006165786001478344 -0.02689303761774449 -0.00523674871514335 -0.01678958286578247 -0.03388950146013831 -0.0099566978540396 -0.03063217747179963 -0.01018345650767708 0.03249885174629193 
-0.0087413844896564 -0.008069651223079299 -0.009941446464716086 -0.03937866038993954 -0.02225358621571555 -0.0002528867118929518 -0.0360915923152048 -0.009482505279943501 -0.03098414204263928 -0.01511130550798124 -0.01289425379393167 0.0527824748129495 
-0.01048048957517559 0.01003248494345397 0.02823268869677426 -0.03704393133044417 -0.030722926748834 -0.003184766044754686 -0.07298684268708937 -0.008979962373059669 -0.05676009555781919 0.005452139509517794 -0.004582932531682053 0.03787466185999624 
-0.03317895756895278 -0.0300495042063339 -0.05285352312480489 -0.0302876847889239 -0.01038257643733334 0.02086631421527188 -0.0170483309725449 0.008867602280449506 -0.03517520195555302 -0.004644793409559116 0.009962922000854515 -0.01787578675852075 
-0.01726315092471896 -0.009299413759563592 -0.02058799285872467 -0.001216133970019694 0.02212193070119679 0.009310345986518276 0.01174998450256149 0.02366171462397233 -0.01426778975587149 0.0006804194643453493 0.01903970112285769 -0.1292094700418432 
0.01966313016185135 0.02100167995148049 -0.04655513842581548 0.03907814069180131 0.01189001312702721 -0.006501351457107606 0.02998098157164053 0.03350728621108293 0.03750985390497284 0.002387829262067715 -0.001999095161159019 -0.1073841145166814 
0.02391980765555442 0.03173109304394385 -0.009622434279421636 0.00981164979440291 0.001890652760117437 -0.01331373675757494 0.02619919174073555 0.01159029911775069 0.01448976392520221 -0.008759112715012361 -0.01600695843857238 -0.05399110132533079 
0.00739210464541559 -0.02971492908955419 -0.008713599130484339 -0.03521657741095414 -0.009264045160196114 -0.02208142855047143 -0.006106411822167358 -0.008052235526998004 -0.02867367683128614 -0.009153862581314325 -0.006281648388589817 0.02208161626419863 
0.01365541023036779 -0.01459106560699954 0.01349976403052204 -0.009589888444511478 -0.01067051723195587 -0.009555229128077096 -0.009617466111007307 -0.004808988887141676 -0.007265564580513664 -0.005804086514887829 -0.0162034695815216 0.02919909741215717 
-0.001500231904521064 -0.001947600038859814 -0.002045130655567673 0.0002716840279987409 -0.0005478376032979943 -0.004697946705197833 -0.0180481372289259 0.001897920324398319 -0.005735128319620826 -0.01028252852260814 -0.02568271757040116 0.0212880338837648 
-0.01361351754295802 0.0001784594266423272 -0.03457470117936627 0.001630298384243281 -0.01346308876289383 0.001699628924513827 -0.002418187265849969 0.01700517139730346 0.01695686016042615 -0.01723463714494542 -0.0183285910889322 -0.0008196870884465715 
-0.007108946897665409 0.01785212840848264 0.001767540537776922 -0.03087864127402276 -0.01802423592544195 0.01323797002254229 -0.001140042231528846 -0.004774317832450204 -0.05329930356042759 -0.01993722783860119 -0.00103918952906142 -0.05388851147345249 
-0.02704777083063024 -0.02836550143498342 -0.03322228691406504 0.01014834421677755 -0.006207607342940524 0.01265873675824293 -0.02414434245918936 0.01841556672725147 -0.003809247162694897 -0.004431550962068757 -0.001923250191508556 -0.001942560495387502 
-0.03840326895979924 -0.02801228374417935 0.005126080467255835 -0.0128161226681925 0.0254968672253281 -0.01117415101051778 -0.01215318424043326 -0.0109622424722231 -0.002722837836684592 -0.02245238376214582 0.007506693890073632 -0.0446467758540679 
-0.01796516666179107 -0.001499616958342066 0.003245300575860429 0.005886756410769713 0.02173362887178786 -0.01190480918285981 -0.02929772589076798 0.02082154090912793 0.07562171261639132 0.02052170163867872 -0.00304061337177025 -0.07539134674995864 
0.01467743948709682 -0.02195364842082953 -0.02839884211644304 -0.01532433544691422 -0.003538236926204902 -0.02090732419836373 -0.007651941055330182 0.02756391260189988 0.00913404939401849 0.005611851602683855 0.004069410232209888 -0.03214138957267209 
-0.001539604840081193 -0.02900069313373129 -0.01559347332389844 -0.05203867518057528 0.008434237401486541 -0.02622146465756321 0.00169170639512414 -0.02799135849229539 -0.01526886327551367 -0.01905274427757752 -0.008920173519607168 0.02834980737553354 
0.00765391931068929 -0.02534529724172529 -0.00566892395858207 -0.02131050039043263 -0.007153006591979272 -0.01220523464200231 -0.007379367404269929 -0.01038741770632961 0.01995446949280829 -0.007861214185582314 -0.01188144671238763 0.002191804858865135 
-0.01099618076994814 -0.006111848705036654 -0.007561893383580597 0.01946218503288059 -0.007772321692737771 -0.01106953146849119 -0.01903380405195252 0.01074057345041865 -0.008429497142511965 -0.01959943506443245 -0.01985321632224599 0.01260501212497907 
-0.007985281216364042 0.02827849276444858 -0.03569087927203853 0.01440544746742158 -0.003280699629464775 0.005881299102294764 -0.001255798033681178 0.0110732108380538 0.008027028950778612 -0.02575012081434469 -0.02214864786192047 0.00949587284397801 
-0.007682351432335885 0.02817151408027672 0.005836405438503979 -0.03640974939171529 -0.01065944849340742 0.01283549886948936 -0.02265794148267565 -0.00274282426459097 -0.03550500613068993 -0.00803916518290561 0.009934823571668548 -0.01406949957267863 
-0.0153709746015931 -0.02459463085794323 -0.04687272959159362 0.02436210473625642 -0.009118050992759804 0.01006635528109939 -0.0628953962427697 0.02579155737675005 0.02935492760771033 7.997653248373824e-006 0.001962272495866169 0.02967361384398762 
-0.01558053520982933 -0.02545268742450798 0.002892407224635286 0.006275883474482475 -0.003585595577201183 -0.001918093327630716 -0.01905262546781448 -0.01315702681031936 -0.02203548672352384 -0.008897510289031409 -0.008325150375621777 0.03213324839955466 
-0.001891113602608108 -0.003313347069343752 -0.006763986078636826 0.03845265474167493 -0.0129309941119481 -0.005109114498738702 0.01070122171226431 -0.002292155635316274 0.03294019215753179 0.01963588065962374 -0.00368405668711533 -0.002982612525166071 
0.006452008412340068 -0.01975430673300441 -0.03240689597530418 -0.04380946710885016 -0.006440989874032291 -0.02055506616562499 -0.002327840945558473 -0.01709203999772872 -0.0005364316325772375 -0.007789856848225652 -0.007084629960903546 0.01331047849384506 
0.02493513316129542 0.001314948235573906 0.0264139019623864 -0.03212446827943347 -0.01865739173285183 -0.0166134165366314 -0.01258154533614451 -0.0127662948459799 -0.05004012827906639 -0.00406697925729773 -0.0310122186836254 0.02565653258364299 
0.003271165675711905 -0.01490355457875852 0.03061525216922867 -0.008437326497321774 -0.004036972548793859 -0.008396952198007894 -0.01434232055824565 -0.004832940217686704 -0.02599418190641374 -0.01185733528358528 -0.01981164006906826 0.02176519441380561 
-0.01673901311440025 -0.02353331577577113 0.01768366080705416 0.00822201722731623 -0.009748626754516111 -0.002097230239754696 -0.03068247711757472 -0.01299628072826229 -0.02897531480482115 -0.02682040511046388 -0.01388824773176631 0.009775522436685497 
-0.005533776104978475 -0.01254914956186942 -0.03005696021310893 -0.01764722098252529 -0.01775181304252757 0.006082627537042962 -0.01711522882389868 0.01243382155421161 -0.03540402736166298 0.005268606089788801 -0.002454519255827891 -0.02134591324611746 
-0.01443938684330687 -0.002995349915498845 0.01241219309979569 -0.01006733029260473 -0.01542035441055769 -0.0008103418918243024 -0.04377319310982167 0.004959049698804304 -0.05202250321417694 0.01158964749578081 0.01182418633308937 -0.03992826450424129 
-0.04326566049838543 -0.04912129845911201 -0.04985247528727732 0.01868546056336833 -0.01420572240669027 0.003386029674081277 0.01843574989671339 0.01901569213817806 -0.0419751396649723 0.01998688062505477 0.01408982979524827 -0.05117233240206833 
-0.02771409972003282 -0.02435978655756604 -0.01029936617670106 -0.0006583790945459509 0.01133843331591185 -0.0002623887195746634 0.02206508830500332 0.01420439798677234 0.0001023331045468403 -0.01125151268553022 0.01109920205100676 -0.09070664893393494 
0.01248985287062092 0.02536621534861156 0.007829099390820037 -0.01578168320291198 0.006014144320742824 -0.006829861273269808 0.01377551299428773 -0.01324019313363239 0.04324350457545057 0.009239480134210734 -0.004100630223588183 -0.06423391598514147 
0.02302108340372818 0.01849347334721551 -0.005425597654230128 0.001815674496846441 -0.006866767645019467 -0.005726446233748748 -0.01254819803715229 -0.01105937774401854 0.0006133478603528731 -0.001571525306615747 -0.01859357523351943 -0.03628623008018884 
0.009618080413761993 -0.007339052887541397 -0.01609801453417072 -0.0216762479721867 -0.0105826255344704 -0.02579525958440611 -0.004326290804741723 -0.04253059913757932 -0.0226111106667302 -0.009741276947865979 -0.01361200013747585 0.01626340620399729 
-0.002808990687652107 -0.01125185666155266 -0.009504998429538204 -0.02066804450482398 -0.001310981836528351 -0.0139597439539844 0.006386786335222214 -0.01734912403443133 0.01253324497249658 -0.006594171327571043 -0.01870620964089975 0.0005787946425519553 
-0.01320017756215032 -0.02095159552239897 0.006743984156675733 0.0253655127065 -0.0207317914990162 -0.006960569904830133 -0.004871579472767538 -0.001088583508190339 -0.01594827961583603 -0.01899874800975005 -0.002264258733179858 -0.008918770917754709 
0.002167879262901979 -0.01133274763902926 -0.04138835264443973 -0.001073978609991653 -0.01211128884128721 0.002904076025892891 0.04365842921553351 -0.001599567831759059 -0.01622403508793117 0.0002721691309424369 -0.01390725658568211 -0.006874809079102586 
-0.02476587607173276 0.01197401722746502 0.03104877158610532 -0.009147224106716922 -0.01859304724811797 0.002547345052063301 -0.04352289225243367 -0.00580201934579939 -0.02949741006154725 -0.003216981097330685 0.0269322178788601 -0.03135176774417822 
-0.02454650919793083 -0.03520714373034372 -0.02758389578893827 0.03523285461044827 -0.01991226171387876 -0.0003802398588053066 -0.05222573357769016 0.02548480506938973 -0.006187374388941843 -0.003173109301716999 -0.00622761335217473 0.003272362805895472 
-0.004335021736759489 -0.03738353671342584 0.01953763015576682 -0.0140039907951512 0.01185281986231583 -0.005592780314298635 -0.006363159343617112 -0.0194424962782027 -0.005584143557827566 -0.02347270401606863 0.00151315511867995 0.003199759860205318 
0.01578259141924424 -0.01845674617097319 0.001335605355956455 -0.02163850198062751 0.007409301061438996 -0.002469807712665813 0.0210527184942132 -0.03612264622548457 0.04509048096924832 -0.006093532716361258 -0.0220484147528512 -0.02775710959630269 
0.01206218816732949 -0.01608253057945202 -0.02578399457388408 -0.01921517433854188 0.01236720543263622 -0.01632181805456083 0.02099318398588902 -0.03720704366479322 -0.002370690977055186 0.007453502496838454 -0.01502272147374687 -0.02444064232474571 
-0.006199788290540581 -0.007461354039557457 0.0009072098693679714 -0.0120238090523069 -0.02185575585710278 0.004271104894583173 0.002286282531430536 -0.007020776738809215 0.02332130678575092 -0.007048072309671406 -0.004647034446357392 -0.004630584499446639 
0.004970001008781518 0.01500489563217985 0.008239771276486551 -0.02174844499816496 -0.009625501009420886 -0.01565290426852047 0.01881408504247827 0.002179725864849801 0.04854867888700255 0.0007951618484524268 -0.01013382004962476 0.002627737436060844 
0.004036364471814679 0.005610668034949067 0.007809749071949697 -0.02103773119916812 0.0004979786635414581 -0.01589493235429762 0.02658506947798187 -0.005320928966924802 0.03239113562995551 -0.02136777596068408 -0.03215325384800373 -0.003702439195951194 
0.008431218208009565 0.00208594084164123 0.008407747030133578 0.0006662249347587836 0.01182910575481645 -0.01689935749290572 -0.01182579522471305 0.01341873674813601 0.02550490630372293 -0.03510964586448769 6.997058395561693e-005 -0.04569978037003926 
-0.01919819906898306 0.01760321203326697 -0.01322489667124039 0.004019764601655361 -0.007651351127169489 -0.01841950787214512 0.005767613261720835 -0.001953266437264645 -0.00421378053580837 -0.005840470790173574 -0.01784463078142354 -0.00508500157901713 
-0.003921980338450396 -0.01748814556434573 -0.002954677822504507 0.02358380487549517 -0.004441656622874125 -0.007906503528455832 -0.02768836671018028 -0.01544937596789433 -0.005759687474899818 0.03309146528858158 -0.01243857635746391 0.03710918421877751 
0.002173654241279652 -0.02044853628684368 -0.02837976338256771 0.02104338046381738 0.002739600381928401 -0.003614691289789863 -0.02437734663270474 -0.004371777127461491 0.0007814197163568327 0.03007358117164276 -0.00232085530281085 -0.0005287336844921751 
0.001542083881296061 -0.02221315474251085 0.02453977640572104 -0.005189390642700349 0.001153231832232296 0.0008949161073624538 -0.0257697146231083 -0.005904654622139438 0.01734742850700044 -0.002530280241744756 6.655544379432952e-005 -0.02803302550135703 
-0.004253358617653161 -0.008254930821058083 0.0073095106714729 -0.02016279506475551 -0.01328463779460959 0.01335219150253718 -0.01869795223954006 -0.01137832403312258 0.02011162516527693 -0.003973348270211308 0.006954282929786853 0.02327597285538298 
-0.007443023872605582 -0.01666593054313913 0.01588967240766707 -0.004071664349270296 -0.02006964264064854 0.004318360279406785 0.01262713686947408 -0.007325470241854877 -0.001831516825642232 0.008500718385277939 -0.003379155248874146 0.03097742500033737 
0.005620778087730038 0.03213560707252344 0.01764324433614343 -0.02824138619584284 0.007077865129963264 -0.01060194942890624 0.04518060105697099 0.001978851005915976 0.01345250708059152 0.002723012913477783 -0.002403062436497502 -0.07033466451647713 
0.0003802174653365039 0.004943781909727157 0.02049557068804991 -0.001364124115877206 0.0001890132421525422 -0.01693441834424212 0.008070670271330295 -0.009107495842472141 -0.03688980590681971 -0.04339526371047459 0.01063626353641286 -0.07305363222782421 
-0.01264220949473383 -0.003796736611470185 -0.01055258604059927 0.01767828505817517 0.02825973274663433 -0.01674036101213119 -0.02169327267899851 0.03673729006795425 -0.03014837128590803 -0.03955075239730436 -0.003149140570501155 -0.04794647844285571 
-0.02743455092999237 -0.01319910527160046 -0.02234258504220813 0.01051952593090298 -0.003182013482455109 -0.02342936249727118 -0.01315305004044287 0.01641780640574256 0.001863540903108001 -0.01686239122715439 -0.02082376768542269 -0.01836891908774494 
-0.006307878098610484 -0.01555829606154984 -0.0006303216557515548 0.03007588867673414 -0.01845561933859725 -0.01540754529163011 -0.02411045651835947 -0.02234670834606857 -0.01698973377362371 0.005722548533042471 -0.008202832439552452 0.05625305294506178 
0.000606690093938392 -0.01076664570878268 -0.02920935249495198 0.01158061678605418 -0.01025296980596499 -0.006830210162362301 -0.04542623173670326 -0.02154096597588026 -0.02030332994630997 0.01964206698980986 0.006257115516817501 0.04774082612105711 
-0.007679074021644181 -0.01778929942419286 -0.01712264750980273 -0.01364835303072559 -0.01140656695093067 0.004767185777566942 -0.01400840510383849 -0.01913741595798714 -0.005095386047560422 0.004206510892684874 0.0007471445133090534 0.02968638789924592 
-0.009182794113206721 -0.02299009511444561 -0.02624536817647144 -0.007863798830088432 -0.01493013154893446 0.01484186490471603 0.01950561604232428 -0.01774701627918608 0.009198966581977783 0.0040852159662999 0.002438592521428836 0.03146152303619915 
-0.0161233609553662 -0.02347413389306996 -0.01982747697731254 -0.01573175106063095 -0.01999797100119011 0.004829474147471297 0.01989904536406564 -0.01490809525043965 -0.03194211213386925 -0.009166783950281837 -0.01498411743721092 0.01079776257166841 
-0.00536082022448855 -0.008986345255588854 0.001597632841617226 0.001921411251391587 -0.004575887732016076 -0.01436833089649973 0.0405294552729664 -0.005820858722988839 0.04587269657794013 0.001765563576488391 -0.008380594535242817 -0.03653165744059773 
-0.004705954313145102 0.005743469903835052 0.03325897063227438 -0.01802719483054096 -0.008112205531717751 -0.01806727812503017 0.01911071089876892 -0.03309487019727215 0.04432224794775258 -0.01902422927034701 -0.03038424227023375 -0.0268829477226307 
0.0008708265957429847 0.01090628180322245 0.02214609730472636 -0.03699053576388147 -0.0102528482986171 -0.01681620217100689 -0.02208847604939274 -0.002717639888316978 0.02522870141551535 -0.03648090452814263 -0.0127443662170162 -0.03759878125892295 
-0.0244920302802902 0.01181655664009901 0.02797764452513907 -0.002510960057975953 0.01056410598774756 -0.01821453455738152 -0.01308757917780031 0.01056437394778251 -0.02741023916981703 -0.00580770157871283 -0.01283410686648959 0.003668641432966279 
-0.01286116691947603 -0.03212379276730396 0.008541376297893737 0.01185994144123688 -0.001871894890106602 -0.009671485911540694 -0.04153445946576664 0.003160188356840344 -0.02939531945055107 0.04200854405552218 -0.02147262300005304 0.03469413590619699 
-0.008981220061531381 -0.003079126225122156 -0.03805820811165509 0.001799631820416926 0.001040319733259896 -0.000921621954993389 -0.0174253510404708 -0.005195032687469911 -0.01562783146557476 0.03903687006607731 -0.01733688663069009 0.01107692515712211 
-0.004131997973595399 -0.02139244352043495 -0.02912074783715898 0.008101045806164857 0.00222722036452168 0.008930495737600167 -0.01965671792092651 -0.007849213202455017 -0.03216690111694361 -0.009239304248328749 -0.00294465184931026 -0.00829421384164194 
-0.01347500087562786 -0.01758241000218682 -0.02131608262905008 -0.03388519253721528 -0.01777635584887392 0.01050950396846538 -0.01070968069594626 -0.01583704566031352 -0.04359106677525387 -0.006808889371443472 -0.004741392590065441 0.005384889204291914 
-0.02064626772157424 -0.04044496619240447 -0.01145576539361612 -0.01378546292362914 0.0071890962001633 -0.006253978304719778 0.02290539829577446 -0.01580587996247778 -0.03130077166315576 -0.003389350136781016 -0.009190316527541946 0.01032848810720368 
-0.01315719210263831 0.004721062497890569 0.01995651289182528 -0.03809682306810319 0.03436314023168292 -0.003374698505751765 0.03536033980237101 -0.02939781800367553 -0.02311059797315145 0.007728617316004318 0.01513971357055604 -0.03759570546320663 
-0.01094915129669848 0.01165297835398754 0.008944683728067114 0.00838608050505666 0.008872596933678168 -0.001520054854201135 0.0002217942789753387 -0.02620300292228718 -0.004629272303552407 -0.03607438446012133 0.01502567483729347 -0.06366690332340158 
-0.01216793572914102 -0.003810810883189161 -0.003263766790851053 0.01788891858152557 0.007264376452337528 -0.009733668034726023 -0.02610111516246608 0.006208917048352979 -0.04133592785939284 -0.0300793019181835 0.02748693122844846 -0.0718964847663312 
-0.02858767778799913 0.02075606146613961 -0.01118301843520973 -0.004525245366805421 -0.005005186976423159 -0.02157930476101657 0.02961942614296191 -0.002113543440750353 -0.005921125985198845 -0.008370596088032548 -0.01659409198581513 -0.01644089821950168 
-0.01383635076301771 -0.02468094195253232 0.02685011386284648 0.007297490985879584 -0.02652870990770945 -0.01094625938479037 -0.04071468875379843 -0.005752928220431517 -0.02650710872587702 0.01467702456950025 -0.01141462187728937 0.07125942959675123 
-0.007888484738325196 -0.01486086191167764 -0.04432653477042645 -0.009093309984819399 -0.01847047376386692 -0.006249794831373507 -0.01919259116187711 -0.02276036608664045 0.009146914271876035 0.0232143088623004 -0.01603171577163817 0.0550312799638492 
-0.008157410022148259 -0.0170084002850988 -0.03949597553548758 -0.01993421920939653 -0.01025736811477016 0.007434196268443965 0.01117488160472254 -0.01940630207869118 -0.03405013063461654 0.0004533311206440293 -0.009824126223334463 0.03503905736087785 
-0.01488795683956653 -0.02688409788640892 -0.0477271666078655 -0.04499395635774602 -0.01110222608023512 0.0002414599665472948 0.01931069488836319 -0.02421616217968245 -0.02866300890558747 -0.0005592670969110776 -0.009980048710743671 0.03517878374721509 
-0.003056598195642426 0.001774439379944341 0.00742660938343414 -0.0004139795705543482 -0.01346166319222519 0.01128690355129258 0.00622673879465223 0.002373362620938461 0.01991155758960627 0.02052736618765137 -0.02070359264380169 0.06480344432532249 
0.01951932077678562 0.03220776062334697 0.02814609883344702 -0.03316137834227407 0.007805843571543339 0.03014644953175756 -0.01212693431908495 0.002390285353962415 -0.03464083619121341 0.006144201889853796 -0.004361457302754942 -0.09732119264842028 
0.02059067143559236 0.02600275554177492 0.01179382630301058 -0.03911019641477515 -0.0005671180907369585 0.01584072269416589 -0.02795277513706652 0.002453181863192231 -0.03350262703097495 0.003477598502027499 0.001597933050115567 -0.1174837072972331 
-0.006693964043430104 0.03484451790204966 -0.01689952396735552 0.02109125379184869 -0.006340331867929465 0.00600185680179573 0.01809482606900745 0.04405805319362408 -0.0579430696323095 0.01330578982671695 -0.01651551387294307 -0.04185837598987637 
-0.0262720815571791 -0.01047382801937077 -0.007485095492769426 -0.0129494238266977 -0.00985967671547828 -0.01488631398222578 -0.002236342400361704 0.02013400981399843 -0.01946359884869211 -0.008765047597731713 -0.02667241125469091 -0.01310355041045462 
-0.003830469316916653 -0.002500409140985569 -0.01275312191844053 0.001225064039089995 -0.01872229836825471 -0.01584172649916648 -0.02986533429474876 -0.004189013840132387 -0.02108198959655781 -0.01146360917531162 -0.00716312913743303 0.06600448195282258 
-0.001732187049874395 -0.002255424769130651 -0.02957108980600244 -0.005510350345046734 -0.01518704343644768 -0.00759199932890953 -0.04801993696664837 -0.01409135131536774 -0.02139214255213057 0.001456256216075779 -0.008551829528230913 0.07575915173287895 
-0.01027938888935816 -0.006680663333499253 -0.02623663929835955 -0.008699376428907068 -0.01991598245133195 0.001991472738252712 -0.01305532454577319 -0.01473118101814488 -0.01501414240969827 0.013249936248327 -0.006479844109075017 0.05120442558521228 
-0.009300169170229264 -0.01908483140962164 -0.0003016524239742601 -0.01503539405048489 -0.01670952274822729 0.01150795138652476 0.003966674359832382 -0.01464163441122305 0.007247062465710726 0.01023476941769336 -0.008144265856801478 0.05540191648673876 
0.001297063942897462 0.01445742289505308 -0.004336503090429487 -0.004238008556532422 0.0226286592512444 -0.01415891132746512 0.02425891179845322 -0.02975478446986281 0.01659971821291264 -0.00689961729053656 -0.02760737444629281 0.01402477149970163 
0.01841989225744283 -0.02020845971194225 0.05432578792123833 -0.02741209498037281 0.0009001896929140896 0.01004618521531284 -0.04210544141921382 -0.02619787253974373 -0.002924929058571483 -0.0004315117907641779 0.0115970160961919 -0.08227856776276764 
0.01252661582746345 0.01493191959285556 0.02052662088725351 -0.002556458811065924 -0.02496860271647202 -0.0004925066515765891 -0.003975889512105015 -0.006363078929647814 -0.009752464533987895 -0.002814033163296116 -0.007877153201569318 -0.05088252402813773 
-0.02577436787191282 0.02517100322107873 -0.06786389992817751 0.05750188644305177 -0.02624751735094724 -0.008513049023577995 0.07971778674091762 0.001816760767317362 -0.01470405719368024 -0.03489347572973787 0.02510036589083776 0.01798747222606912 
-0.02580185317019308 -0.02187683438696778 -0.05642157823572916 0.002463858431646427 -0.02519195238589696 -0.01080758957113921 0.02728783329894258 -0.005526499812146798 -0.03219513415508703 -0.04466514759172834 0.01697254713929072 -0.004765503271632821 
-0.007279551116147605 -0.01159653933522798 -0.06454180176377546 0.01087433745584419 -0.01907567884701914 -0.02019300637428982 -0.01595375391083726 -0.009435607135520149 -0.04258063055298023 -0.006109221374254718 -0.005667341867106441 0.06702388347782302 
-0.0106642900259779 -0.002681616313593611 -0.05657307715874594 -0.008424756594571169 -0.01247455721395076 -0.01651713227647065 -0.01933957486654042 -0.006653002891256029 -0.03168345540901019 0.002501329754912557 -0.01794740431079356 0.05393895057923692 
-0.01560546959471937 -0.005756589532512659 -0.04711990829712203 0.00706051325316084 -0.02812163183068927 -0.008486958005001433 -0.001091946137111146 -0.01633738610701236 -0.03275869108184527 0.001623474262542515 -0.01928752009024927 0.03083962519524101 
-0.01632990002727528 -0.009159933205514113 0.02551046455865549 -0.01367142291636512 -0.02166434041840052 -0.009549897944712336 0.01027057720958167 -0.01658046520832033 -0.01053207956716227 -0.005030463580318899 -0.02857593053563522 0.05004178881997555 
-0.01915382897388424 -0.02641156066414128 0.0173884897903379 -0.009347314887460611 0.02024610944311305 -0.01065742650183717 -0.009298051903804987 -0.01212244647063408 0.01133443240055777 -0.001243669666779278 -0.01767952675335222 0.04996909539379241 
-0.00176174110150924 -0.01849788646592194 0.07690523455293084 -0.01651560228429046 0.06166107810925706 0.009537852110083841 -0.03381056589445383 -0.009898455078879024 -0.03436510616927063 0.007293573624262376 -0.01284139817848274 -0.05645327263899109 
-0.002404448272494562 -0.009189284586824192 0.04976905973181136 0.01908467580253295 0.007389577612172241 0.01534425199220107 -0.0640756224005439 -0.02366394280958948 0.003591839012298041 0.01054373596978041 -0.01653728596212569 -0.08262359416611897 
-0.003320413058927135 0.01393482572329272 -0.01925291530012897 0.04396432588960154 -0.03856654380680105 0.001306958141488977 0.04867033045557755 -0.005607770606117141 -0.02090337211889441 0.005261274691037841 0.00597726735578811 -0.04393071162453511 
-0.01997647126475009 -0.01911637505939633 0.0008634950848835047 -0.01919002634395302 -0.04266952815511846 -0.01276430161357811 0.04801461704821355 0.004724764329519983 0.008280823401715591 -0.00421667320548608 -0.01641818609481957 -0.01033662724064984 
-0.005011591916560853 -0.0111043394004901 -0.001581912167844459 -0.01263051181006993 -0.02860335456125287 -0.01416710359750959 0.01165600375359191 -0.006879985717246824 -0.01709120859189619 -0.001483901112793927 -0.007058799733972213 0.05742250975209689 
-0.0104259267643728 -0.007027302952300137 -0.04990691563207193 -0.02474524481912184 -0.03080774253689945 -0.01146765685866984 0.001472956841550245 -0.002892362423625793 -0.001648888468526622 0.008743917652481224 -0.01934460597113984 0.03617211519562182 
-0.01418868327000851 -0.004958846587398736 -0.02581300928297741 -0.02494084534275201 -0.02185828320745584 -0.005040744300296673 -0.005931092090008703 -0.01086897899731838 -0.01907301037106453 0.01321284287371905 -0.01078086452606059 0.04805404867515928 
-0.01090644902428511 -0.01217149129971869 -0.0003517912684722885 -0.02880479074020494 -0.001653814459412786 -0.01398666667068232 -8.096314360171394e-005 -0.01012030055875733 0.01074072706407293 0.004739663774925604 -0.01495882619104866 0.03895932359549958 
-0.02088085697810926 -0.02177385912710303 0.05486307618731531 0.01868892417352269 0.05294087704970897 -0.02529826070981206 -0.03705817688612129 -0.02468227587371585 0.01185264669641973 -0.02060199874023696 -0.02988205923450245 0.01778916908334441 
-0.01691014506275127 -0.0320595138705558 0.07649813796790407 0.05352547032121665 0.02858689636412044 -0.01945939275136805 -0.005472645570948823 -0.04079806686476767 0.05375192216575361 -0.02246395292266251 0.002701798965293991 -0.05671194335774991 
-0.01248396529709017 -0.01467663147719709 0.09231103721169091 0.01256221629172788 -0.005565011519456981 -0.02865805119131511 -0.009694897825890949 -0.002272072872822745 0.03212226209829487 -0.01270887910214796 -0.003796419013756891 -0.0573617662545891 
-0.02950443845090713 0.01143864352763346 -0.01226128978014298 0.03146467390690225 -0.05234796090931413 -0.01750260787111281 0.1071774625560561 0.01370533108552988 0.02527067654290578 -0.03837199997474963 0.06072729629112065 -0.0212455339407954 
-0.03795892081041496 -0.02674410118750782 -0.06812362806674395 -0.01547677127686841 -0.03698986725399735 -0.01699695543227882 0.08300132431820002 0.02804309059407958 0.01080090655196748 -0.05806764055950621 0.02731092711907518 -0.01777312884314558 
-0.009261759194845783 -0.01791439248963295 -0.05418173408979149 -0.02137300065025272 -0.03046235453226529 -0.01889309931855888 0.06020471251058684 -0.01153000106664866 -0.009507951442456877 -0.01187013120508118 -0.002984273425631792 0.01160617047178828 
-0.01297304727892092 -0.01983811317444533 -0.08467891021710618 -0.02023791252215853 -0.01407908500416247 -0.02013961833305881 0.03269934252878702 0.01271014447153638 -0.02677923853525526 -0.0149259393691482 -0.02964839261912692 0.005052822960171942 
-0.0133828719609776 -0.01742908858766189 -0.02644292652746053 -0.01372579786728261 0.005036421726350166 -0.01786807905534278 0.01539153009556774 -0.01165345804811362 -0.01776500151619544 -0.01152156821800758 -0.01960090027541651 0.03234842611181443 
-0.02232355692298399 -0.01691148094923369 0.01921340759019297 -0.02873923095854378 0.009669757230188585 -0.02324391566104569 0.01312665637178664 -0.008625063853062241 0.004774660978417277 -0.0154677135921665 -0.03771097037434087 0.0784789541940279 
0.06361421232195716 -0.0113303543726154 -0.0009329891651796019 -0.03088562672675199 0.03721376829104887 -0.01008788598591643 -0.03743918071037349 -0.05044014997647769 -0.00623455102733247 -0.05899988433774957 0.02476336349169762 0.02300140707126908 
0.06723972970983583 -0.007511785470260536 0.03735879962763474 -0.007997638974700684 0.009880634271853636 0.006951124172134552 -0.05796169129309513 -0.02166800858390896 0.02352742505777394 -0.002036117009324834 0.02125434101899235 -0.04364489760468008 
0.0431706467068537 0.01073386190549988 0.05638923158931437 0.008166035807084988 -0.008935896682065615 0.001776582935362146 -0.0496144335254252 -0.008579322643040203 0.01833611733418806 0.005835080922910027 0.009033778018152467 0.007239418642592684 
-0.03737336670658833 0.008493153908661354 -0.0397433188402556 0.03805786189248656 -0.01905205780385693 -0.003762469078591615 0.03462815513368518 -0.01265122976699438 -0.01077689165092421 -0.003088252231764889 0.0221802309865984 0.03470582278415886 
-0.003936483746406233 -0.01544230292102159 -0.04145658969625451 0.007302677679296763 -0.01035510081632126 -0.001658260779015214 0.009605792652109544 -0.01913803983969226 -0.01350508726364607 -0.01104162567393657 -0.0028231687229141 0.01288467886988417 
0.006966706516230155 -0.009391695991403425 -0.04203426274991953 -0.002622641909804009 -0.009953326419236431 -0.01072459368989626 0.01089820010045104 -0.01277846649797456 -0.02984345748852922 -0.01055197480618825 -0.01418086000272542 0.0298465427148426 
0.01139057483587669 -0.004488685884528 -0.02241514115611161 -0.03722642035723126 -0.009314728411597825 -0.01179873608880312 0.0378038676761674 -0.01745876341472877 -0.04323670465392457 -0.007584360110900659 -0.02073336545831074 0.0322523173406043 
-0.001226334247048655 -0.009908875568127912 -0.0106413758232467 -0.02495983892509261 -0.01219210164874034 -0.007072306328892376 0.03833577775834721 -0.0243115344040746 -0.0563285426752898 -0.007853625174672852 -0.02128606780093106 -0.002837605183667076 
0.01204491466027681 -0.01275050549781904 0.01984218793396292 -0.02710519683011925 0.004878575862491063 -0.01011657690675314 0.01322949708410223 -0.01336687865963491 -0.02802421552561862 -0.0360108342595698 -0.01572970902032924 0.04404642517680306 
0.03218457194325876 -0.03289210544292641 0.007061134426114907 0.003641195715964694 -0.02391204159514843 -0.008847885514602763 -0.05446655703422879 -0.001227796513236345 0.02589989109840816 -0.06425493967460778 0.02935267384767526 -0.03244920128579146 
0.008827413332910632 0.01486698125331904 -0.00229601442490971 -0.03161145773633238 -0.01223656723029759 0.01820315785203556 -0.01779287106405248 0.0239518221910969 0.04505997796382067 0.02708098116078023 -0.00783247322912824 -0.02923714930437088 
-0.0174575039707169 0.03600271355571696 0.01584144745054898 -0.01060316795735439 -0.006794145053191877 0.0309468849120499 -0.07198867924207333 0.01159732190922767 0.03906361005732951 0.05640639622402661 -0.03254235736366484 0.04120762171557843 
-0.06270885689828877 -0.00709556429541078 -0.05061787384088864 -0.03139996628005027 -0.02109141751843469 0.02621933857360754 0.009161498534282156 0.01474639732834817 0.02545280588118302 0.06357730928068149 -0.02624709748351241 -0.006531520654172227 
-0.01480511448738188 -0.008212985868443516 -0.06339407787697014 -0.03450095377660858 -0.008423103141170714 0.0180889030118259 -0.008591802485963324 0.008587029295443324 0.03439559433470719 0.04272021082146216 -0.05583232990769636 -0.002491988237802559 
-0.005114813654417102 -0.01838160090766755 -0.02859134544450006 -0.01026754674642998 -0.02056799180947425 -0.010698997520161 0.003365197482684518 -0.001150924164368869 -0.01379216121113741 0.004057100207440094 -0.02875474494680141 0.04164863068826236 
0.01133293211101356 -0.01966563781494128 0.06535392756413486 -0.07140824341112516 -0.02219899813587635 -0.01676018099163728 0.01777193965306435 -0.01927270071637297 -0.04855379849506642 -0.01956245368911927 -0.0253797668555998 0.04245479718834911 
0.00960353992787507 -0.009452392728254273 0.08755910452489131 -0.04018388319091373 -0.01885216742334261 -0.01661638496469043 0.003313888971162251 -0.02249373479878078 -0.01495207555848641 -0.00909479289979306 -0.0192842029166252 0.01511775182477369 
0.01687163451047024 -0.0239860643831835 0.03742984196549078 0.03865116910592374 -0.04188141891421229 -0.01920686751495721 -0.04328402346836814 -0.02015795312547557 -0.07643575792429323 -0.06320755723411242 0.04237038689790327 0.05666922560026419 
0.01784125532539045 -0.0127639477298529 0.008255623390430551 0.03865817679278434 0.02309836727723864 -0.02817022044159576 -0.04359287897775304 -0.01430181520737562 0.01912082155898554 -0.05376496554262516 -0.006593786791991852 0.01146288676610872 
0.01413204058694385 0.006019945565174906 0.0500046171238814 0.08209967085233799 0.001578341063567125 -0.02062221663859763 -0.0416858680389731 0.01397675375073676 0.04529082404168343 -0.04828736759180943 0.006844487456599192 -0.04449557387750371 
-0.001590311695570493 0.00368208455831932 0.08092022836281423 0.03718854434968757 -0.03290826224210246 -0.02724848995495786 -0.06228813431722901 0.03043872103394996 0.06115894160910079 -0.04364982373073147 0.007692266336326413 -0.02979656881715363 
-0.05269042555182055 -0.01344518659030346 0.005083751966735986 0.02022821557817334 -0.02341124023640949 -0.007668152178105714 0.02165081807383548 0.02091020748127889 -0.01640999180861798 0.005708235131524327 0.04356004880029361 0.005088329814521271 
-0.01927225923020878 -0.02437266028298018 -0.06924096110390592 -0.02998848881853838 0.007259303851474133 0.004129851998173553 -0.02095757905880729 -0.01568009567108794 -0.01549387306174241 -0.002262448957268644 0.01090905993973584 0.05570796579283068 
-0.0006294853837615425 -0.02700404214092486 -0.05832616392896882 -0.02193158214244149 0.01483012156179319 -0.009412205876373182 0.04133347028200624 -0.01938857662686248 -0.001195904486726473 -0.0001980602626161051 -0.03410298148128749 0.02938573470749234 
0.01827038021755304 -0.02479923467454974 -0.04945833609050659 -0.04068067501563669 0.03650855126322671 -0.01940878588426425 0.0937455421945757 -0.02600523573923343 -0.05631480278420906 -0.0305958548401087 -0.03038985889847761 -0.01803667189840501 
0.01106860912368884 -0.01498490212654442 -0.01534064973915725 -0.04519445483811813 0.04554931985043464 -0.02258897683396669 0.08917278589294266 -0.0304673485370132 -0.07844635131325918 -0.01879436241521063 -0.02948008899313773 -0.02368679828093374 
0.004108745012271687 -0.02607748098248579 -0.0007893866686013276 -0.01222255827909395 0.06162015536000575 -0.02248608487042303 0.02550575690312594 -0.008969545742874981 -0.02339702807353191 -0.02820597132311183 -0.03183189795176829 0.05930666401048761 
0.002264424547923123 -0.01449916774248328 0.01162379365986514 0.05666228417437043 -0.02425284258619031 -0.03574052616471801 -0.02160382789012435 0.02204906631825876 -0.008120771260551982 -0.07720637689902522 0.004916142754237324 -0.03615807854484832 
-0.004895649446218631 0.03904869948964964 -0.00142140703360383 0.05865199460634197 -0.06148550213897307 -0.02194494564879173 -0.03071664128992379 0.05586466793286886 0.04449169072929003 -0.04027968838061186 -0.009620773263075933 -0.0498735578877686 
-0.01101125120122012 -0.002339864911679047 0.02295826750681113 0.0515946680000288 -0.04900760051637104 0.02944210675526445 -0.08124918084959039 0.05216111915955209 0.03058445006558971 -0.01479627237176015 -0.01207061540859175 -0.08813424319847324 
-0.07646172173257858 -0.01677854428459936 -0.03109605346942195 -0.004472058651254888 -0.03249679314083543 0.04116939242769001 -0.01926058988088146 0.02755882155899775 -0.01782988783509976 0.05374761317834971 -0.005330122244470089 -0.02351162966034021 
-0.03910560638769397 -0.00477702710327736 -0.07806367116911953 -0.05281150860299486 0.002039821916563956 0.04557487721875503 -0.05856880457260155 -0.02790504265773219 -0.01492821463024745 0.04535556069786118 -0.005317982034040189 0.04820599677384106 
-0.0428413193589999 -0.04003779739399369 -0.05102740969368506 -0.02795644658453663 -0.001975881218427619 -0.007013917386245352 0.01545476276913878 -0.003579957465994835 -0.022503533384861 0.04296458704458005 -0.06051761615886162 0.06240010135628304 
0.001975622352476575 -0.03746338687059531 0.05896712727233058 -0.0919884049049958 0.01333520085113516 -0.02869095539562633 0.07328063354851236 -0.0249786048735724 -0.07007644803682867 -0.01036002798265812 -0.03953620219454494 0.003726918818370847 
0.008463013776346388 -0.02180020081652547 0.09098346401599393 -0.04451495263616273 0.004412561243923618 -0.03730215618360146 0.1067014628784034 -0.02759625620201286 -0.04952747202265567 -0.01128882040316634 -0.03904754135712392 -0.04978811560691809 
-0.007818498494096941 -0.02738929365743894 0.03434635927912549 0.01555752591215963 -0.0003496317706814725 -0.03775458549253324 0.0005759956416708457 0.0008236641079038971 -0.0765215354039076 -0.07473044305590013 0.0251617317689534 0.05435178552614266 
-0.002291110392483681 -0.01953582222468704 -0.04821676224884369 0.03700358611157055 0.002553583696518867 -0.02798018270107752 0.01359346721330333 -0.01739042131155828 0.0289930826693189 -0.05946966167037746 0.05903334898444367 0.006051559900741102 
-0.006484602357533039 0.01019536898556665 -0.03643909287367696 -0.02014326007637148 0.02943277094127723 0.002386269209227223 0.06281601683769748 0.003192281643071374 0.04012464131690521 0.0183411432551501 -0.02109580171028392 0.003456013600328579 
-0.004366671635692833 0.009912085486328905 -0.04959099812930851 -0.01860571017548512 0.00525148043826759 0.02872865541642899 0.009280984535741254 -0.008900913204221397 0.003542669142108604 0.03176473510783395 -0.03412897973317759 0.04437406009572394 
-0.02750495459182925 -0.02268405492335196 -0.03706569353381854 -0.0126771940805689 -0.01283501992585647 0.01468478375637361 0.01376440698255682 -0.01807723761538374 0.05668711296399783 0.04532151548659014 -0.04243331967598901 0.01086344466412337 
-0.03064662475496053 -0.02190906095635469 -0.05357989294606611 -0.005662763725544274 0.01022174649444794 -0.0146606615637151 0.02390279942250409 -0.03021268736812306 0.01998464017431061 0.04181938581924815 -0.0628368370053615 0.001982493017464166 
-0.00348048553048627 -0.02309403175318828 -0.006879465480226448 0.003045317086018514 -0.0243839086100499 -0.01923818842032932 -0.007218936130037354 -0.011731330256192 -0.01613570108817415 0.005325081625657595 -0.02412536140949257 0.06344706095857627 
0.002523985356940293 -0.03270378904894049 0.107631175682386 -0.0684293898111026 -0.01400477920341838 -0.03214564248968951 -0.03323722494156552 -0.03485599293365341 -0.05374569850868953 -0.01401439576967717 -0.0191860931296052 0.04638149925156186 
0.002391363159435856 -0.01201172587761384 0.07970338261797748 -0.003335942443912727 -0.009024172461206254 -0.02926359567291181 -0.03841890006098341 -0.02307123848729305 0.005993039048871861 -0.009772689866642441 -0.003476610430217578 0.05208866040820595 
0.009991566790851439 -0.0300861117784107 -0.0336719427110524 0.09848338132233807 -0.04418104035161582 -0.0387635111302347 -0.05785232432052776 -0.03770725189402535 0.007479600237724531 -0.07797254898608312 0.1004406811358859 0.07710408969911184 
-0.0230356833527855 0.02902390239387857 -0.02982431333174777 0.007373286759700874 0.004057327869576711 -0.02540908259104971 0.004376330617269887 0.008327717288671124 0.03718685198996713 -0.01277066834614659 0.0472742396500965 0.03858052663910898 
0.001273648458869827 0.03120141780428675 -0.02742530067646872 -0.01646100076072606 0.007099907622426452 0.01439342828505417 0.04873700165101767 0.05556219903235123 0.01536210651732925 0.04627208822916248 -0.04848738474535926 -0.02790705241860363 
0.05110676438510222 -0.01242143728825905 -0.0614950166019784 -0.04951276693530405 -0.004906892726180558 0.06743814700909398 0.008477809814330998 -0.004102448194666012 0.01517464273013734 -0.03612431997723514 -0.03583195081428511 -0.01118061301381721 
0.001453949628976412 -0.02634491495977963 -0.02592329813838227 -0.0422431753480093 -0.01685749589794077 0.05057568691010259 -0.009423544375475693 -0.03249262721957572 0.04706689394614994 0.04155616845768115 -0.05259431272626253 0.01761003328613119 
-0.007244319672026274 -0.03382910576125895 -0.05008842499371733 0.00179793324598405 0.01050677176662139 -0.02610678651928443 0.003482566726450242 -0.04393708453118846 -0.008131860633594997 0.06626334800033357 -0.06738303829895936 0.02040630755246788 
-0.01026662341103375 -0.03003600474890239 -0.003503734151463897 -0.005680741831233998 -0.01564103497032086 -0.02408406427077839 -0.02324803468404199 -0.02389658303474835 -0.0005663854120870104 0.02760049598257477 -0.03076556184957674 0.09986693939800244 
0.01201992064353062 -0.01411906002212491 0.05037201442508707 -0.04366869874527606 -0.007643649705576574 -0.0237730918229771 -0.02570957928988002 -0.02577373476204242 0.004531153417026125 0.02533177868801037 -0.01840972927903721 0.05508803701854808 
0.002203222708159991 -0.01143557915884074 0.04286162091646023 0.0539641544957695 -0.006533818444879832 -0.01568524458335993 -0.05859019860491922 -0.01327106646974746 0.05686436399304321 0.006220226498087543 0.009326525628754285 0.04926586916308512 
-0.01141243641863162 0.006380761860400068 -0.04380402528354183 0.02929167959640032 -0.003209669933709766 -0.02589092486304019 -0.05164809926329609 0.01171017213713062 0.04387882495308425 -0.03322688850368753 0.06708670493406059 0.03262406306559859 
-0.03243290877856927 -0.01985466948909673 -0.02100542156340239 0.02712757847719816 0.0004135248375978924 -0.03692722344780102 0.01171364240535856 0.007661267293880784 -0.01076271423276478 -0.07475172017624521 0.03880041998193488 0.01210354813645603 
0.005488107727496833 0.01114365458063737 -0.01453003658638453 0.03980830757453798 -0.02677978851890402 -0.02025110088383213 0.01381653169238154 0.08147208439618761 0.02377965133439505 -0.02382961740118817 -0.02430168601882644 -0.04956329032105515 
0.02990319236292888 -0.01086943906752415 -0.02367054525617003 0.02613598165711647 -0.02425722799639847 0.03345825459541251 -0.02050195177926958 0.01931936540448963 -0.008939316012292982 -0.03749474707592996 -0.01639125671413631 -0.06028169252543309 
-0.04440653960196555 -0.0507542998777554 -0.04393598589785962 0.02416776661999307 -0.03590861509375288 0.04537511579191011 -0.0004972991163681236 -0.02052338160186519 -0.008088979641707872 0.0966595877924343 -0.03757688070839235 -0.01114549004524374 
-0.05064452859967773 -0.03253547581961474 -0.0772120912070149 0.03602401602197303 -0.0005997283454269548 6.999246472948197e-005 -0.02075643835754356 -0.05083885111331184 -0.03179676199972149 0.0921314003976179 -0.05108769965461566 0.02343225739799858 
-0.02532461759526585 -0.03364034882374166 -0.01622023057424941 -0.009114158646832547 -0.03506882012799134 -0.03368627514433927 -0.000693535977915888 -0.02313421110937936 -0.05448105571772881 0.01596009029278692 -0.04790231050621625 0.06763523033503187 
-0.00827366216718042 -0.04725335234468964 0.08011721397286667 -0.05146958763355643 -0.01442780136470449 -0.05036852817148332 0.06158277453831378 -0.05686192652249621 -0.09164179679350411 -0.02278042557329298 -0.03422443599833899 -0.01714850521410689 
-0.007970965071150129 -0.05119477638219246 0.07530063059266232 -0.03220336241610967 -0.004368647402373456 -0.05086414911510416 0.08513019003170345 -0.02865553872787155 -0.05045106596183008 -0.02648036318512667 -0.01990006875210629 -0.05381097875258971 
-0.03284405400337117 -0.04316325167040735 -0.02665928712846645 0.1026945488102375 0.01424814834819459 -0.04252337743989985 -0.02391275613876478 0.005476988960416567 0.004600765483554472 -0.1147891253241215 0.0694639233762194 0.01784485526503976 
-0.03567017038082708 0.06521281376881681 -0.0199512490396106 -0.03882275621587945 0.01511819547073726 -0.01774470678503046 -0.03319884195335716 0.0237377592625746 -0.003007981056907261 -0.03124755964222499 0.0405603532322845 0.0359417987275925 
0.03391957176144299 0.05527727041021983 0.005990636654367903 -0.04190181674650094 -0.02828007312398278 -0.004607171848040157 0.0297392233009093 0.04326522050923087 0.004106044291904822 -0.01446265831250449 -0.01615461235184703 -0.02231367484014795 
0.08675587386252043 0.01205848497438676 -0.02544758190446403 -0.02733818441635605 -0.01856327849413456 0.05629739502303281 -0.006841267598883197 0.0121958347618397 -0.008392181352960711 -0.02960601532793408 -0.03467314849811037 -0.004617028381547638 
0.004909596103272939 -0.0474380549232005 0.002525019963654398 0.001531475788834398 -0.043462780284653 0.05803983953131083 -0.008739900164276252 -0.0301508801694374 -0.02216701365268519 0.08163505528616454 -0.06118427201201635 0.03153924581366353 
-0.04230242196290344 -0.05206930452552866 -0.04485458741110365 0.06806141275617811 -0.01253453342268768 -0.004598717976133676 -0.005101235145140644 -0.04087557553994645 -0.07290911874887909 0.104087903549753 -0.08733128817257686 0.02574678857249044 
-0.02311642412723071 -0.0496707428454441 0.0119678910556896 -0.007650528899083114 -0.05067737441406929 -0.03788623371468895 -0.04318503162579841 -0.01890229180406535 -0.03471130005744962 0.04102785649329448 -0.05773834966353337 0.06676475246157333 
0.0006428115750940304 -0.03655877502484259 0.04780394215489847 -0.0595505029099613 -0.02762034522133408 -0.04099789968507413 0.0468324948258045 -0.05572021552985546 -0.05415363787883421 0.02021978562130264 -0.03836492952757953 0.002740362935009327 
-0.01416719442205303 -0.02134192301443261 0.05711677779763393 0.02397646705351925 -0.0001904860485467819 -0.02671747654280219 -0.01260030944714673 0.005736419813571638 0.04634440098741717 0.004676970202409516 -0.01115935759697339 0.02414948567352564 
-0.05237832089404951 0.00940239899621949 -0.02633980513492071 0.04192785647385526 0.003750741307197408 -0.02393457338199052 -0.04995665628314298 0.006329293953710813 0.02340139127089365 -0.05567654960768761 0.07378611014311333 0.0323989227406725 
