solver_type L2R_L2LOSS_SVC_DUAL
nr_class 3
label 0 1 -1
nr_feature 4837
bias 0.5
w
-0.04038535621028364 0.02361005680957398 0.01443435758421514 
-0.05263812829671804 0.02136889489188957 0.01679087327246007 
-0.14924183878591 0.1087570782893019 0.1215195870429429 
0.003648017290938509 0.02191435408944709 0.031827587772753 
-0.147345882754286 -0.03478838891199877 -0.08849011806715651 
0.01147183845502604 -0.07344557894477334 0.109068452682883 
-0.04724958658915487 -0.02659092698577706 0.0449158761790571 
-0.0138400236887679 0.02305480646110148 -0.002632469295042916 
-0.06468264918691061 0.00902103804711845 -0.008632739802133896 
-0.08964819773232002 0.1011743330160187 -0.007669023077968818 
0.02799730245888903 0.03518308911691106 -0.02804632743427216 
0.03453088602957542 -0.006837009853522073 -0.005903848766456162 
0.0817482387326209 -0.07681194421136589 0.0471120544181328 
-0.1343224419780935 -0.02758506595603875 0.06094302240633794 
0.06673957212064662 -0.02689655039031396 -0.04913911264876857 
0.008289532413743325 -0.02948053719982318 -0.06337535096754465 
-0.0256577521305039 0.03630060761727441 -0.1606034401836124 
-0.1322296963160624 0.0791225976687559 -0.05854996828563712 
0.07266293796896543 0.04656566106926049 -0.062414901000592 
0.05151549042070944 0.02155830906525028 -0.02788327458556556 
-0.136475404801908 0.03684656085851614 -0.03617667715294113 
0.05991593576127111 -0.04346880427942259 -0.0648101126896002 
-0.1067125912478552 0.0764522477310243 -0.08857914155354048 
0.008124638107617696 -0.04310138324812282 0.1239941631655784 
0.005668036342802201 0.01299031400962985 -0.02216473616043516 
0.06751539701628222 0.01318523623096667 -0.04448216417905997 
0.01413722595136173 0.04068146117236519 -0.03301047938710527 
-0.03060215944794665 0.04474059770682468 0.02606845695884626 
0.08206739522209357 0.03691105944981388 -0.2005156337720493 
0.04333637143719928 0.02108302582917397 -0.09610924059081849 
0.07490205468740928 -0.009968635306662126 -0.07985910550065491 
-0.07127768949277154 0.1125428278638312 -0.08751516319148149 
-0.04597330010819978 -0.01180905379366794 0.07103783698881105 
-0.07227272635197414 0.01164199338991034 0.07480660670232434 
0.07866888721799815 -0.005645006842525994 0.0135374594900027 
-0.06991658373481575 0.07348170782857877 -0.05941128371984504 
-0.1614853142643511 0.05134801897976695 0.07356617932948607 
0.06127170388802845 -0.03837687164122887 -0.01668262598001109 
0.1117233582443785 -0.138339304282317 0.004213323523311511 
0.07352433326844061 -0.1587034031013251 0.1781852354220362 
-0.08611409549781771 -0.06072642242484011 0.2753104038463369 
0.05856512927045132 -0.03908011125486826 0.0745509596065982 
0.04870772109887979 0.04807720228692613 -0.09524057783113535 
-0.007721547894215692 0.07531595164087721 -0.257095955696245 
-0.1103094053263531 0.0571888532951016 -0.07661543146386636 
0.02509281558134915 -0.0994626245726475 0.06058787826420375 
0.183680519442543 -0.1388232861484923 -0.118947697256509 
0.0811359212341039 -0.02970018207268394 -0.05512038668740376 
0.09619766472260016 -0.07699178042691639 -0.0303462606623495 
-0.1334570483355178 -0.01125109684060393 0.1597697165330994 
0.01784365174416682 -0.02169223225184583 0.0270424718388138 
-0.0969907527519748 0.1063663022298591 -0.008968868987928152 
-0.06365507365427799 0.04408481710339079 -0.04772455722210409 
-0.08562614219048441 0.01360396377854577 0.1126777853279102 
-0.1099191301106579 0.05166507604944518 0.1247461834442921 
0.1655362314517405 -0.07648733097560369 -0.1065372307863833 
0.1179737498658856 -0.117884573727765 -0.07204527762570116 
0.1109870617761474 -0.08978117513552877 0.06516195418870201 
-0.03657212444650059 0.04533334024777607 0.02310140557122372 
-0.0595804811527369 -0.05070263449243034 0.07648071180224145 
-0.03655847114715576 0.05296504086975877 0.05935777689102151 
0.03395196701882152 0.04020272670400124 -0.09423844612849312 
-0.1174848215721142 0.04660891850795552 -0.004785610991985419 
-0.01845632267856743 -0.01767464430614052 0.07274446505391677 
-0.003698738780915244 -0.06818937034527917 -0.01211901936304551 
0.03973227537043319 -0.08682932230523245 -0.009054288629684135 
0.03875662916904046 -0.03092354046893264 -0.0615828634469608 
-0.01017801480192847 0.0100239241967712 0.0766799094761368 
0.04311379136672094 -0.1239230055858412 0.05742229899228917 
-0.09291576518775523 0.1066972136472826 0.00749559475210063 
-0.054967348611433 0.0684256869054113 -0.1259541573133374 
-0.08629582503569661 0.1190855061825873 0.02018691893613389 
0.1403440428331115 -0.05821695393622259 -0.1548853768540581 
0.2060722804402914 -0.05654941533052841 -0.2056809148694028 
0.05167156036274098 -0.03141669339542005 0.01234100671427946 
-0.01261700418034204 -0.02891731419503892 0.02748302048003277 
0.1211195650534528 -0.082236384053617 -0.135377668610579 
0.04877135232954846 -0.07026784149693929 -0.002483510384174489 
0.03677414880931122 -0.04989239183094633 0.1026955467719833 
-0.03963560224559894 0.133776105867093 -0.201991279800828 
-0.08956655881313334 0.0400523442530127 -0.02959912741675884 
0.2167068958579272 -0.04538634647009169 -0.1358445142309176 
-0.0333108366517526 -0.003801752998836819 -0.0354341818694064 
-0.1887324074591063 0.01802825646127884 0.119241108253782 
-0.09832901146331688 -0.1063715933934258 0.09607778746286662 
0.07202503650280255 -0.04183826973890991 -0.1049102015891738 
0.1077526659548021 -0.07748578506962048 -0.04562223768379708 
0.07753306720082065 -0.1228475187237736 0.09669158100981061 
-0.01295584480577434 0.08568715488954398 -0.1352289771462829 
0.01140876562656122 0.01443861528603308 -0.07477830308771506 
0.1134200605648163 -0.07434359477561119 -0.1446084528558555 
0.09272358951721862 -0.07362725424413892 -0.1280014951254772 
-0.02326287443673209 -0.0003747554130825614 0.03234057335457658 
-0.03426411048297209 -0.01038970788936113 0.07955234937027735 
0.120221003676823 -0.06813482656522552 -0.02899092411084173 
0.09207402461846853 -0.05766327489103205 -0.03941977832992345 
0.009106414362575565 0.05816408685680369 0.03036828586555087 
-0.08587936834888867 0.1049942734082499 -0.1163587282773124 
-0.07696720844201192 0.1318307248646419 -0.1753653178064867 
0.2298438690143193 -0.06862268236990804 -0.07612433217330207 
0.02188808940170927 -0.0664495090547413 -0.1223303820078888 
0.02665174934754086 0.00247450879629867 -0.01393651564157531 
0.06651151076414583 -0.03637080958553477 -0.005254062180373351 
0.01189023775370507 0.001407812243366482 -0.09415637643527861 
0.04892625030589143 0.003674870745416174 -0.05386917968604511 
-0.02267134461476191 0.03573738019699656 0.05561538468675981 
-0.02615965526104049 0.05617349923961142 0.04810677001335031 
0.08089347872039553 0.05753187142493144 -0.2779249913586544 
0.1995117268585052 -0.109143760234732 -0.1445770348071954 
0.000293204620939083 0.04172732408599526 -0.08378562736327008 
-0.1651073682387546 0.06619629817328368 0.01607842712074899 
-0.09918268286366644 -0.1056611400741905 0.07249173835591438 
-0.09410828596708501 0.06451995203434922 0.01973813622433205 
-0.07337694461512949 0.004395902649752889 0.05143794353216839 
0.04104729342963923 -0.03544828206407747 0.04069546670711196 
-0.05860470040224193 0.09713814842086008 -0.02319536401513152 
0.03365248135772091 -0.0688059063735473 -0.01882818118155225 
0.03553307879108426 0.000828294613479829 -0.1820157574921141 
-0.1430525993005828 -0.003029171298847641 0.06382961608674093 
-0.005343936043145612 0.01516113470133172 0.0563716533470397 
0.02208485762148977 -0.04794131181505972 -0.01286316432738142 
-0.01069606516092556 0.01974146782420302 0.0470489369949452 
-0.1082458106564671 -0.01422294349482332 0.148757447254385 
0.1060248320462034 -0.003445336572792821 -0.07670125201758841 
0.1743559962619325 0.03030987060937543 -0.1983417058806522 
0.06943407672488824 -0.08098163212983224 -0.172080995761171 
0.1489160821551512 -0.08931037591204015 -0.09210305641966432 
0.03944819848323032 0.01400787250858259 -0.115255807699976 
-0.03567579195514167 0.0625136289857355 -0.1593302744979056 
0.02271846138706217 -0.02047088918025762 -0.04609467793505141 
-0.03736637035216572 0.03065029907758311 -0.0570139165547102 
-0.01950159242158369 0.008768229277541241 -0.02174174061996153 
-0.05887919541687479 0.07337942980592722 -0.04820891573729833 
-0.02043267695368738 0.1222424233945551 0.05503479273451747 
0.07132386279838616 -0.003925175815188467 -0.09755816687884043 
0.08420987487390728 0.009147492577100598 -0.1505650182612066 
0.02572286044742504 0.1062380683392108 -0.1647647759614286 
0.09675945232733166 0.1016823761167308 -0.1876431182397364 
0.04985401144447017 0.03887711808528029 -0.1022119015791089 
0.1606431715488358 -0.029037009807525 -0.1803714058300042 
0.04064854778857541 -0.04936639823346158 -0.07287994654409936 
0.09577302060759856 0.02365114318308808 -0.09590211035527074 
0.1146341765387654 0.08262839285191775 -0.114082776045601 
0.1031784134533741 -0.08639446240838679 -0.1551447169101444 
0.03742693393949959 -0.01686518214364892 -0.0168678376227673 
-0.1179229461792179 -0.08341091164606047 0.2408513027385957 
-0.09747478151613105 -0.07375575210851527 0.2713421799305016 
-0.04682826251994856 -0.04048694203746292 -0.01044308112153758 
-0.1063354307932565 -0.009828056253371383 0.03414083153351859 
-0.1174340845251555 0.01749684579239402 0.04433026376291045 
-0.01374473874951752 0.05698720411503357 -0.05199969887400362 
0.1994120398716609 -0.07669497129259713 -0.1534087895181082 
0.135079276673294 -0.1123424713933624 -0.03916545213996645 
0.10013823053588 0.03736907305006687 -0.1399066114438915 
0.02261601140089966 -0.03203778925477389 -0.01719230048267294 
-0.07115033943344967 -0.03105169618704808 0.1651300794406828 
0.02224690318962835 -0.05785636137665188 -0.004613673893483424 
0.03205814238300415 -0.08062195008884272 0.05528775768183745 
0.03535435724560676 -0.02995161006687166 -0.03628317364464261 
0.009162886800836129 -0.004108777266644405 -0.01988107230325545 
0.1638754920140661 -0.1289407939934039 -0.0530857011446618 
0.1655855566634144 -0.1438480011518509 -0.01856496205505858 
0.01352768286722175 0.06209688521464082 -0.02269088442822655 
-0.06249502554894706 0.1324554607318053 -0.05129267843148776 
-0.07602669499448539 0.06419988355462271 0.08928305417210997 
-0.03680836638637116 -0.02520896194843058 -0.01969473685404127 
0.03638356575827988 -0.04599123952861262 -0.05680592120035091 
-0.01537893600698257 0.02113868072737185 -0.0532779763565597 
-0.0582828444247181 0.1188789789600509 -0.06107363270168466 
0.093338828998001 -0.04437882315879874 0.05667120974605212 
0.213182999395389 -0.09578552233930159 -0.05036171119352084 
0.002643856914461896 0.1286288267676037 -0.1390871322954829 
0.00491990212770407 0.172498840611428 -0.163915668752164 
-0.08983427130568332 0.1000506008380088 -0.01208358587249794 
0.09741844797095826 -0.09014516488316535 -0.07845247609545628 
0.09310226773188425 -0.0344535168207484 -0.05150421057979734 
0.09825428408367362 0.008838296570781537 -0.01741840189931206 
0.05739702982595508 -0.02338117361023985 -0.1566593026049616 
0.1223614013707975 -0.04691001558918789 0.001994605683432158 
0.2396745215480139 -0.1369644500316999 -0.02829447307011227 
0.04631474968430534 0.02931557469038764 0.02751890122242725 
0.006199803325441011 0.003712659103867811 -0.0267814788512835 
0.009688076323713719 -0.04069437953370384 0.1535854677515714 
0.09528229316697408 -0.06962760020046493 -0.01519164369765086 
-0.02972843298258448 -0.02790837355444189 0.08956299974005341 
0.0064896967098868 -0.03682338470181693 0.04397413550389724 
-0.02716853495298198 -0.0009565569894544391 -0.06959294517899235 
0.1658482260604044 -0.02884114013487005 -0.2119390537148179 
0.162558607564007 -0.1183088991396228 -0.03091525573622371 
-0.05887880866049714 0.1276522692747266 -0.01685935266156274 
0.02144362899581735 0.05219149440287854 -0.09068709128278343 
-0.03061702187408695 0.0009807219798684916 0.1096320500225053 
-0.03002790365793776 0.04624270632492779 -0.001318742467531102 
0.01130006737027137 -0.01603024729115733 0.1495957792712321 
-0.008851396306584993 -0.05451683188046817 0.2098989805358006 
0.1476451741432735 -0.1599664821509075 0.00361687080799756 
0.1675370613905225 -0.146947823403677 -0.1615436761337581 
0.1524039017187933 -0.08107457159842949 0.01197939399866943 
-0.04439688955116852 0.1500848132900693 -0.002341391807736667 
-0.09150001489280862 0.2352641409116652 -0.1880510322877847 
0.02466239895967714 0.008394127406288685 -0.04863786584059721 
0.05485311837373777 -0.06275877000484587 -0.1024907029929629 
-0.03711870094766626 -0.01645675036809415 0.07659492835405711 
0.0597379544406268 0.02154371554039855 -0.04613657963726858 
0.08346361823482848 0.03688093859070668 -0.3012998155130069 
0.1482990649314724 0.09731478092914954 -0.2789292916416987 
0.08814462088940264 0.006927387587769948 -0.001987606355925935 
-0.1077458165538538 0.1760072003383857 0.0002107336784235893 
-0.1073308635842471 0.08781157990851927 -0.1882341498897493 
-0.02921422638337597 -0.001372710062482909 -0.03315142234418196 
-0.03076395838768171 -0.01299461796093975 0.01194515500686472 
-0.1252248997667822 -0.001593397006411329 0.1258899556909666 
0.06931480451406404 0.01844781278399067 -0.08783549779054208 
0.1600367481006472 -0.02890620761581743 -0.08885073120479461 
0.1169550180338522 0.004279923579200668 -0.1344567198555182 
0.06446311338673012 0.07073543698643127 -0.01561743165736829 
-0.09428445675611664 0.1086045343865728 -0.04290367885790574 
0.05104961873108717 0.05057342748811337 -0.1779665763057821 
-0.007820912466180503 0.03418529659331222 -0.06167715277835605 
-0.02606016101726589 0.1040037126274425 -0.06450761828721188 
0.05570152437425915 0.01290027545660546 0.01630675965300475 
0.01502767551686579 -0.1207457538995 0.261847109320005 
0.08825445715886866 -0.1256914660546468 -0.01092452739099523 
0.1668244023628488 -0.1342009510595491 -0.209177859711286 
0.0125519823883585 -0.02554473333160832 0.06892898849554982 
-0.1508976689914325 0.08632465295316114 -0.04621981962985274 
-0.02725907909779653 0.06526765573708339 -0.09572288176635184 
0.02497431336629866 -0.02733516903117166 0.02192094300707339 
-0.04411232234133131 -0.01633646917929112 0.006408724503020756 
-0.01130034312180204 0.06962653320343315 -0.03947022733944569 
-0.03923706842524781 0.01600667664138687 0.1989546555427448 
-0.0463106035332176 0.005984387076106401 0.03407274599248988 
0.04413245219732292 -0.0008863664474745004 -0.08911699135617178 
-0.1007771372077215 0.05284560148825092 0.04202069493761407 
-0.1038285357817793 0.1373951324921423 -0.1478248227670591 
0.03058859590636835 0.08862731124237226 -0.2140787767205003 
0.003961071158539754 0.05510312721515666 -0.06347921949942545 
0.04437166726357326 0.01049532554485509 -0.01108296672102282 
-0.03584901181160635 0.08578038076403897 -0.1964618772859858 
0.04521226315002756 -0.02677282890002701 -0.0818906293631964 
0.08584246565512715 -0.00226676101259569 -0.126661369638908 
0.1396510768180014 0.01638152844732358 -0.2283049533126759 
0.004886365127614489 0.04837565101564539 -0.01352624511985177 
-0.1340799609873618 0.09370122515526198 -0.0503869072052945 
-0.01026149857917158 0.0216963433716213 0.0106965613804815 
0.08621543407903462 -0.04115272944180815 0.03603521319856033 
0.0006692109790527188 -0.01872016336446479 -0.008740372131785945 
-0.02347275084334345 0.1238925657641893 -0.1270324362531366 
-0.02775460144963086 -0.108119065725205 0.07698543417033225 
-0.01757943699720231 -0.0233122436369145 0.02086460417276973 
0.1198503575937122 0.04139892456298832 -0.1158029943164951 
-0.04229175664355901 0.1257025771922647 -0.02005943914879447 
-0.03998937858394466 -0.02958261563305277 0.03919869231106266 
0.01575890207853524 -0.04520165423654371 0.105511302695684 
-0.05037871816563332 -0.02185184465005993 0.0584163707021907 
0.1008837022813015 -0.03819392827269125 -0.09139420505807588 
0.006284787052220553 0.08515160358198519 -0.09672903436161555 
0.161662660614131 -0.0440668184548326 -0.03114371794510682 
0.03429359346651865 -0.06960797224784997 -0.02280996327731722 
0.03243270164431235 -0.0364257836733053 -0.02613706727077852 
-0.07281946999417348 -0.002446095803501321 0.03854385201738047 
-0.07794848534642655 -0.06177889598443133 0.06322947043509453 
0.04809729265674001 -0.03226018822369256 -0.08479804896466567 
0.03353639564469888 -0.007519859240494583 -0.04344891327143872 
0.003872846636527293 0.004664517148461957 -0.09967432895501462 
-0.009029272899217971 0.1373064860197458 -0.03264601699280731 
0.03067110249985135 -0.01812706056899826 0.008678581382479612 
-0.003112578094227257 -0.02561839157754968 0.08907524329997267 
-0.008458987787968093 -0.003936143833464479 0.1023282304697352 
-0.08768354885219297 0.001081781154922766 0.03596007144309758 
-0.1390750231663518 0.0426731773930376 0.0280956929848486 
-0.04146096167717327 0.06156686981855597 0.04988784900798906 
0.03063290711585866 -0.01196718267349626 0.01406459973882525 
0.115524037158184 0.0003427242902848783 -0.1041521579730718 
-0.02567334592902891 0.01449092553723291 -0.0157033835131207 
0.01813364368937594 -0.02789230825173155 0.04433949110385275 
0.03017713396908561 -0.0580967287886499 0.02389269639648624 
0.04598553455014435 -0.05487740589928874 0.02816718910528938 
-0.1039461498446061 0.03717457724969554 -0.04316309564897464 
-0.01613498874848655 -0.004440655755078326 -0.06264354225553136 
-0.05656105087976499 0.02528909033380451 0.00727646943847129 
-0.02281086238823335 0.02378157139486216 0.03324316320961259 
0.07637840570635586 0.001103997082624608 -0.09506662437722561 
-0.09351292458108693 0.1021249699009924 -0.006464952224788822 
-0.01612714297949806 -0.003625848933882759 0.04433124298147589 
-0.09410027892893708 -0.00789797055471554 0.1526327276961422 
0.01839692948502643 0.003087183291301442 0.08515786855619206 
-0.1274373470325851 0.02770284939543802 -0.009575868503826676 
-0.08078735927325888 -0.02076428771360196 0.146924020319217 
0.15051076364581 -0.0534364384561731 -0.201838706345769 
0.2591470125269995 -0.05779627494232411 -0.2969134967323595 
0.04389465918962877 -0.03138088455850656 -0.09785353677812658 
-0.06639810080875386 0.05676697494093323 0.07939403973640481 
-0.07923051024695835 -0.03468798716750757 0.1089181862714299 
-0.05191047405143921 0.03760782424983623 -0.02176718882398857 
-0.03242959851081505 0.0239427578690628 -0.04623849258497039 
-0.03290338268649207 -0.01331664792999998 0.04057061254736506 
0.05395766333586806 0.0400333379706574 -0.01376923421434904 
0.09492746605902135 -0.03938655869902078 -0.200692602044434 
0.0617246410664345 -0.0972704537591753 -0.05453064264300319 
-0.1049807324683184 -0.03053126998553663 0.06602069174793969 
-0.01813544487036116 -0.02293961624704919 0.1351522951288609 
-0.07456467453669248 -0.1247367997394367 0.2228354998358428 
-0.1054294296590124 0.03039446065060233 0.02943768458925151 
-0.05190707348080682 0.05339175048311098 -0.0625222229921982 
-0.06325707107456761 0.1048662263769309 -0.03863496700119336 
-0.02453132930724775 -0.02664863519174035 0.1002455238326536 
0.0511674848211286 0.03443191906520077 -0.08936384060562423 
0.1029940421508157 0.01155488854990197 -0.2521066422289462 
0.138063332907745 -0.03516483516130508 -0.1258678304955341 
-0.08153676164577918 0.1053813177563946 0.09466297552587868 
-0.1068082808904879 0.01006975586316352 0.07565150379875152 
-0.04205589118650966 0.003708237783553949 0.1019346971377243 
-0.03899246089998222 -0.01698131626168609 0.08358667781320163 
-0.004629961134030987 0.01919242811120262 0.06770421637522016 
0.1931534546136783 0.00949125200781847 -0.07296471251145591 
0.06669951634305685 0.06829220018071629 -0.166411954560723 
0.1477878234604044 -0.02716078296096724 -0.1785504080218181 
0.08373721223504199 -0.008331613449978376 -0.05038945317952415 
-0.06936445341479325 0.07149368936747318 0.06451657106352197 
-0.001790167546714262 -0.1340992075723116 0.1201260494145072 
0.003734648186797596 -0.07000127911308113 0.05790222096306782 
-0.02471170960400632 -0.02052120769932385 0.07459403444246919 
-0.07647672038556261 0.04905533171521272 0.04021810456650353 
-0.006417034671593346 -0.01870333995630602 0.1482045290885238 
-0.007285312553288025 0.01199005882254234 -0.1094011941841261 
-0.03008411307126652 -0.02372350090089601 0.06097581046753256 
-0.1311275521446021 -0.02760229501288861 0.1242456972487062 
-0.05867894764383407 -0.07676509371136858 0.115520660423251 
0.01540784270631107 -0.0791168778969686 0.06242397684219363 
-0.0674537852307211 0.01493305035575424 0.02214422614964803 
-0.06843814342090833 0.08151273901288222 -0.1563722065049729 
-0.1462899055881081 0.154557424194537 -0.06119209285331045 
0.1889993752212466 -0.2087521660353743 0.04205396747248213 
0.01053103304761532 -0.003405337344931342 -0.04272453874776235 
-0.05133480674915301 0.01735410186114485 0.2006702105240686 
0.08355697193313665 -0.02645302609778313 -0.03284440292511364 
-0.001085506651489565 -0.08718158550711999 -0.001943285038654228 
-0.01182064373910863 -0.04802821202836249 0.04960823777863628 
-0.1220558337607576 0.04405206950496254 -0.03625666583615456 
-0.07697686818896463 0.06583215062490049 -0.06173987008682116 
-0.1478603063256452 0.07239078715474143 -0.02535400681201529 
0.191038843393491 -0.04374806983312804 0.02532476020094965 
0.1335560663888457 0.03835579650063966 -0.1430739886306594 
0.05072725491765168 -0.05206912337158273 0.0205981214776647 
-0.05107633350987809 0.0381530150163559 0.06731581592419673 
-0.08876001307123958 -0.0461743367863002 -0.01125728409173954 
0.01677235304550425 -0.07930466411478157 0.1010210298621519 
0.0343358076208293 -0.03932494041817842 -0.01867733532404788 
-0.005254559309656841 0.07527797206961229 -0.08072641748136884 
-0.1203800358953022 0.1049447855761544 0.06872440979790961 
0.1922991343760097 -0.07927370445832756 -0.1199997629285889 
0.1739639973485847 -0.005162813443423282 -0.0965744968904253 
0.1121154792526045 -0.001564435309140527 -0.03354302531054407 
0.0450391134049624 0.008407184959891539 0.04324793626861578 
0.03660055584589129 -0.1062979674685278 -0.02545671875997083 
0.03817526850910744 -0.07804408522697316 0.006580246432725443 
-0.03628073263995015 -0.02711334288485073 0.07766277444220948 
-0.01202669825491697 0.06757715911442745 -0.1279436808775835 
-0.09504337881299993 0.02021104548031343 0.1157739262763799 
0.05287199253226835 -0.1392975877849966 0.13755008875999 
-0.1212243078209829 0.06203767066218299 0.04238223486971006 
-0.21223879212797 0.1001255794081924 0.09279636140555088 
-0.04466179768432901 0.02044734892574513 0.02326736168119387 
0.03759857482373322 -0.1071091144704049 0.013001344423838 
-0.06442226819617057 -0.09807057957468489 0.1551652686595918 
-0.126929554364921 0.001377841225971921 0.04952244336250648 
-0.08169026724768988 0.1076542547438575 0.01859733178816143 
-0.09500529575700023 -0.07276028869136227 0.2682958936304556 
-0.03627946679412835 -0.01995608234812584 -0.002837979830649445 
-0.1130845606884418 0.1625884306094241 -0.04487950148429713 
-0.09856964358180156 0.09803329688894277 0.06357512204585065 
-0.03163601828433855 -0.007197206726546383 0.03834311848304797 
0.09179490787054495 -0.1577995757968104 0.1081149457188263 
-0.1070498183870904 -0.08699089009664415 0.2128410017038629 
-0.1728776181883041 0.05561652729796017 0.06274630804597405 
-0.1269695435436195 0.08263673137913408 0.07835141420000234 
0.01229044208870898 -0.1016574746942599 0.10544721418167 
0.1297614611637614 -0.1308219058763938 -0.04354586113556203 
0.06594050377894493 0.0942689951855627 -0.1811624019779191 
-0.04133014368357722 0.1055287391871654 -0.0177243910523564 
0.02588710278818816 -0.01262142301320906 0.1022657097462171 
0.1524708253909191 -0.1798949688913748 0.05291591874205572 
-0.003913126135701 -0.1290591420016087 0.0844445718358094 
0.008245977311350678 0.008991309990599243 0.02634048218673245 
-0.01913693005672176 0.0888193636464429 -0.06217164096336952 
0.07003325674589594 -0.124484421065333 0.1118723741310974 
0.01265767029424981 0.003531478136089272 -0.07529522555637275 
0.003402286107204829 0.1402987666441467 -0.1275673316425958 
-0.1085391924497528 0.1205975761900332 0.03369201099887846 
0.01459079586925783 0.004992429436484289 0.05232508399983951 
0.0725752436755312 -0.1212730001605886 0.1742498920599333 
-0.02984537486236191 -0.04738826550152196 0.2345956353548528 
-0.0904781599511609 0.0860463095907576 0.02235860333477589 
-0.1031605503681645 0.09555411303549474 0.06224578041219483 
0.1119181630095539 -0.05225532708262994 -0.006373734099615813 
0.02717214165521269 -0.0298109750677395 0.02736077511410654 
0.007136865340324494 0.1326139100576688 -0.0979457526393243 
0.004926912622384653 -0.05845806319308771 0.1179862834234291 
-0.01614640561491575 -0.0780248857609909 0.07834071472783939 
0.01413847396846873 -0.1364330884594443 0.1840115154560855 
-0.03716388196896427 -0.07172420283250415 0.09643646350376783 
-0.1619091697527517 0.1105647912661259 0.02359504495717794 
-0.009417373880402561 -0.03573308915008061 0.1335893149163034 
0.1602526341881267 -0.2462030322377688 0.1407682656637365 
-0.08277648925649796 0.03480776934393762 0.12827370571587 
-0.06812197807771689 0.2016042374203992 -0.1946187393669678 
0.04066244345582068 0.02440656820061591 -0.04768140960456864 
-0.007937415734528743 -0.1228290239621376 0.1872485459508198 
0.03142496959178135 -0.1758364323219465 0.238747649126303 
-0.00133430886608227 -0.0566680707832673 0.1055532540473784 
-0.01356144714792262 -0.001976111474317015 0.01448873769927542 
0.07921165804636524 -0.03026454934917371 0.0986838513881849 
0.1781893826612819 -0.233851631400209 0.2341051643044611 
0.04434477577800228 0.01740391791862584 -0.06980818357912302 
-0.07050711275290887 0.2126071615534923 -0.1976827580845617 
-0.04952069365372216 0.04336444498810901 0.08359092157775164 
-0.0185791987110686 -0.08501293712721073 0.1092195219601832 
0.08165222829196479 -0.1314736782179246 0.1133894345613791 
-0.04280302559372284 0.01111496362341034 0.1196687750429222 
-0.03847548657746852 0.04118196468769639 -0.06631195679317331 
0.09291906017411934 -0.04370614108849198 0.01146588421488226 
0.2722099762507806 -0.2284320523460271 0.02633516467041569 
-0.05875166654255656 0.06529327402350824 -0.1035057721370456 
-0.07744631607234963 0.2217005100508578 -0.1268726773239569 
0.006964762780605547 0.06134541186184264 -0.02483952612197488 
-0.04061303849361993 -0.1612852852559755 0.2263526894765456 
0.05703093903035592 -0.1233463474234593 0.1788622543190608 
-0.09638453349050831 0.01709597684737511 0.03215998231930738 
-0.1042355715660935 0.02053335802152075 0.04342226762129905 
0.0126053285870943 -0.02955404452794638 0.0498815486663212 
0.1161293163504402 -0.2422208837906136 0.1249590338619816 
-0.03554514376665636 -0.01544873887747108 0.01372087687870825 
-0.08360458571353269 0.1902698485391534 -0.2347257406623634 
0.02897106501601034 0.04253097734343456 -0.09250934957177737 
0.01372941200131161 -0.1338061413860019 0.1253980300399505 
-0.06862194656065204 -0.1253031232023252 0.1936971895786167 
0.02248583056622849 -0.08645548993146246 0.1585579149288977 
-0.01936682796952516 0.07408217730797781 -0.1150000853146797 
0.1565043338348861 -0.01987521437074198 -0.08295876972313833 
0.1391359739868165 -0.1511754109894592 0.1754897463707636 
-0.09156315705522436 0.03624823750308385 0.02501449645742053 
-0.07016050398625794 0.12019562219885 -0.1570152362586839 
-0.004060918202058349 0.006137555262948433 0.01074542908229211 
-0.004270899539524099 -0.1335494902671505 0.1357515170010084 
-0.119872471335336 -0.1438125572282802 0.1680706611368246 
-0.01462394365993579 -0.1301422476298474 0.1124994052509497 
0.15027493434115 -0.07622512005382338 -0.1288944082462791 
0.1353465650023483 -0.1217425984631007 0.007938734992253936 
0.09553107831020009 -0.110073521392412 0.1357797802632419 
-0.109079932509935 0.06011529827554285 -0.04830522179302181 
-0.05931337918759014 0.221208863689752 -0.2511287522264027 
0.06243205844347658 0.0448600937516381 -0.0873994226149558 
0.0360940612354182 -0.1244246465907998 0.1040709132508752 
-0.01249120038131201 -0.008308659803028329 0.07821801833773207 
0.03610774921377434 0.03094058602804596 -0.03291896264774184 
-0.05680628982255241 0.06292683904878522 0.004080577897013103 
0.08082257876370981 0.0117682810234008 -0.09364282587214433 
0.129826682046742 -0.1613342205576437 0.05170657158421735 
-0.09987745274904768 0.07196123262240159 -0.03120000978738968 
0.006606277782206727 0.01480493878476133 -0.04266462247483487 
-0.06830811647984418 0.005083309855480989 0.07176033954531171 
-0.1199928011996872 -0.06505835899942571 0.2664477730928712 
-0.1055611530585986 -0.02523557103257236 0.08836965314722974 
0.0376090197582354 0.05490301346451242 -0.03299039830399006 
0.04485397863547684 0.00270043086133932 -0.1418105554022853 
0.1224477065583374 -0.09994661162773225 -0.08140307283695827 
0.1030674833284998 -0.0800663797255456 0.002048957233336796 
-0.107184265937684 0.05179807668693521 0.03461404706695523 
-0.004002588232510186 0.04798686981838261 -0.07577418117565077 
-0.08875969678000358 0.01797497629627665 0.09345301133604098 
0.08458554493681168 -0.02634761475347699 -0.01316063949293107 
-0.1659191386308766 0.02160889351370442 -0.002628745996073701 
0.00411071640421705 -0.05592932035006368 0.07052625194574573 
0.00675133469748903 -0.03388482547413572 -0.07081572103017494 
0.05872939384757452 -0.05246282465744765 -0.07878566039068184 
0.03452051838101237 0.005664075615246573 0.02325745222426576 
-0.1375701926537426 -0.0259888365282161 0.0730960920695732 
-0.104558281988406 -0.06256374661679474 0.1363032207376845 
-0.03667849004319226 -0.05701687330155903 0.09992571147959861 
0.0119859292044515 -0.04164087060801525 -0.02639956135467567 
-0.1696940905320448 0.08252013394421449 0.03175282359842079 
0.04606899560052042 -0.1337758486991832 0.1395700410935708 
0.1564356415511175 -0.1009367269616536 -0.106253577236546 
0.1788505155349892 -0.04298966443470037 -0.07047117663886389 
-0.03619643208124808 0.02815353425104431 0.05631753204012636 
-0.0441469056656839 0.07489199286700705 -0.04084951913888777 
0.07142912272471368 0.0400560703909344 -0.01119410616507067 
-0.008461116217197844 0.03454582903881676 0.08393953552482261 
-0.06693523643608194 0.08054172403219848 0.01467568421084729 
-0.09795635621407051 0.1358057624757093 -0.04106885577092276 
-0.0392482001407321 0.02401269564975065 0.01270156276523064 
0.08931854315157692 -0.04928010563041976 -0.1690450199969995 
0.001435170986310706 0.02607993183415989 -0.104768596728413 
-0.05504703061689564 0.06531715275637073 0.05919751703245818 
-0.2055881083490512 0.04651268932458321 0.03649257043368424 
0.04514066121164423 -0.05282586846283631 0.03653491063825826 
0.03219396813780128 -0.04607508995086936 0.07657518150452156 
-0.06780857768060966 0.006136305861632997 0.0183483767179385 
-0.1617797837364598 0.1598427325846745 -0.0096730135744332 
0.0426473091193965 -0.002603346169781598 -0.1395249282318223 
0.04707710401863787 -0.02896624096229787 -0.1293553219490037 
0.006304080693244115 0.02278436475487316 0.02022334151831996 
-0.10007241333285 0.08473907476630063 0.07652807405062212 
-0.0595040925220464 0.04240155516791531 -0.001975522165323855 
-0.07886316174035715 0.1110729819433746 0.002184339052612964 
0.09627921267331097 -0.01412557145634455 -0.08614387848906946 
0.1109039402535962 -0.03780437670026972 -0.08166509189848636 
-0.009029922873773764 0.0193494691640881 -0.1304339432188097 
0.001474190725357161 -0.02972872227556936 0.004054800539980727 
0.01180612150555885 -0.01459290159281887 0.03156834999944242 
-0.0196293427130149 -0.05010311466007274 0.09778530375777171 
-0.05067516364992115 0.0413365320356394 -0.04373227002177037 
-0.05483860381004819 0.06292961003999574 -0.06151253171119404 
-0.006633130104040557 0.09560856367815492 -0.05047836142106938 
0.2054660714360675 -0.05705555846814293 -0.08419213227529247 
0.1904338444775677 -0.1166651754131766 -0.08531414416739748 
-0.05615953157839627 0.07729121134295371 0.08215785449479651 
-0.03291466230358067 0.03840470007437471 0.03291215582301628 
-0.05278523639950168 -0.07440762924047788 0.1309910337278838 
-0.01533266981655528 -0.05758229109417536 0.1934691395163951 
-0.1087432827919412 0.002121931694805956 0.1447687157962625 
-0.09827660425463082 0.08484088325248478 -0.03927504818172893 
-0.1844150856391607 0.1316175058914451 -0.06246031217527153 
0.0322070689702621 -0.0006625868540272713 -0.2090902731065701 
-0.03922664524062459 -0.02400878153982976 -0.01592465667888892 
0.0641331976803088 -0.03175018733292732 -0.0435840560689813 
-0.03049852487019553 -0.04729443539480365 0.1226548123857762 
0.05422681942784449 -0.05225099752358397 0.07435793229044138 
-0.02294374733904177 -0.04390111094768772 0.122461624636493 
-0.01913352724454305 0.03732173175285027 -0.0631076125079848 
-0.1648523278722583 0.09206033320023277 -0.01463684274723967 
-0.114319296331646 0.1273975950202624 -0.0545186150483829 
0.1184447047829324 -0.03087879314189133 -0.1219480994893635 
-0.01786033613769947 0.005408255146189527 0.02630167122106647 
0.01000716376878406 -0.009505423015529181 0.04619322495580908 
-0.09927572285847625 0.03130784804751936 0.1923172037893391 
-0.09868909806312305 -0.02487199741673518 0.1351196877134575 
-0.05452968651157315 -0.006572650840643237 0.1253128815262054 
-0.105001401353896 -0.008816388525118464 0.08774195859192534 
-0.1096007321285378 0.01910336054000431 0.0657459754420258 
-0.05483599961568635 0.1031390885371659 -0.1189342268509323 
0.1023188973193233 -0.02669313281028407 -0.08771325304270947 
0.1695300055584847 -0.02091882195819701 -0.167236371791626 
-0.08883003354531009 0.1719507714159025 -0.01015265502358703 
-0.1059750367593402 0.03992549883925182 -0.020390177506536 
-0.06396625455120582 -0.02711112740542026 0.09486572154398872 
-0.07518272678024272 -0.03863378785506107 0.1682258318560727 
-0.03010206476922187 -0.03337284551609301 0.1178481180825907 
-0.009500373517477796 0.07698669690262609 -0.03204655597407252 
0.02533552451469707 0.06016721020198741 -0.1164782200888222 
0.1382321153203717 0.006285274461870943 -0.1037320465158784 
0.1416184537351735 0.00927501265289276 -0.07294477648190266 
-0.1497981940540601 0.1248188380624818 -0.01569424713904053 
-0.007228107273730548 -0.0735466799910318 -0.03354293778841471 
0.02652778998514167 -0.02443757521061841 -0.01055199719216029 
-0.04484210216551918 -0.02145165038760854 0.1222489921176984 
-0.07065375598655149 -0.06849909913886346 0.1693413629012478 
-0.2293406112385101 0.02237369536464041 0.05301633788561823 
-0.1374220360355078 0.1088235970351999 -0.07050584408786427 
0.03112075047619053 -0.02972541368632349 -0.001871935846620033 
0.1196834702570756 -0.05461253861126129 0.04405890610022814 
0.009383009461603075 0.05872824823630813 -0.02849513568546645 
-0.1192867796269506 -0.006054808854954073 0.06159808620774417 
-0.1364270908197307 -0.01649683842490625 0.109751117727746 
-0.04095504054018843 -0.04232328323614334 0.1457471310954814 
-0.04649178836976605 -0.1081273659631345 0.1851454093160327 
-0.1637029729325856 0.06621664415390394 0.06845857848740017 
-0.1061793560843075 0.1113650903071774 -0.07530314526665644 
0.137204339301323 -0.03203910434261487 -0.1223725954981078 
0.1108672681847884 0.007378480121289463 0.004254595817354997 
0.004414225613069761 0.005119439786419263 -0.02814244748069191 
0.03296323552867863 -0.05186169228934971 -0.04300085434719824 
0.02930238686133809 -0.005333577401161777 0.00608499534578056 
0.07368612479706312 -0.06232042592581896 0.09025525240571372 
0.02804797343912128 -0.1729050375979392 0.1854692682769207 
0.004318306213588815 0.04687465762475601 0.06568000284153971 
-0.02517000420136756 0.08011981387801391 -0.06777814954275524 
0.007159239333227687 -0.0270473587244096 0.07529936445275215 
-0.1391251539638441 0.08344321938029392 0.1099418638396468 
-0.2699087607002192 0.03687380732119899 0.05612573383195151 
-0.06307807350841985 -0.1219612501619583 0.1270575804846187 
0.1042291156885205 -0.08400131183433948 0.01469241169541402 
-0.05398323375004334 0.0658323180007183 -0.02062213689908165 
-0.141463585349559 -0.02232462669670804 0.1967969994498384 
0.01797884748518253 0.08093058143892228 -0.043363769972766 
-0.04982932418016715 0.1215029173984967 -0.1933599510028916 
-0.07026620445420155 -0.004458782979231835 0.02966275583556324 
-0.0451236946814379 0.00582811605931856 0.1310092399517106 
-0.02252494866872393 -0.07171225222508633 -0.03265491722153725 
-0.03092302050479133 -0.0954645366200706 0.1067437636469742 
0.02801807393341085 -0.05234428567664523 0.05677697543100044 
0.02948001750316228 0.07999266974973725 -0.06486351558152349 
-0.09165132020528369 0.01231086728367004 0.1081788819706505 
-0.1718585232370718 0.04129053727792629 0.1386575235532723 
-0.1335587438103184 0.1599023984760181 -0.159067812559066 
0.04650790391331509 0.02113267651369952 0.006739443796082897 
-0.01132236346473045 -0.0548223931927898 0.1223828617347774 
-0.1288310444463462 -0.05277175669878826 0.2180827650559414 
0.02892915764204048 -0.135616834494087 0.1737653399682446 
0.1060749823693274 -0.1372803435868896 0.1608249895566354 
0.08765858984414353 -0.07220904857795388 0.1923555115570006 
0.02935077681113435 -0.152448467261134 0.2403776783571162 
-0.09110222227132588 0.05887215505840775 0.08429165401304516 
0.00606471827654319 0.06144958230299206 -0.1026641689338545 
0.01724224815988771 -0.01758068029799691 0.01431446601947744 
0.0438653121889608 -0.07837378044863734 0.04956247934233985 
-0.04245746680311686 -0.08693871258623984 0.113784703744109 
0.05246895071118382 -0.1851122547016443 0.1542547452460297 
0.0166888791002704 -0.138983471433721 0.2433626230673596 
0.06198104207991648 -0.02103644209314722 0.06582680700888685 
0.0004672171654469593 -0.0517437505799092 0.1396564812954899 
0.053241706490108 -0.05176598707973074 0.0677064197635761 
-0.09964470641079559 0.126782055091293 -0.1072476767507159 
-0.1180453646677181 0.007426046300019458 0.07436363391704849 
-0.0315399053838878 -0.04905869157151707 0.08840546051084167 
0.01007364494673633 -0.1209337396987025 0.06809194648158969 
-0.03312204050675353 -0.09150921407476913 0.1101245873023183 
-0.0254945026889044 -0.02793539618404537 0.1369224781906158 
-0.06195095573652638 0.1274558580004455 -0.05828677915867324 
-0.0471039466297123 -0.06070220343743648 0.1949235803162494 
0.03930749278669067 -0.05348908570849525 0.07593600530086503 
-0.03647123133735928 0.1192211157752527 -0.1002657587449272 
-0.1107138294857684 0.08330843762408735 0.05007343267145818 
-0.05184337572045165 0.007871637070472485 0.03806872929523215 
-0.1276381127271779 -0.07399546763043183 0.1916465923165338 
-0.1054841976362768 -0.04718658359072429 0.1827395073279162 
-0.09492962425381621 0.03886655911792237 -0.007606073829414172 
-0.06632123148240129 0.07087714429497598 0.06857839510492667 
0.1101476803253835 -0.05862472905263341 0.0625311855048475 
0.03060724139907839 -0.02091768870953005 0.1702906160022268 
-0.09936262796252728 0.1055969195769994 -0.05806559599219598 
-0.09226029781176444 0.01123137136380909 0.09195032265293203 
0.0480393308315284 -0.04305992064876239 0.06970324520928496 
-0.0243927951235047 -0.04199631296732375 0.1285816372857582 
-0.03085816168168533 -0.1136161231624407 0.09053583647373034 
-0.02799770048487147 -0.0834983628446422 0.2235101687665629 
-0.01413930275485452 0.03658563666683885 0.07730804837700889 
0.02417364462513314 -0.06348841461752701 0.226506226037739 
-0.07275796623452425 0.005946747772467893 0.1885743149043123 
-0.06499230020403823 0.03257795165161765 0.05441542913480045 
-0.1354283790960268 0.04500633898775967 0.1321601874356236 
-0.03323576735269711 -0.02544452104758713 0.0171741680354093 
-0.08444460491341312 -0.08710296823410572 0.2448467431493537 
-0.011897603522739 -0.1553802095327115 0.1867434171106105 
-0.1121260232876734 -0.06406829101313337 0.08255866618413162 
-0.04152429149848699 0.03272357687170756 0.04567097739491242 
-0.08987256321928243 0.000426225953108183 0.07004864226167071 
0.03669770161020841 -0.06165661740432916 0.126828253172512 
-0.02048217698637877 0.160962207832758 -0.1244805893063334 
-0.01096079781649109 0.03239029794228038 0.09470606657322057 
-0.02960819111533704 -0.03279442330415051 0.09245387634787562 
-0.05576838830402406 -0.07177255622241081 0.05153662703192934 
-0.05704614990408004 -0.02675290820297156 0.1564272482705956 
-0.1563828380855971 0.09913077039542807 -0.1052815975015164 
-0.08848572280475861 0.1164928145394785 -0.06919006361147788 
0.1762272405181305 -0.1097010616610307 0.02810088436935035 
0.04996876896426804 -0.03295697983758614 0.09444248494758664 
0.09780052679442068 -0.01462925683853241 -0.002234310325814322 
0.05313675253285734 -0.04163832677636736 0.05375357021258965 
-0.0780281218308391 -0.132303268640758 0.2373462645107513 
-0.08889136159665695 -0.05023125175277732 0.2106911355006142 
-0.1287719240474954 -0.03963296181377586 0.1340022049535957 
-0.2365093210773898 0.0839094424710183 0.1077466244861672 
-0.1396555367044291 0.05984284654205928 -0.01894869950040735 
0.05262715288792701 -0.17392327319405 0.1628069358556194 
-0.002486502313445035 -0.02481907774487191 0.1026235188211565 
-0.03347657026159829 -0.01594742280856054 0.09914305230017242 
0.002358717501640761 -0.05462637693133544 0.09026239495494073 
-0.0169531967577163 -0.1006294408697604 0.1120501742423763 
0.07301875035434099 -0.1726182243245403 0.03747480165032829 
0.09873876826489365 -0.2175609418371073 0.1558045289757681 
-0.1278408326304105 0.02119797082355826 0.05439490128535438 
-0.01656489990367339 0.1340659687981408 -0.02430855639787568 
0.01487292114271053 -0.0274677952940055 0.1067014319229643 
0.08834790933947249 -0.02806707054770392 0.04281303242912485 
0.08390620068248615 -0.09712302378744536 0.04218938044038176 
0.04461407181478955 -0.1471562877936045 0.1175473328216699 
0.04481509937542811 -0.1803765951576697 0.09792053830078691 
0.01600726778908488 -0.110609664428893 0.1506348561888617 
-0.07947458774213422 -0.0829454035888763 0.1618426618299778 
-0.1971217912358912 0.1312803052521939 -0.02779504721232195 
-0.1130423408402339 0.1660466485472062 -0.1102611368445029 
-0.007198787576352902 -0.0662956414254864 0.1810569702797 
-0.01592373314506638 -0.03883144676159647 0.09571391129621046 
0.08170545615520861 0.02894078829328056 -0.1317029794746458 
0.05952089241542605 -0.01824351318302967 -0.007824381808856416 
0.006454244128988892 -0.04653214602513102 0.001845846601012424 
-0.1626572325511144 0.03306107304632005 0.04508620337647145 
0.03758791307921824 -0.04624777686876493 -0.05597243346938603 
-0.1206493152305611 0.04323077452269676 -0.01740391947764077 
0.02432582703792168 -0.1056736897618632 -0.004349523589416705 
0.0525106144215606 -0.1701212412281107 0.004557442371998496 
-0.04949970769189319 -0.04260148192854837 0.124483204703622 
0.04715771392005169 -0.04609482493537788 0.03313509137018723 
-0.03182782733709878 -0.08853930151131953 0.06087810481565364 
-0.103460837245109 -0.01844894099597305 0.03588104996789103 
-0.1925969129828294 0.08356220718392331 0.1711427456424556 
0.0268922585299659 0.03287780003417738 0.02056096243193097 
-0.05840998423719533 0.0298897580866257 -0.01610045242710078 
-0.02307004741193956 -0.08689375028617129 0.09725239398522936 
0.01077824099210683 -0.07863384380913766 0.08011393537463052 
0.1084006683742715 -0.05757168810892118 0.02176026734372616 
0.09871877305112232 -0.1037815204128482 -0.02582788010363772 
0.0287188429946739 -0.08102133986755962 -0.007887392883436293 
0.06395117615612792 -0.02643679939308744 -0.1477245438375151 
-0.03974581184760708 -0.04180971086384226 0.1477979598793251 
0.03266463145340771 -0.1064771510256071 0.03456993843174283 
-0.03055029606563185 0.05631035647883766 -0.0505995134611815 
0.02274427953568261 0.05137628763367667 -0.07535574482066045 
0.1162139761280237 -0.09178122513156539 0.01067917804747919 
-0.01133038554525739 -0.1613257985674435 0.2753740348387058 
0.01765637087073544 -0.1137384466546116 0.1939296359455999 
0.01515579136226455 -0.1147953517777647 0.07660447778187396 
-0.01876979701721206 -0.01526103817119699 0.07196750215433799 
-0.02024247091640958 -0.02449478180049163 0.1825635486390256 
0.05552485868320117 -0.05944252471020796 -0.002967560159571255 
-0.03176636410594409 0.01984038491299549 0.03767450204601767 
-0.05197110419946553 0.06855741706993059 0.0459961253053052 
0.03403719547142603 -0.05246453334626619 0.08759132647405497 
-0.02770369630414319 -0.05997633773640498 0.0168670736221365 
0.08165168952004273 0.005311576096266183 -0.07790846855186211 
0.10899360630852 -0.1037786797015749 0.02089031829740976 
-0.01905623489278369 0.03607047345327979 -0.07787639391748993 
0.005139636496851965 0.1142511903168092 -0.2358146710755469 
0.02018247036472 -0.01525799609085478 0.03483479111970108 
-0.0353249186634629 0.0429716334468604 -0.1357909880939026 
0.02692694090656134 -0.007957705582590456 -0.01438415023476639 
0.03000943482696744 -0.08866004191089476 0.04506706689111178 
-0.01560462771355757 -0.06863463798791156 0.0261377454287078 
0.05913070093386932 -0.03340582357544184 -0.03507589099495444 
0.02181673542985364 -0.04715305605371276 0.07160201188440489 
-0.03539639396105719 0.02522726939782177 -0.05078577845010908 
-0.04106208567525088 0.1554960058619132 -0.1683724829750754 
0.04058280226501432 -0.02993600133653344 -0.06905131450350263 
0.08619389560405523 -0.06536223741344022 -0.09871407314155899 
-0.0515615279829774 -0.004697699262129275 0.07376183250414803 
-0.00310192038036202 -0.07365090639368428 0.110165664544654 
-0.08258921434485572 -0.0986184991796641 0.1597168621233124 
0.02698375205050087 -0.0640203932798195 0.06129727089114187 
0.09946134942439555 -0.1612129683113324 0.08181279768426776 
0.09004721362579463 -0.06829527151151119 0.01271588142185559 
-0.02306259368136495 0.01906109567824149 0.01073310305563492 
0.08074773780104212 -0.06874605146820303 0.1248462478537754 
0.005264432619894197 0.03567253428447456 -0.06831765980947595 
-0.0001058617541875655 0.1003458180276834 -0.001915623432067145 
0.0147011228186186 -0.03555869331151847 0.001113801145756484 
0.005301368672115212 0.009851053871298348 -0.02622214525112999 
-0.07917331305687181 0.07133359367944257 0.05687921847848504 
0.009664867717175405 -0.03518982395332036 0.1716650345696375 
0.02948679754544878 0.03271510346289289 -0.07170895287319895 
-0.0100136072040309 -0.01634340463096518 0.03769684414785544 
0.03094938415918598 -0.1229381067834859 0.03180193469228428 
0.07882701683502617 -0.001554806108110022 -0.1084400648278217 
-0.0241088275873083 -0.005001752104755188 -0.05901994640716627 
-0.01979632855844931 0.03064445148191042 -0.03646009753905945 
-0.04267867327962373 0.07497591177326658 -0.05959314206150312 
-0.077997450871769 0.09087820518982109 -0.05243543975237566 
-0.07794083939691139 0.0430061522673262 -0.09643289491209234 
-0.1057165615445221 0.01202812827863041 -0.114599755672458 
-0.04146234751173694 0.03720058704918949 -0.08002537234474381 
-0.04488817750747734 -0.09364676620347631 0.1269650268700832 
-0.04247241019229715 0.006672606975959919 0.03244995389374294 
0.01536414426538432 0.0562000268423403 -0.09788432171522422 
0.01017006612113825 0.09168530857349273 -0.196414454600915 
-0.1700370871577611 -0.006519405639609752 0.1568993530698954 
-0.1477170065897146 0.1066491534379719 0.02410336193759113 
-0.03057107053857883 0.02652347659528679 0.026541946338531 
-0.007161909288011193 -0.008491692177340568 -0.08408669202549972 
0.05217892584160835 0.01888780360515007 -0.08981041332233943 
1.393050428126575e-006 -0.08251287357998603 0.1687513701889024 
-0.01967480883297708 -0.02099223761163467 -0.04472196627036727 
-0.02628342613067149 0.04051918976355616 0.006164591876832524 
-0.1161510408171467 -0.02620412803205635 0.1451352709387165 
0.06148260643739269 0.0144583937464588 -0.04176226110274404 
-0.02804999823872061 0.04645418930223455 -0.07717898898268651 
0.04204964758838714 -0.004238185581538066 -0.08495426229029156 
-0.07573272582811037 0.01009573380506862 -0.04136589047898458 
0.004932327250073498 -0.03396445555543853 0.007677306193376318 
0.04053818694663642 -0.01174227735389696 -0.1233648658259373 
-0.09599891286570333 0.06702895037240164 -0.01276636226149467 
-0.04886277496200243 0.1269141831573821 -0.1321667776279364 
0.07182268979296469 0.004976258873895138 -0.1590150026923533 
-0.08772523181475718 0.005674615416813957 0.185957083564384 
-0.09729269887553693 0.107620826147728 0.01597331368762366 
0.07630631984180764 0.0486014275205241 -0.07985095782512824 
-0.0871420308366482 0.02380921562381269 0.06544798963810605 
-0.08883274469396836 0.006038549682632581 0.02444549285077348 
0.09044733347237985 -0.04427492427761862 -0.04891480978487443 
-0.02523993148987585 -0.05430301083770163 0.05468164904092505 
-0.04578574077844945 0.05467307117777585 0.01907815678030786 
-0.07747646386433124 -0.06011831124967034 0.1813629520442223 
-0.180986084467803 -0.02490762347575175 0.1649184813057051 
-0.1693070114194921 0.1217640797139728 0.07711226294426318 
-0.04826071581823802 0.009404110154080736 0.1099896090111483 
-0.00614381728121938 0.01276824840230421 -0.04064363520783183 
-0.01861419143732057 0.08994538473157696 -0.2300566644734262 
-0.05615817484333101 -0.03153759887822843 0.1493731843130502 
-0.08511086804198295 -0.006408888524064029 -0.01522810707473124 
-0.0244314536274299 0.05311386576450831 0.001694590358174208 
-0.03903071250838174 -0.08194350158911054 0.1550652900146984 
-0.162112769771884 -0.03336469212895932 0.1753595648251583 
-0.1642404696740169 0.2459838668371984 -0.07621970548010242 
-0.009053060413252684 0.04445001376062823 -0.08778652937708424 
-0.001249230548142891 0.01046430915626563 0.07424266980585714 
-0.05507411986628601 0.04029422140632128 -0.07180948351852416 
0.02708583745280271 -0.07640231917901891 0.1002556118205624 
0.0407353081321113 -0.01771142061361031 -0.05172842659835653 
-0.0002342462559087656 0.009486594643554095 0.07325376758283216 
-0.05384675739666912 -0.1174415550227311 0.2452440599308395 
-0.03231063512835258 -0.07067899687594476 0.1612613528690544 
-0.0515401751404135 0.107040286233541 0.038307944277886 
0.1032289966017396 -0.07096477723518202 -0.02922343018405862 
-0.1412297397026265 0.03601834219651849 -0.003703507561482385 
-0.1709533991772743 0.1762603319214868 -0.1337207331835805 
0.05520074080719342 -0.04328472652238409 0.01961381993178311 
-0.08749762029760697 -0.008325263740000746 0.06482199045556528 
-0.1113098533158407 0.1182809047569311 0.0111783494389086 
-0.09932951510823559 -0.00721444535081898 0.1418174947054543 
-0.03981221529595403 -0.08237260719534906 0.2346496578303786 
0.08523127806404406 0.05341475004311372 -0.1521573654512409 
0.1083029296104414 -0.03844824091715143 -0.1025904878121595 
-0.0426385605752281 -0.04024538173176198 0.04725347323689033 
-0.1455779135919265 0.07102752577931226 -0.07208311505646867 
0.01892760621905571 -0.03218760310086085 0.1351540175124188 
-0.09562673325522239 0.03112220289320303 0.04135345951290347 
-0.09050308599101145 0.1186129757627825 0.02588496325293772 
-0.1169718908832968 -0.01875419945073994 0.1174063382268355 
-0.1662892598017742 -0.05182277083800572 0.2113162956512095 
-0.1717560890120559 0.1724390669901575 -0.09258843154765979 
-0.02412804033550911 -0.003099983380857875 -0.00254124935841463 
0.01489818950148466 -0.06101778114643546 0.1237573280932629 
-0.1391405942821651 0.02974455217132735 0.1093728320577384 
-0.04949839917930798 -0.09499620813991402 0.0877072320101157 
0.02863582125357199 -0.03128011656848918 -0.07069781057074907 
0.07954444023632354 0.02785325372665165 -0.04202777397852363 
0.06365671400229232 -0.1069035566966103 0.05874209309846409 
-0.05939357706117487 0.008123670718337677 0.0006240000113066442 
-0.06984174864777183 0.08070625405769395 0.01490491290827955 
-0.01591092143543147 -0.03037584083298346 0.05106767618443708 
-0.01178752071543157 -0.01384596282606202 0.05214584306846776 
-0.009739531035410597 -0.01647423236782028 0.04752919279271264 
0.01451937387541944 -0.1171960454761967 0.05133452053602611 
0.002254122811991005 -0.06061994329383537 -0.01208022736930619 
0.08330264113180032 0.02677453918636693 -0.03248255373513874 
-0.003140247553871393 -0.01491004049228391 -0.01767959288107269 
-0.03783630194283628 -0.1266683671705411 0.2223796999970545 
0.08199642860378555 0.03885148141381498 0.007053084880263206 
0.05495297899913392 -0.07863715586740099 -0.03277960983149796 
-0.07553005998810856 -0.0986685306945763 0.1533615521559228 
-0.1570030133242547 0.08887934971062836 0.0954664992284788 
-0.08689959697037424 0.02441834677168913 0.1206824460747725 
-0.1349578470388999 0.09335494778436911 0.006493131746706992 
-0.1946487115334407 0.1412206396656861 0.03952270941398096 
-0.07076594896447919 -0.01503332406036423 0.08129891119784193 
-0.09583729197806741 -0.03171884089798362 0.04905900868257611 
-0.03518920461880594 -0.004465285920709796 0.04228763403637331 
0.05446184265771296 -0.1137844684453586 -0.001453547451437282 
-0.01414820428866733 -0.0587041718451534 -0.05401727016351085 
-0.07102479479224391 0.05725168744987789 -0.0150627313934735 
0.006038938312767447 -0.1026076779514787 0.09660598717577085 
-0.09981223027890764 0.09319103632884127 -0.06000940279316273 
0.01418508339757529 0.04360343296745607 -0.005953738178080907 
-0.08593754862719361 0.05378704354185327 -0.03509453563683199 
-0.05739080065508945 0.02446320854337932 -0.002083033251400973 
-0.09316741994778272 0.008993503915376878 0.07024865460266207 
-0.06169665124062135 -0.0894092471755082 0.1098410545938533 
-0.07949692954253648 0.05702896595040684 0.0547545664266703 
-0.02849401861402454 0.02946186070547379 -0.04117773942319288 
0.05883149270577142 -0.06056794528386646 -0.03705133510687983 
0.1387134861569059 -0.03428141787491871 0.003768088577971064 
0.0049045108358442 0.09467024453205603 -0.03675080508591744 
0.07294674351381283 -0.04252615904038313 -0.06046032104553417 
-0.09887162528869509 0.01546685513826989 0.04653946612338274 
-0.130037053180625 0.02398157240319692 0.1059943736973118 
-0.03657048635937284 0.03834274843993609 0.06115297618152112 
-0.1300321080708934 0.02335107137106185 0.1500501206037993 
-0.07229318740066464 0.01979250822579083 0.04625728415050052 
-0.03937615234662301 -0.0462192017755433 0.04621390760598555 
0.005538751487508777 0.01071800613443751 -0.205322581444225 
0.02664635576021387 0.1047793360977653 -0.1350876699628014 
-0.03265391669485412 0.007197332722368224 -0.2309935726429368 
-0.1814904311102907 0.05511635519860948 0.02835333116471521 
-0.1811617639103922 -0.003069620310250166 0.2352892288834022 
-0.1129286569465055 -0.09125504836937938 0.1200029596042463 
-0.118857159723211 0.003898101182278758 0.02691448435431456 
-0.1732277629323099 0.04026861023798821 0.04700620848815394 
-0.002171802543031337 -0.1030916798508329 0.04456715969566806 
0.03980067700646906 0.03994522384829872 -0.03291665575367919 
0.05431036842014553 -0.002509375253485384 0.07427320115580578 
-0.0627424708110597 0.04700555096953359 -0.06241663434108965 
-0.2098375606581734 0.0381683505152038 0.07433736011505475 
-0.1202159563354451 0.02150174539928254 -0.004148180460600743 
-0.1337342764033599 0.07749742801103156 0.04391416839728711 
-0.1673362051095773 -0.006265481969500655 0.08000068453572037 
-0.1967493527536618 0.08566268837007546 -0.02606437600560487 
-0.1061072617760522 0.02143493139386215 0.04864936840238958 
-0.04839808490778776 0.04466096985445523 0.01978145658266661 
0.06332770620262124 -0.07329267460373898 0.04510865208355785 
-0.07441251450258221 -0.03249923212426316 -0.0392897910579947 
-0.06533830370130431 0.02772560752105015 -0.002342076659293032 
0.01037260087102929 0.009937924563027445 0.009516996708022999 
0.08946080847231386 -0.0468881970650146 0.001602207147603004 
0.04854998796369075 -0.01079015712614966 -0.01977011714591711 
0.08385444580012642 -0.08038841733800096 -0.1110134724513747 
-0.0344373576693401 -0.07697681438966636 0.1010005550713065 
0.03222117359235438 -0.04565696543395267 0.04035767138447546 
-0.07922333761175192 0.14245150462222 -0.0441872558200193 
-0.0218194154070668 -0.008283844803491059 -0.04438260729402623 
-0.05688520729835684 0.09779311068156515 0.05184616588939901 
0.03990938280640412 0.0101606115164839 -0.08655797638646352 
0.004275184572520797 -0.09134373548402576 0.001876878928407128 
0.06282767402784481 -0.1168366499951162 -0.003861656966382616 
0.0322683923384687 -0.1162344395699327 0.07271352937246378 
-0.114164140355949 0.02640965431944599 0.09994065172576656 
-0.01763922606059785 0.08687740881285481 -0.1014258956378021 
-0.1813644885890986 0.2058450911726603 -0.09515072204999497 
-0.1038715044402866 0.0434318124572942 0.06643761364502102 
-0.06846300067231531 -0.04050516204455474 0.02932472772314509 
0.03224189361881746 -0.07315244734069286 0.01030300376278604 
0.02696517676169098 0.01662900940629881 0.009455880705379919 
-0.02873443921845189 -0.02546930082744395 -0.01566856984133704 
0.006509270507582318 0.005291656417723686 -0.06776892877182694 
-0.02001715438561228 -0.06009780126023138 0.1498834519020871 
0.02387919423749861 -0.09319447917163856 0.185777140297637 
-0.0066177154902861 -0.0456696001109306 0.03528832961856752 
-0.01917710829857057 -0.09192823651172125 0.08350202214195204 
-0.0635829101123158 0.03038162081071807 -0.06127017401749387 
-0.09303655268452514 0.06031005840721004 -0.0652097590125412 
-0.02127792292359139 -0.02119746082428825 0.007693568283753023 
-0.1063185200545536 0.002708222072520404 0.158129088730026 
-0.0419760987699665 -0.06636151217426732 0.09320932656390263 
-0.153300963231058 -0.02036728721022516 0.1381903591057437 
0.0001865562865691001 0.01431877789546169 -0.04161811467564761 
-0.1357862640924133 0.06270656474590283 -0.0664265707800992 
-0.07660066016781887 -0.07072103231074224 0.1451034224904629 
0.02852103512839324 -0.07040340838357667 0.06851025119692446 
0.05682741360994054 -0.05466203742062523 -0.08962676464375552 
0.04649810637436522 -0.09380877266429893 -0.1040788118521124 
0.0014564663634848 -0.04157841935322183 -0.1217990766021499 
0.04980665743073168 -0.06712062247270474 0.009727755770012945 
-0.007754790549307515 -0.06696199866118352 0.06181887283860163 
0.02797714790934186 0.04306338447107755 -0.1798033873438761 
-0.1315822285335675 0.2331240748818744 -0.237473761431776 
0.05216884773171119 -0.03234632557213486 -0.001382915778013067 
-0.008146959699821163 -0.1682956920976689 0.2355782325260778 
0.007793629771194197 -0.09851943508174953 0.08829021751010505 
0.01904009384201297 -0.1533160129555163 0.01679224807842012 
-0.07383276539080522 0.03677969402531466 0.03024527973214301 
-0.03656505057523881 0.004577820520549946 0.1629764709315071 
0.01761453358636813 -0.04215992441662139 0.05619770023035763 
-0.1283084898036197 0.1254810544314373 -0.09377854153984233 
-0.1881160171965323 0.2444523065907899 -0.1514900290027106 
-0.05274592083381076 -0.04890320203614895 0.06102387117690819 
-0.05277505872658178 -0.008614648633037654 0.07762468054402132 
-0.1682895832384035 0.1440523086851254 -0.05233678612057537 
-0.04570300174871736 0.004489067855870992 -0.06040556540166426 
-0.09059088876686067 0.01504436420939794 0.1026075664957185 
-0.1209793478348457 -0.03140101986065134 0.06587252601099423 
-0.02226719181910582 -0.03911599904079496 -0.03955986372567449 
-0.007109789349406629 0.04720811561883061 -0.09492543373298068 
-0.07179122161792341 0.05358063411158458 -0.03924402451503437 
-0.0005828817674478641 -0.1010548273881073 0.129885627848073 
-0.01704821584763213 -0.08727517212209784 0.2118926078037861 
-0.1187908135236639 0.09465360391295243 0.04988255484013191 
0.006352852715494353 -0.1013360560003344 0.08162444832766343 
-0.1070580236463758 0.02338059333324539 0.07435117847763327 
-0.05518023718057869 0.04971602608282377 0.06468961420971613 
-0.1563778462759322 -0.005152316166524737 0.1392179818048738 
-0.1001016737872523 0.1482251179186206 -0.1007685495431586 
-0.1515133657830783 0.1241262144402438 0.02932603855988391 
-0.09250316727714214 -4.368609783778398e-005 0.2018189219119262 
-0.09439456248328529 -0.05087631554273954 0.0790474962093773 
0.05930176093424579 -0.05231697875905977 -0.002566095754442545 
0.0082512166534786 -0.1373747004695951 0.03068256177336424 
0.0422486544281653 -0.01300175804172512 -0.05315962013140789 
-0.03710661219988908 0.07189866975169369 -0.03820258124804078 
0.1017052742093949 -0.04727602656431584 0.03693323869413152 
-0.001162777647317811 0.06022072023745169 -0.1118061867843852 
-0.01109223980676674 0.06005019183015874 -0.1060586295387959 
-0.09720452207721096 0.01867998792567569 -0.02797555890717574 
-0.07195505062832487 0.1090105714413428 -0.09816528952982256 
-0.03022358408000848 0.03970527190089657 0.03857883627749858 
0.02131548189710342 -0.08617739113890258 0.1042146609548066 
0.001977672843414146 -0.03296543607739162 0.03924129401672778 
-0.06644848658503451 0.02553993505899669 -0.04066910456189551 
-0.008894892774991513 -0.03760602600015419 -0.08107972115212915 
0.03610902678160426 0.06695831682723098 -0.1844157580595532 
-0.04584995629186598 0.06260775375205024 -0.1230011699363334 
-0.02027497659436122 0.1251437496497609 -0.1587335917946801 
-0.009114074156016375 -0.05019647965736115 0.08839250812418856 
0.01206795068135873 0.1211708178766532 -0.0921417242988979 
0.02319688976312891 -0.1613207411368567 0.1092779873386609 
0.0607713690491308 -0.06613443578048579 -0.07111417279009343 
0.07601944864971666 0.05778878523597818 -0.1972583433495918 
-0.07723455222495318 0.05045924670319764 -0.01850345191113216 
-0.05214452420960576 0.04325168663663738 0.02637134490097319 
-0.0477078273286916 -0.01087544804388461 -0.01410933057482189 
-0.03663998330067833 0.02148342081122891 0.07865715943516141 
0.02950142974465502 -0.02052994527833369 -0.08206712106228653 
-0.05413201829241522 0.1206007157943168 -0.1118145186989129 
-0.09675926957848963 -0.04368706785100562 0.1702974853273393 
0.02483516422968234 -0.06118346205110851 -0.03218939780011976 
-0.06462318412466274 0.03492330921656331 -0.1086420995218944 
-0.06833380420255759 0.1064472427515279 -0.1483253047455374 
-0.05283998142164137 0.04375035560931761 0.05061807422515231 
-0.05194413138205593 0.01911388316242095 0.0491942434836527 
0.0178135818199235 -0.02814085925308479 0.0178605739220779 
0.002550532226068633 -0.03468037021101564 0.04728913683843251 
-0.04018422405243002 -0.01255168369853926 0.07128804265734123 
-0.002357413740430366 -0.06685134671844722 0.1074735343211908 
-0.02703089654656547 -0.002131482493134558 0.03058878551833304 
0.1307933340294089 -0.03874525893035019 -0.1863051002131266 
0.0713942952683131 0.009927785471166342 -0.09905511091433555 
-0.1335771168953297 0.09514665846436642 0.03989965787917289 
-0.06591961411571291 0.1006392373879439 -0.1142320331305843 
0.02193073558648087 -0.01709598572137958 -0.1233518739400017 
-0.1191742371758311 -0.04114394234951959 0.1363712881791667 
-0.06566274289114005 0.007211638167033464 0.07868622902924416 
0.03459413224989842 -0.04290875048084054 0.03421182959421985 
0.01744666339054063 -0.07653799340261072 0.08837927853582478 
-0.0343906791289697 0.04721271428937889 -0.1129735941906772 
0.09646521678683763 -0.03840025261556474 -0.01709808737685505 
0.04474558099390805 0.04837066121238785 -0.1679226785722774 
-0.001738534881762993 0.06316025270623439 -0.1679504150160621 
0.0398995963472705 -0.02274261840976731 -0.08248470371363408 
0.0757660136225194 -0.02119499385537996 -0.0758651681914904 
0.05977653775954195 0.01622976697163276 0.007936047045585398 
0.03400438011464658 -0.08769605100561585 0.1670190269715502 
0.07579470586311371 -0.04323004445385211 -0.05298095111568388 
0.08953221188910324 -0.0693861079806163 -0.06915751017717846 
0.1376858757099798 -0.0807069023243196 -0.1002523253832684 
0.1167968833669232 0.05070232717035057 -0.1057832100079938 
0.04949191163833155 0.04666451921485758 -0.03669333267286259 
-0.04440509228382319 0.02753780894546216 -0.02318313564942374 
-0.06940449725024563 -0.05141412790369887 0.03271413657194788 
-0.0301432077585889 0.00244291166859446 -0.01822515465732348 
0.05446301898232401 -0.0737745918018089 0.05347482181441966 
-0.01612579045703529 -0.02069507524570439 -0.01281891482141321 
0.05109903616097754 0.0001177340393827719 -0.04268301585377923 
0.1730632630679702 0.01337951314687677 -0.08417629785206905 
0.09734598753851256 0.0356752510829652 -0.119381747659221 
0.1071592939375482 0.05812354384543793 -0.1268379858249307 
-0.02659093306304469 0.05016657660742727 -0.06246566542973808 
-0.09990471216252529 -0.05797535850674791 0.07779420318988303 
0.03556723211814201 -0.02982828902225499 0.04996852090929472 
0.1024759328653002 -0.09723022944055744 -0.06578121707800842 
-0.06825832582996905 -0.03124709875903297 0.1194418496861829 
-0.06918906987803668 0.1012926151152071 -0.1652428102568138 
0.09241529673390662 -0.06037730793178073 0.05007926528742134 
-0.03050072179138809 0.0374881743822628 0.05269291139528545 
-0.09290373914841793 0.08309724107276872 -0.06134302488867829 
-0.07538963741708471 0.003906895509158858 -0.004448320810877761 
-0.097813467779456 -0.0981592029094979 0.2148399417002499 
0.1256525752099373 -0.07749783485121727 0.05524595502724109 
0.1501932105695184 -0.1778243687287608 -0.01907510003883144 
0.0420130747378682 -0.06867767934536889 0.1122969810729793 
-0.03176837937147403 0.02243694518147988 -0.1023691396768514 
0.0802884868315155 0.02022687193776369 0.02021768332266704 
-0.07521679884527772 0.03456462089776907 0.02191096758465767 
-0.02919031059648576 0.127132177151511 -0.07855376538274997 
-0.1459326079657258 0.0323929755091605 0.02513325113872575 
-0.130942764716276 -0.03736704638241092 0.1196023417166883 
-0.03500298920222561 -0.01675616441183877 0.001550430732734459 
0.07194199869970011 -0.05986380608883832 -0.06281924399598572 
-0.03665233329821321 -0.03105206964455427 0.07952471936983813 
-0.02572332218530854 0.1166986035504074 -0.05417125571099081 
0.1137625218710954 -0.01360781914360382 -0.09778725833318649 
0.07396403979915772 0.01216518755383735 -0.06518507441039111 
-0.04752052972354093 0.1501182538912226 0.02785939936978011 
-0.09259207803202871 0.06783443162396292 0.1079954792134755 
-0.110948594470443 -0.03190850007978648 0.07918614810753306 
-0.08442083872007253 -0.04614845385615964 0.08908949252845924 
0.04638881340874424 -0.118160244197487 -0.007399668238025178 
0.04970889092692338 -0.0489283050043869 0.08900421232474924 
0.02780883343812754 0.1079802730127568 -0.1154224557211639 
0.02684501964842671 0.01887178176970549 -0.03905482547142865 
-0.03265466082785515 0.08483781764789791 -0.06832708515774068 
-0.03420113057282558 0.1423241393062535 0.002055043572495743 
-0.1818015320953414 0.1310103128704676 0.00705071853223278 
-0.0738677955209416 -0.09565991333381355 0.2448113029784327 
0.04674501049150259 -0.05964399509560359 0.119473505540751 
0.1459873024635557 -0.1586250805086492 -0.02180001346776811 
0.04155375726632956 -0.1382358977103222 0.1490174994659892 
0.01599450740468232 -0.009369193700009942 0.0281089994636638 
0.06564559342900422 -0.04511628842571481 0.1178064359379923 
-0.004657153145023237 0.07672968242675694 -0.04692033557016755 
-0.09333425661281776 0.166681603917534 -0.1248139083952767 
-0.07384641850064701 0.01047689100467712 0.08548960308706986 
-0.01961703198130454 -0.08846662716448561 0.1329594210634484 
0.03704205028321504 -0.0179631221733336 0.0678281824825205 
0.07259086014129963 -0.1778878523017407 0.03737301905926244 
0.09726645451394315 -0.1395220462926911 0.0351825349346788 
0.001240125025292271 -0.02928457995315727 -0.0661282483395903 
0.05316516255098604 -0.07245316731586754 0.1257896080188945 
-0.06005556115770155 0.1124651190474907 -0.06697612006531399 
0.003764258641290481 0.04020820108052413 -0.03400360408953878 
0.003636340396448371 0.0549974009499456 -0.03137155078580533 
-0.1517816211630016 0.08496283173248088 0.08773339180698728 
-0.07619463804285508 0.0172691642877279 0.08376965892725316 
0.1557150363166738 -0.1507691838174976 0.02987286059369671 
0.03599950082697123 -0.04930903356735839 0.1277375602672748 
-0.01414580778909328 -0.0215340936827244 0.01876620006831918 
-0.02578657351062435 -0.01509777053472138 0.03807948694309545 
-0.02787486204944902 0.03258711608972766 -0.002689798547174271 
-0.075331001724811 0.1612131089137781 -0.1418393354705439 
-0.1528844461312449 0.08040911760691689 0.1384400633039161 
-0.06228681589318267 0.008684946078375656 0.07805644768366275 
-0.01531525441650938 0.06606318215503315 -0.04716472153935462 
0.06468849401318394 -0.05330528662802431 -0.04394346644877495 
0.2417237039728703 -0.1456399387998853 -0.003065269934471674 
0.05009384807581596 -0.02649156137146312 -0.04425690647909335 
-0.04439421133065209 -0.06759914094179291 0.07380106381443401 
-0.02878323111857052 0.07393991298997577 -0.03505779746491543 
-0.03466677619312862 0.0300824248891261 -0.07704927468661244 
-0.04532654482210806 -0.01651763764613691 0.1266983203371035 
-0.03132786174878514 -0.09430387122994356 0.1949941089930733 
-0.0949428716704243 0.03482135909580748 0.2378878888865487 
0.01397825599327018 -0.1043174968828652 0.1968548274040324 
0.1109497428171967 -0.1091467492899166 0.1283908279805423 
0.02354958225848341 -0.0971114943937493 -0.02032547032065323 
0.002162080977103189 -0.05916876222486781 0.139832839260294 
-0.04699425259756477 0.06706853445993058 -0.05668600285254102 
-0.08305108021038815 0.08008970543969073 -0.06769116598569959 
-0.0402674314577863 0.01439462722976961 0.01309276917041006 
-0.03452376539288042 0.02420802656597995 -0.01150169866913336 
-0.08329640651290744 0.05719290263114977 0.016436032541728 
0.01721376404391271 -0.02198392559618704 0.1653066304024331 
0.120076217300446 -0.08500163907405846 0.1170189474999289 
-0.0144921740654085 -0.04399693897712123 -0.01696047248602525 
-0.03840944199935575 -0.001457112841578527 0.1543085088236735 
-0.05819327307770825 0.07256178201075274 0.06007501699952551 
-0.1266459420924409 0.009502625730225998 0.01067454602834065 
-0.003176421791250722 -0.009371749429086676 -0.001863056417972188 
0.00652406579214516 -0.04094958350354661 0.08808054047863982 
-0.08709226492073575 0.1966938947331338 -0.1338472037736397 
0.03765785592109478 -0.03039957723501958 0.0802941115128913 
0.1004540627750308 -0.1453581635862288 0.1639121276212207 
0.03104880406370597 -0.127311780989682 0.1391845800606852 
-0.07546667647360798 -0.08815828064593137 0.2332277484601806 
-0.1199616213507726 0.153590545029339 -0.05478819786733023 
0.01486986982341278 0.01705034376771469 -0.1359772581755376 
0.09910444494518256 -0.1430891396871774 0.07053655134074709 
0.02077760209058629 0.0343855289794107 -0.1431383436897694 
-0.1066254800083942 0.1622281890368897 -0.09565209122841063 
-0.04675885564975572 0.06226594460629865 0.0199071902401635 
0.1002086536182234 -0.09857795894004118 0.09065161711029342 
-0.001608228655652324 -0.1702508164016565 0.1287513932335203 
-0.02039745882508475 -0.1329924132706275 0.2565609339476203 
-0.07699597180461762 0.09878590994228723 -0.01833063638408646 
-0.1096727192830804 0.06355697996425445 0.02431284081711445 
0.04482577172014529 -0.02348346160180054 -0.04352688036781836 
0.0338964605733692 -0.01482924668186724 -0.03891227888249976 
-0.02465251862502329 -0.03673356321470361 -0.01547371289398325 
0.02251084500698276 -0.04063095226617703 0.1402857236336324 
0.1067032941040374 -0.05738348887543709 -0.08126157862764326 
0.09550696396304904 -0.03227770974724677 -0.1390595244569981 
-0.003095537074121233 -0.07160375519926475 0.01509805817471094 
0.09461414700863328 -0.07550912038715862 0.09990929095333709 
-0.05317932382447656 0.001933945925157777 0.04130821071943554 
0.02619808274097099 -0.03558869397430049 0.01028933266637909 
0.03028315340843936 -0.03996769677282475 -0.04556697991795147 
-0.1852221916349436 0.09330377227205668 -0.07498205693485147 
-0.0567203126149551 0.04673731291978064 0.05262712109639862 
-0.08588133529333386 -0.009306643452348487 0.1855892298083774 
0.04452006028434433 -0.05628941896549318 -0.07974308250129926 
0.02073191439948862 -0.1510694542641466 -0.06147695313608281 
0.08425957774597701 -0.1366958597516401 0.09108081386485216 
-0.02130994004152508 -0.04423944874696906 0.1488341039045296 
-0.01804468867424464 -0.07011232197911746 0.144664044227211 
-0.02488798706318825 -0.008495587531874724 0.08512626639330889 
-0.2151816003324175 0.0909018333078109 -0.04118290876246596 
-0.1137417867741555 -0.02092873570433896 0.1158792179320351 
0.07983873621399276 -0.06845015136383356 0.05383245652318371 
0.1255246927363358 -0.145744395394695 0.01769498100753389 
0.06089729419323043 -0.1472590892994523 0.04024176158373721 
0.09385637382568976 -0.04496119397436305 -0.04880409481216542 
-0.1174196759570475 0.09970205091077346 0.0001530382300844668 
-0.05253188281324829 -0.03566839298945781 0.1775749357814923 
-0.07366680717188023 -0.03229656103142496 0.05086776324572496 
-0.1530308880261231 0.04965888913780829 -0.01778101878840319 
-0.1336081586724869 0.02545773557341441 0.1800610524879903 
-0.01355610684676531 0.04198548796744509 0.1498911104157905 
0.08208762443125235 -0.04620317263638348 0.006530140188544518 
0.1105247727870391 -0.2024533386107101 0.05879753769427452 
0.07214675399088362 -0.1522779437212211 0.06286800882072041 
-0.06132724945063012 -0.01299793571843019 0.1623051818318388 
-0.1448438881551459 -0.03563891898201206 0.2290733254211126 
0.02020431959017388 -0.01320399956495383 -0.04901393014875409 
-0.08708569967989435 0.1356848710225972 -0.1237827902319143 
0.04244670267582421 0.05836392288593192 -0.1260458144111044 
-0.006979810343466696 0.02579491442209106 0.03283806801135914 
-0.1155202201182212 0.001660980889659982 -0.07582062756093556 
0.00208429860659735 -0.02698684617947781 -0.1965672597576843 
0.08009615892754177 -0.05134634489181968 -0.07951181796346342 
0.0003887257968597769 -0.01299948250776404 0.08460381024035334 
-0.01892062247698108 -0.06816581900333348 0.1003761094034048 
0.04461393030224597 -0.03315263715260801 0.06251673728119163 
-0.0297418023257981 0.04587670993391303 0.009888693763603457 
0.01881526101595283 -0.02737276225262772 -0.02798121522216839 
-0.01043812064846096 0.0239143036386032 0.05605089397021967 
-0.09858690102034108 0.1183457659096044 -0.09160628720654815 
-0.09328985337354258 0.008979728646220842 0.01410308601098071 
0.02974307372897423 -0.02244708769029937 0.02949433872931852 
-0.101162250837936 0.03694194316313365 0.1685598384079703 
-0.0576954350883944 0.02209966357172922 0.09590512491894991 
0.02327382955140432 -0.07924560374703744 -0.0558085327957733 
-0.2036113054530537 0.1093100714844565 -0.03749714885140172 
-0.06860443805675821 0.07510507636324279 -0.02316520959512589 
0.01321976015914266 0.04189105429941707 0.02464071080759171 
-0.05533453167041521 -0.01756738774204654 0.02974463042591302 
0.06022615502517432 -0.07789807525185757 -0.0458309836014653 
0.01597602095000079 -0.06024472125466623 0.03681862787667319 
-0.06084907003994578 0.02334090875050508 0.04635426297879259 
-0.05859584278372167 -0.08825651698236088 0.1177992751107431 
0.09438488774597283 -0.107211627918849 -0.01944232963512373 
-0.1614688879493704 0.08017661975898516 0.1091206156062818 
-0.02738955527676392 -0.02683590487273449 0.03110031340248892 
-0.04198321538758284 0.04544296270160329 0.06224676856694801 
-0.1442174303534678 0.02264123926334603 0.164589648040687 
-0.06277583776509356 -0.06195142603312416 0.1903755063107952 
-0.01239541487592337 -0.09332824047278099 0.1788385172010693 
-0.01102316782046731 -0.03727383764226615 0.1628774613215264 
0.05175389554502677 -0.1392007824064706 0.09552337487030367 
-0.02106274030760226 0.05922087249499377 -0.0004664314120425384 
-0.01334587842166079 0.06287497245954367 -0.04966236955083876 
0.01446909586057284 -0.0896668517264384 0.01277041837520131 
0.0781457786042092 -0.03885626698717462 -0.05143031499753987 
0.09692352984550179 0.03945839575503487 -0.2435590557293056 
-0.005157760208674418 -0.03876055373196363 0.02966580934203699 
0.04601184460364313 -0.01876069961143349 0.09146760193768062 
-0.01471593649134267 -0.01049183026351159 0.01431935286986398 
-0.05137766674429723 0.04684888270795932 0.0102836966644035 
-0.02013273579744421 0.0965723836928425 -0.1388539058670907 
0.004472179766992496 0.1689864763724538 -0.301177485303162 
-0.1055990479662174 0.005319735200083286 0.09211765261174582 
0.05087339288030359 -0.06219900905735186 -0.08170195561074746 
0.2104169516336774 0.02071172450742028 -0.3299810649725551 
-0.04492142223012045 -0.06851294596740132 0.04500344854761507 
-0.07039102131642015 -0.03078655216814008 0.1940389595474948 
-0.03873166553393753 -0.01611466618673614 0.0912698338991587 
-0.05261042536759777 0.03754192941577788 -0.001210655136802877 
0.05374119135371609 -0.03049751900130345 -0.1522490940314839 
0.03266918127380468 0.02585598540567185 -0.129793285111662 
-0.04064789382636579 -0.002656121212893523 -0.005290805490637745 
0.02956411993083757 0.04340851213212607 -0.03847165385906152 
0.008785871053450805 0.0768090141350615 -0.08611524206684931 
-0.008148627985936689 -0.0694499300945825 0.1310426064309694 
-0.03701454209588703 -0.07149290263252887 0.2380437296889159 
-0.04548776202212049 -0.0406917332775612 0.1437885286275074 
-0.07181000789146048 -0.04950460636541145 0.1216514841865871 
-0.09472746471480197 0.1026347868473376 -0.1462096423196986 
0.02812601083593981 0.1250678675036464 -0.1848935114529069 
-0.001600097298766635 -0.05723707837710485 -0.001211259087898001 
0.09082958306193549 -0.0451486857656275 -0.1998095743305257 
0.1979195926424256 -0.003131847026026034 -0.2796913796239378 
-0.1027039618959504 -0.04765712859702375 0.005989342376526006 
-0.09923467371631958 -0.06516233335931347 0.1582918386783354 
-0.06714422985782872 -0.02501979944762325 0.1618048950473338 
-0.1088677761795766 -0.009031521757022466 0.01297599376536954 
0.1192113684271546 0.01641142170318759 -0.0779569736172758 
0.05350111208286217 -0.04671961022907858 0.0939249138715319 
0.05902151352783053 -0.07324189792215095 0.1249598474480263 
-0.008302661206653102 -0.0200129079925335 0.01149943736623219 
0.03552211827330302 -0.01115333084206961 -0.1452529576797319 
0.08586428316422042 -0.08632724117599842 -0.04113455468993064 
0.04495177423023038 -0.1071276079818511 -0.01298165301933614 
-0.01210017087316274 0.04686681758197453 0.06765652239403266 
-0.01304539050436972 0.02367948132438174 -0.01226533442645999 
0.0304207461430755 0.01703000092786791 -0.1194613909232178 
0.03971049014619386 -0.02512586901485722 0.01053571239014274 
0.05454665882598634 -0.07407235499203542 0.02454274101860209 
-0.0180320968675082 0.05160174354655918 -0.1060124265999744 
0.06712072755124322 0.06273896691310171 -0.1543434966379391 
0.08336870290853836 0.003544405713997474 -0.1491587971433983 
0.09294012693190387 -0.05604895395672681 -0.05681392812995659 
-0.09710911959872939 0.06004269693408483 0.07247781860386743 
-0.02730282602470132 0.08891774957597226 -0.06279277527566214 
0.0376027564691333 -0.0334494522509335 0.03165593915725817 
0.08006377263974794 -0.07879848904733595 0.01063753123231925 
0.01397007682265087 -0.08978054485400447 0.1503043436446027 
-0.008451569871175889 0.03727508281176735 0.01070262853586586 
-0.05663116478782311 0.05332721410703228 -0.1237228145843886 
0.06205685698165171 -0.02914173003812352 -0.1773759025541385 
0.1750033104008381 -0.154133284578919 -0.03215644037764867 
-0.005440442435387667 0.01368800989787126 0.02710719618108645 
-0.09421765105790086 -0.007031754369595531 -0.003070394145931392 
0.01940418451114956 0.04363007773908215 -0.08669774207160327 
0.04364591498341293 -0.05858096047447399 0.03652533597104011 
0.0427814102826958 -0.08811830412754677 0.1616424723157668 
-0.03027146681476946 0.1354706385482054 -0.07995531608294779 
-0.007213775497305307 0.08080631470199437 -0.1022246241196978 
0.004142780719926235 0.009660519637675735 -0.1878948617240697 
-0.03890585922145499 -0.06998566214683644 0.02538772863690442 
-0.07153686312057771 -0.02269446397970523 0.004064381318856705 
-0.106661591097747 0.09143774624309717 0.03711273419056528 
-0.05730159648527418 -0.0902801862692791 0.1274746703774722 
-0.01663808192345007 -0.05239694971820906 0.1111889804957078 
0.03067732698772204 -0.06203158444669699 0.02235236498146786 
-0.07342322829588949 0.01193241375634672 0.05287357479489883 
0.00539637365506779 0.1168346903724948 -0.04727970595291026 
0.1527659762770901 -0.1075271343530652 -0.1254501682573866 
0.04406993411592083 -0.04446523512746223 -0.05558877815321995 
-0.002271925326097053 0.1240969609043215 0.01139121877421022 
-0.01583340936619897 0.04063532710926539 0.05009762714418683 
-0.03174004531621286 -0.02842596382374823 -0.05750159446171916 
-0.0988139631584771 0.007650586932711556 0.01534620547532182 
0.01007787932289906 -0.05054053594328034 0.0344897492475019 
0.01646736415692623 -0.04725494786989395 0.05577137374590478 
0.0227425917516761 0.04127431329059204 -0.09746340723102923 
0.09206221641613885 -0.06854145952526722 -0.1411629079430191 
-0.03136941300551902 0.07937437113146512 -0.2694781575667548 
-0.01744557119113621 0.09448022648614141 -0.1357506542113697 
0.08104986807707067 0.02241518447124213 -0.04981111970511323 
-0.0450576046812302 -0.05168551310503853 0.03866634353469938 
-0.06326567119986801 -0.0220714530550697 0.05713826127793694 
0.02612374727334424 -0.09649543291134995 0.1926921759930563 
-0.04571513945673832 0.07314735893225594 0.03315421625820603 
0.0266500590463618 0.04046007299105246 0.005466618188009275 
0.1168765106681817 -0.07693301810188773 -0.09300211937503576 
0.07715537642006196 -0.0315638341529046 -0.179548040699439 
0.05938964159428071 0.02000992491748153 -0.05606220313152461 
0.03319024153439785 -0.008790569105673073 0.08338650834883669 
-0.09253387873291746 0.09821829139229009 -0.1543974810599097 
-0.002268726384704094 0.0883075734227463 -0.1321824262946823 
0.01737116900102983 -0.04682955734347279 0.0529352527386024 
-0.006611939101039009 -0.03167395181471445 0.05822478985080011 
0.1115167230023036 -0.07439069757948628 0.001196363235782394 
0.0328281559424693 -0.02189447240796934 0.07661170262096835 
0.01057947357076689 0.02294609896635377 -0.1213227763394916 
0.01734838794215158 0.02560029286189421 -0.1743323053302917 
0.023471295308976 0.04458730570463076 0.01388683251011256 
-0.07479827290744082 0.03930484971237184 0.02508458492570267 
-0.07439520725572443 0.03079463385169749 0.02789028028528517 
0.06752603095579496 -0.1048847681252321 0.1210384608161885 
-0.04663240593263386 -0.07574140863029368 0.1110168218232678 
-0.001680145578247124 -0.1304366637187764 0.2043092651141975 
0.1296595552120272 -0.08312318222163161 -0.05197729354495048 
0.001092011939745689 -0.03379728301182718 -0.09704626978880321 
-0.02560755171566577 0.07793821918176969 -0.1162148363195084 
-0.05753779703490125 0.04196245338017619 0.1072323976006533 
-0.01920981454304977 -0.03006228915282377 0.06292226567888702 
0.006353687434019499 0.03929143606783142 -0.08315374721613382 
0.1059030333168885 -0.09372305310861021 0.003214213318768119 
0.04733096055167418 -0.06641058871919839 -0.06811689218454341 
-0.007145117474402068 -0.1045985774727133 0.105405793526801 
0.05558789076328931 -0.07855619515604588 -0.06597182606941568 
0.02682851793915217 0.07496298849607137 -0.1777745464184603 
0.05877560454354416 -0.02754776490467758 -0.1090062903585985 
0.06940625183691437 -0.09490741723051389 0.1510393983162599 
-0.1709072345325118 0.1216386373557622 -0.07065166423237625 
-0.004436266450804901 0.1576481826073759 -0.1956122799263342 
0.04556715701865231 -0.04053835906966798 0.104506729657031 
-0.07894540381448216 -0.05133578923125221 0.09273399806777156 
0.1062182419228465 -0.1209724339107369 0.1854454567202104 
0.04091887979257992 0.03175969375197648 0.05439816423431908 
0.09002696684548898 -0.08381694450645366 0.03112098553726331 
-0.06680636731726847 0.019195061176764 0.0285526559256923 
-0.05439202784479681 -0.01952004043415076 0.1231468106726326 
-0.01739599176032148 0.0409153076055639 -0.06308728418808193 
-0.03059376600572225 0.1613531126749711 -0.1515491722889858 
0.1278664762597658 0.01041002941379519 -0.07014146906037498 
-0.02904558102901012 0.01521109906896956 -0.1013925723273804 
-0.02033779724647923 -0.0506964668795969 0.1022298486332485 
-0.09098232483979835 0.01677214364439499 0.008060487855256789 
-0.09067807093140666 0.03214642213497969 -0.02153050853647258 
0.04490088010508976 -0.05858094763311287 -0.04124132600048415 
0.1377091794066919 -0.1515041879967621 0.0705557283402191 
0.1113681339295349 -0.05128525736155606 0.0222618840402506 
-0.03117601532859627 0.1049322437171859 -0.1313544671615807 
0.0838379750729929 -0.06173911332786299 0.01658483979731381 
-0.01638057116530602 -0.09738670604682023 0.06335460594339595 
-0.00556299889396906 -0.0937097460133693 0.09126984292988384 
-0.05675500523170511 -0.06572407498761818 0.08509191700090714 
-0.1311427732908971 0.118567528418561 0.02592326568081538 
-0.04569985392180422 0.1392641040706386 -0.1867787924905271 
0.293814296002237 -0.1957137791787901 0.008399241554213129 
0.1118734235819152 -0.0147506602243054 -0.05829986449992772 
-0.02241819400276388 0.1103856743544982 -0.05701545894875883 
0.04122092738859046 0.02478651200432007 0.04292070661435378 
0.03554901169760559 -0.1427757758692406 0.1305276034200308 
0.02641160455978441 -0.1956563130090072 0.08585249827374876 
-0.04334241687103454 -0.05785028311705643 0.2062061456105115 
-0.07458894920242565 0.01264667414416709 0.06724386397904353 
-0.0360713926595396 0.1263674334340605 -0.1618652582193467 
0.1962810117101178 -0.04849431629054071 -0.1735130580594304 
-0.06928052831888634 0.02949448157281875 0.11067768875601 
-0.1465811563133252 0.155660745073987 -0.02702440432194048 
-0.04359628994958943 0.08894107239370451 -0.0570231798740111 
-0.0597282662279539 -0.01448985410575427 0.01927707147520459 
0.01369701552980256 -0.02027490263377692 0.1205524071892939 
-0.1130743021697263 0.0008236811438471457 0.03912957277645183 
-0.1671034557216287 0.08236269272636888 0.1728679108608081 
-0.000555989493401332 0.06385219804687461 -0.1253079948760905 
0.1031169044484556 -0.1461928854175655 0.1270011951401234 
-0.02573469899843128 0.007704696581390298 0.0818659429362161 
-0.1367268925301707 0.04212655498889155 0.078062663926955 
-0.03602012574583048 0.09454582133517191 0.1125948871843057 
0.0738424459161549 -0.04486236689407283 0.04042514802278824 
0.09560984176407422 -0.09383969571104371 0.06362013727052744 
-0.06424393449476386 0.03940571452715945 -0.005684676201538507 
-0.07469910846557011 0.05107748879402786 0.04820814706356261 
0.0216322170922448 0.1606453152350893 -0.192108768775202 
-0.03911516854338554 0.02143848183670117 0.05660280761973972 
0.1452658117913965 -0.1057705366861027 0.1002133307405078 
0.02547984731198265 0.05807858807985607 -0.05846264076600065 
0.005151190378767554 0.01897228161349844 -0.03287689316872858 
-0.002343714258412968 -0.0432837063112435 5.076987460847956e-005 
0.09095825645935327 -0.08808087960357278 -0.1374398507236137 
0.02944525194426534 -0.1150794474336005 0.08004593534422208 
0.07301488966421775 -0.01943141070794382 -0.02020645667410663 
-0.1130152591486191 0.2084615850855784 -0.2625800573687387 
0.1513729829444823 -0.04544393622701095 -0.1274787729119785 
0.09729359140349907 -0.09500241463178093 0.1950584249407421 
-0.01632218438180099 0.06709127602950341 -0.05792372835244915 
-0.08501487041810917 -0.01374594245452197 0.1142199966311103 
0.01536616717095386 -0.01412923688083775 -0.0008752100833133485 
0.01848490495674642 -0.08918482126113891 0.03978795197662904 
0.1042949574124605 -0.1900198673753646 0.1261161124775804 
0.06280591013506336 -0.03199355844596685 -0.01417032912707371 
-0.1101688512539999 0.1487014580564997 -0.1028616928321894 
0.04888774398447621 -0.03258830058704185 -0.006552431873008506 
0.08903501583762845 -0.1722594369682246 0.169048976974627 
-0.08881567146839385 0.04887099699133642 -0.0488226213902186 
-0.05183705536352651 0.0527490130434063 0.0247261557717631 
0.01101750626963514 0.05582553119609891 -0.02588846565874235 
0.03532353203423629 -0.03920879246558159 0.0384616086638369 
-0.04998985390314603 -0.03358904069939318 0.1059879098882292 
0.03172584726567934 0.04459198466362693 -0.02971489693681077 
-0.01293700661804193 0.1172578366121552 -0.1379550286708174 
0.1392683343005787 -0.08378447656854687 0.03516509511086012 
0.1043658506158716 -0.167745987119749 0.2138390698086955 
0.04220994605386241 0.05213032373309145 -0.04327396110827401 
-0.02876712767598544 -0.02844732786987138 0.1040849593806185 
-0.08067702481965172 0.03883356378563027 0.112029158501424 
-0.006826664264181601 -0.078932592942494 0.0617691460565808 
-0.07409465375334132 -0.169696599916457 0.2325462605443982 
-0.03308465474850286 0.008269906766851892 0.1399294227839832 
-0.08020367372533963 0.09065300069094871 0.0419340591432905 
0.08342190635844209 -0.002801671247417085 0.02500752786006542 
0.1717246589189063 -0.104683066081612 0.0267896474408471 
0.007996495206125677 0.01727747046109682 -0.06740417475159885 
0.0187129895173588 -0.06083242539160597 -0.005163784602478497 
0.1665748992222071 -0.01856950309625783 -0.1272507713927441 
0.01851747185724992 -0.03028963160851773 0.0009018529451950473 
0.13634841201347 -0.06747287477822528 -0.1105240930026358 
0.07151251683965401 0.01482396625238193 -0.1105803278550427 
-0.05988849632021406 0.195147546248205 -0.2242749062530495 
0.02128529428818954 -0.01246142550572317 0.003992867852186781 
0.1260797720767817 -0.156345834671534 0.03976836767866234 
-0.06651655715042555 0.08001045988713207 -0.04393236418196136 
0.008534232459482101 0.01723819168420518 0.007178727667525046 
0.09426992173371851 -0.003450853271199067 -0.005688210492364075 
-0.05659890016931636 -0.03830733805054889 0.01061259584093987 
0.01927447097358808 -0.1013510033745008 0.115684410755728 
0.113113373833166 -0.09414355718811571 0.01492822023932685 
0.06656995446001587 0.03725174748831632 -0.1266722915523555 
0.02978199956928562 -0.1138709193540677 0.120091989411405 
0.0418318928970495 -0.07868270531898944 0.1021817819523363 
0.005153417077261194 0.0366374729262022 -0.07783730344076519 
-0.03721974031011228 0.02872680929659354 0.07937202210614452 
0.02894016590880165 0.0180569239346455 -0.02634137187951676 
-0.0216986911037832 -0.1039993316579999 0.1055932836254309 
-0.02253459916672147 -0.1333314897132058 0.1197327058044277 
0.04835738569959649 -0.01989148196685974 0.01151974782569449 
-0.1007457165956546 0.1026786125638643 -0.09515637500739912 
-0.09476663756899158 0.06824924925814602 -0.0004748111765521608 
-0.03428684262584563 -0.1148387862490034 0.0579479474176872 
-0.1728403863922947 0.04966675386408778 0.05983943978620863 
-0.1157779281601199 0.05016461816345232 0.05805729095467935 
-0.066544345031866 0.03444664047208586 0.162845370391882 
-0.0114850055835672 -0.02008262595393415 0.02928085588019173 
-0.02017559082044905 -0.1631896354362833 0.2454659556931585 
0.09083188410076395 -0.08210180265247116 0.02919709107610279 
-0.02492088269124689 0.003742480935587521 -0.1199329030207023 
-0.1153336202348063 -0.02431555818539994 0.08471633350189135 
0.05476668117334692 -0.04430096812069443 -0.08171956256404729 
-0.03327881871997226 0.1018551414450693 -0.05362773015275075 
-0.04113945444944951 0.02215750592449796 -0.02605219526111596 
0.04602856093935199 -0.004261960693425985 -0.07155052865842525 
-0.1184207725915464 0.1140232082722636 -0.09179037067343125 
0.002153604776005488 -0.08958464913493781 0.03890896698039439 
0.1120313878636574 -0.1306317988437622 0.06911991600797789 
0.01968122510984442 -0.01627579625760353 0.0216809620887997 
-0.0269699431961652 -0.0587719380429777 0.09388910727025893 
-0.05291482422972605 0.01594473754159014 0.04895476629488292 
0.0028951433563413 0.06774089220097333 0.04431944435300811 
0.05373352860760839 -0.1570949283590774 -0.01736923256606287 
0.1377211793102218 -0.1234822395505916 -0.06713393139589707 
0.07053357988020417 0.01950116087829642 -0.1058691386279173 
0.01214922224627731 -0.003549723936467462 -0.03643876704938073 
0.04319650666409092 -0.07165901637871786 0.02117312915827868 
-0.01197004473568499 -0.01829313653802993 0.07253173957282369 
-0.1096337091589293 -0.02405645523577942 0.07935575299303514 
0.01749295262661571 -0.06733327486831205 0.04733805077594759 
-0.06833681345499756 0.04630109874812437 0.0494169900694466 
-0.04445584689546846 0.05434344526530837 -0.1707992309446324 
0.01252455594541655 0.05011735350288904 -0.08420776403716426 
-0.02107203198030032 0.114898962036539 -0.1274961774238173 
-0.04702111089481466 -0.09494073135535563 0.1244889549006775 
0.05765502199292141 -0.1033758878835625 -0.004639724952021227 
-0.0352065014575402 -0.03110264370195666 -0.03237577626272814 
0.03069353274535924 -0.02843180450829902 -0.03714778245683077 
-0.01459385788880777 -0.0148356527297113 -0.02251084749067562 
0.01900758693921686 0.05304326597838843 0.04348949925255553 
0.0894419791775341 -0.06772957977711348 -0.04601332103588398 
0.09296389904425212 -0.006267052116659126 -0.1778323741762829 
-0.03146229498364721 -0.01165760901805897 0.03748946842268865 
-0.06137179492965048 -0.04300737928037838 0.09029003084989613 
0.06573881819911367 -0.1035350534897323 0.001458655942209706 
-0.02951730403448694 -0.0529186057128978 -0.02039422655164487 
-0.03581149072918428 -0.02302366600028577 -0.04863841922099872 
-0.009447400164561986 -9.299988670067723e-005 -0.02670891729956638 
0.06685842576622057 -0.006128861571532495 -0.04390430258084514 
-0.007864248130340843 0.009986171999791035 0.06502565834974558 
0.01250302871012938 0.1085789638372323 0.01727556593239468 
-0.1339251455726422 0.1678299007153793 -0.1839755200636807 
0.03573451049268794 0.05346647519379529 -0.1111889187018259 
0.1092324276340737 -0.08085595115131605 0.01001065498382845 
-0.03576298371121488 -0.002310293582574924 0.1013421885827838 
-0.05659048927139632 0.01461433916152432 -0.07261650938623068 
-0.011790190430108 0.006166108643504154 -0.06529057189696928 
0.0213902638580088 -0.03724686012552286 -0.0071310410882095 
0.02528326865622607 -0.04802561057003732 0.04179576060969652 
-0.005250724206779959 0.1378203532466163 -0.04762545743794715 
-0.03499766891837677 0.111998458399197 -0.1419761810071215 
-0.02150181775143655 -0.02736509750079682 -0.052123397297764 
0.1079169536762579 -0.05314862120201414 -0.1207735167507172 
0.02553736931649253 -0.03893090244655535 0.00380470692653932 
-0.07139534651411569 0.06164514407668306 -0.05504930760504014 
-0.02715946757559393 -0.04270910432207358 -0.02101261029162931 
-0.008747243273830006 -0.06245610196869494 -0.07272811575745582 
0.0215909538058057 -0.01391152031284309 0.03338906995557035 
-0.09685187091217321 0.009489573089115846 0.07284580971180478 
-0.1306475938516089 0.04923780130858097 0.07123405335987028 
-0.06341449949903745 0.05617906831027769 0.08136044319118067 
0.004644640940634804 -0.01423728243110896 0.06435191419132336 
-0.003632288862294255 0.01648993995911851 0.1268670915483281 
0.0102857102527878 -0.04699327873961651 0.01756457466683911 
-0.04740222327337041 0.06487109643064432 -0.06961039225352105 
0.002825664571721248 -0.03922703010721063 -0.03472019401448267 
0.06873528971568473 -7.293805485564951e-005 -0.06233830242635628 
-0.005847130921180647 0.01995391220288018 -0.00295535631908697 
-0.08101539097347646 0.08349064176603056 -0.05423405589874403 
-0.007526379975401281 -0.03705589452596781 0.01295518258451473 
0.1312329912447638 -0.01906240330727013 -0.1162960507848262 
0.0484979935216371 0.01557642309676635 -0.06169295564844392 
-0.08109680956177387 0.05317165713277419 0.01068770370806447 
-0.05594960625901622 0.01914745266354929 -0.006138074094620246 
-0.03740556026944961 -0.01127670135127099 0.005465156632704005 
0.03653056403247986 -0.05391586522157401 0.04742685804278037 
-0.08670139530434985 0.07377222813959325 0.01569795822278659 
-0.1064685248589417 0.1058281810355343 0.07893911829136907 
0.01765247815657327 -0.01785529509892874 -0.02146788847729242 
0.1411481337060594 -0.05220761786493243 -0.2358228755117998 
0.04551875560443235 0.02077536410662292 -0.04242017673729453 
-0.04473798256875087 0.03038122782789987 0.1048730395257642 
-0.06188266269456009 0.1096741948212923 -0.07751353520936707 
0.0009496443168937072 0.0795315840479265 -0.02588479419288892 
0.01640825264474579 -0.01114558916852739 0.07788249127285912 
-0.1669849136320636 0.08582130475345416 0.06131725808094478 
0.001596922362055303 0.002719393413763484 -0.1153628638371164 
0.002639106041574313 0.01698646215470066 -0.02658641373907315 
0.07971876515156771 0.05585635587873016 -0.1211543205926661 
0.03826659786875458 0.02723846809003793 -0.1293347800894988 
0.08261514725819583 0.02102153409417807 -0.005628344898498026 
0.003001336013229093 0.03527610989587373 -0.01524360870862617 
0.01133749837631266 0.007253295022041422 -0.09313384172491332 
0.009060710621872713 -0.04114643736139571 0.01824107344421876 
-0.117634917379686 0.01824264393118755 0.08197497958871712 
-0.08823182697955538 0.0386650920950943 0.01945448008066097 
0.01996683636864137 -0.09305253818809539 0.03799189784199001 
0.2389559462638124 -0.1026873977811606 -0.2173855345863453 
0.12151972526554 -0.04014700027720505 -0.1068240666038485 
0.0148955861114928 -0.0433655280899667 0.002067671044543156 
-0.08702290963783901 0.03152098151667717 0.07469210083450797 
-0.05722752741677786 0.04336140949574163 0.03785575309115641 
0.009283163332225326 0.006385905011010513 -0.04508407300360053 
-0.07962299125222583 0.07281797799697627 0.08662473229251341 
-0.0617272588412626 0.007136550677678296 -0.06250237978598006 
-0.04292420342392202 -0.04925501060298528 0.08981676425085598 
-0.02221759606590677 0.01000770939542959 0.01572750125166677 
0.07436771781071401 0.02228775066899362 -0.1167575957705382 
0.1402059247666385 -0.09223067580218736 -0.08122314883532532 
-0.1656786083168806 0.08634294952155504 -0.006935508343169847 
0.02931264543496178 0.1183197481859202 -0.177387626659184 
0.06774234436985149 -0.04914188944433338 0.07319253381591533 
-0.06114292330996456 0.02009290636042985 0.007029906000270513 
0.07912771693741144 -0.06398355463886234 -0.02655588229396962 
0.0903856551395614 -0.02964828866079964 0.07448379434872179 
0.02909203204778307 -0.04421480892367196 0.01803254373683827 
0.09629717585090426 -0.06367299377194213 -0.1698279414151867 
0.1073580771374256 -0.06890351067718335 -0.06594750750984715 
-0.00298410119968531 0.03219620454827158 -0.06108580394121072 
0.01295268303152628 0.115910022446733 -0.07639360370794775 
0.1273140082271417 -0.07394682254630622 0.002968400436135072 
-0.03808843084095807 0.0380833845666295 -0.06861787244743729 
-0.0277177206770206 0.03595379379638539 -0.02127245348243777 
0.004984638623721851 -0.03434817773099411 -0.006201930585089649 
-0.07162452303460984 0.04872914689175181 -0.1630537159354832 
0.08484472348898778 -0.03317237165524238 -0.1318502383596191 
0.08264281853189626 -0.06853762504335684 0.004975934539852626 
-0.2464821205203187 0.04492991211353253 0.1533132579409574 
-0.06143900855349725 0.07257674883151181 -0.1503147441416809 
0.0451085665723308 -0.03376297282384336 0.04924325408347629 
-0.02445112189936884 -0.04662653867841521 0.07980188212827108 
-0.01175024289033349 -0.001777473327107978 -0.08893610272092624 
0.04094815856010754 -0.1103475755777098 0.2080365212663477 
0.07920267989113038 -0.03627557880518485 -0.05079678962316247 
0.1060517599722188 -0.01424519184702051 -0.1703141919554856 
0.06399304853069895 -0.05917058880972604 0.01589988861321448 
-0.02355315675467191 -0.0222793092381479 -0.009912668659922384 
0.005662345627708316 0.1111631189916643 -0.1275250898659587 
0.1567905793243429 -0.05153610424257878 -0.03718875661005393 
-0.06204802872614731 -0.01345428535914864 0.05208902013588828 
-0.001190758813810041 0.06817727916735304 -0.1591989216620221 
-0.02987559265176964 -0.09844647316555918 0.1878913234585041 
