solver_type L2R_L2LOSS_SVC_DUAL
nr_class 3
label 0 1 -1
nr_feature 4837
bias 0.5
w
-0.03095914691532059 0.1231652141686399 -0.003503339890584627 
-0.0273496495678226 0.005900848176435058 0.00217874272340698 
0.1151161864832565 -0.1001479946442959 0.124101976153887 
0.04307630291664454 -0.06164466646645019 0.01493854252416282 
0.04076297834446908 -0.07523529717751308 0.007239941429317557 
0.09004605207476751 -0.07211689497805419 0.003146537095339403 
0.07142732188285678 -0.1026952670448037 -0.01029173325078587 
0.001573331110447283 -0.04644858326975378 -0.004569419161057645 
-0.01127309144477365 0.0839344678860945 0.01961735219869476 
-0.008909110362089615 0.03981851295983602 0.009444470684228611 
0.1126835259723166 -0.1045756587109139 -0.03102726003243021 
0.1179929392252407 -0.08290865735398775 -0.03142059228599866 
0.001560618583272952 0.06234466422542124 -0.007316713395431791 
-0.003034134802977851 -0.07850324504633807 0.02664800558055355 
0.09495610288526254 -0.04837335033955818 -0.03926683579846142 
0.04535967391966503 -0.0224702449030984 -0.04546986256185023 
-0.07108703435143676 0.009750186812798172 -0.004371012629991104 
-0.1031861848298916 0.0904081460173158 0.03973903801936939 
0.08818768021869741 0.02717536587965977 -0.07716420708140725 
0.03809736762961274 -0.02738404334870536 -0.08490424013955905 
-0.05712462195293427 -0.03954203827117438 0.04748979182291085 
-0.006696973459010237 0.06499857737336967 -0.04417066157587704 
-0.003073981989307448 -0.07462548298783446 -0.031635528159371 
0.1222684080555989 -0.0858690917106706 -0.03233228173932076 
0.04332436362709313 -0.07063640609058482 -0.02698625667543853 
-0.1104080591550614 0.0584805907201244 -0.02655389301548019 
-0.07712660982676511 0.1031983373035646 -0.008832899758057551 
0.01580074757504667 -0.01657702447130877 0.01591071323997808 
-0.04277450930718367 0.007099068372023288 -0.1173015751003012 
0.03281472623637722 0.1071617267860401 -0.09026474076687684 
-0.02044722328137921 -0.007345832065688108 -0.06012342695874291 
-0.05531542619245325 0.1097369004893995 -0.03714960132399399 
0.0296969476007552 -0.07459183719484554 0.02351028777570784 
0.0459422728881379 -0.1136460714179724 0.00678418626765927 
-0.05937093332274437 -0.04634079090189544 -0.007368097516723132 
-0.08898174350023208 0.03909821247588041 0.02524448906077579 
0.01109786029568797 -0.1204036923541731 0.08258582370994701 
0.1405375820041525 -0.03820304966692339 -0.05038440097909575 
0.1065823622706725 -0.01453827630083888 -0.07335583333618866 
0.01503373076076147 0.129813450961913 -0.01600798108705899 
-0.1910001647708873 0.0730144175351817 0.1063175329114597 
0.005401120048064088 0.05871967824086814 -0.007172032732454699 
0.08978164245181378 -0.01911701549115992 -0.03712176083865405 
-0.00133418034497957 0.01950143992016347 -0.02265871955562915 
0.02508935827286683 -0.09019087044865595 0.03109001505103101 
-0.02088357318851323 0.05647886712408144 -0.004647451666222262 
0.158359099027497 -0.003901816031644484 -0.1576461880558129 
0.1635534757961876 -0.03766390734063881 -0.09686698167200918 
0.0202227614463178 0.08603734400164387 -0.03788973553345729 
-0.06714038116580828 0.09193974208448916 0.05181033419721082 
-0.133322569979732 0.07437057833801113 0.004860980602909095 
-0.02528825045439522 -0.09525103695731062 0.05231205182891714 
-0.008147482852656561 -0.02869451235779571 0.05124038703527887 
0.06646538420545872 -0.1735073830484986 0.06693517985178142 
-0.05548152033944851 -0.02624848402312485 0.06830891519730357 
-0.1545244393560612 0.1505595420780125 -0.1527869278101967 
-0.01662243383549952 0.08139584325686602 -0.1341344931034189 
0.1828452575511955 -0.008066162749698947 -0.05429524231343822 
-0.1126038004650183 0.1014825908505134 0.04187958307406555 
-0.08993601162599552 -0.0412446642826143 0.0429608915510265 
0.07764877250212113 -0.08309787449435648 0.02468913441914048 
-0.0322608635408863 -0.02967007994049832 -0.01532493232910851 
-0.08208948308172581 -0.0189023385958207 0.03363272332514065 
0.0004130590652517866 0.09293606647086967 0.01085981375793034 
0.1025660923463552 0.07361368703425139 -0.104511850909779 
0.0957851574019542 -0.06574890381996029 -0.1072180116056999 
0.2000886993137274 -0.07998482819603048 -0.04806508800714743 
0.02037342621989651 -0.007665446556805367 0.004176054289088289 
-0.02517502248302522 -0.02968007310054092 -0.01008215551309173 
0.08006882973221545 -0.08955622733158232 0.07142616143474645 
-0.02978028517703534 -0.04495596333579992 0.0290164244764643 
0.03330189192769313 -0.01345622714426643 0.04558795310394954 
-0.1225780611787263 0.2193973399135497 -0.09154089955858981 
0.04513816738125222 0.07020870740739206 -0.1415423563068789 
0.008965275800971789 0.1120996853969416 -0.02391727875969693 
-0.08676652572970084 0.01895767399391276 0.04046920875182839 
-0.0214707800531354 0.1721255204408871 -0.08483524938850896 
-0.03192798023058961 9.354745756077443e-005 -0.04184836697167394 
-0.04545431526266695 -0.04385385703178923 0.01273129733915028 
-0.02510456226756385 0.0242068864437276 0.03797370124257865 
0.04651896835644655 -0.02547591443674551 0.03339855180532587 
0.04636928134431002 0.03768316788272381 -0.1435418367653414 
-0.03341102710418763 0.03375797728396184 -0.04717750418987279 
0.0479205098702166 -0.004619572311552323 0.04832863888443385 
-0.1185993193381946 0.01841387512132122 0.1266416645481824 
0.007562805053674054 0.1448211867610605 -0.05303621055452879 
0.1764461094270892 0.06011464730623458 -0.06357561900993348 
0.04002750455212088 0.02223205529204098 0.001578981458496379 
0.05311754004966478 0.07925867345616731 0.01044833246528983 
0.1761229019058743 -0.09581159215184502 -0.04961859124087205 
0.01179253037244594 0.1445121898691963 -0.09363019092345092 
-0.004480076703211928 0.08870599950452006 -0.1093265680518243 
0.04177454345004589 -0.05603646714388583 -0.04582660213355218 
-0.1189691266546784 -0.0419850227763127 0.05457813976680657 
0.1265498235740257 0.0124613526648408 -0.06547413540276781 
0.101690302017302 -0.1102911752467449 -0.0558220555189255 
0.03135385619474632 -0.0675366661804843 0.01916327907980594 
-0.06115169591976677 0.02193565628721964 0.03694813912943545 
-0.03833756888441908 0.08791896262310256 0.007160344086096088 
0.1060688644533444 0.02242473113077106 -0.1052586874003069 
0.01246283205392779 -0.05939901971414317 -0.03010744535667618 
0.03024260435293131 0.00959425193301338 -0.01820734676180864 
0.1076339815713042 -0.0329396804728285 0.04020863627773907 
0.08619141619772643 -0.01318845189210491 -0.0008800729182106183 
0.06131671238775664 0.05060253830737615 -0.05217033003773699 
-0.04858179246944266 -0.116392367424392 0.01336675474832607 
0.1253448973386039 -0.0340822930922969 0.02115676323026343 
0.1931899814707157 -0.0005096143894441722 -0.08207065991103711 
0.05337706378535764 -0.012025097145524 -0.1181771509708888 
-0.08867861667767998 0.1138913517823945 -0.03495952367323587 
0.06868626321553843 -0.02062822701857497 0.0314931656558864 
-0.04143801155163885 -0.05097580482385916 0.1035149700188091 
-0.1847078271829219 0.05661080462410277 0.0439768837120364 
-0.02033606866087596 0.008838724469234898 0.06842803769889227 
0.01391354049267207 0.01381609185240481 -0.006977991074137148 
-0.042912084166015 0.03559242029433107 0.02573275272989049 
-0.069606253573311 0.005384782923646511 -0.04082312878857018 
0.1475941089590002 0.0278696829424797 -0.07239077835008145 
-0.03720286004802833 0.1219833990997427 0.04382685369576914 
0.05735611551703821 0.03725430477574592 0.02640680511255091 
-0.1019856613858771 -0.04131310449754616 0.03390344738005349 
-0.2485754619196802 0.09419593365714876 0.04834358645701251 
-0.04098807018292992 -0.070151962984478 0.1050204484748991 
0.08296414972796753 0.07402792173942306 -0.07677532680606873 
0.1552750491534441 0.1648741368580171 -0.1333144996502269 
0.115120520603462 0.1101029304457981 -0.1267523945604228 
-0.02716658552280055 0.01857037420297902 -0.06567224509529468 
0.07036127098751242 -0.08901230706290618 -0.0384253077203253 
0.1790900565581677 -0.05707844300241435 -0.01224681686454801 
0.05338174212449966 -0.021276179061163 0.0007642927327218116 
-0.05235266495835254 0.04168468536883537 -0.01639159602956557 
-0.05774094405793246 0.08341899051068522 0.01934638442338687 
-0.0834684258957903 -0.03818237720445635 0.008050290099614461 
0.1591549185134863 -0.1353930860065225 0.000639766045586756 
0.2937717247611132 -0.1208182364830613 -0.0561900368885437 
0.07276704719093505 0.02163325727827811 -0.05022207513418665 
0.1267173028328355 0.0346894322754396 -0.03936726499864924 
0.2255953278814902 0.04148167180915447 -0.08002808396601829 
0.0397637556686714 -0.03385262686695509 -0.03985399459871609 
-0.03380242994030722 0.04034156431802619 -0.1235362372501962 
0.06887052097485986 -0.02918617123155839 0.01107244894058643 
0.08723177540193709 -0.03287131038808596 -0.05686774714198319 
0.191596309074954 -0.02773360212439174 -0.0608297067571746 
0.005391125752652257 0.1190994307738741 -0.095839114360806 
0.08923824827211349 0.04370739893597639 -0.002643315009380476 
-0.1201313342876745 -0.01563755322391651 0.1012442694197041 
-0.1118542107158557 -0.01156616480903187 0.1055409574692104 
-0.05876228731455339 -0.06545471450848664 0.03196185731234975 
-0.1079496779127796 -0.005415681562041161 0.08622010796950838 
-0.06447325435703352 -0.00097559090116522 0.0707351542604107 
-0.0009744631780309203 0.1030297750754203 -0.04607786448763004 
0.08130589159685973 0.138854622357884 -0.1415913609941344 
-0.1320605887622225 0.1216645496105286 -0.0934750494183703 
0.1462199299724528 0.04899405392455097 -0.03508858942356573 
0.06163019691098344 0.007466602904670871 -0.01134389643793096 
-0.05778288318581225 -0.03990782258914664 0.05635658907867382 
-0.06721476857967713 -0.008702457331593919 -0.002816444057964927 
-0.1126214331903195 0.05281536949007357 0.0447309629684467 
-0.09385461598244325 0.1253933293707027 -0.001449435611021465 
0.02037965938378652 0.08309173586876613 -0.04697104788209097 
0.05092718234269906 0.1037636335333479 -0.1017613251556292 
-0.070922213958276 0.1069737031958025 -0.07003330162183516 
0.2153244471709564 -0.1907856054540162 -0.009476579030471614 
0.1351061255614263 -0.1282801166636062 0.02123398553604988 
-0.04812918019076432 0.04356093623788865 0.04075982982520835 
0.04688221182016762 -0.1098708968933902 0.01625953402979883 
0.1140071193196351 -0.08612520687677656 -0.05232272494917313 
0.01738258082163933 0.01443725135631734 0.03439416659641383 
-0.09495408786833472 0.1567820385666074 0.01175766807636985 
0.008232460881916402 0.01232472403195595 -0.02454501374638168 
-0.0286972424282191 0.1242884298740028 -0.1228213210946087 
0.1516807791497739 -0.08398884902986323 -0.01995256170295805 
0.2689852176258952 -0.1252874583018321 -0.05639179583512326 
0.01814311516587706 -0.04296379320471274 0.01121879798344088 
0.07961371393323737 -0.03493965578172491 -0.03648134723379857 
0.04806371290219623 -0.09994192279307736 -0.0331942911170201 
-0.01043026035875424 0.1256841653744243 -0.0152998612148916 
-0.1122181210277248 0.2182807007244411 -0.07424295582832685 
-0.0394818508479797 0.03463239247372055 -0.08979188004159663 
-0.1369714397741748 0.1384974526586532 -0.1332671774727632 
0.1601463738217209 -0.03299260188490583 0.01878005409412334 
0.06932386600207316 -0.02623708557892456 0.008840825930389606 
-0.01444285212188235 -0.02446616170301786 0.02837693981659372 
-0.02064510682685817 -0.004052634702953441 -0.04822573453145779 
-0.1724844069268142 -0.003894833668176195 0.05846060954094447 
-0.0893166802109864 0.05075206523560961 0.02993669011813559 
0.0888508188028148 -0.02377508496690091 -0.04915970444405694 
-0.07790457847675029 0.1960554135571107 -0.1365420108878148 
-0.07165646783785561 0.1605888374993475 -0.06105135917460222 
0.02444640299452566 -0.006110938620373125 0.03582800745608592 
0.01703551641777609 -0.002451869957478893 -0.02599050252234424 
-0.1376120965946353 0.04807245027636746 0.03362579593168009 
-0.02000734161524109 -0.02364705503487478 0.04413050752180703 
-0.03315965246194323 0.0181134282141602 0.06231112238387791 
-0.05051702232003271 -0.05626548279017929 0.08353856668882084 
0.1940050210198886 0.03363142092457699 -0.08786275043516051 
0.1477112816186226 0.04537421301696311 -0.149567983882465 
0.08995830409734393 0.06986642528573236 -0.07576447012610575 
0.2333649291917614 -0.09016216755266654 0.04778931239755899 
0.1827004026589809 -0.08924223612230717 -0.02215177777598294 
0.1250696900711328 -0.08271781892549876 -0.04697016464248213 
-0.01747637345592782 -0.09263564634356385 -0.02914067397603964 
-0.2495836002749135 -0.01017112540925228 0.08119425913243245 
-0.02436550099744711 0.0567948076084627 -0.03034502207033612 
0.1026898920930169 0.008192997905171187 -0.1485497141647369 
-0.06088179695288396 0.1710642730903278 -0.1734514595317753 
-0.01000583586394653 -0.01543112485825062 -0.05872985446057427 
-0.03707231316315304 -0.02340505543881125 0.06990662540184379 
0.03537826650872948 -0.03242524807246827 -0.02205859827873145 
0.04540075132887277 -0.006212759448071852 -0.04143292847343084 
-0.01981315187466174 -0.1064880987813262 0.04999675802685397 
-0.1627881238854762 -0.02397153142281972 0.1310368966754183 
0.02289891200817288 0.03009442914271257 -0.01460470161399645 
0.021232598207558 0.1748705281186894 -0.1817283494667731 
0.055482084019791 0.170131146145169 -0.1183919719938144 
-0.01258632145936225 0.004838906160218769 -0.0552368917682145 
0.003856810870664382 -0.01406901674493702 0.03445804596267784 
0.01227811612665377 -0.05111772164972557 -0.05294134329791755 
-0.1444029138691883 -0.01243330194972304 0.01472107306049684 
-0.00623448814201951 0.06411754366995576 0.02277777113731428 
-0.05979325962465241 0.1153342974798661 -0.04051409409106713 
-0.01959213370990267 -0.05784595392911225 0.05106492149967924 
0.03228782179583651 -0.0437661701019044 -0.07561704469835073 
0.04120086650561898 0.1070455026209464 -0.1501981936541852 
0.03945100961421783 0.007358845036336124 -0.01745221936147136 
-0.0686627826496843 -0.01914584207002034 0.04076164994564147 
0.07738638273500065 -0.02794721185336261 -0.02292078556218108 
0.0398124671778824 -0.01214646811041654 0.01951747088897293 
0.08523934719079357 0.07065258323154329 0.04560061581852387 
-0.06738682253814622 0.06715895559363296 -0.02391891624280368 
-0.03422902863521693 0.03012652686999491 0.06324238841978176 
0.1027167817977405 0.02400236219287883 0.0363297862721656 
0.1955018240022128 0.04566438175981021 -0.06208100662660048 
-0.06382625694559022 0.05128835507764826 0.03790898519394664 
-0.05778322592182492 -0.06984080925663415 0.05582154435001539 
0.0676753828758602 -0.04260739758647382 -0.04433142402347249 
0.02411319428177394 -0.05077879973411126 -0.06171351718804169 
0.01117692037487524 0.06598669264050056 -0.04601119504637074 
-5.323378353997816e-005 0.02162355313936682 -0.02697680919197372 
0.001711755512732792 -0.09504053601621622 -0.04221408210601033 
-0.01404920284994305 0.008150200207227761 -0.1216832141841398 
-0.01749576073974466 -0.05556058097210553 -0.1554278208701092 
-0.01516238155522001 -0.08066475033566115 -0.01314621838694545 
-0.0402944256276019 -0.0304821675060343 0.0527858643307151 
0.00120438853139046 -0.005467361964641516 0.03746091503678703 
0.01335699008724845 -0.01968611003906415 -0.04538294146218605 
0.09482988138056703 0.05275143260752368 -0.03465431237810095 
-0.03074303712759431 -0.01016312755532221 -0.07547048263946649 
-0.05975386859238619 -0.1086260255931147 0.03675175896179772 
-0.01544658267338115 -0.08085458175641654 0.02912537485015649 
0.1283198940944006 -0.1221058396697996 -0.09500535897379474 
-0.02867090449740567 0.002987825214487311 0.009109955996806569 
0.05445718939181814 -0.02466577394644683 0.008615561288020563 
0.07138865962607767 -0.07083135720814829 0.002601839450621458 
0.0625596873549496 0.07867333192753762 0.0342659764334171 
0.07983236113222093 0.1181978064107419 -0.07675718254662547 
0.08527243125049459 0.04774808468301148 -0.0267094904591209 
0.2864131406575199 -0.0493213481505258 -0.1357163782649677 
-0.009659937198823639 0.08503344769777871 -0.03442152299672063 
0.03186651299450707 0.04874369309564974 -0.03018433080225198 
-0.0500785972756253 -0.02409035708078721 0.0557305870838701 
0.04145433409305578 -0.05449626962104081 0.05773389213970833 
-0.02972301190901544 0.01673741653980843 -0.05235534630556964 
-0.0004341916658363573 0.05057714487225302 -0.06942555970065434 
-0.009161901415717001 -0.08970025530520252 -0.04663209352820443 
0.05799448835687276 0.1054336879582662 -0.01995224766602533 
0.05523302651587583 -0.07513741168882354 -0.04590668731028993 
0.008521527929907503 0.001052914659601227 0.01340992192072094 
-0.001368302000219434 -0.02882600668953864 0.06356656152695558 
-0.04930852962978791 -0.03206173772672162 0.05504746716885731 
-0.1221876812695465 0.03724857037602539 0.03339079459533292 
-0.01281220154381617 0.04699877488068768 -0.005645599461325163 
0.03396514478156107 0.090100444919335 -0.02173251748577788 
-0.00993060108139739 -0.06542283769829779 -0.05664326586152626 
0.1006678109620768 -0.08045961286796617 0.000666586274030223 
0.05187602913690298 -0.01633792913414536 -0.01355807095775217 
0.07954422582080382 0.02001034019630584 -0.04081559058445193 
0.02656542744849714 0.04927848699473764 -0.05141409954061739 
-0.1164275329394365 0.05862368021663515 0.03630654126399965 
0.02102514301200222 -0.032638608360761 -0.02019508787283571 
0.05486157968998485 0.1157936288024672 -0.004282385727919485 
0.04690687014550021 -0.01890501484240413 -0.03488456654053666 
-0.2264778823724863 0.09111996908340726 -0.05002279173260386 
-0.06318432856796523 0.09396900473683179 0.04636378707932429 
0.001714370923725079 -0.05260922319337821 0.05349462615009069 
0.01619593267500029 -0.0362497234940054 0.07123619798395152 
0.01646309395124157 -0.004729268733646071 0.02991226849022417 
-0.06240282867807909 -0.02964229425764144 0.05753277708857157 
0.00745452643961596 -0.0007393135610053408 0.0956405200002529 
-0.001312634556026234 0.1600743044022688 -0.1148044575512779 
0.105424077243796 0.1588588933786742 -0.1851471542951559 
0.09184424888216991 0.0607041289324854 -0.05283246825794123 
-0.1979479252642441 0.06392878794984254 0.03052495297249344 
-0.06798214098225096 -0.1064344285032202 0.04116154922312194 
0.06070819250614369 -0.1075398132750467 0.04278229020067054 
0.03292590979816835 -0.1029604918829706 0.05646941166226036 
0.002354027081334605 -0.07945711038868637 0.0289254728399945 
0.1144178688381786 0.04272837016814572 0.00560461982817152 
0.07246035399540979 -0.02324139389275405 -0.1268846445762427 
0.152099867276474 0.07867239571343407 -0.08680014607143934 
-0.05323192699951325 0.1487241710225293 0.0473985356648586 
-0.185985016242313 0.08514182176067665 0.02574903120725957 
0.04332854765200367 -0.172650141311694 0.06070931348970922 
0.03666652325431633 -0.04480391711051191 0.1035297752758402 
0.01631888036787821 -0.03716685568512444 0.03467045890323287 
-0.04666870613030923 -0.001349608707606783 0.04870073299738294 
0.0308350744994614 -0.04516641954787866 0.08723774540643148 
-0.006651772691197874 0.1604583674458976 -0.07602602173562562 
0.07578063133524778 0.1508950444619022 -0.1551227517210813 
-0.08424846629092421 0.1236539946114009 -0.07691331964796312 
-0.1163175601059583 0.08151942070823484 0.07668971073998751 
-0.121148789010791 -0.02853036011624132 0.09606958283995927 
-0.06645154183957813 -0.04065868871756627 0.04071140090245488 
0.01531868220776271 -0.08254145904728101 0.06041081466476182 
-0.01915018693270763 -0.0364820977244939 0.04609371344309563 
0.160792415152828 -0.02173665677159863 -0.03605733693882373 
0.03480985098252849 0.01507434810707695 -0.1094099258545747 
0.1887659895059199 0.1512814275400918 -0.160019053463697 
0.1337047261841869 0.09662338968138384 -0.0549622899895701 
-0.2687070836779336 0.1591848259829108 0.08831269313724958 
-0.1045681452548432 0.003166495401348601 0.04558244416359669 
-0.05252230638080799 0.009836610384149416 0.04784503006519745 
0.0191520573630134 -0.06675112744417247 0.05909463622118378 
-0.09182162234465573 0.005591416338775536 0.1016591695251937 
-0.1604189698322405 0.0319639086952745 0.04732359734348798 
-0.08093064246442594 0.08749004427044235 -0.02059724603428805 
-0.04225468747918997 0.06764907638690472 -0.01604664139774258 
-0.2587693733492153 0.1481949333625434 0.1078882152868993 
-0.1041239727362788 0.03352817092984483 0.07497157355488164 
0.1389775162495423 -0.2048783905359133 0.02711121453517625 
-0.06501290249639791 -0.02466721745638993 0.06934320973718532 
-0.1869134903654531 0.05227468865308305 0.02252503200579121 
-0.1833047850599058 0.09055162197324064 0.05340276556410998 
0.0258241159646349 -0.01286575300562593 -0.0663263261824654 
0.04542046176522618 -0.06102801509412659 -0.005780114103165868 
-0.05792903346695991 0.1437952332536268 0.07904723381616816 
0.006885712590787315 0.1107626873874092 -0.01140921267073786 
0.2734976988037849 -0.1728747241024566 0.001998499701732954 
0.1450103982781762 -0.2100402261140275 0.02597922732522752 
-0.2448648359329628 0.05241125099905161 0.08398513862235714 
-0.08545995151730064 0.004647280710083971 0.02943508185324986 
-0.08552159706768384 0.03546999042473658 0.06599747922613217 
0.02819901677005996 -0.0467263744552517 -0.0330907099112264 
0.1554330948187425 -0.1745977696288338 -0.09430032073825878 
0.02633747147240568 0.01291146714915198 -0.04034511371578702 
-0.1215692586954485 0.1684502142621072 0.03925881017018428 
-0.1578894758994165 0.009702165500023773 0.09259610597121733 
0.1242642962905288 -0.1915701528218884 0.0265716445507541 
-0.1127858330370735 0.1331903438554953 0.001499764065794809 
-0.1957761742504232 0.1263014007278893 0.007655979703269805 
-0.2305524727949644 0.02061911094304706 0.07615748423761273 
0.08688940606155905 -0.1089826461725257 -0.09615021325046684 
0.3061635808175084 -0.1967099509829562 -0.09585328312759621 
-0.041736732302787 0.1295450048983863 -0.1250817902525035 
0.2039271571410067 -0.1176002066730027 -0.01817000934529797 
0.006981898459822278 -0.1423793015524099 -0.00959692169482391 
0.07292046424120922 -0.1996431097940369 0.001771410823529923 
-0.3008814864959879 0.2270433888689026 0.06751643170554662 
-0.2059987614882734 0.162501035487099 -0.02506087195976027 
-0.03795037309673965 -0.03139003952758622 0.05214364347822063 
0.02724772022917513 -0.07773337695196256 0.03514392187659658 
5.484227318945076e-005 -0.06435498696934155 0.06272306835334419 
-0.04296064177295864 0.01625943789104587 0.1320249783687194 
-0.07020968168595562 0.06126394870388038 0.03695931351212123 
0.1126315894851822 -0.1493301447052102 -0.03155299773268264 
-0.03420516160428488 -0.1374822237944181 0.08541527952965308 
-0.3134595233864672 0.03117420597368151 0.07119121789958741 
0.04534234193488091 -0.1304062583666667 0.07088911676158118 
0.02968386973842104 -0.02624970307033636 0.13851727296858 
0.02460991509019468 -0.1153942041832045 0.04208796078551589 
0.05843847996111296 0.04183132079670319 0.01383032436940706 
-0.0910540317866206 0.1462922157376452 0.09298732406224038 
-0.1548932927981001 0.1293714650785535 0.04722381111252737 
0.08145723938835218 -0.04634263469330341 -0.0318987477625339 
-0.03368008141381714 -0.148005514927659 0.145502751310822 
-0.1196395760446321 -0.06292491729972788 0.09785436067388807 
0.1224165446611163 -0.1983882289387877 0.09717943812606139 
-0.01351477077208712 -0.01811792690757678 0.02814994014256585 
0.00427062128757899 -0.04267116283987473 -0.03766721103816031 
0.1011725801148746 0.01838547121814749 -0.08392829660702494 
0.01519118626190341 0.01403361581219978 0.008240631132759193 
-0.01525528893405922 -0.08878558961076472 -0.002315294445503204 
0.1552785112265227 -0.3095277996411002 -0.07893097362820781 
-0.09900734341897652 -0.1895645791352433 0.04377944446684062 
-0.3696943987195921 0.2451631719642617 0.04777787303970093 
-0.1709350853912418 0.1290084053983508 0.009933841920259777 
-0.02672795759536352 0.07296114280166757 0.01038511338430531 
0.06487223811492486 -0.2018385478843414 -0.03625873585666311 
0.03477163800608822 -0.06116867815376138 -0.05349684584408927 
-0.01622518537147042 -0.009902218479539555 0.07889458045925116 
0.02833113969233827 -0.07714918668478804 0.03455192673508045 
0.04583303994863668 -0.1439451758250576 0.02795320135931459 
-0.1740489836884786 -0.1303242237003017 0.08631626980647437 
-0.253329674499347 0.09626040544671814 0.0644578905045451 
0.04833209518509161 -0.06666412110760843 0.08876914688317816 
0.102860293020786 -0.1402718661789084 -0.03651981928613062 
0.1247754753457991 -0.07434991053285035 0.02189373469708195 
0.166629704631011 -0.04913848119023548 -0.04779016804488172 
-0.210397560041405 0.1894632325510852 0.03694461145779882 
-0.1763152793553182 0.04528235578341024 0.04614557167299329 
0.06816982271725232 -0.100550275554686 0.0338153286056098 
-0.0388494139119565 -0.007642021497770907 0.09074244458212284 
-0.2953428060562454 0.2592954632829798 0.05376775809509899 
-0.06800559226194732 -0.0002400965464339041 0.0604744958857391 
-0.08896685749018213 0.08184325587421185 -0.04050769305185008 
-0.04635976225518348 -0.01939825388011331 0.08159350262283033 
0.1697677210915582 -0.1015520520707134 -0.05378251108721765 
-0.1087038411338968 0.1164478418906561 -0.02771506439043009 
-0.08977026223801894 -0.008021359098060166 0.0863043050796269 
-0.06807807526685322 -0.04454130430128762 0.0610632877724849 
-0.1934123974032176 0.13636845240176 0.09100553024033423 
-0.2809554124709972 0.2567439808346564 0.007495820160430235 
-0.05362920783085502 -0.01511312155125779 -0.02962818484394173 
-0.08004972129595282 0.008978470886908088 -0.03308444835801653 
0.01735906003422637 -0.1668301298438348 -0.03994657513633422 
-0.04559982954896156 0.009828771303185754 -0.02445134829232813 
-0.1927481392939013 0.08426273469036262 0.05988176264165793 
0.06570249873540146 -0.124806905181601 0.06875033089106636 
-0.03705021380096936 -0.04354098020232303 0.02389550794856849 
-0.05052101846045953 -0.01598925061804754 0.03545169532362367 
-0.07123512808826375 0.1369808860072058 -0.002906190169694978 
0.1008452417796553 -0.07351250983660773 -0.01927617468140085 
-0.06627211272344692 -0.0393552557236142 -0.09323549139056118 
-0.2627635822063903 0.1468273919949126 0.004842149023461436 
0.002230310608001256 -0.0225278826838273 -0.04380938819448422 
-0.07500394558583559 0.1112732985795303 -0.01566253080752506 
-0.0487319310044923 -0.09184858991413353 0.1105384090169271 
-0.07001875246096924 -0.01242111331572616 0.04382786334360017 
-0.1593977299514215 -0.05703948558996975 0.08653264037313585 
-0.08079894244971501 -0.07633450241761408 0.05456380490507606 
0.1389348994039633 -0.2644660101017842 -0.002417121992991748 
-0.1147200530544185 0.02290888518066571 0.0042056420252267 
0.1102979819779196 -0.0427361658530288 0.03313292933234417 
0.1652184761339773 -0.1506752120017349 -0.03208915834823679 
0.07905802216436876 -0.03324958613374796 -0.04056164576247149 
-0.05819154735780491 -0.05060444236524722 0.05188228209862092 
-0.1911283280802931 -0.02778658644371947 0.07482272700631222 
-0.14400094647488 0.08348115428558313 0.05106775190281163 
0.1645975249980607 0.02732579073423372 -0.06842544299337734 
0.1607404146337504 -0.1752315282867988 -0.08918630334421145 
0.03650580367464043 0.06808017168830161 -0.04973816406600106 
0.0256200019798784 0.006235700437267143 0.06658932463407265 
0.1313391441057018 -0.1068689668342968 0.0006693722518084247 
0.03902858330494188 -0.0921737969448105 -0.002707641874150648 
-0.1431776365881203 -0.02248148110035489 0.08526808518628834 
-0.1923996074779483 0.03283540456412257 0.1241457632472207 
-0.1268121051097511 0.1451315434465204 0.06231106053809093 
0.0212919371710598 0.2261733367038844 -0.1118943764577155 
-0.03034917877761122 0.02631931765366078 -0.06087314341437351 
0.01220336538002608 0.01990919903855321 -0.03384555615303451 
-0.05658430109091846 0.0648434175155886 0.05150911404245433 
0.002476910619551258 -0.06182158683811721 -0.03369821355133389 
0.05202110178222817 0.01649052789762471 -0.0237996507711151 
-0.08639095700759164 -0.02484166725495461 0.02218999337768681 
-0.1833601496561113 0.06560168627154439 0.02498640985807701 
-0.1467988878912777 0.05786211803272639 -0.008531283641746096 
0.05847238778502699 -0.0967202226759752 -0.01535027365808194 
0.1232814956807301 -0.1624700218393788 -0.08072759762027842 
0.04392618959156071 0.1479835133474809 -0.02091218205742424 
-0.03035569671033187 0.08111886377517825 0.04628329112343906 
0.06064773987993549 -0.088473880830651 -0.008909930558857885 
0.02298960133670405 -0.05451248771334646 0.06650522993918681 
-0.2034356284327292 -0.1113157454849918 0.1320968688458896 
-0.3255761792836371 0.1540907814261827 0.1279348244416061 
-0.1261840621740007 0.06830301503595858 -0.006263470360036483 
0.07426913873175275 -0.06214383114437202 -0.05908804358219625 
-0.08039017064961423 0.02636239468315784 -0.1060061693589286 
-0.1050952656735042 0.2386356155992519 -0.03049067254156478 
-0.07737143137797001 -0.04087626812055043 0.07537397075102653 
0.06678180213715564 -0.02802280736888234 0.01175714370392779 
0.07380499839926118 -0.1117738040949845 0.01232504120631359 
-0.006462728247635551 0.008085568509324808 -0.04451378127682838 
-0.0001712199689751261 -0.0203199611371722 0.0745810636814634 
0.08879304861865806 0.02403620300469915 0.009419183525956091 
-0.0863835476186022 0.1354701096891021 -0.07345873122208695 
-0.04100579340827105 -0.09521739286441784 -0.07185911494929777 
0.05879854333684563 -0.0521837100271803 0.0006810421499396186 
-0.1221779841080799 0.01929813481776975 0.08313308632893166 
-0.08074344666231803 -0.003498114675965366 0.09321454668235438 
0.06086281104783669 -0.08960746288983036 0.04135600676803017 
0.1090371235051169 -0.0530940467123021 -0.05715400116169316 
-0.05334111968586576 -0.01422407244840304 0.08434147258765119 
-0.1367363139138155 0.07684817744517909 0.03695437590147607 
0.06091342625426675 0.07627657822256426 -0.06795802261480713 
0.07960387703923613 -0.02764682309234204 -0.05996690077276167 
-0.1029548907736481 0.02305271113690438 0.0741483204948535 
0.06484584698102286 0.01146103304455777 0.007406867436626348 
0.1157291602414554 -0.08327536761255609 -0.02907687954151502 
0.1392919935390693 -0.1583756629485431 0.03808104304637692 
-0.1215139000455049 -0.07429450062519231 0.05571701044179661 
-0.1416502614684064 -0.04293312373783092 0.0654830085910036 
-0.1508355346754657 0.0204940670748532 0.006940389208050202 
-0.03985589259748842 0.0052282093141925 -0.1332268851041845 
0.0443009556263551 -0.1270332809349179 -0.05326752261302871 
0.01265053984735274 -0.02721678612518609 0.07157610905916738 
-0.1721554412155922 0.04075912136699102 0.09770195308130485 
-0.02285252892664872 -0.05874184370832918 0.0176937140068503 
0.008064561135246185 0.04645846027025999 0.06007394081299877 
-0.09265642124735898 0.0007522824327308334 0.01511103306146847 
-0.142692823535137 0.006428524791050506 0.07731866106091177 
-0.1490833753942882 0.0457798236409191 -0.04882284445240254 
-0.04129341441147554 0.1883146465062705 -0.1081268138466644 
-0.08313562845148048 0.05747674592525408 0.01814378506519743 
-0.09782071266722293 0.03407094320980279 0.08470910118720758 
-0.06912552722461639 0.00644962725095647 0.04584564436689275 
0.0346640977960866 0.04839646099942375 0.04027329442291951 
-0.08513378437642878 0.1723709461644545 -0.06640731039857957 
0.005647134560650444 0.0703358972274559 -0.04924715617494115 
0.04294403072696466 0.001329118890144081 -0.02146630755435652 
0.01063831296048936 -0.01702895833524843 -0.001378485381904919 
0.1120594635029853 -0.04998718947942712 -0.03420075641691806 
-0.002568457941053461 0.01932042833115178 -0.007740533035055658 
-0.0912513303724706 0.08681767416492285 0.01949177923281883 
-0.09358369685179377 -0.05438887072587877 0.01401814352258009 
0.183728305085629 0.09462081564274946 -0.05202169601639554 
-0.06180319404230374 0.1667997951611857 -0.1263118566363963 
-0.02480231823100667 0.1648632925469013 -0.06229714527312225 
-0.04366505466003415 0.08237270705139768 0.04688388701526583 
-0.0645037476250481 0.0009051822849312075 0.0736358686505048 
-0.01050802673075695 -0.06261654143140764 0.04419646148524398 
-0.001982592914354185 -0.04476083654640894 0.02032399364630986 
-0.1157275811681102 -0.08460897256200112 0.06859177729561944 
-0.02551069749458368 -0.05138119002931884 0.05550980755072901 
-0.06028791993933431 -0.08047772289793859 0.05434207737454721 
0.01533154735942637 0.1838791141032549 -0.07184902681611087 
-0.01084471088460241 0.109418860723993 0.033096908880837 
0.1023591786407535 0.06021978840071113 -0.05303070350285927 
0.04627320826994784 0.004733608524344533 0.04521975655544577 
0.05810731227773913 -0.0174432020056146 -0.03562791790363368 
-0.1058798766326879 0.04007785045272366 0.04360225647188532 
-0.02141978857508346 0.04621726608909716 0.02008007213606753 
-0.2089065346312795 -0.1172842519368984 0.1125883433171423 
-0.03451807379502912 0.03966929915394474 -0.01238035569947146 
0.06740862324607991 0.2102802093668298 -0.1483067127011309 
-0.1762105762393059 0.1458255509982091 0.0150799565054398 
-0.1199013863511026 0.0457245879715612 -0.02758177736261794 
-0.1431718643885458 0.1675636500382196 0.1252745609537053 
-0.09642579266978441 0.0356146489959503 0.07573761563625356 
-0.05607300044348323 -0.04689179127249124 0.04219760590923454 
-0.1305851585739349 -0.1546303548291675 0.08667378216900497 
-0.08058739948989292 -0.1263462245433778 0.1153169083118812 
0.006825261672152286 0.1193487437026264 -0.03180575378998603 
-0.1397291323439709 0.2496877554251161 -0.08688801372280587 
-0.02867502642110513 0.0006004043381303114 -0.07047852442342956 
-0.03018600379689783 -0.02372792005993784 0.06362704433105314 
-0.1642212826496829 0.02855735917530046 0.09781282086380856 
-0.1158459651715491 0.05760186890988241 0.08104734559244967 
-0.0463172063148637 0.01790977866191379 0.08543290485888684 
0.001411965838444083 -0.04838615843447387 0.06981970242193791 
-0.01020173888412337 0.003916982169505539 0.03830851387056876 
-0.1264436529530805 0.1194722478992352 -0.04414704732671596 
0.1531866193674616 -0.01081808308883377 -0.08056826817672355 
0.1819173809481193 -0.07480963951872711 -0.04055707381828012 
-0.1324731572653551 -0.03387244451563551 0.07821993626561752 
0.08231340580843352 -0.1142206261303613 0.01406702250990537 
-0.05281612373125366 0.0302579767588467 0.03101229742791736 
-0.05848019954159037 0.04151374143072816 0.07175655375229705 
-0.09481693253776824 -0.008623204657611157 0.1032036657523823 
-0.2713090945809045 -0.1233970824569138 0.1698471893806109 
-0.08335732773139383 0.117788920744555 0.002933805921047409 
0.02050213141537792 0.04968939147152463 -0.07078052032577901 
0.1113893418833088 -0.04951153906768567 -0.02073006287410209 
0.2300225243481063 -0.186051036637509 -0.01706672518446068 
-0.0918882588218212 0.005036779997703457 0.1158399684326664 
-0.138277210974329 0.09203904913558676 0.129233721113389 
-0.08011113751842315 0.03475459356370651 0.06158733853392728 
-0.0481495166821277 -0.1478960178710632 0.09293106489585247 
-0.1723758444412367 0.03301631256106259 0.1059168363274155 
-0.1085565588100849 0.2231586670618696 -0.02532780005431664 
0.1604265082010662 0.06137020530516289 -0.1160572943102423 
0.0966682138092093 -0.06143544764000261 -0.01113591585322381 
0.2194414588533533 -0.2282139538548325 -0.008207623619907331 
0.1161241689534772 -0.1637014658790295 -0.03611243412957866 
0.04687813477635647 -0.05741589473858055 0.01808850774749945 
-0.03269464599692083 0.05979708163945579 0.01687932259997178 
-0.0298097318307485 -0.0216370766910848 0.05717780702735878 
-0.05442965964444901 -0.01069215718989591 0.06742515654901278 
-0.06227124929915691 -0.001151212124233316 -0.01747725684091426 
0.03256459850646974 -0.1394039037014108 0.04138723271554584 
0.04634863442467589 -0.04953561669736774 0.1322900867754155 
-0.2007901710484438 -0.1581012232726101 0.179759205786734 
0.1488419345511593 -0.2742279390968953 0.06521672731322063 
0.03713875859165087 -0.01857835968679932 -0.02695197029595056 
-0.03466711436562499 -0.0008451410704573562 0.05667788506806367 
-0.09594921289200166 -0.1336318535723337 0.1391973851682086 
0.08580315156294154 -0.1056609125259732 0.03125706828634203 
0.04308452079558681 -0.05867002647743514 -0.04381909238487833 
-0.127778525106375 0.05351830950152557 -0.005788892282038178 
-0.1967995170242045 0.04848725141641131 0.04705021020350345 
0.04303185605313942 -0.09490488001269871 0.03263521565982773 
0.1702457303991161 -0.2022386210310342 0.05041696362847579 
-0.1197464523683833 0.07055771627183836 0.0574714962361194 
-0.02241606721117266 -0.02417196399100622 -0.01621097134614452 
0.03536955476457028 -0.1545996925981902 0.07058412624724345 
-0.0976585204874406 -0.07642117083952338 0.1329577187619005 
-0.1421427317409919 0.1184554523795523 -0.02607278297092388 
-0.05356299024904498 0.04067759253273522 -0.02269360087749971 
-0.02060722682752822 -0.04851296302530085 0.06840906772436715 
0.09343950962221888 -0.2415707189154509 0.1342382057319043 
0.1244695069317418 -0.2244941093867242 0.05085965819894187 
0.03410394748672425 -0.03950717242894501 0.033170317086977 
0.01455144493886642 -0.09449131108649625 0.006574631044146065 
-0.002981948747967278 -0.1142295411011435 0.06126142467025568 
0.260463711518801 -0.3165258717881999 0.04108850520135023 
0.2268739656555109 -0.177121313639609 -0.07053231530457021 
-0.03367725255476826 0.03345186016262067 -0.02750811343713574 
0.02837657926681571 -0.06089844734749383 -0.03013323004940592 
0.04487690989264344 -0.1458003100060989 0.0595197351949287 
0.2332965317273217 -0.1619665839269402 0.02243126589749748 
0.1211588198198907 -0.1339312317433499 0.1079179847029912 
0.1635802312921298 -0.2126004291207913 -0.03108758426270765 
0.09541105599718794 -0.2531936339576761 0.02365183555236092 
0.05016155796997907 -0.01601056187669937 0.01325928814559957 
0.07599073548973506 -0.07667895811947324 0.01767335268654728 
-0.002473738171662853 -0.06993059489822245 0.04715479862576353 
-0.1077629908228129 -0.04423651026026746 0.00498533296151498 
0.30856900520987 -0.2670549527679546 -0.02146406560018059 
0.03665645211408375 -0.1565504583312742 0.05067032419995897 
-0.2950374858852292 0.1552272483563016 0.08443462385647811 
0.03138056133799103 -0.01652164126103484 0.02851312573139154 
0.1028696112846394 -0.09891745546868404 0.06257469595234372 
0.03682422901508165 -0.1327412025816739 -0.001219272481037636 
-0.02357101554533682 -0.06993265933400462 -0.008584773812574718 
-0.05476850510854714 -0.05534982767661543 0.08142230429586329 
0.2051311508203204 -0.1954212439541896 0.00456721864376833 
0.275539712625058 -0.3854315782029664 0.08081727197431801 
-0.03689291309456791 -0.1477144612698513 0.1101938486883389 
-0.2019065428542606 0.07797538190575752 0.1184258463273161 
0.1620141778941133 -0.1538473331651701 0.04810020937753844 
0.1475883643099155 -0.2011686949493531 0.005643525938424456 
0.1636881023674952 -0.1927907931793125 0.0477895490053312 
0.2597772923084517 -0.2309772924488623 0.0417026351453406 
-0.1744610159767322 0.09643009604186414 0.09016280686975257 
-0.1760613952517007 0.1487622642774473 -0.00933748064805622 
0.1920936769689086 -0.1802212861663224 0.04217052214299036 
-0.02973685032032902 -0.02446544678509558 0.0335477790421311 
-0.1945824265092812 0.09058157996016136 0.08079026241822736 
0.06574694405192108 -0.09218316138139868 -0.01922896908120359 
0.0691389042553691 -0.1817680534086594 0.01501588440911111 
0.02141937843126517 -0.1492754137546975 0.09448655973752153 
0.1403050363137247 -0.2099554438151357 0.03875030069447488 
-0.1116120167914416 0.005813230820343684 0.1294560332621271 
0.2804093324546891 -0.1955384935862628 0.009482253730270023 
0.2691100465340338 -0.2866292102414495 0.0833593331813363 
-0.07999585224074644 -0.01364178501326404 0.0644910041276104 
-0.1744156213531367 0.03757489052387791 0.08149387695218414 
0.1296531416670425 -0.1903710940548667 0.03793639419240302 
0.1378751876823764 -0.2902420270368806 0.06367006667049707 
-0.05932164990593738 -0.1186239176146144 -0.02451362552545531 
-0.01848364744392144 0.04360286235916067 -0.0207628890920984 
-0.01231815949692787 -0.08419627878720966 0.05789446739175761 
0.2749149006319845 -0.3472613808186847 0.03646132441319597 
0.1865245995092223 -0.2626501474076161 0.052199723158118 
-0.02343320925448572 -0.08379919968544058 0.06653026217489574 
-0.1669000389911053 0.06763912350367927 0.07099400121449534 
0.09890337436379462 -0.1123826311416439 0.01635839508161625 
-0.04702044560707426 -0.02855513564730909 -0.05605654736818615 
-0.09433981162696836 0.03284872580566953 -0.00282758141621167 
0.2119923933322718 -0.07767949057768445 -0.06706637322834382 
0.1105069589005306 -0.07520365602902929 0.009690904927627368 
0.09786313644745893 -0.2371891870488058 0.06870207703329521 
0.1121348135389032 -0.2287412108092567 0.105704024321581 
-0.1017441085738751 -0.08615175812855723 0.1091123998583535 
-0.04027053437466973 -0.1816604608418983 0.1757571578332426 
0.2011728768922257 -0.2914724170478938 0.03244037491088234 
-0.1044414295327933 0.03058070450001389 0.04180947963742527 
-0.128004349461825 -0.05648010307980567 0.02040647849347815 
-0.0125826509113355 -0.08959900010812527 0.05308160369946251 
-0.09405806973385876 0.03231701076280323 0.05284052889938333 
0.1925615536065566 -0.1701793831156429 0.008819643089761711 
0.1677445614626435 -0.1310631109379423 -0.02353793087889178 
-0.1288408743971448 0.05921797166258325 0.001533030748386689 
-0.2361253267335609 0.0867524370758189 0.0485120088207736 
0.1858650257806852 -0.1029104848744327 0.006639613754702138 
0.08052888918652035 -0.06412838175105592 0.0171703117542543 
-0.1947365745078553 0.03541012887568523 -0.009877877587457448 
-0.02659633674214899 -0.05054512667195132 -0.01033387050623806 
-0.1305744570647541 -0.008202157877316827 0.01288531057623621 
-0.004105144212654861 -0.06996059781618934 -0.03090353015330409 
0.1337692296435422 -0.1800449089088858 0.03596175308241848 
-0.1752578922077368 0.0862160234443104 0.1078484987073684 
-0.1358055826752405 0.06545994991032188 0.0475928969128245 
0.05678570348999586 0.01803921549929856 -0.005423201939953542 
-0.1952956421038359 0.1575690924441375 0.04265607911749831 
0.0774289961568229 -0.001372986500725622 -0.01060440118631697 
0.06367686669100371 -0.03585090201423639 -0.1056116595195082 
0.1108685572234136 -0.1126373621267565 -0.02197492245796618 
0.2164886293857144 -0.2021649081721007 -0.0324160010655502 
0.01046593541826963 -0.1285164762378473 0.07792410048934489 
-0.03638581694682064 -0.03741145445445303 0.007950483963407105 
0.2271506592782718 -0.1743079847965034 0.03479549697629314 
0.1681038464047193 -0.09118706679435044 -0.01538808763269959 
-0.03793895195356627 0.09527151313203368 0.01466990556449941 
-0.05051547219921525 0.07481268417408615 0.04829780995148054 
-0.1157817958083573 0.08549549146302422 -0.02502828027046187 
-0.0190430020454328 -0.0564196224799286 0.06265825479216601 
0.01349248214287382 -0.1952494830531407 0.05576761468557437 
-0.02022154138336871 -0.02110526057647011 0.1459776191058081 
0.1137318032309105 -0.0614192944826723 0.02832446614804561 
0.1502243788512783 -0.07721036324697357 0.04494225392303205 
-0.05298060603780023 -0.02472979181355589 0.03979288159625911 
-0.1310470730739121 0.1270611424386478 0.07530822367390092 
-0.1282957607461452 0.1280674882175174 -0.05504772571271464 
0.05166548842982925 -0.05519443930973201 -0.0670022636944429 
0.100278557041908 -0.1399021072992097 -0.04393706878913616 
0.1479957561561436 -0.01652306052037447 -0.1030872876028805 
0.09897376554268539 -0.2116413043692398 0.07661812383295995 
-0.001461056331582433 -0.05955649888760287 0.0282967695934128 
0.1373162229497335 0.08104455223791481 -0.05896035033510396 
0.0750338474758063 0.1146455287847309 -0.05712923192949897 
-0.1077261632008763 0.1828282044604745 -0.03567095381534475 
-0.3150982399483143 0.1786479863052985 0.0580535124656937 
-0.1099620902912172 -0.05108295198431313 0.02199846638000256 
-0.03147204213233175 0.05425229810896747 0.005208702600186269 
-0.0248880878093361 -0.0615243664205028 0.007157750080237615 
0.006532020388797504 -0.0353929633170392 0.06718502566134478 
0.06451063108470202 -0.04578745402308737 0.007898373910259989 
0.0324140394266576 -0.05509792502976386 0.01026936328557747 
-0.209965596743944 0.2328792492895881 -0.00553485489072258 
-0.3176624213026804 0.174793819248871 0.05576925918908725 
0.01751768061614985 -0.009576491241021242 -0.007444745171206023 
0.05126684799575362 0.05547980589378984 -0.07295774692524391 
0.02132831893594844 0.01499061996408423 -0.01835688751969495 
-0.07065082821248683 -0.03627655867079482 0.001979760336729826 
-0.1634160373569625 0.1531114138589022 -0.06709986536770742 
-0.1039617281865811 0.02681363677616919 -0.004155785983347484 
0.04426502359582779 -0.1113220846747793 -0.02143024347092277 
-0.005372970219564973 -0.06897305599763054 0.00520320826408418 
-0.04911170984171522 0.01550858356184123 0.0246675461379683 
-0.05980950362592844 0.04718964749728754 -0.001505457824434458 
-0.01226077950059726 0.05597035478043821 -0.02807325400390059 
-0.003708980573628973 0.1526186101629133 0.06564805163501117 
-0.09390932006171696 -0.0008362383480275617 0.03630540225286597 
-0.02703352883070232 0.1014836800632875 0.006425916417798184 
-0.04634019134832448 -0.0455440290859843 -0.001374862729561218 
-0.07341006788597861 0.1122753817530655 -0.06886021552437831 
0.04444084778828984 -0.05738547323708353 0.07376359064185606 
-0.02907368726574004 0.02757658206093788 0.01155045709498477 
-0.155179933150451 -0.03604936726104283 0.06616623550448601 
-0.0813294916701663 0.03598955939418294 -0.02114111536843654 
0.004760980707584161 0.04055307250255281 -0.01170643295334193 
-0.04663785893918381 -0.009615325066247238 -0.05078683775164039 
-0.02150912268738759 0.07165729156094861 0.0058135397480286 
0.06543508999704162 -0.07955120394059315 -0.03146719244961396 
0.2501564815787365 -0.1603106958507433 -0.03281529824309323 
0.01086820797370846 -0.1258005634709124 -0.01280856285793167 
-0.119298655312444 -0.01717544250538725 0.03440415338322211 
0.0003213430660046598 0.05611898700065229 -0.0154447171334558 
-0.06606178878403834 -0.0152311344188803 0.04785882880582947 
0.04124061641778347 0.02338751578823678 0.08041396037477269 
0.06051894600479681 -0.2103367728125477 -0.02973000691350921 
-0.1126039472966447 0.02734942664949755 0.04101828505300801 
-0.07531963863265265 -0.009363385746272232 -0.008884794670179667 
0.07506580151257715 -0.05779374261014122 -0.07792998228748371 
-0.03187536594555732 -0.04169812067660565 0.01512381107395043 
-0.01695235942790098 -0.01391809514627841 0.002174609673527541 
-0.0490900902470708 -0.003629917720140971 0.02533143608949463 
-0.1050111557486961 -0.02095202105351905 0.005725891481698321 
-0.07974261436650233 0.1016365059670618 -0.01173969014090452 
0.03209367464300587 0.002073789245561546 0.03571673501027677 
-0.06409502956821045 0.0639767845754344 -0.009706741705713569 
-0.03106109823620344 -0.002271313566770637 0.04820340755182535 
0.0003328789648956303 0.006459395034615077 0.02678107497390753 
-0.07461388094481472 0.08357673607734784 0.02373082402387539 
-0.05496073841211829 0.06967337138329134 -0.01286188330335585 
-0.2234141798932035 -0.07104130212196759 0.1363293362714986 
-0.1767041587336868 0.1130998781707354 0.05089598787344839 
-0.01299680647152486 0.0862812883071966 0.004658820267479659 
0.04530350156082756 0.05755056445759773 -0.04659029930658004 
-0.09785389476315985 0.0245358515676972 -0.07911436125637014 
-0.1213730323969077 0.08261401757951224 0.03117511791560354 
-0.02703168034737654 0.1287223198119948 -0.01190608320057277 
-0.1225809728563236 0.1056901338629863 0.0377586477859326 
-0.1930887225076687 -0.02795025534879115 0.09131819196337801 
-0.01672136430732608 0.002494599386195358 0.00388068293318431 
-0.06178307811968746 -0.02228010215771816 -0.01364821692437939 
-0.05205382394110099 0.1222824286983263 -0.07830166173808009 
0.02470656728835749 -0.02268945987098259 0.02723637735187182 
-0.04682943288669217 -0.00904790480320071 0.006181624631837256 
-0.05555497794862296 0.1499753869415307 -0.02441403970920533 
-0.002674239541212455 -0.005508580191988305 0.0271032737009373 
-0.004906175202660259 0.02804053236227861 0.008257242953444549 
0.02122102306774323 0.05555630960116435 -0.03223390008830092 
-0.1968612923298543 0.01467864326000061 0.1008983211720038 
-0.1786396845809821 0.1200028082960813 0.07034097734260655 
-0.07470605839024498 0.2623626056854281 -0.04863769110642555 
-0.02222538455221607 0.06150844224318902 0.04008193809539516 
-0.2020755452344928 -0.03943456275233013 0.06361775951529226 
-0.1205081638550888 0.0890709985196734 -0.08791195663825394 
-0.0342074642269454 0.06819085826294308 -0.02089829438129601 
-0.1287134664227091 0.1738570775370596 0.02556217160969504 
-0.1572701466293487 0.06489580707075093 0.09641815303188624 
-0.3098613750460713 -0.01651997951243548 0.1501292098510476 
-0.1733662555808914 0.09440948187803008 0.07496241368038863 
-0.07122783852569106 0.1289495221599076 0.01985903166631213 
0.1274612287506701 -0.07618652482584962 0.01889257983307282 
0.1087125945064925 -0.1702444469405753 -0.03777845751014822 
-0.07683158097184559 -0.02432822938434855 0.0503816878828911 
-0.09397221539728351 0.1560425620077829 0.03599459063258032 
-0.1250747340999371 0.07862823408028871 0.01389235107030796 
-0.1139081889170449 -0.05201612496453105 0.05067840884905317 
-0.2198858934207504 -0.05494004099196216 0.1437892536335226 
-0.1516747347126624 0.09329228169807434 0.01610108259013301 
-0.01007416556695319 0.1128533345911504 -0.0589163143550229 
0.09422781106996103 -0.2211364829998038 0.02043307849115947 
0.1723949269500443 -0.2369092824052113 -0.01037313750031051 
0.07157824989540666 -0.1453213096059043 -0.04162145456326651 
0.07925736438224242 -0.004112108764599913 -0.04166946128742805 
-0.1413346724749384 0.1165144020930936 0.005211299301189061 
-0.0427301105796576 -0.1459694419516351 0.09008455094995148 
-0.2419264167754411 0.09053253784400275 0.06875064297948579 
-0.2696165864380996 0.1105682667179146 0.0401468302070976 
-0.1225916904967321 0.2242491070022978 -0.04837358750485515 
-0.0238846327581833 -0.05210556014265146 0.08191001318158432 
0.02636128257231904 -0.2986502681379623 0.06624316735031291 
0.02179181180311081 -0.08990988921013349 -0.03368245358036134 
-0.04650129283526183 0.1022108628037448 0.04993385241714933 
-0.1970607616776593 0.1911820685658763 0.07141087332111452 
-0.2239952484934224 0.06206689508096271 0.1119861241244783 
-0.2828761473323629 0.09530940650631521 0.09481650651506049 
-0.2868616774668218 0.2570311524668116 -0.07253697332177289 
0.003829545583681192 0.1926177898514457 -0.06988552482829673 
-0.08274899422292827 0.002588875799008585 0.02666867723364883 
0.0592793597151446 -0.05757774160376491 0.01743656174443197 
0.1124780583287202 -0.2259670861807581 0.002241117149349706 
0.01811530674500701 0.08325790673825161 0.06644761091892065 
-0.3586100166872138 0.2896562452150494 0.0354934921317789 
-0.2739626729142236 0.09760549424843795 0.1347184191458873 
-0.1037519259464164 -0.06525916352871861 0.1398930006332011 
-0.02200036381243842 0.08292433315505653 0.02400062992380664 
0.06129544844470891 0.07194844979081408 -0.01807164487373257 
0.1934764044732734 -0.2181004797886836 0.006689758619758585 
0.1105310636025389 -0.2582491398540148 0.1223965669606922 
0.03443921621862617 -0.1461161097668792 0.03292341400181548 
-0.08260848856140862 0.06697870384180642 -0.02574704119288653 
0.04883878892636385 0.03761273978404724 -0.05231145552563436 
0.07787589596037348 -0.09150948535488833 -0.0009619302233282074 
0.1694387704780088 -0.1833111887480973 0.01054450689249344 
0.111827422460565 -0.1303644758156445 0.0442047398691288 
0.06828490464006749 -0.0005446630660724471 -0.01080747891927257 
0.1949780958694058 -0.1391172707185089 -0.01253190712881502 
0.02617070726023464 -0.2076345588757682 0.02354997500222181 
0.1256454352468397 -0.05442274242248373 -0.01926727864251495 
-0.0159727497053983 0.04933603486359717 0.05227636134975269 
0.05926458066206949 -0.01747921371156764 -0.05308652830432013 
0.1189832831146086 -0.2403105028382983 -0.01808034250153903 
-0.07532924822840838 -0.02575219612418882 0.1028282049924438 
-0.1291193509657023 0.1361471372199202 0.0001772553789545981 
-0.09293949609094171 0.1889916288658801 -0.03501553718572881 
-0.03939321949202235 -0.04227469527770038 0.05790973712278438 
-0.01787343756830982 -0.07861168497638198 0.1294948020625615 
0.1065003442677982 -0.1061723390917018 0.08365829700636439 
-0.1173463216251457 0.1561829909938231 0.05113343320185101 
-0.2838680435588986 0.1602098671520995 0.0685821066306454 
-0.1547107484288702 0.0260463919406822 0.08077450586077263 
0.05947934392924152 -0.1340930924402997 0.09699830639143404 
-0.07890924906726199 0.05353948350502681 0.06302897827089016 
-0.01541232573209253 0.08565286187651175 -0.021660602276772 
0.1129454856156437 -0.06729875553220432 0.00961874084197515 
-1.547155559452024e-005 -0.1695917358023371 0.05484656069883646 
0.1358741154044614 -0.0993692048503826 -0.002338997858695546 
-0.1809186264256246 0.1551616763991947 0.03675593441880379 
-0.1250380021846551 0.08826352123399882 0.004158202090652845 
0.1517334716674933 -0.1931588815170913 0.03823424867781906 
0.1456026088765207 -0.141475735011395 0.0008387390998398479 
0.118161867866901 -0.2233835814229896 0.07453061713969229 
-0.06211460904850225 0.05231132835036416 0.05585938556398568 
-0.07445519062216793 0.0109224748561346 0.0555551548114927 
0.07877928596670912 -0.1580366258858968 0.02032317373210202 
0.1791872515873627 -0.03395142349997866 -0.06029201515997503 
-0.0543978046762177 0.1574976362401244 -0.05065705099242073 
0.09602304020542091 0.02510721219295322 -0.05547830858948268 
0.224770517734546 -0.1899322812322667 -0.09136728116510373 
0.02356661407192021 -0.009780866640200763 0.0663624588044041 
-0.08762719759338888 -0.1130835104148418 0.114684668529803 
-0.1781036108923014 0.1056091994216802 0.1184106342752472 
-0.03243262816778623 -0.08410725936362859 0.09542515013063484 
0.1984965195563495 -0.2475431504781561 0.05628076261721665 
0.03163001270833889 -0.1093498492905279 0.01918150314057521 
0.01578505907785571 0.07141060610006117 -0.1035415610512386 
0.2167850491460976 -0.04902345629136285 -0.06138204086233356 
0.1441871464077299 -0.1599867541578537 -0.04396235240314869 
0.1435602819021473 -0.2412233164026547 0.07034452005098336 
0.02448283776760419 -0.2533564529989733 0.1544477131589284 
0.06413780757256986 -0.1061027191685779 0.09350100609824665 
-0.06511639051978588 -0.0005984623818897567 0.08515824900389402 
-0.09972605696821615 -0.05344697457749652 0.06409290459253013 
0.0163193358369591 0.04115348972405422 0.01037034686185106 
-0.1614512636345237 0.2107340444901668 -0.01382884903670071 
-0.01849385793192375 0.08943813325496802 -0.04068178216583713 
0.04597588418422133 -0.1739611702678522 0.001080745402876837 
-0.008599505304458306 -0.2035960885818758 0.1311273769183802 
0.05462697933101692 -0.1431097385963971 0.09176362776763813 
-0.06005984856177624 -0.02240420637937915 0.1618767618778934 
-0.1312497572814326 0.07067915604564728 0.1429981756597849 
-0.01444180697631899 -0.08296096654404725 0.08103255963249557 
0.06450821748869923 -0.0954143017479351 0.08470007693379662 
-0.09341902044874245 0.07507795983787782 -0.01444208535202044 
0.1382691547955454 -0.05308697174445175 -0.05799619030895404 
-0.05401741015098377 -0.1047635909581028 0.02594222704654713 
0.03686578452689689 -0.1464303256209635 0.03499455061085539 
0.03790986377771655 -0.103996443069907 0.01715564347093518 
-0.1091191417484953 0.1662825991519415 -0.02033980943808677 
0.1648146321304509 -0.1099444713293909 -0.03324162654334174 
0.4130489740385281 -0.4458425044100779 -0.04475834016294836 
-0.03692952056433441 -0.08419170340442993 0.04248824928617928 
-0.1155649161510703 0.08554732833101457 -0.06253970694155132 
0.2144366542217472 -0.08122789387575403 -0.001691973472573411 
0.113175681326442 -0.06745723384768233 3.761558691597269e-005 
-0.0252083003320493 -0.1104954090143002 0.06054158965724883 
0.1071175093068012 -0.04003654895446773 -0.006619489736276727 
0.07534532068895616 -0.01362610115595066 -0.01347793097266064 
-0.02007001286583398 -0.04065220474249181 -0.05401090828325428 
0.2297095202990054 -0.3161777491602132 -0.01934611598026341 
-0.1276943401724318 0.1587370130982791 0.1096681393296424 
-0.04066520305330814 0.1305963534085902 -0.01778307464609446 
0.05004986334974035 0.05390177777880049 0.03207899486071482 
-0.1191076206216322 0.06000290486928307 0.07043638926556525 
-0.0354455956713772 -0.09882157155293393 0.05361823200740902 
0.1979426805736793 -0.2565541324084047 -0.000108503408770021 
-0.09244439386969884 0.003668373888340701 0.03369904810689747 
-0.05603915798494397 -0.03746892221160163 0.0465840513279768 
0.1099241160766216 -0.2215670097882603 -0.03212568297643105 
0.03313494762817069 -0.06364699764199196 0.05719586482272952 
-0.1756889799217135 -0.02433393352699251 -0.01519345046748051 
0.1764552447750648 -0.1681730019662923 -0.009814222564880855 
-0.06478521850640984 -0.03349991056526352 0.03987404040876029 
-0.02314202853419146 -0.07751824319063302 0.06324583554454263 
0.03319943977554421 -0.10148250036805 0.05729848753205628 
-0.09608809613767511 0.007799697361643828 0.0448327846635237 
-0.09792062511376398 -0.1082499462106377 0.09400801967782038 
-0.03970985781308522 -0.1821468365636907 -0.007895913480167183 
-0.03627937878372625 -0.05297733975834457 0.08613239308385726 
-0.01625597175861122 -0.05435971629537422 -0.01955154625358548 
0.07085066982254591 -0.1844497043901458 0.03685921676091243 
-0.09816921143016666 0.06170124667712316 0.1087665621959587 
-0.03893749959163566 0.05719501588841899 -0.006582492995984641 
0.09905161691238766 -0.003662225755930408 -0.0495240606571663 
0.1845147404070449 0.02122928309140336 -0.08536138947768843 
0.04820043897107159 0.01456486084563753 -0.0447166512725744 
0.2271258988088694 -0.2056334031961613 -0.01278238499306834 
-0.02532341032346316 -0.08290156518582233 0.02898701330699523 
0.0481784836392796 -0.01040915895848357 -0.04070730787983033 
0.01269262822434223 0.05942947978283318 -0.008932566054495154 
-0.2184712411083115 0.2549508836585208 -0.008691432453909539 
-0.2352827983339569 0.1420544750169243 0.05969887542385823 
0.025243699130858 -0.09212813685042973 0.006350881195501692 
0.1270362562690102 0.03300817516264681 -0.01524835725055251 
0.001541984723044311 -0.0353477184774514 0.04384132928829691 
-0.002208268561605837 -0.1339418904642314 0.07968339635242068 
0.2117959036391648 -0.2805011870332669 0.03051775987081214 
0.08691728321531925 -0.1852134112428366 0.04719297555359547 
-0.02194589901646456 -0.03080131259353885 0.04535791075883881 
-0.3607535848937163 0.224634427017721 0.07015952354974157 
-0.06145850049677175 0.03461837104334432 0.0568204811428368 
0.04357291267219811 -0.1304592501978071 0.07763936112955636 
-0.0265434866232336 0.009173959298754857 0.01234065326786593 
-0.1628310206315412 -0.07828382578693061 0.08040154146668047 
0.04967221847026468 -0.1465927698978885 0.08388011971896196 
0.03027102730905575 -0.1010029582586564 -0.04229386173584086 
0.1476418876770777 -0.07817572993230312 -0.0343634760297634 
0.02529404219113193 -0.02300790795002098 0.01673556906711128 
-0.1069506845670252 0.1372763432453013 0.03717440663411546 
-0.149609987935842 0.06330267299168972 0.09411402331366953 
0.09887581356844424 -0.1787355160101123 0.0834527334819111 
0.08441744090123587 -0.1321313495676383 0.0617007221139206 
-0.1128024347888022 -0.04032637935334209 0.0827322995938999 
0.01965100348947813 -0.1008182128574955 0.06845694823665356 
-0.03345963804798763 -0.1002057991280687 0.08466602976351735 
0.09759571020268337 -0.06267690264710878 0.03340498380364271 
-0.1099651110330155 0.1079028930596968 0.07407498454373442 
-0.2225063729957495 0.1291785509024539 0.07833383208139376 
-0.2644092826947613 0.08404364178509458 0.06693008059597193 
-0.01882711740202177 0.0002457153421414039 -0.03321345059456411 
0.06044836516516582 0.03636509340464672 0.01570596303671287 
-0.08158325320838379 0.0848851405102882 -0.03941826471637629 
-0.05253802556151783 -0.06680198836545062 0.01235595353727225 
0.09704725116916252 -0.1564353324603001 -0.03578168898308082 
0.1310915157137897 -0.04690771996713105 -0.06138180335113169 
0.04213933440556211 -0.03123949738048825 -0.02440193478249824 
-0.3057228727083242 0.07188127875108737 0.08942093165659681 
0.006451041603600699 0.04405419364270536 0.01531741159029191 
-0.06454746366879238 -0.005908327473935443 0.01079378720519302 
0.002883241303323539 0.01287701111768919 0.04519697833574536 
-0.01685921650133085 -0.1330691109167776 0.001879436824204488 
-0.05838393426491298 0.02370462323766749 0.059952245980664 
-0.1975551337265413 0.1187827152628003 -0.01158503388015225 
0.03276512624943053 0.05889678812382403 -0.0745548074017776 
-0.07460275815613156 0.04778567984237129 -0.006425182886115512 
-0.02120155058011127 0.08181482995239858 0.01679713045792249 
-0.18910346682503 0.09641109069624286 0.05062997681164815 
-0.007437259476042816 -0.01863827775305843 -0.01244360384405756 
-0.08168687164780894 0.153911038781522 0.03645917386738082 
-0.03746594063525045 0.0902173396333102 -0.05392937558437986 
0.02829547075942885 -0.02717454748791501 -0.1107691673628909 
-0.05389361366370402 -0.08290401281876575 0.03607418096738142 
0.01871910842034084 0.04453087519569648 -0.005611204040530801 
0.006363731727012532 0.01131874938170038 0.002395697386313526 
-0.1864668965753913 0.1131108041256063 0.04752193006729157 
-0.01883120579251262 0.02507213011193839 -0.02023836604113518 
-0.00456853005586417 -0.07542781970712383 0.01142091084783901 
-0.05370498623354583 0.09490400110866067 0.1185121799378104 
-0.17559392517531 0.1157028079605286 -0.04890248486506846 
0.03089053249982749 0.05008405535861603 -0.01006896788707771 
-0.09398430923250997 -0.003164114554990343 -0.004219972588459185 
-0.209579755542172 0.1896282845790175 0.02140253839665967 
-0.1365364566016955 0.06540218105725768 0.04282034391389798 
-0.02855276087443101 0.04377824591750617 0.03496409343482995 
-0.01872782717746227 -0.09567193290369894 0.01434512982049094 
-0.03948332065085034 -0.06971515505700002 0.04007972262075199 
-0.004291957773169262 0.0578079738706137 -0.01200646841117177 
-0.1297983002222046 0.02679875505311618 0.03918081466035701 
0.1217376937045541 0.04370772380331175 -0.04032432199646128 
-0.09609752851590883 0.1630518374854279 -0.07012587737533801 
-0.03024210861120985 0.01796002537580297 0.003128909297114447 
-0.0255321946110673 -0.003401502305635103 -0.002607721508852544 
0.001756132170139199 0.002667226761083974 -0.03054252383494631 
-0.063648148233845 -0.07122961423173467 0.08928485366066724 
-0.09662694873607312 -0.01321891147016557 0.05499513677247853 
-0.04572200922396507 0.1927118842078382 -0.01837630229791626 
-0.005315612146482625 0.06279327372236936 -0.006004551770623007 
-0.1444473518579235 -0.005544607535143358 0.02092925974538936 
-0.2312884274176929 0.1132144657364199 -0.07758831657456167 
-0.02229914412541667 0.05316914101389025 -0.1021175682217281 
0.02295961861144882 -0.005039721943211813 -0.04979877277787994 
0.0329795652480659 -0.03900937610941006 -0.03637633190874845 
-0.0187822344943243 0.05472030116169847 -0.03932956508917937 
-0.01410787858016408 -0.002146162069793904 0.0002234884585449256 
0.1185551267317616 -0.05817576513959332 0.01528223552962408 
-0.0847031704647143 0.1295622655394331 -0.03622224062158693 
0.2269138048959004 -0.102872048385628 -0.02161051540098679 
-0.04456075828758169 0.1948362500716441 -0.06992900897832099 
0.02630741849446795 0.2138198752949272 -0.08036484232229062 
0.02107482426707976 0.02278416444326365 -0.06263220296912732 
-0.08966363470654225 0.06961645462842246 0.01134691432919849 
-0.1434803114055002 -0.003977782367462295 0.07064048837560932 
-0.06150388294803825 0.01720520987925413 0.0514763049553142 
-0.04964502144114172 0.1313685263392582 -0.009581500072053415 
-0.08471606669551182 0.005000614428805698 -0.01298860823140778 
0.02641904409131405 0.06313121234625027 0.008353422402688455 
-0.03748271104357388 0.2142066188136738 -0.1070037295647213 
0.1226834447891375 0.0120962295970216 -0.09944249097290626 
0.05443437373730563 0.05824642179308205 -0.09405549053578589 
-0.09604160027136695 0.03335051750239854 -0.01270099587615033 
-0.1841948084393225 0.02543581090924474 0.05566894042969266 
-0.09472659533524637 0.119809663697366 -0.002398346860504558 
0.0604510057562101 0.07189312830864708 -0.05658329325145769 
0.05058826578929157 -0.05144739949054949 0.06747417794044303 
0.01826894942208005 -0.1846187177226465 0.02869736331000044 
-0.02258621937497251 -0.09624676736619374 -0.006260996991710087 
-0.143415142001342 0.1332283646387608 0.01864928941893958 
-0.1122984174319624 0.08037868079990183 0.02649814708770958 
-0.1437090532278073 0.02504151834290002 0.03332181474050604 
-0.3444692491838555 0.1172151112459646 0.09303970928159519 
-0.126194943553603 0.1331170251692676 -0.04461386372955745 
0.01642102389195828 0.07235113049338815 -0.0870243044389413 
0.1927241114907329 -0.1333704711395116 -0.03022108494317297 
0.07104143669887697 -0.1867080192047813 -0.04139303721913123 
0.0776152850688101 -0.181731047120187 -0.04593498169204274 
-0.1012487354849209 0.1067063227653919 0.03671765700578226 
-0.3213975655751247 0.3538630403924085 -0.04454531274271305 
-0.2473654102030229 0.1603013926006755 0.07727324742358019 
-0.2376249100592729 -0.008012691153711478 0.1306786286386611 
-0.09408563227054087 0.08828041566920582 0.05239991447535804 
0.05274598993068239 0.0172616415155329 -0.0715427629533562 
0.01985254147643462 -0.1340534806272345 0.07584541998073027 
-0.0460440374950232 -0.08195200100767724 0.05033453860528459 
-0.006596002848611264 0.05447628867515273 -0.07165993028321797 
-0.006805397824896919 0.0229447405707257 -0.04526487838658883 
-0.01574097886551423 0.1152184243231742 0.03280546249796312 
-0.1775049415212321 -0.009222651368487669 0.07947533475162996 
-0.1528752175916641 0.07013518908762989 0.1052412389877933 
-0.2122532132993746 0.1303964111661624 0.08748730341805447 
-0.1131776098215909 0.09322739614732434 -0.04037226257236989 
0.1812520970105316 -0.1814761296185486 0.01477051919883669 
-0.08263743728391067 0.02067795537720604 -0.02413788757094855 
0.1259450537622716 -0.1480550695618677 -0.05780689112043037 
0.1266380701382608 -0.1652217178477738 0.03465913677317092 
-0.0908323754252993 0.1949591014753857 0.01756699060253758 
-0.06978285409220719 0.03020803770718702 0.1113562962278446 
-0.1249524525950673 -0.02740618663357284 0.09819906708199672 
-0.1148623635041382 0.05646296586999974 0.003641525351052553 
-0.02366052155644769 0.05174357925925437 -0.08331354859317747 
0.07072398677832752 -0.04979044483984189 0.00209192757000914 
0.04457269760318374 -0.05368455925055547 0.009660857984542394 
0.07816614810580931 -0.04374814030441306 0.01346414714119686 
-0.03766416233000858 0.0774974515568258 -0.01683345503579928 
-0.107322033562964 0.1925285319166611 -0.003881359485532382 
-0.07381183314037948 0.02078223828462446 0.07637236772718613 
0.03959597324729174 -0.1530035034192804 0.0711411483968472 
0.06552577769464264 -0.01704644878898961 -0.03072052936806625 
-0.08429694439444421 0.01228445727236654 -0.05613198132664782 
0.08765159628995681 -0.03830259857510845 -0.04949152675401895 
0.154826442479101 -0.1879069939915107 0.002583772492428118 
0.09119436330669233 -0.1009463391966937 0.02899980846903086 
-0.06606826264785644 0.1557220265181948 -0.00936209991092537 
0.05841682256398958 0.05142511920880571 -0.01865718361357487 
0.2163702700546777 -0.1511157008248752 0.00198361839259282 
-0.2365406893333463 0.08720228061510375 0.1271219763414606 
-0.2863278726776813 0.111924078925773 0.04342298010901104 
-0.05404704536898378 0.02078163498294186 -0.06614731293936813 
0.1000748445448914 -0.1548899830197721 0.02737167721352972 
-0.1512593632268156 0.03001122449822337 0.009886367601755316 
-0.125343332184787 0.08890509598375826 -0.0009703739487613162 
0.02962742793572813 -0.0601958468034871 0.03899183573503014 
-0.0129931385545172 0.0298888987216766 -0.0009822345154964661 
0.01049694635256655 -0.1770626323381498 0.1580019378903974 
-0.3068309798455776 0.1583323151386774 0.08700746396623657 
-0.2622382302672111 0.153406180652166 -0.04171524060609556 
-0.1737284977326606 0.1336311748579266 -0.02650405744752662 
0.1667932793171382 -0.09174125453095351 -0.1074949960613997 
0.04903243143131144 -0.1215377838625886 -0.03881192300365397 
-0.001940648786213139 -0.08994885730838587 0.0659467555339588 
-0.1071394874786846 0.2099770728373878 -0.02598818887954982 
0.0009488769363183394 0.1046679229929823 -0.01520054481320114 
-0.04704749387346106 -0.03095343460724154 0.07698717018161283 
0.22478644080225 -0.268302480841562 0.04191907110676438 
0.1298938369604281 -0.1457595273498103 0.04414140629696099 
-0.07565699852861987 0.04235190856133081 0.003834476114116067 
-0.01437896072421372 -0.06327958229194476 -0.03740707330240421 
0.1185626323697112 -0.1553939672472178 -0.02044342088824184 
-0.03341393729072875 0.01234313573539997 0.06952077358327688 
-0.2003168591134668 0.1480161666725052 0.03428765570550874 
0.01081938771178547 0.00498375824953249 -0.006687881493664193 
0.03508081629506653 -0.1022618852560319 0.01356941849056685 
0.3212273328108105 -0.3715244490906099 -0.007725325883793082 
0.2528111714843644 -0.2066963360528275 0.04142017585481497 
-0.1975825105613625 0.1941993594850076 0.06851919460397365 
-0.1275552796061509 0.1186772429842103 -0.03519268033010555 
0.03814957792664578 -0.08599809706639104 -0.03577914226598683 
-0.02456580060124899 0.02126186122921265 0.06791733475675635 
-0.2383076124220896 0.1121400614615324 0.04652697527305489 
-0.03734379961599389 -0.03078279411341029 0.0325612108286643 
-0.08095410331171234 -0.01967111370828577 0.001176203952878105 
0.004017329955550895 -0.01130367523746509 0.01794064756883906 
-0.1360801425760885 0.1307141390405011 0.002098493608283863 
-0.2781464493102493 0.22637359904254 0.0195761673549344 
-0.01278877003714555 0.0161418378434482 -0.008712126022962365 
0.007850390740627393 0.03842919307484322 -0.01843843506427111 
-0.1690473556467948 0.009541828693853449 0.1394646647220101 
-0.1741058056533199 0.1905960756129096 0.07461584459873015 
0.004845524983306641 0.1347151276875659 -0.04118662962821427 
-0.032107159253076 0.08820297296096927 -0.04070853309471967 
0.1850034839164322 -0.1425377880124273 -0.005248423678371235 
0.03931720399753676 0.01521149213694591 0.02735794785147252 
-0.1985462871871661 0.1368299104106258 0.04925388303384227 
-0.02658639959494099 0.1411667500240376 -0.0341427795192407 
-0.01670671663887003 0.02681879441382561 -0.001609625865153425 
-0.1424605653522344 0.08552601843296742 0.08861423245952736 
-0.2237840448641843 0.08646445364628594 0.06719338490554672 
-0.1121420291500835 0.06211686937349833 0.08406341722519341 
-0.03808223045038057 0.07567808932119563 -0.01224868324906258 
0.1742430686524112 -0.2219040749547576 -0.01556602389603286 
0.2193818030336417 -0.2024887960003433 0.003776178358914523 
-0.2952641646736601 0.1981767412749014 0.0442066563022977 
-0.2200515559119582 0.1113551852039715 -0.0440462455569194 
0.122064948722661 -0.09601785771652496 -0.1187718150042012 
0.1239520067711332 -0.1423203594715567 -0.01728075464915713 
-0.1243684723022866 0.003226957005515987 -0.02940416467410234 
0.05993487231175756 -0.1436393022661799 0.02686530052079643 
-0.07488182386646169 -0.00895266063983708 0.002450596431957192 
-0.04158596595606672 -0.1017431600525956 -0.006104453435626972 
0.08061296947624624 -0.2467644751625671 0.05083914798929919 
-0.2064281277946328 0.1431587365692469 0.06058926303533034 
-0.226231078828252 0.1272632159692232 0.1257139286215509 
-0.06547170627991011 0.06734508064183449 -0.06068269891122073 
0.2243497840161867 -0.145241769906213 -0.04181285251863619 
0.151436420110494 -0.1818808944724411 -0.04137297969324084 
0.2062819605918624 -0.3283331185755178 0.01229761142645768 
0.004423233684200167 -0.1185376138639359 0.06895778546090493 
0.1819910642969599 -0.3033839079607242 0.07480320861208728 
0.05021579835289534 -0.08807584663672981 0.08205936359411309 
-0.2495991894377602 0.04125797119749548 0.07876990577869196 
-0.09740491441569613 0.07415610521603015 -0.04076919948643078 
0.04850541459572841 -0.0118473322898096 -0.07990068359612626 
0.2253840637213279 -0.2253805283802655 -0.01820750974187025 
0.0602511833419069 -0.109568142167058 -0.05344102821169761 
0.04804087089860811 -0.1323538976997405 0.0807682168599476 
-0.09004866993972549 -0.1154889736186506 0.0970519410909681 
-0.1042826626989917 -0.1270159744609012 0.07061057934268614 
0.05638581553331577 -0.1325883052080574 0.05726403729000645 
0.03402328580397237 -0.1153384585958852 0.1394545132778526 
-0.05651808028669347 0.05881938884692248 0.08189250697383729 
0.08621825460994519 -0.09833883351502945 -0.03092450999325423 
0.3144364553828953 -0.3440152031294588 -0.01051885694849555 
0.3325321253816841 -0.2918351571557762 -0.03308191751094436 
0.1901302756552558 -0.2505159536959195 0.098109214960278 
-0.1347247872872455 -0.1176124578957882 0.183826279589912 
-0.1611997690135395 0.07703964731605932 0.01417270912463981 
0.07359234573192189 -0.150156729484462 -0.01773749310733158 
-0.006291500128310752 0.0001481040458217947 -0.04437416230258446 
-0.1718451827872506 0.1198670037533386 0.03628729096568124 
-0.1541737409082953 0.03684397856517137 0.003494441443361857 
0.1517770507131266 -0.09383655163641062 -0.09053815190784206 
0.1782307957566673 -0.08852472728509789 -0.06656069464483692 
0.04470422276909813 -0.001875962400348602 0.01431854790758998 
-0.1175848277594934 0.04871513155847407 0.05735238778560176 
-0.1585294041601851 0.07417781804724243 0.03377730320715183 
-0.08847137482946633 0.05836809072494965 0.01878684865647482 
0.04400116913132923 -0.03248391004362339 -0.03311587611642648 
-0.1853489690046996 0.1640113378442309 0.04049378801516524 
-0.2062444698542313 -0.05005417341533309 0.04495670239608568 
0.01910651700187326 -0.05530557189575504 -0.002586734960562958 
0.2195781187477039 -0.1202105273279198 -0.04465421040707356 
-0.04377078497317091 0.04169908100888026 0.07218204290528218 
-0.1941686564995421 0.06546807158766915 0.05122744327591251 
-0.2398853708428644 0.09378240407628385 -0.02544826300912381 
0.02175192887220108 -0.06189981879607091 0.05500249331507436 
0.2531762740469422 -0.2557332687869287 0.02991050197433708 
0.005252398245812247 0.0569035219763146 0.03698356198539565 
-0.0268543747340051 0.02854059589046716 0.0146658135290452 
0.2713007870299907 -0.3091095667638196 -0.02318956638819977 
0.1680949176762232 -0.1363315556617406 0.01388244743201668 
0.02524044320275955 -0.0118694959343492 0.07881760741290807 
-0.228501437822069 0.05808088920283653 0.08997038838689529 
-0.1747895835734449 0.1847815190371422 -0.02347067370921174 
-0.1119182133845719 0.1201319618372674 0.0710948615412889 
0.1897560050438175 -0.06573668148967345 -0.003166398231485042 
-0.0315603555209902 0.04156919444347021 0.04756624263306106 
-0.1436384262152018 -0.1120250641399401 0.1458755764570779 
0.1072579910652509 -0.2285184417026656 0.08315723267882165 
0.166093270803779 -0.1663376849390575 0.03285410506105019 
-0.00140765567428822 0.029206222271803 0.06875374387052333 
-0.1472418785495899 0.115739812809243 -0.0007082834868908813 
-0.1435317308024765 0.06362580987813839 0.006484337087254067 
-0.1497619998851991 0.09019915190862209 -0.009668031311812811 
-0.05204606962366148 0.07240127939689342 -0.01905252797488086 
-0.01138294297606647 0.1023028451660638 -0.04843834672062895 
-0.001765763318028623 0.01878525139788881 -0.1455705323562282 
0.03360192765875013 0.007090850833775996 -0.03022585485733119 
0.1174463178703118 -0.06500342678958603 -0.009111266334018625 
-0.008749473441267986 -0.01499142368284287 0.01083658483865431 
-0.1278567304938011 0.03479097190652076 0.02707971551192513 
-0.1543071242533447 0.04308739785706844 -0.01837479460530562 
-0.1650365277623478 0.0741081973937351 -0.04184531817015777 
-0.1771180695734196 0.2240188569826327 0.1078819848467762 
-0.06378276332216994 0.07279407197790606 -0.0807900692551866 
0.1445735328023431 0.0407007969202988 -0.217049233522936 
-0.08370278623901961 0.07278391730617462 0.003644000014476721 
-0.03863215656783857 -0.006475052660803403 0.08789010583006789 
-0.1378260229316678 -0.00538774933543072 0.0762475991842102 
-0.1066362358602326 0.009073620481000317 0.03844937319505767 
-0.2105332271222673 0.1773338774302047 -0.05952011819298265 
-0.1838000439812127 0.2442084608761435 -0.08054105799552254 
-0.09295015320328288 0.07426439710263781 0.01094837154556534 
-0.09277132968014382 0.1006732271445485 0.01419273268146467 
0.005454251525797953 -0.03836571043351782 -0.03498154059528846 
0.06506930062761926 -0.1028361062056919 0.04379147124909198 
0.07423028990168318 -0.07665044000377351 0.06182912335928104 
-0.05262396063508899 0.01230216786994114 0.07106778653899645 
-0.09848530616810299 0.06934437966027021 0.04883736010479028 
-0.1456516267133624 0.06140785041383701 -0.01346718432252522 
-0.06316108428641515 0.08933612147628782 -0.06732618635555016 
0.07593900990704021 0.06974263210083666 -0.01784305731200715 
-0.06327044570903408 0.2465362313878692 -0.112105935860494 
0.2677701924520042 -0.04082381425250417 -0.2110920312721586 
-0.05366954962380815 0.00926555443435681 0.02469542951615338 
0.01524958528088887 -0.05999569389164744 0.1178357928913769 
-0.2239278026958073 0.01005709088799875 0.1245669321387128 
-0.1265796109462375 0.02961474380143293 0.06595989444582928 
0.09765082477398032 0.02602195647460628 -0.09566173458582218 
-0.0177160328717237 0.01969607058573805 0.01078635555721919 
0.08805360120594812 -0.07376391723904202 -0.009736033478743725 
-0.0429735317408811 -0.01600743431652855 0.004480205930172142 
0.1392769175789508 0.02047860776173122 -0.05256327180140714 
-0.09946255242600932 0.2288035545346839 -0.04419543774110036 
0.04408179228572928 0.1226293027219146 -0.05888389651705107 
0.006233430584760428 -0.1156480330501536 -0.007424442918689215 
0.02019346214462234 -0.01239983521546094 -0.006995664987477048 
0.04735192173785849 -0.004548085954175661 -0.03699424413036605 
-0.01282491196515248 -0.0456288580962527 0.01942098100480303 
0.03925398388118903 -0.01547664932603615 0.005770532499611459 
-0.07641745397827487 -0.005937027077225892 0.02494299186839902 
0.02579014995452014 0.02851258175209288 -0.03932339583900909 
-0.008195150940061324 0.08061313681336457 -0.09908865494960049 
0.1381674102014106 -0.0778624289486374 -0.1445301876909435 
-0.1107401074676698 -0.06288687447948055 0.03593818677712904 
-0.05529871815007052 -0.04252818389815254 -0.004607282540431261 
0.09250557829795907 0.03050616224303094 -0.06574085419030307 
0.0293011629067265 0.0639920609904743 -0.02238161029284271 
0.01014479405790613 -0.02418367620438265 0.002761067527553672 
-0.02082621604921027 -0.08712401408451978 0.05068087863061028 
0.1430337481252204 -0.1369955459377396 0.022803694445623 
-0.1819514460814052 0.2242504308839515 -0.03954425177199922 
0.144566558746568 0.07734174087484447 -0.07716531152072725 
0.05195555791059828 -0.06854983666101192 0.02102398092673334 
0.01988567422568613 0.00548004790426359 0.007358371125689212 
0.113643845305762 0.007079937264559802 -0.03704874350412469 
0.02762895226752741 0.001511055263621457 0.02050772993776977 
0.03870017008087846 0.0465911648997033 0.02201579675696622 
-0.1487405484213939 0.03675488525410101 0.03067809031161021 
-0.04774168940508776 0.1453661566818922 -0.003000155601918514 
-0.02025672716284852 0.08453026887127467 -0.08331461946523211 
-0.05205159319251143 0.1270468390799681 -0.0477119696520429 
-0.03273638182413336 -0.1093429074419849 -0.01194892710216298 
-0.05677491122778891 -0.03297922583792498 0.0567977566323308 
0.01747763129673045 -0.05259522048684798 0.06542833691849437 
-0.04296470895022586 0.009355229458552267 0.0467950208579929 
0.06622897828371194 -0.03510709615269524 0.001983613082048168 
-0.06461113483411557 -0.1119433058464479 0.07583271147182948 
-0.09427258931376091 0.05368769035888214 0.009356233022781754 
0.125318106121792 -0.02142607905065724 -0.06526244430705268 
0.0007088064297209867 -0.02806910618729854 -0.08138174702242733 
-0.01048310729087677 0.1840109722084554 -0.01362943908144177 
0.04968670147300663 0.0224523368239461 -0.006274608082634543 
0.001026962726005405 -0.005694950518726666 0.03931754113658514 
-0.1614323357219521 0.06528550801912991 0.0571729102769977 
-0.08241633349581717 0.07951912066506386 -0.01290987616713275 
0.08575244037006291 -0.1494241227813954 0.01884921020249152 
-0.1702344056458282 0.0422847385384709 -0.009323915515174377 
0.01288635571146891 0.05824478594873479 -0.07761467070690437 
0.03389499590969315 -0.04907078674346437 -0.06451686108764893 
-0.09225857240413142 0.07550088051527766 -0.04350194235052327 
0.1700919550446988 -0.05908338892983816 -0.04710079830736941 
0.07424127254767284 -0.1175127836171032 0.04712889004222352 
-0.05135177566644499 -0.04423241311194202 0.07901523435463946 
-0.002673510558481747 -0.02422251501625421 0.06137914941649876 
-0.13655137604749 -0.02242599074115448 0.03038448963842392 
-0.1512383758895479 0.1654115336493419 0.01533025326088421 
0.01292111537390533 0.1178935495057809 -0.05556877240387067 
0.03318092294451497 0.1506562921808459 -0.0979482599648666 
0.08152806723694293 -0.03579107609514583 -0.03358381591584463 
0.1466432073412078 -0.08053348621502771 -0.01800861514797449 
0.1170190957688504 -0.207934064601442 0.06107663559920098 
-0.102123339218145 0.004493818870030071 0.008235580597343249 
-0.08517560576768771 0.04011950431826838 0.02100549879513877 
-0.1511947341729767 -0.02050806468912891 0.002474274340971799 
-0.1085521934051751 0.01766524481885561 -0.02434109531437513 
-0.1073835147165488 0.07895481905445034 -0.01802622168337678 
0.2584778116634555 -0.02491202298329613 -0.08137105681081969 
0.04258069901830329 -0.01138958055357902 -0.09987210624713873 
0.1309755846670183 -0.06739450680492488 0.008522375620373687 
-0.07793381553087944 0.02392352902365835 0.02586599301498851 
-0.2601080671985504 0.1259744922711118 0.01391321916079572 
-0.1425044539530231 0.1804208499351809 -0.02533200397329605 
0.171640681182677 -0.1606624945574021 0.04503103497514237 
-0.1369063149355472 -0.03173797188045721 0.05232197602051174 
0.03386795149459418 0.07370144337858996 -0.0962029710685984 
0.1267470925722919 -0.01472303901626528 -0.0400772577449734 
0.06193942673091649 -0.07430022081190621 -0.02967459022915711 
0.1621775997478633 -0.2176883906317537 0.03227407440988527 
-0.1531293996833417 0.1602080479513723 0.005244535411186778 
-0.2924841209183976 0.2542861439945513 -0.05222204452381603 
-0.2012992575199954 0.2338553835578805 -0.04516710883571414 
0.3232326970217923 -0.1928255735285689 -0.04631644090632834 
0.2756663717114409 -0.369242906366541 0.02186268245124218 
-0.03492206575934461 -0.0004529784534865387 -0.01711691993898626 
-0.1298176436451589 0.2138396420625502 -0.06450617938617496 
-0.0503750657049042 0.04731244135727042 -0.05529397224767872 
0.1190069962598371 -0.08663170482338958 -0.02782654802926099 
0.06163612012078329 -0.2067412884234172 0.1060526210173474 
-0.1147258912873302 0.04874572902927195 -0.003114902876422345 
-0.2219436550019148 0.1804112319508739 0.002118589147628588 
0.01568605397180062 -0.07285563838929772 0.05845651216194189 
-0.03104418890279494 -0.06478381188953973 0.01434106961369752 
0.01707402639650366 0.0724684051965457 -0.04277096177564318 
0.0663021153503366 0.001690521847482919 -0.03946615963160699 
0.05398937106466945 -0.006122416374574552 0.004706794751930362 
0.05669722399930108 -0.06854926719063662 0.08283264272223698 
0.1588812640883022 -0.2021280082458067 0.03119456097332256 
-0.09851324803490212 0.1774565760198719 -0.0276278276817317 
-0.1559400659268736 0.2977153099939121 -0.06456368242205775 
0.1958473711488575 -0.2096179704284799 -0.0004481228005193655 
0.3088885522428276 -0.3233641043078131 0.05761061136880377 
-0.06894697187862094 -0.04697243086815049 0.02051168886304416 
-0.1814461705774287 0.09727909089116833 0.04340656369230261 
0.1479176354512432 0.02508453110903055 -0.01207909497044234 
0.1273818440293983 -0.03678913513398454 -0.007541725656244613 
0.009882583884743135 0.1184092122134463 -0.06879406731783752 
-0.3452941349247335 0.3043657317163193 -0.03973141599126925 
-0.3565172716173876 0.2498707650755526 -0.02645056646613646 
-0.01829022615395863 -0.0691382341320191 0.004605821059346746 
0.2471447694714339 -0.2741243896505334 0.01393318884296482 
-0.08059907609869035 -0.05594762751878567 0.05295832970891864 
-0.07597613157956092 0.04280641212584751 0.08304125361552719 
-0.1370811092722116 0.1669697033290088 -0.0347178277761409 
0.1747230279213608 0.003911854434867319 -0.1576041964216334 
0.2034040530881696 -0.03119565341645639 -0.100399840982687 
0.08711401135531056 0.02197588313698525 -0.03855088271346656 
-0.100447052679949 0.08942051022134115 -0.04686457101559809 
0.02230539112067776 -0.05169858367677872 0.0008056511930731836 
0.03956345282382309 -0.09405416235595041 0.02089254514795209 
-0.02102563254316389 -0.05116610508010272 0.1085182516464469 
-0.02417015114679097 -0.003481508776018311 0.06514405111112229 
0.05423798982173175 0.06555516251817592 -0.02728071953243011 
0.1251518911683404 0.06610054603421375 -0.1602190944337159 
0.008184090863794529 -0.1018238391850706 0.08911194568830054 
-0.1076022889538223 0.07113925667961411 0.04529646756588794 
-0.1917026920757355 0.1244763223258248 0.002000003830228679 
-0.06982459772686846 -0.06368965079076054 0.02102191957284839 
0.2539904378300024 -0.1810970982080364 0.03869228133023645 
-0.1165000016658687 -0.04614470762525087 0.08567045479434335 
-0.1892622868856898 -0.04149972543621233 0.1352682777039725 
-0.07679492152889102 -0.005794720625253231 -0.001378143502593184 
0.1413302990734112 -0.1547907800396202 -0.01470674030729874 
0.1540106830365813 -0.1926253457499798 0.08170868988778261 
0.1768884414268333 -0.2333712700983185 0.09469721794543133 
-0.04207629781332865 0.0256345170931298 0.05344024790134992 
0.0763682900363012 -0.08355853394821941 -0.03202179385693061 
0.09129346294545816 -0.07309717101528576 -0.01002816618810773 
-0.2195400704890569 0.08110941524167309 0.08034763015858087 
-0.1517032153459647 0.123740629789989 0.09404598012548236 
-0.0479797498435503 0.1040398649473761 -0.08502733270519999 
0.06310503306681164 -0.2021382694726412 0.05115914571903468 
0.001091388169095088 -0.06426074129447429 -0.04537933155840759 
0.01198310345878527 -0.09969669358422782 -0.02902736385183668 
-0.07019501144837612 -0.0006194151551620003 -0.03880347393132039 
-0.0009079232959934175 0.01247946466435122 -0.01581019700052772 
-0.00183393919917192 0.05308123469382223 -0.09151550883176779 
0.01946939685100465 -0.07273002384732992 0.008392549526420845 
0.02394366760225234 -0.02493620706185429 -0.03909764900991906 
0.0718271198707834 -0.05563394074911885 -0.001901872693941349 
-0.1195402498527879 0.03234662139172075 -0.07375342247554211 
-0.06651551909946646 0.005604387422091037 -0.01528126936544902 
0.2087139495623353 -0.2046155677691782 -0.0393948537309004 
0.04527700172829439 -0.2301966776223851 0.05355575347183859 
-0.01320939524852252 0.0357812807879624 0.008898931751154507 
0.1161589329979289 -0.1795375754498592 -0.008605311803289984 
0.05036780718999186 -0.1348897053498543 -0.01981409960798637 
0.1503555973767461 -0.1223393800247076 -0.05146334522690684 
0.1072233047248138 -0.07311304183614521 0.03622217156898939 
-0.2664266561905942 0.1731606592660579 0.00633912220908505 
0.1321431298920263 -0.1199458693559905 0.02336730596594394 
0.1038029952321583 -0.1380599975988405 0.03736389422030546 
-0.1106996485363326 0.08418897903334162 0.04609818379747439 
-0.08102137223085253 0.06408481631250212 -0.02453199420247956 
-0.1473616271977966 0.1241440493663985 -0.01965995385469389 
-0.1793738058645892 0.01670406624491129 0.07628755383776947 
-0.1821974282145386 0.125243290012212 0.03328460971431083 
0.02019414298025732 -0.03752200744245572 -0.04791580126742947 
0.1096662127904525 -0.1037804923798456 -0.00764689707846609 
-0.06802833918074164 -0.05898917883277562 0.009873773179221173 
0.1507610440946286 -0.07171004322201741 -0.0273170638037959 
0.029443286363318 -0.09746208178614291 0.02112216749841418 
-0.03693705507815505 -0.04972815747253247 0.07036298533756875 
-0.1108509670430858 -0.06328457203096011 0.04684518444839635 
-0.188797569142128 -0.06994662604905114 0.1354769098614434 
-0.07414036414363902 0.07015202510115265 0.09307631597376975 
0.009775449616072116 -0.01355777446033451 0.04918287399905161 
-0.1327304978034628 0.1419604338055407 0.004746046828062932 
-0.1684283175815201 0.1957574130523926 -0.0830001782760833 
0.1088793697863344 -0.1349061991204832 -0.02183571860904433 
0.1300806517757502 -0.1512738578723222 -0.02348065893913407 
0.05161229917944641 0.1722429086984267 -0.07911420568361453 
0.07401864806635933 -0.09032168442748646 -0.04690719938923048 
0.1214809586247945 -0.04433153508945097 -0.08361147079534433 
0.1536459762614306 -0.1380436492682531 -0.05024584003649589 
-0.08519710615358059 0.06770665169211283 0.02022973582555893 
-0.2743345920574147 0.1460936554667125 0.007399009231201332 
-0.2270082165500406 0.1808756028467777 -0.03616305642009464 
-0.0248395914584629 -0.0594679082918033 0.01245655799618434 
0.1420879143386594 -0.1205792846677974 -0.03285868016626534 
-0.008639000153915498 0.02353799897177563 -0.02817950976381382 
-0.05842476626996474 -0.005225328800835093 0.05259011506318754 
0.09298827090136881 -0.2239256354398003 0.02404312142052987 
0.1133583896557271 -0.09971557895607701 -0.05420594720927652 
-0.07528759447615865 0.04617793119985321 -0.02005660075880678 
-0.3840923565033325 0.201939934589591 0.00498743627332594 
-0.1788411889056129 0.08455237692580875 -0.006263234327941491 
0.09234005664276623 -0.1360785590162127 -0.02461499687236369 
-0.04184707301656358 -0.07137216485925287 0.0238921634007933 
-0.06791430788254202 0.1556943995542292 -0.002432627570589926 
0.01770477225157275 -0.03836911171501453 0.01552762651461046 
0.006189284876526511 -0.05594227634787574 0.04564151516738917 
0.1566782700450476 -0.1140941663914328 0.001986230528156724 
-0.03988435451922517 -0.001137020897266829 0.05929536276476857 
-0.2334127812976256 0.1428344965815233 0.05766026263429242 
-0.1328178671513048 0.05663392808326719 0.02925312776919646 
-0.1228020637304194 -0.07832950362649273 0.07130510985886571 
0.1872942208329408 -0.1351297053769477 0.04635082859221659 
-0.08501064512791956 0.01100396019699075 0.06299038523542413 
-0.0962090933078384 -0.001961950344404441 -2.65894827438109e-005 
-0.06118269996778493 -0.09915238540088769 0.06080925638810788 
0.06187003266694055 -0.1330013853317006 -0.04622530954803995 
-0.04598448903302783 -0.09017889899787276 0.01442139740879741 
-0.2811797725728104 0.04768868104695428 0.07124828760638231 
-0.1863686120769937 0.1155737142671759 -0.02585376639482967 
-0.00675793250188372 0.02875538843091051 -0.02733874478610309 
-0.003779301879502897 -0.1917529034321787 0.005175167031209137 
-0.01608540400150972 0.0314855859091118 0.002178469530936027 
0.0263296885209743 -0.07689371668886738 0.07870756051849284 
0.1190551626211542 -0.1610334492202893 0.03078613160738633 
0.04753335321953717 -0.04994055354665457 -0.03674815492470487 
-0.1099373054793875 0.004443353258859755 0.03381217135342288 
-0.178922800910727 0.03659472308719229 0.03761490926518649 
-0.1200241209293309 -0.02065537292699069 0.01094666786885686 
-0.03895268052788939 -0.002707545934443972 -0.03472214964484164 
-0.002106928964124137 0.09059611825532792 -0.06192143026727646 
-0.1940131966821686 0.1786704630700684 -0.07207435452083877 
0.07355221492806729 0.01251121099076553 -0.06944407944690519 
0.003057667098300152 -0.02695864160737513 -0.03983025978464123 
0.01474045770569623 -0.03192994873178939 -0.008406658971145028 
-0.1652856031338375 0.03389595879936087 0.04230797353962114 
-0.1345876995715672 -0.04083020045885615 0.05878950407524893 
-0.05142862736106751 0.1757073310011762 0.01936331814778819 
-0.09326089764958723 -0.002130714077191295 0.02495481349676541 
0.05747239614970571 0.02914220271695377 -0.02310806227074117 
-0.09277600033806552 0.1075532546510933 -0.01064409040448743 
-0.005628315933771237 0.02268520743723152 -0.02663542938622382 
-0.1974800063159943 -0.03586866984657251 0.06431240676549142 
-0.1007461520080896 0.009700697186597277 -0.03392812943385051 
-0.1568549869313425 0.004109868563931903 0.06368589577755467 
-0.1082374006458096 0.009482357382852545 -0.005298843294522381 
-0.01270923736227664 0.1156854547527375 -0.002120683637682298 
0.09136993780909403 -0.07441677204938155 -0.02196739438676747 
0.02720201866289875 -0.003920172395312884 -0.04765575370367499 
-0.1465173286163556 0.1409609061683068 -0.04200478203272631 
0.003004607319297116 0.01647193753524739 0.02673176915759414 
-0.1195999299992109 0.003150204031303725 0.0008156166353239686 
0.05706229816731485 0.04914841936627463 -0.06667076942105969 
-0.007645709345858749 0.001906659647115363 0.01396557500121863 
-0.1184330434282061 0.05090475302161203 -0.002264878974886282 
0.05516233902861283 0.04088036789519949 -0.05855791571665142 
0.03001635351442343 0.1074240277181695 -0.05689745172131123 
0.03050378327321617 7.31961507531981e-005 0.01654558990352489 
0.07392718456750325 -0.03687800592267318 0.01735785979622748 
0.01875973695875595 -0.1152782240082078 0.02399718702557718 
-0.05407288457568517 0.02457427319200313 -0.01441852719263269 
0.007082406152712802 0.03878046404351607 -0.02369857816639936 
-0.01484293604558703 -0.03383006610997488 0.05348875862607799 
-0.005359587449885975 0.0627834758568558 -0.01778030294690573 
0.06600801054557878 -0.01270606206230644 -0.02248334112194355 
-0.01456914971384958 0.07157761231650163 -0.02100375098797687 
0.01077968738056866 -0.01933022182317811 -0.01098616122372041 
-0.001252181254377687 0.002277831979961419 -0.01010640329909683 
0.007446195091553262 0.004591064043560128 -0.04919561961186228 
-0.1742666848288952 -0.06564962820961626 -0.02974987538159664 
0.1000671967810994 0.06887320401236531 -0.1069953357678461 
-0.1245052787511246 -0.01025038074642984 -0.06531739931140669 
-0.09333894743704575 -0.007228029921231614 0.02059667220109973 
0.08404940634405068 0.06872478397336085 -0.05308027529675515 
0.004787483354936683 0.08940068837488596 -0.02816223510373975 
0.05795656814465363 0.03345615485662042 0.009839179391799551 
-0.110499624064914 -0.1137488622882728 0.09365174170174119 
-0.0844422554900605 -0.05178246150357063 0.09650836003598926 
0.04300814293738237 0.05587015215709832 0.07105170366410601 
0.1561574209628613 -0.007448540754047501 0.03439460982124391 
0.03630524885120158 -0.04254610125775725 0.06637982965775732 
0.07253982162536186 0.03379827002963284 -0.04807971346118408 
0.06568052146652854 -0.06602738368341506 0.02668862724239121 
-0.1081965754078591 0.06626392005127436 0.02994583606747363 
0.04945535050053188 0.008935629204650858 -0.0353570458955913 
-0.1080875002895397 0.02526012940719211 -0.0009837356317509466 
-0.07310518504500195 0.0603140918247058 0.009503557186772638 
0.07265771011872095 -0.003320227717405981 -0.01521910297728732 
0.1932460262544638 -0.06754116875125643 -0.1344658455589582 
0.05964559940388903 -0.04690601813632455 -0.05774007258072522 
-0.007326904412182867 -0.07418834672242571 0.04892125149291059 
0.007967457037145622 -0.02079278204085435 0.04377149036771617 
-0.02677347498848276 -0.01450976571860892 0.009256966562914028 
0.06321096878137299 -0.08826871051386011 -0.01289945216963207 
-0.02989527082865772 -0.1007292522059686 0.03245448657534224 
-0.1250743228009562 0.03533496456554508 0.03820044632592881 
0.003151954295229242 -0.01809727437917341 -0.02160343359398605 
0.0522735981698435 0.1029901683377171 -0.196291381982498 
-0.1636265014851584 0.1645064751042616 -0.04624840188993672 
-0.09229242506888079 0.05534689446319339 0.06237085896034209 
0.08156958098566085 -0.1248855172866523 0.0536788093029348 
0.1140496836125091 -0.09120182542698431 -0.001726154198457306 
0.07661790689308166 -0.07434605936071047 -0.002673031970160291 
-0.08156515688852181 -0.137677666285052 0.08448171130587917 
-0.1501134871428904 0.02945724095879541 -0.05897765342551416 
-0.01706675698094234 0.01416089916002149 -0.06190093553137739 
0.1392048109633784 -0.07504278526448652 -0.09903370796468641 
-0.06434131217875601 0.1618867134403988 -0.1093500219533074 
0.05706331413262424 0.0506255460779997 -0.04451900107689891 
-0.01504386526210063 -0.03474428230087186 0.04543743023878739 
0.03552421653462692 -0.07295380446087608 0.0147721936703291 
0.001628777732097942 -0.09684352485810606 0.007651276061935043 
-0.1170889713452993 -0.07013916404017093 0.07722558411420502 
0.03873139033383505 0.07014534995139941 -0.03019916119507459 
0.1913772549593976 -0.08281707591383077 -0.01672763449218395 
0.2102733327722202 0.1445350803337548 -0.1976979058346634 
-0.03940054247478601 0.2821678993824709 -0.08380462467547206 
-0.01585797739948918 0.1248282384556887 -0.001447259356617104 
0.02645010277715552 -0.1336719679056163 0.07876412799479954 
0.07337093979446817 -0.169388123084643 0.07608630716518003 
0.09627604459447059 -0.07391002566957494 0.003817193632222201 
-0.08902887075198021 -0.03449702086969514 0.06694764478901272 
0.0954468523057396 0.04324726666364722 0.02004324956852783 
0.03490890750104488 0.07471576944113891 0.02634258710811794 
-0.01597442670005944 0.1048454987681825 -0.02248110350008035 
-0.1653802568704348 0.1935319407285183 -0.09823336734883749 
0.0322034028153015 0.1010990732500122 -0.1094518891897063 
-0.06573875301319714 -0.019191122980362 0.06998153241977789 
0.07729081522184787 -0.008341912760012525 -0.06155016950505734 
-0.06758855879618289 0.09338798292795639 -0.03616387267477667 
0.03012644642754049 -0.05121645917298622 0.0321806807725555 
-0.1065896435132687 0.02078191982515487 -0.07531628171342289 
-0.003764830823012653 0.125818990917048 -0.04423599384748851 
0.0963935312184072 -0.1188116893080015 -0.04484831561117381 
-0.04926943523352473 0.1069491129461587 -0.1141762560509711 
0.05716527055504241 0.1035712575471505 -0.08279142399127241 
0.2397429399197563 -0.07662995005930282 -0.01791509986958802 
0.01303643101529179 0.01023940379855827 -0.05042231598229008 
-0.02397261886552883 0.1369499005990653 -0.07335538185426088 
0.000451379341707083 -0.1121933333757978 0.01466311612546813 
-0.08440719928433621 -0.08224557994892191 0.008922766612249415 
0.080060422566442 -0.09285008681386756 -0.0228170859995801 
0.1145735538300783 -0.08879689749199715 -0.02147545575383379 
0.03960854659332368 0.02376305139537762 -0.05068407425647452 
0.01605838462636392 0.07415491298048785 -0.04174848104490685 
-0.06035622236558087 -0.02113186042232975 0.1398494370966456 
0.08219099604979041 -0.108149729865783 0.0366754602563508 
0.1433506520761356 -0.05586889477985574 0.01285393347856364 
-0.03471295786226669 -0.0002534823158305535 0.04059530021545157 
-0.1279385460329836 0.09697917077232425 0.01377649521588839 
-0.04450530908510032 0.2018314739390208 0.05179761709544432 
0.03602107702924971 0.1393360688386819 -0.07339564672514133 
-0.01695185222540906 0.1628895572604293 -0.0984727112688501 
-0.1140710883236514 0.1917237493325208 -0.063212588120791 
0.1058510596724918 0.1042661561182056 0.03200632565640525 
0.1313593182494421 -0.03458390612227251 0.005673286023516303 
0.1943424652655442 -0.02270822122689632 -0.06049479931380119 
-0.03109820188953545 -0.1797545623182242 0.02939415727025715 
-0.04133694291060239 -0.06311423290547429 -0.02026800970133181 
0.03774394612535488 -0.06962867956904054 0.07920109538248472 
0.1612641891379009 0.0418830481597394 -0.06400380014105714 
-0.1316561457036373 0.1503681588838801 -0.09678567446096231 
