solver_type L2R_L2LOSS_SVC_DUAL
nr_class 16
label 0 1 2 3 4 5 6 7 8 9 10 14 15 16 17 -1
nr_feature 4837
bias 0.5
w
-0.03528176561888756 0.02418937021602611 -0.1451058056849491 -0.02046789722709519 -0.01425362851225793 0.0116314777275481 -0.0214841962897163 -0.08104231531040659 0.1693096020173715 0.009998750064546822 -0.02152940508282581 0.006477258627762864 -0.01813432582465042 -0.01375024568317428 0.02181470876412155 0.02658369218936024 
-0.03112375566887769 -0.002547099857156634 0.1745163765604568 -0.02897267654957875 0.02342675787847043 0.1236242522537669 -0.007377513391736907 -0.06603423282256499 0.08004712757806513 0.03063841146251529 -0.01102740262225069 0.004286286271912548 -0.05572271247760011 -0.01036809085818184 0.01320737552855366 0.01190943684047303 
-0.04198477646826138 0.003058180684036734 0.1099848054240096 -0.002018441110007141 -0.01537676083916477 0.03565831541608151 -0.02681654883708068 -0.09309557996439519 0.004228389432392154 0.03946977950006997 0.01094534752675998 -0.01755467981655173 -0.05743380465229075 -0.01062755201701619 -0.0127263692106982 0.04406599904608143 
0.0281721931593741 -0.03754210310680306 -0.1078933709375038 -0.01601573990111408 0.0144561953875821 -0.04326823518283718 -0.02202662206081991 -0.09753006585058063 0.1964505940773788 -0.008516365319330249 -0.05408613642378082 -0.02268621636817963 -0.02984909380657705 -0.01753712923198093 -0.01181025753514404 -0.004330784700041313 
0.05848115941606172 0.08603350900384151 -0.1737269117742477 -0.00504366397310201 -0.07095926099963944 -0.316802160157296 -0.009223842954283305 -0.03112925161819935 -0.1240868028241731 -0.04144959294929218 -0.09798804086300536 -0.02132422247024455 0.007600572251415518 -0.003610270046690294 -0.01033811743983079 0.02322666705496343 
0.02216746093668361 0.07570394388714612 0.1824567105292911 0.006414731130033205 0.02475211563734175 -0.149623081074721 0.01056939379518756 -0.1106054306392408 0.1956984038974754 0.01921459238639524 -0.02411459490519396 -0.004514576648966684 0.02641572111855052 -0.01344290070768554 0.001905117902194061 -0.02075526229262744 
-0.009778218409950631 0.04032949383406125 -0.02479481222527993 -0.09065796816866167 0.04231404518129171 -0.04003020821232751 0.01230747552895595 -0.05565380354764617 0.1451704582527844 -0.003989257302430552 0.05172569442827632 -0.008601969940379506 -4.472431075337105e-005 0.006691255185923236 0.004349916791400728 -0.008339400485190012 
-0.01438353766591184 -0.00750382965761226 -0.01774015075166904 -0.01225764923223336 0.08261884622383391 0.0441492663653382 -0.001527123234279586 -0.07080322777681664 0.05954350231479112 -0.02084299274439822 0.03992712994804391 0.009739783143710065 -0.01978650336859213 -0.001509301385193381 0.01278414894249148 0.005480223756550663 
-0.03092807520567319 0.07696132080082603 -0.1432090179795675 0.03811762860356004 0.05167127109321403 -0.02535870762226385 -0.01921829558986074 -0.07320689660127305 0.01891048414633334 -0.009756369138571832 0.03381082069027516 0.02017912755910092 0.005710779590234413 -0.01211011395093296 0.0187237943548317 0.01643844200175353 
-0.01927641431631312 -0.1021099344106096 -0.020286142386253 -0.08532939296175519 -0.02266393797933096 0.02891997459726288 -0.0248530974457635 -0.04521907520182232 -0.06233551187004418 -0.003437832931396985 0.06598578030093505 -0.0002021976275251173 -0.03517599078562757 -0.03507391035521727 -0.01388927212133684 0.05557768515263391 
-0.01193126520130736 -0.1121749291681094 0.04700292208949972 -0.04845494031169138 -0.01887767910990061 0.09820110758953664 0.007117790809936719 -0.02067703113702422 -0.09508702378050335 0.01291725661138025 0.01993549565458737 -0.02276924847235605 -0.02959886176302137 -0.02209330040145021 -0.01081527645045551 -0.0365833281812156 
-0.01773755038870917 -0.211552627113796 0.09337247689856365 0.08768276306606258 0.01522808048000076 0.007233622401471902 0.0141309420154824 -0.0645155687711884 -0.07679712943054423 0.03118612823279649 0.0477573581470731 -0.01437000877353455 -0.03574626533811239 -0.003977420449519609 0.009688327816530231 -0.01646354875883682 
0.01030692023453352 -0.1135359099237832 -0.06729794627283371 0.09125318842924345 -0.01489696578855727 0.1191738259101455 -0.00182543690593076 -0.04930181491557938 -0.2004698032847231 -0.02834145680358258 0.0001883080301011727 -0.02898781835922598 -0.01496961010571693 0.006063516733617811 0.005057593482661001 0.02182311118100834 
0.01439258499365495 0.01321945362672542 -0.08434476864696301 0.05148602267920555 -0.08224217527296382 -0.1380826967482953 -0.006261056787367214 0.02567543525637887 -0.0753712264074274 -0.01993635653475421 -0.04913243719609348 -0.02392797929424024 0.005352930987830139 0.004341948511516929 -0.01996448149624736 0.04130521334988441 
0.003291046076289311 -0.01924661632692492 0.0656296344372975 0.100545338148175 0.003572407170077454 -0.03904841352558906 -0.02392146882706461 0.01156518250794726 0.01947391402502188 -0.01086503530763156 0.008573335974147191 -0.0119000929435998 0.03917460079145227 -0.009498397542748888 -0.01718558590429555 -0.03742112773706686 
-0.008110752708744068 -0.1021464884670607 -0.03041183249410831 -0.05082335411172234 0.003913892398262132 0.1263437040561453 0.01568739412508214 0.01783188042710088 0.02377023933398293 -0.008669515349877839 0.03457862359944774 -0.004750857655381181 0.01584830179879481 0.005512649609377153 -0.00804299333230824 -0.02687126529949133 
-0.0148435958505463 -0.08822744182779384 0.02009717987951673 0.06303970297429871 0.03971511427783241 -0.03371417568920132 -0.003314128933169052 -0.1267884704241891 0.1360284130729209 0.02805782578157151 -0.04459779758135469 0.005012040347903885 -0.01364937308081515 -0.006919440091552834 -0.002976923398281467 -0.007487153731373571 
-0.01774219300622086 -0.04776267163222511 -0.1915855857304194 0.02605393557334825 -0.03440151798128378 0.01386748659714352 -0.01616090645131003 0.02232796301960088 -0.0999130894193766 -0.02662288693245505 0.009424725400292131 0.002002962075661107 0.002782782747662408 -0.02108453467808235 -0.02131000985061549 0.03284497523159097 
-0.0378856300204361 -0.03282858660787698 -0.07428001890417411 -0.1039580721390312 -0.007185326875116305 0.116695246445102 0.004159443142808376 -0.04258934117727554 -0.006479969280140713 0.0262750741950918 0.01129547929013853 -0.0002470512800359973 -0.02198399561592372 -0.01429403765638973 0.02357632746011728 -0.0455547349578688 
-0.02449295970833933 -0.1726592530542013 0.04763715559042035 -0.1175553265760779 0.06200794559671866 0.2902682174965643 -0.02841231007113837 -0.1669951357503481 0.05992880050155098 0.02991600017624506 0.01933651746344018 0.01702638144734586 -0.01684751898709416 -0.02060473186655823 0.02219676567881461 -0.05406179446478 
-0.04346822231261748 -0.1334884175721289 0.05623556408424968 -0.08337841108482313 -0.03591903448749928 0.3891084804016597 -0.01053765312149706 -0.1419117767081039 -0.154070736327628 0.0113216327004899 0.02285381381805213 -0.00994793781555014 -0.01855706031242214 -0.03375275445588889 -0.01519523842479984 0.01700727854101651 
-0.000185871718939546 -0.2296268638302087 -0.09421293766816133 0.04474736415913528 0.06094986401759065 0.05285121625961092 0.01212117624738351 -0.06141593446906606 -0.003736345581419558 -0.01388669829198271 0.05142761702388155 -0.0404280680345134 -0.004569825239346932 -0.00107797425110984 -0.0006626244380198833 -0.05878842735957353 
0.04142488034144783 0.0205986628075274 -0.09905048159700282 -0.07048481386854563 -0.04844944662337026 0.2496398679134027 -0.02316520925807591 0.009117524397791222 -0.1624789146591765 0.003874530264148384 -0.07546738781501954 -0.005690820247679322 0.01529267446669061 0.01150822921397768 -0.003282032563231232 -0.01269250310396524 
0.02431683151700666 -0.01688175255020967 -0.01627742495803477 0.002086709324196767 -0.02288351130952298 -0.06824165914903779 0.01522058875017943 -0.01842281247632743 0.1820819332139487 0.03928972897252738 -0.06064445929756369 -0.004132855744219325 0.001980651005878857 0.003646196131625526 0.008354723928751409 -0.0532991943310465 
-0.002316285751994597 -0.06974709153005032 -0.09249253400252371 -0.08140095322008274 0.04325225639246045 0.008094549513773175 0.002763266812604006 0.05209825000830509 -0.09806672221136846 0.03369900355565505 0.01969363789043798 -0.001262102514997987 -0.01764722510980183 0.006849009730792641 0.01502565268210561 -0.01976107106016817 
-0.01059194270724696 -0.107625138167577 0.04941273819355675 -0.0201098475055292 0.0792558270897295 0.008472302276942696 -0.009911413508932675 0.02397232945288527 -0.1704169555573743 -0.0001769631278988305 -0.03654924031811 0.007353667712341836 -0.02070688777906319 0.009663494582852024 0.01250857869976778 0.02169938011843609 
-0.03750909580881838 0.03490787512393401 -0.1264032499868607 -0.1217690041489294 -0.0493586272271849 0.1691016438573714 -0.01032508837336737 0.03905045591493458 -0.07417753050943898 -0.0479864254692869 0.02144717095970138 0.008427583252821506 0.01411220835671913 -0.008815899586532134 0.02068178436671249 0.003302047222869833 
-0.02177878745427971 -0.1385054751852847 0.04846517606511767 0.03762632858772564 0.008782042781606717 0.03845079498002523 0.01031879673033062 0.08420714042398243 0.01421238109008827 -0.001248068677416209 0.07837750160417933 -0.02307212801989612 -0.0445352965754169 -0.03388003485848108 0.01390123030470738 0.03446218346612447 
-0.00741185791088526 -0.0588366051431032 -0.08912484443387703 -0.05714415688535653 0.01200704207288469 0.05008119977596276 0.006324544842058215 0.08181073012360983 -0.01982120791450103 0.01218149936924149 0.02715825862166338 0.006164514088240896 -0.02002819486782172 -0.02238939591907614 0.01043588269395192 -0.06849600612574325 
-0.007264747840731991 -0.1137429526685471 -0.03471497685926907 -0.1508791693014255 -0.1068660419003165 0.0505115120209786 0.01463588034098903 0.006196575460070467 -0.02315189767189142 -0.05356339788621508 0.05290734836487168 0.003311688056389864 -0.02534375336952873 0.01907073584842161 0.0108048373964836 -0.04705452036432911 
-0.01731697480446554 -0.146310701822547 -0.05454789421567148 0.00567598573796776 0.04976164770044764 -0.03410032014093389 0.00268887587546702 0.01530603307277303 -4.481255394040667e-005 -0.0934827383961644 0.05875651596832307 -0.03363264262099642 0.004142266959368357 0.0453821095286646 0.02263781834044961 -0.03104306688883837 
0.00429941047335687 0.03413078381411465 -0.04128350963860882 0.07886166073495861 -0.08540770497216814 0.1511953228203929 -0.01883369580627394 -0.1021377065639286 0.01958826837662138 -0.04390454528461969 -0.05441097146789931 -0.01008456862087883 0.002468955926230093 -0.003226737702545572 -0.01791986906892346 0.00410368505620816 
0.003996087589215508 -0.1087839474027338 0.03128572805456475 0.1341286234357646 0.02939874878821173 -0.08278393496118661 -0.01726193369854385 0.09396121024670909 -0.111550954237648 0.005001862436883334 -0.09866007687513606 -0.01345825130186104 0.02231511684253344 6.936954308915647e-005 -0.007195939081622368 -0.009788406685208034 
-0.01204190884090219 -0.07671835484819939 -0.03429882889698202 -0.05057465674456816 0.007502322894701894 0.1220623351492261 -0.002098866714079804 -0.0312622764250589 -0.08410124348312432 -0.01726598087471557 -0.0009728041201689608 -0.004429429323666241 0.001142754616293104 0.01169097903137487 0.01175715031866249 -0.01064761613811819 
-0.01616222240869023 -0.1001163733337774 0.102481366439446 0.03796116388284049 0.001101807350236417 -0.004616692070599777 0.005898225983390987 -0.08738200718427744 -0.1457788062149308 -0.02821953107102707 -0.05663199361833962 0.0004728467501711682 -0.001757915797554639 0.01139277027984218 0.009848115790226143 -0.01721588468817071 
-0.02237287248921704 0.04432009293030664 -0.0841898252171957 0.0346557045776469 -0.1150270728495623 -0.04104087286604438 0.01444977317290506 0.01134862037868845 0.09407132982203949 -0.0452284355395993 -0.01001223030392376 0.0007995439890054429 0.01913414324297018 -0.01869933518447826 -0.01353116646381724 0.02074849647050063 
-0.006989559848114411 0.03275250517808444 -0.03634346433082417 -0.002984329571687599 0.05904430106625369 -0.06902311929461756 -0.009725513830122252 -0.02737751927484321 -0.1468333129186415 0.001383404762190618 0.0244426324780899 -0.03192726358740493 -0.01196510912374327 -0.03052216991455602 0.009557154360917808 0.08014714165555276 
-0.004087318759543295 0.00467067909296919 0.03954316254782359 -0.01837066747632447 -0.02502429201347975 0.03015371570752566 -0.007513188546141786 -0.02607264653940845 -0.02916511699208454 -0.01806613090311312 0.02227309425293198 -0.02023553189170382 0.0008710927697971539 -0.0284510962131363 -0.0002751869967987516 -0.06612716638633445 
-0.005601757342923861 -0.02361269682297026 0.05392601591578401 0.1774185041969723 0.03971558702101564 -0.09666489537229729 -0.006651356115228223 0.1072561530451591 -0.1151895332624853 0.04505737977674307 0.01714722294606001 0.01868822154317531 0.001097257542131388 0.007907442882720278 0.01116910508478561 -0.05971960251406787 
0.01004894617494242 -0.02285079112337691 -0.1032626352957703 0.06359291820449059 -0.003708368199724173 -0.0301739377556657 -0.02319779789451023 -0.01962666606795939 -0.07864882906942068 0.01080969479404596 0.0080349106942076 -0.01068467479373282 0.01284052628301407 0.002729136667687946 -0.001423018332550412 -0.005591638085957655 
-0.008847854449008308 -0.09278160340886149 -0.07984842998690674 0.01263729122702348 -0.02389261749236533 0.08834791993793743 -0.04225866783308784 -0.1204911539137619 0.07074755497636746 0.03206055997055086 0.005107278101833176 -0.02603865011447665 0.008716634480419101 -0.01384185968305093 -0.04707666790752437 0.07873196345278193 
-0.006542706034669809 -0.0809195876989148 -0.04869635314463251 -0.05530589015316577 -0.02380294580226315 -0.01707712078140095 -0.01126322045036943 0.03179860522212153 -0.05524726581562892 0.01834235890568756 0.03536306359012019 -0.0106385054891605 0.02584744755982754 -0.008905079266438581 -0.02369029754541598 -0.02020933493234374 
-0.01011276083911281 -0.08233186768976071 -0.04822000716435959 -0.09419668050664831 -0.005421084761797001 0.235202306247752 0.008435210255978792 -0.03282178394685357 0.1628831051051549 -0.006433620435632512 0.02685385135944836 -0.003715681236589845 0.01965033596481156 -0.01332613674538489 -0.01040102585187763 -0.03950722413423499 
-0.01035685661053206 -0.04449853180511496 0.04423390058522114 0.009721901486548893 -0.006488902558575184 -0.01633040153663517 0.009002055462586367 -0.004638698972442751 0.1706441088958225 0.0512889884029326 0.01543004950720978 -0.004453561864890625 0.003822171294237208 -0.009859501993695776 -0.006165373723537852 -0.02340631603134641 
-0.01425975084112439 0.0136732188491106 -0.07024169215780657 -0.02086988738005203 -0.04915861113256902 0.1721375754280372 0.003829478210187817 0.0368734855397822 -0.08262467014277823 0.02265992093099522 -0.00884135370293822 -0.02255177660993378 0.004955020714292031 -0.02013518229663382 -0.01633033688991143 0.03796098953934682 
-0.01184853774311358 0.05768952859499645 0.1468145888595711 -0.01347481284476276 0.05805771085155285 -0.3047924193348454 -0.01371627523985832 -0.05080983475688063 -0.07012612230100432 0.06458284681453806 -0.02374379887549488 -0.0320694843353715 -0.007221096263872762 -0.004412355420340613 0.05415430129447802 0.001373241865001744 
0.005295087023430679 -0.0337761438617364 0.05693986817421393 -0.104066093792273 0.01826354750364088 -0.1112926176274847 0.01770863342838831 0.02604250323157231 -0.1984094503575382 -0.1174663577368394 0.07659400549191146 -0.00300086509280667 0.0199230231209988 0.01303782594498297 0.03660698274377561 -0.1037682661038792 
-0.002225751315203004 -0.1300439428712773 0.1555791974256267 0.04057906698887862 -0.02745318041371156 -0.1704056836644381 0.01477938853155155 0.1579513814783562 -0.06465223846690975 -0.0110694455224412 -0.03262641288923036 0.06953173116751017 0.03320678500620332 0.01370337583592651 0.006587523765826421 -0.07707954273645527 
-0.0125226970325259 0.06373249664118767 0.02017371835994971 0.07214438120550573 -0.02964569433755783 -0.2576592706517293 -0.03235307749375557 0.05275100280425289 -0.00521038760993347 0.01834950337648799 -0.02487847332888404 -0.01012069384027006 0.04091682697520666 0.0003478491917960724 -0.01685428996828003 -0.02592397863063619 
-0.00681464599736328 -0.02905789009010047 -0.1121185138761747 0.07314348585278327 -0.06449106338331755 0.02643451200628315 -0.03648414146584242 -0.1241760538487839 -0.1095400374732661 0.01076046847836876 -0.04049651700532341 -0.03301791407011155 0.01157711328215865 -0.01735385488545443 -0.0572311237478618 0.05343570717238118 
-0.01032637450989284 0.04824045192475276 -0.07467313517917373 -0.04287869467737494 -0.01775176126512382 0.01634755537630408 -0.01273362623499067 -0.0001934554460848939 -0.2162855263570772 -0.005555053280470425 -0.01260630350676675 -0.02039313008132537 0.005325083154649248 -0.01638202612749656 -0.01709223618977172 0.01119834646938721 
-0.008137428766998748 -0.0400887126168333 -0.002161177893620729 -0.078989885117461 -0.02618625837667789 0.08649346283063493 0.009295897240000434 -0.07164969572745666 0.08055539170886715 -0.008409453240505821 -0.0008214794583388991 -0.009745697405007961 0.002221229046220216 -0.01908399564754679 0.006171953003953084 0.02218183008880666 
-0.01150098480549128 -0.01678915544354231 0.03328573064297017 -0.02796513601751578 -0.02872282950917396 -0.100715389883162 -0.01104337985514936 0.0887905152347553 -0.09901454834392257 0.02384459132321276 -0.0145596572984338 -0.00539582317851693 -0.001362644563115198 -0.01841651136209321 0.00335584565326147 0.0290089690042591 
-0.005249793992591715 0.08173914354630374 -0.02450401571177734 -0.06954740820566993 -0.006191584891280921 -0.04600988980779099 -0.01757493989579625 -0.09687930878494824 0.06986550063883634 0.05124693883160986 -0.03036557007383899 -0.01553824557665574 -0.004268293788092195 -0.01485295952639117 0.005764658618280157 0.05257457171465422 
-0.02302279860791453 -0.006711580943543965 -0.03885249740652887 -0.0209491299755238 0.09528609614517536 -0.01015592811900169 -0.01221713757402578 0.01056175116307539 0.02608620312011811 0.001991976414975197 0.07015649229848731 -0.02500544050110001 -0.03177278948071569 -0.02959783749705008 0.03090889324206013 0.04136737787126821 
0.00153041607784628 0.1134493801590086 -0.07168373789226977 0.006571099590246808 0.08923343592967724 -0.106742280110425 0.0008734387728877892 0.04755997704245998 -0.122869463313777 -0.04447583662196315 -0.003147448844897221 -0.004345875084305206 -0.02030047638846048 0.01503060238380622 0.04002073561350703 -0.09837226978893177 
0.008324149455266194 -0.1179748409551742 -0.03340626810933094 -0.04443316648950537 0.03218547524370548 0.02716781681246595 0.007186255030235529 -0.0475575603217837 0.05655192969217143 -0.09819163383015793 0.02129467456807495 0.02647532793166699 -0.002012890474194635 0.01879377392072432 0.04173588198320102 -0.08257937659044667 
-0.02187495849411076 -0.1147534970531552 -0.009442479004574985 -0.01695168944559396 0.01295441463842507 0.04089717413444759 -0.008207134423383654 0.03902745554441881 -0.1715139280246615 -0.0556911293611207 0.0451351743069096 -0.01910438970157547 0.02318575820937958 0.01100865256022906 0.02909159287530212 -0.0414331494925882 
-0.01712666105801756 0.04564664525397126 -0.04611178941723593 0.02540483861262913 -0.068216798916046 0.01401439584910377 -0.06494620572860095 -0.08596576931412167 0.1913606189581988 -0.02140516629108053 0.05531034460491319 -0.03157360610344578 -0.003939328816415833 -0.02011581028144484 -0.03990014118297352 0.03940517270678205 
-0.01090401663224324 -0.1066189800187121 -0.02164412466172429 -0.01160035154307274 -0.02948639407960964 -0.0274600730918712 -0.01349730643720925 0.08009079511434369 -0.2699328149359663 0.003738912811687107 -0.005812772426538225 -0.01523380071434939 -0.002507307132317496 -0.005931794611494275 -0.04041513750631873 0.01809346007777895 
-0.01686772065422735 -0.07539295474676271 -0.07456815094531367 -0.02323064831140176 -0.03103919374187277 0.299215189587281 -0.007832186940249506 -0.1096766794036688 0.1270916337194594 -0.003131484284349329 -0.00856179999424854 -0.001251135689935237 0.004497449554227893 -0.01186008070806801 -0.0150320901066441 -0.007510897384221575 
-0.01291279725574401 0.003137640919021703 0.04335635172975002 -0.007005294742142358 -0.01298208661463177 0.03692256435335899 0.03246446204688615 -0.04249326221282565 0.05383372933448655 -0.009338855827042112 0.04123867725442045 -0.003185620035387796 -0.00313238424705633 -0.006610009649324724 -0.0113065309294576 -0.02183661392381852 
-0.01582333028954554 0.1095304890171064 -0.05583049701579627 -0.05399902132065475 -0.006693788872508179 0.1628434873152932 0.009681983928080071 -0.02930616084286351 -0.0356239315011512 -0.0127319936137667 -0.01135259222722204 -0.007196170036885536 -0.006634866206754655 -0.02109106897831872 -0.008829939709150598 0.02911644973496039 
-0.006352645169124531 0.03095132758982202 -0.052437530531431 -0.04686978759211981 -0.002983018631363753 0.02199742890843009 -0.02003386465066373 -0.08447372822456038 0.1001515918934167 -0.007756925684327244 -0.0210299798556874 -0.04259564370418133 -0.0271724750191173 -0.0005767091908330363 0.06208944784543458 0.01135569764205317 
0.0003241921147412443 -0.03032027586938337 -0.09007181106515066 -0.04908740567592104 0.03132950524053172 -0.03022826127884876 0.01489827372135379 -0.04231026116459026 0.1334330469977559 -0.09806639795067153 0.04405583894851912 0.01855114652890613 -0.02605362061960433 0.003985912877523084 0.07451487796065402 -0.05852308415912086 
0.01510523818861986 -0.01022011573167901 -0.001614267704380935 -0.01246105365905088 -0.08831069517069587 0.1697271207595636 0.0189978951387582 0.08880359016335937 0.05299011457756746 -0.04889661391391689 0.02678042943624222 0.03848673515038521 -0.02490363262043176 0.002196797622552017 0.06270676615311856 -0.07648979551149215 
-0.02387024733246787 -0.08746873299362999 0.1168798781383391 0.03939136681316729 0.004994831388258265 -0.1122884449633285 0.01013643456155917 0.07687031643045376 -0.04625694579314158 -0.0271664125662164 0.03099413098061556 -0.006604968249724513 0.02509704910835945 -0.02627774426394188 0.02538915257430708 -0.03638997346468367 
-0.02048318686775165 0.1069130101628967 -0.07122248428611876 -0.01740953378965974 -0.04066874379221776 0.03633325990360024 -0.05198490437991051 -0.01968955037133076 0.0387325648670603 0.02373268977318946 0.04308591425681157 -0.0392950378582177 -0.002662270735556094 -0.0205925442047052 -0.05836306125038338 0.02215159524931161 
-0.01477234285004012 0.06359639716309597 -0.02035766489039518 -0.04864814474018564 -0.06762889286383877 -0.08899590326111793 -0.02475133994471266 0.103018568008752 -0.007876570184482894 -0.04210408132503308 -0.01672198945723067 -0.02387273068947326 -0.01243348271425675 -0.01037428437161749 -0.04835439381816261 -0.004190282251921392 
-0.01193765038891128 0.0492470854872049 -0.1195041774001511 -0.01410395840716831 -0.01793199744654529 0.01486771330704861 -0.02082044380916165 -0.04713188518119087 0.1648008899111668 -0.006235831717667452 0.02078904631099303 -0.01685737578840347 -0.00189216636439249 -0.02107805745992526 -0.01505888664917344 0.02135547633683789 
-0.01476318687465245 0.1231867162468344 -0.04561643470458059 -0.07068600668589459 -0.02474341401022714 0.02082447990152893 0.006363644909993534 -0.0581087999363744 0.05653537033399159 -0.003397367759452952 0.07302251636893482 -0.01428685312205025 0.001842537478320915 -0.02083894355057687 -0.01637203198293174 0.007534603811938862 
-0.01635630288559066 0.1482538118477315 -0.0001552044156807685 -0.1394313469601204 -0.0237924203745056 0.1329569392925019 0.002505555320747636 -0.1508888526164721 0.1050535022463781 0.03673806948670427 -0.008328557340699519 -0.007122851201962001 -0.0109909093393637 -0.0416701604125695 0.01420166681140751 0.04041204456513312 
-0.0039395677954409 0.0342061627692407 0.128684818969075 -0.09254873443019562 0.05941397110589848 -0.2629671647802709 0.004643539248510022 -0.01647091152380996 0.0004743731850257466 0.0177778188127759 0.05003357869321428 -0.02119861275359473 -0.001348295020538285 0.002489594514746946 0.03073252490033252 -0.03997857840259975 
0.01031819059506472 -0.08756093042944596 0.2248311945448988 -0.05995470201214402 0.0642350481752105 -0.05381203732154925 0.0277817678046614 0.04473335290080144 -0.3359933541076887 -0.03279174571154961 0.03152877793914437 -0.01124810928387524 0.03761599459562078 -0.002329639613118517 0.001404362308165591 -0.09468997826942403 
-0.01382391957795893 -0.04949231956994882 -0.005696680274760558 0.0130328261791481 0.01219414100104021 0.07901036367430549 0.01191240108448632 0.02509014023002479 -0.03217269924593251 0.03676218281278309 0.01038958688126889 0.04191457830684716 0.02168977004837473 -0.004386536595810836 -0.01216631757820392 -0.04866730572921869 
-0.01619246660032838 0.0424892842835805 -0.02946787816917812 0.06563819052632826 -0.04808671789936043 -0.1275917957926091 -0.0230008399369484 -0.004873022857681952 -0.08349197620501012 0.01791937179636888 0.0160236584183075 -0.01700312064959075 0.03576583395471179 -0.01203181259249559 -0.01355477278501334 0.02224240319386231 
-0.01817119469041367 -0.01067837159952914 -0.08785469821353502 0.05681079076469734 -0.0548809537678356 -0.03570646471567 -0.03653144142560781 -0.03640183036454814 -0.0786044946815201 -0.001192509117172232 0.01475922487640051 -0.03257835953284265 0.02346408945708204 -0.01513060672874452 -0.04379679320752596 -0.02555398406609705 
-0.01044070797845284 0.05995198955552614 -0.1079000085595891 0.01202090609714025 -0.02985266636764448 0.1204136537550251 -0.01594444422719004 -0.09504340656218611 -0.1247030632728443 -0.01633179164113929 0.01490919657651736 -0.01979575817818526 0.007764595986927953 -0.01133899044575651 -0.01373926720214947 -0.03313561344619608 
-0.01388138207279331 0.0153290549416499 -0.05299700338335228 -0.0621101333876515 -0.0358337926622354 0.1656758958853682 0.001321731239875406 -0.1196068693326485 -0.009449081202283424 -0.02243958882951538 0.01193052338662804 -0.01858520203792666 -0.009911361507137713 -0.01275956519473022 0.007260463290064455 -0.000268312839188347 
-0.00411366799378363 0.1061146574792318 -0.03293851518219209 -0.01837614488684635 -0.01229266953919804 -0.0467574859119964 -0.02115862182256062 -0.005315885397885565 -0.0003334879162759798 0.01419971512917352 -0.02469899628700662 -0.00935406098560326 -0.006929144564890159 -0.01314771879166623 0.0170167559763213 0.01240912314748145 
-0.0006653205523843214 0.06617958783623078 0.02406642720446307 -0.01351345848693493 0.01718135438680911 -0.1427109149960024 -0.01954502092979346 -0.05013107986267276 0.06925510844340911 0.04788217356025875 -0.06918953201233861 0.02416548078734322 0.004203470370777328 -0.007539112845803253 0.005739943917252913 0.02953780227006651 
0.01111490465624365 -0.1166797007381648 -0.1112679835462562 0.02139898149834287 -0.07627043979160035 -0.2725749106676767 0.02092437774925453 -0.01061901043241737 -0.03147355641339874 -0.0617157140303572 0.08611963349505648 -0.01811858650165014 0.02093141467849299 -0.003070469912629748 0.01073412452032066 -0.1026574481172716 
-0.00206861715340973 -0.08366685195380633 0.01007224039314658 -0.07324263579074408 -0.07252281370771388 0.121543206222896 -0.001991517431505619 -0.001850372581545168 0.0551933359169136 -0.06803306978619672 0.004948494346451249 -0.04106031550556441 -0.01140745736632097 -0.02413252545677571 0.01361161733316047 0.0007101913588775569 
-0.01608674077578921 -0.02893548012034443 0.002805126127996509 0.1066932887950553 -0.04990981552982142 0.01951411975033929 -0.02747344437974238 0.163173450146383 -0.008700253521838739 0.02769004672412032 -0.01442233453852958 0.02908162449245378 -0.007999164745511971 -0.01287463774396505 -0.006983038689556821 0.007462193282392546 
-0.01122782415499242 -0.08752416042131955 -0.04357477904581301 0.06324289918984531 -0.05673326889626446 -0.01134411787416918 -0.0422261513416767 0.03821078655110046 -0.05653410886182737 -0.0458723797382217 -0.05777976673997438 -0.01739509784002444 0.02201494884144747 -0.02581358880157555 0.0152240909913108 0.08808032015335192 
-0.02013485821953965 -0.0886206201222267 -0.02786453968976057 0.02530356942150648 0.01517265004789503 -0.0674217856851997 -0.04862523916332041 0.0405855005342185 -0.08702273946063119 -0.0195357587085787 -0.06664500739553667 -0.03012188351141298 0.01649766187653147 -0.02439927696687272 -0.02623053165592442 -0.03254223830801439 
-0.01237874839285982 -0.007365536476584675 -0.03020553802695009 0.000331350156600859 -0.0214306901190049 -0.02943390995567037 -0.01464159719700454 -0.1297205721265189 0.01179635420549678 -0.02172042025455309 0.001919779408286149 -0.02022903528066247 0.02387222910456545 -0.01648444725880658 0.002971814974351728 -0.08191516230415055 
-0.01718396759679893 0.0441674391640068 -0.0309695796397678 0.006704212094683405 -0.001759182517647354 -0.004998757092448723 -0.005588829346557855 -0.1368811229675904 0.01912310447427991 -0.02705865144513794 -0.01425950965377169 -0.02477763454069113 -0.002924716106936474 -0.01644693371083737 0.02133041437062137 -0.00362563397297447 
-0.007937248997115657 0.2069282049519726 -0.03882501480846919 0.04572265590905057 0.028998942906012 -0.2013879634391614 -0.008642125961973064 -0.06606292408281686 0.160335560023925 0.03568769942482526 -0.03818071299194909 -0.006099482189757585 0.008280621610676272 -0.01974840836702266 0.02996584889511705 -0.002784517249047345 
-0.0004295379743739968 0.07832686106702605 -0.04550582030761329 -0.05052775882607363 -0.01666281085848459 -0.02400129436104747 0.01277275237467253 -0.15388393789733 0.01860247402503347 0.03705592287066975 -0.002863422007012011 0.05255792122494196 0.0078064486570878 -0.02513754606148906 0.02690418816795325 -0.0439961662876262 
0.002497678055363297 -0.01150817682193167 -0.08531888939572374 0.01644028280153628 0.01030294484905347 0.1095438120278462 -0.009238266050877183 -0.01171955673428975 -0.1385500693875369 0.005178988701983204 -0.03307689687856531 -0.04044602330836591 0.01296161605554265 -0.002679099360865429 0.04068371884601188 -0.0657873243576042 
0.003556098744306224 -0.07311370631864493 0.0486258293404533 -0.03534863073055772 -0.02278497207048124 -0.2237931855071872 0.0247070475309826 -0.0005001665401480438 0.09891754353411532 -0.04185580093263519 0.006942307073040673 -0.01497936410263152 -0.007165957697097132 0.01855211686583057 0.02851612644438875 -0.05847873262938138 
1.804167407714565e-005 -0.08489625335809353 0.2709620377128701 0.01160559600685447 0.03177777610745325 -0.1951461397460907 0.02577753232519677 0.02525518767388327 0.06606515876701935 0.01651773225339475 0.02934412170426584 0.05511645445690812 -0.005111112833838223 -0.02981649579710679 0.03054428980547768 -0.06522199719992435 
-0.02432608677587324 0.06725254546493378 0.06756180796322205 -0.01849638501064799 0.002689185688950071 -0.2245973220986711 -0.01374637065297604 0.03866256703759054 0.1457993436335464 0.008917886871002225 -0.03804888301924295 0.006523131252220848 -0.003543178515804258 -0.0366038068775606 0.0009265205374373766 0.05481383312830705 
-0.02519296383772922 -0.01156204157097227 -0.1043907352017345 -0.0106612955540455 -0.04091547446822184 -0.1572202973040166 -0.05117503351260356 0.01105468527286238 0.01144497134368634 -0.009469560847672951 0.03982335159256152 -0.01806863265148088 0.002757515863495503 -0.02391165594659687 -0.04179904839487249 -0.02673808017455139 
-0.01437457297500129 -0.01983743266322878 -0.05335561107467333 -0.02250588773466395 -0.03578725919001823 -0.1952287063045615 -0.02768249304275805 0.05048800522595492 0.03688155886871062 -0.04674747922360632 -0.01084510125237282 -0.02178220740997497 0.002604763456427608 -0.009878467047321735 -0.01193330288456527 -0.0465831619828941 
-0.01515536485662572 0.02922144147713442 -0.1245544314360194 -0.01216532553613895 0.01568571405523954 0.02661463504186984 -0.004925393911941993 -0.04266580215809743 0.01682473182178014 -0.006976437283397911 0.01828826507695774 -0.02185039345502541 -0.007438052867017363 -0.01452833913852468 -0.001943799766094939 0.003799329356362026 
-0.01577663419081405 0.1950995840757281 -0.1158461852518592 -0.06194102083267247 0.01161190282431027 0.05091403884791113 -0.01612215272209229 -0.06723595748260695 0.06499025723873743 -0.01847756648399664 0.02335679928362914 -0.01874225844146722 -0.01245345762533239 -0.01801136588368184 0.001929618557798182 0.02095356707055029 
-0.01001073144661694 0.1255083999472288 0.04756382371335988 -0.02631631606121977 0.009580085202030747 0.1685256343003412 -0.009642908233988428 -0.1018935559089815 -0.009803058558313862 0.05266030371052718 -0.04180571725805984 0.01393928161386568 -0.008085789588116817 -0.02061793155867945 0.01885217238157886 0.02120089228035967 
-0.001946465204280962 -0.05462420578767895 -0.08762663466518675 -0.008491844528476799 -0.0139835674972553 0.0511263529634149 0.01254095945903008 -0.0663511822108226 -0.1399680264254129 0.01706150772284404 0.03973655591504643 -0.03900831448296702 -0.004724958853968867 0.03222729486330013 0.01811537611555901 -0.08837655558068601 
-0.00124077424907678 0.03432981815684302 -0.08467286465740311 -0.06666245704341717 -0.1202789772728063 -0.1349770921228556 0.0123287737035633 -0.1024037772264364 0.03391934778565919 -0.04489577512617248 0.09099243634603225 -0.02232990828343596 0.01758654518953014 0.009940053240273077 0.004367611589968521 -0.0273270877531913 
-0.01460714254228506 -0.04167965926040126 0.1702182992701979 -0.1259103830734857 -0.0704648388356716 -0.03631217437609758 -0.03096029558522465 0.1690153308719944 0.1464221628838439 0.0184029611035771 0.02594867576569086 0.04347633219330515 -0.0490629792452914 -0.01374590732325378 0.02086629023156555 -0.06612543359119784 
-0.03406568687214766 0.116870055214045 0.03342501564930264 -0.05200665137314172 -0.02749052316454292 -0.3269584819789743 -0.0498029318830721 0.1549059992535482 0.1416178237324856 -0.1003638717797041 -0.07658596546324498 0.009338597504245406 -0.01609279154599374 -0.05190597835707102 0.04959080364938523 0.02231595990910511 
-0.03584213754209578 -0.1212285803161519 -0.1193530896148358 -0.03297219186834078 -0.01597463180258144 -0.2737471478390449 -0.0644216529223943 0.1281067112800083 0.1047709018371975 -0.1673265482836825 0.002337525618075295 -0.02189335247277986 -0.003862250763317616 -0.04524222507262048 -0.002202033940716889 -0.003550591185498467 
-0.02189492635262464 -0.1322309367917749 -0.05569298201295398 -0.03601253954420217 -0.02854396436047389 -0.306675778373251 -0.03072854651844711 0.09472521718441583 -7.780052731510959e-005 -0.09390165073587921 0.01529608365012907 -0.02145035477801698 0.02022416853383829 -0.01613403002515762 0.02427760576308209 -0.03576539135290461 
-0.02264178595910096 -0.08005545337839312 -0.09832482020867583 -0.02315095327887689 0.0331051003085695 0.01304874895223612 -0.001748715982110642 0.02526141913610416 -0.01880349755093903 -0.006058222006509711 0.01443863750581744 -0.000271992481354004 -0.01003973097285163 -0.01068823143784915 0.005641510852667212 0.02769438543749389 
-0.01993101579268461 0.03107019153230035 -0.1673290999820355 -0.003836293297335009 0.04482878719846295 0.1331793927834672 0.01676976800972811 -0.0789199709691007 0.09613608019657334 0.0179464609741747 0.02323644691579028 0.005792968280695358 -0.01406458391559854 -0.01060587836853286 0.05604382236937354 -0.008981592108067591 
0.0152115839366774 -0.08741034209868687 -0.1226814246192789 -0.0229491639521652 0.03531905837769436 0.1155060551116511 0.02282596885272352 -0.09876362912342629 0.05668705508063925 -0.02108667011165101 0.01936722516456985 0.03089191260190919 -0.01909669547947658 0.001336796752265453 0.04310743727314748 -0.07820227635814538 
0.01594824925724401 0.09959356842454983 0.04300251822398265 -0.0136457380112673 -0.01835359164472825 0.1917041338093552 0.02571046020217403 -0.0001910643927141377 -0.1984922474724066 -0.01375937426380952 0.03496450751340768 -0.009430157222209069 0.01085938433632712 0.001611765101775097 -0.02787869091272776 -0.06023277887102439 
-0.01047843630103748 0.002323792057882584 0.1182219100698347 0.005866282537353526 0.02034115764871625 0.1049881642305403 -0.008042313192282567 0.02215095268275765 -0.02406339525006436 -0.001709558788490637 0.08608320980496285 -0.02237959287452596 -0.0004644587917922274 0.01691138373648881 0.01949131799525106 0.005935906924097931 
-0.01186251993113359 -0.01539061315208098 0.06426421585618096 0.01894990486747531 -0.01006618748485855 -0.09275472617579565 -0.03374342998718938 -0.05401974455759786 0.1594324636827138 0.02669406523988189 0.03336337329580354 0.004773812784346351 -0.00511881139497842 -0.01884300625669623 0.02166667623434078 0.02716603653846133 
-0.007328620888962044 -0.07215812469781446 -0.02663328863899143 0.05077853748725794 -0.0241302521210391 -0.01105928619203402 -0.03329335240740308 -0.07536148895371726 -0.003598747274379508 -0.04554121064586841 -0.04497920826139153 -0.02033141941370366 0.006193958295797206 -0.02189429191357768 0.01288089639048129 0.07135937101741408 
-0.01590556441619804 -0.1194173288519535 -0.05422351359703119 0.00465021750237238 0.03387390334055444 -0.1454323299888492 -0.03748231006999891 -0.05692566648101438 -0.1172672527223429 -0.02809812406415255 -0.07764684129469766 -0.02501060812201748 0.01229682458309513 -0.0195871529251091 -0.05042103795782514 0.07443432934826233 
-0.007823373997561722 -0.0532081523310862 -0.02471541689986657 0.01196409823182784 -0.03338833081983082 -0.1310045234466508 -0.001196581004101863 -0.0232551135030658 -0.081106644655042 -0.03863314133257968 -0.07037363808505751 -0.01238577761621559 0.01495962691253803 -0.006171035043336561 -0.008580045785777297 0.03036550296921776 
-0.01178319777300204 -0.004983689280319139 0.0007848105370787217 0.03916038340999923 -0.009423373199663335 -0.1789694622636323 0.005085054498043889 -0.04392756714589166 -0.03651216066626178 0.00439091327396246 -0.01614986076840555 -0.008451343677245784 0.002232074631806611 -0.005401715438731405 0.01075560876579447 -0.01017823280033033 
-0.004686765101179984 0.07606755533004497 0.04603640215344848 -0.02588405974534198 -0.01103038224105176 -0.06805536638231984 -0.0004353586321364755 -0.0254683442781779 0.02951802349877418 0.03691944684532354 -0.01884030766339412 0.006900899245633596 0.01797768530471683 -3.228711033270755e-005 0.02907450124794662 -0.002435804333002843 
-0.01292272017315836 0.1834508667109346 -0.0189988568928038 -0.1368266947451678 -0.03140281271917796 0.07158663071666838 0.0109366533488276 -0.1367719476972214 -0.04801167053078713 0.1027982910398117 -0.04515550696699498 0.05534046057827286 -0.005532640228529809 -0.01339052949109025 -0.0007686116781002542 -0.04813765672515338 
-0.004298230729989333 -0.07082196252816378 0.0534775065295161 -0.01440653330399718 0.02444348482995104 0.1047125502750028 0.005792057113443309 -0.03515577067105861 -0.01980396933953004 0.0007541716446568525 -0.0003582215245999746 -0.01408115508424974 -0.02925804354144631 -0.01962808153459017 -0.01533851229968387 -0.04033714729998348 
-0.008317552082247784 0.03808192701275012 -0.04109990723688522 0.0630409148279638 0.02147641058150037 -0.1575252017971113 0.001815272158227941 0.1028309959761309 -0.1495329568369609 -0.04812319133143002 0.1077033542723557 -0.01321499226970371 0.01694053140639599 -0.01002547215447543 0.0314264909453297 0.03908223795608537 
-0.01131774463306649 -0.05808685476029865 0.01922259273467259 0.03523306425313862 0.01494778315325069 0.1059673091497547 -0.05112399896736421 -0.03293839146735413 0.06314175348521649 0.03744411478716476 0.03306799765890518 -0.002848700436680565 0.002179163213920433 -0.0239536036128959 0.02956567051535126 0.001699741008065642 
-0.01509237262328411 0.05129875187199682 -0.1608009741265052 -0.005717087803587121 -0.06203871698150557 0.1481657515388227 -0.04060559289910929 -0.06244442216619339 -0.02537495852447118 -0.05384471163802378 -0.06642873874885748 -0.01531941154493603 -0.005377342063594915 -0.0174481412716141 0.01141844502162966 0.03641965017984324 
-0.02458495049590111 -0.05334924523205909 -0.1602106567000276 -0.06583932177881632 -0.001027113618331304 0.01051813361028597 -0.04569220049077508 -0.04401211729546536 -0.02412335832766117 -0.05325917222925634 -0.0680227161559939 -0.02348182028803929 0.01342517358194305 -0.01316700461401577 -0.03931420993005264 0.07987337623801051 
-0.009310636663079337 -0.06393145242870968 -0.09963789690694176 -0.004371375654854448 -0.05530235796511678 -0.1738697321824064 -0.008170665524459617 -0.01088140694648345 0.05305736006448079 -0.03489592577359965 -0.1354605317422167 -0.007792771801537677 0.002659977931256059 -0.008025386783178731 0.007997318570813336 0.05725880383146263 
-0.01301053403795698 -0.04916946651360876 0.05478743949555696 0.06160882826192242 -0.0271293524607763 -0.2552631204085336 0.001372491961999373 -0.04401536610260978 0.06901079465608935 0.0683610291293138 -0.002823942497280289 0.007444902497424837 0.0006756337179529999 -0.003076608984123088 0.03613765392565944 -0.05217940260018562 
-0.0008228933816397994 -0.001968111783114877 0.1728641807678073 -0.04365336260514474 0.003910390303199914 0.1403945604017188 0.0219355313969119 0.01228191386841003 0.004133461624795858 0.0730054338560986 0.006690191747281363 -0.004819767960204203 0.01664432327499107 -0.009073702191252321 0.03698889127337258 -0.1201460936167638 
-0.00773462200084064 0.06567429753788862 -0.0710756682336447 -0.1075529707054819 -0.07922321527875462 -0.07369034142501507 0.009470275354632417 -0.1753952500578278 -0.09703669453068384 0.02876867756409841 -0.03557464527897714 -0.001149189067251684 -0.01176428826060557 -0.01763778489421113 0.001324933188591066 -0.098173161795613 
0.003404377619503378 0.06400148796738471 0.0470802725258895 0.01821381384831463 0.03967815622444708 -0.2144409255917749 0.03651017461227947 0.04055296492052937 -0.2054695740735279 -0.01881436338945411 0.08817591118307973 -0.03564483542170531 -0.004328746567292886 0.02163280251292569 -0.01052488072924166 -0.04771546962079072 
-0.0002551083291737786 -0.0361762868290663 0.1970758055295728 -0.04718194798672918 -0.09993274644222923 -0.4294498313456168 -0.02938281358519677 -0.1173151062801801 0.1114957160679877 0.02721902100852074 0.1106103270665122 -0.03026409703046805 -0.008200449204927301 0.005988534250779195 -0.0006123061897106282 -0.03180279809020835 
-0.02146683254804705 0.1940617491012177 0.06252537755888374 -0.1235607962577028 -0.05262532925609712 -0.1419918207953266 -0.02849203184564708 0.08279625817410989 0.2623795531073674 0.0481750679787985 0.04064315495516138 0.02524193732191594 -0.0224187619168686 -0.04024678368647143 0.03495901551139397 -0.03859071398411097 
-0.02587860338129234 0.007706755804292741 -0.06901372004906139 -0.05972583479695681 -0.02330021063081602 -0.02726128808926022 -0.03369412256074244 0.02728594517696591 0.06154075691093813 -0.1038999690974666 -0.04707420765167364 -0.001746405257182792 -0.0092229591181294 -0.04144009866101681 0.04739639209301657 -0.004911977890254307 
-0.02835584459706241 -0.171158100098565 -0.095156856555504 -0.0705786578820579 0.02506535737478551 -0.07304129715007256 -0.03939225805367473 -0.01376621915064217 -0.004136455279736328 -0.09694122521810043 -0.0302608569972462 -0.02369290951217847 -0.0005275964490244314 -0.03608866340440601 0.02856660141783109 0.01253871342481576 
-0.01556149787677026 -0.1430244495114229 -0.0764050290001657 0.009842997498454567 -0.0430917825495902 0.01852819547608933 -0.0137709044125031 -0.03846472741051248 0.002807609627428685 -0.08920741137594263 -0.03180699936726312 -0.006025866803895861 0.01364903832637547 -0.00597082185076848 0.02678884716647054 0.01170535020084424 
-0.01862024658367013 -0.165392064416697 -0.08314913954009572 0.03722361037966027 -0.02564768838527141 0.079569124551524 0.009984902464098746 -0.04629841283517858 0.02131437985663838 0.008793792000468773 -0.006222205670503972 0.03807607306394818 -0.006992444935938243 -0.001135911629706818 0.006234912540418484 0.02648885705715626 
-0.01404743291571841 -0.1834805291461803 -0.1921110443820265 0.002011375865942309 -0.01268168714904097 0.3434825904302586 0.03851922925028695 -0.008598792229839621 -0.06275972371879267 0.1089652735926105 0.01521161414622686 0.04162604292246053 0.005065983573617021 0.007338932049994798 0.03884190024461719 -0.04493988877699048 
-0.001329131599316991 -0.05195887083412762 -0.2499915611507627 -0.0259200391361324 0.006845020454360596 0.1183412091782903 0.009819988008953541 -0.1389512878746008 0.06507537000631353 0.0260757097946678 -0.1059082856826564 0.006752896367467033 -0.01740970614642233 -0.02077914600228826 -0.01378220204999449 -0.08902968484260861 
-0.005245905274632159 0.008986423020937027 0.05500236529110269 0.03604431238562876 -0.003867654729873851 -0.1985228803782815 0.02669896853407458 0.07097084735695668 -0.09354507399465066 -0.07277660689646617 0.03434227317945053 -0.0345653500951086 0.004071308219334793 -0.004980943793754166 -0.003120657335642054 -0.04333307692030508 
-0.009642129492892464 0.01397847711177891 0.01103693958453582 0.001881122947344501 -0.02052984537964822 0.1357946678394479 0.01706562486951407 -0.09712061851826906 0.05098400514593661 0.00525289436823075 0.09812483138330787 0.01037443294696169 -0.02994945192272895 0.01599180757593741 0.02731430355771761 -0.05581574981257405 
-0.01909382296796138 0.04808350270378751 -0.02178423235970711 -0.04290618489370929 0.01357188889771062 0.4808390077206533 -0.03727679367008333 -0.002313388716276985 0.007693557106914123 0.07127412081068814 0.02654476394436946 0.01782170662732388 -0.009945003529633536 -0.02204293813784938 0.0353727847623462 -0.08532445577110732 
-0.02521036713166659 -0.03929529086669194 -0.2306261519604208 -0.01688778742689577 -0.05502972132940465 0.2214793578270538 -0.04135030810563533 -0.01313981190317031 -0.1151932638354686 -0.03904956459036821 -0.06682900965196061 -0.003941618118727395 -0.01392899765625686 -0.02470447523863465 0.05010127778240232 -0.02830512538654765 
-0.03287466694414605 -0.2409357785115727 -0.1555364713307744 -0.06858973970760314 -0.01826919620616027 0.2552619928035566 -0.04089704010052573 -0.149936716250762 0.02901155419025275 -0.100884114293278 -0.03062367963647119 -0.01309709302403418 -0.005245842018721446 -0.02888546586758232 0.0471806245025704 -0.04953513219123567 
-0.01702104567087362 -0.1694252936807882 -0.1016538823070532 0.002854648341232168 -0.05929117825713825 0.09951731935166459 -0.01831135727794662 -0.1189727219442871 0.05140610743772785 -0.05633321359945787 -0.1213763701937495 0.01544095550551759 -0.00550679016099661 -0.02259155849350838 0.07022530724510261 -0.02653257617139807 
-0.02651330621331303 -0.2051474428842037 -0.06685709866722525 0.1638934110525414 -0.05342690769851781 0.143724126606142 0.005701348007776421 -0.08888897523016406 -0.0250046226353088 0.003032000774144079 -0.03415130602434199 0.05632603960702415 -0.03104216695733293 0.001790940736924011 0.02011061435923067 -0.0243349288693873 
0.01194056258278626 -0.2016732093260274 -0.1044274803263015 0.04281706627207231 -0.007732769248850263 0.4118637093927305 0.004283837988784968 0.2112587793352639 -0.2639926481160314 0.03175155053114613 -0.05209765075567308 0.01252377423726311 -0.003328967366509358 0.02055930908750465 0.02554916840475172 -0.07356946279796213 
0.001360705137671535 0.1061930437221432 -0.009776771249763503 -0.04912647901017566 0.01990813348918922 -0.0004694251226372018 -0.01415025891114991 -0.03689759623878989 -0.1128587907375515 0.01202733625251948 0.01501545581239433 -0.02760126961471688 -0.02902302763232836 0.0099977227151832 -0.0002993554346909811 -0.06942207910734152 
1.347017799347677e-006 -0.0744692241795209 0.03225943198606334 -0.0284867969456564 -0.05744235186248213 -0.00759326703133103 0.01243223173850005 -0.0758842570749267 -0.06511196536427995 -0.02552001283038654 0.0334743905112493 0.03427076624401052 -0.01247299030400567 0.01430222581437968 0.001821582274913103 -0.003615634095065067 
-0.01287845961738207 0.006678173679773623 0.002102494031213917 -0.03997387395558589 -0.003176035805499623 -0.1223743613435346 -0.004160549344170422 0.03199182794944212 -0.1191627237576444 0.007979067771694583 0.09111647502773709 0.005820048135323086 0.01352482701767762 -0.002256653745455491 0.009752977711544918 0.06577382908897743 
-0.01066616308710257 0.003244430004699645 -0.00580547369103156 -0.0193340315767375 0.008393875747696898 -0.02063784675696739 -0.04731118134771907 -0.009501831354221465 -0.02237078148899864 0.001831868540815492 0.03034453410492433 -0.0004413276731079056 0.003249882314447701 -0.006690854697792385 -0.007073879333919907 0.07931508044011872 
-0.009207128725442264 0.09005913931870206 -0.1189047677016149 -0.03580517187970849 -0.04425825253829049 -0.01701055391732328 -0.03616900842218097 -0.00961581928695329 -0.01801529003945533 -0.04837808198910127 -0.03685239642880663 -0.002673941770570257 0.0003837716467434639 -0.01378040004879762 -0.008214448355920782 0.0254802640657081 
-0.01034664842007635 -0.01541814907323349 -0.1730882078644981 -0.05113516935799978 -0.007377972385082348 -0.1670389242576436 -0.04533623590921072 0.007331823036882811 0.01876833276735361 -0.05439090625760454 -0.08658830680683827 -0.02192609219405093 0.02253636012098846 -0.01348933882233029 -0.03931696261732672 0.07578964915184924 
-0.009534556893027117 0.06840439520429179 -0.1065869674500264 -0.04679745093285788 -0.02354734685100916 -0.06389490624270874 -0.01205131388939473 -0.004113964871224552 0.08727871582933341 -0.008933127310111512 -0.09671514376888737 -0.01303056607133767 -0.003426449183746448 -0.007009404437184378 -0.01016509935220161 0.05057711672470126 
-0.00420027868933197 -0.0113255662209677 0.08683711077010149 0.0460176467254014 0.007221050761874964 0.07843674294292234 -0.01790009163256744 -0.05072839868729333 0.04251156728504945 0.03397899103380159 -0.0410927992651443 -0.0113381801735694 0.007965818299158765 -0.01817415392046452 0.02864316597328203 0.003260125504702737 
-0.003436791171709404 -0.02336978227894065 0.0974837423328155 0.03869271689478305 0.07624213660364176 0.02543249003357222 0.01237026714649124 0.0734015899946681 -0.08620319292492742 0.08008467571021738 -0.04995497804030766 -0.02266173484064692 0.01668513092716465 -0.02435753696163053 0.02356108080879672 -0.1046811464029095 
-1.769994989857106e-005 0.03518518292129678 0.001741909936435216 -0.07634383044086365 -0.09630244989311991 -0.02116245297504198 0.03617617996163628 -0.1461710902809544 -0.04899346139410159 0.03397122364184649 -0.06919857207354881 -0.00207355572075601 0.004102512954710099 -0.008261115730278348 -0.00396094049206498 -0.05902923985601778 
0.002506293906134807 0.02755858098899899 -0.01681305096507493 -0.002899181686464451 -0.05900658505132464 0.1247656284123912 0.02825979746089414 -0.01770141158286789 -0.1371915931384208 -0.02802352793395688 0.05686594123604262 0.03949868828770294 0.01519035911939473 0.02773619264457703 0.002482560842331411 -0.02527970976337568 
-0.009032585154523543 -0.03035461709014485 0.1112116596887548 -0.08401636127423363 0.033685140043796 0.05725208504444443 -0.02706088675363852 -0.03632578890112907 -0.08704217290406582 0.01323753771181268 0.1496300830081377 0.0003623034960367994 -0.002320375673268641 -0.003037313883173091 0.01415552821725536 -0.01743051958909244 
-0.00712446188447533 0.05078590098393503 0.006073261408012132 -0.003106290457084552 0.01259155457500028 -0.04868620854812829 -0.03969223576257511 -0.04447229222759776 -0.08535815598191186 -0.03353079155145707 0.07789457119673794 -0.008306596978336968 -0.001848996573115934 -0.004834672521198848 -0.006609756015892723 0.02766355441894804 
-0.007022994261905472 0.03566316650777111 0.01056236260225233 -0.03765672155440499 -0.06842345154866526 -0.07281360714624022 -0.04113714845966826 -0.03760240792126448 -0.01939460676824403 -0.02695390483113181 -0.08120692439901624 -0.009386230520330035 0.007348812324928545 -0.01271090487894315 -0.02249597450346071 0.009139650844310045 
-0.01069148101478754 -0.03076715904390271 -0.04782251158515374 -0.02852137852191357 -0.007370753136215786 0.008961963183605025 -0.06642304243913438 -0.05361780441753134 0.01107112430787758 -0.006905147338303724 -0.06369370203282677 -0.03131483419277303 0.01889406007215434 -0.01438701100974422 -0.04656400769902393 0.06333658273954916 
-0.008458133405179867 0.03090287541988301 -0.004498322294665234 -0.01831998022116155 -0.006788039523186029 0.0306759955059705 -0.01084765644589808 -0.0228119735331182 -0.1001047577820641 -0.01978030579233077 -0.06953574650437755 -0.01519071822209003 2.19778867154784e-005 0.0006678520201701648 0.01602188632485156 0.0130280753515301 
-0.002130378326398724 -0.01574769055896914 0.04041617527919323 -0.04878738499926331 0.02017111448599277 -0.0003887919793860047 -0.01021103498465864 -0.07472602772966198 0.03933734627122752 0.04989291377079456 -0.0283078131563513 0.01278576022137855 0.005480908500723872 -0.05255644302623609 0.04633691425741697 -0.002613139894389542 
-0.005541359828072841 -0.2464910664872241 -0.1407428178684034 0.04425981780277788 0.1058704908501689 0.01333458817801666 0.02562800289040266 -0.03922205680172784 -0.2326536366136659 0.1066366313500177 -0.05911003823719783 -0.02359745410339621 0.000553851214803793 -0.005002720198317651 0.04685465960614587 -0.03926376158911469 
-0.01235452851385999 -0.04305998017598514 -0.03152938272895468 -0.02596043604513936 -0.0583798879726229 -0.02855729556324067 0.03575663915353777 0.0323545358238578 -0.004562681224809269 -0.01619253609584362 -0.04899017230244633 -0.005456910864224813 -0.01428772387960877 -0.01806393529422238 0.01916954357863595 -0.03584851533071776 
0.007542498553486486 -0.0107204826575293 0.2301284942511172 -0.08176403630921932 -0.09171307598469843 0.1111181804751625 0.06273288410969111 -0.06725641590780736 -0.03654475416985072 0.0351961381438003 0.01952925052762317 0.01106582141899172 -0.02238230285126238 -0.003777414826338362 0.008200729954301777 -0.01623938969621939 
-0.007242615367506133 -0.1059600982884438 -0.06613159868091108 0.01914762462820259 -0.03132744117590303 0.1007100740845249 0.04263692516457637 -0.04386568378666556 -0.1036054118551751 -0.01001174763624239 0.04526428808944927 0.01067982149253255 -0.01636950548604233 0.01151663349287324 0.01532704402898234 -0.02072854659325073 
-0.01091580856838483 -0.04426308032067041 -0.02784505430544347 -0.01502760243552792 0.027941273332072 0.2328203354724579 -0.0413730229189773 -0.02819116274928962 -0.1484938988443242 0.02111321867388094 0.01878541958375448 0.01073033001836173 -0.01291252990173248 -0.007891669106708117 -0.008367662658164087 0.01751405192804862 
-0.01928419402958765 -0.03737827348690128 -0.1393023384722553 -0.007986553993343323 -0.04179914799673103 0.09060826198257276 -0.04144995678829515 -0.002054310660485583 -0.1237382831322144 -0.03985127087196168 -0.03275992818349288 -0.0008453626165469827 -0.008726290346772957 -0.01423939389195082 0.02829484606700222 -0.003951934853764614 
-0.02615842215392621 -0.1406252464214461 -0.1865034944239944 -0.001200039129577814 -0.02104287000378993 -0.1276579552635354 -0.0551900496443113 -0.118523656924641 0.04134668501438572 -0.1282135233463614 -0.1009249858148787 -0.01207382315787108 -0.002310042459001077 -0.02540836549447209 0.03688771816004242 -0.02828416462205545 
-0.01439205292239279 0.04895281204313304 -0.1051429244985289 -0.06082465137743621 -0.03376635096985679 -0.07030286843558563 -0.02784376738592743 -0.118035014689039 0.0255651554264673 -0.05956101791750431 -0.09940469208354621 0.01559104879581782 -0.01161567611355745 -0.0241286731894845 0.03478830006030931 -0.004993825085983711 
-0.01180018971562137 0.05981009246138233 -0.1459521594174683 0.05301350262265409 0.02890628828734181 0.4239675986488903 -0.0335108330111425 -0.137914592671005 -0.01498128471755792 -0.05676516050260005 0.006479319539241387 0.04343856716936557 -0.04297871617487527 -0.0008665038258471601 0.0303641677361272 0.02299387588955458 
-0.002274796956172188 -0.09293320166646663 -0.088981325720478 -0.04103701318613889 -0.08681021229832323 0.2343561507225019 -0.02962467630434384 -0.1522924987185242 -0.07898953163344701 -0.00106329709098681 0.001539140056977293 -0.01127997044853181 0.006868281990036331 -0.01506569879574873 0.00789299360335559 -0.02381516769354692 
0.005803916113652439 0.1127709055035205 0.02226960741579144 -0.001845455077791386 -0.03557983630875869 -0.04504954146163961 -0.004800100508592203 0.02280838590699683 -0.02088861336244357 0.02609939844270869 0.01180090706194694 -0.03315633064299494 -0.006972048258653646 0.01189640321678862 -0.000596308876631797 -0.05053251365042182 
-0.002800439219812917 0.1012123079146291 0.2067056559632612 -0.1314399862508487 -0.01001968216478429 0.117047648147598 0.07037519875116524 0.07025412575349647 0.09922036063780172 0.0280242258094296 0.02118421323688487 0.0175837585718597 -0.01373476139482248 0.03583370511139861 0.01848782168700559 -0.003309734803328091 
-0.007355662520651792 -0.04623400961343328 0.1302536339897573 -0.07043383890769042 0.009566481507435207 0.1806188049357356 0.03343325036714396 -0.09540205979252316 -0.1894511728206241 -0.00992577764949989 0.1622906764347616 -0.001342959299587965 -0.01853763529701221 0.0008542543796181967 0.02641309613390518 -0.05075321093200116 
-0.008615357606616782 -0.02813680708472454 0.0308115277403914 0.01543549999813246 -0.0199217526046251 0.115739055225137 -0.01683111488130234 -0.03100490839779514 -0.1536974142835439 0.007044700004940118 0.09678401886990519 0.0004328817037934883 -0.01591359477551661 -0.0179542124548554 -0.006108614245293981 -0.0186339519393031 
-0.01894862103747893 -0.0352783653113249 -0.0533692536939514 -0.02090931898461114 -0.05650796187988718 -0.09935796703165187 -0.01573346263216169 0.0004199292798563316 0.05980363627706262 -0.02105802063925001 -0.07152884013173859 0.001385374449849287 -0.00769034857839587 -0.0150557865997909 0.01146820934611543 -0.03633532769608421 
-0.02566343286325175 -0.0346132734195537 -0.08212308744488465 0.05739022548686332 0.009761215285571777 -0.07862158417848866 -0.06813483813680597 -0.03102732221732951 -0.02207350470622631 -0.01559275182373579 -0.05547052931544855 0.005556610033006581 -0.01724233393489559 -0.01801384072494125 -0.01292324614728802 -0.01813402278875223 
-0.001933908843201279 0.1256126101697175 -0.06516322515603958 0.02711424004945263 -0.005986763903499911 -0.09134535392635478 -0.02436047269544335 -0.03532564815119291 -0.0825131821838882 -0.03552006977041863 -0.05024092395908765 0.02544032302019036 -0.009418582988049996 -0.01561477576028284 0.02480605233132742 -0.008063066328020349 
0.01170626698904405 -0.0006271218878222408 -0.056001644705777 -0.05550169501744912 0.1500345341367942 -0.2031558966308218 -0.04279352103740374 -0.05937898639326653 0.004555091751370179 0.04668537641457001 0.02858661012183087 0.04194564155054155 -0.01412641612514986 -0.01207717787210834 0.05318164198143818 -0.02072725657007458 
-0.001757006289279286 -0.09744191875250974 0.04004049758254447 -0.1082148886780049 -0.01445483245943678 -0.05591632128705282 -0.01071865779981972 -0.06919835065707709 -0.05452233193316176 -0.01250966411446622 0.01953949516583244 -0.02084446555446792 -0.03226970847911959 0.007688291281802055 0.03713397679359402 -0.03187648974647724 
-0.003393487407236838 -0.03751453784056916 -0.03415657229865176 0.05337742731859949 -0.07707126446844261 -0.3731373180852221 0.005832554177049041 -0.02869352657103532 -0.1751067015353025 -0.06648196009650742 0.09836937104277782 -0.02449615172037907 -0.0176464512657497 0.009198671256776368 0.01450425769310062 -0.06874397195855253 
0.003104994161562418 -0.06507778592554868 0.06670726764194536 -0.1064052126611339 0.01457450711991854 0.00772252230410032 -0.00920648049458039 -0.01466954281048505 -0.1042976557553521 -0.02151575971093216 -0.0204343405824761 0.01212856394973296 0.0102176037978794 -0.01545477113260707 -0.004258392588779918 -0.002659965053576937 
-0.0005533240220563082 -0.009754462372600872 0.03072491274303614 -0.01711595702869451 0.04077356647245641 -0.07229680124428733 -0.02786763652666517 -0.03591055705942242 0.002646062059713247 0.008187082548089489 -0.0337373493147356 -0.008400997117139238 -0.00107379899682332 -0.01108748390159099 0.006846654347651499 0.000318954458739445 
-0.003021678078235188 0.01511607782287223 -0.02196978525159489 -0.002381995705993981 0.02660406386317383 0.0006093561440299606 -0.02906802349753208 -0.0223485032103148 -0.09740402849379093 -0.01817982180174663 0.007737929260993929 -0.0126967962149497 -0.004046028122152006 -0.009266976150896217 0.006875689508900469 -0.00599675630465236 
-0.009120163487323765 -0.02171974569464559 0.0191618320448233 0.03308157357829646 -0.04688451344065882 -0.1548399890726414 -0.03187269570026206 -0.08000445980473904 0.04290857784180395 -0.002579202997637025 -0.06107628649603604 -0.01643161024949302 0.001021394356968174 -0.008226244049740301 -0.01852979129606128 -0.04395519302973107 
-0.007417691539826655 -0.07823286496072698 -0.02281069839586884 0.01043825872018027 -0.04919075504038235 -0.1923304458224849 -0.04823039310857439 -0.06127790953336929 -0.08045847252039164 -0.03827725014386679 -0.04811927893056945 -0.02860654402841002 -0.00881125260645094 -0.02292669325234461 -0.05575813979367556 0.07106775901112361 
-0.009974063337322299 0.0033434671218969 -0.08958181026438399 -0.02517358709021457 -0.005193503849128671 0.08509197771265038 0.021530675701644 0.02369972292085335 -0.18130364216788 -0.004715248317191905 -0.09076403304411231 -0.01302201730974605 0.02144445266647541 -0.001623161823625677 0.0009522420644838887 0.03507384312669041 
-0.0132229157329763 0.003649494345226163 0.08198041761350194 -0.1106158585478705 0.01582897446365748 -0.1130805097183878 0.02563067770977487 -0.05857197990624274 -0.104171637821654 0.085898430063183 -0.05898790673518622 0.04170276157046318 0.01786069367515695 -0.03039896901390469 0.01677763847977265 -0.01927838928584185 
-0.0108845152763781 -0.07270700434922676 -0.1018983450109898 0.005550824903273759 0.03703797014608698 -0.1503384660979469 0.04079883146056926 -0.1220967462486909 -0.0649758153830253 0.0429184866911265 -0.02718646536068908 -0.002501908845275464 0.000131640569277752 0.01648364556019015 0.03865614796457859 -0.07212347409245219 
-0.001683939583264103 -0.1457827096105297 0.03014481536649733 0.01836074503567754 0.05024871535014653 -0.08419909439144796 0.009694505724996042 0.05558953455962665 0.1199736955518727 -0.06477582637005815 -0.0735958016474198 -0.01320358959727287 -0.003735410366827722 -0.008859393908626497 0.01859568120914272 -0.02188511530075993 
0.001470079218432756 -0.02979151110167633 -0.01621330282132245 -0.02243680519967092 0.0101248456857378 -0.1175431039203685 -0.05731744840852721 -0.1508305475492291 0.04329147688746513 0.001012526836630388 -0.01140824462874134 -0.004346361369716354 -0.002649763246218534 -0.01388456328916676 -0.01629330300541844 0.02323420130658244 
0.006700100934016524 -0.07186256370812597 0.02203387445729023 -0.06049276476123586 0.04838943768339781 0.009579145132413694 -0.03296941638334749 -0.1101150949133088 0.0352677326993043 0.02785084877453981 -0.08195832808650767 0.002972605027662451 0.01364124746498162 -0.001579437694175619 0.01755712701603017 -0.03213648477142793 
-0.002403124695901246 -0.02818710583280385 0.03642292473933941 -0.06839205463732409 0.07725444580760063 0.08533656090859224 -0.04397937992295539 -0.03256738797699783 -0.05991408238480801 0.0144421022166684 0.001142164232959459 -0.00917409166241427 -0.003347981149670038 -0.01144320783862915 0.01303881508412794 0.0149592521546672 
0.005669635930969909 -0.0403373822134541 -0.008494568144655074 -0.07474594211657935 -0.01129120610858337 -0.1994383655872461 -0.0208727651651766 0.03577256901599807 -0.04362901674400269 -0.01208441238313908 0.001223489337315532 -0.01397092364220031 -0.00133186741014935 -0.01735860788707128 -0.0037362295043632 0.03139782696657485 
0.00849954071504555 -0.08530865588536743 -0.07024348134299886 0.03569174486746093 -0.05326004085753026 -0.05135545720870944 -0.01879899677842564 -0.06739086863839808 -0.02219848294833801 -0.02995372326412673 0.03656280004393508 -0.03448680635102789 -0.01379146092302896 -0.020649726615367 -0.04540638457840657 0.06900439549088158 
-0.01234994519355646 0.07251799809158874 -0.08285691587563711 0.04302912199034251 -0.07746420115185418 -0.002898800166165976 0.02832113094297359 -0.02178966289891732 -0.1089674732015872 0.02605868479622467 -0.04632603011582168 -0.0154289512348593 0.02224662474653371 -0.005358229204295855 -0.0132214031792459 0.08644922904905811 
-0.01919752347137421 -0.0005080293481136254 0.08127857143090095 -0.04574992062313967 -0.04691199673737106 -0.1440881905237756 0.01005162512084293 -0.09013692280692509 0.0382431300973111 0.06362131584047637 0.05682249864979522 0.03110680559482639 0.03295507488310443 0.03072137515811589 -0.003050766548543403 -0.04836545341807732 
-0.02933466091830834 -0.04949563027502601 0.009815471894213255 -0.009894723817993443 -0.05894955280704983 -0.0742867710557268 0.002005776135711973 -0.08097749931104072 -0.0427130628393473 0.0813598352540328 -0.03994934307327596 -0.01813929540859752 0.01263523455728048 0.03836916166327298 -0.008013821210561411 -0.1023835981859132 
-0.01415003260715226 -0.03742812298766267 0.005244696755632559 0.05533690730128912 0.01359685454685242 -0.04250577503895322 -0.01754864864268621 -0.1169218237403535 0.01424927879452773 -0.01696508393004381 -0.001349707579822437 -0.01471849213793035 0.0140455437507429 0.01300645787639437 -0.005501089167301822 -0.02547579771527967 
-0.009604074113704349 0.06686987904818614 0.01298289783815002 -0.135580286125215 -0.01533124117256797 -0.116177833999739 0.03941102587335556 -0.09899336220393402 0.1382051441587562 0.009096906199708528 0.01543007394237878 -0.007947790263774278 0.0009504244166935085 -0.01315314570517246 0.00980465688262974 0.01695428848602495 
-0.005995671179236447 0.01216877756281643 0.03357766328733873 -0.03639142264675382 -0.007638445345648125 -0.01779091562758247 0.02438117972896774 -0.0619107093953977 0.01550625282021509 -0.00469195420701697 0.06534425791858589 -0.007049257116334715 -0.006316005094702704 -0.005021101506857808 0.01444713312458412 -0.03775242819265535 
-0.01080113746614153 -0.04768628540525255 -0.0008474908405511323 0.05670766768692478 -0.01955480253402678 0.04358965433932312 -0.0006698067882537716 -0.02453611145554871 -0.06249695937618797 0.002833789543043412 0.03343967067535986 -0.01170183007225274 -0.005566093945971001 -0.01050882538318864 0.009573524510226271 -0.07417426427015998 
-0.0200150676602135 -0.04423309907590377 -0.04131062730366079 -0.01178912958374616 -0.008747364578562088 -0.1464197882130195 -0.003456055408691506 -0.02427058130602566 0.1190115552858455 0.02576789536371878 -0.1217020229522262 -0.007648912007098166 -0.00457577123034999 -0.00794190809119376 -0.01487378470857657 -0.05266763200220614 
-0.0169447162888568 -0.0949847360254463 -0.06856872023094911 0.07652936504448381 0.05919392792527186 -0.06590340579647329 -0.007978175480471859 -0.02997532717416352 -0.07375401260972569 -0.0007052521674152671 -0.07285957196108985 0.003908647580162785 -0.02777595971700054 -0.002055696818479024 -0.05091170651428768 0.07535120972236548 
-0.003884995070294678 0.1057984889135115 -0.05112049226603283 0.01376539358992884 0.02364451797711625 -0.1758647218963359 0.02479288547027346 0.1260789372014155 -0.05803923785346978 -0.03062278418364362 -0.1058113316732991 0.01774204241563284 0.002587788111532413 -0.01671229957170581 0.01264990288276489 -0.02266518392452883 
-0.002275639745564855 -0.0844344038398934 -0.03202537845551588 -0.04982275931655671 0.05664548124058015 -0.1175120687430374 -0.00434433960148219 -0.080940820643495 -0.0419726696767669 -0.007317429997225425 -0.004627689245479381 0.03951106700040127 0.01833313521991464 -0.02058488194875878 0.044689173675038 -0.08633506097271491 
-0.003437598897590482 0.05356740397418486 -0.04633001866077004 -0.1641505191194682 -0.01195442990443558 0.09103929835588917 0.01502083072804315 -0.03485566045283537 -0.03444556441894711 -0.04898055191698195 0.00297832197701914 -0.01740540432203403 -0.02226348161567948 0.01456277810568189 0.05004238940683136 -0.09936618536145891 
-0.003550854436134765 -0.09904524996746351 0.0432518054162155 -0.1061926404713158 -0.03579964105659247 -0.02004795091086327 0.01023644396595609 0.07861356772317367 0.04565360505261263 -0.1036107106320296 0.06626947108352248 -0.04075379103272644 0.00177844086026513 -0.01014811699721078 0.03659151882499527 -0.02370953611050723 
-0.005838195452227833 0.01279904698892262 -0.05024972113445255 -0.08395668464141481 0.03849387451206995 -0.06203093875178323 -0.03808029139033314 -0.08508004627840933 0.04434421579769805 0.03046091247653328 -0.008321296456042505 -0.01586750684729192 -0.009454203099365037 -0.005886419823247334 -0.00420954197466505 0.06125423559722596 
0.002071490054816405 -0.01034842995013926 -0.0191950440748859 -0.1027050218409356 -0.03590424285139592 0.07002779949171138 -0.01822061179009817 -0.1097917669941347 0.1452328524363022 -0.0001413294143781692 0.004672883671144436 -0.004650173204245228 0.01338246024421566 0.007164106537416815 0.0283858832248534 -0.04318039498973352 
-0.004451203797249596 -0.06517885312623661 -0.02369259926166124 0.09700424463441056 0.019621718837693 -0.1369030861559607 -0.03138215843824246 0.04829163787951765 -0.121178859753287 -0.02717091716675026 -0.0004989089872098197 -0.01273990931848799 0.01018122878766498 0.002343437865188054 0.008976809814132932 -0.05017544896552134 
-0.002229746760995674 0.0748489030115828 -0.03599503939190466 -0.05850050499804232 -0.01140718945362697 -0.01586361161980106 0.001232521013889029 -0.03164680816337125 -0.05834270469361339 -0.01343913988846665 -0.04301618632038974 -0.01331423525504765 0.004470108282049123 -0.01485692617697782 0.002974290279284156 0.02976344612707146 
0.006753402637880729 -0.1103765215463234 -0.05493909720387161 -0.02480458503027472 0.05827975961896559 -0.02672171630188147 0.03070870127650818 -0.003901142766782352 -0.2021363601561948 -0.01641269580456654 0.03845667009121483 -0.01240099123628681 -0.03370637060353745 -0.01253188940096267 -0.02239401241589629 0.1378427623147918 
-0.002825537915638372 -0.002116223915867215 -0.0474129905628363 -0.06818634726895816 0.02737504100429995 -0.04039102219498695 0.06109589040195518 0.05249844769405106 -0.03363123876250195 -0.004444957802655595 0.01788007979374572 0.01085177684106992 -0.008976022284687033 -0.01292135396520284 0.008884150280747122 0.01523850679924366 
-0.002596541317280999 -0.06014565446090482 -0.04979898160664642 -0.1204509813774163 -0.02468949671183035 -0.06202357761592204 0.005883739294090042 -0.08844352474020237 0.005341344929069223 -0.04996717813482806 0.02144018410660756 0.03071483299715692 -0.02423795544036699 -0.01789536082332641 0.02799636933545011 -0.1062303564044493 
-0.0203949533344326 -0.02407267621577688 0.02313976694374963 -0.05490144038563402 0.01365272535360354 -0.1415091246246464 0.0007160874694502504 -0.001287309720697477 -0.003411917743117924 -0.03234369221016263 0.02203739808264054 -0.01167916571367788 -0.01985463931130578 0.0106715976549803 0.03892049711389874 -0.07039933612084708 
-0.01888937928350516 -0.0008350907400914898 0.09003739203423475 -0.02668374871326618 -0.01285761739651607 0.2693610531800865 -0.03396482443462307 0.01326426759875919 -0.08732319026074122 -0.01391809247221265 0.05168408433915626 -0.04831371302551528 -0.01001377027765546 0.02348804356205144 0.02311284181474724 0.02002663565850095 
-0.01190211934844052 0.01376141986381826 -0.08628634314844347 -0.04696277095142704 -0.04215357147573812 -0.06632284894997345 -0.03704470474830891 -0.1364046484272477 0.07530022608572384 -0.02053294816465208 -0.04234253608349339 -0.001570223994172746 -0.004549201279515731 0.001457233927928713 -0.006708025899577601 0.01391002961858188 
-0.004119517570044614 -0.1210358561169171 -0.008105187138629936 -0.03798028104259416 0.04385766637291651 -0.03360018267707676 -0.02748386270455246 -0.03979387892885814 -0.0005759598368501674 0.03009581837928756 -0.04594378630506979 0.007529162260875613 -0.00771442388310001 -0.000419927195547779 0.02382991374365184 -0.03742522833105446 
-0.009532502394233042 -0.09624030344028954 0.09968885788365639 0.01347235371917768 0.04770785894160302 0.0128266653294579 -0.04250738184296592 0.02221668413823734 -0.1066103779870818 0.04147103946270121 -0.0478812294480398 -0.001348841700256807 -0.007072885238319982 -0.007328904480100096 0.006499853712986404 0.009116776579805561 
-0.001145647881934518 -0.02350218517595328 0.06097330179821921 -0.02440713809084965 -0.004066405363684775 -0.03773316233379979 -0.009310455913166819 0.05955194706733428 -0.08253694445234922 -0.003739338456154174 -0.07267082722374844 -0.01047652940753288 0.003316876093869122 -0.02453538819207415 0.002267497740450381 0.04207482912662274 
-0.0002807610980559903 -0.1097277759043271 -0.05136096590940727 0.03209302180705109 0.03252626330012029 -0.3565715837886208 0.008811152507885861 -0.08773621684928484 0.06756108021009713 -0.05385705458825178 -0.0534032072670927 -0.0298160656665577 0.005567529569587606 -0.02880063769594595 -0.03222098343337203 0.007685337119021599 
-0.02384777937252515 0.03950016928154482 0.05598296498154326 0.1402201651128252 -0.07062951984632006 -0.182038397459262 0.01966800181233394 -0.1128890161671076 0.1348943448716695 -0.01953742998581909 -0.09072620468225218 -0.007040718579960844 0.01126011430065898 -0.02915134701423358 -0.01619145971967797 0.05732395121185079 
-0.02478450784668298 -0.1463070002082634 -0.01649582122587586 0.004032555247493344 -0.03008518489556614 -0.384122585016096 0.01148397178997509 -0.09168104365088799 0.06215825648894737 0.02549963871873823 0.02445243976365888 0.002219046719602733 0.01901748676053918 0.009044029879094398 -0.01973417598416338 -0.03616236485081643 
-0.03245370070627667 -0.1028314610397238 -0.01307177811857958 -0.08632654104880519 -0.0211734923524542 -0.2236098834579776 0.004280782532921543 -0.06644157305090714 0.04563455332565742 -0.03312532492333232 -0.08616905536937228 -0.03642351147209843 -0.005891800650415753 0.04437930020345478 -0.01885287278901002 -0.1000313493241226 
-0.01939006301349717 -0.07044624975085528 -0.03870501161278412 0.01268018902318928 -0.07597791226647725 -0.04305214900072306 -0.02934734588436427 -0.1239813596494284 -0.01211817344614342 -0.01192466435253971 0.01925137160788747 -0.01044384489208848 0.009036560345602613 -0.001940041681873734 -0.01894387079738739 -0.001834916657843378 
-0.0137305173916425 0.07008584726623009 0.02090205840737314 -0.09138149872175229 -0.04917982667319645 0.01682747089423953 -0.04217864940096876 -0.009034468506490836 0.002194415875793715 -0.007376408893299406 -0.03030859912596611 0.00155620746323629 -0.01801500769845613 0.006216896570026693 -0.01634521740648083 0.008226379635777275 
-0.01089033231577814 -0.0596469658414356 0.03794250789558257 -0.08569659655985379 -0.081407165995294 -0.0364583206614822 -0.04022517744000042 -0.0331542497210062 -0.002747542427716141 0.06726903238745657 -0.00663636630498579 0.003502267125554342 -0.01395006903581466 0.002609757917484618 -0.004801096167604725 -0.00723011351576678 
-0.01836499724789087 -0.05266905064630734 -0.001392553070396312 -0.07528115947459055 -0.01769068643681989 0.06491341181791951 -0.0476877280007389 -0.03699661715919902 -0.1317155127565818 0.1111143074584648 -0.04234681833510574 -0.008307509843875124 -0.004108297538281204 0.003296844638717431 0.00802551851660278 -0.0005514409782576504 
-0.00817247639527359 0.01381126242565733 0.009341641108379126 -0.03731824972037869 -0.04302044185903402 0.01630789306392222 0.008077383633918399 0.04265386298356561 -0.06638311864628835 0.09787450702486908 -0.0187766370275335 -0.02649354688043053 0.01345322696400564 -0.01120702896172941 -0.001204955604162014 0.01887813923044607 
-0.0172016097277053 -0.07358778816170933 -0.0487732213188239 -0.08188107769595979 0.01849642510030507 -0.1015060528192173 0.009993393921035118 -0.009495036570541874 -0.1154775428337513 -0.06959685570892443 0.009905384266349371 -0.04464085747955715 0.009274741225811921 -0.03898877842325873 -0.02567610348732729 -0.01517047331829618 
-0.01245640404358238 0.02705975787551538 0.216438725126185 0.01172236315948557 -0.07942839716055584 -0.4081530973760545 0.0124734409157306 -0.06670116479018386 0.13241368859411 -0.06158808761087585 -0.03001418220028516 -0.01325324568163113 0.02759785156998489 -0.01248774705209674 -0.009984274985752955 0.03020381107885499 
-0.01466689540958631 -0.214347795342377 -0.06072304443664579 0.03909224134351116 0.069187959752854 0.3255463493377653 -0.001607180503498721 -0.2421299454523395 -0.002907529860199366 -0.01405829379328153 0.001318445172976805 -0.01779525926983834 0.03262093686456895 -4.710936132950761e-005 -0.01040747333851528 0.03952028072958841 
-0.002930507642852443 -0.2621589906657547 0.004022284647429454 -0.07756665526144752 0.009763317486607762 0.1221650569593687 0.006387751764581543 -0.2092551656532543 0.1717125331742029 -0.02245480290864279 0.05130780788218797 -0.03396232438735198 0.01529510257432564 0.01227690246258432 0.004962040157670536 -0.02189629011203621 
-0.008481316739793944 0.01801609806663402 0.08681179137185409 -0.08446472086545304 -0.03863540496534725 0.07990214307616718 -0.04244377347665768 0.01038902963950164 0.1030501763901997 -0.02631729569555335 0.0002511327876419579 -0.005363223230159505 -0.01458395682186145 -0.0005669559155113942 -0.02165410228741484 0.0320814638758911 
-0.002239221403725777 0.007955736633276749 -0.06282287982871705 0.02971987504628134 0.01786418343645613 -0.2673649358452128 -0.02045438486362908 -0.01567566985027281 0.06411787277965701 -0.004280221194559475 -0.01401107610241178 -0.009396108147377095 0.0003926081990401078 -0.007946711865132449 0.004609379190407262 0.02670038194784936 
0.001511414412637298 -0.04646277167816236 -0.01298932423670071 -0.03507118534882633 -0.02168411103976752 0.05453601312105902 -0.02105771383204075 -0.03113701978111956 0.1540505905962361 0.03763936219079654 -0.03481494427630689 0.003716813798943057 -0.003948153350788988 -0.003312391601205572 0.03759406115059374 -0.04902255908524367 
-0.005485728977938639 -0.1204311675115152 0.02700916670189588 0.1521798455772734 0.01492476338369554 -0.2228497003319772 -0.04715195238363861 0.005715266609874497 0.03346163629108116 -0.01769392336737958 -0.04946106454419587 -0.00709937827324297 0.0002023722365966724 -0.00132189519317964 0.01572050764206784 -0.05868746453353436 
-0.0007080619289243533 0.02845735168380083 -0.03852398155570448 0.02184354922844242 -0.03737874158372276 -0.1128506973527921 -0.0001434146792793064 0.02539493191487123 -0.08985517830927498 -0.02040102053469484 -0.08143719770455794 -0.01314506179809712 -0.006474046274369781 -0.01928316024795872 0.004155074965959444 -0.01395383839626237 
0.001906585920742284 -0.1947574070006679 -0.0825957192807889 -0.09636819056725537 0.08998000299365248 -0.009784104315255709 0.0483110140902049 0.005689756598390255 -0.1513385956047335 -0.07477638602647296 0.02929784312771769 -0.01748080833284172 -0.01130852922727 -0.04065221499207802 -0.01488968824405239 0.0317857915292095 
-0.01098828127469419 -0.2035721387825407 -0.08754104411936592 0.1029408113549731 0.03910437128368719 -0.02673371996201782 0.05190295258010536 0.04373160332024303 -0.2029858572643817 -0.01484558964570596 -0.07859763296630698 -0.01509944134981671 -0.01442821348675565 -0.04121335844550998 0.01336035296383578 0.008718843407618318 
-0.007046911965052314 -0.1693969074139425 -0.09160004173230395 -0.03583696645519286 0.009337682687690229 0.0905262485558619 0.03426345769008957 0.004636529372235501 -0.07298504255159097 -0.07465076050843227 0.0094466511101855 0.02985522559456017 -0.03965135661095796 0.001568868768397129 0.01435172265028463 -0.07460027279601361 
-0.01908380150472134 -0.1259021938903688 0.002956786629287399 -0.07679374326783119 -0.01757172200179955 -0.03349414035987897 0.02436551243782991 0.1336068330064859 -0.1038850021376058 -0.05953744383473272 -0.0486648535261329 -0.01002826470487658 -0.03567252552161849 0.0179595335981013 0.02437741344218724 -0.1356835948230533 
-0.02645264315857292 -0.03331701805380993 0.03056860369363204 0.1380401843478856 -0.01048548755539001 -0.3348811072455273 -0.01319357687718634 -0.1005424810924187 0.1108156673724139 -0.013325460024738 -0.004494284547213433 -0.02159867499175492 -0.01757787841100109 -0.003037948115237377 0.01704200798486576 0.004260129334541592 
-0.0009369814454068959 -0.05193641218515743 0.03166207473652213 -0.04690030522026584 -0.09080116826250659 -0.03461763164559022 -0.02933060621727087 -0.03068027900058804 -0.1595349880843099 -0.01225940754322381 0.00284908340137313 0.02888396186524743 0.02461630069707203 0.004189746577206703 -0.0194122009868741 0.03576160000321206 
-0.002223872587985922 -0.003806774674502908 -0.07140303123201985 -0.0633057592021264 -0.08501276153912279 -0.1039240059498617 -0.03645697961216164 -0.03967620746212468 0.1221438703809328 0.02207834720447734 -0.01431405772587637 0.04930717596792813 -0.01729093976036068 0.004380547605691631 0.009079074702296665 0.03374030581013098 
-0.01375086130021663 -0.09875766035930049 -0.04195907562608799 -0.0348111273697806 -0.08879910485809558 -0.04601026844339139 -0.04715530051193315 -0.1134339983297451 0.1149460761353117 0.05407585711384789 -0.07247662687739975 0.01091858668878662 0.03119299056125894 0.01284869911037984 0.01755255285609603 -0.04554630427920475 
-0.004079559769108468 -0.06378834250905177 -0.07350936259842253 -0.01574800267801938 -0.07711709595330209 0.09463126360925886 0.01061760417951451 0.03573971997999239 -0.1307551799285017 -0.008560094175308118 -0.07339079550025719 -0.03010493284594379 0.0287206698805712 0.03966562647513815 0.001854205031389903 -0.02003913393992409 
-0.00489940238144226 -0.2436929839346214 -0.1409410553342035 -0.1335426394231058 0.01749561039466703 0.2615806940925459 0.05358986768296335 -0.03715472700815414 0.2626072982371108 -0.07363022265226209 0.05176721892395696 -0.04059383303982135 -0.03077307823729358 -0.02505166740419898 -0.01489410230740219 -0.02384252273012971 
-0.004431865427009393 -0.01074323260563095 -0.1458203935289864 -0.002297636785592191 -0.02689764533888704 0.005335241010126317 0.01015152426923077 0.06107628586552849 -0.03050929362190914 0.006125119813584753 -0.0610244832270896 -0.02968870588600243 -0.002642623341152638 -0.02690901770782949 0.003253683034085778 0.05252984086834509 
-0.01920558765356672 -0.1662871058699982 -0.186349800896802 0.08269906033065878 0.06039912610132701 0.02533954065491563 0.008976306851843927 -0.1031859318243898 -0.0460500380096961 -0.02365066061185724 0.03814825025678878 -0.004114463510820219 -0.03514809763799025 0.0008614018298458351 0.01530180876347504 0.01149526201561931 
-0.01528376051065809 -0.05910565207533858 -0.005018064109826475 -0.05346635911192668 -0.03015757284101465 -0.004443194774216332 -0.001317540676140769 -0.03628548837513585 -0.07041540631405768 0.02242592850868203 -0.04194219888749531 -0.02976233904379908 0.005829168811470251 0.008636633706018693 0.01648585121854757 -0.08300013097384044 
-0.002016398354531285 -0.0695061005667626 0.02604485951047923 -0.0273624267315917 -0.07257312478975037 -0.197833989378225 -0.04027039831908272 -0.009958557492283877 -0.1318782214881185 -0.02271685848874953 0.04308873381395122 0.01243814831402758 0.02762106612686623 -0.002243035725580956 0.0005862604572471814 0.03103136435762538 
-0.03040857407289802 0.08607052501480249 -0.1387432943061117 -0.09842707893793627 -0.007808061640586137 0.156038120243494 0.00163097899308539 -0.008411314290571417 -0.17633010367209 -0.01506287685902981 0.02252559378413476 -0.008737630332204443 0.002310625342318988 -0.007606111455735442 -0.001031446500129467 0.002073422314926272 
-0.009464293177673345 -0.097462184995063 -0.03416175370623581 -0.1855232486985135 0.002088221682603235 0.1927526708029758 -0.0272648843953543 -0.06352242382841876 -0.08677436185794749 -0.001030033270798174 0.04281740455109135 0.02174247820937707 0.01780965110557838 0.008347363987672838 0.01147518187060837 -7.285776087118819e-006 
-0.009034370118418768 0.01234669618804644 -0.008337961231476936 -0.113823533349576 0.003239444835125543 -0.03311437374217207 -0.03067697507606134 -0.1107446487972192 -0.09869147411395389 0.01297432862143222 -0.04144713008734116 0.01185103717281005 0.001051653246938529 -0.03721223637876134 -0.003459625546287711 -0.005879205320367211 
-0.02189045895322528 -0.1213500188641818 0.1418159220605772 0.1019868240550718 0.01506342245365546 0.07789213815324728 -0.01591815270047587 0.06841717816352985 -0.1071796146434421 0.03214331190991134 -0.03239240722781885 -0.05025844255890147 0.0315784533021696 -0.02544172063830582 0.0127306632066406 -0.0660179441326415 
0.02145925410113404 -0.06650023862201798 -0.009420924555362241 0.05669912703171245 -0.03203808391999519 -0.05750895519864037 -0.0334454932357628 0.07835960468906772 -0.04559587887314916 -0.01937309490822764 -0.03298268847092213 -0.02452669442673304 0.00616551076763236 -0.0122190627437386 -0.008376210949886519 -0.02570022287204547 
0.01536032223579744 -0.02921957705666699 -0.0336485664088502 -0.005116659584445933 0.008965409922117851 0.1715130764659751 0.004359385637866045 -0.01948145011693944 0.07838774503169498 0.02845393130501892 -0.01100933410931253 -0.004909151252705617 0.008830341203217389 -0.008918082645045896 0.009898478853709921 -0.139565907383912 
-0.004370001165121768 -0.1306164751619075 -0.01218955218729207 0.02581853867949003 0.06873906234982226 0.03956103933264063 -0.004476394467340757 -0.03307839716577551 0.008218506176508569 0.05183444222831481 0.01867535743824622 -0.003288026475363307 -0.008353585303959436 -0.007907496449663008 0.007913048493239084 -0.008174507542562061 
-0.009894637938797218 -0.1345220992737672 0.01979275137882914 -0.01689196896798644 0.06877938109412135 0.01412050260174154 -0.01561752148754941 -0.01890128201988857 -0.05668419742093336 0.01790683567506558 -0.007969890698844045 -0.004948327598858248 0.01066666139256119 0.002979064931808408 0.005974663724777174 -0.0002910327829059593 
-0.02405319018691032 0.04999655995110656 -0.1932905208271796 -0.08260483540978754 -0.009411654547488355 0.08615261588619001 -0.006331544420650541 0.01644213560022297 -0.1529932158851118 -0.02240566483701691 -0.02016971858052703 -0.009123876121923459 0.001588563346962471 -0.004937554139621001 -0.002515176782170863 0.0307960120028198 
-0.02318688596631781 -0.001341078867539246 0.1459874141497648 0.06148856989018907 0.04718264011238891 -0.2582927753895305 0.003117468041667265 0.01472039765704807 -0.05647735331887422 0.002667000055320654 0.04096843813457994 -0.01361434786608826 -0.01379663989576102 -0.01798264719672656 -0.0003770113436817057 0.02405621185741395 
0.0008784493982891408 -0.07175276567014238 0.03754372778716597 -0.05871852476719505 0.07366322551775094 -0.1610211824175528 -0.04583673386720405 -0.01127432841421769 -0.02452093363244905 -0.003566953234927598 0.01385713124705708 0.0363731582551889 0.01749467697166853 -0.01400739132817744 0.01251903036501111 -0.02329270109773449 
0.003264759354658286 0.1329601274011686 -0.03812964109880379 -0.1061472211467974 -0.015873377280354 -0.05514390650429549 0.01433162744115643 -0.1660737315005912 -0.1276222012731339 -0.05661452037561867 0.01184311673828216 0.01621759122549658 -0.008494502044614742 0.03093691825125288 0.02892578778035121 -0.06320745223138416 
-0.02440477192904277 -0.09344861122591866 0.1736852880093493 -0.03420287245019956 -0.06842176296672375 -0.1470477109232188 0.03017103911797952 0.1050717458025259 -0.05602159535734751 -0.09718106655662508 -0.04828023903602224 -0.04716442440568028 0.01837851438103396 0.04351159896430239 0.007924053386831845 -0.01275549969825001 
-0.01380500515232411 -0.004326862584955659 -0.03972108336340306 0.1443733284350124 -0.002657872639281693 -0.0987809675334537 -0.03684294296140001 -0.07507669812736105 0.1196402877583449 0.002442390036782766 -0.02835107254946174 -0.02778840189543978 -0.02055401246630989 -0.008500095894066514 -0.0247025918278029 0.0028950628018508 
0.004656412304171984 -0.08576365027846676 -0.0001413096861320824 0.05545631707002062 -0.005844142702054843 0.002654394175975196 0.02857944874760275 0.05301311352992991 -0.1772862058631003 0.01399607913250387 -0.01157170367246506 -0.01751983188484032 -0.01489464721070909 -0.009605641044419433 -0.01555555988233903 -0.04332112867203244 
-0.008409112852484076 -0.07924717136997021 0.05612517518387808 0.0364884706421088 0.04129642387029434 -0.05148133088600479 -0.01252553262759852 -0.05356981066643563 -0.005373692687971817 0.01293425262989044 0.05020093827000585 -0.009650049642997694 -0.02082889465157837 -0.004556500689161033 -0.006447799526491061 -0.002201156817948552 
-0.006465675863863887 -0.08144358195992744 0.05399053582502674 0.0645698086834063 0.02237007032819623 -0.2197653288953122 -0.009742323169074705 -0.01560710039350304 -0.03802880161490748 -0.04060663101682703 -0.01988824219603549 -0.008684179031727236 -0.002609710968538344 0.001901683674947427 -0.006765846516485489 0.04224137290246795 
-0.01184192184676088 0.048945245361981 -0.1153744789785719 -0.005413009402103454 -0.05410423034117502 -0.03594083860017931 -0.004972781848698885 -0.04496932390478717 -0.01720839809539172 -0.03315519139073608 0.01540624032379229 -0.01427103049581385 -0.00562416308677591 -0.008148189431946 -0.01311091324791166 0.04160329105611223 
-0.01782123247825036 0.0985715661460589 -0.1252438725368208 -0.02728392876906504 -0.0555313154401498 0.1072837772012722 -0.001816243478110097 0.02061041875608228 -0.151644941413814 -0.006789757580748973 0.007101790008764433 -0.001883311510241199 0.02306349053988161 -0.02634222408944425 -0.009666030520361624 0.04086846266093711 
-0.0001611629463341322 -0.1104122723765066 -0.1106831885516722 0.03358651893487788 -0.07207157365149398 0.07154985726827068 -0.02939797754080751 -0.03610940966057425 0.01391662908815783 -0.0105572404470504 0.006821724642292111 0.05973104634453572 0.02569553714768681 -0.01666600392179161 0.01289446822653138 0.01110124025122893 
0.01142380032871 -0.1554159294169379 -0.006887491489553765 -0.1057238537327867 -0.007840633242455181 -0.001269477871681737 -0.02080872682547448 0.03697092176714818 -0.0553750328327146 -0.03931096064466311 0.01269287317380762 0.02130652746293957 0.002060566430264178 -0.01284826318323188 0.02167141927855281 -0.03860395495640805 
-0.03179838890352661 -0.05788609887489942 -0.06864909917320942 -0.03919445912068087 0.01365264617841196 0.1523298754450612 -0.001238951633437574 -0.004584924060418837 0.02831078851742419 -0.03206087494058454 -0.09053870290356286 -0.03921648014909487 0.03040323846391773 -0.01490272562381564 0.01169191020746394 -0.07138409253325394 
0.003064619868871398 -0.144205270697046 -0.03917600645859688 0.03660527070419407 -0.03627626366780709 0.04825361373646522 -0.003295159664519796 -0.03000802233475339 0.004369563582639687 -0.06422978501778814 0.01605421300805358 -0.03110058229645668 0.001559959743286926 0.005468318436563916 -0.02829399851528824 -0.01054525425507082 
0.01287380329943271 0.02841232216087279 0.01918111128961511 -0.03092415073655798 0.02361883519806949 0.1595064970954368 0.02775550481679635 -0.06483923137502584 0.007821346269352908 -0.06970424621219133 0.03667189690634388 -0.008553524683672384 0.01282518234816995 -0.01842657029956542 -0.02300544468924226 -0.009336519062028108 
-0.009226716135865879 -0.03437096608655459 -0.04332844436125895 -0.01367482930671865 0.03442261766502505 0.03956926777777667 0.002070690150180657 -0.1368719136923648 0.05961917015428042 0.009857745782631879 0.1397879116137608 -0.005138432649590951 0.00490480179694626 -0.02034661154326102 0.009550398205154862 -0.04107918990198411 
-0.01339324858007678 0.03233348014400599 -0.00474882314978587 -0.06056316187575405 0.06757613473486922 -0.07315087028498796 -0.01982346333258846 -0.08250671567202531 -0.08631281117766745 -0.009129702400052857 0.06536657650470704 -0.01348081247682274 0.00926948662097616 -0.0001234637989276833 0.01683469599956876 -0.02130118884688923 
-0.01954757328130911 0.1884205670188796 -0.1233335360260874 -0.1341307749106056 -0.03000534815142351 0.04342328082426047 -0.02313665776318488 -0.04039303474989012 -0.05831825968760292 0.004964217373917212 0.009341101037834303 -0.00780532012184075 0.002788861859987598 -0.01239143392014289 -0.008771122632192475 0.05089413662758873 
-0.00808320522654093 -0.1051256705802068 0.1029448278231368 0.02073392343679435 0.06476136478283881 -0.00638527620301599 -0.01331335175839476 0.06716874776840247 -0.162211654090886 0.02947024346164873 0.06579701921129404 -0.01261431049307128 -0.002205798243176996 -0.03110668146518406 -0.0272674701532985 0.02450581267012595 
0.008536627361746802 -0.1461606609624573 -0.05458372229983885 0.08032067577682787 0.00895423853974063 -0.02138766532304072 -0.04674157207216454 -0.0292633577174805 0.06523399463207984 -0.02050375236718883 0.03695593693222581 0.06993325761927527 0.004359709579908151 -0.0349792586258801 0.02097654141317087 0.02240343244320842 
-0.00420109560625551 0.1343027228071209 0.02294281970669541 -0.08148955514658496 -0.06753812430672085 -0.08049469475632776 0.002372485876277435 -0.02485261478236167 0.06104062540695687 -0.04781748445225859 0.04851150982900677 0.01567027290956867 -0.0411043373480643 0.01310156365749819 0.03516348186315182 -0.02149961027316379 
-0.03296814835772274 0.08602272613450161 0.01919003701897375 -0.08651257032253973 -0.04465060222377169 -0.07403613365361669 0.02001609457303252 0.04802986744406939 -0.07764020836422327 -0.1169907788540032 -0.06846674249750305 -0.04247083157907833 -0.02963464696485512 0.007560478671701777 0.02228625477227172 -0.02838715636764724 
-0.01898262560632608 -0.1825473032965896 -0.1164166684863949 0.0586580330510657 -0.06240707694360235 0.03047026461005722 0.006640434774276234 0.007151428355096232 -0.009070520027798087 -0.03010869726898566 -0.04514509766129803 -0.04007791646335721 -0.02555114209506914 0.004778784262871716 -0.02031172219748739 0.0677826262075652 
-0.00532428108765201 0.0007537591032362005 -0.06764938938270333 0.1071291749402073 -0.03456223196498267 -0.1596277168909278 0.0392526773836793 -0.009992366607978552 0.05048235629437291 -0.06387090820573917 0.05839901604205657 -0.02556273258053739 -0.03256612654189686 -0.02695861150508183 -0.04807598384963099 0.02426612168978131 
-0.01033776008965788 -0.02668597750227211 -0.06150246554614449 0.08332928771462422 -0.03035073564419598 -0.2670242017225422 -0.01326080307841919 -0.05763554239020074 0.1864669179989235 -0.03756914821765792 0.06801370493307195 -0.01990713377201834 -0.01935235701554558 -0.01447568414564271 -0.03748001326866442 0.02283463743131572 
-0.008609080372932003 -0.01818119046711133 0.0176768276346107 0.05097466970594883 -0.01527252496914373 -0.1626622225235056 -0.0276909136021617 -0.06546135283120781 0.06463564634251086 -0.0273854441458486 0.05568384428892184 -0.01647369110252287 -0.01805462276127488 -0.003488944099765207 -0.01072699660785396 0.01385819741685715 
-0.008455790683213112 -0.03775878249168947 -0.01811723922670595 -0.05267409479627059 -0.07181801566927293 0.02010772765226988 -0.02912995531046121 -0.104561231285014 0.009378596447100589 0.01096999569658012 0.05781571747535037 -0.01846750713366097 -0.01323272285340029 -0.009793240676745949 -0.03093312950911689 0.04758517716295421 
-0.01516869635334171 0.0610574644911101 0.08420847908873499 -0.06079236057941818 0.04268482806810921 -0.01443546723241511 -0.02420372394128267 -0.05222295441239745 0.0614985283790516 -0.005438813841826847 0.05313050873823755 -0.005878745816396035 -0.00355308724049104 -0.01314917846692149 0.02509460840696833 0.04202307021341167 
-0.005892378842669619 0.2181234539496973 0.1767905597461795 -0.08605926696456574 0.04071893141410682 -0.2976868197408241 0.006855089946148028 -0.1321616762083828 0.1402393845958856 -0.01387421896841914 0.003008587376316526 0.03384900269261126 -0.009527863089882542 0.003133311293758578 0.06964293109652063 -0.07372051018033121 
0.002962879552593797 0.09430902440438801 0.07692600823404801 -0.00667428258335102 0.003064640410041045 -0.1913755734764917 0.03353326533952096 -0.1911784569827896 -0.1543754312092889 -0.03169185125598636 0.01986459701399141 0.02699184102809376 0.03073933732639411 0.01109108529912392 0.05856597351461113 -0.1331762239648228 
-0.02804632759664098 -0.02168876709890262 0.1903915562249809 -0.07735684349516872 0.01547010502389091 -0.07053120297782801 0.02574729004335316 0.09825724576466165 -0.2311949613839409 -0.05913467961248647 0.04057809054045832 -0.02694573797623718 0.01486987748399625 0.0076637526094559 0.01612399347619846 -0.02010024582564539 
-0.0195520608894144 -0.0535498845796139 -0.07153657126258589 -0.02003054855300259 -0.02223038504559199 -0.192681888278735 -0.03800806800362432 0.04717501368380647 -0.08151118216757594 0.001365185680616218 -0.02698854044828788 -0.02763258098353185 -0.008272903170642918 -0.008330848395973273 -0.05200722867396988 0.06875694577081951 
-0.004950302471420082 -0.06903714806530899 -0.04473427639487405 -0.02206458381463541 -0.03786168887093418 0.02464259433587094 -0.01066898238372035 0.01121138229236228 -0.146801707040685 -0.02118609106447284 -0.03653076915005952 -0.01121906088038424 0.005004310206321022 -0.00606860604415749 -0.03743531986362723 0.04295025147016487 
-0.01177441280875332 -0.014201240294892 -0.003788489337650225 0.01352113018583922 -0.02035827441044383 -0.01693047185041663 -0.02183953832341136 -0.04607252930502456 0.0182193162491839 -0.01165544009397463 0.02982228343765109 -0.01149901958620621 0.0008534885657591792 -0.005575411286069854 -0.02361859773227788 0.008691066448579303 
-0.009546045110638696 0.01253150194645394 -0.02560825422699511 0.01047601565871614 -0.009539306128058998 -0.07817572889111611 -0.003969128490379247 -0.01406610589067001 -0.05633769653389959 -0.03666293350191162 0.01776381852720052 -0.006894103289473682 0.003962387860491028 -0.00395719552850019 -0.01365366091696157 0.02610502766378638 
-0.007200881496333108 0.08771655121081591 -0.08551848995396245 -0.06207988932702702 0.003540581248460688 -0.02825629656182356 -0.01733540629501285 -0.02651467590540738 -0.1501016624028852 -0.04894153607914505 0.02769994025308363 -0.004318199415054378 0.001913650152454878 -0.005923757755234385 0.000607397888437144 0.01469688115179391 
-0.0156240848400651 0.09550899895774245 0.1584073376620011 -0.1224791613060262 0.06365394768920146 -0.1504883110512607 -0.03412937785403154 -0.02062747989512075 -0.06635123125189782 -0.01107014189429846 -0.02792244518643242 -0.02634591932299426 -0.01064869081747644 -0.007420785818544497 0.04397467110433315 -0.006376210738946693 
0.007796171068196352 0.1317196299384015 -0.03472137343800911 -0.0660586070675256 -0.0181958616662514 -0.2229682372003241 0.008045151685320742 -0.0829506726584235 0.05155569113868888 -0.01676235233020902 -0.0603569020637947 -0.001216900888453488 -0.005377754294219214 -0.002504435945305108 0.06841325560428924 -0.07194184156465722 
0.004308300420490357 -0.01372093840012274 0.04226756640953325 0.1515033774048606 -0.00814133885713844 -0.2036078030521611 0.05381382379403068 -0.01679464986549421 -0.1617538998239645 0.069872260834211 0.03244905761135377 0.02820664699359612 -0.003035182413922953 -0.0003244003832267337 0.05341251331900056 -0.06607572506641024 
-0.02708286997203188 -0.0713478569488397 0.3070498234769941 0.03253960044695832 0.07594176050457539 0.04778355124092211 0.02134704886652244 0.07758905070907493 -0.1520506849784139 -0.01569829806123221 0.04880701480324866 0.003014491285269132 -0.008936329507788277 -0.0194311225083145 0.005119087830556894 0.03182385017020677 
