solver_type L2R_L2LOSS_SVC_DUAL
nr_class 18
label 11 12 13 18 19 20 21 22 23 24 25 26 27 28 29 30 31 -1
nr_feature 4837
bias 0.5
w
-0.03229709674837278 -0.005006913510959486 0.01292067114404086 -0.08089758685117839 -0.03064901904573896 0.02385485826233358 -0.02729738329577417 -0.03108549731244421 -0.06608449734629678 -0.01967962705126547 -0.01785363746302027 0.03801915774774617 -0.0127345859962632 -0.05812382929748118 -8.000816843770337e-005 0.03693700431564309 -0.02795456140378948 -0.02336411330208975 
-0.02453248176558921 0.01157868697057747 0.008911541329160598 0.02329154313155665 -0.03725599094663841 0.01395301654122899 0.007001103182766332 0.01760297256460374 -0.01900214424845292 -0.005011647404333872 -0.02076124483304377 0.009462224277854375 0.01223034448243953 -0.04356133887824641 -0.01913933196216919 -0.03213753296946222 -0.02013220036957362 0.006299276570195292 
-0.0212482533668045 -0.001551743431271761 0.01719704737015738 0.05466092318646078 -0.0145828944390833 0.0128031265680244 0.005140948374193561 0.02785870862678075 -0.02289188854120555 0.01405253131737813 -0.06167989715343084 -0.04862350083982491 -0.002214562849650745 0.004385062450057363 -0.0252195459780991 0.008142550687596978 0.001048960439174752 -4.896792289315828e-005 
0.04129154862778232 -0.01888839878018468 0.01801931584838903 0.02255086562275758 -0.009715998991118399 -0.04223813894732911 -0.0276778000223696 -0.005958149791009407 -0.009326392657956742 0.03535565936517075 0.0376384850796789 0.04749244104490649 -0.01835299327889492 0.01507808969152175 -0.03013784693593447 0.04882146890063837 -0.009157179852292158 0.02206742715578818 
-0.04527777393557275 -0.0406523039208042 -0.01629559235825274 0.04522606200208807 -0.00699099663827156 0.005713382980278623 -0.04678463590102311 0.009967146640361628 0.02173242295794839 -0.003299470285888328 -0.05234027113319596 -0.05199889347114783 -0.02363991940275675 -0.0288472476969172 0.004959223859726254 0.01488483675213836 -0.04136837876383865 0.01426205341066219 
-0.008026025648942602 -0.005535109830252952 -0.008934374066261084 0.04874620799855031 -0.01456719430873154 -0.04881126375733233 0.04563517323503818 -0.01644933620984157 0.00571597517338357 0.0193868780664109 0.04938589747396732 -0.05380268544011087 -0.001455856153058292 -0.02785894271730018 0.004165310988096979 0.05491200105462948 -0.03320300608504331 0.06892174061325224 
-0.06959498832919517 0.009307454365692204 -0.01581266618605981 0.03040845144552113 -0.01414041483940223 -0.01746363309764389 -0.0007445421224913591 -0.007109568265939138 0.07314516780284956 0.0150617185576061 -0.04706635313758371 -0.02672458027615911 0.006362580147343269 -0.03032681848861639 0.002600813413007532 -0.03149806766932734 0.01146584212662978 0.04706616509943314 
-0.01548107053449177 0.0144411339267907 -0.005360638205769278 -0.005725481854568378 -0.04640732154137559 -0.02667142834366132 0.03531059295483158 0.006382859552571413 0.03065964292522179 0.008892033106915907 -0.04562102959371425 -0.05475094000521916 0.004373513707893432 0.06757035331234536 -0.02339283460140089 -0.04757910814496758 -0.04453042421948297 -0.0002195832345984161 
-0.07448997015852027 0.006975042628355028 -0.005440803143376363 -0.05018637143720554 -0.01967680761205587 -0.04677417837531708 -0.01594828574213678 -0.02863473128425343 -0.02304872281424103 -0.04497922870894049 -0.000483828829965939 -0.02264622426284978 0.0006885159194794469 -0.01618081686708527 -0.01060778994456159 -0.0007128125763014413 -0.01781670460577553 -0.02747032765354197 
-0.0708828519863874 -0.02411289266068206 0.01746439468051474 -0.02374636698937321 -0.009674493859308946 0.02746898767314077 -0.02087748714318683 -0.0132701982801795 -0.02486504226967796 -0.04564444892114399 -0.06842867923649011 -0.01252546035444117 0.004971568986478314 -0.06701104176578651 0.00214032987938073 0.07210304787034823 -0.02762358673955283 -0.04545149086672228 
-0.003899295568238042 -0.009921094968690931 0.01364659835616479 0.0298217499995289 -0.04340552760999147 0.01764037412273646 0.0004799491914994659 -0.008317103177052167 -0.02961464533539688 0.01001065235039787 -0.02675338975337809 -0.02605468653943925 0.02633248950051398 -0.0364449244350601 -0.03776015138526167 0.06478578273525813 -0.02312861659466891 -0.005542076127279244 
-0.05622802226857303 -0.01580915658343508 0.01201342928661468 -0.003588395402523015 -0.02309643914028196 -0.03117596610647559 -0.005877312593941014 0.01305768523363907 -0.01041285543406506 0.004996086483070111 -0.08655109359632313 -0.07913299285271051 0.02636095867903632 -0.01254763458192434 -0.03435964406689331 0.04670381560470865 0.003192007672862109 0.07018545718621429 
-0.01905506067736491 -0.01806424728700086 0.01510495688125904 -0.03482740658799982 -0.006377899592027943 -0.02763688606514927 -0.01615324319420629 -0.004004334492337678 -0.04577226308709981 0.07219744265817574 0.0363247495742549 0.04824425026403501 -0.002713884919393209 -0.01811077130672304 -0.03429604880526927 0.01254000044989907 -0.03110703793924854 0.07109118286752764 
-0.1060277661763098 -0.01612297794424386 -0.02551021351569755 -0.06214471831245872 0.01460235661348283 -0.01441172929951376 -0.009839989600208713 0.01561384542497723 -0.01871455427235628 -0.004432149708981829 -0.03014936518113408 0.00192410577532652 -0.03647525485600163 -0.01851176259254054 0.01211000758851405 -0.07066325014941899 0.00923812653122268 0.03210772273016837 
-0.02816752487389373 0.007124681640657488 -0.01557946405522664 0.03890068416859916 -0.01083161160544147 -0.03979781237879643 0.01836919642264713 -0.01598837073686668 -0.0227133785842582 0.02243986136668476 0.00829298295305461 -0.05476091555562933 0.008797612422798742 0.006842190354209595 0.01081377964738019 0.001944146904251003 0.007787885848477153 0.008353173270207452 
-0.08457037757286512 0.01017039069748991 -0.005718532868915699 0.01158387187268067 -0.001134425760552726 0.01440627540142312 -0.003705926813567999 0.00153636183311835 0.005890257207088488 -0.002029982667936507 -0.06940635180860588 -0.06326663121200467 0.02442175647645118 0.01124972136336395 -0.000507608085489838 -0.05675741594691678 0.005349346874169236 -0.00628371214282572 
-0.03644661720249261 0.01991118368528662 0.01648963594361869 -0.02603780344311582 -0.04558303310772083 -0.008490747239659759 0.03762653195305461 0.01421807160516172 -0.01119256563693605 0.01061070019629797 -0.07597066234581074 -0.04838067065296139 0.03965763000938927 0.03013781027353565 0.01140891964797032 -0.0589603072453968 -0.04885302088803993 -0.0684384295724992 
-0.07788456284483705 0.001723704447417575 -0.0001167581001181081 -0.03688968927182496 -0.01625166288796082 -0.009181510815921078 -0.02372074318375997 -0.003290095825773408 0.001414705155704849 -0.07568965993326472 -0.05544787840379125 -0.03794227652523859 -0.0220164560455481 -0.05316825721211672 -0.0037917269345219 0.03426790314206548 -0.01627645419694845 -0.08814091670886529 
-0.01302218906062112 0.002857696523868922 -0.006240061950420026 -0.02279060909614043 0.002060318969986059 0.04831289583825062 -0.03473681951283458 -0.0214728118665002 -0.02320515098802878 -0.04216994434590154 0.01771058423767797 0.07498122118074409 -0.01076782407848715 -0.01461793192877574 -0.01636585102923399 0.0395818476021225 0.009706212165306233 -0.07457136363416511 
0.02789442011535621 0.003434054700324649 0.003290560778331758 0.04851974587920514 -0.02116308332195894 0.02839000690036526 -0.01661570197569473 -0.004899579125390568 -0.04655426214225242 0.001259657736606755 -0.07604385518847699 0.006919709468481085 0.01152104716095779 -0.01536113576194063 -0.01470620864956146 -0.002360464070503898 0.03085833365516238 -0.02116920949062107 
0.02541739933382251 0.0005288334540115224 -0.01019022446075022 0.03036059210897972 -0.008632337867136179 -0.04263487745700748 -0.01599162483912621 0.005681825644036123 0.01024647896716428 -0.05484630095415651 -0.05619799091846853 0.004133022816665759 0.02327509985361536 -0.01003209232364504 -0.03976545551506257 0.00397023913375127 0.0117800484305044 0.04922321256209485 
-0.00826980173422108 -0.0228190983232602 0.01897987667181694 -0.002568721821242118 -0.03436284950006099 -0.06571466733509958 -0.01284378133124119 -0.005267914779675848 -0.03535723394586243 0.00640356997385612 -0.005542715558468913 -0.04059462267135266 0.02346857552190399 -0.02424279930483672 -0.0303640462763881 -0.0188153124239773 -0.01644694320207147 0.01081245384903319 
-0.01426748515107895 -0.0325366939614773 0.0001374086089653783 0.02248026218372539 0.02816108708376034 0.01888130229050655 0.001081009178738142 -0.01444707177851751 0.007901196825558276 -0.01670017637673223 -0.04399423071842558 -0.08878583478699631 0.0006642022205681742 -0.04488291491946612 -0.01701700038837835 -0.05624556827615017 -0.03265411399547271 -0.0341570312232397 
0.01196136829799725 -0.008811465924138706 0.00855708153440086 -0.005935750547689345 -0.03603959987279338 -0.05118657407394044 0.04271721159023158 -0.001118169675020785 0.02117972411301336 0.01973607696579052 -0.03627386414922949 -0.0658045135884039 -0.007854461997356999 -0.01086387263057643 -0.006756616966156484 0.08816922579267825 -0.05901954101002479 0.05986335516553668 
-0.01082427428934666 0.01032532191876298 -0.004097452778292324 0.02679150829462718 -0.04425144910532457 0.03514658290837854 -0.00995754746815747 0.003717642958859809 0.05870783503299046 -0.0009299111795222813 -0.04463783106429731 -0.02425993916947449 -0.03354666571388308 -0.0311645826956138 0.0006890007759140891 -0.01765922253668373 0.01041715383143887 0.007291860002422941 
0.03092967359878171 0.003825866153602042 -0.01891118866005725 -0.01771812632163873 -0.0348208982763798 0.01583508973400642 0.02079593182346312 -0.002421852829831941 0.008726132040268037 0.003891820049882579 -0.016908365659109 -0.06383678177253985 0.02269516142739067 0.02137126648436731 0.001367133169733691 0.01454457096350533 -0.03537413837909102 -0.04167802038672085 
-0.01426155428461061 0.009783539331943168 -0.01405863826349656 -0.02520114104229947 -0.0008436231319065785 0.01382238140101711 0.002966223348914198 -0.02506496242715428 0.01709821717900319 -0.03487176709162183 0.0105478371883218 -0.05410239826202321 0.001061702574992351 0.005639818320655888 -0.03492131407201538 0.005205188458473628 -0.02147208630727766 -0.08689345818813926 
-0.02627386202903182 -0.02676793879563784 0.0144201895694668 -0.002769273881650148 0.02377161304838111 0.02555064677209548 -0.02837637202197317 -0.01641156347383091 -0.01504584699561407 -0.04142830988270351 -0.0536348645830431 0.001395990999045311 -0.01016601728308515 -0.03743164717156844 0.02969428687408958 -0.01256527384593965 -0.001276031901348529 -0.05412505071202622 
0.01797655810984898 -0.007990555820222657 0.00157156958714401 0.02913868682159367 0.009275677931425379 -0.004962856180001691 -0.01340974078627931 -0.007064479936975386 -0.05499469242522913 0.001189181236379484 -0.05303898624603149 -0.01702229905973584 0.01549583685899102 -0.005852694585506916 -0.01929109219596532 0.02151278106785898 -0.007859462504543269 -0.02169412877926618 
-0.05767852836095082 -0.01363694739748732 0.007355165003992739 0.03158408344741569 0.01008019757726863 -0.007700117427871502 -0.01236785851977944 -0.003858253446628151 -0.03292665063349758 -0.01470772734316515 -0.06896820659404067 -0.03977787497717158 0.03451369340774745 -0.04058027792137736 -0.04113548786995961 0.03162088327641345 0.01486800979384305 0.01385907812866796 
-0.04878321213399656 -0.01518807515458406 0.02072104202546371 -0.03270548122320317 -0.01948027594032003 -0.02297662148272732 -0.009094781672913893 -0.007212080254671074 -0.02299060951378766 0.04910098422008052 0.0108177504396647 -0.03873230616444445 0.00130607526998915 -0.05359429163364657 -0.0192522261729881 -0.01845396991285771 -0.02802941331970182 -0.02575481818578043 
-0.02549582778129183 -0.003489796449874869 -0.01338966015171213 -0.04143187381744936 0.04090301647894233 0.03486485716365614 -0.0003997840540776038 0.005972097880411302 0.01450859703379527 -0.007346119919139729 -0.07470580834893288 -0.03734464637797172 -0.01763033018705304 -0.07604209306280661 0.004705917110108818 -0.09023326519187078 -0.002272681419213381 -0.07398875508207188 
-0.0297423958471406 0.01113559038085127 -0.008085811943752424 -0.01709550433199704 -0.04437519818244936 -0.04528323118780863 0.0110154783583977 -0.01347359458528944 -0.004584704054660784 0.03435647855050109 -0.04855418663831076 -0.1006185482095915 0.03023095430165136 0.02208131316285256 0.01691558153261508 -0.03049570754108733 -0.01418482142619399 0.06383658748622946 
-0.03508953139628564 0.02174052296722814 0.002071930030834975 -0.0343060331212996 -0.04798723415212697 -0.01300417086386109 0.007874635927646667 0.007969033494295709 0.0140670892114402 0.004846858683603864 -0.06444098643977025 0.05515449666356368 -0.008480166772266692 0.03015274694805947 -0.02009799847871283 0.004660456395673128 0.04223746820247171 -0.002772711481231634 
0.03119687113864507 0.005713518199450663 0.001141663532507221 -0.00330172459245779 -0.05693229767121857 -0.00775889676679119 0.05519649815407975 -0.001091649218241508 -0.05147269472195046 -0.008699269608621127 -0.03032830665755201 -0.02136270733392746 0.0223682300241538 0.03094885384764206 0.003105844531540578 0.02530685958114209 0.001997433894508306 -0.03337997949571743 
0.04890347701723121 -0.006730061123752983 0.004371334260472476 0.0323646389507842 0.02832226906120579 0.004420022177841067 -0.01396851380893204 -0.006940190125031201 -0.009255728919770202 -0.07008735503237447 -0.02984886445919825 -0.03843094963612305 -0.009256999514814917 -0.04127853655741693 0.006777143820338598 -0.0299730084927949 -0.009372912886519549 -0.1053220508137803 
-0.004358606396100362 -0.02483965484069504 0.001336582042827379 -0.04486637085673014 -0.01057556449553706 -0.002680041844197947 0.008257703572213936 -0.006102526778454356 0.00440217221902123 -0.014235526486998 -0.001308425469702098 -0.02874464301162024 -0.01569590532378766 -0.05005976438572272 -0.02424790025401997 0.009166132477004568 -0.03148345256828981 0.004208224283482538 
0.03814156036890291 -0.02201053354112794 -0.008531119529977817 0.0005185937751876532 -0.003495032539797807 0.003262682513061294 -0.01038892172820144 -0.01132141277450189 -0.0003988430250667997 0.03514452681025563 0.02340717749692578 -0.04177056762634201 0.007331106695864701 -0.03961340159703753 -0.01743536742872939 0.01367624657663955 -0.03121586343568124 0.04161577671715647 
-0.004806078249959233 -0.02826749142384567 0.001403169462483345 0.009691830874525255 -0.009094965970955795 -0.03568926793329818 0.01718629137109946 -0.002946456072691837 0.009576304427498329 0.009764287914469781 -0.0641294723556213 -0.04542368309223986 0.01396235437910984 -0.003079745295500447 -0.02026336981402109 0.07703573728251784 0.01444600464603185 0.08744352420549101 
-0.05000752145304376 -0.02195577097888621 -0.005383702740338003 0.00768259607180135 -0.01211541181534581 -0.0132809911436305 -0.01959793373019786 -0.004586163166800903 -0.03807547519691256 0.05477338114344205 -0.01155123901134816 0.05839749733913122 -0.007765702697236213 -0.02927192950098193 -0.01756491728528241 0.009986387705540556 -0.02126004757663378 0.1250338313569782 
-0.08748502326277481 -0.001866440206896768 -0.0353771916701857 -0.07960731787050912 -0.0191856250141763 -0.01538436657590958 -0.02746534680292893 0.01643424548380572 -0.01624862484525145 -0.02786141083377315 -0.05258848215522297 0.0864837071803222 -0.02993236720988352 0.02224779727687162 0.01171556009823533 0.01878883030263476 0.04662234984429874 0.07465516114197907 
-0.02384542072917292 0.0007568431700003892 -0.01963463589120958 0.05529586001553786 -0.009499394090456331 -0.05068232851783185 -0.01176677602780419 -0.006675194126752302 -0.002563371347792756 0.01322502096158833 -0.05426521704108645 0.02031635600133865 0.01308948400084373 0.008977450651031593 -0.008521006535703386 0.009250940323427354 0.009128879933553408 0.04386177205017506 
-0.09020769822466732 0.005363524778957999 -0.0001474556169420843 0.02278691689428999 0.009668053952071798 0.02830574692827564 -0.01237400181151669 -0.004206062884076168 -0.02734642569763466 -0.002761936241031609 -0.02477505640043978 -0.0732875168345903 0.0191263893867632 0.07113768381163402 -0.01013084944622186 -0.000618175375161401 -0.01179340510971244 -0.08014732520625956 
-0.03010171113491866 0.01300952033106033 0.03527984712893294 0.03663248402521015 -0.02599862105050811 -0.01801698483842854 -0.01287712542528205 -0.005246966695297832 -0.03543660812420141 0.00262222093738484 -0.03951840259138185 0.005253837322035504 0.02229899597172646 -0.005176382890893431 -0.005931720397922647 0.02875710336594774 -0.02115395266984296 -0.1119493876789601 
-0.06487253572963006 0.01020037918381855 0.006559504951987987 0.009835072929194557 -0.01569521013043319 -0.008485506820821283 -0.03129899285745987 -0.007535791111537571 -0.001511753505580611 0.007072946598043725 -0.01409072930800915 -0.0468313513338575 -0.06148198844361368 0.0004356819614895427 -0.03555012345675111 -0.005261320285054523 -0.02165124021837183 -0.04748890441900523 
0.05608582294456771 -0.02526298411931699 -0.002359679726634829 0.005962997010212303 -0.01087081182557828 -0.02200895225079743 0.001926929397775738 -0.0122361433009242 -0.01323602768102168 0.02441290614957953 0.004059024095434272 -0.055618531539746 -0.03468609416587942 -0.04778866868217047 -0.03621000841051115 -0.01425301926422741 -0.001679361035807313 0.07526607266065634 
0.06893523019585085 -0.009540773666553079 -0.01593960264794053 -0.05403794428486092 -0.02090743910889694 -0.004628523404937746 -0.01896235871917003 -0.01480801206042558 -0.007727073778398577 0.04643905411039748 0.04381024841746099 -0.02375826177825915 -0.0273643348164037 -0.03314657526769046 -0.0001577863309317772 0.01313564539231856 -0.02595612056286045 0.07683770424962197 
0.07008324019984635 -0.01946296889928095 -0.006001577296196116 0.04767190408231029 0.003907184686608291 -0.02738068102835872 0.02191585249651182 -0.01089322540908043 0.003588492596985193 -0.01820371333484281 -0.02545909152098118 -0.0463032243481219 -0.03634004702686788 -0.01573284448700912 -0.01264683096986977 0.02870537387550066 0.02754312187199033 0.02332482034340859 
-0.05360244916664414 -0.00759754794776454 -0.001173273543657346 0.04496805453940821 -0.02905385062764624 -0.0199488113820543 0.03489702960943197 -0.005838789535820773 -0.04453359352053925 0.008159603923909509 -0.04932283967312095 -0.05420324494585579 0.001141681667679043 -0.004721102136242528 0.02879451834724008 0.0392015523771902 -0.009912430156522278 0.05449575173765137 
-0.04032707880579729 0.002715379407203661 -0.008337923148800665 -0.03096337504192361 -0.008525650967625082 -0.004192016737189618 -0.02118748983117222 0.02046113665374679 -0.03530665050881503 -0.0261950241137555 -0.08450045219599925 -0.07259882687314399 0.007056278866255455 -0.02335310584007562 -0.002810621935242299 0.04456100012349519 0.05932720484720225 0.01328928738300359 
-0.02057918103447906 0.01413794612852817 -0.01169403221165766 0.03018770386316584 -0.02227355052307375 -0.007902978977508971 0.01753206952389538 0.003102802814347764 -0.002751526421801728 0.01075314701955244 0.02838891658491407 -0.08013351375718592 0.03994035149199864 -0.008623153705073687 -0.02457574900045526 0.04079348123374822 -0.02163058332183118 0.03372983639936186 
-0.08689077400069008 0.00701336818933943 0.01098522825475691 0.0398361441983704 -0.00875935973943542 0.02792642955276674 0.02707206867297949 -0.002799069513485182 0.009202214184631252 -0.02487337036630363 0.03463740358042965 -0.06293604124938164 0.02276705919945616 0.04401378094942721 -0.002458997524505546 0.02868426437067426 -0.002441699247448457 -0.0598219148978622 
-0.0162556542160819 0.00143121858577612 0.03960199880614802 0.03528034942833815 -0.01537519928310508 -0.02124244991828859 -0.006042545058009154 -0.005423560482783344 -0.019987682106031 0.009729376192531773 -0.02185954889972764 -0.04149426626228494 0.01601603967289735 -0.02602870036286869 -0.01800319052330126 0.02287719058417467 0.005125460493731303 -0.04271840537082913 
-0.0002594088199955712 0.003803697729258 0.01909269175171162 -0.002255566678932056 -0.01762410847730268 -0.05588930924648392 -0.02723270783142838 -0.002778801937406775 0.002066665439347545 0.01128592773311521 -0.01176141972634302 -0.01659123937956203 -0.02362538710523649 0.009712538444773655 -0.06986714288168842 -0.03908858197358048 0.01108405850385689 -0.01545842506648383 
-0.01140846315103777 -0.03126035514545111 0.008366034341401136 0.03262592037872485 -0.01174345844624434 0.02256519501594034 0.01707771852260688 -0.01097124882946491 -0.00771958737991618 -0.02126443674001274 -0.02110663093459612 0.01071458630725817 -0.02734516980229906 -0.05465694463214158 -0.0009762705221285828 -0.03870588026943756 -0.0185157471046275 -0.0175708643880262 
0.03425101774525714 0.0004197465011013631 -0.003009586813734646 0.04914488352456842 0.02117641184328675 -0.003514388543255003 -0.0115695302617167 -0.01750896386955328 -0.03946711105061179 0.01243307416578454 0.03497902444106762 -0.05504016431638744 -0.0006533232934239385 -0.01473306658915907 -0.01136035530563113 -0.04701860082099667 0.002954470927680019 -0.009190861119974671 
0.02211468249638726 -0.01405045813599519 -0.001019462756509007 -0.01519135805805357 0.01691554364335601 -0.00424452622857685 -0.02041684621292158 -0.01453657679087742 -0.01855357444280089 -0.01829353544848765 -0.03550286153151824 -0.0422001136486613 -0.005680900234735058 -0.001790229995533613 -0.05828276399202394 0.03814990139859378 0.04689582086672781 0.06490681568880452 
0.01513333808468908 -0.02674658217831556 -0.004237707094711162 -0.07351683265681244 -0.01440090636294939 -0.005222999598005301 -0.02979161515298879 -0.008089361381432837 0.0008769399581440493 0.01166476196055002 -0.03095703191992795 0.03876568097780983 -0.006709178590081243 -0.05033959718081547 -0.01621238652421935 0.004771136691510147 -0.01425986135665907 0.03806123902956596 
-0.05821869908966478 -0.008727783115025917 -0.03077898307790021 -0.07596392910882176 0.0005081209401858395 0.03037160368908684 0.008386387642905705 0.01182537129366252 0.06330904111521782 -0.02626832958262708 0.004906347755605415 0.03807091833947836 -0.01113961635012638 -0.05979649901948429 -0.0007472066615472339 -0.02909618310682892 -0.01273036208511933 -0.04765307389358126 
-0.0221592986336044 0.008595685535350306 -0.02072960224563676 0.03805035095504827 -0.02150992151173292 -0.07162481491882296 -0.02562566370171727 -0.005310119678229118 -0.0008711348085825232 0.02823762219751726 -0.06304146739285654 -0.03642664489980116 0.02435323470212756 0.01388020361494018 -0.009564894168634562 -0.05691235145653884 -0.04690921310408382 0.06763684922923509 
-0.08488169500557771 0.005596106304678145 -0.01051998546045266 -0.07889571688846567 -0.01678747658739346 -0.04562673793327628 -0.01956806057714701 -0.002770386574101143 -0.01840125995111624 0.01743684507403635 -0.05549241880293871 0.03588460164002873 0.01235342147026435 0.07210840375293347 -0.00851263341139186 0.02120087250030296 0.01487045839248054 -0.01688075651581107 
0.0004307482988240024 -0.002501785215637223 0.01709549787713651 0.01816263682683211 -0.05124838682420544 -0.03819740712455724 -0.003220324474891332 -0.007312422038647157 -0.01699235426133991 -0.008759801157659614 -0.04668842344170651 0.01672653755857889 0.03064156798561171 0.01831660973061295 -0.03084411409021906 0.0400746105360446 -0.01270823299405967 -0.05699523706546582 
0.003702784803724846 -0.008580974592146717 0.01895744653827716 0.01973457559259796 -0.006570505730934433 -0.01626560833554874 -0.004611621016923797 -0.006977277257412996 -0.02469135235618299 -0.01243133601909681 -0.02455025121935252 -0.02028716454949411 -0.02022948906481586 -0.02759592897661981 -0.0441793656196086 -0.05926379403354741 -0.004606670881169465 -0.06060257182781463 
-0.03918570519177866 -0.02492005143064925 0.0220639974097544 0.09500319351477167 -0.003385217023896039 0.02495508713009913 0.004371570139379628 -0.005605777941585451 -0.03331107626769692 0.001115234998381575 -0.07694668873326004 -0.06738393363317514 -0.00787978825765011 -0.08470055639476361 -0.02146684367304108 0.002947313540382708 0.01657949006796372 0.01542048778669021 
-0.0541031744866274 0.00691960540662113 -0.01580053595998631 0.06074574939071903 -0.002051354964399591 9.608611776060204e-005 -0.02548478767552 -0.02174477690153556 -0.03515994870218525 -0.004563395406314029 -0.05695837215737207 -0.1022573653954807 0.02729830045826452 -0.01423276119280936 0.01124895741707289 -0.0005565079704913739 0.001079756722162128 0.003668737497132139 
-0.01872526354211714 0.001669780033709635 -0.02757514377727296 0.0108982586859265 -0.002862318587224732 -0.02957354036992087 0.01261712184302 0.001949845453565746 -0.009771930644420413 -0.03715042545737153 -0.04723651200830498 -0.02542462495491695 -0.03266318933530007 -0.006715946932289226 -0.04552776884000849 0.01726899646141713 0.07912910745778563 0.03832089408543324 
0.01695089560753549 0.005712088129302455 -0.007049326694005198 -0.05983386290408283 -0.04119101555658945 -0.01877220867464531 0.005589850207059431 -0.01371161611052306 -0.02256573638534763 0.0003124197605935362 -0.01080212696670588 -0.000525845611439876 -0.003213496876925771 -0.0002100320162699883 0.01088959869404002 0.01698044304530217 0.001575675931788795 0.001003527930478937 
-0.1071159882898614 0.006697130106839238 -0.01331114348478027 -0.07202947297964409 0.02155084781246442 0.01260410525100417 -0.01131545355146172 0.001697573007736095 0.007669202186290246 -0.04827722230972539 -0.07762439410284831 -0.06409512882102982 0.02170279811071413 -0.05524198492292915 0.008537112973767181 0.02986607355793095 0.01735171650909375 0.01860428681212752 
0.06521296446857404 0.01119105048069482 -0.01756566009246754 0.0323880089331683 -0.02652318820191034 -0.04132356442460801 0.01704124287381265 0.008044659424372535 -0.01802919159062717 0.01188376319700411 -0.01249938536629371 -0.0281604442476005 -0.002702697928539352 -0.01640846015034463 0.006053421084083948 0.01768314562204738 -0.04610560112350759 0.1100664958131241 
-0.06858952238940988 -0.002994578362661923 0.01892263980267189 0.01096658900319047 0.0009836789180221542 -0.006187390234439236 0.0003812685291290126 0.006875904607048073 -0.01741984681397746 -0.005814374345359378 -0.02488298640774489 -0.0008394384307115325 0.02132213959693237 -0.01956780718596508 -0.008589249882322217 0.001210041169751174 -0.00938613392745794 -0.04395691622245744 
-0.002829294166438114 0.005159405771940335 0.05620268574265801 0.01595724582472405 -0.01023971412382754 -0.05487120324006803 -0.01287760050133314 0.008013604184301488 0.01971130997144485 -0.02002429665051836 -0.04418831261600412 -0.02474629435954411 0.004151656017449326 -0.02536975439015895 -0.03679243014520534 -0.01648673702010775 -0.02414423662763137 -0.0790941693221235 
-0.02725288093710771 -0.005298960458899939 0.05098967547866297 -0.003325360679739925 0.01342397686879727 -0.01210697143255467 -0.01166764895636498 0.003055903802042347 -0.04146826177780557 0.02229432043678139 -0.02054149741833445 -0.02187956648330629 -0.02249774954153807 -0.002648658810403131 -0.04485005610678827 -0.04277846325603953 0.01070113859361524 -0.0990284334355436 
0.01347938263942031 -0.02045800662474478 -0.0264661767207109 0.0180608211305875 -0.006943865212047378 -0.00286359357929346 -0.001350985717716168 -0.01437577452447845 -0.0306788807876472 0.01937912973748171 0.02452767266435328 0.008748261019960563 -0.04709475623935573 -0.02242424870788686 0.0008830996487573093 0.04286526851375642 0.0105844710215712 0.01229103802824965 
0.04574251497594811 0.009654090569798768 -0.02066768826904456 -0.01639939085418581 -0.02915899458812651 -0.01650007962562607 -0.04211306247516494 -0.01095035189585147 -0.02261180632097074 0.03973757801487537 0.01255894609858604 0.01421344423299955 -0.02256802619460442 -0.006196541917878802 0.008961669347276343 -0.0008802459636790394 -0.002147724708262826 0.03331434319872999 
0.005495918712258113 0.007429018664215957 -0.0254536893343965 0.04639441613671703 0.008712942038940805 -0.03623672552921915 -0.003706343437050123 -0.02097522845728649 -0.01747525483737978 -0.01291882080669681 -0.006641359195597924 -0.0003503630544285919 -0.02457913475318035 -0.03765709890858741 0.008543230695177864 -0.04518523748677706 0.006168612925313406 0.0343289592814084 
-0.05816411233547539 0.01397090160435077 -0.01668984318926484 0.005937808539756467 -0.02339711298211701 -0.02357576668545928 0.0264383763563745 -0.006196639629028325 -0.03115621778218606 -0.00951473060377328 0.01282147066764515 -0.002714689547753076 -0.01107325104631952 0.04261704350342763 0.01150026740894959 -0.07442579567139861 -0.0201644530098051 0.02934820376737106 
-0.04279693922669899 -0.002194546412754547 -0.00492831810742229 -0.05222399561488351 0.03641484131334589 -0.01422458033948602 0.003652129059337933 0.01020003655906526 -0.0565993787120806 -0.001873642080977265 0.009175601700463667 -0.01285411173695938 -0.008981394196972652 -0.004266137845881893 -0.01215319103528707 -0.04469640245704113 0.0246013221087728 0.005111924448171992 
-0.006248561130364114 0.01107231707996671 -0.006056882425394398 -0.003788597283708728 -0.02358389555521312 -0.01139568258430433 0.01244305885764567 0.00625681209954061 0.01904018488250978 0.01828751750808669 -0.01361552269140168 -0.06733696965686134 -0.008123426402831155 0.02470670231955851 -0.03306376132567743 -0.006289781986589451 -0.02915002717620068 0.04044605325191442 
-0.06599882593606446 -0.005133894515319776 0.01467978986120895 0.02025261350414472 -0.01254340182190213 -0.001620633940837782 0.01916532111604597 -0.00736723616200973 0.04818990158835589 -0.006806795381702804 0.01373096093852738 0.01135272595466709 -0.01347717871132306 0.01592352363281258 -0.001217895210790238 -0.03522999223622367 -0.002440197525198339 -0.003587350893012822 
0.01325172626277554 -0.008204098463545709 0.05013582427661122 0.009841656011767321 -0.006868094243223033 -0.01235786541622274 0.01831966965749396 0.0007166616689825029 -0.002275526801629022 0.02147685320240365 0.00521967905565837 -0.05347787836557862 0.0001201548867081073 0.006204093940002434 -0.02674898565291318 -0.03468559942385931 0.002424077374307853 -0.1097688420076239 
0.01757060177960914 -0.003079900706475303 -0.005785952275211893 0.0287890220133629 0.01066602835184877 -0.04507857127690265 -0.01932064638463668 -0.008782033957638753 -0.01765934430628129 0.02342035069800974 -0.01217165723294084 0.0009515401205012711 -0.0342691067774702 0.03781934565414481 -0.0288039239841799 0.004794858390097924 -0.009271984100675928 -0.02430881257719856 
0.02552012058046144 -0.01258704588397436 -0.02924752900727179 -0.03060767667959914 -0.02415096690727978 0.06292306654994229 0.02954404453236641 -0.01943798745094084 -0.04524250589528491 0.009708710370151766 -0.01128375508552392 -0.01110511583695631 -0.01075168180510278 -0.006238224785535386 0.02600721423013647 0.003760183313836397 0.004312099270246513 0.004667009062737794 
-0.02873863000480159 0.04529496513330607 -0.03357625043829376 0.03126030645131699 -0.04380730728343493 -0.003810010096153944 -0.04810732795258273 -0.02469300704872831 -0.04433140268493491 0.03620492177005739 -0.06719024015242144 -0.00331630685618993 -0.01780169372697062 -0.0225637902046799 0.01201878497703525 -0.0005533588468774394 0.03589142270774868 0.04477106069022361 
-0.06115529049679391 0.04795894184274651 -0.03869037297526934 -0.01555350090429178 0.01156537846656663 -0.02280161188085591 -0.03447113115616815 -0.02047844853870071 -0.03117330158953894 -0.01464854301317149 -0.04327187624501724 0.004194772098908972 0.006319852925301067 -0.06004608267229063 -0.004694087698846543 -0.04822149121480049 -0.01234894176637668 0.06593288079808354 
-0.07377429204318331 0.01507315636654183 -0.01437088911371871 -0.06872049386048261 -0.04593309374510791 -0.01138875017865946 0.005913261253828892 -0.004390683348585894 -0.0317069457282565 -0.006530113958745431 -0.005248277934157543 -0.006298156333654291 -0.0231936448532978 0.02735411637860379 -0.00130940312485679 0.07337227697884995 -0.01148080761922765 0.07598036412139504 
-0.01763020610155595 -0.0053736779303117 0.01140021368328964 0.001535227074532862 0.05494486171111326 -0.04847179539606729 -0.00689251528666337 0.01486182644692401 -0.06124886851887056 -0.0006321145578445692 0.015532217873325 -0.05724695344701768 -0.03320432773256711 -0.0696500588256362 -0.02790325583081438 0.06351314459722056 0.03548844111124487 -0.01246952078093945 
-0.004099515709318225 -0.01376171188398143 0.01036491227955305 0.02389835026194208 -0.03619575960877202 -0.0140514901745425 0.02062333107716787 0.01506419989640584 0.007322005722959768 0.0311010729113265 -0.05775126061924611 -0.008343408210640847 -0.03001331137839853 -0.007835154377725804 -0.04234621829682853 0.1152834805608057 -0.02080056843914998 0.02590551572606937 
-0.04493998670533712 -0.03544937234101882 0.03395583105532816 -0.01784223884217182 -0.01486885850221671 -0.008153092096350522 0.00622042915239501 0.0017706398784064 0.03854417789765829 -0.01670440334735152 0.01135376803255849 -0.02782833509449493 0.003850102783534242 0.003584516822648936 -0.01281703334405401 -0.004284420802495573 0.00481850215586039 0.00605842204980253 
-0.02555069918029401 -0.02172642736511835 0.0359298569291782 0.02753390036013441 -0.01310112437439192 0.04800991080181011 0.0446106978142145 -0.002717939095464709 0.004083410427026204 9.226569217751566e-005 0.01458260850241884 -0.07764894804060281 0.01713346697295388 0.008949738566765638 -0.03724651335252036 -0.004326083788191762 -0.03651215200918193 -0.07711509166495628 
0.01064967030546265 -0.006418420445045453 -0.01267320842007458 -0.03200294104896334 0.02481630535920215 0.0344490142535203 0.02695273773676053 -0.01844447932167736 -0.009084890920500984 0.02296454778890656 -0.04362198798309845 -0.03532164441797944 -0.002886263671462441 0.004647991247865868 -0.009587070904924054 0.02712203200828993 -4.796576274628878e-005 -0.01522478974455507 
0.01641815618090629 -0.03899174078153834 -0.002681942258401801 0.06489300532209705 -0.02522232616089475 -0.008511919141045942 -0.02136116213960184 -0.003952043322961679 -0.01519574484583135 0.01047618231124524 -0.03636031745219929 -0.0186348433114776 0.01060319274125924 -0.03406860480197603 0.004592569493617182 0.008623426406705093 0.0228920716224711 -0.004445629398769198 
-0.03517141482778286 0.0178321162429824 -0.03300017319783925 -0.02572796424399501 -0.03068782624837557 -0.0262650726035555 -0.05087022364207994 -0.01662372037680733 0.008973852082258304 -0.004305257052527513 -0.09996152244756314 -0.1010635506609804 0.02553660382202928 0.02039500484720023 -0.001729562589212177 0.0006082933748755437 -0.02300443031861629 0.02848039396324559 
-0.02206908287140678 0.02844991071373347 -0.03720255457383057 -0.0609846507004944 -0.01683048908694661 -0.0580345463923214 -0.006580680451481135 -0.01236553062993138 -0.01474094402016835 -0.04652986963629794 -0.04767134505652298 -0.004739716099194042 0.03285251603169866 -0.005747525292702224 -0.006417048625049968 -0.07066714612318266 -0.01159076234338028 0.01048050898157819 
-0.01554875564497271 0.02159965789473442 -0.02052077411846836 -0.03200788161876259 -0.02276854186794291 -0.01797750073610686 0.02118360273598549 -0.008706575066191848 -0.0540431034581587 0.0002998940328719082 0.02114094113186584 0.03870769470673664 -0.007430060190005952 0.03215258464827039 -0.01598249526030108 -0.03651104255793011 -0.01025910949663005 0.0002437442196755159 
-0.02432853270243487 0.01149781921925487 -0.004388670022294218 -0.07250809708729644 0.05418145481103322 -0.03437542911505991 -0.0177528484055533 -0.003560599675130545 -0.03457389554818018 -0.01711100452536425 -0.02198600016604729 0.005164978313699014 0.01823517012663579 -0.04098236774096176 0.004707333978392641 -0.02064774735356995 0.007395935654494436 0.01532154278950348 
0.05580897614855286 0.01341435979452818 -0.007036023982342174 0.0218853734218021 -0.03189016691706213 0.01450530824242106 0.02535388352307252 0.005016862443499833 0.01746507533445115 -0.0007153123888309629 -0.01086376353508006 0.003387790010288127 -0.03177193810612828 -0.01109933578488985 -0.001082161416047695 -0.04331466692783285 -0.03857614542319718 0.05088083611411516 
-0.06387160850084486 -0.02020389587317449 0.02281541907217607 0.02901515702369275 -0.005841829423361889 -0.01448418659757676 0.002563110613647138 -0.004788482012343696 0.02805410024992027 0.005228888347980134 -0.03468269552936968 0.001320525526832411 -0.02179412115642393 -0.03446684394731948 -0.01084043008176012 -0.0284856570827417 -0.01630148850271965 -0.02742653391328697 
-0.01353442193239317 -0.0293811402196143 0.07464852082302134 0.05677392427983459 -0.004410027172999168 -0.01318023087582096 -0.002732723298316927 0.01053601597154976 -0.003487562057808476 -0.009796857006133393 -0.04164221222372291 -0.06905698658119194 -0.02387417673534235 -0.005007210621140778 -0.02124951082575928 -0.03321661714985569 -0.03541227752506679 -0.08780119656492595 
-0.0006707310293719275 -0.008168916621467707 0.0432734483513765 0.02694337934219226 0.01815765179619833 -0.03224947144789352 -0.0369985154439622 0.0003061972854470673 -0.03940998111665002 -0.01397644420425431 -0.007993219137019681 0.002707370600654746 -0.04553343063950784 0.01857066750804353 -0.02886719351129703 0.02652936757364292 0.004684557132372549 -0.1195363983833022 
0.02194790869508697 -0.04010201549517593 0.004160545394715121 -0.01494277717899772 -0.02652555084911982 -0.01219455902445462 -0.02255414346406415 0.006680920978724098 0.03181423941199856 -0.008980251028224107 -0.04179718018094047 -0.04420788822414915 0.01100943967661267 -0.03089832636017555 -0.02467538297445776 -0.01472300190379298 0.006576988916660716 0.002245105654425724 
-0.05108601700462482 0.0251000175757393 -0.01661607977116417 -0.0466295057388521 -0.0396751145811431 -0.01854363378546001 -0.0396223822604197 0.001429591919833051 0.04095205771723471 -0.0482265412930985 -0.05476707288620242 0.001851386671250267 -0.009439406234178433 -0.008465447367276131 -0.04632088585084086 0.007120251210599862 -0.04956721162230965 -0.04188675090711995 
-0.01026869892710174 0.04594514588942509 -0.03845150294178498 -0.04946251464017914 0.00582233548089514 -0.02346574232619979 0.006519513413106273 -0.0135490977524306 0.01453634432828121 -0.02937983929107194 -0.07247912406351857 0.06878752262615238 0.01325590856199899 -0.0892343911294322 -0.007195205843448026 -0.01011872923161221 -0.01436406627680853 -0.02764059185701546 
-0.008004975175468101 0.03118667722065794 -0.0353474479225238 -0.04499753676766523 -0.007804422283343144 0.03700511763056106 -0.004816283933337983 -0.002835490387331073 -0.07386297862616531 -0.006947805712404503 -0.01788605623416328 0.02701379631558822 0.02157830383212725 -0.0300806593332543 -0.00173547357856753 0.1376984847472018 -0.01586875313158087 0.01046248256344243 
0.05469058346991914 -0.01293685570128668 -0.0006825402156044559 -0.02330144985867154 0.04378163580629997 -0.03897395348574537 -0.005852752706949579 0.01001720673633039 -0.04666650796158243 0.0003998468937762357 -0.02755685668950504 -0.02095529159134381 0.008190672616422159 -0.04800334081332518 0.01055350817081002 0.0125194806971692 0.01957404708662729 -0.05762083869652122 
-0.002616227528864435 -0.009789080529832715 -0.003944516813632631 0.04073116396028563 -0.05163921935435562 0.04600332187316625 0.0388339707339098 0.01431920325177179 0.04164045086878457 0.002343571552987648 -0.04186520909447099 0.05284798567878715 -0.007849816988767289 -0.06005088994319115 -0.007625224783586302 0.04585679424738311 0.005258828884104322 0.02054694751560716 
-0.07796020134387453 -0.05601522858093807 0.04646524367906917 0.005460252175824533 -0.01253844078711462 0.02898463841440132 0.02532670828491506 -0.007232494223605015 0.05364305227379156 -0.01151422442764252 -0.07212050325078356 -0.009661337629017733 0.001355326504558918 -0.009025642765856653 -0.02394429069000414 0.0230566751187497 0.01153573138030707 -0.01581080352364161 
-0.05829591496599383 -0.04494149855346249 0.072706274873005 0.01986089681190714 -0.0169342219924511 0.08065986555056465 0.04423468781125466 8.430391102500603e-005 -0.03236427306450024 0.03551543770750194 -0.02986758594835877 -0.0803798778865909 -0.01268604050481387 0.01648179321591144 -0.04323768482562734 -0.01071019670158605 -0.01477091149021695 -0.04211992087577663 
-0.007970822013204449 -0.02965215977088122 0.04656267075116422 -0.04570682458691459 0.01930286457006801 0.01770165465312035 -0.01670164194729675 0.02786528868064438 -0.01418092841821968 0.01256195536677954 -0.004521189963322314 -0.06587563393587101 0.0303738478751117 -0.003124164584031348 -0.006000019613308151 -0.04370078305466321 -0.02213296390675617 -0.1022257041315958 
0.005304630925721894 -0.0005958188297625819 -0.02835323072495377 -0.04216553533949109 -0.02017523221712683 0.02093073617179126 -0.00212733221641055 -0.02227232689413023 -0.01844006332542489 0.02810469916445819 0.02091340994172648 -0.01692485868603819 -0.03713282502435041 0.009692603754914431 0.02908379509648432 -0.07982329993699291 -0.02503874929543864 0.07943234843416559 
-0.05289299403910137 0.05739346192152773 -0.01210001174325257 0.02029958330756483 -0.02405901815891205 0.02126350738247092 -0.02294525097973184 -0.02070959526263724 -0.01812094512054258 0.02209356298999802 0.0001374535471832969 -0.02583146868575416 -0.03775501930322906 -0.03134276964941832 0.01529051164424502 -0.02970782414574076 0.02565349618102517 0.0008545934186578 
-0.03750195101424239 0.04364885072127024 -0.009157115638595963 0.05696020096562479 0.005772871528057572 -0.01359059143630039 -0.02241335946589808 -0.005492525960423183 -0.03127201906153773 0.006490858150888059 0.001985601569596585 0.01020891300678097 -0.007058828668686411 -0.01626441322316941 -0.02181312009035838 -0.05719783995195245 0.02301395948329476 -0.004267185973542483 
0.0004355404550526022 -0.0007038298984810425 -0.009740000498443176 -0.04955666032843598 -0.04234768017339705 0.007512742949595791 0.002731239768340425 0.005801849122820849 -0.02669444281200381 0.00940361579927779 0.006954691369164107 -0.0181805507362551 -0.02221328576900581 0.004675283284665078 0.001871425259067287 0.04558026453932711 0.01905497615172816 0.0413702529365419 
-0.03794635200066352 -0.01087696776355905 0.02131854272266673 0.02067898391635123 0.01822136867996067 -0.05342672546942223 -0.01398823987873825 0.01400891529760683 -0.05936616865855698 0.01449137828544679 -0.06766475641736724 -0.08721146378899797 -0.03604452589291248 -0.03872530932882559 -0.01670275840756066 0.0236921473757272 0.02830396423435249 -0.02920558625526761 
-0.04416183906332506 -0.008742434812337163 0.005949617774837325 0.006452289603792104 -0.02446488948359372 -0.01101817910480179 0.00529073361382367 0.001395235675136379 -0.006057189305684298 0.01749620952832587 -0.02177513466787635 -0.003583371379032689 -0.01929410945258105 -0.006695508752907946 -0.01282584237528587 0.08559276389835811 -0.01902207668818807 0.01399012303414376 
-0.01795005747112993 -0.02341622676485097 0.0119082846205545 -0.024675464170198 0.02334057872224813 -0.01070549920953266 0.004122624075716107 0.00175805020196149 -0.009569317267845426 -0.02462876872652779 -0.01416700972268574 -0.03355772312472773 0.008938122039845018 0.01784169633992407 -0.003517710800563459 -0.04780565358111357 -0.00612511130435918 0.003063214923880322 
-0.03253757493042414 -0.002287702443997927 0.005501093143350885 0.005281176401933757 0.01658387059687828 -0.01092782787106814 0.03184108474367604 -0.01207553123613049 -0.01033373945616872 -0.006848966901239604 0.02842388193145883 -0.003975250400027643 -0.003394732815009879 0.008633342495945409 -0.004200776064707609 0.001493292653805111 -0.01171277081536114 -0.03965703254001 
-0.01597990892409829 0.002154987459346252 -0.0255775443617726 -0.05816773717621764 0.01887795785583061 0.007084883518236758 0.01096397810453646 -0.02923400083381657 0.001848339527661272 0.04003657337136483 0.04158253196912851 -0.02348308924185953 -0.02324088168950029 -0.02290982568254952 0.01810299314620559 -0.03126797725683941 -0.01113020134770865 0.08001916574918573 
-0.002643545631061079 -0.004308265081329714 -0.01008390574590583 -0.01993441238389144 -0.01514226283870284 -0.008502415162469173 0.01916162251105928 -0.03093754594497586 0.01346021692860088 0.002030720850267599 -0.04529244243881533 -0.05492916187380174 -0.008445322835307719 -0.03258420923674911 0.04480037212707289 -0.01051975470602146 -0.01098199684529748 0.008565185752977338 
-0.04729405590273976 0.01319096233171256 0.01595091142778945 -0.03143036782749346 -0.02543492261505969 0.003587162978805594 -0.0256653570983531 -0.04503624779346948 -0.02819496245923442 0.03599748403233175 -0.01348429960137384 -0.1070224945771621 0.003901302818023136 -0.08074714284361968 0.0135699648699567 0.03318333307768708 0.01475823791587571 0.03506780303520547 
0.01076483626853665 0.01137667107897404 0.02339173133127303 0.0140230195054531 0.02386060857316158 0.02647872130868067 -0.0150277311414041 -0.01668159908021889 -0.03614322039748187 0.019738974124104 -0.04562972195182972 -0.05645938778386291 0.03411988012020255 -0.02957286469689551 -0.01255830301188974 0.03781979167250222 0.02084985232762811 -0.01656830102081052 
0.01465607333996683 -0.01554023879115132 -0.01805533938255232 -0.02842690760222589 -0.03858321631701818 0.02899261821132797 0.01497580591443219 0.008648553543712502 -0.03573623838598881 0.05432286812011306 -0.0007655648472315956 -0.04234479143853059 0.002154564695730498 -0.02566965820516035 -0.0527099844862502 0.08500017207702698 0.05337825496097542 -0.01530129467237938 
-0.0213804855678807 -0.02733420009029793 0.0241791700091263 -0.009579011509338554 0.02427825019853248 -0.05850144271950231 -0.01969439011396179 0.004264468166301283 -0.09016154561363392 -0.01272126312035258 -0.07889083785187134 -0.01875815107623068 -0.02836321690234635 -0.01265167961495117 -0.04967219582818008 0.06753278335217958 -0.009004356128312916 -0.04913589449261933 
-0.004069936011959332 -0.00236234965480602 -0.01066833937154002 -0.009774537348583311 -0.03339583559933269 -0.03703445691230312 -0.004094977773502101 -0.01059418681172052 0.0121392568648584 0.007827392060718752 0.01132611739409555 -0.03923311904830978 -0.01389450054766712 -0.007653766141252883 -0.007809981611334654 0.09808788869004138 -0.01166059436674488 0.03705693748675301 
0.03426988840169681 0.0278149609558884 -0.01334581769275128 -0.02087149369915175 0.04557280996249002 -0.002115085744344858 -0.0008802092436918543 0.01055955784854062 0.007033568056443606 -0.01827933901017615 0.008242212505153787 -0.01076698649108625 0.01054733496814518 0.01755297135209706 -0.01717759848639425 -0.00759388707461931 0.005361346896600173 -0.0549712286558637 
-0.05694778981318741 0.03430868905476999 -0.01507425914851228 -0.01873675802833127 0.02934200561765447 0.01851075916225885 0.01520831584998502 0.00622970457698307 -0.01903383320457476 0.02407451911666605 -0.007876681414192798 -0.06400678539557064 -0.0097234972394126 -0.007499863043170588 -0.00731112537600214 0.02565084248730783 0.008394502999501388 -0.06661303184229045 
-0.01349087264838952 0.006456675021632676 -0.01860442892485369 -0.05286659014665036 0.0119869205316721 -0.01174086448695315 0.006530051023115955 -0.01968229356435909 -0.01223312881554894 0.05512035393200804 0.0350874775368456 -0.04141615380680771 -0.01447350875289224 0.02033039833113798 0.01249301971230402 -0.02031175284628036 -0.02831347569887844 0.0115154796587332 
0.02088763099879606 -0.01674358651208859 0.001120240369686753 -0.08789022849146644 -0.04039171775931172 -0.01911899859932194 -0.004002348902562957 0.01518517325819719 0.004392303082905673 0.01922609406799525 -0.005947752088746101 -0.06807779011479796 0.02034473191009727 0.03035420325014072 0.01128795769513327 -0.1116925085198853 -0.05253576696456085 0.03202855850329563 
-0.09470986029608634 0.03838323465372077 -0.005136263378293382 -0.03000890946150577 -0.05460580045755182 -0.01838916939146381 -0.01040861118552537 -0.005797984387396516 -0.00389123103702067 -0.05252140448675675 -0.01222527637310509 0.0900494406052529 -0.01289017477613603 0.01347887056251919 -0.03841705471223058 -0.07505239014556159 -0.014128091853787 -0.04872250473280675 
-0.03745373646249495 0.06015063153463846 -0.03314712098557187 0.004830990994896868 -0.00428216050852996 0.01032164069504759 0.03678939102710815 -0.00992513135281722 0.00569901339501458 -0.03488572475782924 -0.00645697921010392 0.004652687292307962 0.01322033736972864 -0.0236992731852229 -0.001140721474363478 -0.05456860298737927 -0.01085372967104038 -0.03805961026026412 
0.01001391528235423 0.01779919893821855 -0.02943541524860764 -0.04695821656156952 -0.03201294451239831 -0.001697937044133525 -0.004818328998898427 0.01628095473423852 -0.02196890436992257 -0.008658795914699455 0.01387878067733284 -0.004904106571435713 0.01054277911812066 0.01091401314983363 -0.02341001451794241 0.06420298106049681 0.01703939955775538 0.0157595357606138 
-0.01655042345688573 -0.0163503029470372 0.006233164085813931 0.0211310108546041 0.008731535406007757 -0.007956052069291867 -0.01215872213820265 0.006861536533868506 -0.06861331034784347 -0.02998477926686626 -0.09389951392316671 0.005892665941257818 -0.0171115751587572 -0.02500835166258461 0.0003721070765835612 0.005460583264549589 0.02815587065665735 -0.01815034937826225 
-0.01940966571346273 -0.01822269322209037 -0.001871485992560085 0.01162030021465136 -0.03090755724951324 0.01540062214848444 0.00301113573058384 0.004308673015062288 0.009077620311967719 0.01606117672541686 -0.01794131173765379 0.0438418588999409 -0.01149181204017329 -0.01579943069531046 -0.004417899063087679 0.02759211287913918 -0.02819469120263042 0.009082994744687444 
-0.01102355058581763 -0.04018102819847258 0.03253780478902648 -0.008157740742484853 0.02142312829406839 0.01535538066565422 -0.01218216383061973 -0.003342039484985644 -0.0005609804062790934 -0.007453978735971944 -0.001944153585074442 -0.01245068694599244 0.000796582441013658 -0.02206315053375161 -0.01095125036864455 -0.0177880241945756 -0.02039156480081209 -0.05441624892222345 
0.01986515658706032 -0.03814094826165203 0.04632965799777557 -0.02483658841170977 0.01015037466251089 0.03098152722714728 0.009430823116007273 -0.002615894158521214 -0.008929397692543896 0.04480279596189077 0.04057638881037902 -0.002055730908792469 -0.0101023086180898 -0.01546424887660701 -0.01894784466684584 -0.07563110322689609 -0.02271057263373371 -0.04209686677628666 
0.02878389930775616 -0.02669833513194699 0.02448076248811674 -0.1005568719768237 0.01968522521205779 -0.01660381742553992 -0.02115532668416991 0.002415275227819622 -0.0413866202019735 0.04654686853733871 0.02430503027092086 0.008200814770066513 0.0201125020034675 -0.01199611265217716 0.02136102936195882 -0.09198461474043389 -0.05948393771507093 -0.001239679880041922 
-0.04007655624104951 -0.02101550944797739 0.016154940926328 -0.042736794719108 -0.007440407770904196 -0.004925015462658382 0.04153266310725936 0.0005753182911261603 0.04241228740923576 -0.009926107801492225 -0.0397571399420432 0.04383585344162213 0.00557143579630737 -0.03795056887874271 0.01226570418015628 -0.07752864378080317 -0.02696555581230639 -0.03524937058126908 
-0.05155171030917802 -0.0006042117889547312 0.006546122147004936 -0.05677864176229136 0.01281457657841638 -0.05098320984049884 -0.03132271202726036 -0.01047300346483654 0.01268180610873698 -0.009961731748604534 -0.004027306619403395 0.01812762763864986 0.00369381190380881 -0.009817152529184393 -0.0131166324842129 -0.09291183137618898 0.0178281146952428 -0.1012444470953827 
-0.03860182251559466 0.01336807294419828 0.004001212748301717 0.008095728459367457 -0.02198214797881682 -0.04336742098004889 -0.009136713987433837 -0.008460784504060322 0.03670582236067389 -0.01383968509719947 0.03371319301003058 0.04933683878831372 0.03886415290273659 0.009465739040954551 -0.01052620133803621 -0.09029866478906361 -0.007007725219491175 -0.09603371584703387 
0.06006328600798008 -0.01354091315182372 -0.01930078997725544 -0.02050211231550975 -0.02208204302514947 0.002574660734683347 -0.02981393187469136 0.02177450191064057 0.009133564979625985 0.07131754554771401 0.04989934265597879 -0.1137440683032851 0.001928003405051006 0.01285849129881366 -0.02739524785632145 0.08501022800042947 0.03718487386760464 -0.04449983610209939 
0.0449394846428734 -0.04614416355908836 0.00832293869194483 -0.02597597127067432 0.02659132892654651 -0.01189681521003333 -5.598507896627095e-005 -0.001026962169486027 -0.08959226899560231 -0.03870425820078481 -0.06811429845083063 0.03887361850178593 -0.008463422024607353 -0.003861690510427666 -0.02346442430859824 0.003534864968150748 0.01706892396136835 -0.03297485452546936 
0.03904988611204804 -0.001954173116088574 0.000932903854642359 0.03048778517895613 -0.0320880113436352 -0.02036348313089786 -0.01278311382051385 -0.007063876367876822 -0.01864890581840661 0.002976270974515799 -0.03628928561181617 -0.006457860643274729 -0.01722098249193233 -0.01908816144243105 -0.01198890549096799 0.02964165355059619 -0.03156985216885554 -0.01141867124811394 
0.01517046063246127 0.009175899076571008 0.02044096584594421 -0.01891582312271433 0.03433277807230851 0.001141802365152691 -0.009627048261902518 0.000167720065418139 -0.00450993293788542 -0.02258749963610637 0.01206906364540793 0.03081457609930439 -0.01539773101670209 -0.03156978428027256 -0.04012750409087835 -0.01077936871926869 -0.02628881740910981 -0.07741898018763024 
-0.005679045280413757 -0.0007679470073184657 0.022444707540162 -0.05192025668759356 0.006771459490743716 0.03723323679026167 0.002959173809489631 0.0003902024926928659 -0.01202488228090659 -0.01216466537832967 -0.0003409287668098768 0.0209313043594172 -0.01937089908824989 -0.01790222692071243 -0.02282093346424459 -0.05819056311428161 -0.02146746615359966 -0.08798290508701817 
-0.02116183378925201 -0.01738362132405386 0.02018510982814893 -0.08786110700411888 0.01225162516951225 0.01482375240189801 0.002748187424157896 0.008082896002650048 -0.02110736737368894 0.01364464632434992 -0.01628319197689613 -0.02374504670633552 -0.000146650604352935 -0.01509204244874455 0.003945464128563372 -0.01286429627492902 -0.05182842192108288 -0.02300595585226383 
0.02598694126826773 -0.008600655975851225 0.00357755662635374 0.01721523066486265 -0.022572420267913 -0.03194373964591382 0.01292948417534916 -0.02751251177312348 0.03477777112640913 0.004301348391535396 0.002986115264085264 -0.05983739916105758 0.002648526851269447 -0.04033842131327875 0.05633122227194045 -0.04747011407949513 -0.01031210152193396 0.004126151318762283 
-0.02674525374811917 -0.0194547747465172 0.02644703919664636 0.007629513234710657 -0.01500382457466788 -0.01248345897887699 -0.006151491488460285 -0.03314886891324391 0.002106478254150781 0.03611359230650749 -0.03049858885035905 -0.04540107557125157 -0.02388982100514814 -0.0477246607330052 0.0290273615001694 -0.06545013720300334 -0.01097171849648878 0.08561991484417054 
-0.02127269567764659 -0.02949381883565263 0.04336611226934596 -0.04257234317914936 0.02276983941834548 0.04992181023805437 0.003497750266392955 -0.01794420509685317 -0.03099778284766589 0.03776019520867792 -0.0607272586048808 -0.06749989061629262 0.036511384154445 -0.0628744894412742 0.0105894397593147 0.04339123358948335 -0.001991719555908651 0.09181576550840014 
0.02114428134585133 -0.0157456463873287 -0.01095331066368439 -0.01278062316734863 -0.0239495181009954 0.02465042867665925 0.03241122577213804 0.004342676628671738 -0.01264195676381217 0.02276423600389407 -0.01051297494234557 0.001499736374638743 0.006691622115011 -0.03735437055298989 -0.05188654266661377 -0.02737229559014008 0.02843964412777837 0.02991359405683606 
-0.03774995113581532 -0.02390823174395402 0.0161766842105084 -0.03008310089380003 0.004402444473993133 -0.03692381815446651 0.01234616294702458 0.001701709875021417 -0.06141850426759603 -0.02164740653628914 -0.03817609246370533 0.046965635595568 -0.008974135290030157 -0.002666350205386946 -0.05916442747765457 0.02873384835276771 -0.03741156351705874 -0.009053388971070575 
-0.03425126199023171 0.002132445898174558 -0.01158144762074775 -0.01554947452880116 -0.02070579609427826 -0.0321933259490152 0.02239545642530181 -0.004748178428233124 -0.0123181708778374 -0.004467469367943011 0.03082559377952999 -0.001208246280754027 -0.01095474696895051 -0.007789926321501918 -0.01331853461255099 0.04234322743153191 -0.02074280546961817 0.01574066701783663 
0.007668619547151426 0.06042787206790343 -0.03453683278270685 -0.05134304408859574 0.0230438182251216 -0.008659956793005554 0.01096675058985587 0.00409783666662421 -0.03527082314340797 -0.01340334646875684 -0.006549623353611355 0.00492986179442653 -0.01052339061620119 0.02763349129214649 -0.02427373030003012 -0.02187582756974771 -0.01750573167854088 -0.05842958866162511 
-0.004369247943940224 0.04808248238338593 -0.0273676241766526 -0.03650230243361814 0.01133815459942791 0.02927243801917266 0.005786371934337105 0.01054497390195404 -0.01892771113106987 -0.004657968908117379 0.005908274788004903 -0.04902424743971735 -0.01438255809944054 0.001510603879767226 -0.0180645677900997 -0.003903104108980019 -0.01293995452041068 -0.008139091999612946 
0.03111618694076638 0.006706557517812026 -0.01411715925014766 -0.02085281584936712 -0.01014217819691484 0.01874327554502384 -0.0007136107892520226 -0.01028572013834312 -0.04147922693010679 0.02021419008731715 0.01573493730750597 -0.0609804309358935 -0.003600440835801324 0.02897204205665614 -0.007305387287059749 -0.06021797524019718 -0.023539855419593 0.0209494915382316 
0.01890120484692432 -0.01103314907973001 0.009863939702068504 0.05228932738023449 0.02314092732205647 -0.01947637333581086 -0.02983685532458859 -0.007114659317365381 0.03262013884845095 -0.04911039432841575 -0.02516833182283172 -0.009749396754154704 0.01574190648738738 -0.02798657897769917 0.02539176207513231 -0.04072949745655331 -0.008454033590458137 -0.0839086656352868 
-0.08688119640944116 -0.02363940290153577 0.02897616776014696 0.02415730192839539 -0.02502877508095489 -0.002577587422448597 -0.01173000995225535 -0.03035473713661403 -0.0177295842727112 0.003567721832225855 -0.08370892844043766 -0.05165779892754528 -0.02392616129533078 0.002555605146213921 0.02554339912408936 -0.05738524614772566 0.02142495408251348 -0.007700480023209956 
-0.1081560953216576 -0.02929336388165431 0.03968008971617378 -0.06618953385224582 0.009435996156895827 0.05284072288539709 -0.01099726467316979 -0.02807332930379125 0.007624949973837503 0.06303937534661981 -0.02367914444952195 -0.05643927800147451 0.02004165897771409 -0.07290977344976023 0.05592733207157279 -0.05339053862906971 -0.01423860187211362 0.07252599390558917 
-0.00931303761306093 -0.006180411974607837 -0.001088145007210886 -0.03460326900309393 -0.01233759309153768 -0.02029138894596985 9.574558318547041e-006 0.005224329360639106 -0.002822068154116287 0.02295641506591554 0.002248582823339941 -0.01308180595806903 0.02092401326347441 -0.03709861987847053 -0.04162871933475243 -0.01076624437043466 -0.002577059036569978 0.06305745656497203 
-0.05345296818574036 -0.01864677206808833 0.007531838122514392 -0.03570644624376224 -0.0002910268515623095 0.006941003719971658 -0.02470877087627716 0.006639743120669056 0.03153986833748514 -0.04107280189055029 -0.1132036356000847 0.1122085267459177 -0.01823390891759424 -0.02227802094231284 -0.08149458374916278 -0.09288151128695658 -0.04786014964505773 0.03500648994506247 
0.05061817786242087 0.009004691644203764 -0.004329875481312003 -0.05261560495370265 -0.0130390888953222 -0.02610034854657119 -0.01504040254461075 0.009510067195729865 0.0163312057488482 -0.002387702290573025 0.002471540334408515 0.04084768717120121 0.003731468007114088 0.002666188745965463 -0.04487902395644076 -0.01087952258629392 -0.03089920559438269 0.04561382596519095 
0.04433258459902625 0.03835790002513953 -0.003241044446953304 -0.03331023714889225 0.01287629891368521 0.002271001196451314 -0.01451771885785595 0.01342223562189007 -0.002088730774985075 -0.03265933593483057 -0.01434377694889891 0.03131327088649953 -0.01427569783820793 0.02397569021345048 -0.04536765910098744 -0.03207514200188161 -0.02685187320598874 0.02436178769205707 
0.02408139563665589 0.007315910084056115 -0.01080448914414725 -0.04940919527920042 -0.02004662083348102 0.023970203778004 -0.03052634437647705 0.01226537838421765 -0.03237458607551152 -0.02949319228185066 0.03287151152547122 0.02387035939396348 -0.02608053138415158 0.01582523033636693 -0.03551534076514382 0.02005896114396323 -0.01952131753130659 0.07110305184418013 
-0.02991007965639971 -0.01007031152023068 -0.01643498420233192 -0.03789946079480283 -0.0007170221910676299 0.01567734143979755 -0.0396905339272132 0.003947818400378905 -0.03180267396432096 -0.02208696970037595 0.006332608337303095 -0.008591284972117568 0.002031910633149516 0.01381756653477821 -0.01477889652423133 -0.0141635059424986 -0.02949169080043681 0.05992341385285405 
-0.01244978206260741 -0.02777169244083014 0.02458130491354767 -0.01421509904903709 -0.02207229319158816 0.02682966989682219 0.01944402846862824 0.01524577987987035 0.01950697326770753 -0.01267810823197644 0.02454725179123744 0.01527844616632806 0.002676218506133895 -0.01891625932754548 0.01746145493787462 0.0478981557091989 0.02223335134401226 -0.04373152037702618 
-0.03648028090403775 -0.03542990417554669 0.01952461028593817 0.0411109423156876 0.003456235857392491 0.0009344496366137479 -0.0382092988857992 -0.005855050908938811 -0.03174633331378569 0.05650034746637811 -0.06642250810728628 -0.04690358568948359 -0.01626304655249767 -0.008459758524699918 0.01374127092799927 0.01103150951264949 0.05185184776154414 -0.09629088302794706 
-0.02300692040366493 -0.03426363792406677 0.0272160779239219 -0.04267402250402702 0.03207500500327869 -0.03786197909210735 -0.002072495397171239 -0.004252429304197587 0.05048172123885242 0.04929020796853846 -0.01414431271688369 -0.06186602257130068 0.05950877059652351 -0.0476874061438383 0.005920776408495178 -0.04721498727952791 0.004071436194168372 -0.003665263343362656 
0.05810870669561791 -0.02379530349800231 -0.01965570382587254 -0.03811277572889859 0.02270239175830537 -0.00530639586387602 -0.002924544947215832 0.009988017515318174 -0.01458108298771508 0.0319520002721709 0.03930117032688361 -0.01752677533762219 0.01849337183188927 -0.03728106302367638 0.002427527372972255 0.009028230481974781 0.02273503064503185 0.02722379083849049 
0.03017408088092814 -0.04717606761961548 0.01162247417764325 -0.001748002840205143 0.001156245378780076 -0.01849682075614006 0.01952085550185408 -0.006152585161619024 -0.06870777540266021 -0.03468879089380796 -0.0303348020201582 0.08109721017306341 -0.0127827840294471 -0.02335841109047498 -0.04085080820706946 -0.02972956190601754 -0.02535622086229914 0.03899282373877441 
0.006967505178626231 0.0233983782956168 -0.01266715271881124 -0.0001630458407450352 -0.0243714272579898 -0.01971393958405903 0.01851776579500627 -0.01082980255196923 -0.03042190943227223 -0.03901084902109266 -0.03089407653193257 0.02106899139639677 -0.01250065286133765 -0.01655145393313436 -0.01967133230454508 -0.009756680855685793 -0.04264620126979393 -0.009874354996615721 
0.02571910276809909 0.05939546392634122 -0.00865383331713479 -0.01996160504508678 0.009787338352689553 -0.007355775482354396 0.00907428289418331 -0.006130663918468913 -0.04945602874741665 -0.04027170521300789 -0.03557397163280539 -0.0009674913139173858 -0.02175819565109191 -0.02099859948165284 -0.03469037643384235 -0.09931916285471924 -0.02928975491457941 -0.1003707046799772 
-0.03498943506043805 0.02012188825782262 -0.0055998675279648 -0.02610898268950927 -0.007611271194076802 0.01702929643250559 0.009283413212727099 -0.001958308325962509 -0.03408003547668987 -0.04561069034906772 -0.03833768279689388 -0.008287507552421304 -0.01693719194555918 -0.01511812310192852 -0.020433584791829 -0.06108440863231207 -0.02669672118806503 -0.0239726836737252 
-0.01783996914800226 -0.01731534014023726 0.01863442382536345 -0.03398903204153956 -0.01518673587915691 0.05689664030236086 0.006932268843042344 -0.01051805759216486 -0.01144768425117092 -0.03000200359879099 0.01360517768363463 -0.03603022831644854 0.008070101470946943 0.04183399014760278 -0.01397605027723915 -0.05994724352416388 -0.009592704384208565 0.0004458846944767412 
-0.03583524687679142 -0.02864834520809672 0.01855192985426368 0.07074840644311597 0.008087820136136856 0.04114134127728397 -0.05205355877389478 0.0156180854609571 0.01774850296132249 0.02253070384990504 -0.01125332801976025 -0.01715729458666477 -0.02045753328267329 0.03543884109473993 -0.01243280507105568 0.002993290266805953 0.02857603617113297 -0.09814715491787911 
0.02774445392448716 -0.04435531535011835 0.03050645576400406 0.1028979797339806 0.007246620209267727 0.03063131300462599 -0.008807092872510461 0.001857332880452373 0.001401465261298647 0.01347117993628179 0.0371851520626516 -0.006438975484243068 -0.03464895518456238 0.02308550995437332 0.01778114481982989 -0.04770959965665428 0.05450652484660292 -0.1441543708628342 
0.0154860481592002 -0.04710434650600956 0.03782384126607532 -0.01322304037784473 0.03306822911978577 -0.03770875545269697 -0.0360352173328902 -0.01533385491909103 0.03809857249528786 0.006162719822063722 0.02457320395003609 -0.01924975352428046 0.01815833718345511 -0.03518990131780812 0.02456866317660331 -0.08314949217609506 -0.002312897736243835 -0.04059355148300819 
0.0999867389308486 -0.0105099171071447 -0.003345509139051005 -0.02598965248967119 0.04752603521066787 -0.03431146326898719 0.007114027229670778 0.005779914157163947 -0.02123173365586872 -0.01626505929659141 -0.008019630341227038 0.05261378456039809 0.03877139278928161 -0.05794887294085984 0.007414233034560968 -0.01232942972522497 0.01653031756539717 0.03654184480049654 
0.04391582573751458 -0.03178030870402164 0.006827130486837374 -0.0308952793751099 -0.007817567411087653 0.007007756217887758 -0.01347844549288067 -0.01216254596820741 -0.03279195702784163 -0.05553440249589522 -0.05590752714255097 0.1192940956763669 -0.02500859400962701 -0.03126579114613626 -0.06343389471884615 -0.05003883033525036 -0.02352629480485262 0.02883283201163974 
-0.01448105674044413 0.03127734854362013 -0.002899475660117801 -0.0391735802748797 -0.04314806012536458 -0.04703853368760801 -4.744754405046982e-005 -0.006441136603898093 -0.01424330295566036 -0.0331276881502995 -0.05042314933167851 0.01510783608620533 -0.004641568940416518 -0.008965523737550813 -0.03453072315477886 -0.01426751261609888 -0.03632432331352973 0.003244692126814061 
0.01351507915089286 0.0511486454344202 -0.012159693467839 -0.04237610021156664 -0.0130131290025056 -0.01873262140977538 -0.007944572375015944 -0.004936452627066735 -0.0351477395483628 -0.01187599028761188 -0.07945016984917883 -0.005246399370382297 -0.005075892778681384 -0.02962346522335985 -0.03384762668082578 -0.09502982155569389 -0.03689652690259767 -0.03313844244297575 
0.01220107800202936 0.01163348250585707 -0.0204022456981144 0.03007643200624447 -0.0221418503080675 0.0179509272285875 -0.01124779289098944 0.008215397478312934 -0.056617271563117 -0.02165285576810341 -0.05367999101643182 -0.003408609770870966 -0.0007723794302064011 -0.03369485191753248 -0.01723019383538348 -0.03450454947264079 -0.0131666982336841 0.01076162116288038 
-0.0612492799714376 -0.03205583759252144 0.005661405730670734 0.05332059727705384 0.01790692873663409 0.05466730761162916 -0.03161170873464819 0.01124177186490915 -0.02079035592436809 -0.003747919936140369 0.01038353055112817 0.02030441108137039 0.02113336823632454 0.04741307546545053 -0.007720298215786931 -0.03979406722555388 -0.03128297887131232 0.06730298227142767 
-0.02055276133132499 -0.007588257321051447 -0.0234684928834414 0.02477511789654844 0.03047224642937935 -0.004830257894738316 0.01960699457671897 0.006523792641783236 0.02158643527139065 -0.033513702546857 0.0493991905468569 -0.001322070226958462 -0.006187241681163548 -0.0296849236922011 -0.001564120147319313 0.02550288810984494 -0.03717497083670839 -0.05700725048312506 
-0.05254515160131327 -0.02193743924565415 0.003181935568545952 0.07875974735003534 -0.01875865779009072 -0.001391808973508639 -0.006584438377342687 -0.03200003668776581 0.005239896134758148 -0.0193462396845086 -0.05086588269772953 -0.07913035440428202 -0.01171690660959388 -0.07163875058811722 0.02497261367278733 -0.02007813842586795 0.001305423632804665 -0.02115924122436246 
-0.07279686707097995 -0.02000573228521678 0.01386621986879595 -0.01389217130639302 -0.01722022470316696 0.008088695928145278 0.006225646673503075 -0.01700152114192325 0.04011126987436511 0.04991104290251371 -0.01720118287153434 -0.06916722975579406 0.01302764516711704 0.00727272197947558 0.0467048051656311 -0.06901115517487917 -0.02534488164889206 0.05442683200812155 
-0.03228870076577294 -0.001752248831812658 -0.001299856604110367 -0.03350836009085977 -0.01193256700034308 -0.002158943959537389 -0.004926179168475897 0.007136370639628901 0.01908479270141609 0.01194536915562994 0.01231967251239192 -0.04466305365862472 0.01494782414485769 -0.03720926535243453 -0.03348192718102939 0.03385802316734275 -0.03042725436503066 0.04417554392505414 
-0.0148856900790564 0.004705203153003143 0.006126499019101468 -0.08244382710558273 -0.02258399381506104 0.005099362855083191 -0.0361902891500208 -0.008410631090863874 0.02335570280779494 -0.02008505476293962 -0.02480543006425761 0.042128288447099 -0.01119870765142439 -0.05055453970689118 -0.07507858974711873 -0.06709569485764177 -0.04310464110435028 0.03296055084651826 
0.06417814994463625 0.006966234961974084 -0.005471406080581277 -0.0230095382954279 -0.01915012086686284 -0.02057714203406318 -0.03149395280155438 0.001275069599668048 0.02932538203556995 0.01979286667899305 0.01268439560664017 0.02247224217766564 -0.0142311916254501 -0.007865357224780399 -0.03601879878383663 -0.02682746099798786 -0.03065603606850603 0.04218402733552786 
0.03216592107693777 0.019041437550934 -0.002836345760356311 0.000273957571505828 -0.005030649381579535 -0.004261234708128916 0.0002359775114880328 0.003887410949682962 0.006716551408916948 -0.005233814414447841 0.01481897425086872 -0.0120237604019357 -0.01513052691967098 -0.01734589934185391 -0.03179974179645405 -0.03518975099356628 -0.03382532300448876 0.00223260471157298 
-0.00248981984306141 0.004630843601783422 -0.002744415031583095 -0.03143101072929026 -0.02293423593574402 0.01504135221370394 -0.01077955073789575 -0.0001478079910951688 -0.03710673667616414 -0.0004097432461798876 0.01690473324784458 0.01176731027048326 -0.01519231789189166 0.009587531601378029 -0.02294976462526127 -0.01100908660890104 -0.007346636225812087 0.01578286821787443 
-0.05412453878133227 0.002256188059026586 -0.007756547760435748 -0.009317938289144083 0.0008466786491596818 0.01144300027718056 -0.005074433234057608 0.0004963149187253654 -0.04275336946902701 -0.01105124037716947 0.02187613377639891 -0.03402521570212626 -0.01263059462451723 -0.01810992151102975 -0.01177043261973573 0.001887601489222136 -0.009411591504315276 0.04144378852524881 
0.02538661941444254 -0.01142847313194204 -0.02254936046447185 0.05609340710225017 0.04738764739894498 -0.009724752326612178 0.02111193690701667 0.009424179704417291 0.04936254403869626 -0.03549220216491797 0.06368458007669256 -0.09223522633278981 0.0017124267889522 -0.04273500425172225 0.00135951361746016 0.001198192568171903 -0.05959748214335085 -0.06661865258977529 
0.03057295287692397 -0.02793526959895775 -0.009946931929491087 0.0659298529853021 0.03691218944150293 -0.01494282769590869 -0.00511855371735737 -0.01752065610749202 0.03922402174333927 -0.06671586203752744 -0.02341235851212983 -0.1446801582897354 0.02715954207039541 -0.006887861885243504 0.01085288068701731 0.005582206207521901 -0.02609978822595023 -0.03133711694871036 
0.02228274713604278 -0.02695035734283298 0.004180028295945193 0.008672238852945637 -0.02382566013196144 0.004651727210648477 0.04041344290187229 -0.006539724286449407 0.06762213372351893 -0.02557804994245718 -0.0337820884564518 -0.05369996727059105 0.01081214697811209 0.05623295943126166 0.0450800325015662 -0.1052014372893369 -0.01858606876059264 0.0571646695138734 
0.06485260649386733 -0.006343427730618404 0.01621332211841526 -0.007192642832303366 -0.01017097023713084 0.02739114782317719 -0.008561054307044902 0.004605296719967781 -0.008138597821497652 -0.0336386378162948 0.005640731445976759 -0.01022262505424847 0.01620358234203646 -0.008381111811501972 -0.03666757663655013 -0.05482791475229598 -0.03979946399084289 0.01248763538101426 
0.01227536829851562 -0.002653122325503983 0.0001954909143867378 -0.1087820815425534 -0.03718401620880413 0.03250385530230999 -0.0315638619298876 -0.02107180610139306 -0.02078125906281103 0.006448246260366891 -0.06134239052541805 0.1040718622454603 -0.01686277851694219 -0.08014826890137734 -0.05944134721395833 -0.09133416431943908 -0.04027542367002691 0.01741834463699591 
-0.006251809838709599 -0.006749056725956688 -0.001416360581141965 -0.009676325846516239 -0.0414175589494433 -0.04371627957121473 -0.02486255690575925 -0.004589496561468122 0.01561689822496881 0.07316186607933563 -0.03412466560023408 0.003907417037623596 -0.01510338366880116 -0.02689305004776324 -0.02781435433626016 -0.06954420598055579 -0.008291417513075064 0.06421091125205936 
-0.00759528729025719 -0.009735796408103185 -0.005325056928738786 0.001531912767269864 -0.02654118602788901 -0.02067885997221662 0.005864422166008911 -0.00237877670707163 -0.006701485220972656 0.02158524868564929 -0.008972731177459135 0.00148845610162887 -0.0119955222202148 -0.04269294230726688 -0.00780880403484067 -0.01963480120199223 -0.01093062913659741 0.1006836761977171 
-0.01194631787786162 0.01376336821156166 0.003834646313394773 0.0153923497729088 -0.02539092666486651 -0.0009132875477832802 -0.005707619768037002 -0.003312727511781992 -0.05329077107926926 -0.006093717700312765 -0.005903767759349227 0.03187935391084265 -0.01306269707269479 -0.02377720048229126 -0.02269156449776062 -0.01951781948204578 0.01196107030418976 0.06401040814458912 
-0.0029377806743897 0.003917272177220526 -0.0004447139611975561 -0.004208975279811203 0.008614605118517452 0.006924281412022098 -0.01782190840596511 -0.003222172054739613 -0.03462275746095728 -0.02478481346068524 0.02190870135354734 -0.01873719659990831 -0.007362054240134842 -0.01528325453134066 -0.01665259755915261 0.03215999305563787 0.008850945258689938 0.03580620277989425 
-0.05529642237675907 -0.01833741685556836 -0.0115490626835881 -0.02179634136975973 0.01744277798539527 0.05959431518884311 -0.008881596862916272 0.0283345814156056 -0.01046903940086169 0.02788883790131819 0.04548935661911541 -0.03495028717485228 -0.009865965148375839 0.0643452845623258 0.00236810688154844 0.07739166261080786 0.002843635167784523 -0.1069391179276876 
0.03700943246381366 -0.03430535134557458 0.01231370580002322 0.02382072659505584 -0.001909406182688258 0.009999651063698172 0.0002894740926282727 -0.001893899457455971 -0.01169032624385108 -0.007375575194639354 0.05115038006299577 0.02181301083160173 -0.006612435517589412 0.05329255547747151 0.01064771148618334 0.06715347042184985 0.04646020278870756 -0.1667094069332482 
0.05233617658487796 -0.02591178270427994 0.0136932212990432 -0.01165635132994282 0.01408660464191655 -0.03237959270689797 0.05100059572809729 -0.02600332097071774 0.0351194404674123 0.03251535212272094 0.003308698593509428 0.007186862356525466 0.01607839054719781 0.01850708822187435 0.07767901039422427 -0.0622245650408484 -0.01201903056407119 -0.03227244928144632 
0.0482439691136896 0.008714320061171418 -0.0007868648060415622 -0.006920307778030116 0.01099142836083985 -0.03014949210329492 0.0163055041261459 0.005384868038818482 -0.01434313851181315 -0.01886064472242993 -0.02399654399858143 0.05279389318422039 -0.001469959739028896 -0.05479452471629412 -0.0166771171303259 0.03059397608404014 -0.01431673314079583 0.02975031177968393 
-0.03412083164714134 0.001734389571213687 0.01462549451075042 -0.08136411544148314 -0.01557809724347773 0.008391353109301739 -0.01855693154942636 -0.02204634151082027 -0.04459777307201822 0.01364064797422986 -0.05360966897080038 0.04427507831300874 -0.02235421261180558 -0.05773949154682295 -0.0456312123949353 -0.03780416097549049 -0.03575682586656389 0.02266099070554619 
-0.04243560145833389 0.02377208606726165 -0.004391522205937535 -0.02165689193617712 -0.02551272208468536 -0.003208323050185733 -0.01189271218368856 -0.01277028564467342 -0.0543740764050216 0.08083228700167063 -0.04193136050779456 -0.04038372008037369 -0.0115570238207309 -0.0282376893810117 -0.03491605493464448 -0.005785761704107405 -0.03206064670529508 -0.03958930814883073 
-0.03270126507932244 0.03246658331447291 -0.00961848884345249 -0.02912295466412084 -0.009841240163353597 0.001544613567451931 0.0110013175299485 -0.01100290743145743 -0.05073356629217549 0.06074403690260234 -0.0455827291857274 -0.05003530190514956 -0.002776459338516735 -0.02972164403653707 -0.03842843868052002 -0.06952294938911768 -0.04113935496075901 -0.07974423514709209 
-0.02347539803803134 0.007708175511975317 -0.01583851952379173 0.02259152838632622 -0.02606723835572188 0.01858792741896229 0.004513859861580178 -0.007479906736634266 -0.07488359691440207 0.03611241667085299 -0.05240178188346976 -0.02479966870569398 -0.001956244285232662 -0.01481177002184478 -0.02601443602455681 0.0313341504274644 -0.008905408390414642 -0.06793172014341219 
-0.09049497392823194 -0.0105392916289122 0.000471203580169683 0.02510464558340808 0.005284156881223317 0.06017352471993114 0.004451008284687602 0.01951425146210374 -0.06613112235686072 0.03051150984406023 0.009803778121765441 -0.03063357887848131 -0.006030853280978782 0.01267847528134603 0.00345712722127414 0.04366456073177229 -0.02671894315217147 -0.0006550107226921918 
-0.03363553453334121 -0.01130850959597601 0.0003183278412521301 -0.0826880502200646 0.00893788525820572 -0.01500386795688126 -0.03639434853192482 0.004823396628883464 0.003070530697126938 -0.05215090817405053 -0.005333724216566525 0.01183764142115514 -0.01192627491700636 -0.01158197561066815 -0.01942695548500029 0.02421834858245275 0.008607478391114662 -0.1013683781795166 
0.04845058650533128 -0.01391011815674189 -0.007842311942790975 0.009091005069829959 0.0197119777261172 -0.03128735270676492 -0.02057757002269152 0.001460140914421498 0.02058604108015811 -0.08461328977881222 -0.02627300718541496 -0.00227398255212113 -0.003961994541130818 0.004106350525772825 -0.009706227315310564 0.05901471795973433 0.03869295934660787 -0.08285372698378646 
0.05721806361418153 -0.01871201124611237 -0.0064694868149072 0.03652969615526532 -0.0007451950810911888 -0.02586815540505669 0.02645460387000246 -0.0143433003310848 0.0553790633383069 -0.01486696515639357 -0.03309368846564025 0.04527509323399569 0.02282442353718327 0.03169937315092145 0.07688917392765608 -0.006783720230576168 0.01351314526550114 -0.007264271131336654 
0.05431109666108794 0.01482206806714215 0.009684703170273815 0.0655319229177591 -0.02052396355636758 -0.01249212970352122 0.0184956274942541 0.005726580517732744 -0.04603739652550923 -0.04182430058928535 -0.05712108861726618 0.0202227746775871 -0.01416457991651083 -0.04705080518826543 -0.03706592235509025 0.01364014227801116 -0.03866275060080136 0.003072421320451226 
-0.02941357192675205 0.00609933727962554 0.009143374329955288 0.02383973845209721 -0.02414783492973404 0.04076793896936938 -0.04818398411100361 -0.02503826548898734 -0.1210982807535482 0.01803254224662003 -0.07849223085888769 0.06991731450489196 -0.04237330331705678 -0.09162012829469117 0.007248878187472886 -0.01773011457001975 -0.03828030951490101 -0.03146203386888486 
-0.05212063731778843 0.005280631228830563 -0.01617914373884216 0.01976047485782019 -0.04055181329275853 0.03923807992333511 -0.0197935731890924 -0.01474752790585964 -0.1132434537450069 0.04298421462522845 0.03390931039545374 -0.02412262068418552 -0.01742925238949198 -0.01252527699155896 0.005743687852676828 -0.03026901855031253 -0.01758527490379978 -0.0416781504492264 
-0.06800941890798544 -0.01631937374930263 -0.00730246394863477 -0.0593480384276171 -0.03138366736657458 0.01359934059388772 -0.004076073853353746 -0.01716600701847847 -0.04905059477552864 0.03783883795020364 -0.05291364826774708 0.006204706557896961 -0.01865142366282618 0.003328345547025987 -0.03177191691346326 -0.1045548875122905 -0.01612871295018154 0.05753799464226507 
-0.05656639663364536 0.003334914964824515 0.007273157435183914 -0.0220095467148154 -0.01857572204742184 -0.0003467834028005501 -0.007532010749124087 -0.003519024008006571 -0.09188917267785776 -0.05030580097022599 0.001760625688927019 0.05362260189375735 -0.03454691108970347 -0.003602792489872617 -0.02297987299968011 -0.01395518307451062 0.008112187713113011 0.01042653774835218 
-0.1230355957222918 0.002256351430254973 0.007194394354933578 -0.05758778521258964 0.01027671439685505 0.003258629575050845 -0.02445444997165765 0.00847606649571178 -0.08937911095036681 -0.04435420420468132 -0.004698941298641288 0.03988252484447346 -0.01904863348129827 0.05667491401866786 0.0191497637347551 -0.005003812710214841 0.03391830585975959 -0.02930833364797942 
0.01121932740124062 -0.009801801723992566 -0.00724213551297827 0.06270901418212778 0.04324698419923136 -0.01307724682191956 -0.008067677949666804 0.01481215248233807 0.05174419600930719 -0.03490755245556924 0.04552243576345198 -0.06933647107931747 0.01241775776464099 0.007855104917474721 0.002356283668015858 -0.06633735653027757 -0.05339109205588353 -0.08891067743624008 
-0.008662581624670103 -0.00953584722849384 0.0002409618360039953 0.1041269387092509 0.0549954065226266 -0.05041538124359081 0.01082328393278758 -0.002661660589186766 0.05158720855195038 -0.02719904984305797 -0.01842245507174081 -0.138311634585287 0.001901979853326474 0.01653134762231351 0.02173997151588432 0.01108540233610439 -0.05236717401256435 -0.08887925883850925 
-0.01577819946408419 -0.02013248214374543 -0.01237496637477108 0.01503569800455342 -0.007199937123154069 -0.02557393162513505 0.01513042705076993 -0.008960834922481282 0.08588668025686247 -0.03269741815218576 -0.02471725855647104 -0.05486172689295842 -0.00601481068946512 -0.002647497523332684 0.04609477115589408 -0.003650089981969914 -0.02506344648071124 -0.00730393426282271 
0.06433058047886268 -0.01156023752042718 0.01675161090232399 -0.006846835494758292 -0.009094770535650767 -0.005169170847070526 -0.009103405372743486 -0.0004550353269646944 -0.03920301518219285 -0.03990083230665598 0.002963209646657098 -0.01271563473803245 0.00983149384041397 -0.005138287960040326 -0.01335761377187978 -0.02815452720224057 -0.01436373137396749 -0.02833308023836484 
-0.02936728998074448 -0.009735018836618771 -0.01549759134253732 -0.0414557325056439 -0.06365721672791952 0.01504355619113476 -0.009048938693976053 -0.02383316424930495 -0.06007601548119049 -0.00112540320537533 0.02843227295064187 0.02991621351387833 -0.01643595808276825 -0.05748061468208371 -0.0361595727323677 0.002823643514487993 -0.02566351779258707 -0.01439393700641237 
-0.01896971619194237 -0.003451581152107852 -0.01997543603670216 -0.02829914739247254 -0.03651946077083466 -0.04185136635977792 0.007465807294625744 -0.01560698548917687 -0.04027434635724821 0.05031092337811416 0.021826393226953 -0.01608955323134263 0.01109721839022806 -0.02086946561382209 -0.02265203309292638 -0.01344457385478914 0.01314079512674355 0.0898277265207085 
0.007631729018077543 0.00197331507669495 -0.002854776414321757 -0.04096346534884491 -0.008550392460361525 -0.01396715523767289 0.007246012446707526 -0.01337433294073708 -0.02388431033962651 0.0281575872877189 0.03456368198737025 0.0006472202183918476 -0.001724125626123069 -0.03741177391225696 0.0001263169784424671 -0.02056229279686525 -0.008700177309887714 0.07215395545799304 
0.01127194020750544 0.01291543180049987 -0.006728688000445785 0.05059768914077853 -0.0157211946750245 -0.004195068098839084 0.00461493428523701 -0.01994202569596236 -0.01888832324418614 -0.0102621309422258 -0.02847792237742289 0.01477937146935411 -0.01342171548709894 -0.02466970930453545 -0.002640957318773594 0.007223558782644923 -0.008537558469361679 0.0210455975369526 
-0.02164682221006583 -0.002343752543681653 -0.01091256760678182 0.01939648110673957 0.01956583376640961 0.02406165753257113 -0.0141883936510167 -0.01555928970110252 -0.003100324947423615 -0.02223866022473226 -0.01915088832089417 -0.003222326150700391 0.007980644395413664 0.003651616366604403 0.003010208773325698 0.006189027862782006 -0.02468102975916164 0.03013937754626904 
-0.01982249308566933 -0.01403755792464514 0.006872196129559803 0.01368537624130024 -0.001682118985832195 0.01704951392192925 -0.0226597671633849 0.01275192288320349 0.04512315134161085 0.01423537384555352 -0.02925671159616183 -0.08508187136806582 0.002922586933950624 -0.01904104354800723 0.0007005530524571347 -0.03872207832206159 -0.07263838552574535 -0.04831081276834319 
0.03408024600137647 -0.006186374023345398 -0.002902780001702459 0.03949532089022413 0.0168616067967402 -0.0706157588565655 0.01036015342721904 0.001052088764253059 0.01443880892999355 0.0126239476027867 -0.09672628702937004 -0.03282082400502397 -0.03612148960864542 -0.004432281412662833 -0.04483117267716871 0.02027344672185154 -0.06310276661909306 -0.05390773489795002 
-0.02512095038883773 -0.01538930691104265 -0.01021618990039424 -0.03749997497862509 0.02274435054551984 -0.04023666762196312 0.02478954223268699 -0.02672458257021786 -0.006419765494634853 -0.03267754164232162 -0.08225104336430529 0.06113589303925487 -0.0272676223931111 -0.004924010917321304 0.01495944527954919 0.02764301706628945 0.001550828433132663 0.01173263796561103 
0.02770889122571964 -0.007742122957947435 -0.007181640599696747 -0.05720738408035933 -0.009262779536290998 -0.04309361155077424 -0.03656156792011039 -0.01353023384373393 -0.03005366451173899 -0.02107383592285313 -0.04971231299628892 -0.006071368619962203 -0.003507764584055152 -0.02343086157470243 -0.02871067077124473 -0.01790206095678015 0.03780310205171292 0.04234860997368544 
-0.04075752364481704 -0.008582431360686416 -0.009385017244396377 -0.05079705790217472 -0.07476313846560925 0.004553239422926319 -0.01004816504256829 -0.03191119386424968 -0.04179980500894026 -0.004576231800682482 0.002041843680947129 0.007034303197472585 -0.005895222367372158 -0.05091120951576156 -0.0258514582344949 0.006355716068351829 0.009050676824235299 -0.04391659705215716 
-0.005379817537776009 -4.47265019425872e-005 -0.02410061941467317 -0.0941460582686222 -0.04341431261789414 -0.02588123413040219 0.03203486729299271 -0.0205626538244828 -0.0163801222253214 0.03455122528462445 -0.0006100488889806726 -0.07349402391116784 0.001471799665131704 -0.02287961934688008 -0.001114340859038126 -0.02753910951921426 0.0132215857252525 0.05187008554473983 
-0.03147801343479632 -0.0008656146513298725 0.002653446292218026 -0.03912668594659472 -0.01100797119842784 -0.03134220239624658 -0.003775550971367574 -0.02474184524991159 0.06674131187261183 0.05714647317843894 0.0198774496055782 -0.0178517237047819 -0.01656521757220847 -0.03640198818448406 -0.00692015945081485 -0.03368777922425348 -0.02800029604650622 -0.01806130618548314 
-0.0055579250219629 0.001350790094809494 0.0006147518372415009 0.001932293188916046 -0.01984797204578434 0.02098462483658097 -0.01757003257212725 -0.02905442497408776 0.07042170995474452 0.03053604086908614 -0.0412925918493834 -0.04109595095480475 -0.02022092798290142 -0.05616614307021391 -0.003852698586912501 -0.03826980707584927 -0.03568904388253552 -0.01606616173715302 
-0.0954839447104692 -0.01353683018991411 0.004846855464182984 0.07924069454705741 -0.01444421438318641 0.03909637746857236 -0.04783843261686641 -0.02396430327703325 0.0640866407317848 0.01737120496793088 -0.1051666294077286 -0.09090646106511677 0.008044569310524935 -0.0547503586883384 0.001517431499914602 -0.003728602751477237 -0.03359981504992393 -0.001379952201623225 
-0.06028856963416835 0.005090159855629671 0.008019740087435678 -0.1082159960371237 0.009804476506060528 0.007464676087250495 -0.03114854594609049 0.01161072533090734 -0.02253822888974853 -0.01851396188566295 -0.02874773741590597 0.01263673601540576 -0.02548515166457218 -0.02269561629196723 -0.0155832489877681 -0.04992474734126013 -0.01107370905195593 -0.1372728572533259 
0.05728699512572288 -0.007402766014564923 -0.004350561056333075 -0.04559906928351849 0.03625241199035095 -0.02708855120127262 -0.00165347182565127 0.01634294349402792 0.004864930736003074 -0.02374044477405304 -0.08823051161952183 -0.01949711819800445 0.0117116317691618 -0.01464083388623255 -0.005905179848407081 -0.04478016195271604 0.01927473199994725 -0.1272957218601254 
0.0890388937861689 -0.007168217257397569 -0.01293174382987338 0.07240033149297838 0.003571373136065501 -0.03909346334843284 0.02792308043172402 0.002055996735672262 0.01609162937885398 -0.01277323010303294 -0.09921628584217861 -0.00369672917368557 -0.002241813717165984 0.01375704439590781 0.01591918579930406 0.02357833730176525 -0.00597694293963342 -0.0496449587277209 
0.01998651344116726 0.01642523166631394 0.004101704479670752 0.04334379441872269 -0.01946995715131198 -0.06001212276770587 0.007915165894836327 0.02078173361884109 -0.06653161316166012 -0.02234243521072951 -0.0395909622041155 0.005434762212525664 0.003213171483228663 -0.021410994396926 -0.02426966757916186 0.03600963613340964 -0.02902364868806426 -0.0144111486973932 
-0.03151499481639961 -0.006614733607806358 -0.007679849735388823 0.02188009423488966 -0.02233591292135334 -0.000712037898557073 -0.02604273000271121 -0.02728470165542472 -0.1343622184123599 0.03088619590330325 0.09295609863832365 0.05041320174960414 -0.0145934418574473 -0.0265836609062164 0.01017548032493504 -0.04663151918009552 -0.0601973464125822 -0.1082736232389683 
-0.02855157381760056 -0.004547392602372849 -0.02836241004019931 -0.02409176442392726 -0.01863498381953339 -0.01411269593099231 0.009966001102346552 -0.02337449175568803 -0.08403732417009427 0.003044332098013251 0.07275167763833507 0.01600254034968945 -0.003690988612218775 0.0367676998965103 0.007122208086447522 -0.08769776984250076 -0.01311531009448316 0.006240698175945835 
-0.02641808127011839 -0.01623775726550884 -0.01041367962291719 -0.1217025638812763 -0.01410106025237199 -0.02196816931245856 -0.003459396091175211 -0.02523379905133546 -0.04961419493058093 -0.03490471963080088 0.006607694735597767 0.04338634563346745 -0.00775184937994274 0.02243219157304029 -0.02803739914263257 -0.0733876891027738 -0.01009368511307205 0.03056305228170211 
-0.06677695638651465 -0.009569341252464315 0.005767411540710701 -0.05486482154853536 0.0113454601508438 -0.03264294614157032 -0.004620733622957515 -0.005664492540155945 -0.07263388852893836 -0.04775316896629224 -0.02549131959628569 0.0781066076102987 -0.03485551654282262 0.01454819759584661 -0.02845925461229396 -0.1019555412494279 0.03133592962090608 -0.0191800931343121 
-0.1851970851053763 -0.001598502346889397 0.001710019528464608 -0.09716858478129221 0.01739864091614431 -0.0166353645242192 -0.03358729019381513 0.005599956134746949 -0.08179051527389329 -0.03546487519953451 -0.08216713015997848 0.006417612967288264 0.009464649612025191 0.03317002507042942 -0.0006780864341873001 -0.0652283747707947 0.03571763200666497 -0.04961393410047901 
-0.05695604404687921 0.006772978166196174 0.01375281501733849 0.03947398958295253 -0.02165086563831765 -0.01406206708185247 -0.04080931922887128 0.004321499945597713 -0.05085601560678876 -0.01279584724183875 -0.02203608755471782 -0.0287365164256966 -0.00872213684756973 -0.05629316387575486 0.0106709718726708 -0.04710869903356159 0.02227728721516 -0.08230017018019227 
0.05451584941219625 -0.001140795139188266 -0.01280462004116181 -0.01887430316403856 -0.02615736936313461 -0.01375701277397554 -0.01603417192023641 0.003210071938571917 -0.0341366421194364 0.02538314399332934 -0.02954857775689975 -0.01076342218454672 -0.02932599638923849 -0.02608692735275693 0.0006714349651202388 -0.06406819160857828 0.006909304598129933 -0.04824247291693033 
0.04621341337206666 -0.006424971094286403 0.002633055327589392 -0.009460727984188972 0.008279174905875571 -0.02173135206913403 -0.008739999771709162 -0.003649793579639652 -0.01910655869850144 -0.01729500870643079 -0.08326590123162751 0.04934084635893425 -0.03562676378087297 -0.04289899364410492 0.01737817849672291 -0.04946675381592539 0.0005368681890723316 0.01022500952749598 
0.002052020147236762 0.005914828089846846 -0.02213024788760944 0.01976337977149783 -0.02214451112075272 -0.05509661595649073 -0.03851103617758073 -0.00237446327970122 -0.01615681453674791 -0.012720949421607 -0.05968638685112667 -0.01325519116406431 0.03020964309306949 -0.001174191877012463 -0.00517545082547055 -0.0766867867945381 0.02492544368056527 0.04838619763882464 
-0.02902639865235514 -0.01708518156347239 0.0030314242109469 -0.01616971664111085 0.01593183615825379 -0.008479638381940871 0.006431500033121728 -0.03606785874339987 -0.0848431397340947 0.01569871960961926 0.04610969092398073 0.01404978044448825 0.01677249468279596 -0.03740590378197036 0.002601348800541034 0.00340507709913092 -0.04492793898798838 -0.08013228760124223 
-0.01216164534790404 -0.007721651356924004 -0.0401588696581993 -0.1198594872657815 0.003847518236090166 -0.03435032484252261 0.0258376839560488 -0.0122541033307042 -0.08388626423051357 -0.03099594546555849 -0.04422525997950882 -0.05741830852864301 0.04549062475695145 0.01396580423007739 -0.01228865016539412 -0.0194513759177329 0.01758642346694812 0.09485355790951923 
0.02073105037363242 0.01702227201502699 -0.01538219189280452 -0.06562139505889847 0.005624749796483416 -0.0009903826850321533 -0.01817034138602833 -0.01175731745343521 -0.003093416100783437 -0.03343996581312637 -0.03558400320189301 -0.01716000176563309 0.005766807445898444 0.001224308760040642 -0.03121205624145656 -0.05695843650985339 0.01596384143439409 -0.007297886306498687 
-0.01886985678478842 -0.002478520561825457 0.001924828964486401 -0.02379863283368804 -0.01101345361421395 -0.005395148940481951 -0.03024254576951737 0.005551400733724849 -0.01274391259118944 0.01386786910880423 -0.08180288081060863 0.01487465746097321 -0.008250145903426853 -0.02152407081420531 -0.05689749476414902 -0.06543113770691869 0.05728698229224971 -0.03743675318869496 
-0.1286167321823764 -0.002391509829784637 0.01374774661268727 0.04827600571839187 -0.03563079497064655 0.007512016836841004 -0.05261716909831364 0.006552996509221124 -0.0228342335463555 -0.00651148639156734 -0.09605614150727068 -0.04923383089047333 0.005054365289294238 -0.04041776197919518 -0.008777585191095835 -0.02463461731549231 -0.007962242049102109 -0.06361748732580065 
-0.0731013566142885 0.008310228248677333 -0.01994913090911717 -0.04754758731336641 0.004105526229521679 0.02993075002199355 -0.02380709906628864 -0.01814182869339493 -0.02667402710825353 -0.0375702355907314 0.0435340700233551 0.1332210625400201 -0.01827174362390322 -0.01529178339772964 -0.001510184192738055 0.01623832496287332 -0.01089145871039673 0.004439303735004746 
-0.01618196592713498 0.001920021081160726 -0.01000497117599231 0.002574714596658861 -0.01485767882013524 0.0143255275620991 -0.01714874553930206 -0.001174672223060065 -0.02446540732791104 -0.02289857290248183 -0.02336059674670809 0.104175220558036 -0.02675753880775607 -0.02097349463056308 0.010315897788913 0.02380232149176995 0.02947850892213947 0.03362035623276734 
0.01918420529602576 0.002232751232231378 -0.02266802147243706 0.008768536947177705 -0.01491484756655244 -0.03589365818385508 0.02147772491215872 0.002197548749343467 0.02380052918093628 -0.04832511982877047 -0.0005389864575922078 0.09444675427883828 0.002852345198744533 -0.007894132384078656 -0.01025365941268123 0.005257242549263829 0.01010952659838175 0.07261388167030586 
-0.01251057868133103 -0.002861251103733408 0.01652292657615714 0.06427596082522821 -0.02745847711307872 -0.06938561691247042 0.02182974195328745 -0.007552283419571402 0.00113918133702387 0.01526271707550147 -0.04138397818821477 -0.005629130776409448 0.01406965855695174 -0.01458245755219181 -0.03244126333576728 -0.03167686577344947 -0.01591632554004017 -0.01348790937117752 
-0.03527231763477815 -0.02719003729284824 0.02331123353033759 0.04071682763376146 -0.01725939986341671 -0.006949044420339997 0.02963911685912812 -0.01272795964869384 0.008827302020789593 -0.01687482105973306 0.01771260594496996 -0.03656300057141826 -0.02324881522397035 0.00355656838414374 -0.02235597567028163 -0.02150507960554194 -0.01187079923299164 -0.07641460612360319 
0.02472603742632587 -0.006071652457946798 -0.003226938232751994 0.01491158347850655 -0.0344730570989721 -0.03985179591711774 0.02072429459388344 -0.0008892469197209231 0.03038452124727094 0.0007332991118070521 -0.05048696978026954 -0.08093906512517904 0.0113382416576981 -0.003395013237586528 -0.0008622386395764611 0.0617859682797754 -0.05008364704699824 0.03762025307150495 
-0.07226866342390366 -0.001368495848962048 -0.003137494992072488 0.05134547754546751 -0.02499882094620235 0.02453407542344282 -0.02321260070303658 -0.008675324446907841 -0.004896391586528765 0.0117928017414823 -0.02384853600891489 -0.08200051993916104 -0.01991482316151401 0.03792773526896879 0.03458947956700546 0.01436593162647657 -0.005551381557923675 0.05735009795292686 
-0.005426650797955143 0.006955413078612855 -0.01842269337790321 0.01597415039915495 -0.02382723896227446 0.01777507031782461 0.01062625055225362 -0.009002630245959962 -0.01789780724455318 0.009930465836273897 0.007415201376713878 -0.07223437906081406 -0.007473191663121793 0.03895120391897358 0.01568630421451285 0.01434740565771055 -0.03168281782817302 0.02075781070411455 
0.008967099695047262 0.01195668932713177 -0.02910233916844391 -0.03354368736624649 0.008466389650658891 0.003620099770397113 -0.01786845300287165 -0.02404837589781862 -0.01282778873962413 -0.005836321120938057 0.01407246487996112 0.06115204606878923 -0.024285300532693 0.0126599762834969 -0.01662037010749034 -0.01835310710526459 -0.01912594384601116 -0.00442980305651934 
-0.07160095431950397 -0.008724297277671879 -0.008990850987181706 -0.05638750637837087 0.001577360713179576 -0.007239239292832725 -0.02708488775516087 -0.02496662560600003 -0.04115481217112029 -0.007874987199766727 0.004683228092002682 0.06296149146006216 0.01013722134517979 -0.04073898965410298 0.02144487843624136 -0.02388399795876737 0.01842845643600693 0.01525393287952148 
-0.0401269119276707 0.008362770673781206 0.00228743440407576 -0.0007436195855981766 -0.01122524286384039 -0.03402012201026519 -0.02608528748784913 0.003320420446309709 -0.03480386786191414 -0.005328101499178542 -0.02373069408000938 0.001782793689419322 -0.009111507572346063 0.00642692044310285 -0.0136508126215236 0.07256560251925844 0.02034489710353953 -0.009818012961995927 
-0.03198750412405716 -0.002114749633538444 -0.002937984679712557 0.005478143567357364 -0.005823826993187251 -0.02562377384481553 -0.02103487214627811 0.007425880212077916 -0.05485781193046262 -0.03167441719388566 -0.0005252674377958544 0.003562919035238272 0.0004231743884394086 0.03059252342795913 -0.03332827254320982 0.08461239082952306 0.01289083459359535 0.01687707956692127 
-0.06346582476366883 -0.02348590131581748 0.024623428386163 -0.06184316675084531 -0.04082526888823884 -0.04593099924357213 -0.005809588376644129 -0.007752190704111461 -0.006423226121927067 0.02762211394721836 -0.02205316696009007 0.00064504822001516 -0.01424662840389774 -0.008530895621549689 -0.02479117573763802 0.02447538612673854 -0.0184874201061758 -0.04166786625800559 
-0.08381572080004401 -0.007591672769040754 0.02559681832402392 0.02642120156754748 -0.002579022964538881 0.01991579290335183 0.02668771122237479 -0.01091419572552458 -0.00271621676793368 -0.01957472545847284 -0.006065659751709385 -0.03132171773064545 -0.02582058207590304 -0.08617360285550257 -0.009880425927445532 0.007270449991283979 -0.03269102401205529 -0.105767124584694 
